/* Organism #42 Fitness: 1.003 Error: 0.997 */
genomestart 42
trait 1 0.746035 0.383382 1 0 0.297224 0.474844 0.620467 0.0423265 
node 1 1 0
node 2 1 1
node 3 1 1
node 4 1 1
node 5 1 1
node 6 1 1
node 7 1 1
node 8 1 1
node 9 1 1
node 10 1 2
node 11 1 2
node 12 1 2
node 13 1 2
node 14 1 2
node 15 1 2
node 16 1 2
node 17 1 2
node 18 1 2
node 19 1 2
node 20 1 2
node 21 1 3
node 22 1 3
node 23 1 3
node 24 1 3
node 25 1 3
node 27 1 3
node 45 1 3
gene 1 1 21 -0.521778 0 1 -0.521778 1
gene 1 1 22 0.604893 0 2 0.604893 1
gene 1 1 23 -0.774368 0 3 -0.774368 1
gene 1 1 24 0.734528 0 4 0.734528 1
gene 1 1 25 0.858059 0 5 0.858059 1
gene 1 1 27 -3.58752 0 7 -3.58752 1
gene 1 2 22 -0.785711 0 10 -0.785711 1
gene 1 2 23 -3.67426 0 11 -3.67426 1
gene 1 2 24 1.65866 0 12 1.65866 1
gene 1 2 25 -6.80168 0 13 -6.80168 1
gene 1 2 27 -2.80895 0 15 -2.80895 1
gene 1 3 22 -0.172561 0 18 -0.172561 1
gene 1 3 23 3.43699 0 19 3.43699 1
gene 1 3 24 2.1914 0 20 2.1914 1
gene 1 3 27 -2.46925 0 23 -2.46925 1
gene 1 4 21 0.0714232 0 25 0.0714232 1
gene 1 4 22 -2.02345 0 26 -2.02345 1
gene 1 4 23 7.29502 0 27 7.29502 1
gene 1 4 24 0.582079 0 28 0.582079 1
gene 1 4 25 -0.95692 0 29 -0.95692 1
gene 1 5 21 -3.06284 0 33 -3.06284 1
gene 1 5 22 -1.41441 0 34 -1.41441 1
gene 1 5 23 6.90009 0 35 6.90009 1
gene 1 5 24 -0.737101 0 36 -0.737101 1
gene 1 5 25 4.00276 0 37 4.00276 1
gene 1 5 27 -4.31154 0 39 -4.31154 1
gene 1 6 21 3.08174 0 41 3.08174 1
gene 1 6 22 -3.32112 0 42 -3.32112 1
gene 1 6 23 0.741367 0 43 0.741367 1
gene 1 6 24 1.82047 0 44 1.82047 1
gene 1 6 25 1.72185 0 45 1.72185 1
gene 1 6 27 -1.8102 0 47 -1.8102 1
gene 1 7 21 -1.20961 0 49 -1.20961 1
gene 1 7 22 -0.997765 0 50 -0.997765 1
gene 1 7 23 1.42138 0 51 1.42138 1
gene 1 7 24 -3.05964 0 52 -3.05964 1
gene 1 7 25 -4.5513 0 53 -4.5513 1
gene 1 7 27 -1.96679 0 55 -1.96679 1
gene 1 8 21 1.1859 0 57 1.1859 1
gene 1 8 23 1.74897 0 59 1.74897 1
gene 1 8 24 8 0 60 8 1
gene 1 8 25 2.17838 0 61 2.17838 1
gene 1 8 27 -0.404789 0 63 -0.404789 1
gene 1 9 21 1.4517 0 65 1.4517 1
gene 1 9 22 -7.7589 0 66 -7.7589 1
gene 1 9 23 5.16197 0 67 5.16197 1
gene 1 9 24 0.590983 0 68 0.590983 1
gene 1 9 25 -2.52657 0 69 -2.52657 1
gene 1 9 27 -2.71528 0 71 -2.71528 1
gene 1 21 10 -0.756212 0 73 -0.756212 1
gene 1 21 11 5.9627 0 74 5.9627 1
gene 1 21 12 7.02791 0 75 7.02791 1
gene 1 21 14 1.7625 0 77 1.7625 1
gene 1 21 15 -1.26636 0 78 -1.26636 1
gene 1 21 16 -3.52474 0 79 -3.52474 1
gene 1 21 17 -2.3648 0 80 -2.3648 1
gene 1 21 18 -0.0773604 0 81 -0.0773604 1
gene 1 21 19 -4.29313 0 82 -4.29313 1
gene 1 21 20 -0.48275 0 83 -0.48275 1
gene 1 22 10 3.50241 0 84 3.50241 1
gene 1 22 11 -5.34097 0 85 -5.34097 1
gene 1 22 12 -2.94178 0 86 -2.94178 1
gene 1 22 13 -0.245415 0 87 -0.245415 1
gene 1 22 14 0.553819 0 88 0.553819 1
gene 1 22 15 -1.0858 0 89 -1.0858 1
gene 1 22 16 6.64803 0 90 6.64803 1
gene 1 22 17 -1.60998 0 91 -1.60998 1
gene 1 22 18 3.75015 0 92 3.75015 1
gene 1 22 19 -0.236303 0 93 -0.236303 1
gene 1 22 20 2.19594 0 94 2.19594 1
gene 1 23 10 -1.14968 0 95 -1.14968 1
gene 1 23 11 -2.03535 0 96 -2.03535 1
gene 1 23 13 0.442196 0 98 0.442196 1
gene 1 23 14 4.07034 0 99 4.07034 1
gene 1 23 15 -3.24171 0 100 -3.24171 1
gene 1 23 16 -2.77447 0 101 -2.77447 1
gene 1 23 18 5.08338 0 103 5.08338 1
gene 1 23 19 2.17957 0 104 2.17957 1
gene 1 23 20 3.79842 0 105 3.79842 1
gene 1 24 10 -5.30188 0 106 -5.30188 1
gene 1 24 11 -3.12364 0 107 -3.12364 1
gene 1 24 12 2.61013 0 108 2.61013 1
gene 1 24 13 -6.37406 0 109 -6.37406 1
gene 1 24 14 3.74939 0 110 3.74939 1
gene 1 24 15 3.90411 0 111 3.90411 1
gene 1 24 16 0.33535 0 112 0.33535 1
gene 1 24 17 2.97356 0 113 2.97356 1
gene 1 24 18 2.23383 0 114 2.23383 1
gene 1 24 19 0.440117 0 115 0.440117 1
gene 1 24 20 -1.0728 0 116 -1.0728 1
gene 1 25 10 -2.65568 0 117 -2.65568 1
gene 1 25 11 1.02881 0 118 1.02881 1
gene 1 25 12 0.103556 0 119 0.103556 1
gene 1 25 13 -3.5787 0 120 -3.5787 1
gene 1 25 14 -0.0800819 0 121 -0.0800819 1
gene 1 25 15 -7.24669 0 122 -7.24669 1
gene 1 25 16 0.17336 0 123 0.17336 1
gene 1 25 17 0.857086 0 124 0.857086 1
gene 1 25 18 -8 0 125 -8 1
gene 1 25 19 0.843007 0 126 0.843007 1
gene 1 25 20 -3.99667 0 127 -3.99667 1
gene 1 27 10 -0.537983 0 139 -0.537983 1
gene 1 27 11 0.937309 0 140 0.937309 1
gene 1 27 12 -5.53817 0 141 -5.53817 1
gene 1 27 13 -1.0053 0 142 -1.0053 1
gene 1 27 14 -2.27634 0 143 -2.27634 1
gene 1 27 15 -1.26303 0 144 -1.26303 1
gene 1 27 16 -0.266434 0 145 -0.266434 1
gene 1 27 17 -1.8119 0 146 -1.8119 1
gene 1 27 18 0.497019 0 147 0.497019 1
gene 1 27 20 -0.477815 0 149 -0.477815 1
gene 1 17 11 0.716045 0 294 0.716045 1
gene 1 3 45 -0.770472 0 578 -0.770472 1
gene 1 45 21 -0.215206 0 579 -0.215206 1
gene 1 20 19 2.02774 0 975 2.02774 1
gene 1 17 10 0.467877 0 1050 0.467877 1
gene 1 12 18 -2.04421 0 1554 -2.04421 1
gene 1 9 13 -2.41105 0 1788 -2.41105 1
gene 1 8 19 3.10892 0 1877 3.10892 1
gene 1 6 12 -0.620194 0 2776 -0.620194 1
gene 1 7 10 -3.75313 0 2849 -3.75313 1
gene 1 15 15 0.610645 1 3778 0.610645 1
gene 1 24 45 2.36822 0 4612 2.36822 1
gene 1 6 19 -0.677127 0 5650 -0.677127 1
gene 1 45 45 0.614929 1 5938 0.614929 1
gene 1 18 18 -0.617604 1 6354 -0.617604 1
gene 1 14 15 3.69407 0 6578 3.69407 1
gene 1 21 23 -0.570411 0 6707 -0.570411 1
gene 1 27 25 1.47472 0 7490 1.47472 1
gene 1 11 22 3.12944 1 7993 3.12944 1
gene 1 21 21 0.78856 1 8118 0.78856 1
gene 1 10 10 -1.07809 1 9453 -1.07809 1
gene 1 45 25 1.19282 0 9665 1.19282 1
gene 1 16 13 -2.90906 0 9751 -2.90906 1
gene 1 1 17 -0.515927 0 9996 -0.515927 1
gene 1 21 45 -3.07365 1 10094 -3.07365 1
gene 1 18 15 -1.05293 0 10311 -1.05293 1
gene 1 18 17 0.202169 0 10440 0.202169 1
gene 1 16 15 -0.559361 0 10697 -0.559361 1
genomeend 42
