/* Organism #415 Fitness: 1.004 Error: 0.996 */
genomestart 415
trait 1 0.186789 0.070122 0.183011 0.0269942 0.617837 0.773449 0.795648 0 
node 1 1 0
node 2 1 1
node 3 1 1
node 4 1 1
node 5 1 1
node 6 1 1
node 7 1 1
node 8 1 1
node 9 1 1
node 10 1 2
node 11 1 2
node 12 1 2
node 13 1 2
node 14 1 2
node 15 1 2
node 16 1 2
node 17 1 2
node 18 1 2
node 19 1 2
node 20 1 2
node 21 1 3
node 23 1 3
node 24 1 3
node 25 1 3
node 26 1 3
node 27 1 3
gene 1 1 21 -0.159812 0 1 -0.159812 1
gene 1 1 23 4.58325 0 3 4.58325 1
gene 1 1 24 -0.125194 0 4 -0.125194 1
gene 1 1 25 -0.11531 0 5 -0.11531 1
gene 1 1 26 0.365748 0 6 0.365748 1
gene 1 1 27 3.33007 0 7 3.33007 1
gene 1 2 21 -1.96186 0 9 -1.96186 1
gene 1 2 23 1.15786 0 11 1.15786 1
gene 1 2 24 1.26798 0 12 1.26798 1
gene 1 2 25 1.96424 0 13 1.96424 1
gene 1 2 26 1.11498 0 14 1.11498 1
gene 1 2 27 -4.9369 0 15 -4.9369 1
gene 1 3 21 5.1271 0 17 5.1271 1
gene 1 3 23 -1.6283 0 19 -1.6283 1
gene 1 3 24 0.245525 0 20 0.245525 1
gene 1 3 25 2.6673 0 21 2.6673 1
gene 1 3 26 -0.666342 0 22 -0.666342 1
gene 1 3 27 -0.671227 0 23 -0.671227 1
gene 1 4 21 0.372664 0 25 0.372664 1
gene 1 4 24 -0.429412 0 28 -0.429412 1
gene 1 4 25 2.72538 0 29 2.72538 1
gene 1 4 26 -2.16397 0 30 -2.16397 1
gene 1 4 27 0.316615 0 31 0.316615 1
gene 1 5 21 1.25809 0 33 1.25809 1
gene 1 5 23 -1.59675 0 35 -1.59675 1
gene 1 5 24 1.52362 0 36 1.52362 1
gene 1 5 25 -0.494996 0 37 -0.494996 1
gene 1 5 26 0.951502 0 38 0.951502 1
gene 1 5 27 -1.17971 0 39 -1.17971 1
gene 1 6 21 1.50563 0 41 1.50563 1
gene 1 6 23 2.81131 0 43 2.81131 1
gene 1 6 24 1.53971 0 44 1.53971 1
gene 1 6 25 0.681932 0 45 0.681932 1
gene 1 6 26 3.28727 0 46 3.28727 1
gene 1 6 27 0.712602 0 47 0.712602 1
gene 1 7 21 0.829446 0 49 0.829446 1
gene 1 7 23 -3.79027 0 51 -3.79027 1
gene 1 7 24 1.01328 0 52 1.01328 1
gene 1 7 25 1.70356 0 53 1.70356 1
gene 1 7 26 -2.12154 0 54 -2.12154 1
gene 1 7 27 -2.62177 0 55 -2.62177 1
gene 1 8 21 -3.00682 0 57 -3.00682 1
gene 1 8 23 0.693134 0 59 0.693134 1
gene 1 8 24 2.19674 0 60 2.19674 1
gene 1 8 25 -0.023767 0 61 -0.023767 1
gene 1 8 26 -1.74141 0 62 -1.74141 1
gene 1 8 27 -1.20966 0 63 -1.20966 1
gene 1 9 21 -2.0559 0 65 -2.0559 1
gene 1 9 23 1.19462 0 67 1.19462 1
gene 1 9 24 0.61594 0 68 0.61594 1
gene 1 9 25 3.85009 0 69 3.85009 1
gene 1 9 26 -1.91306 0 70 -1.91306 1
gene 1 9 27 0.259062 0 71 0.259062 1
gene 1 21 10 3.26597 0 73 3.26597 1
gene 1 21 11 -1.64678 0 74 -1.64678 1
gene 1 21 12 -2.57164 0 75 -2.57164 1
gene 1 21 13 2.59025 0 76 2.59025 1
gene 1 21 14 1.07806 0 77 1.07806 1
gene 1 21 15 2.67245 0 78 2.67245 1
gene 1 21 16 1.21893 0 79 1.21893 1
gene 1 21 17 -1.16886 0 80 -1.16886 1
gene 1 21 18 0.707545 0 81 0.707545 1
gene 1 21 19 3.06207 0 82 3.06207 1
gene 1 21 20 -0.417824 0 83 -0.417824 1
gene 1 23 10 -3.05186 0 95 -3.05186 1
gene 1 23 11 -1.66326 0 96 -1.66326 1
gene 1 23 12 1.55681 0 97 1.55681 1
gene 1 23 13 -1.56611 0 98 -1.56611 1
gene 1 23 14 0.167334 0 99 0.167334 1
gene 1 23 15 1.77751 0 100 1.77751 1
gene 1 23 16 -1.88699 0 101 -1.88699 1
gene 1 23 17 -2.31672 0 102 -2.31672 1
gene 1 23 18 1.04529 0 103 1.04529 1
gene 1 23 19 2.35658 0 104 2.35658 1
gene 1 23 20 1.56361 0 105 1.56361 1
gene 1 24 10 2.03398 0 106 2.03398 1
gene 1 24 11 -0.726947 0 107 -0.726947 1
gene 1 24 12 2.11397 0 108 2.11397 1
gene 1 24 13 -1.42862 0 109 -1.42862 1
gene 1 24 14 -0.219964 0 110 -0.219964 1
gene 1 24 15 -3.62465 0 111 -3.62465 1
gene 1 24 16 0.687992 0 112 0.687992 1
gene 1 24 17 -0.222991 0 113 -0.222991 1
gene 1 24 18 2.09764 0 114 2.09764 1
gene 1 24 19 -1.57165 0 115 -1.57165 1
gene 1 24 20 -2.356 0 116 -2.356 1
gene 1 25 10 1.19598 0 117 1.19598 1
gene 1 25 11 0.705902 0 118 0.705902 1
gene 1 25 12 0.330365 0 119 0.330365 1
gene 1 25 13 -3.24738 0 120 -3.24738 1
gene 1 25 14 -0.0781288 0 121 -0.0781288 1
gene 1 25 15 -3.02236 0 122 -3.02236 1
gene 1 25 16 3.56007 0 123 3.56007 1
gene 1 25 17 -2.99777 0 124 -2.99777 1
gene 1 25 18 -1.11482 0 125 -1.11482 1
gene 1 25 19 -1.16904 0 126 -1.16904 1
gene 1 25 20 2.51978 0 127 2.51978 1
gene 1 26 10 1.97815 0 128 1.97815 1
gene 1 26 12 -1.39799 0 130 -1.39799 1
gene 1 26 13 -1.14921 0 131 -1.14921 1
gene 1 26 14 0.828157 0 132 0.828157 1
gene 1 26 15 -1.47324 0 133 -1.47324 1
gene 1 26 16 -0.205019 0 134 -0.205019 1
gene 1 26 17 -0.49091 0 135 -0.49091 1
gene 1 26 18 -2.74156 0 136 -2.74156 1
gene 1 26 19 1.55388 0 137 1.55388 1
gene 1 26 20 -0.544984 0 138 -0.544984 1
gene 1 27 10 -1.53943 0 139 -1.53943 1
gene 1 27 11 -1.85286 0 140 -1.85286 1
gene 1 27 12 -3.5811 0 141 -3.5811 1
gene 1 27 13 0.30192 0 142 0.30192 1
gene 1 27 14 -0.832705 0 143 -0.832705 1
gene 1 27 15 0.412685 0 144 0.412685 1
gene 1 27 16 0.91244 0 145 0.91244 1
gene 1 27 17 1.47708 0 146 1.47708 1
gene 1 27 18 -1.14491 0 147 -1.14491 1
gene 1 27 19 -0.00710704 0 148 -0.00710704 1
gene 1 27 20 -2.30292 0 149 -2.30292 1
gene 1 12 20 -1.00404 0 178 -1.00404 1
gene 1 2 10 -0.708576 0 977 -0.708576 1
gene 1 12 19 1.46313 0 1308 1.46313 1
gene 1 10 20 0.393865 0 1585 0.393865 1
gene 1 14 12 -1.39018 0 1911 -1.39018 1
gene 1 20 20 -0.508596 1 1949 -0.508596 1
gene 1 12 16 -0.904047 0 2788 -0.904047 1
genomeend 415
