/* Organism #374 Fitness: 1.005 Error: 0.995 */
genomestart 374
trait 1 0.900497 1 0.12575 0.567687 0.909236 0.249494 0.799122 0 
node 1 1 0
node 2 1 1
node 3 1 1
node 4 1 1
node 5 1 1
node 6 1 1
node 7 1 1
node 8 1 1
node 9 1 1
node 10 1 2
node 11 1 2
node 12 1 2
node 13 1 2
node 14 1 2
node 15 1 2
node 16 1 2
node 17 1 2
node 18 1 2
node 19 1 2
node 20 1 2
node 21 1 3
node 23 1 3
node 25 1 3
node 26 1 3
node 28 1 3
gene 1 1 21 -0.884025 0 1 -0.884025 1
gene 1 1 23 -2.54704 0 3 -2.54704 1
gene 1 1 25 2.6719 0 5 2.6719 1
gene 1 1 26 2.27407 0 6 2.27407 1
gene 1 1 28 -0.38805 0 8 -0.38805 1
gene 1 2 21 -1.31997 0 9 -1.31997 1
gene 1 2 23 -1.87374 0 11 -1.87374 1
gene 1 2 25 -1.31769 0 13 -1.31769 1
gene 1 2 26 -2.32718 0 14 -2.32718 1
gene 1 2 28 1.3766 0 16 1.3766 1
gene 1 3 21 2.09701 0 17 2.09701 1
gene 1 3 23 1.24819 0 19 1.24819 1
gene 1 3 25 -1.79249 0 21 -1.79249 1
gene 1 3 26 1.22815 0 22 1.22815 1
gene 1 3 28 -0.243648 0 24 -0.243648 1
gene 1 4 21 -0.909332 0 25 -0.909332 1
gene 1 4 23 3.85327 0 27 3.85327 1
gene 1 4 25 0.133065 0 29 0.133065 1
gene 1 4 26 1.75731 0 30 1.75731 1
gene 1 4 28 0.576271 0 32 0.576271 1
gene 1 5 21 -0.534782 0 33 -0.534782 1
gene 1 5 23 -3.084 0 35 -3.084 1
gene 1 5 25 4.27527 0 37 4.27527 1
gene 1 5 26 0.961831 0 38 0.961831 1
gene 1 5 28 0.725542 0 40 0.725542 1
gene 1 6 21 -5.22186 0 41 -5.22186 1
gene 1 6 23 0.5502 0 43 0.5502 1
gene 1 6 25 1.89451 0 45 1.89451 1
gene 1 6 26 -0.479474 0 46 -0.479474 1
gene 1 6 28 -4.70362 0 48 -4.70362 1
gene 1 7 21 -0.460138 0 49 -0.460138 1
gene 1 7 23 -0.222363 0 51 -0.222363 1
gene 1 7 25 -1.1157 0 53 -1.1157 1
gene 1 7 26 0.429955 0 54 0.429955 1
gene 1 7 28 0.557823 0 56 0.557823 1
gene 1 8 21 -1.00947 0 57 -1.00947 1
gene 1 8 23 0.499215 0 59 0.499215 1
gene 1 8 25 0.57842 0 61 0.57842 1
gene 1 8 26 -1.32353 0 62 -1.32353 1
gene 1 8 28 0.675073 0 64 0.675073 1
gene 1 9 21 -1.29447 0 65 -1.29447 1
gene 1 9 23 -0.230204 0 67 -0.230204 1
gene 1 9 25 -0.0571531 0 69 -0.0571531 1
gene 1 9 26 1.9661 0 70 1.9661 1
gene 1 9 28 1.77289 0 72 1.77289 1
gene 1 21 10 -0.722346 0 73 -0.722346 1
gene 1 21 11 -0.395853 0 74 -0.395853 1
gene 1 21 12 -1.44581 0 75 -1.44581 1
gene 1 21 13 1.23843 0 76 1.23843 1
gene 1 21 14 -0.930268 0 77 -0.930268 1
gene 1 21 15 -0.599276 0 78 -0.599276 1
gene 1 21 16 -1.48536 0 79 -1.48536 1
gene 1 21 17 0.613606 0 80 0.613606 1
gene 1 21 18 1.10087 0 81 1.10087 1
gene 1 21 19 -1.42173 0 82 -1.42173 1
gene 1 21 20 1.57594 0 83 1.57594 1
gene 1 23 10 0.278347 0 95 0.278347 1
gene 1 23 11 -0.807469 0 96 -0.807469 1
gene 1 23 12 -1.22574 0 97 -1.22574 1
gene 1 23 13 1.54007 0 98 1.54007 1
gene 1 23 14 0.319385 0 99 0.319385 1
gene 1 23 15 3.72453 0 100 3.72453 1
gene 1 23 16 1.70705 0 101 1.70705 1
gene 1 23 17 -2.10397 0 102 -2.10397 1
gene 1 23 18 -3.07431 0 103 -3.07431 1
gene 1 23 19 4.16048 0 104 4.16048 1
gene 1 23 20 -2.50657 0 105 -2.50657 1
gene 1 25 10 -1.70965 0 117 -1.70965 1
gene 1 25 11 -4.49423 0 118 -4.49423 1
gene 1 25 12 2.75925 0 119 2.75925 1
gene 1 25 13 -1.7798 0 120 -1.7798 1
gene 1 25 14 -0.696084 0 121 -0.696084 1
gene 1 25 15 1.5653 0 122 1.5653 1
gene 1 25 16 0.0869328 0 123 0.0869328 1
gene 1 25 17 -0.713404 0 124 -0.713404 1
gene 1 25 18 3.71939 0 125 3.71939 1
gene 1 25 19 2.58447 0 126 2.58447 1
gene 1 25 20 3.51985 0 127 3.51985 1
gene 1 26 11 0.0534258 0 129 0.0534258 1
gene 1 26 12 4.89544 0 130 4.89544 1
gene 1 26 13 2.00071 0 131 2.00071 1
gene 1 26 14 0.516256 0 132 0.516256 1
gene 1 26 15 -0.709359 0 133 -0.709359 1
gene 1 26 16 -0.530746 0 134 -0.530746 1
gene 1 26 17 0.338983 0 135 0.338983 1
gene 1 26 18 0.0396547 0 136 0.0396547 1
gene 1 26 19 -1.21032 0 137 -1.21032 1
gene 1 26 20 0.217096 0 138 0.217096 1
gene 1 28 10 -0.427349 0 150 -0.427349 1
gene 1 28 11 1.92729 0 151 1.92729 1
gene 1 28 12 -0.987624 0 152 -0.987624 1
gene 1 28 13 0.0466562 0 153 0.0466562 1
gene 1 28 14 -0.419251 0 154 -0.419251 1
gene 1 28 15 -0.402205 0 155 -0.402205 1
gene 1 28 16 -1.18465 0 156 -1.18465 1
gene 1 28 17 0.30392 0 157 0.30392 1
gene 1 28 18 0.855986 0 158 0.855986 1
gene 1 28 19 -0.240714 0 159 -0.240714 1
gene 1 28 20 1.71778 0 160 1.71778 1
gene 1 25 28 -0.571383 0 290 -0.571383 1
gene 1 6 18 0.624298 0 645 0.624298 1
gene 1 12 15 -0.7258 0 892 -0.7258 1
gene 1 1 12 -0.864553 0 1093 -0.864553 1
gene 1 16 15 -1.33607 0 2185 -1.33607 1
genomeend 374
