/* Organism #298 Fitness: 1.004 Error: 0.996 */
genomestart 298
trait 1 1 0.0676773 1 0.0647777 0.25356 0.921644 0 0.515216 
node 1 1 0
node 2 1 1
node 3 1 1
node 4 1 1
node 5 1 1
node 6 1 1
node 7 1 1
node 8 1 1
node 9 1 1
node 10 1 2
node 11 1 2
node 12 1 2
node 13 1 2
node 14 1 2
node 15 1 2
node 16 1 2
node 17 1 2
node 18 1 2
node 19 1 2
node 20 1 2
node 23 1 3
node 24 1 3
node 25 1 3
node 26 1 3
node 27 1 3
node 28 1 3
gene 1 1 23 -0.642009 0 3 -0.642009 1
gene 1 1 24 -5.42766 0 4 -5.42766 1
gene 1 1 25 1.33454 0 5 1.33454 1
gene 1 1 26 1.32843 0 6 1.32843 1
gene 1 1 27 -1.54309 0 7 -1.54309 1
gene 1 1 28 1.25987 0 8 1.25987 1
gene 1 2 23 -2.2647 0 11 -2.2647 1
gene 1 2 24 1.0167 0 12 1.0167 1
gene 1 2 25 1.19238 0 13 1.19238 1
gene 1 2 26 -0.848024 0 14 -0.848024 1
gene 1 2 27 -2.84375 0 15 -2.84375 1
gene 1 2 28 0.11196 0 16 0.11196 1
gene 1 3 23 -1.06089 0 19 -1.06089 1
gene 1 3 24 4.0688 0 20 4.0688 1
gene 1 3 25 2.63853 0 21 2.63853 1
gene 1 3 26 -6.61141 0 22 -6.61141 1
gene 1 3 28 -3.523 0 24 -3.523 1
gene 1 4 23 -0.686596 0 27 -0.686596 1
gene 1 4 24 -1.48912 0 28 -1.48912 1
gene 1 4 26 -2.30622 0 30 -2.30622 1
gene 1 4 28 -1.07585 0 32 -1.07585 1
gene 1 5 23 0.735735 0 35 0.735735 1
gene 1 5 25 1.1955 0 37 1.1955 1
gene 1 5 26 -0.185581 0 38 -0.185581 1
gene 1 5 27 -2.5644 0 39 -2.5644 1
gene 1 6 23 -1.92414 0 43 -1.92414 1
gene 1 6 24 2.96227 0 44 2.96227 1
gene 1 6 25 -1.44005 0 45 -1.44005 1
gene 1 6 26 -0.0983686 0 46 -0.0983686 1
gene 1 6 27 0.747159 0 47 0.747159 1
gene 1 6 28 -1.31834 0 48 -1.31834 1
gene 1 7 23 5.89706 0 51 5.89706 1
gene 1 7 24 2.39026 0 52 2.39026 1
gene 1 7 26 1.59343 0 54 1.59343 1
gene 1 7 27 2.65963 0 55 2.65963 1
gene 1 8 23 1.06973 0 59 1.06973 1
gene 1 8 25 1.89323 0 61 1.89323 1
gene 1 8 26 2.61356 0 62 2.61356 1
gene 1 8 27 2.39093 0 63 2.39093 1
gene 1 8 28 -3.84341 0 64 -3.84341 1
gene 1 9 23 -1.26 0 67 -1.26 1
gene 1 9 24 -1.01356 0 68 -1.01356 1
gene 1 9 25 -0.248225 0 69 -0.248225 1
gene 1 9 28 -2.7632 0 72 -2.7632 1
gene 1 23 10 5.37582 0 95 5.37582 1
gene 1 23 11 0.985173 0 96 0.985173 1
gene 1 23 12 8 0 97 8 1
gene 1 23 14 -0.839034 0 99 -0.839034 1
gene 1 23 15 -0.207395 0 100 -0.207395 1
gene 1 23 16 8 0 101 8 1
gene 1 23 17 -2.70306 0 102 -2.70306 1
gene 1 23 18 0.367683 0 103 0.367683 1
gene 1 23 19 -0.866548 0 104 -0.866548 1
gene 1 23 20 2.46239 0 105 2.46239 1
gene 1 24 10 6.69196 0 106 6.69196 1
gene 1 24 11 -3.89404 0 107 -3.89404 1
gene 1 24 12 0.178771 0 108 0.178771 1
gene 1 24 13 0.364508 0 109 0.364508 1
gene 1 24 14 5.38858 0 110 5.38858 1
gene 1 24 15 -2.40803 0 111 -2.40803 1
gene 1 24 16 1.12359 0 112 1.12359 1
gene 1 24 17 5.51894 0 113 5.51894 1
gene 1 24 19 -0.060287 0 115 -0.060287 1
gene 1 25 10 -2.67394 0 117 -2.67394 1
gene 1 25 11 -0.508401 0 118 -0.508401 1
gene 1 25 12 4.11871 0 119 4.11871 1
gene 1 25 13 -0.719915 0 120 -0.719915 1
gene 1 25 14 -0.173547 0 121 -0.173547 1
gene 1 25 15 -1.604 0 122 -1.604 1
gene 1 25 16 3.15904 0 123 3.15904 1
gene 1 25 19 0.32 0 126 0.32 1
gene 1 26 10 1.04957 0 128 1.04957 1
gene 1 26 11 0.972153 0 129 0.972153 1
gene 1 26 12 1.47919 0 130 1.47919 1
gene 1 26 13 0.630303 0 131 0.630303 1
gene 1 26 14 4.45268 0 132 4.45268 1
gene 1 26 15 0.578264 0 133 0.578264 1
gene 1 26 16 -0.588985 0 134 -0.588985 1
gene 1 26 17 -3.51551 0 135 -3.51551 1
gene 1 26 18 -1.16592 0 136 -1.16592 1
gene 1 26 20 -2.01557 0 138 -2.01557 1
gene 1 27 11 -1.39163 0 140 -1.39163 1
gene 1 27 12 2.66584 0 141 2.66584 1
gene 1 27 13 0.515903 0 142 0.515903 1
gene 1 27 14 1.43943 0 143 1.43943 1
gene 1 27 15 -0.7752 0 144 -0.7752 1
gene 1 27 16 -1.00027 0 145 -1.00027 1
gene 1 27 17 1.09781 0 146 1.09781 1
gene 1 27 18 -1.21658 0 147 -1.21658 1
gene 1 27 19 3.63882 0 148 3.63882 1
gene 1 27 20 -1.22382 0 149 -1.22382 1
gene 1 28 10 1.86324 0 150 1.86324 1
gene 1 28 11 -2.19019 0 151 -2.19019 1
gene 1 28 12 0.209205 0 152 0.209205 1
gene 1 28 14 -1.63644 0 154 -1.63644 1
gene 1 28 16 -0.0928828 0 156 -0.0928828 1
gene 1 28 17 -1.26658 0 157 -1.26658 1
gene 1 28 18 -3.44444 0 158 -3.44444 1
gene 1 28 19 -1.09981 0 159 -1.09981 1
gene 1 28 20 -2.08798 0 160 -2.08798 1
gene 1 18 18 3.19412 1 637 3.19412 1
gene 1 15 11 -0.339611 0 863 -0.339611 1
gene 1 10 18 0.128252 0 1326 0.128252 1
gene 1 19 18 -2.13146 0 1378 -2.13146 1
gene 1 6 16 2.34898 0 1839 2.34898 1
gene 1 12 23 1.83134 1 2318 1.83134 1
gene 1 25 25 -1.1296 1 2938 -1.1296 1
gene 1 14 12 -2.62493 0 4418 -2.62493 1
gene 1 19 14 0.220207 0 4784 0.220207 1
gene 1 19 11 1.25836 0 5168 1.25836 1
gene 1 24 27 1.06938 0 6468 1.06938 1
gene 1 9 26 1.49897 0 7237 1.49897 1
gene 1 12 20 1.80633 0 7352 1.80633 1
gene 1 28 27 0.363391 0 7897 0.363391 1
gene 1 15 15 -0.680068 1 7981 -0.680068 1
gene 1 19 17 -0.698547 0 8202 -0.698547 1
gene 1 10 11 0.513286 0 8410 0.513286 1
gene 1 28 28 -0.315529 1 8605 -0.315529 1
gene 1 5 24 -2.22544 0 8805 -2.22544 1
gene 1 27 26 0.871855 0 8896 0.871855 1
gene 1 24 25 2.3175 0 9105 2.3175 1
gene 1 20 20 -1.39362 1 9764 -1.39362 1
gene 1 8 12 -0.631928 0 9993 -0.631928 1
gene 1 13 20 1.82701 0 10090 1.82701 1
gene 1 26 26 0.324043 1 10168 0.324043 1
gene 1 5 18 -2.1037 0 10353 -2.1037 1
gene 1 17 17 1.44516 1 10475 1.44516 1
gene 1 6 13 3.43216 0 10588 3.43216 1
gene 1 12 26 -0.59924 1 10778 -0.59924 1
gene 1 5 10 -0.109506 0 10881 -0.109506 1
gene 1 28 23 1.15142 0 11062 1.15142 1
gene 1 10 15 0.265694 0 11336 0.265694 1
gene 1 7 10 0.920523 0 11505 0.920523 1
gene 1 3 14 0.789833 0 11660 0.789833 1
gene 1 6 19 0.518684 0 11747 0.518684 1
gene 1 19 19 0.932403 1 11864 0.932403 1
gene 1 17 11 -0.97753 0 11962 -0.97753 1
gene 1 5 13 -0.5431 0 12023 -0.5431 1
genomeend 298
