/* Organism #247 Fitness: 1.003 Error: 0.997 */
genomestart 247
trait 1 0.874159 0.744386 0.213215 0.435067 0.262795 0.355332 0.554288 0.726897 
node 1 1 0
node 2 1 1
node 3 1 1
node 4 1 1
node 5 1 1
node 6 1 1
node 7 1 1
node 8 1 1
node 9 1 1
node 10 1 2
node 11 1 2
node 12 1 2
node 13 1 2
node 14 1 2
node 15 1 2
node 16 1 2
node 17 1 2
node 18 1 2
node 19 1 2
node 20 1 2
node 22 1 3
node 25 1 3
node 26 1 3
node 60 1 3
node 86 1 3
node 700 1 3
node 736 1 3
node 754 1 3
node 1020 1 3
gene 1 1 22 0.0613033 0 2 0.0613033 1
gene 1 1 25 1.45325 0 5 1.45325 1
gene 1 1 26 6.31499 0 6 6.31499 1
gene 1 2 22 -2.76894 0 10 -2.76894 1
gene 1 2 25 3.10484 0 13 3.10484 1
gene 1 2 26 3.80965 0 14 3.80965 1
gene 1 3 25 2.82294 0 21 2.82294 1
gene 1 3 26 6.74595 0 22 6.74595 1
gene 1 4 25 -4.89136 0 29 -4.89136 1
gene 1 4 26 3.8621 0 30 3.8621 1
gene 1 5 26 -5.98364 0 38 -5.98364 1
gene 1 6 22 4.39041 0 42 4.39041 1
gene 1 6 25 -0.915788 0 45 -0.915788 1
gene 1 7 22 1.82365 0 50 1.82365 1
gene 1 7 25 3.65445 0 53 3.65445 1
gene 1 7 26 7.67049 0 54 7.67049 1
gene 1 8 22 1.13715 0 58 1.13715 1
gene 1 8 25 2.69854 0 61 2.69854 1
gene 1 9 26 -6.20415 0 70 -6.20415 1
gene 1 22 10 3.16368 0 84 3.16368 1
gene 1 22 12 0.321358 0 86 0.321358 1
gene 1 22 13 -0.795454 0 87 -0.795454 1
gene 1 22 14 1.19625 0 88 1.19625 1
gene 1 22 15 -6.54748 0 89 -6.54748 1
gene 1 22 16 -3.32675 0 90 -3.32675 1
gene 1 22 17 2.70615 0 91 2.70615 1
gene 1 22 19 -0.553186 0 93 -0.553186 1
gene 1 25 10 -3.26339 0 117 -3.26339 1
gene 1 25 11 -0.171183 0 118 -0.171183 1
gene 1 25 12 4.71592 0 119 4.71592 1
gene 1 25 13 0.651813 0 120 0.651813 1
gene 1 25 15 -5.34577 0 122 -5.34577 1
gene 1 25 16 -7.93896 0 123 -7.93896 1
gene 1 25 18 4.67782 0 125 4.67782 1
gene 1 25 19 3.78755 0 126 3.78755 1
gene 1 25 20 -1.80209 0 127 -1.80209 1
gene 1 26 10 -6.27726 0 128 -6.27726 1
gene 1 26 12 4.16738 0 130 4.16738 1
gene 1 26 13 -1.46959 0 131 -1.46959 1
gene 1 26 14 -3.12122 0 132 -3.12122 1
gene 1 26 15 -3.51717 0 133 -3.51717 1
gene 1 26 16 -0.791923 0 134 -0.791923 1
gene 1 26 17 6.09096 0 135 6.09096 1
gene 1 26 18 4.87667 0 136 4.87667 1
gene 1 26 19 -8 0 137 -8 1
gene 1 12 18 -0.869636 0 816 -0.869636 1
gene 1 25 60 -5.58757 0 1034 -5.58757 1
gene 1 20 17 1.34924 0 1698 1.34924 1
gene 1 13 86 -0.656096 0 2239 -0.656096 1
gene 1 13 17 1.83807 0 2350 1.83807 1
gene 1 60 12 -2.43069 0 3101 -2.43069 1
gene 1 7 14 -0.510668 0 4799 -0.510668 1
gene 1 20 12 6.42301 0 5197 6.42301 1
gene 1 18 16 -2.85632 0 5743 -2.85632 1
gene 1 16 19 -2.31085 0 5932 -2.31085 1
gene 1 60 86 -0.63112 0 6434 -0.63112 1
gene 1 20 20 -6.11199 1 6477 -6.11199 1
gene 1 2 20 -1.2428 0 7368 -1.2428 1
gene 1 86 14 -0.0276098 0 8693 -0.0276098 1
gene 1 3 17 1.01763 0 10205 1.01763 1
gene 1 60 20 -0.37536 0 10239 -0.37536 1
gene 1 86 86 4.90367 1 10996 4.90367 1
gene 1 13 12 0.104116 0 11291 0.104116 1
gene 1 26 22 -0.476553 0 11914 -0.476553 1
gene 1 20 18 0.961705 0 13530 0.961705 1
gene 1 12 12 -1.5423 1 13821 -1.5423 1
gene 1 17 10 1.12315 0 14481 1.12315 1
gene 1 15 60 0.0557718 0 14616 0.0557718 1
gene 1 7 15 -4.65235 0 15013 -4.65235 1
gene 1 3 16 0.0864502 0 15158 0.0864502 1
gene 1 2 16 -3.76714 0 15402 -3.76714 1
gene 1 14 10 1.12768 0 15577 1.12768 1
gene 1 7 18 3.0079 0 16353 3.0079 1
gene 1 3 14 0.985333 0 16611 0.985333 1
gene 1 700 12 0.370336 0 17200 0.370336 1
gene 1 9 86 -0.0411804 0 17840 -0.0411804 1
gene 1 22 736 1.83464 0 18198 1.83464 1
gene 1 11 10 -0.721796 0 18451 -0.721796 1
gene 1 14 754 0.157692 0 18558 0.157692 1
gene 1 754 17 2.86262 0 18559 2.86262 1
gene 1 10 19 0.692806 0 20117 0.692806 1
gene 1 18 754 -1.70711 0 21168 -1.70711 1
gene 1 16 16 1.27392 1 21329 1.27392 1
gene 1 4 14 2.4378 0 21753 2.4378 1
gene 1 60 60 5.3553 1 22249 5.3553 1
gene 1 60 17 -1.67698 0 22517 -1.67698 1
gene 1 5 17 -2.61031 0 23075 -2.61031 1
gene 1 4 754 -2.72353 0 23231 -2.72353 1
gene 1 736 736 -0.825457 1 23435 -0.825457 1
gene 1 1 18 -1.2622 0 24221 -1.2622 1
gene 1 22 22 -2.60359 1 24476 -2.60359 1
gene 1 6 12 -2.66266 0 24625 -2.66266 1
gene 1 736 18 0.498538 0 24847 0.498538 1
gene 1 3 19 -0.324484 0 24975 -0.324484 1
gene 1 26 1020 1 0 25536 0 1
gene 1 1020 11 4.60913 0 25537 0 1
genomeend 247
