/* Organism #319 Fitness: 1.004 Error: 0.996 */
genomestart 319
trait 1 0.149081 0.513208 0.128545 0.107977 0.474476 0.0935714 1 0 
node 1 1 0
node 2 1 1
node 3 1 1
node 4 1 1
node 5 1 1
node 6 1 1
node 7 1 1
node 8 1 1
node 9 1 1
node 10 1 2
node 11 1 2
node 12 1 2
node 13 1 2
node 14 1 2
node 15 1 2
node 16 1 2
node 17 1 2
node 18 1 2
node 19 1 2
node 20 1 2
node 21 1 3
node 22 1 3
node 23 1 3
node 25 1 3
node 27 1 3
node 28 1 3
gene 1 1 21 3.15083 0 1 3.15083 1
gene 1 1 22 0.484013 0 2 0.484013 1
gene 1 1 23 -1.40958 0 3 -1.40958 1
gene 1 1 25 0.626205 0 5 0.626205 1
gene 1 1 27 3.28766 0 7 3.28766 1
gene 1 1 28 -0.973455 0 8 -0.973455 1
gene 1 2 21 1.5337 0 9 1.5337 1
gene 1 2 22 0.544925 0 10 0.544925 1
gene 1 2 23 -1.56747 0 11 -1.56747 1
gene 1 2 25 -4.28862 0 13 -4.28862 1
gene 1 2 27 4.16766 0 15 4.16766 1
gene 1 2 28 2.97439 0 16 2.97439 1
gene 1 3 21 -1.15 0 17 -1.15 1
gene 1 3 22 0.161056 0 18 0.161056 1
gene 1 3 23 -1.57599 0 19 -1.57599 1
gene 1 3 25 0.586278 0 21 0.586278 1
gene 1 3 27 0.582784 0 23 0.582784 1
gene 1 3 28 1.87719 0 24 1.87719 1
gene 1 4 21 1.97305 0 25 1.97305 1
gene 1 4 22 -0.622852 0 26 -0.622852 1
gene 1 4 23 0.138973 0 27 0.138973 1
gene 1 4 25 0.837983 0 29 0.837983 1
gene 1 4 27 2.90236 0 31 2.90236 1
gene 1 4 28 0.337937 0 32 0.337937 1
gene 1 5 21 -0.424617 0 33 -0.424617 1
gene 1 5 22 1.76984 0 34 1.76984 1
gene 1 5 23 0.662367 0 35 0.662367 1
gene 1 5 25 -1.0513 0 37 -1.0513 1
gene 1 5 27 1.83001 0 39 1.83001 1
gene 1 5 28 1.78692 0 40 1.78692 1
gene 1 6 21 1.63667 0 41 1.63667 1
gene 1 6 22 0.991784 0 42 0.991784 1
gene 1 6 23 -1.1723 0 43 -1.1723 1
gene 1 6 25 -0.535307 0 45 -0.535307 1
gene 1 6 27 1.59597 0 47 1.59597 1
gene 1 6 28 0.352314 0 48 0.352314 1
gene 1 7 21 0.859143 0 49 0.859143 1
gene 1 7 22 1.23104 0 50 1.23104 1
gene 1 7 23 0.283916 0 51 0.283916 1
gene 1 7 25 2.15041 0 53 2.15041 1
gene 1 7 27 0.44661 0 55 0.44661 1
gene 1 7 28 -1.92962 0 56 -1.92962 1
gene 1 8 21 0.448543 0 57 0.448543 1
gene 1 8 22 0.292973 0 58 0.292973 1
gene 1 8 23 0.55203 0 59 0.55203 1
gene 1 8 25 0.813551 0 61 0.813551 1
gene 1 8 27 -0.918851 0 63 -0.918851 1
gene 1 8 28 -1.22396 0 64 -1.22396 1
gene 1 9 21 -1.53722 0 65 -1.53722 1
gene 1 9 22 -2.66938 0 66 -2.66938 1
gene 1 9 23 -1.72219 0 67 -1.72219 1
gene 1 9 25 0.110122 0 69 0.110122 1
gene 1 9 27 -3.29984 0 71 -3.29984 1
gene 1 9 28 -0.381398 0 72 -0.381398 1
gene 1 21 10 0.785335 0 73 0.785335 1
gene 1 21 11 0.207709 0 74 0.207709 1
gene 1 21 12 -2.71765 0 75 -2.71765 1
gene 1 21 13 -0.837561 0 76 -0.837561 1
gene 1 21 14 3.17001 0 77 3.17001 1
gene 1 21 15 -0.383596 0 78 -0.383596 1
gene 1 21 16 0.318558 0 79 0.318558 1
gene 1 21 17 1.48974 0 80 1.48974 1
gene 1 21 18 -1.74013 0 81 -1.74013 1
gene 1 21 19 -0.0819401 0 82 -0.0819401 1
gene 1 21 20 0.65095 0 83 0.65095 1
gene 1 22 10 3.40365 0 84 3.40365 1
gene 1 22 11 -0.197572 0 85 -0.197572 1
gene 1 22 12 -0.34328 0 86 -0.34328 1
gene 1 22 13 1.06516 0 87 1.06516 1
gene 1 22 14 1.78587 0 88 1.78587 1
gene 1 22 15 -0.85214 0 89 -0.85214 1
gene 1 22 16 4.25793 0 90 4.25793 1
gene 1 22 17 5.5053 0 91 5.5053 1
gene 1 22 18 -0.750127 0 92 -0.750127 1
gene 1 22 19 2.42661 0 93 2.42661 1
gene 1 22 20 -6.71639 0 94 -6.71639 1
gene 1 23 10 0.0566103 0 95 0.0566103 1
gene 1 23 11 -1.75717 0 96 -1.75717 1
gene 1 23 12 -2.47089 0 97 -2.47089 1
gene 1 23 13 1.53384 0 98 1.53384 1
gene 1 23 14 2.70413 0 99 2.70413 1
gene 1 23 15 3.33293 0 100 3.33293 1
gene 1 23 16 -1.49488 0 101 -1.49488 1
gene 1 23 17 -1.37979 0 102 -1.37979 1
gene 1 23 18 0.407419 0 103 0.407419 1
gene 1 23 19 -1.38705 0 104 -1.38705 1
gene 1 23 20 3.16337 0 105 3.16337 1
gene 1 25 10 -0.282818 0 117 -0.282818 1
gene 1 25 11 0.91969 0 118 0.91969 1
gene 1 25 12 -0.617602 0 119 -0.617602 1
gene 1 25 13 -0.504136 0 120 -0.504136 1
gene 1 25 14 -2.49953 0 121 -2.49953 1
gene 1 25 15 -3.58176 0 122 -3.58176 1
gene 1 25 16 2.162 0 123 2.162 1
gene 1 25 17 2.67938 0 124 2.67938 1
gene 1 25 18 -0.949441 0 125 -0.949441 1
gene 1 25 19 2.87276 0 126 2.87276 1
gene 1 25 20 -1.69419 0 127 -1.69419 1
gene 1 27 10 -1.31807 0 139 -1.31807 1
gene 1 27 11 -1.9562 0 140 -1.9562 1
gene 1 27 12 3.4902 0 141 3.4902 1
gene 1 27 13 -0.0582046 0 142 -0.0582046 1
gene 1 27 14 -1.05702 0 143 -1.05702 1
gene 1 27 15 0.336414 0 144 0.336414 1
gene 1 27 16 -1.03226 0 145 -1.03226 1
gene 1 27 17 -1.29687 0 146 -1.29687 1
gene 1 27 18 -2.52579 0 147 -2.52579 1
gene 1 27 19 0.0367359 0 148 0.0367359 1
gene 1 27 20 0.337008 0 149 0.337008 1
gene 1 28 10 0.326964 0 150 0.326964 1
gene 1 28 11 -1.37254 0 151 -1.37254 1
gene 1 28 12 -3.17901 0 152 -3.17901 1
gene 1 28 13 -0.254794 0 153 -0.254794 1
gene 1 28 14 2.67698 0 154 2.67698 1
gene 1 28 15 -1.31142 0 155 -1.31142 1
gene 1 28 16 0.953373 0 156 0.953373 1
gene 1 28 17 1.65755 0 157 1.65755 1
gene 1 28 18 1.94395 0 158 1.94395 1
gene 1 28 19 0.0825903 0 159 0.0825903 1
gene 1 28 20 -0.667621 0 160 -0.667621 1
gene 1 25 22 0.860348 0 333 0.860348 1
gene 1 17 18 1.60613 0 453 1.60613 1
gene 1 2 15 -0.822689 0 579 -0.822689 1
gene 1 12 17 0.97899 0 704 0.97899 1
genomeend 319
