/* Organism #424 Fitness: 1.004 Error: 0.996 */
genomestart 424
trait 1 0.185348 0.78092 0.442846 0.882777 0.610559 0.4309 0.888644 0.708311 
node 1 1 0
node 2 1 1
node 3 1 1
node 4 1 1
node 5 1 1
node 6 1 1
node 7 1 1
node 8 1 1
node 9 1 1
node 10 1 2
node 11 1 2
node 12 1 2
node 13 1 2
node 14 1 2
node 15 1 2
node 16 1 2
node 17 1 2
node 18 1 2
node 19 1 2
node 20 1 2
node 21 1 3
node 22 1 3
node 23 1 3
node 24 1 3
node 25 1 3
node 27 1 3
node 31 1 3
node 222 1 3
node 235 1 3
gene 1 1 21 0.0592014 0 1 0.0592014 1
gene 1 1 22 -0.985171 0 2 -0.985171 1
gene 1 1 23 -3.0246 0 3 -3.0246 1
gene 1 1 24 -0.436833 0 4 -0.436833 1
gene 1 1 25 -1.18201 0 5 -1.18201 1
gene 1 1 27 0.431641 0 7 0.431641 1
gene 1 2 22 -3.16209 0 10 -3.16209 1
gene 1 2 23 -3.56282 0 11 -3.56282 1
gene 1 2 24 -0.220386 0 12 -0.220386 1
gene 1 2 25 -1.99364 0 13 -1.99364 1
gene 1 2 27 0.918028 0 15 0.918028 1
gene 1 3 21 -5.89795 0 17 -5.89795 1
gene 1 3 22 -1.30299 0 18 -1.30299 1
gene 1 3 23 1.35701 0 19 1.35701 1
gene 1 3 24 2.81015 0 20 2.81015 1
gene 1 3 25 -1.26334 0 21 -1.26334 1
gene 1 3 27 1.7894 0 23 1.7894 1
gene 1 4 21 -0.594703 0 25 -0.594703 1
gene 1 4 22 -0.631973 0 26 -0.631973 1
gene 1 4 23 4.04324 0 27 4.04324 1
gene 1 4 24 -5.14404 0 28 -5.14404 1
gene 1 5 21 -4.44233 0 33 -4.44233 1
gene 1 5 22 2.90819 0 34 2.90819 1
gene 1 5 23 -3.63996 0 35 -3.63996 1
gene 1 5 24 -3.48205 0 36 -3.48205 1
gene 1 5 25 0.214116 0 37 0.214116 1
gene 1 5 27 0.649669 0 39 0.649669 1
gene 1 6 21 5.07627 0 41 5.07627 1
gene 1 6 22 0.0927982 0 42 0.0927982 1
gene 1 6 23 -4.02069 0 43 -4.02069 1
gene 1 6 24 3.23289 0 44 3.23289 1
gene 1 6 25 0.664756 0 45 0.664756 1
gene 1 6 27 -4.6035 0 47 -4.6035 1
gene 1 7 21 5.35712 0 49 5.35712 1
gene 1 7 22 6.79666 0 50 6.79666 1
gene 1 7 23 -3.11985 0 51 -3.11985 1
gene 1 7 25 1.57342 0 53 1.57342 1
gene 1 7 27 0.927036 0 55 0.927036 1
gene 1 8 21 0.0368732 0 57 0.0368732 1
gene 1 8 22 0.170537 0 58 0.170537 1
gene 1 8 23 -0.162716 0 59 -0.162716 1
gene 1 8 24 2.28699 0 60 2.28699 1
gene 1 8 25 1.0899 0 61 1.0899 1
gene 1 8 27 1.29814 0 63 1.29814 1
gene 1 9 21 3.31344 0 65 3.31344 1
gene 1 9 22 -3.44699 0 66 -3.44699 1
gene 1 9 23 -1.58594 0 67 -1.58594 1
gene 1 9 24 -0.286838 0 68 -0.286838 1
gene 1 9 25 -1.5443 0 69 -1.5443 1
gene 1 9 27 -4.62592 0 71 -4.62592 1
gene 1 21 10 0.346242 0 73 0.346242 1
gene 1 21 11 -1.65755 0 74 -1.65755 1
gene 1 21 12 -2.0447 0 75 -2.0447 1
gene 1 21 13 1.58726 0 76 1.58726 1
gene 1 21 14 1.45127 0 77 1.45127 1
gene 1 21 15 1.54137 0 78 1.54137 1
gene 1 21 16 3.92141 0 79 3.92141 1
gene 1 21 17 1.27116 0 80 1.27116 1
gene 1 21 18 0.461165 0 81 0.461165 1
gene 1 21 19 1.57045 0 82 1.57045 1
gene 1 21 20 1.57487 0 83 1.57487 1
gene 1 22 10 3.96895 0 84 3.96895 1
gene 1 22 11 0.938066 0 85 0.938066 1
gene 1 22 12 -2.6889 0 86 -2.6889 1
gene 1 22 13 -0.181448 0 87 -0.181448 1
gene 1 22 14 2.91252 0 88 2.91252 1
gene 1 22 15 -0.72858 0 89 -0.72858 1
gene 1 22 16 1.44546 0 90 1.44546 1
gene 1 22 17 -3.04945 0 91 -3.04945 1
gene 1 22 18 0.527415 0 92 0.527415 1
gene 1 22 19 0.696677 0 93 0.696677 1
gene 1 22 20 -2.27999 0 94 -2.27999 1
gene 1 23 10 1.5909 0 95 1.5909 1
gene 1 23 11 1.77067 0 96 1.77067 1
gene 1 23 12 -3.06749 0 97 -3.06749 1
gene 1 23 13 -1.16113 0 98 -1.16113 1
gene 1 23 14 1.63079 0 99 1.63079 1
gene 1 23 15 2.16289 0 100 2.16289 1
gene 1 23 16 -0.123156 0 101 -0.123156 1
gene 1 23 17 -2.18105 0 102 -2.18105 1
gene 1 23 18 0.269415 0 103 0.269415 1
gene 1 23 19 -3.98337 0 104 -3.98337 1
gene 1 23 20 -1.27444 0 105 -1.27444 1
gene 1 24 10 -1.69835 0 106 -1.69835 1
gene 1 24 11 -2.06501 0 107 -2.06501 1
gene 1 24 12 -5.70373 0 108 -5.70373 1
gene 1 24 13 -0.516999 0 109 -0.516999 1
gene 1 24 14 -2.13546 0 110 -2.13546 1
gene 1 24 15 -0.767243 0 111 -0.767243 1
gene 1 24 16 -0.461641 0 112 -0.461641 1
gene 1 24 17 0.226345 0 113 0.226345 1
gene 1 24 18 -0.703382 0 114 -0.703382 1
gene 1 24 19 0.830799 0 115 0.830799 1
gene 1 24 20 -4.76403 0 116 -4.76403 1
gene 1 25 10 1.09232 0 117 1.09232 1
gene 1 25 12 -0.584525 0 119 -0.584525 1
gene 1 25 13 -0.394411 0 120 -0.394411 1
gene 1 25 14 2.00864 0 121 2.00864 1
gene 1 25 15 -3.11975 0 122 -3.11975 1
gene 1 25 16 -1.95279 0 123 -1.95279 1
gene 1 25 17 -1.92286 0 124 -1.92286 1
gene 1 25 18 -5.91283 0 125 -5.91283 1
gene 1 25 19 -2.83112 0 126 -2.83112 1
gene 1 25 20 -0.93135 0 127 -0.93135 1
gene 1 27 10 0.516265 0 139 0.516265 1
gene 1 27 11 0.205983 0 140 0.205983 1
gene 1 27 12 3.38262 0 141 3.38262 1
gene 1 27 13 2.05018 0 142 2.05018 1
gene 1 27 14 1.60428 0 143 1.60428 1
gene 1 27 15 0.00822974 0 144 0.00822974 1
gene 1 27 16 -2.04929 0 145 -2.04929 1
gene 1 27 17 -0.780372 0 146 -0.780372 1
gene 1 27 18 -0.241233 0 147 -0.241233 1
gene 1 27 19 1.00144 0 148 1.00144 1
gene 1 27 20 1.52873 0 149 1.52873 1
gene 1 31 12 0.504607 0 269 0.504607 1
gene 1 2 19 -0.796963 0 720 -0.796963 1
gene 1 17 15 -1.0904 0 812 -1.0904 1
gene 1 12 15 2.13003 0 1026 2.13003 1
gene 1 4 15 -0.396167 0 1413 -0.396167 1
gene 1 24 25 1.05913 0 2635 1.05913 1
gene 1 2 12 1.85426 0 2726 1.85426 1
gene 1 4 19 -0.901859 0 2947 -0.901859 1
gene 1 20 16 -1.24381 0 3265 -1.24381 1
gene 1 19 13 -1.20264 0 3379 -1.20264 1
gene 1 13 10 2.54205 0 3503 2.54205 1
gene 1 14 14 -0.346749 1 3603 -0.346749 1
gene 1 27 21 -2.61774 0 3699 -2.61774 1
gene 1 15 15 -1.07565 1 3892 -1.07565 1
gene 1 11 20 -0.303245 0 4224 -0.303245 1
gene 1 25 22 -0.823855 0 4391 -0.823855 1
gene 1 15 16 -0.933519 0 4918 -0.933519 1
gene 1 2 222 -0.491831 0 5997 -0.491831 1
gene 1 222 21 -0.327459 0 5998 -0.327459 1
gene 1 5 235 1.50802 0 6222 1.50802 1
gene 1 235 14 0.158714 0 6223 0.158714 1
gene 1 15 20 -0.986807 0 6384 -0.986807 1
gene 1 23 235 0.882574 0 6677 0.882574 1
gene 1 3 18 -0.99186 0 6899 -0.99186 1
gene 1 31 11 0.305624 0 7214 0.305624 1
genomeend 424
