/* Organism #508 Fitness: 1.009 Error: 0.991 */
genomestart 508
trait 1 0.0744585 1 0.454715 0.349544 0.809198 0.422792 0.162675 0 
node 1 1 0
node 2 1 1
node 3 1 1
node 4 1 1
node 5 1 1
node 6 1 1
node 7 1 1
node 8 1 1
node 9 1 1
node 10 1 2
node 11 1 2
node 12 1 2
node 13 1 2
node 14 1 2
node 15 1 2
node 16 1 2
node 17 1 2
node 18 1 2
node 19 1 2
node 20 1 2
node 22 1 3
node 23 1 3
node 24 1 3
node 25 1 3
node 53 1 3
gene 1 1 22 -0.00881899 0 2 -0.00881899 1
gene 1 1 23 0.635727 0 3 0.635727 1
gene 1 1 24 -1.9031 0 4 -1.9031 1
gene 1 1 25 0.235194 0 5 0.235194 1
gene 1 2 22 -0.68151 0 10 -0.68151 1
gene 1 2 23 2.62566 0 11 2.62566 1
gene 1 2 24 0.732592 0 12 0.732592 1
gene 1 2 25 0.0900499 0 13 0.0900499 1
gene 1 3 22 -1.96821 0 18 -1.96821 1
gene 1 3 23 1.68742 0 19 1.68742 1
gene 1 3 24 -3.85054 0 20 -3.85054 1
gene 1 3 25 -3.21409 0 21 -3.21409 1
gene 1 4 23 -4.56514 0 27 -4.56514 1
gene 1 4 24 -1.38364 0 28 -1.38364 1
gene 1 5 22 -7.48287 0 34 -7.48287 1
gene 1 5 23 -1.45675 0 35 -1.45675 1
gene 1 5 24 1.9786 0 36 1.9786 1
gene 1 5 25 -2.70402 0 37 -2.70402 1
gene 1 6 22 -1.28811 0 42 -1.28811 1
gene 1 6 23 3.3925 0 43 3.3925 1
gene 1 6 24 0.335723 0 44 0.335723 1
gene 1 7 22 1.40412 0 50 1.40412 1
gene 1 7 23 2.32588 0 51 2.32588 1
gene 1 7 24 -4.8754 0 52 -4.8754 1
gene 1 8 22 -1.03868 0 58 -1.03868 1
gene 1 8 23 2.53668 0 59 2.53668 1
gene 1 8 25 -2.38375 0 61 -2.38375 1
gene 1 9 22 -0.00814832 0 66 -0.00814832 1
gene 1 9 23 3.49927 0 67 3.49927 1
gene 1 9 24 -0.454309 0 68 -0.454309 1
gene 1 9 25 -2.91599 0 69 -2.91599 1
gene 1 22 10 -2.50713 0 84 -2.50713 1
gene 1 22 11 -1.22585 0 85 -1.22585 1
gene 1 22 12 0.548806 0 86 0.548806 1
gene 1 22 14 -4.36264 0 88 -4.36264 1
gene 1 22 15 -3.04751 0 89 -3.04751 1
gene 1 22 16 0.790506 0 90 0.790506 1
gene 1 22 17 -3.2159 0 91 -3.2159 1
gene 1 22 18 0.00646989 0 92 0.00646989 1
gene 1 22 19 0.89509 0 93 0.89509 1
gene 1 23 10 1.73426 0 95 1.73426 1
gene 1 23 11 4.97652 0 96 4.97652 1
gene 1 23 12 5.30833 0 97 5.30833 1
gene 1 23 13 1.05657 0 98 1.05657 1
gene 1 23 14 0.643471 0 99 0.643471 1
gene 1 23 16 0.495397 0 101 0.495397 1
gene 1 23 17 -4.52516 0 102 -4.52516 1
gene 1 23 18 0.54129 0 103 0.54129 1
gene 1 23 19 1.87818 0 104 1.87818 1
gene 1 23 20 -0.652743 0 105 -0.652743 1
gene 1 24 10 0.448973 0 106 0.448973 1
gene 1 24 11 0.819486 0 107 0.819486 1
gene 1 24 13 -0.259574 0 109 -0.259574 1
gene 1 24 14 -2.12802 0 110 -2.12802 1
gene 1 24 15 -1.01052 0 111 -1.01052 1
gene 1 24 16 -2.66236 0 112 -2.66236 1
gene 1 24 17 -0.89983 0 113 -0.89983 1
gene 1 24 18 2.04683 0 114 2.04683 1
gene 1 24 19 2.54141 0 115 2.54141 1
gene 1 24 20 -0.41092 0 116 -0.41092 1
gene 1 25 10 1.05822 0 117 1.05822 1
gene 1 25 11 1.26437 0 118 1.26437 1
gene 1 25 12 0.387905 0 119 0.387905 1
gene 1 25 13 1.46764 0 120 1.46764 1
gene 1 25 16 0.302359 0 123 0.302359 1
gene 1 25 17 1.9484 0 124 1.9484 1
gene 1 25 18 0.700813 0 125 0.700813 1
gene 1 25 20 1.47688 0 127 1.47688 1
gene 1 9 53 0.0502682 0 966 0.0502682 1
gene 1 17 17 -0.578977 1 1338 -0.578977 1
gene 1 4 16 -2.61264 0 1541 -2.61264 1
gene 1 16 12 -0.874936 0 1679 -0.874936 1
gene 1 17 12 1.03365 0 1781 1.03365 1
gene 1 5 15 1.02444 0 2111 1.02444 1
gene 1 15 10 -0.330141 0 2906 -0.330141 1
gene 1 17 13 -1.72211 0 3410 -1.72211 1
gene 1 19 17 0.514071 0 3640 0.514071 1
gene 1 11 14 -0.173207 0 3742 -0.173207 1
gene 1 7 18 -0.993843 0 3851 -0.993843 1
gene 1 3 11 -1.63682 0 3955 -1.63682 1
gene 1 5 12 1.30035 0 4464 1.30035 1
gene 1 14 14 -0.351779 1 4625 -0.351779 1
gene 1 19 53 -1.85103 0 4855 -1.85103 1
gene 1 20 10 -0.801394 0 5182 -0.801394 1
gene 1 1 13 -0.241087 0 5446 -0.241087 1
gene 1 12 13 -0.139234 0 5952 -0.139234 1
gene 1 5 18 0.519003 0 6818 0.519003 1
gene 1 23 53 0.307812 0 7552 0.307812 1
gene 1 13 15 -0.935891 0 7637 -0.935891 1
gene 1 7 16 -0.819471 0 7910 -0.819471 1
genomeend 508
