/* Organism #265 Fitness: 1.008 Error: 0.992 */
genomestart 265
trait 1 0.244933 0.843013 0 0.194213 0.0981985 0.118073 0.198948 0.0632303 
node 1 1 0
node 2 1 1
node 3 1 1
node 4 1 1
node 5 1 1
node 6 1 1
node 7 1 1
node 8 1 1
node 9 1 1
node 10 1 2
node 11 1 2
node 12 1 2
node 13 1 2
node 14 1 2
node 15 1 2
node 16 1 2
node 17 1 2
node 18 1 2
node 19 1 2
node 20 1 2
node 21 1 3
node 23 1 3
node 24 1 3
node 25 1 3
node 26 1 3
node 27 1 3
node 28 1 3
node 45 1 3
gene 1 1 21 5.84767 0 1 5.84767 1
gene 1 1 23 0.354398 0 3 0.354398 1
gene 1 1 24 -5.77752 0 4 -5.77752 1
gene 1 1 25 -2.19526 0 5 -2.19526 1
gene 1 1 26 -2.8651 0 6 -2.8651 1
gene 1 1 27 -0.0772681 0 7 -0.0772681 1
gene 1 1 28 -4.91914 0 8 -4.91914 1
gene 1 2 21 -0.469515 0 9 -0.469515 1
gene 1 2 23 1.14325 0 11 1.14325 1
gene 1 2 24 0.00192136 0 12 0.00192136 1
gene 1 2 25 3.33891 0 13 3.33891 1
gene 1 2 26 -0.81115 0 14 -0.81115 1
gene 1 2 27 2.98282 0 15 2.98282 1
gene 1 2 28 6.10771 0 16 6.10771 1
gene 1 3 21 -6.30506 0 17 -6.30506 1
gene 1 3 23 -0.800547 0 19 -0.800547 1
gene 1 3 24 -1.98549 0 20 -1.98549 1
gene 1 3 25 -0.67557 0 21 -0.67557 1
gene 1 3 27 3.25896 0 23 3.25896 1
gene 1 3 28 -1.46626 0 24 -1.46626 1
gene 1 4 21 1.74539 0 25 1.74539 1
gene 1 4 23 -0.63151 0 27 -0.63151 1
gene 1 4 24 -2.1602 0 28 -2.1602 1
gene 1 4 25 2.97924 0 29 2.97924 1
gene 1 4 26 6.14719 0 30 6.14719 1
gene 1 4 27 -0.112098 0 31 -0.112098 1
gene 1 4 28 1.81212 0 32 1.81212 1
gene 1 5 21 5.93956 0 33 5.93956 1
gene 1 5 24 1.08756 0 36 1.08756 1
gene 1 5 25 -2.83697 0 37 -2.83697 1
gene 1 5 26 3.02464 0 38 3.02464 1
gene 1 5 27 -1.63373 0 39 -1.63373 1
gene 1 5 28 0.457213 0 40 0.457213 1
gene 1 6 21 0.794902 0 41 0.794902 1
gene 1 6 23 -4.65901 0 43 -4.65901 1
gene 1 6 24 0.59117 0 44 0.59117 1
gene 1 6 25 -2.93948 0 45 -2.93948 1
gene 1 6 26 -0.486192 0 46 -0.486192 1
gene 1 6 27 2.19703 0 47 2.19703 1
gene 1 6 28 0.233695 0 48 0.233695 1
gene 1 7 21 -3.02752 0 49 -3.02752 1
gene 1 7 23 -5.85837 0 51 -5.85837 1
gene 1 7 24 4.11589 0 52 4.11589 1
gene 1 7 25 2.4949 0 53 2.4949 1
gene 1 7 26 1.18632 0 54 1.18632 1
gene 1 7 27 -1.41373 0 55 -1.41373 1
gene 1 7 28 7.51736 0 56 7.51736 1
gene 1 8 21 4.8587 0 57 4.8587 1
gene 1 8 23 -3.06281 0 59 -3.06281 1
gene 1 8 24 0.195675 0 60 0.195675 1
gene 1 8 25 0.890725 0 61 0.890725 1
gene 1 8 27 -2.20644 0 63 -2.20644 1
gene 1 8 28 1.04708 0 64 1.04708 1
gene 1 9 21 6.86205 0 65 6.86205 1
gene 1 9 23 -1.5967 0 67 -1.5967 1
gene 1 9 24 -0.311407 0 68 -0.311407 1
gene 1 9 25 3.15421 0 69 3.15421 1
gene 1 9 26 1.838 0 70 1.838 1
gene 1 9 27 -3.71488 0 71 -3.71488 1
gene 1 9 28 -0.798811 0 72 -0.798811 1
gene 1 21 10 1.4665 0 73 1.4665 1
gene 1 21 11 0.64433 0 74 0.64433 1
gene 1 21 12 -7.8631 0 75 -7.8631 1
gene 1 21 13 1.30183 0 76 1.30183 1
gene 1 21 14 -2.00621 0 77 -2.00621 1
gene 1 21 15 -0.297296 0 78 -0.297296 1
gene 1 21 16 0.924362 0 79 0.924362 1
gene 1 21 17 4.11512 0 80 4.11512 1
gene 1 21 18 -0.0871234 0 81 -0.0871234 1
gene 1 21 20 0.756912 0 83 0.756912 1
gene 1 23 10 0.114306 0 95 0.114306 1
gene 1 23 11 -0.428469 0 96 -0.428469 1
gene 1 23 12 -3.61802 0 97 -3.61802 1
gene 1 23 13 -4.76091 0 98 -4.76091 1
gene 1 23 14 -7.09011 0 99 -7.09011 1
gene 1 23 15 -1.34253 0 100 -1.34253 1
gene 1 23 16 -6.62316 0 101 -6.62316 1
gene 1 23 18 -0.803975 0 103 -0.803975 1
gene 1 23 19 1.55944 0 104 1.55944 1
gene 1 24 10 1.16077 0 106 1.16077 1
gene 1 24 11 -2.24894 0 107 -2.24894 1
gene 1 24 12 1.37708 0 108 1.37708 1
gene 1 24 13 -4.51381 0 109 -4.51381 1
gene 1 24 15 -2.90568 0 111 -2.90568 1
gene 1 24 16 -0.902176 0 112 -0.902176 1
gene 1 24 17 -1.04897 0 113 -1.04897 1
gene 1 24 18 2.11342 0 114 2.11342 1
gene 1 24 20 -1.55046 0 116 -1.55046 1
gene 1 25 10 -1.40653 0 117 -1.40653 1
gene 1 25 11 -0.883164 0 118 -0.883164 1
gene 1 25 13 -0.0292735 0 120 -0.0292735 1
gene 1 25 14 1.71901 0 121 1.71901 1
gene 1 25 15 0.889986 0 122 0.889986 1
gene 1 25 16 -1.07376 0 123 -1.07376 1
gene 1 25 17 0.936152 0 124 0.936152 1
gene 1 25 19 -0.989972 0 126 -0.989972 1
gene 1 25 20 -1.65211 0 127 -1.65211 1
gene 1 26 10 6.67473 0 128 6.67473 1
gene 1 26 11 -0.963209 0 129 -0.963209 1
gene 1 26 12 -0.0998772 0 130 -0.0998772 1
gene 1 26 14 2.37242 0 132 2.37242 1
gene 1 26 15 -4.48216 0 133 -4.48216 1
gene 1 26 16 1.11212 0 134 1.11212 1
gene 1 26 17 4.15523 0 135 4.15523 1
gene 1 26 18 -0.279877 0 136 -0.279877 1
gene 1 26 19 -3.34658 0 137 -3.34658 1
gene 1 26 20 0.156283 0 138 0.156283 1
gene 1 27 11 0.0244223 0 140 0.0244223 1
gene 1 27 12 1.16346 0 141 1.16346 1
gene 1 27 13 1.67058 0 142 1.67058 1
gene 1 27 14 -1.3526 0 143 -1.3526 1
gene 1 27 15 -2.90455 0 144 -2.90455 1
gene 1 27 16 -0.163543 0 145 -0.163543 1
gene 1 27 17 -5.70284 0 146 -5.70284 1
gene 1 27 18 -1.5705 0 147 -1.5705 1
gene 1 27 19 -8 0 148 -8 1
gene 1 27 20 -2.70492 0 149 -2.70492 1
gene 1 28 10 0.127513 0 150 0.127513 1
gene 1 28 11 1.87225 0 151 1.87225 1
gene 1 28 12 2.44399 0 152 2.44399 1
gene 1 28 13 0.551658 0 153 0.551658 1
gene 1 28 14 -0.756163 0 154 -0.756163 1
gene 1 28 15 1.5149 0 155 1.5149 1
gene 1 28 16 0.279283 0 156 0.279283 1
gene 1 28 17 2.17062 0 157 2.17062 1
gene 1 28 18 0.722684 0 158 0.722684 1
gene 1 28 20 -1.76063 0 160 -1.76063 1
gene 1 23 23 -3.55767 1 252 -3.55767 1
gene 1 16 17 -0.928318 0 263 -0.928318 1
gene 1 24 45 -2.45566 0 638 -2.45566 1
gene 1 45 19 1.73531 0 639 1.73531 1
gene 1 13 15 -1.64159 0 1377 -1.64159 1
gene 1 20 19 -0.997559 0 1677 -0.997559 1
gene 1 24 25 -3.71962 0 2646 -3.71962 1
gene 1 12 10 -1.26229 0 2754 -1.26229 1
gene 1 4 10 1.33011 0 3293 1.33011 1
gene 1 1 12 1.6156 0 3533 1.6156 1
gene 1 25 25 1.754 1 3690 1.754 1
gene 1 15 10 -2.74014 0 4041 -2.74014 1
gene 1 6 13 -2.29177 0 4154 -2.29177 1
gene 1 19 16 1.39085 0 4353 1.39085 1
gene 1 24 27 -1.60006 0 4697 -1.60006 1
gene 1 7 13 -0.911588 0 5004 -0.911588 1
gene 1 1 18 0.0540321 0 5120 0.0540321 1
gene 1 25 21 1.52963 0 5174 1.52963 1
gene 1 6 20 1.33382 0 6151 1.33382 1
gene 1 19 15 4.00969 0 6347 4.00969 1
gene 1 1 15 0.00718086 0 6617 0.00718086 1
gene 1 5 17 2.59307 0 6718 2.59307 1
gene 1 13 17 -0.0823157 0 7128 -0.0823157 1
gene 1 12 18 -0.421894 0 7323 -0.421894 1
gene 1 5 19 0.417855 0 7445 0.417855 1
gene 1 2 19 1.51186 0 7573 1.51186 1
gene 1 45 45 0.918732 1 7623 0.918732 1
gene 1 25 45 0.0409968 0 7717 0.0409968 1
gene 1 15 17 0.975156 0 7934 0.975156 1
genomeend 265
