/* Organism #108 Fitness: 1.004 Error: 0.996 */
genomestart 108
trait 1 0.149081 0.0747968 0.128545 0.107977 0.908219 0.227115 0.795648 0 
node 1 1 0
node 2 1 1
node 3 1 1
node 4 1 1
node 5 1 1
node 6 1 1
node 7 1 1
node 8 1 1
node 9 1 1
node 10 1 1
node 11 1 1
node 12 1 2
node 13 1 2
node 14 1 2
node 15 1 2
node 16 1 2
node 17 1 2
node 18 1 2
node 19 1 2
node 20 1 2
node 21 1 2
node 22 1 2
node 23 1 2
node 24 1 2
node 25 1 2
node 26 1 3
node 27 1 3
node 28 1 3
node 29 1 3
node 31 1 3
node 32 1 3
node 33 1 3
node 34 1 3
node 35 1 3
node 37 1 3
gene 1 1 26 -1.47769 0 1 -1.47769 1
gene 1 1 27 -1.47503 0 2 -1.47503 1
gene 1 1 28 -0.606241 0 3 -0.606241 1
gene 1 1 29 -0.897036 0 4 -0.897036 1
gene 1 1 31 0.882099 0 6 0.882099 1
gene 1 1 32 -0.842277 0 7 -0.842277 1
gene 1 1 33 0.776326 0 8 0.776326 1
gene 1 1 34 -1.74811 0 9 -1.74811 1
gene 1 1 35 -0.894652 0 10 -0.894652 1
gene 1 2 26 -0.18547 0 11 -0.18547 1
gene 1 2 27 0.393766 0 12 0.393766 1
gene 1 2 28 1.59897 0 13 1.59897 1
gene 1 2 29 -1.3193 0 14 -1.3193 1
gene 1 2 31 1.55116 0 16 1.55116 1
gene 1 2 32 0.20352 0 17 0.20352 1
gene 1 2 33 -1.60991 0 18 -1.60991 1
gene 1 2 34 -1.17007 0 19 -1.17007 1
gene 1 2 35 -1.39287 0 20 -1.39287 1
gene 1 3 26 -0.375442 0 21 -0.375442 1
gene 1 3 27 -0.312649 0 22 -0.312649 1
gene 1 3 28 1.54092 0 23 1.54092 1
gene 1 3 29 -1.53099 0 24 -1.53099 1
gene 1 3 31 0.0576415 0 26 0.0576415 1
gene 1 3 32 -0.37387 0 27 -0.37387 1
gene 1 3 33 0.71612 0 28 0.71612 1
gene 1 3 34 -0.490946 0 29 -0.490946 1
gene 1 3 35 -1.58578 0 30 -1.58578 1
gene 1 4 26 0.361585 0 31 0.361585 1
gene 1 4 27 -1.18779 0 32 -1.18779 1
gene 1 4 28 0.14368 0 33 0.14368 1
gene 1 4 29 -1.06136 0 34 -1.06136 1
gene 1 4 31 0.0066882 0 36 0.0066882 1
gene 1 4 32 -0.709385 0 37 -0.709385 1
gene 1 4 33 -1.97743 0 38 -1.97743 1
gene 1 4 34 -0.0942647 0 39 -0.0942647 1
gene 1 4 35 -1.25479 0 40 -1.25479 1
gene 1 5 26 -0.740341 0 41 -0.740341 1
gene 1 5 27 -0.243914 0 42 -0.243914 1
gene 1 5 28 1.81662 0 43 1.81662 1
gene 1 5 29 1.3579 0 44 1.3579 1
gene 1 5 31 -0.135141 0 46 -0.135141 1
gene 1 5 32 0.188051 0 47 0.188051 1
gene 1 5 34 -0.57796 0 49 -0.57796 1
gene 1 5 35 -1.61574 0 50 -1.61574 1
gene 1 6 26 -0.0811375 0 51 -0.0811375 1
gene 1 6 27 -0.704694 0 52 -0.704694 1
gene 1 6 28 0.747877 0 53 0.747877 1
gene 1 6 29 0.708145 0 54 0.708145 1
gene 1 6 31 1.83689 0 56 1.83689 1
gene 1 6 32 -1.8492 0 57 -1.8492 1
gene 1 6 33 1.51567 0 58 1.51567 1
gene 1 6 34 -0.5855 0 59 -0.5855 1
gene 1 6 35 0.404175 0 60 0.404175 1
gene 1 7 26 -0.226013 0 61 -0.226013 1
gene 1 7 27 3.04084 0 62 3.04084 1
gene 1 7 28 -0.761182 0 63 -0.761182 1
gene 1 7 29 -3.15675 0 64 -3.15675 1
gene 1 7 31 -0.771572 0 66 -0.771572 1
gene 1 7 32 -2.04175 0 67 -2.04175 1
gene 1 7 33 -1.88989 0 68 -1.88989 1
gene 1 7 34 -0.577907 0 69 -0.577907 1
gene 1 7 35 0.274138 0 70 0.274138 1
gene 1 8 26 -0.163389 0 71 -0.163389 1
gene 1 8 27 -1.30525 0 72 -1.30525 1
gene 1 8 28 1.15361 0 73 1.15361 1
gene 1 8 29 1.71079 0 74 1.71079 1
gene 1 8 31 -0.346032 0 76 -0.346032 1
gene 1 8 32 -1.04789 0 77 -1.04789 1
gene 1 8 33 1.1056 0 78 1.1056 1
gene 1 8 34 0.764835 0 79 0.764835 1
gene 1 8 35 -0.481491 0 80 -0.481491 1
gene 1 9 26 -0.304802 0 81 -0.304802 1
gene 1 9 27 1.19064 0 82 1.19064 1
gene 1 9 28 -0.805476 0 83 -0.805476 1
gene 1 9 29 0.984178 0 84 0.984178 1
gene 1 9 31 -0.551574 0 86 -0.551574 1
gene 1 9 32 0.748718 0 87 0.748718 1
gene 1 9 33 0.082665 0 88 0.082665 1
gene 1 9 34 -2.68653 0 89 -2.68653 1
gene 1 9 35 1.81733 0 90 1.81733 1
gene 1 10 26 -0.74456 0 91 -0.74456 1
gene 1 10 27 0.0588837 0 92 0.0588837 1
gene 1 10 28 -0.924015 0 93 -0.924015 1
gene 1 10 29 -0.251093 0 94 -0.251093 1
gene 1 10 31 -1.15679 0 96 -1.15679 1
gene 1 10 32 -2.79426 0 97 -2.79426 1
gene 1 10 33 2.54703 0 98 2.54703 1
gene 1 10 34 0.201431 0 99 0.201431 1
gene 1 10 35 -0.640845 0 100 -0.640845 1
gene 1 11 26 0.226696 0 101 0.226696 1
gene 1 11 27 -1.00392 0 102 -1.00392 1
gene 1 11 28 1.6587 0 103 1.6587 1
gene 1 11 29 1.32358 0 104 1.32358 1
gene 1 11 31 -0.821678 0 106 -0.821678 1
gene 1 11 32 1.32808 0 107 1.32808 1
gene 1 11 33 -1.26392 0 108 -1.26392 1
gene 1 11 34 0.637155 0 109 0.637155 1
gene 1 11 35 -0.829216 0 110 -0.829216 1
gene 1 26 12 0.197623 0 111 0.197623 1
gene 1 26 13 0.318724 0 112 0.318724 1
gene 1 26 14 -0.249311 0 113 -0.249311 1
gene 1 26 15 1.3619 0 114 1.3619 1
gene 1 26 16 0.972276 0 115 0.972276 1
gene 1 26 17 1.00214 0 116 1.00214 1
gene 1 26 18 0.844278 0 117 0.844278 1
gene 1 26 19 -1.79069 0 118 -1.79069 1
gene 1 26 20 1.16725 0 119 1.16725 1
gene 1 26 21 1.82433 0 120 1.82433 1
gene 1 26 22 -1.77854 0 121 -1.77854 1
gene 1 26 23 -0.494294 0 122 -0.494294 1
gene 1 26 24 1.47596 0 123 1.47596 1
gene 1 26 25 0.941905 0 124 0.941905 1
gene 1 27 12 -0.655341 0 125 -0.655341 1
gene 1 27 13 -0.79821 0 126 -0.79821 1
gene 1 27 14 -0.869393 0 127 -0.869393 1
gene 1 27 15 -1.43155 0 128 -1.43155 1
gene 1 27 16 0.161346 0 129 0.161346 1
gene 1 27 17 0.599154 0 130 0.599154 1
gene 1 27 18 0.981314 0 131 0.981314 1
gene 1 27 19 1.39456 0 132 1.39456 1
gene 1 27 20 -0.0835015 0 133 -0.0835015 1
gene 1 27 21 1.401 0 134 1.401 1
gene 1 27 22 1.40806 0 135 1.40806 1
gene 1 27 23 -1.48805 0 136 -1.48805 1
gene 1 27 24 1.70607 0 137 1.70607 1
gene 1 27 25 -0.73547 0 138 -0.73547 1
gene 1 28 12 1.07609 0 139 1.07609 1
gene 1 28 13 0.619894 0 140 0.619894 1
gene 1 28 14 0.339079 0 141 0.339079 1
gene 1 28 15 -0.117708 0 142 -0.117708 1
gene 1 28 16 -1.14894 0 143 -1.14894 1
gene 1 28 17 -1.27781 0 144 -1.27781 1
gene 1 28 18 -0.697662 0 145 -0.697662 1
gene 1 28 19 1.33757 0 146 1.33757 1
gene 1 28 20 -0.873607 0 147 -0.873607 1
gene 1 28 21 -2.15074 0 148 -2.15074 1
gene 1 28 22 -1.21768 0 149 -1.21768 1
gene 1 28 23 0.622628 0 150 0.622628 1
gene 1 28 24 1.76299 0 151 1.76299 1
gene 1 28 25 -1.09118 0 152 -1.09118 1
gene 1 29 12 -1.15644 0 153 -1.15644 1
gene 1 29 13 -1.16793 0 154 -1.16793 1
gene 1 29 14 1.25663 0 155 1.25663 1
gene 1 29 15 0.866667 0 156 0.866667 1
gene 1 29 16 -0.220075 0 157 -0.220075 1
gene 1 29 17 -0.694911 0 158 -0.694911 1
gene 1 29 18 -2.21257 0 159 -2.21257 1
gene 1 29 19 -1.69563 0 160 -1.69563 1
gene 1 29 20 0.0983657 0 161 0.0983657 1
gene 1 29 21 0.975475 0 162 0.975475 1
gene 1 29 22 1.4189 0 163 1.4189 1
gene 1 29 23 1.00096 0 164 1.00096 1
gene 1 29 24 -2.2837 0 165 -2.2837 1
gene 1 29 25 -0.071654 0 166 -0.071654 1
gene 1 31 12 1.57764 0 181 1.57764 1
gene 1 31 13 -0.168589 0 182 -0.168589 1
gene 1 31 14 -0.452499 0 183 -0.452499 1
gene 1 31 15 0.579475 0 184 0.579475 1
gene 1 31 16 -1.53218 0 185 -1.53218 1
gene 1 31 17 -0.491954 0 186 -0.491954 1
gene 1 31 18 -0.807353 0 187 -0.807353 1
gene 1 31 19 1.47519 0 188 1.47519 1
gene 1 31 20 0.60194 0 189 0.60194 1
gene 1 31 21 -2.12699 0 190 -2.12699 1
gene 1 31 22 -0.914688 0 191 -0.914688 1
gene 1 31 23 -0.428006 0 192 -0.428006 1
gene 1 31 24 -0.354741 0 193 -0.354741 1
gene 1 31 25 -0.598674 0 194 -0.598674 1
gene 1 32 12 1.12025 0 195 1.12025 1
gene 1 32 13 2.21824 0 196 2.21824 1
gene 1 32 14 -1.12098 0 197 -1.12098 1
gene 1 32 15 -1.07794 0 198 -1.07794 1
gene 1 32 16 -1.01259 0 199 -1.01259 1
gene 1 32 17 0.179427 0 200 0.179427 1
gene 1 32 18 1.20395 0 201 1.20395 1
gene 1 32 19 -0.222955 0 202 -0.222955 1
gene 1 32 20 0.434896 0 203 0.434896 1
gene 1 32 21 0.715561 0 204 0.715561 1
gene 1 32 22 0.937591 0 205 0.937591 1
gene 1 32 23 -1.26681 0 206 -1.26681 1
gene 1 32 24 -1.59773 0 207 -1.59773 1
gene 1 32 25 -0.31621 0 208 -0.31621 1
gene 1 33 12 -1.83128 0 209 -1.83128 1
gene 1 33 13 -1.521 0 210 -1.521 1
gene 1 33 14 1.67876 0 211 1.67876 1
gene 1 33 15 -0.932397 0 212 -0.932397 1
gene 1 33 16 1.51285 0 213 1.51285 1
gene 1 33 17 2.09346 0 214 2.09346 1
gene 1 33 18 1.34545 0 215 1.34545 1
gene 1 33 19 -0.116006 0 216 -0.116006 1
gene 1 33 20 0.273036 0 217 0.273036 1
gene 1 33 21 0.919769 0 218 0.919769 1
gene 1 33 22 0.213335 0 219 0.213335 1
gene 1 33 23 1.75198 0 220 1.75198 1
gene 1 33 24 0.876657 0 221 0.876657 1
gene 1 33 25 -0.649115 0 222 -0.649115 1
gene 1 34 12 0.56926 0 223 0.56926 1
gene 1 34 13 -0.452927 0 224 -0.452927 1
gene 1 34 14 -0.629648 0 225 -0.629648 1
gene 1 34 15 -1.37075 0 226 -1.37075 1
gene 1 34 16 -1.12753 0 227 -1.12753 1
gene 1 34 17 1.17498 0 228 1.17498 1
gene 1 34 18 0.508566 0 229 0.508566 1
gene 1 34 19 -1.68811 0 230 -1.68811 1
gene 1 34 20 2.23688 0 231 2.23688 1
gene 1 34 21 1.15511 0 232 1.15511 1
gene 1 34 22 0.307133 0 233 0.307133 1
gene 1 34 23 -0.980924 0 234 -0.980924 1
gene 1 34 24 0.657437 0 235 0.657437 1
gene 1 34 25 0.665625 0 236 0.665625 1
gene 1 35 12 0.0478009 0 237 0.0478009 1
gene 1 35 13 -0.848404 0 238 -0.848404 1
gene 1 35 14 -1.4416 0 239 -1.4416 1
gene 1 35 15 1.3365 0 240 1.3365 1
gene 1 35 16 -0.249874 0 241 -0.249874 1
gene 1 35 17 -2.35508 0 242 -2.35508 1
gene 1 35 18 0.082071 0 243 0.082071 1
gene 1 35 19 -0.65431 0 244 -0.65431 1
gene 1 35 20 2.18602 0 245 2.18602 1
gene 1 35 21 0.828005 0 246 0.828005 1
gene 1 35 22 1.34747 0 247 1.34747 1
gene 1 35 23 -2.27586 0 248 -2.27586 1
gene 1 35 24 0.020678 0 249 0.020678 1
gene 1 35 25 1.46335 0 250 1.46335 1
gene 1 5 37 -0.598885 0 274 -0.598885 1
gene 1 37 33 -0.863553 0 275 -0.863553 1
genomeend 108
