/* Organism #51955904 Fitness: -4.26169 
genomestart 535
trait 1 0.687589 0.725975 0.293419 0.411379 0.48207 0.751481 0.619188 0.208423 
node 1 1 0
node 2 1 1
node 3 1 1
node 4 1 1
node 5 1 1
node 6 1 1
node 7 1 1
node 8 1 1
node 9 1 1
node 10 1 1
node 11 1 1
node 12 1 2
node 13 1 2
node 14 1 2
node 15 1 2
node 16 1 2
node 804 1 3
node 1331 1 3
node 1359 1 3
node 1901 1 3
node 2185 1 3
node 2320 1 3
node 2454 1 3
gene 1 9 12 5.44411 0 781 5.44411 1
gene 1 2 15 4.20633 0 5273 4.20633 1
gene 1 3 16 -0.912786 0 5577 -0.912786 1
gene 1 9 804 0.181783 0 15433 0.181783 1
gene 1 1 13 0.914243 0 20487 0.914243 1
gene 1 12 16 -1.28169 0 23006 -1.28169 1
gene 1 16 16 1.41523 1 23403 1.41523 1
gene 1 12 12 2.19292 1 24316 2.19292 1
gene 1 6 14 -0.742301 0 25517 -0.742301 1
gene 1 10 1331 0.205411 0 25656 0.205411 1
gene 1 6 1359 1.08675 0 26337 1.08675 1
gene 1 1359 1359 -2.54553 1 27507 -2.54553 1
gene 1 8 13 -0.0224325 0 30318 -0.0224325 1
gene 1 8 804 -4.48727 0 35002 -4.48727 1
gene 1 14 13 1.12421 1 38603 1.12421 1
gene 1 7 1901 -1.68216 0 38698 -1.68216 1
gene 1 1901 16 -0.189912 0 38699 -0.189912 1
gene 1 16 15 -0.920783 0 41342 -0.920783 1
gene 1 4 15 -0.332238 0 41662 -0.332238 1
gene 1 3 1901 0.462406 0 44437 0.462406 1
gene 1 6 1901 -0.0938215 0 44554 -0.0938215 1
gene 1 14 1359 0.613273 0 44819 0.613273 1
gene 1 2185 1331 -0.574939 0 45020 -0.574939 1
gene 1 1 14 0.918909 0 45675 0.918909 1
gene 1 8 1331 -2.0077 0 45869 -2.0077 1
gene 1 14 14 1.20862 1 46384 1.20862 1
gene 1 10 15 -1.49148 0 46727 -1.49148 1
gene 1 15 15 -4.20711 1 47064 -4.20711 1
gene 1 1359 13 -1.26143 0 47404 -1.26143 1
gene 1 1901 1901 -0.493631 1 47692 -0.493631 1
gene 1 2185 12 0.294867 0 47807 0.294867 1
gene 1 2 2320 0.177612 0 47947 0.177612 1
gene 1 2320 13 -1.36633 0 47948 -1.36633 1
gene 1 804 1901 -0.517999 0 48043 -0.517999 1
gene 1 2 1901 -0.0567645 0 48361 -0.0567645 1
gene 1 2 1331 -0.0534546 0 48991 -0.0534546 1
gene 1 5 1359 0.0914257 0 49601 0.0914257 1
gene 1 12 14 -0.202154 0 49901 -0.202154 1
gene 1 8 1901 1.81768 0 50052 1.81768 1
gene 1 4 16 -2.54206 0 50659 -2.54206 1
gene 1 15 2454 2.80594 0 51086 2.80594 1
gene 1 2454 1331 -0.198763 0 51087 -0.198763 1
gene 1 14 2320 0.0784264 0 51222 0.0784264 1
gene 1 2 2454 -0.47572 0 51659 -0.47572 1
genomeend 535
