/* Organism #60318208 Fitness: -0.722907 
genomestart 188
trait 1 0.698964 0.954068 0.281045 0.496333 0.574323 0.396399 0.315244 0.238655 
node 1 1 0
node 2 1 1
node 3 1 1
node 4 1 1
node 5 1 1
node 6 1 1
node 7 1 1
node 8 1 1
node 9 1 1
node 10 1 1
node 11 1 1
node 12 1 2
node 13 1 2
node 14 1 2
node 15 1 2
node 16 1 2
node 18 1 3
node 1171 1 3
node 1440 1 3
node 1749 1 3
node 2399 1 3
node 2430 1 3
node 2518 1 3
gene 1 2 18 -1.20021 0 12 -1.20021 1
gene 1 4 18 -0.818004 0 32 -0.818004 1
gene 1 7 18 -0.65394 0 62 -0.65394 1
gene 1 9 18 -1.26653 0 82 -1.26653 1
gene 1 18 12 0.035713 0 116 0.035713 1
gene 1 18 16 -1.08712 0 120 -1.08712 1
gene 1 7 12 0.675029 0 501 0.675029 1
gene 1 11 13 -0.0192599 0 3003 -0.0192599 1
gene 1 15 14 0.968595 0 3169 0.968595 1
gene 1 10 16 -1.20628 0 3445 -1.20628 1
gene 1 14 14 -0.729742 1 3592 -0.729742 1
gene 1 16 15 0.158804 0 4038 0.158804 1
gene 1 12 12 -0.378895 1 4282 -0.378895 1
gene 1 5 16 2.14756 0 4860 2.14756 1
gene 1 8 15 0.925209 0 6214 0.925209 1
gene 1 11 16 0.921632 0 6498 0.921632 1
gene 1 9 15 0.17184 0 9713 0.17184 1
gene 1 15 13 1.27472 0 13809 1.27472 1
gene 1 5 14 -0.995558 0 14462 -0.995558 1
gene 1 10 13 -0.384802 0 15464 -0.384802 1
gene 1 1 15 2.81199 0 18367 2.81199 1
gene 1 13 13 0.505214 1 21533 0.505214 1
gene 1 1 16 -0.113943 0 22646 -0.113943 1
gene 1 18 18 -1.04381 1 23312 -1.04381 1
gene 1 5 15 0.360284 0 24218 0.360284 1
gene 1 1171 15 -0.456927 0 24626 -0.459789 1
gene 1 6 13 -0.700117 0 24824 -0.700117 1
gene 1 9 16 1.20724 0 25057 1.20724 1
gene 1 7 1171 -1.98478 0 25607 -1.98478 1
gene 1 7 15 -0.933125 0 25911 -0.933125 1
gene 1 8 12 0.0301983 0 26148 0.0301983 1
gene 1 16 16 -0.279112 1 27104 -0.279112 1
gene 1 12 16 0.968529 0 27705 0.968529 1
gene 1 9 1440 -0.0672725 0 29435 -0.0955775 1
gene 1 1440 14 -0.942939 0 29436 -0.894412 1
gene 1 5 1440 -0.630473 0 30486 -0.630473 1
gene 1 13 1171 -0.167294 0 31671 -0.167294 1
gene 1 6 16 -0.201091 0 33728 -0.201091 1
gene 1 4 15 0.129418 0 34591 0.129418 1
gene 1 1171 1171 -0.61171 1 35151 -0.61171 1
gene 1 10 18 0.771425 0 35840 0.771425 1
gene 1 1749 15 -1.72301 0 36187 -1.53424 1
gene 1 1171 15 0.259551 1 37826 0.259551 1
gene 1 1749 18 0.978848 0 38575 0.978848 1
gene 1 8 1440 -0.524835 0 38737 -0.524835 1
gene 1 2 1749 0.13056 0 40752 0.13056 1
gene 1 4 1440 -1.1152 0 41104 -1.1152 1
gene 1 9 13 -0.396298 0 41235 -0.396298 1
gene 1 18 15 -0.858185 0 41584 -0.858185 1
gene 1 6 1749 -0.501731 0 43275 -0.501731 1
gene 1 8 13 0.0166605 0 43933 0.0166605 1
gene 1 5 1171 -1.23046 0 44724 -1.23046 1
gene 1 6 12 -0.48382 0 45312 -0.48382 1
gene 1 8 1171 0.303748 0 45493 0.303748 1
gene 1 5 1749 0.697452 0 49289 0.697452 1
gene 1 14 18 0.0333981 0 49476 0.0333981 1
gene 1 18 1171 -0.474496 0 49971 -0.474496 1
gene 1 5 18 -0.0766799 0 50249 -0.0766799 1
gene 1 2399 14 0.606107 0 50395 -0.0516314 1
gene 1 15 15 0.772106 1 50502 0.772106 1
gene 1 7 2430 1.02387 0 51139 0.211367 1
gene 1 2430 1440 0.131132 0 51140 0.0665434 1
gene 1 1749 1749 1.12754 1 51888 1.12754 1
gene 1 5 2399 0.273816 0 52114 0.273816 1
gene 1 1 2430 -0.278796 0 52246 -0.278796 1
gene 1 3 16 0.489773 0 52395 0.489773 1
gene 1 18 1440 0.598807 0 52476 0.598807 1
gene 1 9 2399 0.216952 0 52725 0.216952 1
gene 1 2399 2399 0.783948 1 52862 0.783948 1
gene 1 3 2518 1 0 53110 0 1
gene 1 2518 18 1.52682 0 53111 0 1
genomeend 188
