/* Organism #56893264 Fitness: -0.759082 
genomestart 664
trait 1 0.191867 0.600285 0.255887 0.773491 0.522817 0.347037 0.445133 0.212542 
node 1 1 0
node 2 1 1
node 3 1 1
node 4 1 1
node 5 1 1
node 6 1 1
node 7 1 1
node 8 1 1
node 9 1 1
node 10 1 1
node 11 1 1
node 12 1 2
node 13 1 2
node 14 1 2
node 15 1 2
node 16 1 2
node 21 1 3
node 1443 1 3
gene 1 1 21 0.0625072 0 5 0.0625072 1
gene 1 4 21 1.33585 0 35 1.33585 1
gene 1 10 21 2.07165 0 95 2.07165 1
gene 1 11 21 3.34411 0 105 3.34411 1
gene 1 21 12 1.30284 0 131 1.30284 1
gene 1 21 13 2.06791 0 132 2.06791 1
gene 1 21 14 1.21277 0 133 1.21277 1
gene 1 21 15 1.60491 0 134 1.60491 1
gene 1 21 16 -0.750787 0 135 -0.750787 1
gene 1 1 12 0.577519 0 356 0.577519 1
gene 1 1 15 -1.13286 0 1482 -1.13286 1
gene 1 16 12 1.76796 0 2350 1.76796 1
gene 1 2 14 -1.16098 0 3982 -1.16098 1
gene 1 4 16 -1.10571 0 6906 -1.10571 1
gene 1 7 15 -0.108704 0 7004 -0.108704 1
gene 1 8 14 -0.426672 0 12713 -0.426672 1
gene 1 15 14 0.64604 0 13202 0.64604 1
gene 1 12 13 0.0535086 0 15331 0.0535086 1
gene 1 8 16 -0.730008 0 15680 -0.730008 1
gene 1 16 13 1.00218 0 15953 1.00218 1
gene 1 11 13 -0.33891 0 16042 -0.33891 1
gene 1 8 13 1.35647 0 16197 1.35647 1
gene 1 11 16 -0.0469782 0 19739 -0.0469782 1
gene 1 4 15 -1.1688 0 20206 -1.1688 1
gene 1 12 12 -0.720214 1 21870 -0.720214 1
gene 1 16 16 0.775965 1 24746 0.775965 1
gene 1 7 13 0.61873 0 28329 0.61873 1
gene 1 2 12 -0.472803 0 28860 -0.472803 1
gene 1 4 1443 -0.563451 0 29018 -0.563451 1
gene 1 4 13 -1.12583 0 30146 -1.12583 1
gene 1 1443 1443 -0.0284065 1 30813 -0.0284065 1
gene 1 9 1443 1.05068 0 31390 1.05068 1
gene 1 6 1443 0.276985 0 32763 0.276985 1
gene 1 5 13 0.0747031 0 33469 0.0747031 1
gene 1 15 15 -0.499136 1 34238 -0.499136 1
gene 1 13 13 -0.664271 1 34485 -0.664271 1
gene 1 14 14 -0.686549 1 36633 -0.686549 1
gene 1 4 12 -0.369079 0 36779 -0.369079 1
gene 1 16 15 0.46736 0 36953 0.46736 1
gene 1 13 14 0.812776 0 37832 0.812776 1
gene 1 1443 16 -1.30805 0 38838 -1.30805 1
gene 1 15 16 0.261943 1 39111 0.261943 1
gene 1 1443 12 0.688525 0 39651 0.688525 1
gene 1 10 16 -0.574723 0 40021 -0.574723 1
gene 1 14 15 -0.445145 1 40329 -0.445145 1
gene 1 3 15 0.0849105 0 41338 0.0849105 1
gene 1 13 21 0.581285 1 41516 0.581285 1
gene 1 12 15 -1.05412 0 41588 -1.05412 1
gene 1 3 12 -1.00413 0 41956 -1.00413 1
gene 1 8 12 0.76407 0 42089 0.76407 1
gene 1 1443 15 -0.0769986 0 42257 -0.0769986 1
gene 1 6 15 -0.311489 0 42706 -0.311489 1
gene 1 3 14 0.59704 0 42867 0.59704 1
gene 1 10 12 -1.13545 0 43451 -1.13545 1
gene 1 5 16 -0.721708 0 43769 -0.721708 1
gene 1 10 14 0.846002 0 43937 0.846002 1
gene 1 5 15 0.107332 0 44095 0.107332 1
gene 1 9 12 -0.410086 0 44649 -0.410086 1
gene 1 8 21 0.589633 0 46220 0.589633 1
genomeend 664
