/* Organism #58622368 Fitness: -7.93162e+06 
genomestart 867
trait 1 0.992979 0.839301 0.128603 1 0 0.0918992 0.225553 0.750831 
node 1 1 0
node 2 1 1
node 3 1 1
node 4 1 1
node 5 1 1
node 6 1 1
node 7 1 1
node 8 1 1
node 9 1 1
node 10 1 2
node 11 1 2
node 12 1 2
node 13 1 2
node 14 1 2
node 15 1 2
node 16 1 2
node 17 1 2
node 18 1 2
node 19 1 2
node 20 1 2
node 22 1 3
node 24 1 3
node 25 1 3
node 27 1 3
node 249 1 3
node 364 1 3
node 650 1 3
node 1244 1 3
node 1565 1 3
node 1800 1 3
node 2001 1 3
node 2408 1 3
gene 1 1 22 -6.70472 0 2 -6.70472 1
gene 1 1 25 1.40433 0 5 1.40433 1
gene 1 3 25 -3.0439 0 21 -3.0439 1
gene 1 4 22 -0.691184 0 26 -0.691184 1
gene 1 4 27 3.48329 0 31 3.48329 1
gene 1 5 24 7.24014 0 36 7.24014 1
gene 1 6 22 -1.00846 0 42 -1.00846 1
gene 1 7 22 -2.7096 0 50 -2.7096 1
gene 1 7 24 -4.74815 0 52 -4.74815 1
gene 1 7 27 -1.797 0 55 -1.797 1
gene 1 8 25 -3.85417 0 61 -3.85417 1
gene 1 9 22 5.6951 0 66 5.6951 1
gene 1 9 24 1.90911 0 68 1.90911 1
gene 1 9 25 -3.25951 0 69 -3.25951 1
gene 1 22 10 -2.69868 0 84 -2.69868 1
gene 1 22 12 -5.89105 0 86 -5.89105 1
gene 1 22 13 -0.848893 0 87 -0.848893 1
gene 1 22 16 4.016 0 90 4.016 1
gene 1 22 18 -2.20527 0 92 -2.20527 1
gene 1 24 11 -0.833322 0 107 -0.833322 1
gene 1 24 12 -0.858291 0 108 -0.858291 1
gene 1 24 15 1.60051 0 111 1.60051 1
gene 1 24 16 -4.6037 0 112 -4.6037 1
gene 1 24 17 -2.93835 0 113 -2.93835 1
gene 1 24 20 -5.67774 0 116 -5.67774 1
gene 1 25 11 4.64492 0 118 4.64492 1
gene 1 25 12 -0.970441 0 119 -0.970441 1
gene 1 25 13 1.42435 0 120 1.42435 1
gene 1 25 14 2.95296 0 121 2.95296 1
gene 1 25 15 3.92051 0 122 3.92051 1
gene 1 25 16 -0.448494 0 123 -0.448494 1
gene 1 25 18 -0.329371 0 125 -0.329371 1
gene 1 25 19 1.31545 0 126 1.31545 1
gene 1 25 20 2.57706 0 127 2.57706 1
gene 1 27 11 -0.212115 0 140 -0.212115 1
gene 1 27 14 4.22253 0 143 4.22253 1
gene 1 27 15 3.8643 0 144 3.8643 1
gene 1 27 19 0.674403 0 148 0.674403 1
gene 1 19 18 -3.19923 0 558 -3.19923 1
gene 1 16 18 4.20236 0 713 4.20236 1
gene 1 20 20 -2.0678 1 1870 -2.0678 1
gene 1 5 12 2.40204 0 3754 2.40204 1
gene 1 2 12 -3.27182 0 4057 -3.27182 1
gene 1 20 19 -0.154941 0 4587 -0.154941 1
gene 1 16 14 -0.327058 0 4782 -0.327058 1
gene 1 1 19 0.480339 0 4954 0.480339 1
gene 1 20 16 1.52756 0 5958 1.52756 1
gene 1 2 249 -3.11214 0 6201 -3.11214 1
gene 1 9 13 1.84839 0 6881 1.84839 1
gene 1 22 364 2.59774 0 8362 2.59774 1
gene 1 364 14 0.821807 0 8363 0.821807 1
gene 1 13 13 -2.31131 1 9034 -2.31131 1
gene 1 11 20 1.30973 0 14207 1.30973 1
gene 1 9 12 3.28219 0 14620 3.28219 1
gene 1 3 14 -0.772681 0 14816 -0.772681 1
gene 1 6 17 0.920671 0 15004 0.920671 1
gene 1 12 10 -1.93734 0 15235 -1.93734 1
gene 1 11 16 -0.696641 0 15812 -0.696641 1
gene 1 2 650 1.02239 0 16256 1.02239 1
gene 1 650 25 -2.86909 0 16257 -2.86909 1
gene 1 18 19 0.149695 1 16755 0.149695 1
gene 1 25 24 -1.98939 0 17670 -1.98939 1
gene 1 9 17 5.90183 0 18839 5.90183 1
gene 1 249 24 1.87701 0 18897 1.87701 1
gene 1 6 18 -1.21531 0 19188 -1.21531 1
gene 1 4 16 -2.16178 0 21937 -2.16178 1
gene 1 6 24 0.956178 0 22554 0.956178 1
gene 1 2 11 -0.368276 0 25777 -0.368276 1
gene 1 249 16 0.524272 0 26703 0.524272 1
gene 1 9 650 -0.0045576 0 26910 -0.0045576 1
gene 1 12 16 1.69232 0 27188 1.69232 1
gene 1 5 22 1.80383 0 27310 1.80383 1
gene 1 5 364 -0.836869 0 28420 -0.836869 1
gene 1 13 10 2.54394 0 28836 2.54394 1
gene 1 17 17 -0.403751 1 29741 -0.403751 1
gene 1 16 10 1.34807 0 30412 1.34807 1
gene 1 14 14 2.06704 1 30593 2.06704 1
gene 1 2 16 -2.00905 0 31408 -2.00905 1
gene 1 2 1244 -5.54848 0 31868 -5.54848 1
gene 1 1244 27 1.29753 0 31869 1.29753 1
gene 1 11 11 -0.885932 1 32509 -0.885932 1
gene 1 364 18 -2.37016 0 33383 -2.37016 1
gene 1 364 12 1.03617 0 34004 1.03617 1
gene 1 14 20 -1.05136 1 34995 -1.05136 1
gene 1 1 364 1.66671 0 36396 1.66671 1
gene 1 25 25 -2.68058 1 36581 -2.68058 1
gene 1 249 17 1.50156 0 36804 1.50156 1
gene 1 3 16 1.76524 0 37773 1.76524 1
gene 1 2 22 -1.34444 0 38256 -1.34444 1
gene 1 19 1565 0.773214 1 40024 0.773214 1
gene 1 1565 19 -0.00531275 0 40025 -0.00531275 1
gene 1 1244 20 1.61035 0 40832 1.61035 1
gene 1 1244 11 -2.6868 0 41611 -2.6868 1
gene 1 364 27 1.99553 0 41821 1.99553 1
gene 1 249 14 1.27331 0 42433 1.27331 1
gene 1 11 18 -4.56801 0 43060 -4.56801 1
gene 1 11 14 -0.257293 0 43856 -0.257293 1
gene 1 7 364 -0.746434 0 44691 -0.746434 1
gene 1 9 364 2.77605 0 45715 2.77605 1
gene 1 22 22 0.138249 1 45989 0.138249 1
gene 1 20 1800 2.44876 0 46288 2.44876 1
gene 1 1800 14 0.785914 0 46289 0.785914 1
gene 1 1244 10 -1.32194 0 46618 -1.32194 1
gene 1 1565 15 -3.35748 0 46838 -3.35748 1
gene 1 27 1800 -1.59419 0 47079 -1.59419 1
gene 1 17 16 2.80404 0 47466 2.80404 1
gene 1 27 27 0.0669027 1 48140 0.0669027 1
gene 1 14 18 2.71522 0 50700 2.71522 1
gene 1 25 249 -2.34197 0 51279 -2.34197 1
gene 1 650 2001 -1.57761 0 51638 -1.57761 1
gene 1 2001 2001 1.84382 1 52506 1.84382 1
gene 1 12 15 -3.08321 0 52719 -3.08321 1
gene 1 6 19 -0.275885 0 53278 -0.275885 1
gene 1 20 2001 -0.953639 0 53528 -0.953639 1
gene 1 17 19 -0.813963 0 53737 -0.813963 1
gene 1 1565 27 -1.6554 0 54124 -1.6554 1
gene 1 10 10 -0.639815 1 54684 -0.639815 1
gene 1 13 20 0.0450171 0 54920 0.0450171 1
gene 1 9 1800 -1.57065 0 55145 -1.57065 1
gene 1 4 1565 -0.909884 0 55417 -0.909884 1
gene 1 249 18 0.201968 0 57823 0.201968 1
gene 1 2 15 0.671717 0 58639 0.671717 1
gene 1 1244 17 1.20909 0 58825 1.20909 1
gene 1 18 2001 0.113057 0 58950 0.113057 1
gene 1 24 18 0.0456805 0 59608 0.0456805 1
gene 1 1 1565 0.53661 0 59780 0.53661 1
gene 1 15 15 2.02173 1 60775 2.02173 1
gene 1 1565 12 -1.28305 0 61122 -1.28305 1
gene 1 7 1800 0.708336 0 61377 0.708336 1
gene 1 24 2408 -0.499336 0 62390 -0.499336 1
gene 1 2408 19 1.30459 0 62391 1.30459 1
gene 1 15 13 -0.500059 0 62787 -0.500059 1
gene 1 18 18 -0.530183 1 63162 -0.530183 1
gene 1 1 249 0.0287475 0 63624 0.0287475 1
gene 1 1565 1565 2.68246 1 63789 2.68246 1
gene 1 8 16 -0.156534 0 64005 -0.156534 1
gene 1 6 1800 -1.37355 0 64412 -1.37355 1
gene 1 1800 1800 -0.218363 1 64893 -0.218363 1
gene 1 1565 20 -0.301484 0 64994 -0.301484 1
gene 1 4 24 -0.549013 0 65305 -0.549013 1
gene 1 12 25 0.447513 1 65744 0.447513 1
genomeend 867
