/* Organism #42896704 Fitness: -7.92046e+06 
genomestart 304
trait 1 1 0 0.270743 1 0.89461 0 1 0.874972 
node 1 1 0
node 2 1 1
node 3 1 1
node 4 1 1
node 5 1 1
node 6 1 1
node 7 1 1
node 8 1 1
node 9 1 1
node 10 1 2
node 11 1 2
node 12 1 2
node 13 1 2
node 14 1 2
node 15 1 2
node 16 1 2
node 17 1 2
node 18 1 2
node 19 1 2
node 20 1 2
node 22 1 3
node 23 1 3
node 25 1 3
node 26 1 3
node 478 1 3
node 915 1 3
node 1658 1 3
node 2019 1 3
node 2212 1 3
node 2298 1 3
node 2529 1 3
gene 1 1 22 -2.13091 0 2 -2.13091 1
gene 1 1 25 2.61903 0 5 2.61903 1
gene 1 2 22 3.25407 0 10 3.25407 1
gene 1 2 26 3.46931 0 14 3.46931 1
gene 1 3 22 5.2348 0 18 5.2348 1
gene 1 3 25 0.151794 0 21 0.151794 1
gene 1 4 22 -2.11358 0 26 -2.11358 1
gene 1 4 23 -0.72162 0 27 -0.72162 1
gene 1 4 25 -1.22831 0 29 -1.22831 1
gene 1 4 26 -0.915193 0 30 -0.915193 1
gene 1 5 22 -1.34401 0 34 -1.34401 1
gene 1 5 26 5.97325 0 38 5.97325 1
gene 1 6 25 0.0119823 0 45 0.0119823 1
gene 1 6 26 -1.79464 0 46 -1.79464 1
gene 1 7 22 -1.15522 0 50 -1.15522 1
gene 1 7 23 0.81267 0 51 0.81267 1
gene 1 7 25 -0.986025 0 53 -0.986025 1
gene 1 7 26 -2.94418 0 54 -2.94418 1
gene 1 8 22 -4.53271 0 58 -4.53271 1
gene 1 8 26 4.27885 0 62 4.27885 1
gene 1 9 25 2.65664 0 69 2.65664 1
gene 1 9 26 2.86426 0 70 2.86426 1
gene 1 22 11 1.09452 0 85 1.09452 1
gene 1 22 13 0.0254791 0 87 0.0254791 1
gene 1 22 15 4.63555 0 89 4.63555 1
gene 1 22 16 0.529284 0 90 0.529284 1
gene 1 22 18 -3.93817 0 92 -3.93817 1
gene 1 22 19 3.51465 0 93 3.51465 1
gene 1 22 20 1.48517 0 94 1.48517 1
gene 1 23 13 -4.00226 0 98 -4.00226 1
gene 1 23 14 -1.0823 0 99 -1.0823 1
gene 1 23 16 0.970175 0 101 0.970175 1
gene 1 23 17 -3.67083 0 102 -3.67083 1
gene 1 23 18 -5.6234 0 103 -5.6234 1
gene 1 23 20 -0.892015 0 105 -0.892015 1
gene 1 25 12 2.70495 0 119 2.70495 1
gene 1 25 16 -0.333248 0 123 -0.333248 1
gene 1 25 17 1.52663 0 124 1.52663 1
gene 1 25 20 -1.17182 0 127 -1.17182 1
gene 1 26 10 1.75094 0 128 1.75094 1
gene 1 26 11 0.915989 0 129 0.915989 1
gene 1 26 12 1.45082 0 130 1.45082 1
gene 1 26 14 1.03143 0 132 1.03143 1
gene 1 26 17 -2.68691 0 135 -2.68691 1
gene 1 26 19 -1.98543 0 137 -1.98543 1
gene 1 10 19 -0.93049 0 1327 -0.93049 1
gene 1 12 12 -0.424377 1 2518 -0.424377 1
gene 1 20 12 -4.18476 0 4074 -4.18476 1
gene 1 4 13 -4.85484 0 5040 -4.85484 1
gene 1 20 10 -5.22596 0 7236 -5.22596 1
gene 1 17 16 6.02131 0 7551 6.02131 1
gene 1 19 18 -2.7664 0 8007 -2.7664 1
gene 1 20 20 3.24752 1 8615 3.24752 1
gene 1 20 16 -0.0799583 0 9006 -0.0799583 1
gene 1 3 20 -0.519283 0 9519 -0.519283 1
gene 1 3 17 -5.09347 0 10222 -5.09347 1
gene 1 9 10 -4.6322 0 11127 -4.6322 1
gene 1 478 19 5.06023 0 11666 5.06023 1
gene 1 3 478 0.867719 0 14280 0.867719 1
gene 1 26 26 1.13931 1 15874 1.13931 1
gene 1 12 16 -2.55411 0 16687 -2.55411 1
gene 1 14 15 0.0803195 0 17884 0.0803195 1
gene 1 9 22 3.35475 0 18251 3.35475 1
gene 1 4 18 1.21385 0 18838 1.21385 1
gene 1 12 14 -6.59125 0 19791 -6.59125 1
gene 1 2 915 0.349173 0 22146 0.349173 1
gene 1 14 14 0.911596 1 23431 0.911596 1
gene 1 3 26 1.9918 0 26186 1.9918 1
gene 1 22 10 -0.0453186 0 26403 -0.0453186 1
gene 1 20 915 4.54805 1 26614 4.54805 1
gene 1 23 15 -0.866924 0 26763 -0.866924 1
gene 1 14 10 -0.819886 0 27104 -0.819886 1
gene 1 18 22 1.06516 1 27754 1.06516 1
gene 1 1 15 3.84063 0 29253 3.84063 1
gene 1 5 15 0.247631 0 29846 0.247631 1
gene 1 9 18 -3.49185 0 30248 -3.49185 1
gene 1 14 19 -3.19157 0 30694 -3.19157 1
gene 1 3 15 3.05073 0 31472 3.05073 1
gene 1 478 12 2.58779 0 32449 2.58779 1
gene 1 915 17 -6.33287 0 33101 -6.33287 1
gene 1 19 19 1.00538 1 33470 1.00538 1
gene 1 5 10 2.27777 0 33655 2.27777 1
gene 1 4 17 -4.33946 0 34612 -4.33946 1
gene 1 17 478 0.0345131 0 35357 0.0345131 1
gene 1 3 16 -3.25978 0 35688 -3.25978 1
gene 1 7 19 0.40666 0 36072 0.40666 1
gene 1 915 478 2.65281 0 36956 2.65281 1
gene 1 18 13 -4.32254 0 37885 -4.32254 1
gene 1 23 11 0.685427 0 38126 0.685427 1
gene 1 478 11 1.35781 0 38972 1.35781 1
gene 1 915 23 -4.36537 0 39338 -4.36537 1
gene 1 8 10 -0.205094 0 39609 -0.205094 1
gene 1 16 14 -1.0505 0 40132 -1.0505 1
gene 1 1658 18 -0.760623 0 40426 -0.760623 1
gene 1 11 12 -0.0707575 0 41293 -0.0707575 1
gene 1 915 915 -3.55514 1 41403 -3.55514 1
gene 1 12 19 -2.19831 0 41761 -2.19831 1
gene 1 1 478 -0.0975665 0 42336 -0.0975665 1
gene 1 19 13 3.51298 0 43906 3.51298 1
gene 1 22 1658 -1.40385 0 44110 -1.40385 1
gene 1 2 13 -2.78651 0 45076 -2.78651 1
gene 1 20 11 -3.01989 0 45948 -3.01989 1
gene 1 19 26 -0.9189 1 46321 -0.9189 1
gene 1 5 17 -6.78229 0 47275 -6.78229 1
gene 1 2 1658 1.13068 0 47522 1.13068 1
gene 1 1658 20 -0.795992 0 47748 -0.795992 1
gene 1 2 10 -0.347821 0 48586 -0.347821 1
gene 1 2 15 1.9279 0 49165 1.9279 1
gene 1 915 26 2.07111 0 49436 2.07111 1
gene 1 26 2019 0.937068 0 49571 0.937068 1
gene 1 2019 16 -0.295474 0 49572 -0.295474 1
gene 1 3 19 -0.528291 0 50835 -0.528291 1
gene 1 25 2019 -0.132919 0 51823 -0.132919 1
gene 1 17 20 0.303396 0 52540 0.303396 1
gene 1 10 10 -1.49373 1 53020 -1.49373 1
gene 1 1 18 -1.98308 0 53446 -1.98308 1
gene 1 1 23 1.59914 0 53743 1.59914 1
gene 1 2212 10 1.50882 0 54182 1.50882 1
gene 1 12 15 -0.17502 0 54625 -0.17502 1
gene 1 5 16 2.56372 0 54798 2.56372 1
gene 1 1658 19 1.69496 0 54972 1.69496 1
gene 1 9 478 -0.374048 0 55189 -0.374048 1
gene 1 13 13 0.973468 1 55965 0.973468 1
gene 1 2 2298 1.23494 0 56283 1.23494 1
gene 1 2298 20 0.404512 0 56284 0.404512 1
gene 1 16 16 -0.82849 1 56669 -0.82849 1
gene 1 15 19 0.543785 0 58501 0.543785 1
gene 1 2298 22 -1.43134 0 59489 -1.43134 1
gene 1 8 1658 0.566194 0 60079 0.566194 1
gene 1 1658 1658 0.634999 1 60148 0.634999 1
gene 1 478 478 0.967537 1 60873 0.967537 1
gene 1 3 14 -0.3743 0 61088 -0.3743 1
gene 1 15 13 -0.0775647 0 61315 -0.0775647 1
gene 1 2212 17 -1.73735 0 61529 -1.73735 1
gene 1 15 2529 1 1 62007 0 1
gene 1 2529 15 -4.32404 0 62008 0 1
gene 1 9 11 0.00277517 0 62679 0.00277517 1
genomeend 304
