/* Organism #140691373529096 Fitness: -7.94245e+06 
genomestart 498
trait 1 0.822853 0.755755 0.755562 0.0359083 0.898413 0.0021842 0.397409 0.982527 
node 1 1 0
node 2 1 1
node 3 1 1
node 4 1 1
node 5 1 1
node 6 1 1
node 7 1 1
node 8 1 1
node 9 1 1
node 10 1 2
node 11 1 2
node 12 1 2
node 13 1 2
node 14 1 2
node 15 1 2
node 16 1 2
node 17 1 2
node 18 1 2
node 19 1 2
node 20 1 2
node 24 1 3
node 28 1 3
node 1586 1 3
gene 1 1 24 -2.17623 0 4 -2.17623 1
gene 1 1 28 -4.44021 0 8 -4.44021 1
gene 1 2 28 1.50228 0 16 1.50228 1
gene 1 3 24 1.14221 0 20 1.14221 1
gene 1 5 24 -4.87047 0 36 -4.87047 1
gene 1 6 28 -1.58751 0 48 -1.58751 1
gene 1 7 24 2.38577 0 52 2.38577 1
gene 1 7 28 -1.68545 0 56 -1.68545 1
gene 1 8 24 0.205032 0 60 0.205032 1
gene 1 9 24 0.390381 0 68 0.390381 1
gene 1 24 10 -5.62649 0 106 -5.62649 1
gene 1 24 13 0.366667 0 109 0.366667 1
gene 1 24 15 -0.0161336 0 111 -0.0161336 1
gene 1 24 16 3.3571 0 112 3.3571 1
gene 1 24 18 2.04156 0 114 2.04156 1
gene 1 24 20 -3.50026 0 116 -3.50026 1
gene 1 28 10 -0.841025 0 150 -0.841025 1
gene 1 28 11 -0.33303 0 151 -0.33303 1
gene 1 28 14 0.62935 0 154 0.62935 1
gene 1 28 15 1.61882 0 155 1.61882 1
gene 1 28 16 0.0334839 0 156 0.0334839 1
gene 1 28 17 2.53064 0 157 2.53064 1
gene 1 28 20 3.96656 0 160 3.96656 1
gene 1 5 11 2.47002 0 703 2.47002 1
gene 1 11 20 -1.98685 0 1054 -1.98685 1
gene 1 20 15 1.48088 0 2700 1.48088 1
gene 1 20 14 0.549971 0 4458 0.549971 1
gene 1 18 14 -0.27465 0 5991 -0.27465 1
gene 1 20 16 -0.99671 0 7316 -0.99671 1
gene 1 2 10 1.0181 0 8876 1.0181 1
gene 1 12 12 1.96752 1 9421 1.96752 1
gene 1 1 12 3.27189 0 10264 3.27189 1
gene 1 8 18 0.580972 0 11729 0.580972 1
gene 1 24 24 1.96766 1 16834 1.96766 1
gene 1 10 15 -0.919771 0 19358 -0.919771 1
gene 1 10 10 0.405926 1 20612 0.405926 1
gene 1 13 11 2.3697 0 23842 2.3697 1
gene 1 6 19 -0.316988 0 27734 -0.316988 1
gene 1 13 13 -0.54783 1 31411 -0.54783 1
gene 1 6 15 -1.10614 0 31559 -1.10614 1
gene 1 6 16 -0.0694684 0 31834 -0.0694684 1
gene 1 28 28 -0.637616 1 33842 -0.637616 1
gene 1 28 13 1.27084 0 34702 1.27084 1
gene 1 6 10 0.720873 0 36428 0.720873 1
gene 1 9 17 1.59794 0 38891 1.59794 1
gene 1 14 15 -0.381623 0 38997 -0.381623 1
gene 1 1586 17 0.930482 0 39179 0.930482 1
gene 1 15 15 -0.343813 1 40448 -0.343813 1
gene 1 5 12 -1.30227 0 40651 -1.30227 1
gene 1 1586 13 0.947691 0 41421 0.947691 1
gene 1 16 16 1.57934 1 42945 1.57934 1
gene 1 18 18 1.00274 1 46000 1.00274 1
gene 1 19 19 1.09514 1 46161 1.09514 1
gene 1 6 12 0.675943 0 46406 0.675943 1
gene 1 14 10 0.772985 0 46804 0.772985 1
gene 1 20 17 0.173003 0 46951 0.173003 1
gene 1 9 14 -0.713447 0 47658 -0.713447 1
gene 1 7 12 -0.2347 0 47851 -0.2347 1
gene 1 12 18 -0.298379 0 48792 -0.298379 1
gene 1 11 17 0.0656744 0 48986 0.0656744 1
gene 1 24 14 1.00412 0 50085 1.00412 1
gene 1 16 14 -0.617603 0 51670 -0.617603 1
gene 1 7 16 0.44728 0 52757 0.44728 1
gene 1 12 13 0.173396 0 53089 0.173396 1
gene 1 1586 1586 1.87701 1 53637 1.87701 1
gene 1 1 17 -0.20145 0 53984 -0.20145 1
gene 1 16 10 0.181113 0 54378 0.181113 1
gene 1 6 13 0.476218 0 54521 0.476218 1
gene 1 10 17 -0.375536 0 54704 -0.375536 1
gene 1 24 11 0.556384 0 55265 0.556384 1
gene 1 3 11 -0.47198 0 55308 -0.47198 1
gene 1 9 13 0.765295 0 55535 0.765295 1
gene 1 20 28 -0.280541 1 57184 -0.280541 1
gene 1 3 17 0.891391 0 57495 0.891391 1
gene 1 14 14 -0.055659 1 57883 -0.055659 1
gene 1 28 1586 -0.59967 0 58114 -0.59967 1
gene 1 4 10 -0.309949 0 58419 -0.309949 1
gene 1 18 13 0.768033 0 59125 0.768033 1
gene 1 4 20 -0.631297 0 59650 -0.631297 1
gene 1 20 10 0.0875843 0 59834 0.0875843 1
gene 1 19 18 0.265846 0 60296 0.265846 1
gene 1 4 16 0.840936 0 61301 0.840936 1
gene 1 10 14 0.180861 1 61578 0.180861 1
gene 1 1586 11 0.9995 0 61829 0.9995 1
gene 1 7 14 0.790007 0 61929 0.790007 1
gene 1 24 28 0.498698 0 62988 0.498698 1
gene 1 28 18 0.977812 0 63349 0.977812 1
gene 1 3 10 -0.280483 0 63713 -0.280483 1
genomeend 498
