/* Organism #147 Fitness: 1.004 Error: 0.996 */
genomestart 147
trait 1 0.523676 0.48438 0.0670134 0.0539885 0.908219 0.227115 0.802893 0.25727 
node 1 1 0
node 2 1 1
node 3 1 1
node 4 1 1
node 5 1 1
node 6 1 1
node 7 1 1
node 8 1 1
node 9 1 1
node 10 1 2
node 11 1 2
node 12 1 2
node 13 1 2
node 14 1 2
node 15 1 2
node 16 1 2
node 17 1 2
node 18 1 2
node 19 1 2
node 20 1 2
node 21 1 3
node 22 1 3
node 23 1 3
node 24 1 3
node 26 1 3
node 27 1 3
gene 1 1 21 2.12827 0 1 2.12827 1
gene 1 1 22 -0.970926 0 2 -0.970926 1
gene 1 1 23 1.28653 0 3 1.28653 1
gene 1 1 24 -5.01909 0 4 -5.01909 1
gene 1 1 26 -1.55415 0 6 -1.55415 1
gene 1 1 27 1.87482 0 7 1.87482 1
gene 1 2 21 4.10131 0 9 4.10131 1
gene 1 2 22 0.10613 0 10 0.10613 1
gene 1 2 23 1.29326 0 11 1.29326 1
gene 1 2 24 1.16379 0 12 1.16379 1
gene 1 2 26 4.89781 0 14 4.89781 1
gene 1 2 27 -2.22025 0 15 -2.22025 1
gene 1 3 21 0.0986527 0 17 0.0986527 1
gene 1 3 22 0.0101599 0 18 0.0101599 1
gene 1 3 23 2.80828 0 19 2.80828 1
gene 1 3 24 0.909069 0 20 0.909069 1
gene 1 3 26 0.338498 0 22 0.338498 1
gene 1 3 27 1.82858 0 23 1.82858 1
gene 1 4 21 -1.21288 0 25 -1.21288 1
gene 1 4 22 1.83982 0 26 1.83982 1
gene 1 4 23 -3.01766 0 27 -3.01766 1
gene 1 4 24 -5.31404 0 28 -5.31404 1
gene 1 4 26 1.29748 0 30 1.29748 1
gene 1 4 27 3.11071 0 31 3.11071 1
gene 1 5 21 1.14843 0 33 1.14843 1
gene 1 5 22 0.123745 0 34 0.123745 1
gene 1 5 23 0.973606 0 35 0.973606 1
gene 1 5 24 1.89892 0 36 1.89892 1
gene 1 5 26 5.68578 0 38 5.68578 1
gene 1 5 27 0.883525 0 39 0.883525 1
gene 1 6 21 0.62776 0 41 0.62776 1
gene 1 6 22 -5.49608 0 42 -5.49608 1
gene 1 6 23 -2.13 0 43 -2.13 1
gene 1 6 24 4.28834 0 44 4.28834 1
gene 1 6 26 1.12154 0 46 1.12154 1
gene 1 6 27 -2.09504 0 47 -2.09504 1
gene 1 7 21 2.45841 0 49 2.45841 1
gene 1 7 22 -0.173119 0 50 -0.173119 1
gene 1 7 23 2.54385 0 51 2.54385 1
gene 1 7 24 -2.58779 0 52 -2.58779 1
gene 1 7 26 0.508594 0 54 0.508594 1
gene 1 7 27 4.04661 0 55 4.04661 1
gene 1 8 21 -1.62944 0 57 -1.62944 1
gene 1 8 22 -0.735412 0 58 -0.735412 1
gene 1 8 23 -0.244603 0 59 -0.244603 1
gene 1 8 24 -0.385073 0 60 -0.385073 1
gene 1 8 26 -0.104508 0 62 -0.104508 1
gene 1 8 27 -2.4788 0 63 -2.4788 1
gene 1 9 21 0.538667 0 65 0.538667 1
gene 1 9 22 1.80328 0 66 1.80328 1
gene 1 9 23 5.19095 0 67 5.19095 1
gene 1 9 24 -2.0026 0 68 -2.0026 1
gene 1 9 26 -2.64784 0 70 -2.64784 1
gene 1 9 27 -0.380098 0 71 -0.380098 1
gene 1 21 10 -0.545067 0 73 -0.545067 1
gene 1 21 11 -1.99258 0 74 -1.99258 1
gene 1 21 12 2.2753 0 75 2.2753 1
gene 1 21 13 1.30712 0 76 1.30712 1
gene 1 21 14 4.43458 0 77 4.43458 1
gene 1 21 15 0.332319 0 78 0.332319 1
gene 1 21 16 -3.76729 0 79 -3.76729 1
gene 1 21 17 -0.750373 0 80 -0.750373 1
gene 1 21 18 1.25753 0 81 1.25753 1
gene 1 21 19 1.67804 0 82 1.67804 1
gene 1 21 20 4.96082 0 83 4.96082 1
gene 1 22 10 -3.96381 0 84 -3.96381 1
gene 1 22 11 1.40753 0 85 1.40753 1
gene 1 22 12 0.854547 0 86 0.854547 1
gene 1 22 13 -1.00315 0 87 -1.00315 1
gene 1 22 14 -3.68471 0 88 -3.68471 1
gene 1 22 15 -0.543271 0 89 -0.543271 1
gene 1 22 16 1.28482 0 90 1.28482 1
gene 1 22 17 -0.399145 0 91 -0.399145 1
gene 1 22 18 -1.46404 0 92 -1.46404 1
gene 1 22 19 0.032155 0 93 0.032155 1
gene 1 22 20 -1.23482 0 94 -1.23482 1
gene 1 23 10 -0.103153 0 95 -0.103153 1
gene 1 23 11 1.7297 0 96 1.7297 1
gene 1 23 12 1.78432 0 97 1.78432 1
gene 1 23 13 -0.188875 0 98 -0.188875 1
gene 1 23 14 -0.761615 0 99 -0.761615 1
gene 1 23 15 -0.448555 0 100 -0.448555 1
gene 1 23 16 -0.543983 0 101 -0.543983 1
gene 1 23 17 3.75121 0 102 3.75121 1
gene 1 23 18 3.4074 0 103 3.4074 1
gene 1 23 19 -1.73669 0 104 -1.73669 1
gene 1 23 20 0.767738 0 105 0.767738 1
gene 1 24 10 2.16819 0 106 2.16819 1
gene 1 24 11 -0.239603 0 107 -0.239603 1
gene 1 24 12 -0.0353774 0 108 -0.0353774 1
gene 1 24 13 3.43466 0 109 3.43466 1
gene 1 24 14 -1.58409 0 110 -1.58409 1
gene 1 24 15 -2.47638 0 111 -2.47638 1
gene 1 24 16 0.495865 0 112 0.495865 1
gene 1 24 17 1.23843 0 113 1.23843 1
gene 1 24 18 0.424472 0 114 0.424472 1
gene 1 24 19 -2.73138 0 115 -2.73138 1
gene 1 24 20 0.00166787 0 116 0.00166787 1
gene 1 26 10 3.12915 0 128 3.12915 1
gene 1 26 11 0.906255 0 129 0.906255 1
gene 1 26 12 -2.27542 0 130 -2.27542 1
gene 1 26 13 -0.768137 0 131 -0.768137 1
gene 1 26 14 0.543833 0 132 0.543833 1
gene 1 26 15 -1.003 0 133 -1.003 1
gene 1 26 16 2.27562 0 134 2.27562 1
gene 1 26 17 0.52578 0 135 0.52578 1
gene 1 26 18 -0.639554 0 136 -0.639554 1
gene 1 26 19 3.03573 0 137 3.03573 1
gene 1 26 20 1.97648 0 138 1.97648 1
gene 1 27 10 1.45372 0 139 1.45372 1
gene 1 27 11 -0.202665 0 140 -0.202665 1
gene 1 27 12 2.65744 0 141 2.65744 1
gene 1 27 13 -0.0427361 0 142 -0.0427361 1
gene 1 27 14 -1.88921 0 143 -1.88921 1
gene 1 27 15 -1.08378 0 144 -1.08378 1
gene 1 27 16 -0.628918 0 145 -0.628918 1
gene 1 27 17 1.6364 0 146 1.6364 1
gene 1 27 18 -1.38202 0 147 -1.38202 1
gene 1 27 19 1.10888 0 148 1.10888 1
gene 1 27 20 0.906186 0 149 0.906186 1
gene 1 3 10 -0.246631 0 638 -0.246631 1
gene 1 22 22 -0.0177319 1 1121 -0.0177319 1
genomeend 147
