/* Organism #138 Fitness: 1.008 Error: 0.992 */
genomestart 138
trait 1 1 0.0794406 1 0.16788 0.900644 0.217272 0.496662 0 
node 1 1 0
node 2 1 1
node 3 1 1
node 4 1 1
node 5 1 1
node 6 1 1
node 7 1 1
node 8 1 1
node 9 1 1
node 10 1 2
node 11 1 2
node 12 1 2
node 13 1 2
node 14 1 2
node 15 1 2
node 16 1 2
node 17 1 2
node 18 1 2
node 19 1 2
node 20 1 2
node 24 1 3
node 26 1 3
node 27 1 3
node 38 1 3
node 134 1 3
gene 1 1 24 -2.51314 0 4 -2.51314 1
gene 1 1 26 4.58892 0 6 4.58892 1
gene 1 1 27 4.0098 0 7 4.0098 1
gene 1 2 26 -1.73145 0 14 -1.73145 1
gene 1 2 27 -0.302806 0 15 -0.302806 1
gene 1 3 24 -1.63865 0 20 -1.63865 1
gene 1 3 26 -2.01433 0 22 -2.01433 1
gene 1 4 24 -1.99964 0 28 -1.99964 1
gene 1 4 26 -0.983495 0 30 -0.983495 1
gene 1 5 24 -1.2577 0 36 -1.2577 1
gene 1 5 26 6.39392 0 38 6.39392 1
gene 1 5 27 4.10807 0 39 4.10807 1
gene 1 6 24 1.93515 0 44 1.93515 1
gene 1 6 26 0.176587 0 46 0.176587 1
gene 1 6 27 1.37308 0 47 1.37308 1
gene 1 7 24 -0.692747 0 52 -0.692747 1
gene 1 7 26 2.40539 0 54 2.40539 1
gene 1 7 27 2.24946 0 55 2.24946 1
gene 1 8 24 2.82729 0 60 2.82729 1
gene 1 8 26 -0.591551 0 62 -0.591551 1
gene 1 8 27 0.449994 0 63 0.449994 1
gene 1 9 24 -1.33701 0 68 -1.33701 1
gene 1 9 27 -1.86149 0 71 -1.86149 1
gene 1 24 10 -1.77648 0 106 -1.77648 1
gene 1 24 11 -1.53384 0 107 -1.53384 1
gene 1 24 12 4.5749 0 108 4.5749 1
gene 1 24 14 1.44791 0 110 1.44791 1
gene 1 24 15 -1.19798 0 111 -1.19798 1
gene 1 24 17 -2.62746 0 113 -2.62746 1
gene 1 24 18 2.92469 0 114 2.92469 1
gene 1 24 19 -0.142526 0 115 -0.142526 1
gene 1 24 20 0.782019 0 116 0.782019 1
gene 1 26 10 -0.899984 0 128 -0.899984 1
gene 1 26 11 -5.5636 0 129 -5.5636 1
gene 1 26 12 1.39089 0 130 1.39089 1
gene 1 26 13 -3.57437 0 131 -3.57437 1
gene 1 26 14 5.90998 0 132 5.90998 1
gene 1 26 15 6.1694 0 133 6.1694 1
gene 1 26 17 -2.03538 0 135 -2.03538 1
gene 1 26 18 1.64481 0 136 1.64481 1
gene 1 26 19 -1.46314 0 137 -1.46314 1
gene 1 26 20 3.52195 0 138 3.52195 1
gene 1 27 11 -2.87689 0 140 -2.87689 1
gene 1 27 12 3.6877 0 141 3.6877 1
gene 1 27 13 -1.74654 0 142 -1.74654 1
gene 1 27 14 0.9692 0 143 0.9692 1
gene 1 27 15 1.63128 0 144 1.63128 1
gene 1 27 16 4.79323 0 145 4.79323 1
gene 1 27 17 -0.525739 0 146 -0.525739 1
gene 1 27 18 -0.685749 0 147 -0.685749 1
gene 1 27 19 -1.39175 0 148 -1.39175 1
gene 1 27 38 5.77223 0 537 5.77223 1
gene 1 38 20 -2.50438 0 538 -2.50438 1
gene 1 7 18 1.61587 0 772 1.61587 1
gene 1 19 18 -1.7532 0 1097 -1.7532 1
gene 1 6 11 -2.45171 0 1428 -2.45171 1
gene 1 5 10 -5.99911 0 1829 -5.99911 1
gene 1 13 16 -1.72601 0 2254 -1.72601 1
gene 1 13 15 -0.696682 0 2454 -0.696682 1
gene 1 24 134 1.63617 0 2591 1.63617 1
gene 1 134 13 -0.650794 0 2592 -0.650794 1
gene 1 8 19 -1.0959 0 3014 -1.0959 1
gene 1 27 10 -1.57362 0 3392 -1.57362 1
gene 1 5 12 -4.02395 0 4527 -4.02395 1
gene 1 12 27 -1.4217 1 4708 -1.4217 1
gene 1 4 12 1.24633 0 4814 1.24633 1
gene 1 6 134 -1.46683 0 4909 -1.46683 1
gene 1 38 38 0.900493 1 5199 0.900493 1
gene 1 1 38 -3.42775 0 5678 -3.42775 1
gene 1 20 19 1.9514 0 5872 1.9514 1
gene 1 15 12 -0.440846 0 6101 -0.440846 1
gene 1 134 12 0.255612 0 6211 0.255612 1
gene 1 38 11 0.79233 0 6501 0.79233 1
gene 1 6 38 0.186302 0 6685 0.186302 1
gene 1 9 38 -1.7005 0 6807 -1.7005 1
gene 1 26 26 -0.186383 1 6914 -0.186383 1
gene 1 38 26 -1.46886 0 7076 -1.46886 1
gene 1 20 10 0.272708 0 7384 0.272708 1
genomeend 138
