/* Organism #1 Fitness: 1.003 Error: 0.997 */
genomestart 1
trait 1 0.234345 0.285481 0.0434711 0.634589 0.982417 0.675568 0.854338 0.129861 
node 1 1 0
node 2 1 1
node 3 1 1
node 4 1 1
node 5 1 1
node 6 1 1
node 7 1 1
node 8 1 1
node 9 1 1
node 10 1 2
node 11 1 2
node 12 1 2
node 13 1 2
node 14 1 2
node 15 1 2
node 16 1 2
node 17 1 2
node 18 1 2
node 19 1 2
node 20 1 2
node 21 1 3
node 23 1 3
node 24 1 3
node 25 1 3
node 26 1 3
node 27 1 3
node 28 1 3
node 120 1 3
node 245 1 3
node 338 1 3
gene 1 1 21 1.35259 0 1 1.35259 1
gene 1 1 24 -6.61341 0 4 -6.61341 1
gene 1 1 25 0.00250036 0 5 0.00250036 1
gene 1 1 26 -0.195436 0 6 -0.195436 1
gene 1 1 27 -1.8359 0 7 -1.8359 1
gene 1 1 28 0.907611 0 8 0.907611 1
gene 1 2 21 0.454671 0 9 0.454671 1
gene 1 2 23 1.87168 0 11 1.87168 1
gene 1 2 24 1.84928 0 12 1.84928 1
gene 1 2 25 -0.369443 0 13 -0.369443 1
gene 1 2 27 -2.91817 0 15 -2.91817 1
gene 1 2 28 0.100522 0 16 0.100522 1
gene 1 3 21 2.00057 0 17 2.00057 1
gene 1 3 23 -4.67604 0 19 -4.67604 1
gene 1 3 24 1.81712 0 20 1.81712 1
gene 1 3 25 -0.76891 0 21 -0.76891 1
gene 1 3 26 1.53739 0 22 1.53739 1
gene 1 3 27 0.249986 0 23 0.249986 1
gene 1 3 28 -0.876244 0 24 -0.876244 1
gene 1 4 21 2.66781 0 25 2.66781 1
gene 1 4 23 2.10272 0 27 2.10272 1
gene 1 4 24 -0.705634 0 28 -0.705634 1
gene 1 4 25 4.03544 0 29 4.03544 1
gene 1 4 26 -1.01288 0 30 -1.01288 1
gene 1 4 27 -1.48512 0 31 -1.48512 1
gene 1 4 28 0.307677 0 32 0.307677 1
gene 1 5 21 2.3321 0 33 2.3321 1
gene 1 5 23 -0.369547 0 35 -0.369547 1
gene 1 5 24 -1.13391 0 36 -1.13391 1
gene 1 5 25 -3.59413 0 37 -3.59413 1
gene 1 5 26 1.42418 0 38 1.42418 1
gene 1 5 27 -0.0522113 0 39 -0.0522113 1
gene 1 5 28 2.38685 0 40 2.38685 1
gene 1 6 21 0.331986 0 41 0.331986 1
gene 1 6 23 -1.71795 0 43 -1.71795 1
gene 1 6 24 -2.06867 0 44 -2.06867 1
gene 1 6 25 -1.83293 0 45 -1.83293 1
gene 1 6 26 1.98682 0 46 1.98682 1
gene 1 6 27 -0.662543 0 47 -0.662543 1
gene 1 6 28 -0.100902 0 48 -0.100902 1
gene 1 7 21 -1.45695 0 49 -1.45695 1
gene 1 7 23 1.06764 0 51 1.06764 1
gene 1 7 24 -0.202615 0 52 -0.202615 1
gene 1 7 25 -0.12483 0 53 -0.12483 1
gene 1 7 26 0.442545 0 54 0.442545 1
gene 1 7 27 1.34047 0 55 1.34047 1
gene 1 7 28 4.79734 0 56 4.79734 1
gene 1 8 21 0.0410622 0 57 0.0410622 1
gene 1 8 23 1.8635 0 59 1.8635 1
gene 1 8 24 -0.745487 0 60 -0.745487 1
gene 1 8 25 1.02814 0 61 1.02814 1
gene 1 8 26 0.760196 0 62 0.760196 1
gene 1 8 27 0.980234 0 63 0.980234 1
gene 1 8 28 -1.9283 0 64 -1.9283 1
gene 1 9 21 -0.840537 0 65 -0.840537 1
gene 1 9 23 1.04251 0 67 1.04251 1
gene 1 9 24 -1.05189 0 68 -1.05189 1
gene 1 9 25 0.457839 0 69 0.457839 1
gene 1 9 26 1.83136 0 70 1.83136 1
gene 1 9 27 -2.90722 0 71 -2.90722 1
gene 1 9 28 2.95804 0 72 2.95804 1
gene 1 21 10 2.22905 0 73 2.22905 1
gene 1 21 11 0.485565 0 74 0.485565 1
gene 1 21 12 2.26939 0 75 2.26939 1
gene 1 21 13 1.58426 0 76 1.58426 1
gene 1 21 14 2.82683 0 77 2.82683 1
gene 1 21 15 -0.498468 0 78 -0.498468 1
gene 1 21 16 -2.51741 0 79 -2.51741 1
gene 1 21 17 -1.61036 0 80 -1.61036 1
gene 1 21 18 1.86666 0 81 1.86666 1
gene 1 21 20 3.05942 0 83 3.05942 1
gene 1 23 11 -3.63388 0 96 -3.63388 1
gene 1 23 12 -0.518531 0 97 -0.518531 1
gene 1 23 13 -1.1542 0 98 -1.1542 1
gene 1 23 14 -4.37155 0 99 -4.37155 1
gene 1 23 16 -0.967984 0 101 -0.967984 1
gene 1 23 18 1.78082 0 103 1.78082 1
gene 1 23 19 3.67003 0 104 3.67003 1
gene 1 23 20 0.743348 0 105 0.743348 1
gene 1 24 10 4.22236 0 106 4.22236 1
gene 1 24 11 -2.752 0 107 -2.752 1
gene 1 24 12 -3.29213 0 108 -3.29213 1
gene 1 24 14 0.960616 0 110 0.960616 1
gene 1 24 15 -0.457278 0 111 -0.457278 1
gene 1 24 17 -3.61852 0 113 -3.61852 1
gene 1 24 19 -2.86841 0 115 -2.86841 1
gene 1 24 20 -0.779674 0 116 -0.779674 1
gene 1 25 10 -2.15783 0 117 -2.15783 1
gene 1 25 11 1.7457 0 118 1.7457 1
gene 1 25 12 2.41837 0 119 2.41837 1
gene 1 25 13 0.590396 0 120 0.590396 1
gene 1 25 14 2.02339 0 121 2.02339 1
gene 1 25 15 1.31115 0 122 1.31115 1
gene 1 25 16 -0.903839 0 123 -0.903839 1
gene 1 25 17 0.684935 0 124 0.684935 1
gene 1 25 18 0.210856 0 125 0.210856 1
gene 1 25 19 -0.742827 0 126 -0.742827 1
gene 1 25 20 0.543948 0 127 0.543948 1
gene 1 26 10 -1.20073 0 128 -1.20073 1
gene 1 26 11 -1.37979 0 129 -1.37979 1
gene 1 26 12 1.75279 0 130 1.75279 1
gene 1 26 13 5.07844 0 131 5.07844 1
gene 1 26 14 -0.174855 0 132 -0.174855 1
gene 1 26 15 -0.261804 0 133 -0.261804 1
gene 1 26 16 0.403891 0 134 0.403891 1
gene 1 26 17 0.717674 0 135 0.717674 1
gene 1 26 18 0.415632 0 136 0.415632 1
gene 1 26 19 0.666797 0 137 0.666797 1
gene 1 26 20 -1.95922 0 138 -1.95922 1
gene 1 27 11 -2.32043 0 140 -2.32043 1
gene 1 27 12 -5.43175 0 141 -5.43175 1
gene 1 27 13 0.276683 0 142 0.276683 1
gene 1 27 14 -0.10884 0 143 -0.10884 1
gene 1 27 15 -0.0191771 0 144 -0.0191771 1
gene 1 27 16 -2.16425 0 145 -2.16425 1
gene 1 27 17 3.13561 0 146 3.13561 1
gene 1 27 18 -0.33752 0 147 -0.33752 1
gene 1 27 19 -0.0841959 0 148 -0.0841959 1
gene 1 27 20 1.21631 0 149 1.21631 1
gene 1 28 10 3.25892 0 150 3.25892 1
gene 1 28 12 1.94212 0 152 1.94212 1
gene 1 28 13 -2.41659 0 153 -2.41659 1
gene 1 28 14 1.7548 0 154 1.7548 1
gene 1 28 15 1.39412 0 155 1.39412 1
gene 1 28 16 0.339772 0 156 0.339772 1
gene 1 28 17 -0.303758 0 157 -0.303758 1
gene 1 28 19 1.54535 0 159 1.54535 1
gene 1 28 20 1.74345 0 160 1.74345 1
gene 1 3 13 -1.4875 0 313 -1.4875 1
gene 1 10 13 -1.15139 0 856 -1.15139 1
gene 1 26 26 -0.545287 1 1263 -0.545287 1
gene 1 3 14 -1.04587 0 1609 -1.04587 1
gene 1 13 13 0.963242 1 1977 0.963242 1
gene 1 18 12 -0.986974 0 2435 -0.986974 1
gene 1 18 13 -1.66298 0 2694 -1.66298 1
gene 1 2 120 0.123131 0 2791 0.123131 1
gene 1 120 26 -1.8388 0 2792 -1.8388 1
gene 1 28 24 -0.589781 0 2928 -0.589781 1
gene 1 23 25 -1.28512 0 3791 -1.28512 1
gene 1 5 19 -0.0502603 0 4421 -0.0502603 1
gene 1 10 16 0.139491 0 4796 0.139491 1
gene 1 25 28 -0.277869 0 5076 -0.277869 1
gene 1 14 14 0.394605 1 5222 0.394605 1
gene 1 6 13 0.446171 0 5510 0.446171 1
gene 1 24 245 0.938497 0 5617 0.375997 1
gene 1 245 13 -0.054995 0 5618 0.572904 1
gene 1 11 17 -0.91511 0 5720 -0.91511 1
gene 1 18 15 -0.277323 0 6017 -0.277323 1
gene 1 21 21 -0.0203426 1 6138 -0.0203426 1
gene 1 16 18 0.98309 0 6960 0.98309 1
gene 1 21 120 -0.177524 0 7108 -0.177524 1
gene 1 19 19 0.672113 1 7225 0.672113 1
gene 1 11 10 -0.476511 0 7493 -0.476511 1
gene 1 12 17 0.328825 0 7622 0.328825 1
gene 1 28 338 1 0 7749 0 1
gene 1 338 11 1.20899 0 7750 0 1
genomeend 1
