/* Organism #31 Fitness: 1.008 Error: 0.992 */
genomestart 31
trait 1 0.604459 0.65815 0.55466 0.661524 0.416359 0.149795 0.606712 0.619434 
node 1 1 0
node 2 1 1
node 3 1 1
node 4 1 1
node 5 1 1
node 6 1 1
node 7 1 1
node 8 1 1
node 9 1 1
node 10 1 2
node 11 1 2
node 12 1 2
node 13 1 2
node 14 1 2
node 15 1 2
node 16 1 2
node 17 1 2
node 18 1 2
node 19 1 2
node 20 1 2
node 22 1 3
node 23 1 3
node 25 1 3
node 26 1 3
node 389 1 3
gene 1 1 22 2.63822 0 2 2.63822 1
gene 1 1 23 6.31294 0 3 6.31294 1
gene 1 1 25 -0.316365 0 5 -0.316365 1
gene 1 1 26 -4.31169 0 6 -4.31169 1
gene 1 2 22 6.33483 0 10 6.33483 1
gene 1 2 25 -1.2987 0 13 -1.2987 1
gene 1 2 26 3.1692 0 14 3.1692 1
gene 1 3 22 2.77126 0 18 2.77126 1
gene 1 3 23 -3.03316 0 19 -3.03316 1
gene 1 3 25 -2.40377 0 21 -2.40377 1
gene 1 4 22 1.64241 0 26 1.64241 1
gene 1 4 23 -3.89645 0 27 -3.89645 1
gene 1 4 25 1.63352 0 29 1.63352 1
gene 1 4 26 -1.27347 0 30 -1.27347 1
gene 1 5 22 3.99268 0 34 3.99268 1
gene 1 5 23 0.266364 0 35 0.266364 1
gene 1 5 25 -3.91515 0 37 -3.91515 1
gene 1 5 26 3.31662 0 38 3.31662 1
gene 1 6 22 1.96448 0 42 1.96448 1
gene 1 6 25 -2.87066 0 45 -2.87066 1
gene 1 6 26 -2.56899 0 46 -2.56899 1
gene 1 7 22 -1.6344 0 50 -1.6344 1
gene 1 7 23 1.48112 0 51 1.48112 1
gene 1 7 26 -4.39373 0 54 -4.39373 1
gene 1 8 22 0.554359 0 58 0.554359 1
gene 1 8 23 0.604979 0 59 0.604979 1
gene 1 8 25 0.192349 0 61 0.192349 1
gene 1 8 26 4.67954 0 62 4.67954 1
gene 1 9 22 -1.75926 0 66 -1.75926 1
gene 1 9 25 4.44435 0 69 4.44435 1
gene 1 9 26 0.312348 0 70 0.312348 1
gene 1 22 11 1.74881 0 85 1.74881 1
gene 1 22 12 -0.229814 0 86 -0.229814 1
gene 1 22 13 1.19823 0 87 1.19823 1
gene 1 22 14 0.666627 0 88 0.666627 1
gene 1 22 15 2.86842 0 89 2.86842 1
gene 1 22 16 3.44015 0 90 3.44015 1
gene 1 22 17 1.4407 0 91 1.4407 1
gene 1 22 18 -0.119731 0 92 -0.119731 1
gene 1 22 19 -0.422265 0 93 -0.422265 1
gene 1 22 20 0.115111 0 94 0.115111 1
gene 1 23 10 0.493088 0 95 0.493088 1
gene 1 23 11 0.0960203 0 96 0.0960203 1
gene 1 23 12 3.53723 0 97 3.53723 1
gene 1 23 13 -0.264099 0 98 -0.264099 1
gene 1 23 15 2.77734 0 100 2.77734 1
gene 1 23 16 1.55307 0 101 1.55307 1
gene 1 23 18 -0.0928974 0 103 -0.0928974 1
gene 1 23 19 3.0153 0 104 3.0153 1
gene 1 23 20 -2.23525 0 105 -2.23525 1
gene 1 25 10 -7.47476 0 117 -7.47476 1
gene 1 25 11 -1.44274 0 118 -1.44274 1
gene 1 25 12 -0.980024 0 119 -0.980024 1
gene 1 25 13 0.975482 0 120 0.975482 1
gene 1 25 14 1.4479 0 121 1.4479 1
gene 1 25 15 1.2895 0 122 1.2895 1
gene 1 25 16 -0.791845 0 123 -0.791845 1
gene 1 25 17 4.20857 0 124 4.20857 1
gene 1 25 18 -1.54405 0 125 -1.54405 1
gene 1 25 19 5.0646 0 126 5.0646 1
gene 1 25 20 -4.02432 0 127 -4.02432 1
gene 1 26 10 0.842072 0 128 0.842072 1
gene 1 26 11 1.44221 0 129 1.44221 1
gene 1 26 12 2.39207 0 130 2.39207 1
gene 1 26 13 2.56846 0 131 2.56846 1
gene 1 26 14 -4.77433 0 132 -4.77433 1
gene 1 26 15 0.173316 0 133 0.173316 1
gene 1 26 16 -4.40109 0 134 -4.40109 1
gene 1 26 17 1.40979 0 135 1.40979 1
gene 1 26 18 -1.73651 0 136 -1.73651 1
gene 1 26 19 -1.01309 0 137 -1.01309 1
gene 1 26 20 -3.10906 0 138 -3.10906 1
gene 1 9 14 0.87776 0 382 0.87776 1
gene 1 6 18 -0.213234 0 491 -0.213234 1
gene 1 22 23 -7.96501 0 651 -7.96501 1
gene 1 18 12 -3.07418 0 1057 -3.07418 1
gene 1 19 16 -2.87889 0 1090 -2.87889 1
gene 1 6 20 -0.701134 0 1468 -0.701134 1
gene 1 3 14 -0.688633 0 2054 -0.688633 1
gene 1 8 17 1.44739 0 2171 1.44739 1
gene 1 13 12 3.00543 0 2273 3.00543 1
gene 1 11 19 -2.63288 0 2590 -2.63288 1
gene 1 12 23 2.70714 1 2805 2.70714 1
gene 1 16 16 1.38225 1 3224 1.38225 1
gene 1 10 15 -1.24352 0 3386 -1.24352 1
gene 1 1 16 0.295118 0 3540 0.295118 1
gene 1 8 12 1.54921 0 3939 1.54921 1
gene 1 16 12 -4.0145 0 4086 -4.0145 1
gene 1 14 13 2.67911 0 4269 2.67911 1
gene 1 25 25 -1.8857 1 4487 -1.8857 1
gene 1 17 20 -0.256904 0 4697 -0.256904 1
gene 1 3 19 2.8209 0 4796 2.8209 1
gene 1 1 14 1.2077 0 5006 1.2077 1
gene 1 20 19 -0.803299 0 5114 -0.803299 1
gene 1 1 20 -0.718605 0 5549 -0.718605 1
gene 1 16 18 0.343087 0 5776 0.343087 1
gene 1 2 20 -4.0162 0 6466 -4.0162 1
gene 1 5 17 -2.16989 0 6805 -2.16989 1
gene 1 2 15 -0.544497 0 7092 -0.544497 1
gene 1 5 11 1.73147 0 8025 1.73147 1
gene 1 2 19 0.0863015 0 8102 0.0863015 1
gene 1 6 14 0.309882 0 8522 0.309882 1
gene 1 2 17 -0.667807 0 8602 -0.667807 1
gene 1 5 16 1.0215 0 8710 1.0215 1
gene 1 22 22 -0.270293 1 8812 -0.270293 1
gene 1 6 13 -0.956079 0 8933 -0.956079 1
gene 1 19 10 0.267275 0 9301 0.267275 1
gene 1 4 11 0.00303357 0 9500 0.00303357 1
gene 1 16 389 2.10027 0 9802 2.10027 1
gene 1 389 14 1.6509 0 9803 1.6509 1
gene 1 17 11 1.68877 0 9983 1.68877 1
gene 1 8 389 -1.26291 0 10158 -1.26291 1
genomeend 31
