/* Organism #49211376 Fitness: -2021.69 
genomestart 431
trait 1 0.953582 0.483472 0.0638428 0.649046 0.501212 0.0894889 0.0139706 0.66511 
node 1 1 0
node 2 1 1
node 3 1 1
node 4 1 1
node 5 1 1
node 6 1 1
node 7 1 1
node 8 1 1
node 9 1 1
node 10 1 2
node 11 1 2
node 12 1 2
node 13 1 2
node 14 1 2
node 15 1 2
node 16 1 2
node 17 1 2
node 18 1 2
node 19 1 2
node 20 1 2
node 21 1 3
node 23 1 3
node 28 1 3
node 191 1 3
node 1253 1 3
node 1651 1 3
node 1704 1 3
node 1858 1 3
gene 1 1 21 -1.53951 0 1 -1.53951 1
gene 1 1 23 -4.33768 0 3 -4.33768 1
gene 1 2 21 2.46049 0 9 2.46049 1
gene 1 2 23 2.14482 0 11 2.14482 1
gene 1 3 21 0.100788 0 17 0.100788 1
gene 1 4 21 0.126083 0 25 0.126083 1
gene 1 4 28 -3.03416 0 32 -3.03416 1
gene 1 5 21 -4.82429 0 33 -4.82429 1
gene 1 5 23 -1.5103 0 35 -1.5103 1
gene 1 6 21 0.11724 0 41 0.11724 1
gene 1 6 28 -0.15689 0 48 -0.15689 1
gene 1 7 21 3.78261 0 49 3.78261 1
gene 1 7 28 -1.21657 0 56 -1.21657 1
gene 1 8 21 -0.622596 0 57 -0.622596 1
gene 1 9 21 -1.17265 0 65 -1.17265 1
gene 1 21 11 0.302609 0 74 0.302609 1
gene 1 21 12 -3.99384 0 75 -3.99384 1
gene 1 21 13 0.9078 0 76 0.9078 1
gene 1 21 15 0.523079 0 78 0.523079 1
gene 1 21 17 -0.706475 0 80 -0.706475 1
gene 1 21 18 0.821743 0 81 0.821743 1
gene 1 21 20 0.83009 0 83 0.83009 1
gene 1 23 10 -3.05246 0 95 -3.05246 1
gene 1 23 13 1.71877 0 98 1.71877 1
gene 1 23 14 3.65684 0 99 3.65684 1
gene 1 23 15 2.65055 0 100 2.65055 1
gene 1 23 17 -0.00320061 0 102 -0.00320061 1
gene 1 23 20 -0.265204 0 105 -0.265204 1
gene 1 28 12 -0.0308532 0 152 -0.0308532 1
gene 1 28 14 1.29505 0 154 1.29505 1
gene 1 28 15 1.53052 0 155 1.53052 1
gene 1 28 17 3.41139 0 157 3.41139 1
gene 1 28 18 3.25814 0 158 3.25814 1
gene 1 28 19 3.38745 0 159 3.38745 1
gene 1 28 20 -0.235015 0 160 -0.235015 1
gene 1 17 11 -0.453717 0 452 -0.453717 1
gene 1 20 15 -0.915578 0 643 -0.915578 1
gene 1 18 20 1.71389 0 740 1.71389 1
gene 1 4 15 -1.70711 0 988 -1.70711 1
gene 1 9 13 -1.0202 0 5006 -1.0202 1
gene 1 2 11 1.37348 0 6067 1.37348 1
gene 1 10 10 -0.765819 1 6617 -0.765819 1
gene 1 9 12 -1.38966 0 8005 -1.38966 1
gene 1 14 14 1.28644 1 8178 1.28644 1
gene 1 3 10 1.50296 0 11424 1.50296 1
gene 1 7 17 0.257922 0 13999 0.257922 1
gene 1 17 19 -1.19095 0 15234 -1.19095 1
gene 1 10 20 0.63027 0 19313 0.63027 1
gene 1 14 15 -0.594672 0 19550 -0.594672 1
gene 1 9 16 -1.60381 0 22730 -1.60381 1
gene 1 10 11 1.33574 0 23077 1.33574 1
gene 1 28 28 2.38918 1 23376 2.38918 1
gene 1 16 14 0.407379 0 24274 0.407379 1
gene 1 6 191 4.31239 0 25793 4.31239 1
gene 1 16 12 1.09712 0 26348 1.09712 1
gene 1 21 191 0.39913 0 27316 0.39913 1
gene 1 28 191 0.249779 0 31470 0.249779 1
gene 1 2 17 0.596671 0 31729 0.596671 1
gene 1 11 10 -2.47284 1 31938 -2.47284 1
gene 1 13 1253 -0.802572 0 32311 -0.802572 1
gene 1 1253 19 1.77859 0 32312 1.77859 1
gene 1 11 11 0.727693 1 33666 0.727693 1
gene 1 191 14 -1.62734 0 34380 -1.62734 1
gene 1 2 14 1.68907 0 35868 1.68907 1
gene 1 2 18 -0.102299 0 37197 -0.102299 1
gene 1 16 28 2.38618 1 37580 2.38618 1
gene 1 18 18 -0.00443491 1 37722 -0.00443491 1
gene 1 12 12 1.38311 1 37848 1.38311 1
gene 1 20 16 -0.28802 0 38167 -0.28802 1
gene 1 4 19 0.642946 0 38810 0.642946 1
gene 1 14 1253 0.695961 0 41056 0.695961 1
gene 1 15 19 0.345916 0 41469 0.345916 1
gene 1 1651 11 5.5225 0 41870 5.5225 1
gene 1 7 16 -2.59003 0 42949 -2.59003 1
gene 1 28 1704 1.1573 0 43374 1.1573 1
gene 1 8 20 -1.4427 0 44154 -1.4427 1
gene 1 16 16 1.03491 1 44525 1.03491 1
gene 1 6 13 -0.334981 0 46381 -0.334981 1
gene 1 5 19 -1.30284 0 46934 -1.30284 1
gene 1 8 1858 0.381336 0 47174 0.381336 1
gene 1 28 10 -1.96898 0 47449 -1.96898 1
gene 1 1704 11 1.04545 0 47496 1.04545 1
gene 1 16 1253 3.3809 0 47695 3.3809 1
gene 1 17 16 0.394021 0 48473 0.394021 1
gene 1 23 21 0.042452 0 48671 0.042452 1
gene 1 21 1858 1.54271 0 49043 1.54271 1
gene 1 17 1651 2.64708 0 49633 2.64708 1
gene 1 4 16 -0.0740816 0 50047 -0.0740816 1
gene 1 15 13 -0.578674 0 50260 -0.578674 1
gene 1 1253 12 -1.32722 0 50470 -1.32722 1
gene 1 13 10 -1.59311 1 50613 -1.59311 1
gene 1 19 1651 0.444446 0 51442 0.444446 1
gene 1 1704 10 0.739823 0 53989 0.739823 1
gene 1 5 10 0.265329 0 54353 0.265329 1
gene 1 8 11 0.810366 0 55535 0.810366 1
gene 1 17 17 0.892824 1 55846 0.892824 1
gene 1 191 13 -0.858922 0 56158 -0.858922 1
gene 1 10 17 -0.0498208 0 56539 -0.0498208 1
gene 1 1858 1651 0.676234 0 57886 0.676234 1
gene 1 16 15 0.498506 0 58384 0.498506 1
gene 1 20 1651 -0.184122 0 59418 -0.184122 1
gene 1 2 12 -0.510097 0 59576 -0.510097 1
gene 1 191 15 1.05552 0 60086 1.05552 1
gene 1 1253 1253 0.126587 1 60824 0.126587 1
gene 1 4 1253 0.628266 0 61066 0.628266 1
gene 1 3 15 -0.262838 0 61632 -0.262838 1
gene 1 1 10 0.737116 0 61794 0.737116 1
gene 1 15 15 0.475912 1 62150 0.475912 1
gene 1 1704 17 0.80372 0 62447 0.80372 1
gene 1 16 13 0.541426 0 62952 0.541426 1
gene 1 17 191 -0.445592 0 63614 -0.445592 1
gene 1 4 1651 0.632825 0 63686 0.632825 1
gene 1 9 1651 -0.854022 0 64111 -0.854022 1
gene 1 1704 12 0.564461 0 64711 0.564461 1
genomeend 431
