/* Organism #61282768 Fitness: -91696.2 
genomestart 906
trait 1 0.559123 1 0.18603 0.728007 0.980103 0.00404408 0.0359982 0.574091 
node 1 1 0
node 2 1 1
node 3 1 1
node 4 1 1
node 5 1 1
node 6 1 1
node 7 1 1
node 8 1 1
node 9 1 1
node 10 1 2
node 11 1 2
node 12 1 2
node 13 1 2
node 14 1 2
node 15 1 2
node 16 1 2
node 17 1 2
node 18 1 2
node 19 1 2
node 20 1 2
node 21 1 3
node 22 1 3
node 26 1 3
node 253 1 3
node 327 1 3
node 351 1 3
node 763 1 3
node 1534 1 3
node 1599 1 3
node 1699 1 3
node 1725 1 3
node 2141 1 3
node 2146 1 3
node 2240 1 3
node 2295 1 3
node 2303 1 3
node 2317 1 3
node 2517 1 3
gene 1 1 21 -4.08292 0 1 -4.08292 1
gene 1 1 22 3.31736 0 2 3.31736 1
gene 1 1 26 -4.00308 0 6 -4.00308 1
gene 1 2 26 -0.867374 0 14 -0.867374 1
gene 1 3 21 -3.36279 0 17 -3.36279 1
gene 1 3 26 -3.9698 0 22 -3.9698 1
gene 1 4 21 0.517726 0 25 0.517726 1
gene 1 4 22 -1.1139 0 26 -1.1139 1
gene 1 4 26 2.01867 0 30 2.01867 1
gene 1 7 26 4.236 0 54 4.236 1
gene 1 8 22 -0.16235 0 58 -0.16235 1
gene 1 9 26 -1.2956 0 70 -1.2956 1
gene 1 21 12 -2.8094 0 75 -2.8094 1
gene 1 21 15 4.06222 0 78 4.06222 1
gene 1 21 17 2.51735 0 80 2.51735 1
gene 1 21 19 2.87129 0 82 2.87129 1
gene 1 21 20 -1.6262 0 83 -1.6262 1
gene 1 22 10 2.8454 0 84 2.8454 1
gene 1 22 12 -0.814959 0 86 -0.814959 1
gene 1 22 14 -7.22528 0 88 -7.22528 1
gene 1 22 15 -0.613627 0 89 -0.613627 1
gene 1 22 16 2.37324 0 90 2.37324 1
gene 1 22 18 -1.52499 0 92 -1.52499 1
gene 1 22 20 -4.53463 0 94 -4.53463 1
gene 1 26 11 1.27627 0 129 1.27627 1
gene 1 26 12 -0.880593 0 130 -0.880593 1
gene 1 26 13 -3.5339 0 131 -3.5339 1
gene 1 26 18 1.30094 0 136 1.30094 1
gene 1 26 19 1.51692 0 137 1.51692 1
gene 1 26 20 -2.02265 0 138 -2.02265 1
gene 1 2 19 -4.1358 0 441 -4.1358 1
gene 1 2 20 -0.456865 0 650 -0.456865 1
gene 1 15 18 3.05501 0 1294 3.05501 1
gene 1 4 19 -3.55278 0 3723 -3.55278 1
gene 1 253 21 1.0987 0 6087 1.0987 1
gene 1 1 10 3.73697 0 6268 3.73697 1
gene 1 18 16 4.97278 0 6802 4.97278 1
gene 1 1 19 -2.70658 0 7586 -2.70658 1
gene 1 5 327 3.71034 0 8022 3.71034 1
gene 1 7 351 0.837957 0 8542 0.837957 1
gene 1 351 22 0.803902 0 8543 0.803902 1
gene 1 351 12 0.27099 0 10150 0.27099 1
gene 1 14 14 -0.963499 1 12873 -0.963499 1
gene 1 2 14 -0.864994 0 13611 -0.864994 1
gene 1 20 20 -1.96413 1 14177 -1.96413 1
gene 1 8 13 0.464111 0 14960 0.464111 1
gene 1 21 253 -1.41737 1 15654 -1.41737 1
gene 1 763 13 0.0170262 0 18541 0.0170262 1
gene 1 10 13 1.91068 0 18876 1.91068 1
gene 1 327 10 -0.0238876 0 19836 -0.0238876 1
gene 1 351 253 -1.33653 0 20942 -1.33653 1
gene 1 253 26 -2.1519 0 21146 -2.1519 1
gene 1 253 327 -0.621774 0 21695 -0.621774 1
gene 1 2 12 0.163887 0 22899 0.163887 1
gene 1 19 10 1.23066 0 24947 1.23066 1
gene 1 327 12 1.53894 0 25867 1.53894 1
gene 1 19 12 -0.940493 0 26381 -0.940493 1
gene 1 11 17 3.22251 0 27430 3.22251 1
gene 1 4 17 1.804 0 28186 1.804 1
gene 1 4 20 1.53368 0 34126 1.53368 1
gene 1 253 19 1.77823 0 34637 1.77823 1
gene 1 2 253 -1.27529 0 35611 -1.27529 1
gene 1 14 1534 2.08471 0 38512 2.08471 1
gene 1 1534 12 -0.481717 0 38513 -0.481717 1
gene 1 253 22 1.49114 0 38807 1.49114 1
gene 1 1599 19 0.942624 0 40142 0.942624 1
gene 1 5 1534 0.797861 0 41442 0.797861 1
gene 1 14 11 -1.07441 0 41679 -1.07441 1
gene 1 351 351 -1.65942 1 41785 -1.65942 1
gene 1 3 14 -0.974943 0 42616 -0.974943 1
gene 1 3 1699 3.34063 0 42810 3.34063 1
gene 1 1699 327 3.00762 0 42811 3.00762 1
gene 1 6 19 0.00554293 0 43130 0.00554293 1
gene 1 11 1725 2.75377 0 43307 2.75377 1
gene 1 1725 12 2.28524 0 43308 2.28524 1
gene 1 1599 18 1.61529 0 43509 1.61529 1
gene 1 4 13 0.0123971 0 44276 0.0123971 1
gene 1 20 18 2.60426 0 44855 2.60426 1
gene 1 17 12 -0.853292 0 45041 -0.853292 1
gene 1 1599 11 1.79003 0 45406 1.79003 1
gene 1 14 253 0.481249 1 45740 0.481249 1
gene 1 1699 1534 0.126775 0 46176 0.126775 1
gene 1 1725 17 0.0255141 0 46487 0.0255141 1
gene 1 22 22 -2.49431 1 46871 -2.49431 1
gene 1 5 253 0.869791 0 48588 0.869791 1
gene 1 763 763 1.07403 1 49175 1.07403 1
gene 1 1 351 -0.468128 0 49964 -0.468128 1
gene 1 351 21 -0.665393 0 51244 -0.665393 1
gene 1 6 14 0.762249 0 51640 0.762249 1
gene 1 5 26 -2.54467 0 52158 -2.54467 1
gene 1 15 15 -0.672833 1 52371 -0.672833 1
gene 1 6 10 1.01503 0 53098 1.01503 1
gene 1 22 1534 2.08843 0 53270 2.08843 1
gene 1 1599 10 0.032214 0 53616 0.032214 1
gene 1 2141 26 0.0580258 0 53866 0.0580258 1
gene 1 17 13 1.7012 0 54225 1.7012 1
gene 1 1599 13 0.804426 0 54450 0.804426 1
gene 1 2 17 -1.42544 0 54982 -1.42544 1
gene 1 22 1725 1.02751 0 56431 1.02751 1
gene 1 1699 2141 1.27182 0 56628 1.27182 1
gene 1 9 2240 0.58746 0 56823 0.58746 1
gene 1 2240 2146 -0.327114 0 56824 -0.327114 1
gene 1 327 327 -2.98065 1 57375 -2.98065 1
gene 1 8 17 0.451661 0 57649 0.451661 1
gene 1 7 1599 -1.86868 0 57921 -1.86868 1
gene 1 2 2295 2.46604 0 58247 2.46604 1
gene 1 8 2303 1.12199 0 58388 1.12199 1
gene 1 2303 21 -1.74506 0 58389 -1.74506 1
gene 1 17 2317 2.2847 0 58762 2.2847 1
gene 1 2317 20 -1.45311 0 58763 -1.45311 1
gene 1 5 2317 0.325804 0 58927 0.325804 1
gene 1 8 2141 -0.491452 0 59563 -0.491452 1
gene 1 6 1534 0.69377 0 61723 0.69377 1
gene 1 327 15 -1.34904 0 61991 -1.34904 1
gene 1 5 2240 -0.0323415 0 63177 -0.0323415 1
gene 1 17 2295 0.506902 0 63913 0.506902 1
gene 1 2 21 0.273415 0 63965 0.273415 1
gene 1 22 2517 1 0 64573 0 1
gene 1 2517 19 -2.637 0 64574 0 1
gene 1 15 763 -0.00623191 0 64910 -0.00623191 1
genomeend 906
