/* Organism #140481765992488 Fitness: -92355 
genomestart 299
trait 1 0.131613 0.060102 0.98974 0.00729029 0.979876 0.888654 0.298191 0.055273 
node 1 1 0
node 2 1 1
node 3 1 1
node 4 1 1
node 5 1 1
node 6 1 1
node 7 1 1
node 8 1 1
node 9 1 1
node 10 1 2
node 11 1 2
node 12 1 2
node 13 1 2
node 14 1 2
node 15 1 2
node 16 1 2
node 17 1 2
node 18 1 2
node 19 1 2
node 20 1 2
node 21 1 3
node 22 1 3
node 24 1 3
node 26 1 3
node 28 1 3
node 621 1 3
node 1396 1 3
node 1427 1 3
node 2029 1 3
node 2041 1 3
node 2529 1 3
node 2551 1 3
gene 1 1 21 -6.45765 0 1 -6.45765 1
gene 1 1 22 -5.5528 0 2 -5.5528 1
gene 1 1 24 2.11109 0 4 2.11109 1
gene 1 1 28 -2.67108 0 8 -2.67108 1
gene 1 2 21 3.42241 0 9 3.42241 1
gene 1 2 22 0.737346 0 10 0.737346 1
gene 1 2 28 -0.0563503 0 16 -0.0563503 1
gene 1 3 21 -0.750769 0 17 -0.750769 1
gene 1 3 24 3.2056 0 20 3.2056 1
gene 1 3 26 1.86942 0 22 1.86942 1
gene 1 4 21 -2.42001 0 25 -2.42001 1
gene 1 4 22 2.56313 0 26 2.56313 1
gene 1 4 26 0.304094 0 30 0.304094 1
gene 1 5 22 2.49841 0 34 2.49841 1
gene 1 5 24 1.25951 0 36 1.25951 1
gene 1 5 26 1.31767 0 38 1.31767 1
gene 1 5 28 -3.76886 0 40 -3.76886 1
gene 1 6 22 2.20267 0 42 2.20267 1
gene 1 7 26 4.31333 0 54 4.31333 1
gene 1 7 28 6.81734 0 56 6.81734 1
gene 1 8 21 2.8553 0 57 2.8553 1
gene 1 8 22 0.180288 0 58 0.180288 1
gene 1 9 21 1.59699 0 65 1.59699 1
gene 1 9 24 -1.80803 0 68 -1.80803 1
gene 1 9 26 -0.364215 0 70 -0.364215 1
gene 1 9 28 1.6638 0 72 1.6638 1
gene 1 21 11 -0.263871 0 74 -0.263871 1
gene 1 21 12 2.90178 0 75 2.90178 1
gene 1 21 15 3.37551 0 78 3.37551 1
gene 1 21 17 3.4992 0 80 3.4992 1
gene 1 21 18 2.53145 0 81 2.53145 1
gene 1 21 19 2.3562 0 82 2.3562 1
gene 1 21 20 -5.36181 0 83 -5.36181 1
gene 1 22 10 -0.888871 0 84 -0.888871 1
gene 1 22 11 5.22527 0 85 5.22527 1
gene 1 22 12 -0.825821 0 86 -0.825821 1
gene 1 22 14 -1.23405 0 88 -1.23405 1
gene 1 22 15 7.44247 0 89 7.44247 1
gene 1 22 16 1.54467 0 90 1.54467 1
gene 1 22 17 -1.1258 0 91 -1.1258 1
gene 1 22 20 3.0485 0 94 3.0485 1
gene 1 24 10 4.04118 0 106 4.04118 1
gene 1 24 11 -0.637275 0 107 -0.637275 1
gene 1 24 12 0.992596 0 108 0.992596 1
gene 1 24 19 0.695439 0 115 0.695439 1
gene 1 26 10 4.79198 0 128 4.79198 1
gene 1 26 12 4.56871 0 130 4.56871 1
gene 1 26 14 -4.44148 0 132 -4.44148 1
gene 1 26 15 -0.970802 0 133 -0.970802 1
gene 1 26 20 -4.07217 0 138 -4.07217 1
gene 1 28 10 -1.92653 0 150 -1.92653 1
gene 1 28 11 2.81812 0 151 2.81812 1
gene 1 28 12 -1.16579 0 152 -1.16579 1
gene 1 28 13 3.87966 0 153 3.87966 1
gene 1 28 17 0.647869 0 157 0.647869 1
gene 1 28 18 0.352378 0 158 0.352378 1
gene 1 28 19 1.10142 0 159 1.10142 1
gene 1 28 20 2.37716 0 160 2.37716 1
gene 1 7 12 -0.304739 0 552 -0.304739 1
gene 1 12 12 -1.22831 1 1118 -1.22831 1
gene 1 2 14 -2.87143 0 1411 -2.87143 1
gene 1 15 14 -1.54703 0 2363 -1.54703 1
gene 1 22 24 -0.78825 0 3685 -0.78825 1
gene 1 21 28 2.39146 0 3938 2.39146 1
gene 1 16 11 0.0313 0 4111 0.0313 1
gene 1 13 20 1.31324 0 4245 1.31324 1
gene 1 13 13 -1.04793 1 4790 -1.04793 1
gene 1 19 18 -0.548876 0 5416 -0.548876 1
gene 1 18 14 3.21333 0 5599 3.21333 1
gene 1 15 17 -0.654106 0 6689 -0.654106 1
gene 1 1 13 2.80246 0 7672 2.80246 1
gene 1 20 10 1.84827 0 9262 1.84827 1
gene 1 3 16 1.02866 0 9524 1.02866 1
gene 1 5 16 -2.62021 0 9929 -2.62021 1
gene 1 9 20 -0.575496 0 10049 -0.575496 1
gene 1 8 13 -1.53951 0 11120 -1.53951 1
gene 1 18 17 -0.561972 0 11309 -0.561972 1
gene 1 6 18 0.820793 0 11648 0.820793 1
gene 1 12 26 1.2329 1 14715 1.2329 1
gene 1 10 10 -0.866177 1 15692 -0.866177 1
gene 1 24 20 -1.80109 0 15875 -1.80109 1
gene 1 26 26 4.4458 1 16067 4.4458 1
gene 1 21 24 -0.372163 0 16256 -0.372163 1
gene 1 16 15 0.940619 0 16653 0.940619 1
gene 1 20 14 0.34537 0 17664 0.34537 1
gene 1 2 24 -1.54278 0 18096 -1.54278 1
gene 1 621 20 0.718555 0 20110 0.718555 1
gene 1 6 11 0.636578 0 21891 0.636578 1
gene 1 28 22 0.220003 0 22951 0.220003 1
gene 1 11 621 -0.572851 0 24966 -0.572851 1
gene 1 11 15 0.401718 0 25914 0.401718 1
gene 1 28 28 0.167219 1 26360 0.167219 1
gene 1 12 16 1.62385 0 27787 1.62385 1
gene 1 20 621 -1.74034 1 28311 -1.74034 1
gene 1 16 17 -0.0649587 0 30375 -0.0649587 1
gene 1 621 22 0.0675314 1 30578 0.0675314 1
gene 1 10 15 -1.20504 0 30728 -1.20504 1
gene 1 5 10 -2.19092 0 30785 -2.19092 1
gene 1 24 14 -0.504982 0 31949 -0.504982 1
gene 1 11 11 -0.863268 1 32153 -0.863268 1
gene 1 8 17 -0.161238 0 33251 -0.161238 1
gene 1 20 1396 -0.446319 0 33445 -0.446319 1
gene 1 2 12 -0.805179 0 33611 -0.805179 1
gene 1 7 1427 0.754525 0 34102 0.715524 1
gene 1 1427 24 -1.14012 0 34103 -0.98548 1
gene 1 18 12 -0.528968 0 34393 -0.528968 1
gene 1 11 13 0.51976 0 35364 0.51976 1
gene 1 16 14 0.0720463 0 36894 0.0720463 1
gene 1 17 14 -0.18504 0 37275 -0.18504 1
gene 1 7 18 -0.666565 0 37610 -0.666565 1
gene 1 3 18 0.327325 0 38597 0.327325 1
gene 1 17 17 -0.087127 1 38688 -0.087127 1
gene 1 12 621 -0.25923 0 40044 -0.25923 1
gene 1 14 14 1.42846 1 40419 1.42846 1
gene 1 1 12 -0.66726 0 40994 -0.66726 1
gene 1 8 621 0.814966 0 41222 0.814966 1
gene 1 2 19 0.154864 0 41812 0.154864 1
gene 1 9 14 0.910584 0 42589 0.910584 1
gene 1 1427 15 -1.61944 0 42793 -1.61944 1
gene 1 2 17 0.0804266 0 44317 0.0804266 1
gene 1 8 1396 -0.4185 0 44495 -0.4185 1
gene 1 3 19 -0.091273 0 45061 -0.091273 1
gene 1 6 17 -0.210859 0 45182 -0.210859 1
gene 1 13 10 -0.284228 0 45364 -0.284228 1
gene 1 18 621 -0.596565 0 46608 -0.596565 1
gene 1 1396 1396 0.199825 1 48192 0.199825 1
gene 1 8 28 0.558196 0 48756 0.558196 1
gene 1 17 10 -0.268403 0 48965 -0.268403 1
gene 1 8 1427 -0.473255 0 49051 -0.473255 1
gene 1 17 2029 0.993968 1 49262 0.602077 1
gene 1 2029 12 0.274643 0 49263 0.257878 1
gene 1 4 2041 0.994091 0 49445 0.837885 1
gene 1 2041 24 -2.3316 0 49446 -1.17902 1
gene 1 18 28 0.700978 1 49732 0.700978 1
gene 1 6 621 0.296152 0 50620 0.296152 1
gene 1 2041 1396 -0.0742708 0 50838 -0.0742708 1
gene 1 10 12 -0.266296 1 51212 -0.266296 1
gene 1 12 24 0.603215 1 51385 0.603215 1
gene 1 1427 28 -0.228318 0 51589 -0.228318 1
gene 1 4 24 0.379478 0 51771 0.379478 1
gene 1 8 19 0.471605 0 52627 0.471605 1
gene 1 5 13 -0.718083 0 53720 -0.718083 1
gene 1 14 621 0.294162 0 54953 0.294162 1
gene 1 22 19 0.128254 0 55069 0.128254 1
gene 1 3 11 -0.030742 0 55515 -0.030742 1
gene 1 3 14 1.1348 0 55688 1.1348 1
gene 1 11 14 1.0271 0 56381 1.0271 1
gene 1 2 20 -0.466423 0 56687 -0.466423 1
gene 1 19 17 -0.47371 0 56950 -0.47371 1
gene 1 8 14 0.551578 0 57481 0.551578 1
gene 1 4 10 0.437685 0 58262 0.437685 1
gene 1 2041 13 0.000483539 0 58464 0.000483539 1
gene 1 24 24 -0.157546 1 59165 -0.157546 1
gene 1 1427 1427 -0.408739 1 59724 -0.408739 1
gene 1 4 16 0.24939 0 60258 0.24939 1
gene 1 3 28 0.877272 0 60572 0.877272 1
gene 1 9 17 -0.331653 0 60901 -0.331653 1
gene 1 6 15 -0.394208 0 61245 -0.394208 1
gene 1 21 2529 1.11004 0 61435 0.28191 1
gene 1 2529 22 -1.07387 0 61436 0 1
gene 1 19 1396 -0.636035 0 61988 -0.636035 1
gene 1 4 2551 1 0 62200 0 1
gene 1 2551 28 -0.233894 0 62201 0 1
gene 1 7 15 -0.414226 0 62750 -0.414226 1
gene 1 2029 10 -0.298176 0 62912 -0.298176 1
gene 1 3 17 0.750062 0 63353 0.750062 1
gene 1 2529 24 -0.444166 0 63934 -0.444166 1
genomeend 299
