/* Organism #58615232 Fitness: -89616.5 
genomestart 874
trait 1 0 3.31909e-05 0.0173901 0.479216 0.943906 0.0736525 0.889324 0.437466 
node 1 1 0
node 2 1 1
node 3 1 1
node 4 1 1
node 5 1 1
node 6 1 1
node 7 1 1
node 8 1 1
node 9 1 1
node 10 1 2
node 11 1 2
node 12 1 2
node 13 1 2
node 14 1 2
node 15 1 2
node 16 1 2
node 17 1 2
node 18 1 2
node 19 1 2
node 20 1 2
node 21 1 3
node 24 1 3
node 26 1 3
node 1855 1 3
node 2170 1 3
node 2497 1 3
gene 1 1 24 -2.36537 0 4 -2.36537 1
gene 1 2 21 -1.12946 0 9 -1.12946 1
gene 1 2 26 -0.922559 0 14 -0.922559 1
gene 1 3 21 -1.22928 0 17 -1.22928 1
gene 1 3 24 1.71941 0 20 1.71941 1
gene 1 4 21 -1.55823 0 25 -1.55823 1
gene 1 4 24 1.54 0 28 1.54 1
gene 1 4 26 2.59511 0 30 2.59511 1
gene 1 5 24 -5.9732 0 36 -5.9732 1
gene 1 5 26 -0.278506 0 38 -0.278506 1
gene 1 6 24 -0.427774 0 44 -0.427774 1
gene 1 7 21 4.28477 0 49 4.28477 1
gene 1 7 24 6.64717 0 52 6.64717 1
gene 1 7 26 2.26039 0 54 2.26039 1
gene 1 8 21 -1.4167 0 57 -1.4167 1
gene 1 8 26 1.62166 0 62 1.62166 1
gene 1 9 21 0.101227 0 65 0.101227 1
gene 1 9 26 1.81182 0 70 1.81182 1
gene 1 21 10 5.81147 0 73 5.81147 1
gene 1 21 11 -1.96385 0 74 -1.96385 1
gene 1 21 14 -3.21101 0 77 -3.21101 1
gene 1 21 17 -2.67711 0 80 -2.67711 1
gene 1 21 18 1.9822 0 81 1.9822 1
gene 1 21 20 2.78882 0 83 2.78882 1
gene 1 24 10 2.42323 0 106 2.42323 1
gene 1 24 12 -4.91034 0 108 -4.91034 1
gene 1 24 16 1.3794 0 112 1.3794 1
gene 1 24 17 0.248145 0 113 0.248145 1
gene 1 24 19 1.47753 0 115 1.47753 1
gene 1 24 20 2.88003 0 116 2.88003 1
gene 1 26 11 -1.82852 0 129 -1.82852 1
gene 1 26 12 1.55411 0 130 1.55411 1
gene 1 26 13 4.68821 0 131 4.68821 1
gene 1 26 15 -0.997351 0 133 -0.997351 1
gene 1 26 18 -2.49335 0 136 -2.49335 1
gene 1 26 19 -3.57719 0 137 -3.57719 1
gene 1 26 20 -3.64734 0 138 -3.64734 1
gene 1 21 24 -2.66869 0 1712 -2.66869 1
gene 1 1 17 -0.466302 0 3817 -0.466302 1
gene 1 3 15 1.40965 0 4193 1.40965 1
gene 1 8 16 -1.88728 0 5209 -1.88728 1
gene 1 20 19 -0.969616 0 5702 -0.969616 1
gene 1 10 19 0.471269 0 6763 0.471269 1
gene 1 19 19 0.881393 1 8010 0.881393 1
gene 1 16 16 -0.426005 1 8164 -0.426005 1
gene 1 13 16 -0.658502 0 9847 -0.658502 1
gene 1 1 13 -1.59646 0 10192 -1.59646 1
gene 1 26 21 0.792377 0 10523 0.792377 1
gene 1 13 17 0.846246 0 10853 0.846246 1
gene 1 6 20 0.769014 0 11130 0.769014 1
gene 1 5 12 0.397587 0 11473 0.397587 1
gene 1 9 20 -0.5767 0 12218 -0.5767 1
gene 1 15 20 -0.22711 0 13453 -0.22711 1
gene 1 3 10 0.614466 0 13597 0.614466 1
gene 1 3 11 -0.28146 0 14423 -0.28146 1
gene 1 3 19 -0.477383 0 15200 -0.477383 1
gene 1 7 19 -0.497029 0 15809 -0.497029 1
gene 1 18 20 0.852325 0 17057 0.852325 1
gene 1 19 18 2.11519 1 17439 2.11519 1
gene 1 14 16 1.13802 0 18185 1.13802 1
gene 1 7 12 -0.220401 0 18457 -0.220401 1
gene 1 21 16 0.24512 0 19189 0.24512 1
gene 1 13 12 1.03488 0 20930 1.03488 1
gene 1 14 14 0.147338 1 21194 0.147338 1
gene 1 26 26 0.590529 1 22011 0.590529 1
gene 1 3 14 -1.52024 0 22655 -1.52024 1
gene 1 2 17 -0.679113 0 23271 -0.679113 1
gene 1 24 24 -0.417912 1 24101 -0.417912 1
gene 1 1 10 -0.192543 0 25344 -0.192543 1
gene 1 1 18 0.209644 0 25485 0.209644 1
gene 1 9 24 -0.325549 0 27178 -0.325549 1
gene 1 16 20 -0.23169 0 31647 -0.23169 1
gene 1 2 14 0.811748 0 32487 0.811748 1
gene 1 19 16 -0.86781 0 34923 -0.86781 1
gene 1 5 20 -0.0901324 0 35194 -0.0901324 1
gene 1 9 19 0.907332 0 35380 0.907332 1
gene 1 13 24 0.20833 0 36737 0.20833 1
gene 1 10 10 -0.748721 1 37782 -0.748721 1
gene 1 6 17 -0.564763 0 38471 -0.564763 1
gene 1 21 12 -0.0479434 0 39155 -0.0479434 1
gene 1 8 19 -0.4366 0 40435 -0.4366 1
gene 1 5 18 0.291321 0 40611 0.291321 1
gene 1 3 18 -0.592737 0 40756 -0.592737 1
gene 1 1 21 -0.117296 0 41869 -0.117296 1
gene 1 19 21 -0.379184 1 44156 -0.379184 1
gene 1 5 1855 0.877476 0 45791 0.507865 1
gene 1 1855 21 2.79297 0 45792 2.24052 1
gene 1 20 12 0.209927 0 46932 0.209927 1
gene 1 1855 14 0.102684 0 48081 0.102684 1
gene 1 11 24 0.0221041 1 49511 0.0221041 1
gene 1 8 10 -0.415953 0 49898 -0.415953 1
gene 1 1855 20 0.302649 0 50048 0.302649 1
gene 1 7 17 0.950065 0 50449 0.950065 1
gene 1 18 21 0.232885 1 52078 0.232885 1
gene 1 15 21 -0.767595 0 52567 -0.767595 1
gene 1 13 21 0.580766 1 53044 0.580766 1
gene 1 2170 10 -0.227073 0 53982 -0.323415 1
gene 1 15 2170 0.228292 0 54376 0.228292 1
gene 1 10 17 0.477883 0 54562 0.477883 1
gene 1 21 21 0.83991 1 54920 0.83991 1
gene 1 8 18 0.835754 0 56711 0.835754 1
gene 1 11 16 -0.0748423 0 57760 -0.0748423 1
gene 1 16 17 -0.664709 0 57954 -0.664709 1
gene 1 5 13 -0.569185 0 58244 -0.569185 1
gene 1 1855 18 -0.195382 0 59087 -0.195382 1
gene 1 6 21 0.657889 0 59701 0.657889 1
gene 1 13 11 0.0224002 0 59823 0.0224002 1
gene 1 26 17 0.543608 0 60022 0.543608 1
gene 1 2 12 -0.503766 0 60794 -0.503766 1
gene 1 1855 1855 -0.392621 1 61203 -0.392621 1
gene 1 11 2497 1 1 62214 0 1
gene 1 2497 11 1.12419 0 62215 0 1
gene 1 2170 1855 0.21831 0 62438 0.21831 1
gene 1 18 18 -0.551228 1 63127 -0.551228 1
gene 1 7 10 -0.987574 0 63325 -0.987574 1
gene 1 1855 12 -0.648063 0 63705 -0.648063 1
gene 1 2170 14 0.487848 0 63812 0.487848 1
gene 1 8 15 -0.753339 0 64120 -0.753339 1
genomeend 874
