/* Organism #24001136 Fitness: -68027.3 
genomestart 191
trait 1 0.988425 0.417156 0.315277 0.984737 0.542624 0.775627 0.44668 0.532974 
node 1 1 0
node 2 1 1
node 3 1 1
node 4 1 1
node 5 1 1
node 6 1 1
node 7 1 1
node 8 1 1
node 9 1 1
node 10 1 2
node 11 1 2
node 12 1 2
node 13 1 2
node 14 1 2
node 15 1 2
node 16 1 2
node 17 1 2
node 18 1 2
node 19 1 2
node 20 1 2
node 21 1 3
node 23 1 3
node 24 1 3
node 25 1 3
node 507 1 3
node 1804 1 3
node 2153 1 3
gene 1 1 21 4.86799 0 1 4.86799 1
gene 1 1 23 -0.00662581 0 3 -0.00662581 1
gene 1 1 24 -3.00669 0 4 -3.00669 1
gene 1 1 25 0.764757 0 5 0.764757 1
gene 1 2 21 3.10502 0 9 3.10502 1
gene 1 2 23 0.294031 0 11 0.294031 1
gene 1 2 24 -0.067493 0 12 -0.067493 1
gene 1 2 25 -1.94357 0 13 -1.94357 1
gene 1 3 21 -1.25902 0 17 -1.25902 1
gene 1 3 23 -7.10195 0 19 -7.10195 1
gene 1 3 24 2.50544 0 20 2.50544 1
gene 1 3 25 1.45109 0 21 1.45109 1
gene 1 4 21 -1.72469 0 25 -1.72469 1
gene 1 4 24 -1.64416 0 28 -1.64416 1
gene 1 5 23 4.45215 0 35 4.45215 1
gene 1 6 23 -0.112262 0 43 -0.112262 1
gene 1 7 24 0.632888 0 52 0.632888 1
gene 1 7 25 2.21285 0 53 2.21285 1
gene 1 8 25 3.1976 0 61 3.1976 1
gene 1 9 23 -1.22953 0 67 -1.22953 1
gene 1 9 25 0.0057311 0 69 0.0057311 1
gene 1 21 10 1.84913 0 73 1.84913 1
gene 1 21 11 -0.600158 0 74 -0.600158 1
gene 1 21 13 0.180613 0 76 0.180613 1
gene 1 21 15 -5.48709 0 78 -5.48709 1
gene 1 21 16 -3.70971 0 79 -3.70971 1
gene 1 21 18 -4.18032 0 81 -4.18032 1
gene 1 21 19 -2.04331 0 82 -2.04331 1
gene 1 21 20 -0.753603 0 83 -0.753603 1
gene 1 23 10 0.21819 0 95 0.21819 1
gene 1 23 12 3.35323 0 97 3.35323 1
gene 1 23 13 -0.686055 0 98 -0.686055 1
gene 1 23 15 1.38203 0 100 1.38203 1
gene 1 23 16 -2.14855 0 101 -2.14855 1
gene 1 23 17 -2.4986 0 102 -2.4986 1
gene 1 23 18 -3.97705 0 103 -3.97705 1
gene 1 23 20 -4.01718 0 105 -4.01718 1
gene 1 24 10 -2.89975 0 106 -2.89975 1
gene 1 24 11 -0.25651 0 107 -0.25651 1
gene 1 24 12 -2.7667 0 108 -2.7667 1
gene 1 24 14 2.67021 0 110 2.67021 1
gene 1 24 15 -0.904663 0 111 -0.904663 1
gene 1 24 16 1.01071 0 112 1.01071 1
gene 1 24 17 0.19641 0 113 0.19641 1
gene 1 24 18 0.509062 0 114 0.509062 1
gene 1 24 19 5.30658 0 115 5.30658 1
gene 1 24 20 0.852833 0 116 0.852833 1
gene 1 25 10 2.62709 0 117 2.62709 1
gene 1 25 11 0.115387 0 118 0.115387 1
gene 1 25 12 2.54666 0 119 2.54666 1
gene 1 25 13 4.41368 0 120 4.41368 1
gene 1 25 17 -1.47335 0 124 -1.47335 1
gene 1 25 20 -1.55807 0 127 -1.55807 1
gene 1 14 12 -0.915881 0 327 -0.915881 1
gene 1 11 18 -0.548041 0 3699 -0.548041 1
gene 1 25 24 -0.560132 0 3868 -0.560132 1
gene 1 11 16 -0.81937 0 4116 -0.81937 1
gene 1 21 25 0.927978 0 5376 0.927978 1
gene 1 9 12 -0.652118 0 6562 -0.652118 1
gene 1 8 16 -0.387993 0 7496 -0.387993 1
gene 1 11 13 0.550877 0 7828 0.550877 1
gene 1 19 13 0.388701 0 9475 0.388701 1
gene 1 21 14 -1.67267 0 11055 -1.67267 1
gene 1 20 19 0.881191 0 11247 0.881191 1
gene 1 507 14 -0.612028 0 12177 -0.612028 1
gene 1 25 23 -0.282647 0 12706 -0.282647 1
gene 1 15 16 0.77021 0 13031 0.77021 1
gene 1 3 13 -2.94006 0 14188 -2.94006 1
gene 1 3 11 0.177099 0 14564 0.177099 1
gene 1 507 15 -0.559702 0 14715 -0.559702 1
gene 1 4 11 6.3608 0 14906 6.3608 1
gene 1 9 18 2.1162 0 16441 2.1162 1
gene 1 1 507 0.550635 0 17025 0.550635 1
gene 1 10 18 -3.87215 0 17747 -3.87215 1
gene 1 12 11 -1.82573 0 18353 -1.82573 1
gene 1 18 18 -0.321244 1 18380 -0.321244 1
gene 1 8 14 1.39572 0 19059 1.39572 1
gene 1 5 24 -3.24703 0 19219 -3.24703 1
gene 1 4 12 -3.07005 0 20907 -3.07005 1
gene 1 5 20 0.146461 0 21080 0.146461 1
gene 1 5 25 -2.0175 0 21964 -2.0175 1
gene 1 12 16 0.540421 0 22388 0.540421 1
gene 1 13 13 -1.03982 1 22460 -1.03982 1
gene 1 24 507 1.48413 0 25537 1.48413 1
gene 1 14 10 -1.0007 0 25680 -1.0007 1
gene 1 5 507 0.453831 0 25866 0.453831 1
gene 1 8 507 0.670389 0 26100 0.670389 1
gene 1 9 10 1.34757 0 28524 1.34757 1
gene 1 9 15 -2.53536 0 28715 -2.53536 1
gene 1 507 17 -0.101661 0 29148 -0.101661 1
gene 1 3 15 -1.25351 0 29283 -1.25351 1
gene 1 4 15 -0.0856964 0 30003 -0.0856964 1
gene 1 13 10 0.782542 0 30551 0.782542 1
gene 1 15 17 1.25734 0 31919 1.25734 1
gene 1 12 13 0.673075 0 32318 0.673075 1
gene 1 21 21 0.112099 1 34252 0.112099 1
gene 1 10 16 -0.678327 0 35054 -0.678327 1
gene 1 5 15 -0.390811 0 36384 -0.390811 1
gene 1 20 15 1.4326 0 39162 1.4326 1
gene 1 5 14 -1.51846 0 39512 -1.51846 1
gene 1 13 15 0.387122 0 39707 0.387122 1
gene 1 507 507 -0.302227 1 39897 -0.302227 1
gene 1 6 19 -1.23449 0 40505 -1.23449 1
gene 1 507 11 -0.722573 0 43038 -0.722573 1
gene 1 16 16 -0.748261 1 44081 -0.748261 1
gene 1 11 1804 1.19898 0 44375 1.19426 1
gene 1 1804 17 1.42105 0 44376 1.17533 1
gene 1 7 13 0.415757 0 45063 0.415757 1
gene 1 1 11 -1.22235 0 45254 -1.22235 1
gene 1 15 18 -0.133686 0 46421 -0.133686 1
gene 1 25 25 0.780493 1 47010 0.780493 1
gene 1 1 17 0.737929 0 47230 0.737929 1
gene 1 20 1804 0.367318 0 47418 0.367318 1
gene 1 3 16 -0.26095 0 47605 -0.26095 1
gene 1 19 16 -1.44273 0 47817 -1.44273 1
gene 1 14 16 -0.18108 0 49395 -0.18108 1
gene 1 6 507 -0.0619556 0 49514 -0.0619556 1
gene 1 17 15 -0.909192 1 49915 -0.909192 1
gene 1 5 21 -0.464355 0 49953 -0.464355 1
gene 1 11 15 0.462635 0 50167 0.462635 1
gene 1 14 1804 -1.37762 0 50366 -1.37762 1
gene 1 3 507 -0.387595 0 52014 -0.387595 1
gene 1 25 15 -0.139941 0 52197 -0.139941 1
gene 1 2 2153 1.30295 0 52442 1.04096 1
gene 1 2153 19 1.98948 0 52443 1.98708 1
gene 1 10 10 0.370378 1 52731 0.370378 1
gene 1 17 2153 0.017704 0 52947 0.017704 1
gene 1 7 18 -0.335068 0 54565 -0.335068 1
gene 1 18 507 -0.410405 1 54963 -0.410405 1
gene 1 6 16 0.390829 0 55085 0.390829 1
gene 1 2153 20 0.806187 0 55377 0.806187 1
gene 1 8 21 -0.676581 0 56104 -0.676581 1
gene 1 2 507 0.320228 0 56343 0.320228 1
gene 1 5 16 0.221727 0 56913 0.221727 1
gene 1 20 17 0.479545 0 57325 0.479545 1
gene 1 19 15 1.44314 0 59218 1.44314 1
gene 1 23 24 0.456722 0 59328 0.456722 1
gene 1 11 11 0.92916 1 60104 0.92916 1
gene 1 11 17 -0.430073 0 60208 -0.430073 1
gene 1 2153 10 -0.642048 0 60509 -0.642048 1
gene 1 6 24 0.924507 0 60752 0.924507 1
gene 1 19 19 0.806287 1 60805 0.806287 1
gene 1 2 14 -0.40876 0 61489 -0.40876 1
gene 1 507 20 0.321001 0 62379 0.321001 1
gene 1 1804 1804 0.561603 1 62924 0.561603 1
gene 1 9 14 -0.000248487 0 63121 -0.000248487 1
genomeend 191
