/* Organism #63992112 Fitness: -67473 
genomestart 414
trait 1 0.250669 0.321602 0.431168 0.0271569 0.378671 0.636216 0.827496 0.66414 
node 1 1 0
node 2 1 1
node 3 1 1
node 4 1 1
node 5 1 1
node 6 1 1
node 7 1 1
node 8 1 1
node 9 1 1
node 10 1 2
node 11 1 2
node 12 1 2
node 13 1 2
node 14 1 2
node 15 1 2
node 16 1 2
node 17 1 2
node 18 1 2
node 19 1 2
node 20 1 2
node 23 1 3
node 24 1 3
node 26 1 3
node 27 1 3
node 28 1 3
node 669 1 3
node 783 1 3
node 959 1 3
node 1106 1 3
node 1688 1 3
node 1706 1 3
node 1954 1 3
node 2335 1 3
node 2555 1 3
node 2566 1 3
gene 1 1 23 5.49889 0 3 5.49889 1
gene 1 1 24 2.24461 0 4 2.24461 1
gene 1 1 26 -2.85232 0 6 -2.85232 1
gene 1 1 27 -2.98407 0 7 -2.98407 1
gene 1 2 23 -0.23351 0 11 -0.23351 1
gene 1 3 24 -4.29893 0 20 -4.29893 1
gene 1 3 27 4.23094 0 23 4.23094 1
gene 1 3 28 2.79541 0 24 2.79541 1
gene 1 4 24 1.44575 0 28 1.44575 1
gene 1 5 23 -0.768267 0 35 -0.768267 1
gene 1 5 24 0.778847 0 36 0.778847 1
gene 1 5 27 -0.111279 0 39 -0.111279 1
gene 1 6 26 -0.0958535 0 46 -0.0958535 1
gene 1 6 28 0.568314 0 48 0.568314 1
gene 1 7 24 -4.06631 0 52 -4.06631 1
gene 1 7 26 1.75873 0 54 1.75873 1
gene 1 7 27 -1.86271 0 55 -1.86271 1
gene 1 7 28 0.173518 0 56 0.173518 1
gene 1 8 27 -0.00045529 0 63 -0.00045529 1
gene 1 9 23 -1.71288 0 67 -1.71288 1
gene 1 9 26 0.0740338 0 70 0.0740338 1
gene 1 9 28 -0.0749776 0 72 -0.0749776 1
gene 1 23 11 0.0167953 0 96 0.0167953 1
gene 1 23 12 0.674549 0 97 0.674549 1
gene 1 23 13 -1.04139 0 98 -1.04139 1
gene 1 23 16 -1.91789 0 101 -1.91789 1
gene 1 23 20 -0.753082 0 105 -0.753082 1
gene 1 24 12 6.15878 0 108 6.15878 1
gene 1 24 13 -4.05684 0 109 -4.05684 1
gene 1 24 17 -0.115036 0 113 -0.115036 1
gene 1 24 20 -1.30632 0 116 -1.30632 1
gene 1 26 10 -0.864615 0 128 -0.864615 1
gene 1 26 11 0.386113 0 129 0.386113 1
gene 1 26 12 -2.4389 0 130 -2.4389 1
gene 1 26 17 0.0893843 0 135 0.0893843 1
gene 1 26 19 1.91428 0 137 1.91428 1
gene 1 26 20 0.943241 0 138 0.943241 1
gene 1 27 10 -2.46458 0 139 -2.46458 1
gene 1 27 11 -1.09327 0 140 -1.09327 1
gene 1 27 12 -3.15241 0 141 -3.15241 1
gene 1 27 13 1.28621 0 142 1.28621 1
gene 1 27 15 3.54757 0 144 3.54757 1
gene 1 27 18 1.41455 0 147 1.41455 1
gene 1 28 10 1.91595 0 150 1.91595 1
gene 1 28 12 1.15634 0 152 1.15634 1
gene 1 28 13 0.478513 0 153 0.478513 1
gene 1 28 14 0.128092 0 154 0.128092 1
gene 1 28 17 -0.373966 0 157 -0.373966 1
gene 1 28 18 -0.0149206 0 158 -0.0149206 1
gene 1 15 13 -3.14197 0 2817 -3.14197 1
gene 1 10 18 -2.20579 0 5117 -2.20579 1
gene 1 15 16 -1.96958 0 6394 -1.96958 1
gene 1 20 16 -0.273524 0 7000 -0.273524 1
gene 1 20 20 -0.96754 1 8002 -0.96754 1
gene 1 13 12 2.13585 0 8585 2.13585 1
gene 1 5 11 -0.775229 0 8980 -0.775229 1
gene 1 15 20 -0.541993 0 9613 -0.541993 1
gene 1 2 18 -0.551825 0 11548 -0.551825 1
gene 1 23 27 1.20692 0 14835 1.20692 1
gene 1 13 14 0.136847 0 15183 0.136847 1
gene 1 16 24 0.289934 1 16080 0.289934 1
gene 1 19 19 2.96551 1 16462 2.96551 1
gene 1 669 16 1.07638 0 17024 1.07571 1
gene 1 14 12 0.0802388 0 17894 0.0802388 1
gene 1 5 20 1.57899 0 18297 1.57899 1
gene 1 1 16 -1.12334 0 18641 -1.12334 1
gene 1 26 783 2.89921 0 19703 2.89747 1
gene 1 783 15 0.955771 0 19961 0.955771 1
gene 1 3 13 -0.286268 0 21459 -0.286268 1
gene 1 3 19 0.22368 0 22074 0.22368 1
gene 1 14 11 0.67645 0 23324 0.67645 1
gene 1 4 14 -1.06585 0 23531 -1.06585 1
gene 1 23 959 0.236685 0 24407 0.201869 1
gene 1 959 18 1.10531 0 24408 1.10783 1
gene 1 14 14 -0.309818 1 26218 -0.309818 1
gene 1 26 23 -0.20299 0 27043 -0.20299 1
gene 1 1106 14 3.47507 0 28165 3.08469 1
gene 1 17 783 0.627327 0 29497 0.627327 1
gene 1 6 11 -1.58403 0 32013 -1.58403 1
gene 1 9 20 0.083741 0 32336 0.083741 1
gene 1 19 16 2.05175 0 32970 2.05175 1
gene 1 26 1106 0.683707 0 33770 0.683707 1
gene 1 7 783 0.783985 0 33964 0.783985 1
gene 1 959 16 -0.834568 0 34372 -0.834568 1
gene 1 18 783 -0.878564 1 35357 -0.878564 1
gene 1 3 26 0.388827 0 35593 0.388827 1
gene 1 8 23 0.363183 0 36140 0.363183 1
gene 1 13 19 0.642858 0 37496 0.642858 1
gene 1 24 24 0.423059 1 37893 0.423059 1
gene 1 17 11 1.71134 0 39509 1.71134 1
gene 1 2 20 0.957566 0 40051 0.957566 1
gene 1 27 27 0.362023 1 40197 0.362023 1
gene 1 18 13 -0.354155 0 41998 -0.354155 1
gene 1 12 12 1.29063 1 43168 1.29063 1
gene 1 1688 27 0.903064 0 43593 0.835998 1
gene 1 17 1706 0.814307 0 43955 0.641158 1
gene 1 23 669 0.639647 0 44113 0.639647 1
gene 1 959 783 0.0575437 0 45959 0.0575437 1
gene 1 19 14 0.559486 0 46387 0.559486 1
gene 1 783 18 -0.666793 0 47602 -0.666793 1
gene 1 13 15 -1.06974 1 47864 -1.06974 1
gene 1 6 1106 -1.00933 0 48100 -1.00933 1
gene 1 13 11 -0.117686 0 48300 -0.117686 1
gene 1 783 669 -0.735834 0 48409 -0.735834 1
gene 1 19 27 -0.181767 1 48997 -0.181767 1
gene 1 9 1106 -0.651942 0 49906 -0.651942 1
gene 1 5 783 -0.0167693 0 50869 -0.0167693 1
gene 1 783 1954 0.766535 0 51103 0.613924 1
gene 1 1954 14 0.825631 0 51104 0.808951 1
gene 1 1688 15 -0.235628 0 51524 -0.235628 1
gene 1 1 959 0.199123 0 52551 0.199123 1
gene 1 19 13 -1.0132 1 53315 -1.0132 1
gene 1 26 24 -0.266607 0 53789 -0.266607 1
gene 1 26 26 -0.354938 1 54506 -0.354938 1
gene 1 18 18 0.038562 1 55079 0.038562 1
gene 1 15 18 0.977134 0 55922 0.977134 1
gene 1 1706 1706 -0.787432 1 57007 -0.787432 1
gene 1 10 959 0.236411 0 57213 0.236411 1
gene 1 9 669 0.0930002 0 57783 0.0930002 1
gene 1 28 20 0.380829 0 58832 0.380829 1
gene 1 14 669 -0.623071 0 59157 -0.623071 1
gene 1 24 15 0.711813 0 59568 0.711813 1
gene 1 24 27 0.342142 0 59694 0.342142 1
gene 1 783 2335 0.822332 1 60972 0.34406 1
gene 1 1688 669 0.0530094 0 61173 0.0530094 1
gene 1 4 783 -2.12295 0 62030 -2.12295 1
gene 1 4 959 -0.895698 0 62629 -0.895698 1
gene 1 26 13 0.65277 0 63216 0.65277 1
gene 1 1706 17 -0.220954 1 63840 -0.220954 1
gene 1 2335 959 0.85611 0 65002 0.85611 1
gene 1 13 16 0.00150231 0 65410 0.00150231 1
gene 1 1 783 -0.656024 0 65605 -0.656024 1
gene 1 2 28 0.559423 0 65830 0.559423 1
gene 1 959 1706 -0.302548 0 65966 -0.302548 1
gene 1 2 2335 0.46302 0 66238 0.46302 1
gene 1 2335 2555 1 0 66639 0 1
gene 1 2555 783 -0.0855957 0 66640 0 1
gene 1 24 2566 1 0 66868 0 1
gene 1 2566 16 -2.11861 0 66869 0 1
gene 1 8 19 0.732085 0 67020 0.732085 1
gene 1 1106 24 -0.42705 0 67294 -0.42705 1
genomeend 414
