/* Organism #55401696 Fitness: -67925.5 
genomestart 385
trait 1 0.454661 0.0782826 0.6758 0.262808 0.0885538 0.123699 0.592497 0.574657 
node 1 1 0
node 2 1 1
node 3 1 1
node 4 1 1
node 5 1 1
node 6 1 1
node 7 1 1
node 8 1 1
node 9 1 1
node 10 1 2
node 11 1 2
node 12 1 2
node 13 1 2
node 14 1 2
node 15 1 2
node 16 1 2
node 17 1 2
node 18 1 2
node 19 1 2
node 20 1 2
node 21 1 3
node 22 1 3
node 23 1 3
node 26 1 3
node 27 1 3
node 307 1 3
node 894 1 3
node 1839 1 3
node 2273 1 3
node 2534 1 3
gene 1 1 23 -1.94307 0 3 -1.94307 1
gene 1 1 27 -2.71677 0 7 -2.71677 1
gene 1 3 22 -2.00762 0 18 -2.00762 1
gene 1 3 23 0.616184 0 19 0.616184 1
gene 1 3 26 -0.637457 0 22 -0.637457 1
gene 1 3 27 3.39443 0 23 3.39443 1
gene 1 4 23 -0.831873 0 27 -0.831873 1
gene 1 5 23 -6.53162 0 35 -6.53162 1
gene 1 5 26 -0.00956292 0 38 -0.00956292 1
gene 1 5 27 -2.57691 0 39 -2.57691 1
gene 1 6 22 -3.07003 0 42 -3.07003 1
gene 1 6 23 -0.835943 0 43 -0.835943 1
gene 1 6 26 -0.3124 0 46 -0.3124 1
gene 1 6 27 3.47137 0 47 3.47137 1
gene 1 7 23 3.03622 0 51 3.03622 1
gene 1 7 26 6.70888 0 54 6.70888 1
gene 1 7 27 -1.56584 0 55 -1.56584 1
gene 1 8 22 1.90487 0 58 1.90487 1
gene 1 8 23 -1.30489 0 59 -1.30489 1
gene 1 8 26 0.698124 0 62 0.698124 1
gene 1 8 27 2.86777 0 63 2.86777 1
gene 1 9 22 -0.395309 0 66 -0.395309 1
gene 1 9 23 0.632272 0 67 0.632272 1
gene 1 9 26 -1.48827 0 70 -1.48827 1
gene 1 9 27 -4.30156 0 71 -4.30156 1
gene 1 21 11 -0.0939751 0 74 -0.0939751 1
gene 1 21 14 6.08678 0 77 6.08678 1
gene 1 21 15 2.3311 0 78 2.3311 1
gene 1 21 17 2.41006 0 80 2.41006 1
gene 1 21 18 2.12345 0 81 2.12345 1
gene 1 21 20 1.60359 0 83 1.60359 1
gene 1 22 11 2.44571 0 85 2.44571 1
gene 1 22 15 -2.90754 0 89 -2.90754 1
gene 1 22 18 0.750562 0 92 0.750562 1
gene 1 22 20 -0.875684 0 94 -0.875684 1
gene 1 23 13 2.81293 0 98 2.81293 1
gene 1 23 15 0.921885 0 100 0.921885 1
gene 1 23 17 3.39428 0 102 3.39428 1
gene 1 23 18 3.17155 0 103 3.17155 1
gene 1 23 19 1.54863 0 104 1.54863 1
gene 1 23 20 3.47962 0 105 3.47962 1
gene 1 26 10 4.02862 0 128 4.02862 1
gene 1 26 14 0.0654572 0 132 0.0654572 1
gene 1 26 15 -2.58284 0 133 -2.58284 1
gene 1 26 16 -1.74273 0 134 -1.74273 1
gene 1 26 18 -1.74371 0 136 -1.74371 1
gene 1 26 20 1.17905 0 138 1.17905 1
gene 1 27 13 0.91187 0 142 0.91187 1
gene 1 27 15 3.06587 0 144 3.06587 1
gene 1 27 19 3.34799 0 148 3.34799 1
gene 1 27 20 1.64103 0 149 1.64103 1
gene 1 11 11 -0.348908 1 755 -0.348908 1
gene 1 20 17 -1.18349 0 3845 -1.18349 1
gene 1 27 21 2.01668 0 3963 2.01668 1
gene 1 2 19 2.17401 0 4235 2.17401 1
gene 1 307 21 -2.39556 0 6527 -2.39556 1
gene 1 1 11 -3.24909 0 7628 -3.24909 1
gene 1 6 18 -0.632068 0 7767 -0.632068 1
gene 1 13 16 -0.639449 0 7977 -0.639449 1
gene 1 19 12 -0.343238 0 8159 -0.343238 1
gene 1 307 20 -1.15765 0 8361 -1.15765 1
gene 1 9 16 -0.654028 0 9773 -0.654028 1
gene 1 4 15 0.179725 0 10844 0.179725 1
gene 1 15 12 -0.818459 0 12914 -0.818459 1
gene 1 5 14 1.556 0 15413 1.556 1
gene 1 6 14 0.00314188 0 15989 0.00314188 1
gene 1 14 14 -0.0747146 1 16055 -0.0747146 1
gene 1 307 26 1.30695 0 16255 1.30695 1
gene 1 15 11 1.00417 0 16462 1.00417 1
gene 1 2 14 -0.42056 0 16797 -0.42056 1
gene 1 12 20 0.248307 0 18507 0.248307 1
gene 1 4 12 0.0761485 0 19721 0.0761485 1
gene 1 17 15 0.611144 1 20308 0.611144 1
gene 1 1 12 0.125208 0 20624 0.125208 1
gene 1 26 894 -0.495132 0 24868 -0.495132 1
gene 1 7 17 0.240552 0 25468 0.240552 1
gene 1 11 14 0.228119 0 26585 0.228119 1
gene 1 5 18 1.90854 0 27162 1.90854 1
gene 1 4 26 -0.657857 0 27649 -0.657857 1
gene 1 20 18 -0.620453 0 28006 -0.620453 1
gene 1 894 16 -0.233185 0 28774 -0.233185 1
gene 1 21 22 0.301653 0 28946 0.301653 1
gene 1 6 12 0.426585 0 29750 0.426585 1
gene 1 3 21 0.394587 0 31126 0.394587 1
gene 1 19 10 -0.185165 0 31390 -0.185165 1
gene 1 21 21 -0.413732 1 31877 -0.413732 1
gene 1 22 13 -2.38864 0 32039 -2.38864 1
gene 1 23 23 0.629161 1 32690 0.629161 1
gene 1 5 11 -0.471587 0 32887 -0.471587 1
gene 1 9 18 0.0655201 0 33084 0.0655201 1
gene 1 16 11 -1.65508 0 33454 -1.65508 1
gene 1 16 15 -1.78632 0 33808 -1.78632 1
gene 1 21 307 -0.153343 1 34759 -0.153343 1
gene 1 2 10 -0.980421 0 35684 -0.980421 1
gene 1 16 14 0.191681 0 37357 0.191681 1
gene 1 27 26 -0.989819 0 37746 -0.989819 1
gene 1 17 14 -1.25097 0 37890 -1.25097 1
gene 1 2 11 0.79848 0 38683 0.79848 1
gene 1 12 18 -0.257194 0 38800 -0.257194 1
gene 1 22 894 -0.67693 0 39289 -0.67693 1
gene 1 5 22 -0.71564 0 39452 -0.71564 1
gene 1 307 18 -0.143605 0 39516 -0.143605 1
gene 1 4 18 0.348463 0 39709 0.348463 1
gene 1 2 18 -0.767261 0 41150 -0.767261 1
gene 1 8 15 0.550578 0 41559 0.550578 1
gene 1 12 12 0.408734 1 41902 0.408734 1
gene 1 23 21 0.0214331 0 42332 0.0214331 1
gene 1 11 20 0.510467 0 42988 0.510467 1
gene 1 307 10 -0.0987055 0 43167 -0.0987055 1
gene 1 23 10 -0.951335 0 43940 -0.951335 1
gene 1 2 1839 1.66262 0 44101 1.48991 1
gene 1 1839 27 0.573016 0 44102 0.482808 1
gene 1 1 14 -0.75745 0 44463 -0.75745 1
gene 1 26 11 0.538327 0 45631 0.538327 1
gene 1 10 14 -0.0814637 0 46184 -0.0814637 1
gene 1 6 10 -0.562078 0 46524 -0.562078 1
gene 1 3 11 -0.48538 0 46953 -0.48538 1
gene 1 894 20 -0.0560634 0 47138 -0.0560634 1
gene 1 2 15 -0.304038 0 48206 -0.304038 1
gene 1 1 21 -0.279903 0 48580 -0.279903 1
gene 1 7 22 1.13015 0 48747 1.13015 1
gene 1 7 894 -0.892036 0 50216 -0.892036 1
gene 1 10 18 -0.520492 0 50352 -0.520492 1
gene 1 27 12 1.19503 0 50568 1.19503 1
gene 1 307 14 -0.0529747 0 50917 -0.0529747 1
gene 1 19 15 -0.0922704 0 51132 -0.0922704 1
gene 1 23 11 0.298812 0 51726 0.298812 1
gene 1 3 10 -1.28586 0 53273 -1.28586 1
gene 1 2 894 -0.547094 0 53472 -0.547094 1
gene 1 1839 15 -0.819509 0 53699 -0.819509 1
gene 1 9 13 -1.13145 0 55051 -1.13145 1
gene 1 17 17 -0.237052 1 55304 -0.237052 1
gene 1 27 14 1.4004 0 55446 1.4004 1
gene 1 23 2273 0.774888 0 55660 0.290513 1
gene 1 2273 894 -0.83832 0 55661 -0.661963 1
gene 1 894 894 -0.265293 1 55829 -0.265293 1
gene 1 18 19 -0.720185 1 56003 -0.720185 1
gene 1 27 27 0.254891 1 56147 0.254891 1
gene 1 15 17 0.0752309 0 56368 0.0752309 1
gene 1 2273 20 -0.782422 0 56550 -0.782422 1
gene 1 15 10 -1.84845 0 57078 -1.84845 1
gene 1 1839 20 -0.763524 0 57261 -0.763524 1
gene 1 7 19 0.307664 0 57422 0.307664 1
gene 1 2273 10 -0.0550662 0 57708 -0.0550662 1
gene 1 2273 21 -1.1471 0 57899 -1.1471 1
gene 1 19 894 -0.258864 0 58078 -0.258864 1
gene 1 23 1839 0.292947 0 58526 0.292947 1
gene 1 13 17 -0.401504 0 58718 -0.401504 1
gene 1 22 14 0.57814 0 59016 0.57814 1
gene 1 15 19 -0.051388 1 60389 -0.051388 1
gene 1 13 11 -0.251904 0 60527 -0.251904 1
gene 1 13 26 -1.39702 0 60771 -1.39702 1
gene 1 2 2273 0.759977 0 61086 0.759977 1
gene 1 8 307 0.172904 0 61393 0.172904 1
gene 1 12 17 0.529972 0 61545 0.529972 1
gene 1 20 20 -0.657646 1 62047 -0.657646 1
gene 1 1839 2534 1 1 62234 0 1
gene 1 5 15 -0.998961 0 62435 -0.998961 1
gene 1 894 2534 -0.981635 0 63058 -0.981635 1
gene 1 2273 13 0.464148 0 63970 0.464148 1
gene 1 3 20 -0.920385 0 64166 -0.920385 1
genomeend 385
