/* Organism #41685888 Fitness: -285351 
genomestart 811
trait 1 0 0.00754511 0.918268 0.26569 0.756793 0.179995 0.99231 0.438019 
node 1 1 0
node 2 1 1
node 3 1 1
node 4 1 1
node 5 1 1
node 6 1 1
node 7 1 1
node 8 1 1
node 9 1 1
node 10 1 2
node 11 1 2
node 12 1 2
node 13 1 2
node 14 1 2
node 15 1 2
node 16 1 2
node 17 1 2
node 18 1 2
node 19 1 2
node 20 1 2
node 21 1 3
node 23 1 3
node 24 1 3
node 25 1 3
node 687 1 3
node 1211 1 3
node 1679 1 3
node 2064 1 3
node 2070 1 3
node 2088 1 3
node 2386 1 3
node 2460 1 3
gene 1 1 23 3.61786 0 3 3.61786 1
gene 1 1 24 -1.78405 0 4 -1.78405 1
gene 1 1 25 2.70559 0 5 2.70559 1
gene 1 2 21 -4.23776 0 9 -4.23776 1
gene 1 2 23 -1.67417 0 11 -1.67417 1
gene 1 2 24 0.911056 0 12 0.911056 1
gene 1 2 25 -1.49922 0 13 -1.49922 1
gene 1 3 21 2.91312 0 17 2.91312 1
gene 1 3 23 -2.71019 0 19 -2.71019 1
gene 1 3 24 -0.0910746 0 20 -0.0910746 1
gene 1 4 21 -1.55061 0 25 -1.55061 1
gene 1 5 23 -0.18736 0 35 -0.18736 1
gene 1 5 25 6.69032 0 37 6.69032 1
gene 1 6 23 1.39754 0 43 1.39754 1
gene 1 6 25 0.0958468 0 45 0.0958468 1
gene 1 7 23 2.36828 0 51 2.36828 1
gene 1 7 25 -1.296 0 53 -1.296 1
gene 1 8 21 4.97433 0 57 4.97433 1
gene 1 9 23 1.19749 0 67 1.19749 1
gene 1 21 13 -1.89527 0 76 -1.89527 1
gene 1 21 14 -1.47645 0 77 -1.47645 1
gene 1 21 16 2.48595 0 79 2.48595 1
gene 1 21 19 -0.726081 0 82 -0.726081 1
gene 1 23 12 2.12112 0 97 2.12112 1
gene 1 23 13 3.88792 0 98 3.88792 1
gene 1 23 16 -0.746108 0 101 -0.746108 1
gene 1 23 17 -5.12503 0 102 -5.12503 1
gene 1 24 10 -2.30724 0 106 -2.30724 1
gene 1 24 11 0.363496 0 107 0.363496 1
gene 1 24 12 -2.25023 0 108 -2.25023 1
gene 1 24 13 -0.092284 0 109 -0.092284 1
gene 1 24 15 3.58866 0 111 3.58866 1
gene 1 24 16 -0.262864 0 112 -0.262864 1
gene 1 24 20 3.74848 0 116 3.74848 1
gene 1 25 11 -1.59929 0 118 -1.59929 1
gene 1 25 12 -1.71661 0 119 -1.71661 1
gene 1 25 13 -6.05459 0 120 -6.05459 1
gene 1 25 14 1.84308 0 121 1.84308 1
gene 1 25 16 0.841455 0 123 0.841455 1
gene 1 25 17 0.69816 0 124 0.69816 1
gene 1 25 20 -4.70918 0 127 -4.70918 1
gene 1 15 16 2.89042 0 1168 2.89042 1
gene 1 14 20 1.29742 0 1318 1.29742 1
gene 1 18 19 -1.13222 0 3781 -1.13222 1
gene 1 20 20 -0.906063 1 6621 -0.906063 1
gene 1 12 13 2.65874 0 9356 2.65874 1
gene 1 13 11 -3.52997 0 10068 -3.52997 1
gene 1 16 14 0.804741 0 10801 0.804741 1
gene 1 17 25 2.67165 1 10986 2.67165 1
gene 1 23 14 0.18108 0 11147 0.18108 1
gene 1 5 12 2.37746 0 11834 2.37746 1
gene 1 1 16 -0.847387 0 13299 -0.847387 1
gene 1 18 15 0.908319 0 14767 0.908319 1
gene 1 1 12 2.45633 0 16134 2.45633 1
gene 1 12 10 1.76953 0 16243 1.76953 1
gene 1 24 25 -0.3133 0 17865 -0.3133 1
gene 1 13 687 -1.72465 0 18012 -1.72465 1
gene 1 4 20 1.97492 0 18425 1.97492 1
gene 1 7 18 -2.00395 0 21954 -2.00395 1
gene 1 6 17 0.352775 0 22125 0.352775 1
gene 1 4 19 -2.64042 0 22368 -2.64042 1
gene 1 14 14 0.00330805 1 23561 0.00330805 1
gene 1 687 20 0.96626 0 23710 0.96626 1
gene 1 21 20 -0.293837 0 24048 -0.293837 1
gene 1 21 11 0.808216 0 25754 0.808216 1
gene 1 1 15 -2.22921 0 26923 -2.22921 1
gene 1 1211 24 -0.804468 0 27088 -0.804468 1
gene 1 7 19 -1.02465 0 27904 -1.02465 1
gene 1 19 15 0.249764 0 28456 0.249764 1
gene 1 18 11 0.502511 0 28572 0.502511 1
gene 1 9 15 -0.676772 0 29837 -0.676772 1
gene 1 1 14 -3.35803 0 30645 -3.35803 1
gene 1 687 687 0.125254 1 32095 0.125254 1
gene 1 8 20 0.20523 0 32434 0.20523 1
gene 1 17 13 -1.24985 0 33285 -1.24985 1
gene 1 16 23 -0.454893 1 33473 -0.454893 1
gene 1 7 687 1.83847 0 34705 1.83847 1
gene 1 2 687 -0.338025 0 35390 -0.338025 1
gene 1 10 20 1.19848 0 35553 1.19848 1
gene 1 3 1211 -0.737422 0 35741 -0.737422 1
gene 1 11 687 -0.772435 0 35899 -0.772435 1
gene 1 18 13 0.483623 0 36762 0.483623 1
gene 1 20 11 -1.18757 0 36846 -1.18757 1
gene 1 8 1679 1.27887 0 37869 1.20078 1
gene 1 4 18 0.270144 0 37967 0.270144 1
gene 1 1211 10 -0.432149 0 38218 -0.432149 1
gene 1 10 10 -0.349879 1 38557 -0.349879 1
gene 1 24 19 1.25573 0 38723 1.25573 1
gene 1 8 14 1.01014 0 39187 1.01014 1
gene 1 1679 24 0.0146009 0 39372 0.0146009 1
gene 1 5 1679 -1.51334 0 39703 -1.51334 1
gene 1 25 23 -0.479721 0 40287 -0.479721 1
gene 1 1211 687 -0.125318 0 40896 -0.125318 1
gene 1 1211 20 0.205001 0 42719 0.205001 1
gene 1 10 23 -0.276012 1 43122 -0.276012 1
gene 1 11 16 -0.566445 0 43676 -0.566445 1
gene 1 17 11 -0.568016 0 44036 -0.568016 1
gene 1 13 19 0.60546 0 45162 0.60546 1
gene 1 1679 1679 0.136105 1 45288 0.136105 1
gene 1 21 687 -0.896212 0 45532 -0.896212 1
gene 1 13 10 0.445367 0 46041 0.445367 1
gene 1 18 18 -0.0122919 1 46113 -0.0122919 1
gene 1 3 17 -1.03516 0 46689 -1.03516 1
gene 1 2064 12 0.41528 0 47040 0.203508 1
gene 1 24 2070 0.894525 0 47254 0.550592 1
gene 1 8 15 0.359408 0 47495 0.359408 1
gene 1 19 2088 1.1071 1 47592 0.75615 1
gene 1 2088 19 2.83416 0 47593 1.97767 1
gene 1 2 2064 -1.0976 0 49312 -1.0976 1
gene 1 23 11 -0.645112 0 49482 -0.645112 1
gene 1 21 10 0.233775 0 49663 0.233775 1
gene 1 6 20 0.210045 0 50770 0.210045 1
gene 1 23 23 -0.766589 1 51656 -0.766589 1
gene 1 2 11 -0.277085 0 52743 -0.277085 1
gene 1 1211 1211 -0.92056 1 52936 -0.92056 1
gene 1 2064 2064 0.682485 1 53312 0.682485 1
gene 1 17 10 -0.458245 0 54047 -0.458245 1
gene 1 2088 23 0.0064862 0 54279 0.0064862 1
gene 1 13 13 -0.113211 1 54659 -0.113211 1
gene 1 2 14 -0.323608 0 54781 -0.323608 1
gene 1 2386 25 -0.104892 0 55215 -0.040809 1
gene 1 2064 13 0.89927 0 55734 0.89927 1
gene 1 21 12 -0.0525864 0 56134 -0.0525864 1
gene 1 4 2460 0.741549 0 56954 0.210299 1
gene 1 2460 23 -0.35805 0 56955 -0.331629 1
gene 1 9 16 0.208137 0 57494 0.208137 1
gene 1 687 10 -0.665227 0 57858 -0.665227 1
gene 1 24 24 0.564543 1 57980 0.564543 1
gene 1 21 24 0.269079 0 58218 0.269079 1
gene 1 2064 2386 -0.568276 0 59161 -0.568276 1
gene 1 12 18 -0.0588655 0 59796 -0.0588655 1
gene 1 8 11 -0.254095 0 60151 -0.254095 1
gene 1 2070 16 -0.811478 0 61126 -0.811478 1
genomeend 811
