/* Organism #42078576 Fitness: -282706 
genomestart 470
trait 1 0.500265 0.49445 0.544668 0.241643 0.0980113 0.582004 0.0485307 0.38562 
node 1 1 0
node 2 1 1
node 3 1 1
node 4 1 1
node 5 1 1
node 6 1 1
node 7 1 1
node 8 1 1
node 9 1 1
node 10 1 2
node 11 1 2
node 12 1 2
node 13 1 2
node 14 1 2
node 15 1 2
node 16 1 2
node 17 1 2
node 18 1 2
node 19 1 2
node 20 1 2
node 22 1 3
node 24 1 3
node 25 1 3
node 26 1 3
node 27 1 3
node 818 1 3
node 1593 1 3
node 1602 1 3
node 1922 1 3
node 2042 1 3
node 2318 1 3
gene 1 1 22 -0.473095 0 2 -0.473095 1
gene 1 1 24 -1.26868 0 4 -1.26868 1
gene 1 1 25 1.33342 0 5 1.33342 1
gene 1 1 26 -0.0685997 0 6 -0.0685997 1
gene 1 1 27 0.240602 0 7 0.240602 1
gene 1 2 22 -0.362454 0 10 -0.362454 1
gene 1 2 24 0.511931 0 12 0.511931 1
gene 1 2 26 0.0634033 0 14 0.0634033 1
gene 1 2 27 -0.269112 0 15 -0.269112 1
gene 1 3 24 0.115333 0 20 0.115333 1
gene 1 3 25 0.990497 0 21 0.990497 1
gene 1 3 26 -0.590443 0 22 -0.590443 1
gene 1 4 25 -0.181045 0 29 -0.181045 1
gene 1 4 27 -0.224333 0 31 -0.224333 1
gene 1 5 22 0.444209 0 34 0.444209 1
gene 1 5 25 0.0761565 0 37 0.0761565 1
gene 1 5 26 4.40606 0 38 4.40606 1
gene 1 5 27 2.61355 0 39 2.61355 1
gene 1 6 22 -1.80065 0 42 -1.80065 1
gene 1 6 26 -0.268565 0 46 -0.268565 1
gene 1 7 24 -1.9806 0 52 -1.9806 1
gene 1 7 25 2.43488 0 53 2.43488 1
gene 1 7 26 -1.54256 0 54 -1.54256 1
gene 1 7 27 -1.67537 0 55 -1.67537 1
gene 1 8 22 -0.656211 0 58 -0.656211 1
gene 1 8 26 2.73869 0 62 2.73869 1
gene 1 8 27 -0.0952248 0 63 -0.0952248 1
gene 1 9 22 -1.07383 0 66 -1.07383 1
gene 1 9 24 4.42439 0 68 4.42439 1
gene 1 9 25 2.95494 0 69 2.95494 1
gene 1 9 26 2.29277 0 70 2.29277 1
gene 1 9 27 0.519294 0 71 0.519294 1
gene 1 22 11 2.36584 0 85 2.36584 1
gene 1 22 12 2.26542 0 86 2.26542 1
gene 1 22 13 0.812869 0 87 0.812869 1
gene 1 22 14 3.33998 0 88 3.33998 1
gene 1 22 16 0.330573 0 90 0.330573 1
gene 1 22 20 1.52195 0 94 1.52195 1
gene 1 24 10 -2.70841 0 106 -2.70841 1
gene 1 24 12 -1.17441 0 108 -1.17441 1
gene 1 24 16 0.567875 0 112 0.567875 1
gene 1 24 19 1.05991 0 115 1.05991 1
gene 1 24 20 -1.72336 0 116 -1.72336 1
gene 1 25 12 -0.122257 0 119 -0.122257 1
gene 1 25 14 -1.57366 0 121 -1.57366 1
gene 1 25 15 -2.33295 0 122 -2.33295 1
gene 1 25 17 0.398535 0 124 0.398535 1
gene 1 25 18 -1.51232 0 125 -1.51232 1
gene 1 25 19 -1.81163 0 126 -1.81163 1
gene 1 25 20 -0.0128797 0 127 -0.0128797 1
gene 1 26 10 2.95947 0 128 2.95947 1
gene 1 26 11 1.20161 0 129 1.20161 1
gene 1 26 12 1.95095 0 130 1.95095 1
gene 1 26 13 -0.789349 0 131 -0.789349 1
gene 1 26 14 -1.09115 0 132 -1.09115 1
gene 1 26 15 0.194761 0 133 0.194761 1
gene 1 26 17 -1.5976 0 135 -1.5976 1
gene 1 27 12 0.0377758 0 141 0.0377758 1
gene 1 27 13 -2.3496 0 142 -2.3496 1
gene 1 27 15 -0.0620358 0 144 -0.0620358 1
gene 1 27 16 -1.39281 0 145 -1.39281 1
gene 1 27 18 -0.0746828 0 147 -0.0746828 1
gene 1 27 19 0.661383 0 148 0.661383 1
gene 1 3 19 0.250002 0 691 0.250002 1
gene 1 2 12 -0.603659 0 2831 -0.603659 1
gene 1 18 14 0.563872 0 3800 0.563872 1
gene 1 6 16 1.12535 0 4679 1.12535 1
gene 1 10 10 0.194823 1 6443 0.194823 1
gene 1 19 14 -0.526568 0 7413 -0.526568 1
gene 1 16 26 0.379858 1 7805 0.379858 1
gene 1 5 19 -1.78222 0 8561 -1.78222 1
gene 1 1 19 -0.921071 0 8947 -0.921071 1
gene 1 9 10 0.926439 0 9130 0.926439 1
gene 1 17 24 0.0430327 0 10919 0.0430327 1
gene 1 6 17 -0.344351 0 11673 -0.344351 1
gene 1 11 11 -0.280165 1 11876 -0.280165 1
gene 1 4 20 -1.06377 0 11979 -1.06377 1
gene 1 2 10 0.908228 0 13544 0.908228 1
gene 1 16 15 1.34205 0 15558 1.34205 1
gene 1 4 12 0.571779 0 17079 0.571779 1
gene 1 9 20 -0.732563 0 19010 -0.732563 1
gene 1 5 818 1.27215 0 19328 1.26546 1
gene 1 818 13 -0.816271 0 19329 -0.813182 1
gene 1 22 24 0.998596 0 19791 0.998596 1
gene 1 9 818 0.116523 0 20167 0.116523 1
gene 1 2 15 3.10709 0 21340 3.10709 1
gene 1 25 22 -1.49846 0 21512 -1.49846 1
gene 1 1 818 0.839781 0 22560 0.839781 1
gene 1 15 19 -0.505701 0 22958 -0.505701 1
gene 1 2 11 -1.57207 0 23016 -1.57207 1
gene 1 13 11 0.111589 0 24203 0.111589 1
gene 1 17 17 -0.492359 1 24480 -0.492359 1
gene 1 18 24 0.728325 1 24937 0.728325 1
gene 1 20 15 0.0650343 0 25130 0.0650343 1
gene 1 13 15 -1.24316 0 26098 -1.24316 1
gene 1 2 13 -0.964257 0 26263 -0.964257 1
gene 1 818 818 0.421177 1 26493 0.421177 1
gene 1 3 13 0.194227 0 27009 0.194227 1
gene 1 4 818 -1.29476 0 27186 -1.29476 1
gene 1 7 818 0.0565065 0 28102 0.0565065 1
gene 1 818 15 0.170316 0 29616 0.170316 1
gene 1 2 20 -1.36388 0 31216 -1.36388 1
gene 1 25 25 -0.57649 1 31400 -0.57649 1
gene 1 17 19 -1.04635 0 31767 -1.04635 1
gene 1 1 16 -1.03223 0 31930 -1.03223 1
gene 1 16 11 0.395271 0 32043 0.395271 1
gene 1 818 11 -0.981558 0 32540 -0.981558 1
gene 1 17 15 0.0920283 0 33048 0.0920283 1
gene 1 20 20 -0.114732 1 33513 -0.114732 1
gene 1 13 24 -0.393056 1 34050 -0.393056 1
gene 1 5 11 -0.601766 0 34589 -0.601766 1
gene 1 17 12 -0.915538 0 37679 -0.915538 1
gene 1 1593 12 -0.0745706 0 38065 -0.0949702 1
gene 1 20 818 -0.225286 1 38499 -0.225286 1
gene 1 17 16 1.08873 0 38552 1.08873 1
gene 1 1 12 0.584452 0 38671 0.584452 1
gene 1 13 16 -0.511739 0 39449 -0.511739 1
gene 1 5 17 -0.934773 0 40005 -0.934773 1
gene 1 10 12 0.905788 0 41534 0.905788 1
gene 1 18 11 -0.269695 0 42281 -0.269695 1
gene 1 9 19 -0.716962 0 42483 -0.716962 1
gene 1 20 12 -0.355049 0 42891 -0.355049 1
gene 1 16 25 -0.435299 1 43958 -0.435299 1
gene 1 15 24 1.017 1 45071 1.017 1
gene 1 4 14 -0.803003 0 45404 -0.803003 1
gene 1 818 1593 -0.128161 0 45832 -0.128161 1
gene 1 1593 13 2.00837 0 46181 2.00837 1
gene 1 6 24 0.130039 0 46436 0.130039 1
gene 1 6 1922 0.893795 0 46529 0.808822 1
gene 1 1922 27 1.33918 0 46530 0.926707 1
gene 1 22 22 -0.642939 1 47503 -0.642939 1
gene 1 10 24 -0.229651 1 47804 -0.229651 1
gene 1 13 13 0.135526 1 47875 0.135526 1
gene 1 24 1602 -0.299818 0 48981 -0.299818 1
gene 1 1 15 -0.916322 0 49119 -0.916322 1
gene 1 1602 14 0.644095 0 49504 0.644095 1
gene 1 11 19 0.102058 0 49636 0.102058 1
gene 1 7 2042 0.654839 0 49855 0.308159 1
gene 1 2042 16 -0.147139 0 49856 0.0608237 1
gene 1 25 26 -0.380615 0 50559 -0.380615 1
gene 1 17 20 0.539998 0 52528 0.539998 1
gene 1 11 2042 -0.632958 1 53041 -0.632958 1
gene 1 1922 13 0.504197 0 53436 0.504197 1
gene 1 26 26 -0.523497 1 54284 -0.523497 1
gene 1 24 18 -0.205432 0 54514 -0.205432 1
gene 1 2 1602 -0.572706 0 54651 -0.572706 1
gene 1 22 1593 -0.134242 0 54841 -0.134242 1
gene 1 12 15 0.697451 0 55021 0.697451 1
gene 1 14 14 -0.45343 1 55457 -0.45343 1
gene 1 27 27 0.402332 1 55697 0.402332 1
gene 1 25 24 0.783133 0 56280 0.783133 1
gene 1 8 2318 0.685227 0 56749 0.441086 1
gene 1 2318 24 0.635555 0 56750 0.0634274 1
gene 1 17 11 -0.796257 0 58173 -0.796257 1
gene 1 1922 10 0.946408 0 58572 0.946408 1
gene 1 27 1602 0.465715 0 58739 0.465715 1
gene 1 8 2042 -0.432608 0 59298 -0.432608 1
gene 1 3 22 -0.973549 0 59476 -0.973549 1
gene 1 2318 27 0.690214 0 59813 0.690214 1
gene 1 16 20 0.62911 0 60006 0.62911 1
gene 1 2042 27 -0.520077 0 60215 -0.520077 1
gene 1 24 2318 0.603817 1 61257 0.603817 1
gene 1 1602 10 0.837219 0 61640 0.837219 1
gene 1 2042 2042 0.156397 1 61703 0.156397 1
gene 1 19 10 -0.942062 0 63364 -0.942062 1
gene 1 10 18 -0.855079 0 63598 -0.855079 1
gene 1 18 20 0.331678 0 63753 0.331678 1
gene 1 25 2042 0.85849 0 64204 0.85849 1
gene 1 20 10 0.617685 1 64436 0.617685 1
genomeend 470
