/* Organism #140673591023672 Fitness: -282250 
genomestart 262
trait 1 0.260235 0.287662 0.966412 0.481454 0.836469 0.651596 0.844084 0.800764 
node 1 1 0
node 2 1 1
node 3 1 1
node 4 1 1
node 5 1 1
node 6 1 1
node 7 1 1
node 8 1 1
node 9 1 1
node 10 1 2
node 11 1 2
node 12 1 2
node 13 1 2
node 14 1 2
node 15 1 2
node 16 1 2
node 17 1 2
node 18 1 2
node 19 1 2
node 20 1 2
node 21 1 3
node 23 1 3
node 26 1 3
node 27 1 3
node 28 1 3
node 557 1 3
node 1709 1 3
node 1771 1 3
node 2035 1 3
node 2128 1 3
node 2168 1 3
node 2177 1 3
node 2507 1 3
node 2511 1 3
gene 1 1 21 -0.456666 0 1 -0.456666 1
gene 1 1 26 -2.97736 0 6 -2.97736 1
gene 1 1 27 -2.49013 0 7 -2.49013 1
gene 1 1 28 -2.19643 0 8 -2.19643 1
gene 1 3 26 -2.49379 0 22 -2.49379 1
gene 1 3 28 1.82622 0 24 1.82622 1
gene 1 5 21 -4.18216 0 33 -4.18216 1
gene 1 5 26 -2.0466 0 38 -2.0466 1
gene 1 6 26 -0.315544 0 46 -0.315544 1
gene 1 7 21 3.15835 0 49 3.15835 1
gene 1 7 23 2.44998 0 51 2.44998 1
gene 1 7 28 0.961277 0 56 0.961277 1
gene 1 8 21 0.853222 0 57 0.853222 1
gene 1 8 23 0.772788 0 59 0.772788 1
gene 1 8 26 -0.890884 0 62 -0.890884 1
gene 1 8 28 -0.0910211 0 64 -0.0910211 1
gene 1 9 21 -1.39309 0 65 -1.39309 1
gene 1 9 23 2.07136 0 67 2.07136 1
gene 1 9 28 -1.16284 0 72 -1.16284 1
gene 1 21 11 2.09388 0 74 2.09388 1
gene 1 21 13 2.34918 0 76 2.34918 1
gene 1 21 14 -0.0486869 0 77 -0.0486869 1
gene 1 21 15 0.527659 0 78 0.527659 1
gene 1 21 17 2.1768 0 80 2.1768 1
gene 1 21 18 -3.96344 0 81 -3.96344 1
gene 1 21 19 -0.526016 0 82 -0.526016 1
gene 1 21 20 3.55508 0 83 3.55508 1
gene 1 23 10 -1.26788 0 95 -1.26788 1
gene 1 23 12 -1.92406 0 97 -1.92406 1
gene 1 23 14 -5.83079 0 99 -5.83079 1
gene 1 23 17 0.305574 0 102 0.305574 1
gene 1 23 19 -1.73056 0 104 -1.73056 1
gene 1 26 12 0.835253 0 130 0.835253 1
gene 1 26 13 1.44432 0 131 1.44432 1
gene 1 26 14 -0.245663 0 132 -0.245663 1
gene 1 26 15 0.883643 0 133 0.883643 1
gene 1 26 17 -0.531352 0 135 -0.531352 1
gene 1 26 18 -0.188141 0 136 -0.188141 1
gene 1 26 20 1.40064 0 138 1.40064 1
gene 1 27 10 -4.05403 0 139 -4.05403 1
gene 1 27 11 5.6864 0 140 5.6864 1
gene 1 27 12 -0.854023 0 141 -0.854023 1
gene 1 27 14 3.49864 0 143 3.49864 1
gene 1 27 16 0.417988 0 145 0.417988 1
gene 1 27 17 -0.0764532 0 146 -0.0764532 1
gene 1 28 12 0.271009 0 152 0.271009 1
gene 1 28 13 -0.0186779 0 153 -0.0186779 1
gene 1 28 14 -0.857557 0 154 -0.857557 1
gene 1 28 16 1.90684 0 156 1.90684 1
gene 1 28 18 -0.661023 0 158 -0.661023 1
gene 1 28 20 1.4694 0 160 1.4694 1
gene 1 1 14 -0.965108 0 1936 -0.965108 1
gene 1 4 14 0.42777 0 3816 0.42777 1
gene 1 19 13 1.6487 0 3994 1.6487 1
gene 1 8 17 0.146905 0 4872 0.146905 1
gene 1 11 15 1.62987 0 5042 1.62987 1
gene 1 21 26 1.25307 0 5207 1.25307 1
gene 1 17 13 1.0104 0 6509 1.0104 1
gene 1 18 14 -3.27945 0 6735 -3.27945 1
gene 1 26 26 -0.107808 1 6978 -0.107808 1
gene 1 8 20 -1.21766 0 7269 -1.21766 1
gene 1 18 16 -2.32637 0 8083 -2.32637 1
gene 1 8 14 -0.329519 0 10349 -0.329519 1
gene 1 10 19 -0.218246 0 11087 -0.218246 1
gene 1 1 19 -0.956057 0 11416 -0.956057 1
gene 1 14 12 1.59289 0 11541 1.59289 1
gene 1 14 15 1.71059 0 11926 1.71059 1
gene 1 557 18 2.62417 0 12417 2.62417 1
gene 1 10 11 -1.98423 0 12629 -1.98423 1
gene 1 11 11 -1.31432 1 12918 -1.31432 1
gene 1 19 19 -0.710134 1 15846 -0.710134 1
gene 1 28 11 -1.07104 0 16949 -1.07104 1
gene 1 12 12 -0.727178 1 17513 -0.727178 1
gene 1 8 13 -1.43028 0 18283 -1.43028 1
gene 1 9 15 1.5087 0 18612 1.5087 1
gene 1 6 18 -0.80938 0 18958 -0.80938 1
gene 1 15 23 0.677272 1 19158 0.677272 1
gene 1 14 14 -0.577029 1 21517 -0.577029 1
gene 1 15 16 -1.45238 0 23494 -1.45238 1
gene 1 557 20 0.577616 0 23840 0.577616 1
gene 1 9 16 -0.0236859 0 24221 -0.0236859 1
gene 1 17 557 -1.28582 0 24810 -1.28582 1
gene 1 26 557 -1.25089 0 25587 -1.25089 1
gene 1 7 14 0.568287 0 26051 0.568287 1
gene 1 20 20 -1.1781 1 27211 -1.1781 1
gene 1 5 18 0.513985 0 28757 0.513985 1
gene 1 7 13 -1.07383 0 28850 -1.07383 1
gene 1 19 18 -0.392521 0 29594 -0.392521 1
gene 1 21 21 -0.13201 1 29800 -0.13201 1
gene 1 5 17 1.06791 0 30822 1.06791 1
gene 1 13 16 0.972146 0 31256 0.972146 1
gene 1 557 12 0.267123 0 32294 0.267123 1
gene 1 16 16 -1.83438 1 32606 -1.83438 1
gene 1 20 13 0.945121 0 33051 0.945121 1
gene 1 1 18 1.64871 0 33228 1.64871 1
gene 1 11 17 2.44514 0 34447 2.44514 1
gene 1 13 15 0.0480282 0 34804 0.0480282 1
gene 1 8 11 0.766686 0 35333 0.766686 1
gene 1 15 15 -0.230254 1 37016 -0.230254 1
gene 1 10 10 1.55484 1 37270 1.55484 1
gene 1 28 28 0.0511579 1 37731 0.0511579 1
gene 1 2 11 -1.43534 0 39418 -1.43534 1
gene 1 5 14 0.176243 0 39531 0.176243 1
gene 1 28 10 -1.12193 0 40061 -1.12193 1
gene 1 2 1709 0.56717 0 40465 0.508515 1
gene 1 9 27 -0.38732 0 40711 -0.38732 1
gene 1 1709 1771 0.751707 0 41733 0.563351 1
gene 1 1771 18 -0.232171 0 41734 -0.242116 1
gene 1 9 1771 -2.05835 0 43049 -2.05835 1
gene 1 1709 14 -0.104841 0 43242 -0.104841 1
gene 1 4 18 0.143469 0 43724 0.143469 1
gene 1 21 557 -0.793816 0 44354 -0.793816 1
gene 1 1709 13 0.399728 0 44567 0.399728 1
gene 1 7 18 -0.752432 0 45196 -0.752432 1
gene 1 23 23 0.275077 1 45924 0.275077 1
gene 1 4 13 1.20012 0 46407 1.20012 1
gene 1 27 27 -0.31355 1 46623 -0.31355 1
gene 1 15 10 0.561704 1 47134 0.561704 1
gene 1 7 10 -0.132107 0 47187 -0.132107 1
gene 1 9 1709 -1.21616 0 47824 -1.21616 1
gene 1 6 2035 0.0889468 0 48048 -0.203473 1
gene 1 1709 2035 -0.314681 0 48264 -0.314681 1
gene 1 1771 27 0.812229 0 48627 0.812229 1
gene 1 1 10 0.605282 0 48845 0.605282 1
gene 1 7 1771 0.492799 0 49571 0.492799 1
gene 1 2 557 -0.9086 0 50136 -0.9086 1
gene 1 7 2128 1.03682 0 50342 0.771502 1
gene 1 2128 19 -0.326341 0 50343 -0.19039 1
gene 1 2035 17 1.28126 0 50687 1.28126 1
gene 1 19 11 0.866129 0 50886 0.866129 1
gene 1 8 16 0.26606 0 51091 0.26606 1
gene 1 2168 23 1.3018 0 51383 0.108117 1
gene 1 1771 2177 1.75589 1 51638 1.5098 1
gene 1 2177 1771 0.0973922 0 51639 0.0805709 1
gene 1 2035 12 0.895066 0 54402 0.895066 1
gene 1 2168 26 0.0949345 0 54536 0.0949345 1
gene 1 6 13 -0.798086 0 54924 -0.798086 1
gene 1 1771 12 0.111461 0 55109 0.111461 1
gene 1 7 16 -0.859884 0 55244 -0.859884 1
gene 1 6 14 -1.00547 0 55853 -1.00547 1
gene 1 3 2177 0.0273618 0 56043 0.0273618 1
gene 1 17 17 0.729247 1 56881 0.729247 1
gene 1 11 2035 0.711282 0 57441 0.711282 1
gene 1 2 28 0.0554271 0 57636 0.0554271 1
gene 1 23 2128 0.501666 0 57841 0.501666 1
gene 1 2177 15 -0.11021 0 58033 -0.11021 1
gene 1 9 13 -0.113824 0 59070 -0.113824 1
gene 1 4 11 -0.869852 0 59278 -0.869852 1
gene 1 5 2128 0.669745 0 59713 0.669745 1
gene 1 2 2128 0.617337 0 59799 0.617337 1
gene 1 13 2507 1 0 60236 0 1
gene 1 2507 18 0.20706 0 60237 0 1
gene 1 7 2511 1 0 60456 0 1
gene 1 2511 12 0.484665 0 60457 0 1
gene 1 18 15 -0.222627 0 60739 -0.222627 1
gene 1 2511 18 -0.705694 0 62580 -0.705694 1
gene 1 14 2511 -0.413709 0 62830 -0.413709 1
genomeend 262
