/* Organism #42272944 Fitness: -390938 
genomestart 32
trait 1 0.831161 0.987355 0.392414 0.334418 0.435282 0.503703 0.403971 0.555682 
node 1 1 0
node 2 1 1
node 3 1 1
node 4 1 1
node 5 1 1
node 6 1 1
node 7 1 1
node 8 1 1
node 9 1 1
node 10 1 2
node 11 1 2
node 12 1 2
node 13 1 2
node 14 1 2
node 15 1 2
node 16 1 2
node 17 1 2
node 18 1 2
node 19 1 2
node 20 1 2
node 22 1 3
node 24 1 3
node 28 1 3
node 145 1 3
node 264 1 3
node 438 1 3
node 805 1 3
node 1309 1 3
node 1396 1 3
node 1538 1 3
node 1567 1 3
node 1823 1 3
node 1857 1 3
node 1966 1 3
node 2256 1 3
gene 1 1 22 -3.03842 0 2 -3.03842 1
gene 1 1 24 0.557131 0 4 0.557131 1
gene 1 1 28 -7.14699 0 8 -7.14699 1
gene 1 2 28 -4.59599 0 16 -4.59599 1
gene 1 3 24 -4.1275 0 20 -4.1275 1
gene 1 3 28 2.31249 0 24 2.31249 1
gene 1 4 28 -0.430399 0 32 -0.430399 1
gene 1 5 24 3.02396 0 36 3.02396 1
gene 1 6 22 -0.726946 0 42 -0.726946 1
gene 1 7 24 -3.82829 0 52 -3.82829 1
gene 1 7 28 -0.697046 0 56 -0.697046 1
gene 1 8 22 -1.45166 0 58 -1.45166 1
gene 1 8 28 -4.33157 0 64 -4.33157 1
gene 1 9 24 1.2691 0 68 1.2691 1
gene 1 22 10 -1.77744 0 84 -1.77744 1
gene 1 22 13 -4.10008 0 87 -4.10008 1
gene 1 22 14 5.18011 0 88 5.18011 1
gene 1 22 15 0.115309 0 89 0.115309 1
gene 1 22 16 1.18501 0 90 1.18501 1
gene 1 22 19 0.951699 0 93 0.951699 1
gene 1 22 20 0.25778 0 94 0.25778 1
gene 1 24 11 2.2098 0 107 2.2098 1
gene 1 24 12 -0.795751 0 108 -0.795751 1
gene 1 24 17 -2.41941 0 113 -2.41941 1
gene 1 24 20 -1.86125 0 116 -1.86125 1
gene 1 28 10 -2.53408 0 150 -2.53408 1
gene 1 28 11 -1.2216 0 151 -1.2216 1
gene 1 28 13 -0.153123 0 153 -0.153123 1
gene 1 28 18 0.999703 0 158 0.999703 1
gene 1 145 10 -1.17112 0 2888 -1.17112 1
gene 1 3 19 1.25049 0 3646 1.25049 1
gene 1 3 17 2.71659 0 3920 2.71659 1
gene 1 5 20 -2.88554 0 7472 -2.88554 1
gene 1 22 145 1.8244 0 8304 1.8244 1
gene 1 3 10 4.10663 0 8553 4.10663 1
gene 1 24 28 -3.81827 0 9092 -3.81827 1
gene 1 1 11 -1.64266 0 9836 -1.64266 1
gene 1 17 12 -4.58699 0 10030 -4.58699 1
gene 1 13 145 -2.01007 0 10590 -2.01007 1
gene 1 28 438 -1.40591 0 10752 -1.40591 1
gene 1 438 16 0.344036 0 10753 0.344036 1
gene 1 438 20 -1.50768 0 11769 -1.50768 1
gene 1 6 18 -2.84011 0 12025 -2.84011 1
gene 1 28 28 0.28199 1 12257 0.28199 1
gene 1 20 11 1.90069 0 12890 1.90069 1
gene 1 16 17 0.216477 0 13115 0.216477 1
gene 1 11 11 2.22985 1 13500 2.22985 1
gene 1 2 145 -0.856997 0 15945 -0.856997 1
gene 1 17 13 4.41289 0 16562 4.41289 1
gene 1 18 18 -0.259629 1 17267 -0.259629 1
gene 1 11 16 -0.573611 0 17454 -0.573611 1
gene 1 10 10 0.222314 1 19439 0.222314 1
gene 1 20 17 1.80011 0 19986 1.80011 1
gene 1 18 805 0.933189 0 20179 0.933189 1
gene 1 16 805 -1.14843 0 20889 -1.14843 1
gene 1 438 12 -1.4548 0 21373 -1.4548 1
gene 1 20 14 -0.773131 0 21615 -0.773131 1
gene 1 8 13 2.82419 0 22037 2.82419 1
gene 1 3 16 1.00378 0 23521 1.00378 1
gene 1 19 14 -0.154058 0 24768 -0.154058 1
gene 1 145 19 1.45684 0 25264 1.45684 1
gene 1 14 14 0.468144 1 25559 0.468144 1
gene 1 3 20 -0.391743 0 27076 -0.391743 1
gene 1 18 19 0.954807 0 27253 0.954807 1
gene 1 264 12 0.643892 0 27895 0.643892 1
gene 1 16 16 3.02378 1 28268 3.02378 1
gene 1 4 14 -1.72144 0 29783 -1.72144 1
gene 1 24 24 -0.550788 1 30199 -0.550788 1
gene 1 3 22 -1.47693 0 30335 -1.47693 1
gene 1 805 805 -0.246351 1 30798 -0.246351 1
gene 1 15 13 1.80172 1 30967 1.80172 1
gene 1 438 438 1.69079 1 31918 1.69079 1
gene 1 11 17 0.11598 0 32188 0.11598 1
gene 1 1309 28 2.89939 0 32794 2.89939 1
gene 1 22 805 0.356207 0 33879 0.356207 1
gene 1 24 10 -2.20319 0 34370 -2.20319 1
gene 1 1309 1309 1.63306 1 34777 1.63306 1
gene 1 4 1396 1.80002 0 35144 1.80002 1
gene 1 1396 12 3.52708 0 35145 3.52708 1
gene 1 9 16 -2.79347 0 36678 -2.79347 1
gene 1 15 18 -0.564083 0 36875 -0.564083 1
gene 1 22 22 -0.25448 1 37271 -0.25448 1
gene 1 805 19 1.6904 0 37835 1.6904 1
gene 1 15 22 2.76286 1 38220 2.76286 1
gene 1 264 14 1.40921 0 38699 1.40921 1
gene 1 1538 18 1.43321 0 38954 1.43321 1
gene 1 17 1567 0.759581 1 39666 0.759581 1
gene 1 1567 17 -0.645859 0 39667 -0.645859 1
gene 1 6 11 0.534346 0 39856 0.534346 1
gene 1 264 264 1.87194 1 40666 1.87194 1
gene 1 1 805 -0.273443 0 41473 -0.273443 1
gene 1 1538 438 1.09713 0 41672 1.09713 1
gene 1 9 19 -0.455399 0 42064 -0.455399 1
gene 1 7 10 0.39008 0 42523 0.39008 1
gene 1 14 805 0.789198 0 42648 0.789198 1
gene 1 4 24 1.03795 0 42905 1.03795 1
gene 1 12 12 1.79405 1 43243 1.79405 1
gene 1 1567 1567 -0.140565 1 43449 -0.140565 1
gene 1 22 1823 0.476413 0 46590 0.476413 1
gene 1 1823 17 1.32206 0 46591 1.32206 1
gene 1 1 16 0.112793 0 46908 0.112793 1
gene 1 1857 19 1.79137 0 47476 1.79137 1
gene 1 24 19 -0.510366 0 47901 -0.510366 1
gene 1 264 28 -0.0135593 1 49050 -0.0135593 1
gene 1 20 18 0.263246 0 49674 0.263246 1
gene 1 4 22 0.818203 0 50581 0.818203 1
gene 1 20 20 -0.100671 1 50968 -0.100671 1
gene 1 2 1966 1.41642 0 51168 0.830484 1
gene 1 1966 14 0.0439775 0 51169 0.239754 1
gene 1 19 264 0.0767631 0 51498 0.0767631 1
gene 1 7 1567 1.42476 0 51654 1.42476 1
gene 1 2 805 0.416887 0 52141 0.416887 1
gene 1 9 1567 -0.622368 0 52768 -0.622368 1
gene 1 1538 1538 1.08823 1 52990 1.08823 1
gene 1 17 19 0.223784 0 53406 0.223784 1
gene 1 22 18 -0.310297 0 54646 -0.310297 1
gene 1 3 438 -0.00359353 0 54978 -0.00359353 1
gene 1 18 17 0.220277 0 55459 0.220277 1
gene 1 1538 1396 0.98512 0 55638 0.98512 1
gene 1 1823 11 -0.801382 0 56405 -0.801382 1
gene 1 10 805 0.245062 0 57261 0.245062 1
gene 1 4 16 -0.515228 0 58283 -0.515228 1
gene 1 13 10 -0.0368057 0 58880 -0.0368057 1
gene 1 1309 24 0.203165 0 59077 0.203165 1
gene 1 18 1567 0.968009 0 59199 0.968009 1
gene 1 5 14 -0.840475 0 59491 -0.840475 1
gene 1 2256 24 0.60164 0 59843 0.0446354 1
gene 1 7 1823 -0.611676 0 60787 -0.611676 1
gene 1 3 13 -0.65835 0 61037 -0.65835 1
gene 1 13 1309 -0.611552 1 61483 -0.611552 1
gene 1 19 19 0.217315 1 63695 0.217315 1
gene 1 15 1396 0.189693 0 64056 0.189693 1
gene 1 1823 1823 0.642595 1 64417 0.642595 1
gene 1 2256 18 0.572056 0 65091 0.572056 1
gene 1 24 14 0.255291 0 65667 0.255291 1
gene 1 2 1567 0.671028 0 66364 0.671028 1
gene 1 1309 22 -0.00233848 0 67593 -0.00233848 1
gene 1 1396 16 0.866935 0 68042 0.866935 1
gene 1 17 17 -0.473137 1 68367 -0.473137 1
gene 1 16 1966 0.582679 0 69249 0.582679 1
genomeend 32
