/* Organism #48907264 Fitness: -393072 
genomestart 38
trait 1 0.800019 0.967215 0.98245 0.516692 0.94071 0.804704 0.755035 0.747025 
node 1 1 0
node 2 1 1
node 3 1 1
node 4 1 1
node 5 1 1
node 6 1 1
node 7 1 1
node 8 1 1
node 9 1 1
node 10 1 2
node 11 1 2
node 12 1 2
node 13 1 2
node 14 1 2
node 15 1 2
node 16 1 2
node 17 1 2
node 18 1 2
node 19 1 2
node 20 1 2
node 21 1 3
node 22 1 3
node 25 1 3
node 674 1 3
node 866 1 3
node 1230 1 3
node 1271 1 3
node 1342 1 3
node 1447 1 3
node 1780 1 3
node 1794 1 3
node 1944 1 3
node 2094 1 3
node 2118 1 3
node 2217 1 3
node 2479 1 3
node 2591 1 3
gene 1 1 21 2.4665 0 1 2.4665 1
gene 1 1 22 -6.87032 0 2 -6.87032 1
gene 1 2 21 1.59861 0 9 1.59861 1
gene 1 3 21 -3.37366 0 17 -3.37366 1
gene 1 3 25 -0.581208 0 21 -0.581208 1
gene 1 4 21 0.116811 0 25 0.116811 1
gene 1 4 22 -4.21151 0 26 -4.21151 1
gene 1 4 25 -1.46128 0 29 -1.46128 1
gene 1 5 21 4.12461 0 33 4.12461 1
gene 1 5 22 -1.66529 0 34 -1.66529 1
gene 1 6 21 0.815787 0 41 0.815787 1
gene 1 6 22 -6.40321 0 42 -6.40321 1
gene 1 6 25 -5.47335 0 45 -5.47335 1
gene 1 7 21 -4.35435 0 49 -4.35435 1
gene 1 8 22 1.70034 0 58 1.70034 1
gene 1 21 12 4.60765 0 75 4.60765 1
gene 1 21 13 -5.35186 0 76 -5.35186 1
gene 1 21 14 0.462281 0 77 0.462281 1
gene 1 21 16 0.212748 0 79 0.212748 1
gene 1 21 17 -0.745483 0 80 -0.745483 1
gene 1 21 18 -0.106358 0 81 -0.106358 1
gene 1 21 19 1.20065 0 82 1.20065 1
gene 1 22 10 -6.4968 0 84 -6.4968 1
gene 1 22 11 4.79002 0 85 4.79002 1
gene 1 22 12 -0.821963 0 86 -0.821963 1
gene 1 22 14 3.66304 0 88 3.66304 1
gene 1 22 17 2.8525 0 91 2.8525 1
gene 1 22 19 1.89251 0 93 1.89251 1
gene 1 25 13 -0.657052 0 120 -0.657052 1
gene 1 25 14 3.39703 0 121 3.39703 1
gene 1 25 16 4.36785 0 123 4.36785 1
gene 1 15 17 -1.18094 0 1185 -1.18094 1
gene 1 2 17 -1.28953 0 4897 -1.28953 1
gene 1 5 11 -6.50993 0 7441 -6.50993 1
gene 1 11 12 -1.89526 0 8357 -1.89526 1
gene 1 15 12 0.235349 0 10473 0.235349 1
gene 1 13 13 -3.08614 1 10590 -3.08614 1
gene 1 1 15 -0.831644 0 11931 -0.831644 1
gene 1 16 14 1.62637 0 12957 1.62637 1
gene 1 674 25 -4.43575 0 14815 -4.43575 1
gene 1 8 11 -0.558808 0 14958 -0.558808 1
gene 1 674 14 -1.52378 0 16671 -1.52378 1
gene 1 5 15 -0.96454 0 19342 -0.96454 1
gene 1 20 13 -0.447981 0 20092 -0.447981 1
gene 1 17 14 -7.11215 0 21375 -7.11215 1
gene 1 21 21 -0.942546 1 21662 -0.942546 1
gene 1 20 12 -4.20677 0 21956 -4.20677 1
gene 1 9 14 -2.33152 0 24068 -2.33152 1
gene 1 22 21 0.428966 0 25817 0.428966 1
gene 1 3 12 -2.11493 0 26417 -2.11493 1
gene 1 1230 866 -1.14818 0 29400 -1.14818 1
gene 1 8 674 -2.22695 0 29788 -2.22695 1
gene 1 1230 17 5.01258 0 31064 5.01258 1
gene 1 22 1342 -1.77897 0 31457 -1.77897 1
gene 1 11 674 -1.22766 0 31743 -1.22766 1
gene 1 1230 18 -2.21063 0 33254 -2.21063 1
gene 1 1342 674 6.08431 0 33459 6.08431 1
gene 1 10 16 -2.33664 0 34126 -2.33664 1
gene 1 1 14 -5.2694 0 35187 -5.2694 1
gene 1 674 17 -3.19623 0 35970 -3.19623 1
gene 1 5 25 -3.12815 0 36836 -3.12815 1
gene 1 22 22 3.44844 1 37603 3.44844 1
gene 1 3 1230 -3.10427 0 37724 -3.10427 1
gene 1 16 15 1.4086 0 38560 1.4086 1
gene 1 674 1447 2.50664 0 38755 2.50664 1
gene 1 1342 866 0.703581 0 39486 0.703581 1
gene 1 16 1230 -1.23331 0 40731 -1.23331 1
gene 1 22 16 4.16304 0 41140 4.16304 1
gene 1 15 15 -0.899422 1 41266 -0.899422 1
gene 1 15 18 0.0924059 0 41775 0.0924059 1
gene 1 22 1780 3.08639 0 42164 3.08639 1
gene 1 1780 15 3.1001 0 42165 3.1001 1
gene 1 3 1794 -2.12265 0 42476 -2.12265 1
gene 1 9 16 2.43695 0 42891 2.43695 1
gene 1 11 13 1.31581 0 43385 1.31581 1
gene 1 12 1447 -1.00839 0 43738 -1.00839 1
gene 1 1780 13 5.07908 0 44124 5.07908 1
gene 1 2 18 2.40979 0 44384 2.40979 1
gene 1 19 19 0.0687745 1 44875 0.0687745 1
gene 1 18 18 1.21831 1 45721 1.21831 1
gene 1 4 1944 -1.03051 0 45897 -1.03051 1
gene 1 1944 16 -2.38113 0 45898 -2.38113 1
gene 1 7 12 -0.0247242 0 46599 -0.0247242 1
gene 1 1342 1342 -1.94764 1 48684 -1.94764 1
gene 1 12 18 1.58301 0 49419 1.58301 1
gene 1 1342 16 -0.0293437 0 49958 -0.0293437 1
gene 1 11 2094 1.20726 0 50165 1.20726 1
gene 1 2094 1447 -0.425545 0 50166 -0.425545 1
gene 1 7 2118 2.43635 0 50768 2.43635 1
gene 1 2118 13 -0.150816 0 50769 -0.150816 1
gene 1 1230 10 -0.351361 1 52964 -0.351361 1
gene 1 6 2118 -0.313825 0 53426 -0.313825 1
gene 1 1794 2217 0.391553 0 53633 0.391553 1
gene 1 2217 10 -0.68095 0 53634 -0.68095 1
gene 1 2217 1271 0.661107 0 54046 0.661107 1
gene 1 21 1447 -1.4636 0 55525 -1.4636 1
gene 1 2 19 0.478267 0 55716 0.478267 1
gene 1 1 1342 0.452599 0 56175 0.452599 1
gene 1 3 1342 1.37838 0 56370 1.37838 1
gene 1 4 13 -0.0831744 0 56657 -0.0831744 1
gene 1 11 1944 -1.05961 0 57205 -1.05961 1
gene 1 2 1447 0.712238 0 57897 0.712238 1
gene 1 4 1271 1.07508 0 58106 1.07508 1
gene 1 19 1944 -0.289348 0 58295 -0.289348 1
gene 1 20 20 -0.183688 1 59090 -0.183688 1
gene 1 2 1794 0.185559 0 59334 0.185559 1
gene 1 1780 12 2.59529 0 60006 2.59529 1
gene 1 2217 18 -0.963291 0 60104 -0.963291 1
gene 1 2217 866 -0.512718 0 60290 -0.512718 1
gene 1 1271 2479 0.749512 0 60712 0.749512 1
gene 1 2479 1447 0.398645 0 60713 0.398645 1
gene 1 10 10 -0.531291 1 63209 -0.531291 1
gene 1 14 14 0.113368 1 64084 0.113368 1
gene 1 3 2591 0.832722 0 64520 -0.0110281 1
gene 1 2591 10 1.08827 0 64521 0.121981 1
gene 1 11 2118 0.282052 0 64666 0.282052 1
gene 1 11 11 -0.588155 1 64898 -0.588155 1
gene 1 5 866 -0.599558 0 65121 -0.599558 1
gene 1 6 2217 0.35073 0 65402 0.35073 1
gene 1 16 16 0.0363454 1 65835 0.0363454 1
genomeend 38
