/* Organism #53620384 Fitness: -394032 
genomestart 4
trait 1 0.134994 0.867072 0.688802 0.236096 0.272751 0.496945 0 0.436869 
node 1 1 0
node 2 1 1
node 3 1 1
node 4 1 1
node 5 1 1
node 6 1 1
node 7 1 1
node 8 1 1
node 9 1 1
node 10 1 2
node 11 1 2
node 12 1 2
node 13 1 2
node 14 1 2
node 15 1 2
node 16 1 2
node 17 1 2
node 18 1 2
node 19 1 2
node 20 1 2
node 21 1 3
node 23 1 3
node 27 1 3
node 28 1 3
node 664 1 3
node 745 1 3
node 965 1 3
node 1344 1 3
node 1793 1 3
gene 1 1 21 3.1484 0 1 3.1484 1
gene 1 1 23 -2.98735 0 3 -2.98735 1
gene 1 1 27 1.27663 0 7 1.27663 1
gene 1 1 28 2.28872 0 8 2.28872 1
gene 1 2 23 1.98891 0 11 1.98891 1
gene 1 2 27 -1.32903 0 15 -1.32903 1
gene 1 3 21 -1.66757 0 17 -1.66757 1
gene 1 3 27 -2.22623 0 23 -2.22623 1
gene 1 4 21 0.911918 0 25 0.911918 1
gene 1 4 27 0.111488 0 31 0.111488 1
gene 1 4 28 -0.306005 0 32 -0.306005 1
gene 1 5 21 0.264453 0 33 0.264453 1
gene 1 5 23 -1.11776 0 35 -1.11776 1
gene 1 5 27 5.18338 0 39 5.18338 1
gene 1 5 28 1.76878 0 40 1.76878 1
gene 1 6 27 0.0742845 0 47 0.0742845 1
gene 1 7 23 -0.847426 0 51 -0.847426 1
gene 1 7 27 -2.16977 0 55 -2.16977 1
gene 1 7 28 0.133259 0 56 0.133259 1
gene 1 8 21 -0.87141 0 57 -0.87141 1
gene 1 9 21 3.40195 0 65 3.40195 1
gene 1 9 27 0.683053 0 71 0.683053 1
gene 1 9 28 1.20707 0 72 1.20707 1
gene 1 21 10 0.447273 0 73 0.447273 1
gene 1 21 11 -1.38269 0 74 -1.38269 1
gene 1 21 12 2.08369 0 75 2.08369 1
gene 1 21 13 1.19362 0 76 1.19362 1
gene 1 21 15 -1.24316 0 78 -1.24316 1
gene 1 21 18 1.28534 0 81 1.28534 1
gene 1 21 19 0.547704 0 82 0.547704 1
gene 1 21 20 -3.00575 0 83 -3.00575 1
gene 1 23 11 -1.38309 0 96 -1.38309 1
gene 1 23 12 -2.83305 0 97 -2.83305 1
gene 1 23 13 -0.561044 0 98 -0.561044 1
gene 1 23 14 2.75031 0 99 2.75031 1
gene 1 23 15 3.11475 0 100 3.11475 1
gene 1 23 16 0.0860072 0 101 0.0860072 1
gene 1 23 17 1.85251 0 102 1.85251 1
gene 1 23 19 4.03004 0 104 4.03004 1
gene 1 23 20 -3.10072 0 105 -3.10072 1
gene 1 27 11 1.72854 0 140 1.72854 1
gene 1 27 13 -1.70133 0 142 -1.70133 1
gene 1 27 16 0.0451071 0 145 0.0451071 1
gene 1 27 18 1.42454 0 147 1.42454 1
gene 1 28 11 -0.150602 0 151 -0.150602 1
gene 1 28 13 1.9743 0 153 1.9743 1
gene 1 28 15 0.554206 0 155 0.554206 1
gene 1 28 16 -1.70273 0 156 -1.70273 1
gene 1 28 19 -0.35703 0 159 -0.35703 1
gene 1 28 20 -0.62585 0 160 -0.62585 1
gene 1 7 11 1.4781 0 2319 1.4781 1
gene 1 12 14 -0.518867 0 2645 -0.518867 1
gene 1 16 17 0.159111 0 3605 0.159111 1
gene 1 12 17 -0.929801 0 3749 -0.929801 1
gene 1 14 19 -0.503587 0 4121 -0.503587 1
gene 1 2 17 -1.57719 0 4450 -1.57719 1
gene 1 16 10 -0.595303 0 5553 -0.595303 1
gene 1 10 20 -0.299304 0 7739 -0.299304 1
gene 1 11 16 0.22392 0 8707 0.22392 1
gene 1 2 13 -0.264439 0 9558 -0.264439 1
gene 1 23 18 0.213004 0 9754 0.213004 1
gene 1 1 11 0.145928 0 10105 0.145928 1
gene 1 7 16 0.26128 0 11196 0.26128 1
gene 1 18 17 1.41416 0 12152 1.41416 1
gene 1 10 18 -2.39182 0 13461 -2.39182 1
gene 1 27 27 -1.83186 1 13635 -1.83186 1
gene 1 8 15 1.66981 0 14635 1.66981 1
gene 1 20 19 0.532772 0 15626 0.532772 1
gene 1 27 745 0.919975 0 16577 0.90144 1
gene 1 745 15 0.297121 0 16578 0.298224 1
gene 1 6 745 -0.604773 0 16962 -0.604773 1
gene 1 7 664 0.349636 0 17325 0.349636 1
gene 1 2 745 -0.60141 0 17891 -0.60141 1
gene 1 745 745 0.478295 1 18065 0.478295 1
gene 1 2 664 -0.182138 0 18493 -0.182138 1
gene 1 18 13 -0.68087 0 18997 -0.68087 1
gene 1 27 10 0.366506 0 19700 0.366506 1
gene 1 21 21 0.133641 1 20275 0.133641 1
gene 1 6 28 -0.893539 0 21508 -0.893539 1
gene 1 15 965 -0.469793 1 22333 -0.493152 1
gene 1 965 15 -1.29553 0 22334 -1.29488 1
gene 1 745 664 -0.813078 0 23337 -0.813078 1
gene 1 2 965 -0.627475 0 24090 -0.627475 1
gene 1 15 28 -1.02847 1 24671 -1.02847 1
gene 1 12 12 -0.0619152 1 25613 -0.0619152 1
gene 1 745 10 1.20418 0 26546 1.20418 1
gene 1 745 965 0.10096 0 30196 0.10096 1
gene 1 965 28 1.55044 0 30387 1.55044 1
gene 1 28 1344 0.480829 0 31433 0.480829 1
gene 1 15 27 0.269753 1 32203 0.269753 1
gene 1 14 10 0.271427 0 32938 0.271427 1
gene 1 11 11 0.529439 1 33146 0.529439 1
gene 1 745 14 -0.0352889 0 33496 -0.0352889 1
gene 1 9 13 2.25748 0 34092 2.25748 1
gene 1 28 23 0.423821 0 34385 0.423821 1
gene 1 16 15 0.0149996 0 34733 0.0149996 1
gene 1 11 14 -0.338154 0 35354 -0.338154 1
gene 1 16 16 0.511625 1 36981 0.511625 1
gene 1 8 27 0.18278 0 37764 0.18278 1
gene 1 2 16 -0.468434 0 37943 -0.468434 1
gene 1 10 10 0.29655 1 39040 0.29655 1
gene 1 9 16 -0.782838 0 39438 -0.782838 1
gene 1 12 664 0.919655 1 40022 0.919655 1
gene 1 9 19 0.276714 0 41332 0.276714 1
gene 1 2 28 0.339219 0 41672 0.339219 1
gene 1 1344 17 0.0304417 0 42103 0.0304417 1
gene 1 27 23 0.524934 0 42161 0.524934 1
gene 1 664 1793 0.516902 0 42462 0.429209 1
gene 1 1344 14 0.0105479 0 42737 0.0105479 1
gene 1 9 14 -1.2203 0 43588 -1.2203 1
gene 1 28 28 0.819913 1 44257 0.819913 1
gene 1 28 27 0.130265 1 44653 0.130265 1
gene 1 19 10 -0.374306 0 44844 -0.374306 1
gene 1 1344 1344 -1.05894 1 45030 -1.05894 1
gene 1 27 1793 -1.09446 0 45402 -1.09446 1
gene 1 2 1344 -1.57044 0 45551 -1.57044 1
gene 1 1793 1793 -0.52458 1 46266 -0.52458 1
gene 1 1 745 0.318893 0 47804 0.318893 1
gene 1 13 17 0.251021 0 48473 0.251021 1
gene 1 21 16 -0.331173 0 48662 -0.331173 1
gene 1 3 664 -1.21094 0 48853 -1.21094 1
gene 1 5 16 0.298179 0 49523 0.298179 1
gene 1 1793 28 0.422373 0 49796 0.422373 1
gene 1 19 19 0.237434 1 49909 0.237434 1
gene 1 21 17 -0.446138 0 50149 -0.446138 1
gene 1 21 14 -0.00136129 0 50760 -0.00136129 1
gene 1 23 1344 -0.714464 0 50950 -0.714464 1
gene 1 664 20 0.704284 0 51338 0.704284 1
gene 1 17 17 0.167468 1 53341 0.167468 1
gene 1 965 1344 0.727766 0 57201 0.727766 1
gene 1 15 15 0.158898 1 57250 0.158898 1
gene 1 8 16 -0.276533 0 58082 -0.276533 1
gene 1 745 17 -0.59705 0 58747 -0.59705 1
gene 1 5 1344 0.339485 0 60067 0.339485 1
gene 1 965 18 -0.151353 0 60453 -0.151353 1
gene 1 1793 1344 -0.836093 0 61272 -0.836093 1
gene 1 5 20 0.285064 0 61437 0.285064 1
gene 1 5 18 0.731786 0 61649 0.731786 1
gene 1 14 14 0.206299 1 61739 0.206299 1
gene 1 6 1344 -0.0741683 0 63044 -0.0741683 1
gene 1 965 14 -0.818625 0 63549 -0.818625 1
genomeend 4
