/* Organism #18927104 Fitness: -493279 
genomestart 842
trait 1 0.838996 0 0.838578 0 0.458172 0.886031 0.139324 0.552421 
node 1 1 0
node 2 1 1
node 3 1 1
node 4 1 1
node 5 1 1
node 6 1 1
node 7 1 1
node 8 1 1
node 9 1 1
node 10 1 2
node 11 1 2
node 12 1 2
node 13 1 2
node 14 1 2
node 15 1 2
node 16 1 2
node 17 1 2
node 18 1 2
node 19 1 2
node 20 1 2
node 23 1 3
node 24 1 3
node 25 1 3
node 26 1 3
node 27 1 3
node 464 1 3
node 827 1 3
node 1084 1 3
node 1291 1 3
node 1619 1 3
node 1780 1 3
node 1949 1 3
node 2156 1 3
node 2528 1 3
gene 1 1 23 -2.54867 0 3 -2.54867 1
gene 1 1 24 0.842416 0 4 0.842416 1
gene 1 1 25 -0.62504 0 5 -0.62504 1
gene 1 1 26 0.343532 0 6 0.343532 1
gene 1 1 27 2.40179 0 7 2.40179 1
gene 1 2 25 1.48803 0 13 1.48803 1
gene 1 3 23 -2.28906 0 19 -2.28906 1
gene 1 3 25 3.38354 0 21 3.38354 1
gene 1 3 27 -0.931722 0 23 -0.931722 1
gene 1 4 25 0.426439 0 29 0.426439 1
gene 1 5 25 -0.77204 0 37 -0.77204 1
gene 1 5 26 5.6966 0 38 5.6966 1
gene 1 5 27 1.29496 0 39 1.29496 1
gene 1 6 23 0.516665 0 43 0.516665 1
gene 1 6 24 0.0329564 0 44 0.0329564 1
gene 1 6 26 -0.113492 0 46 -0.113492 1
gene 1 7 24 -1.47969 0 52 -1.47969 1
gene 1 7 25 -1.18882 0 53 -1.18882 1
gene 1 7 26 -1.72885 0 54 -1.72885 1
gene 1 7 27 -0.424162 0 55 -0.424162 1
gene 1 8 23 -0.55871 0 59 -0.55871 1
gene 1 8 24 0.654109 0 60 0.654109 1
gene 1 8 26 0.231837 0 62 0.231837 1
gene 1 9 24 0.285574 0 68 0.285574 1
gene 1 9 26 -0.18084 0 70 -0.18084 1
gene 1 9 27 -0.15748 0 71 -0.15748 1
gene 1 23 12 0.77417 0 97 0.77417 1
gene 1 23 13 -0.44822 0 98 -0.44822 1
gene 1 23 14 -0.688424 0 99 -0.688424 1
gene 1 23 15 2.23688 0 100 2.23688 1
gene 1 23 16 1.61332 0 101 1.61332 1
gene 1 24 11 -0.183785 0 107 -0.183785 1
gene 1 24 12 -0.760363 0 108 -0.760363 1
gene 1 24 13 0.948616 0 109 0.948616 1
gene 1 24 15 -0.0968808 0 111 -0.0968808 1
gene 1 24 16 -3.27966 0 112 -3.27966 1
gene 1 24 17 -1.64939 0 113 -1.64939 1
gene 1 24 20 -1.07464 0 116 -1.07464 1
gene 1 25 11 2.42866 0 118 2.42866 1
gene 1 25 12 0.99571 0 119 0.99571 1
gene 1 25 13 2.20404 0 120 2.20404 1
gene 1 25 14 6.34301 0 121 6.34301 1
gene 1 25 15 -0.74037 0 122 -0.74037 1
gene 1 25 16 -0.48003 0 123 -0.48003 1
gene 1 25 17 -0.160884 0 124 -0.160884 1
gene 1 25 20 1.19545 0 127 1.19545 1
gene 1 26 10 -0.0905565 0 128 -0.0905565 1
gene 1 26 13 -3.34232 0 131 -3.34232 1
gene 1 26 14 1.7971 0 132 1.7971 1
gene 1 26 15 -1.36627 0 133 -1.36627 1
gene 1 26 16 -0.602016 0 134 -0.602016 1
gene 1 26 19 -1.0903 0 137 -1.0903 1
gene 1 26 20 0.248907 0 138 0.248907 1
gene 1 27 12 -0.306174 0 141 -0.306174 1
gene 1 27 16 2.71538 0 145 2.71538 1
gene 1 27 17 -0.745694 0 146 -0.745694 1
gene 1 27 18 -1.39857 0 147 -1.39857 1
gene 1 16 19 2.8655 0 2975 2.8655 1
gene 1 16 16 1.60646 1 3902 1.60646 1
gene 1 7 16 -0.846329 0 4094 -0.846329 1
gene 1 19 15 0.906362 0 4783 0.906362 1
gene 1 14 19 0.935221 0 7995 0.935221 1
gene 1 8 18 0.7011 0 8355 0.7011 1
gene 1 4 18 -0.864398 0 8739 -0.864398 1
gene 1 7 15 -0.755264 0 9167 -0.755264 1
gene 1 26 26 -0.591573 1 9612 -0.591573 1
gene 1 18 15 1.56666 0 9779 1.56666 1
gene 1 18 10 -0.196064 0 10418 -0.196064 1
gene 1 464 24 -1.05765 0 10664 -1.05765 1
gene 1 17 11 -0.809453 0 10834 -0.809453 1
gene 1 4 15 0.794126 0 11067 0.794126 1
gene 1 464 464 -0.87352 1 12492 -0.87352 1
gene 1 6 19 1.61046 0 14944 1.61046 1
gene 1 7 464 -0.189734 0 15124 -0.189734 1
gene 1 17 20 -0.182091 0 15430 -0.182091 1
gene 1 12 15 1.08866 0 17025 1.08866 1
gene 1 18 18 -0.64504 1 17682 -0.64504 1
gene 1 9 16 -2.10073 0 17904 -2.10073 1
gene 1 9 11 -1.37951 0 18265 -1.37951 1
gene 1 4 14 -1.86916 0 18734 -1.86916 1
gene 1 17 14 -0.636158 0 19244 -0.636158 1
gene 1 4 17 -0.737491 0 19440 -0.737491 1
gene 1 26 827 -0.183057 0 19625 -0.183057 1
gene 1 827 12 0.3997 0 19626 0.3997 1
gene 1 13 12 -2.19012 0 20616 -2.19012 1
gene 1 8 464 -0.306905 0 21328 -0.306905 1
gene 1 11 16 0.725583 0 22122 0.725583 1
gene 1 13 17 -1.19675 0 22317 -1.19675 1
gene 1 19 26 -0.562864 1 23184 -0.562864 1
gene 1 827 827 -0.438644 1 23374 -0.438644 1
gene 1 464 12 -0.71017 0 23766 -0.71017 1
gene 1 3 16 -0.0502437 0 24859 -0.0502437 1
gene 1 11 11 -0.512631 1 25822 -0.512631 1
gene 1 23 1084 0.155273 0 26013 0.155273 1
gene 1 1084 20 0.252203 0 26014 0.252203 1
gene 1 2 1084 0.849438 0 26168 0.849438 1
gene 1 15 1084 -1.1006 0 29572 -1.1006 1
gene 1 27 20 0.25837 0 30530 0.25837 1
gene 1 23 1291 2.1653 0 30751 2.1653 1
gene 1 1291 10 -1.47433 0 30752 -1.47433 1
gene 1 25 1084 0.0247119 0 30941 0.0247119 1
gene 1 827 16 -0.712075 0 31129 -0.712075 1
gene 1 4 24 -0.422671 0 31301 -0.422671 1
gene 1 26 1291 -1.47978 0 31667 -1.47978 1
gene 1 27 19 0.141673 0 33783 0.141673 1
gene 1 7 11 -2.13087 0 35697 -2.13087 1
gene 1 17 17 -1.32756 1 36486 -1.32756 1
gene 1 24 18 0.577157 0 37071 0.577157 1
gene 1 13 14 -1.38925 0 37263 -1.38925 1
gene 1 1084 18 -0.30473 0 38105 -0.30473 1
gene 1 13 10 -0.128797 0 38287 -0.128797 1
gene 1 16 12 0.757799 0 38538 0.757799 1
gene 1 7 13 -0.221337 0 38911 -0.221337 1
gene 1 827 464 -1.47448 0 39089 -1.47448 1
gene 1 25 1619 0.00961234 0 39318 0.00961234 1
gene 1 1619 19 -0.693435 0 39319 -0.693435 1
gene 1 13 11 0.161997 0 42898 0.161997 1
gene 1 2 1780 -0.129359 0 43322 -0.129359 1
gene 1 8 1084 -0.575331 0 44035 -0.575331 1
gene 1 12 17 -0.463586 0 44836 -0.463586 1
gene 1 8 14 -0.110161 0 45056 -0.110161 1
gene 1 827 1291 0.267738 0 45931 0.267738 1
gene 1 1780 19 -0.611827 0 46172 -0.611827 1
gene 1 13 18 -0.861057 0 46532 -0.861057 1
gene 1 8 1949 -0.184318 0 47944 -0.184318 1
gene 1 1949 25 -1.89341 0 47945 -1.89341 1
gene 1 20 1619 -0.561512 0 48359 -0.561512 1
gene 1 7 18 -1.19513 0 49239 -1.19513 1
gene 1 14 10 -0.172389 0 51540 -0.172389 1
gene 1 23 11 -0.133566 0 51750 -0.133566 1
gene 1 1619 12 0.765966 0 52999 0.765966 1
gene 1 27 1084 -0.656786 0 53211 -0.656786 1
gene 1 4 2156 0.339091 0 54026 -0.129659 1
gene 1 464 1949 -0.0131845 0 54237 -0.0131845 1
gene 1 26 464 -0.0819643 0 54475 -0.0819643 1
gene 1 1 1949 0.219887 0 56030 0.219887 1
gene 1 5 16 -0.0479458 0 56447 -0.0479458 1
gene 1 1780 26 0.990707 0 56847 0.990707 1
gene 1 17 2156 -0.63652 0 57312 -0.63652 1
gene 1 10 827 -0.493926 0 57665 -0.493926 1
gene 1 1780 1780 0.847435 1 57923 0.847435 1
gene 1 2 827 -0.63234 0 58151 -0.63234 1
gene 1 26 1619 0.704946 0 59852 0.704946 1
gene 1 2 1291 -0.534483 0 60449 -0.534483 1
gene 1 19 18 0.113538 0 60877 0.113538 1
gene 1 827 1084 -0.414362 0 61071 -0.414362 1
gene 1 464 27 -0.103024 0 61518 -0.103024 1
gene 1 1291 1949 0.428641 0 62141 0.428641 1
gene 1 11 25 -0.0720928 1 62385 -0.0720928 1
gene 1 9 464 0.378133 0 63017 0.378133 1
gene 1 1619 24 -0.707774 0 63539 -0.707774 1
gene 1 23 2528 1 0 63979 0 1
gene 1 2528 17 0.483577 0 63980 0 1
gene 1 2 26 0.370788 0 64610 0.370788 1
gene 1 15 11 0.31231 0 64891 0.31231 1
genomeend 842
