/* Organism #140475375671224 Fitness: -492370 
genomestart 534
trait 1 0.877858 0.0864367 0.0927581 0.428142 0.435678 0.847885 0.184559 0.795633 
node 1 1 0
node 2 1 1
node 3 1 1
node 4 1 1
node 5 1 1
node 6 1 1
node 7 1 1
node 8 1 1
node 9 1 1
node 10 1 2
node 11 1 2
node 12 1 2
node 13 1 2
node 14 1 2
node 15 1 2
node 16 1 2
node 17 1 2
node 18 1 2
node 19 1 2
node 20 1 2
node 21 1 3
node 24 1 3
node 25 1 3
node 26 1 3
node 1549 1 3
node 1709 1 3
node 1789 1 3
node 1830 1 3
node 1953 1 3
node 2285 1 3
gene 1 1 21 -2.04396 0 1 -2.04396 1
gene 1 1 24 -1.4036 0 4 -1.4036 1
gene 1 1 25 1.47552 0 5 1.47552 1
gene 1 2 26 0.82014 0 14 0.82014 1
gene 1 3 24 1.28342 0 20 1.28342 1
gene 1 3 25 2.62284 0 21 2.62284 1
gene 1 3 26 3.25569 0 22 3.25569 1
gene 1 4 21 -0.812119 0 25 -0.812119 1
gene 1 5 21 -2.43826 0 33 -2.43826 1
gene 1 5 24 -2.74046 0 36 -2.74046 1
gene 1 6 24 -0.826347 0 44 -0.826347 1
gene 1 7 24 2.7515 0 52 2.7515 1
gene 1 7 26 -2.22688 0 54 -2.22688 1
gene 1 8 25 -2.1008 0 61 -2.1008 1
gene 1 9 21 -0.978446 0 65 -0.978446 1
gene 1 9 24 -0.495356 0 68 -0.495356 1
gene 1 9 26 0.438569 0 70 0.438569 1
gene 1 21 10 -0.227383 0 73 -0.227383 1
gene 1 21 12 -3.66338 0 75 -3.66338 1
gene 1 21 13 1.08588 0 76 1.08588 1
gene 1 21 15 1.46595 0 78 1.46595 1
gene 1 21 16 -0.717068 0 79 -0.717068 1
gene 1 21 17 -0.57542 0 80 -0.57542 1
gene 1 21 19 2.67664 0 82 2.67664 1
gene 1 21 20 -1.17207 0 83 -1.17207 1
gene 1 24 10 -0.478973 0 106 -0.478973 1
gene 1 24 15 0.234191 0 111 0.234191 1
gene 1 24 16 2.22506 0 112 2.22506 1
gene 1 24 17 3.40762 0 113 3.40762 1
gene 1 24 19 -0.797415 0 115 -0.797415 1
gene 1 24 20 6.22247 0 116 6.22247 1
gene 1 25 10 1.02688 0 117 1.02688 1
gene 1 25 11 0.549341 0 118 0.549341 1
gene 1 25 13 0.791939 0 120 0.791939 1
gene 1 25 16 -0.946365 0 123 -0.946365 1
gene 1 25 17 0.406046 0 124 0.406046 1
gene 1 25 19 -2.67379 0 126 -2.67379 1
gene 1 25 20 -0.108794 0 127 -0.108794 1
gene 1 26 10 -2.50404 0 128 -2.50404 1
gene 1 26 13 -0.936545 0 131 -0.936545 1
gene 1 26 14 1.70949 0 132 1.70949 1
gene 1 26 17 0.0349528 0 135 0.0349528 1
gene 1 2 13 -0.259922 0 2483 -0.259922 1
gene 1 5 14 0.19588 0 3033 0.19588 1
gene 1 15 18 -0.748344 0 3794 -0.748344 1
gene 1 17 15 0.048704 0 5962 0.048704 1
gene 1 9 12 0.897854 0 6446 0.897854 1
gene 1 3 12 -0.296234 0 8489 -0.296234 1
gene 1 17 20 -0.98847 0 8637 -0.98847 1
gene 1 12 12 1.19615 1 8976 1.19615 1
gene 1 20 20 0.68856 1 10102 0.68856 1
gene 1 25 25 1.10666 1 11473 1.10666 1
gene 1 4 12 -0.473733 0 13103 -0.473733 1
gene 1 24 13 -0.261765 0 13891 -0.261765 1
gene 1 15 14 1.08475 0 15003 1.08475 1
gene 1 4 25 -1.56734 0 15406 -1.56734 1
gene 1 16 13 -1.93788 0 16176 -1.93788 1
gene 1 9 10 1.8851 0 17183 1.8851 1
gene 1 5 17 -0.933362 0 17719 -0.933362 1
gene 1 14 11 1.08291 0 17904 1.08291 1
gene 1 17 10 -0.167587 0 18067 -0.167587 1
gene 1 6 16 -0.648747 0 20299 -0.648747 1
gene 1 15 12 -0.368367 0 20847 -0.368367 1
gene 1 21 18 -0.0424011 0 21022 -0.0424011 1
gene 1 26 26 -2.4181 1 21738 -2.4181 1
gene 1 18 18 0.135854 1 24106 0.135854 1
gene 1 20 16 0.191601 0 24541 0.191601 1
gene 1 7 15 -2.46737 0 24601 -2.46737 1
gene 1 3 10 -0.680052 0 25658 -0.680052 1
gene 1 19 11 1.32246 0 25843 1.32246 1
gene 1 12 25 0.650623 1 26031 0.650623 1
gene 1 12 14 -0.0667534 0 26232 -0.0667534 1
gene 1 21 26 0.479705 0 26678 0.479705 1
gene 1 5 16 0.251052 0 27176 0.251052 1
gene 1 24 24 0.590588 1 27290 0.590588 1
gene 1 9 20 0.353447 0 28179 0.353447 1
gene 1 18 13 0.30662 0 29221 0.30662 1
gene 1 10 10 -0.107902 1 29709 -0.107902 1
gene 1 4 13 -0.0640365 0 29909 -0.0640365 1
gene 1 10 12 -0.195907 0 30098 -0.195907 1
gene 1 3 14 0.54904 0 30271 0.54904 1
gene 1 20 11 0.96905 0 31116 0.96905 1
gene 1 17 17 0.146969 1 31455 0.146969 1
gene 1 10 14 1.04532 0 33565 1.04532 1
gene 1 7 19 0.433667 0 34479 0.433667 1
gene 1 3 18 -0.0909313 0 35953 -0.0909313 1
gene 1 20 19 -0.0620567 0 36465 -0.0620567 1
gene 1 16 14 0.971357 0 37194 0.971357 1
gene 1 21 1549 0.834952 0 37421 0.382976 1
gene 1 4 11 0.367607 0 39488 0.367607 1
gene 1 19 13 -0.260039 0 39978 -0.260039 1
gene 1 1 12 0.632617 0 40143 0.632617 1
gene 1 14 14 -1.2451 1 40508 -1.2451 1
gene 1 13 13 0.232905 1 40726 0.232905 1
gene 1 17 1709 1.24923 0 40938 1.02468 1
gene 1 1709 19 1.29399 0 40939 0.975012 1
gene 1 16 19 -1.81941 0 41588 -1.81941 1
gene 1 10 13 0.643913 0 42708 0.643913 1
gene 1 6 1789 0.916731 0 42893 0.817749 1
gene 1 1789 20 -0.761633 0 42894 -0.495783 1
gene 1 2 16 0.79411 0 43176 0.79411 1
gene 1 1789 10 0.200191 0 43560 0.200191 1
gene 1 19 1830 1.22611 0 44024 0.91829 1
gene 1 1830 10 0.723944 0 44025 0.700584 1
gene 1 20 1830 -0.227283 0 45675 -0.227283 1
gene 1 26 1709 0.0880803 0 46035 0.0880803 1
gene 1 1789 1789 -0.266885 1 46380 -0.266885 1
gene 1 6 1953 0.972968 0 47760 0.877055 1
gene 1 1953 19 -1.14734 0 47761 -0.675629 1
gene 1 1830 1830 0.704958 1 47895 0.704958 1
gene 1 11 14 -0.235766 1 48308 -0.235766 1
gene 1 24 25 0.232619 0 48753 0.232619 1
gene 1 4 1953 -0.664278 0 48964 -0.664278 1
gene 1 1 13 -0.381051 0 49957 -0.381051 1
gene 1 6 10 -0.173076 0 50534 -0.173076 1
gene 1 8 11 0.03068 0 51337 0.03068 1
gene 1 5 1549 -0.315681 0 51603 -0.315681 1
gene 1 7 14 -1.51147 0 51773 -1.51147 1
gene 1 1953 1789 0.188597 0 53202 0.188597 1
gene 1 1709 1953 -1.00499 0 53755 -1.00499 1
gene 1 8 19 -0.665417 0 54140 -0.665417 1
gene 1 1709 1789 -0.567306 0 54327 -0.567306 1
gene 1 15 19 -0.247698 0 54885 -0.247698 1
gene 1 6 12 -0.031281 0 55431 -0.031281 1
gene 1 15 15 -0.0515699 1 55580 -0.0515699 1
gene 1 11 11 1.13053 1 55850 1.13053 1
gene 1 1 10 0.704234 0 56205 0.704234 1
gene 1 24 2285 1.0824 0 56364 0.269899 1
gene 1 2285 18 -0.865875 0 56365 -0.0649708 1
gene 1 4 17 -0.34666 0 56528 -0.34666 1
gene 1 1549 1549 -0.368347 1 57042 -0.368347 1
gene 1 1709 1709 -0.103662 1 57233 -0.103662 1
gene 1 11 10 -0.528825 1 57583 -0.528825 1
gene 1 24 1789 0.101723 0 57784 0.101723 1
gene 1 2285 10 0.840138 0 58145 0.840138 1
gene 1 25 18 0.794444 0 58526 0.794444 1
gene 1 16 11 1.02618 0 58724 1.02618 1
gene 1 24 1953 -0.104361 0 58913 -0.104361 1
gene 1 19 18 -0.625235 0 59505 -0.625235 1
gene 1 8 2285 -0.73835 0 59879 -0.73835 1
gene 1 3 19 -0.950931 0 60397 -0.950931 1
gene 1 1 19 -0.923526 0 60830 -0.923526 1
gene 1 2285 15 -0.136577 0 61065 -0.136577 1
gene 1 1789 1549 0.870892 0 61650 0.870892 1
gene 1 8 10 0.566761 0 62410 0.566761 1
genomeend 534
