/* Organism #27177584 Fitness: -484719 
genomestart 461
trait 1 0.988836 0.769197 0.84123 0.514153 0.665581 0.440538 0.617833 0.486774 
node 1 1 0
node 2 1 1
node 3 1 1
node 4 1 1
node 5 1 1
node 6 1 1
node 7 1 1
node 8 1 1
node 9 1 1
node 10 1 2
node 11 1 2
node 12 1 2
node 13 1 2
node 14 1 2
node 15 1 2
node 16 1 2
node 17 1 2
node 18 1 2
node 19 1 2
node 20 1 2
node 21 1 3
node 24 1 3
node 26 1 3
node 27 1 3
node 1552 1 3
node 1569 1 3
node 1746 1 3
node 1810 1 3
node 1822 1 3
node 2070 1 3
node 2358 1 3
node 2480 1 3
gene 1 1 21 5.43858 0 1 5.43858 1
gene 1 1 26 4.00901 0 6 4.00901 1
gene 1 1 27 5.31183 0 7 5.31183 1
gene 1 2 24 -1.63553 0 12 -1.63553 1
gene 1 2 26 -0.726877 0 14 -0.726877 1
gene 1 2 27 2.31102 0 15 2.31102 1
gene 1 3 21 -0.652258 0 17 -0.652258 1
gene 1 3 24 -1.41188 0 20 -1.41188 1
gene 1 3 27 3.53294 0 23 3.53294 1
gene 1 5 21 3.6578 0 33 3.6578 1
gene 1 5 26 1.75316 0 38 1.75316 1
gene 1 5 27 0.10293 0 39 0.10293 1
gene 1 7 21 -5.57979 0 49 -5.57979 1
gene 1 7 24 -1.19881 0 52 -1.19881 1
gene 1 7 26 2.26644 0 54 2.26644 1
gene 1 7 27 0.870325 0 55 0.870325 1
gene 1 8 21 -1.59038 0 57 -1.59038 1
gene 1 8 24 4.00005 0 60 4.00005 1
gene 1 8 27 0.918115 0 63 0.918115 1
gene 1 9 21 -1.62949 0 65 -1.62949 1
gene 1 9 24 3.44848 0 68 3.44848 1
gene 1 9 27 2.17367 0 71 2.17367 1
gene 1 21 11 2.86146 0 74 2.86146 1
gene 1 21 12 3.07464 0 75 3.07464 1
gene 1 21 13 -1.01466 0 76 -1.01466 1
gene 1 21 14 2.54641 0 77 2.54641 1
gene 1 21 15 -1.06755 0 78 -1.06755 1
gene 1 21 17 -1.40687 0 80 -1.40687 1
gene 1 21 19 -4.01935 0 82 -4.01935 1
gene 1 21 20 -5.07098 0 83 -5.07098 1
gene 1 24 10 0.899531 0 106 0.899531 1
gene 1 24 11 -2.60977 0 107 -2.60977 1
gene 1 24 12 2.0879 0 108 2.0879 1
gene 1 24 15 -0.929416 0 111 -0.929416 1
gene 1 24 17 -2.85506 0 113 -2.85506 1
gene 1 24 18 2.72535 0 114 2.72535 1
gene 1 24 19 -1.4407 0 115 -1.4407 1
gene 1 24 20 -2.5785 0 116 -2.5785 1
gene 1 26 14 -3.56596 0 132 -3.56596 1
gene 1 26 18 -1.84637 0 136 -1.84637 1
gene 1 26 19 -2.79662 0 137 -2.79662 1
gene 1 26 20 -0.809129 0 138 -0.809129 1
gene 1 27 10 2.43753 0 139 2.43753 1
gene 1 27 13 0.899482 0 142 0.899482 1
gene 1 27 17 1.47366 0 146 1.47366 1
gene 1 27 18 -3.03914 0 147 -3.03914 1
gene 1 27 20 2.57942 0 149 2.57942 1
gene 1 11 19 1.95309 0 558 1.95309 1
gene 1 5 10 -0.41852 0 954 -0.41852 1
gene 1 20 20 -1.4408 1 1539 -1.4408 1
gene 1 14 20 1.42466 0 5364 1.42466 1
gene 1 6 11 -1.62999 0 7447 -1.62999 1
gene 1 24 16 -1.21533 0 8187 -1.21533 1
gene 1 9 15 -0.28971 0 8827 -0.28971 1
gene 1 13 15 -0.447612 0 10008 -0.447612 1
gene 1 3 13 -2.52933 0 11600 -2.52933 1
gene 1 1 20 -2.00792 0 12940 -2.00792 1
gene 1 5 15 0.959423 0 14061 0.959423 1
gene 1 18 18 -1.06969 1 14458 -1.06969 1
gene 1 10 10 1.56488 1 15118 1.56488 1
gene 1 6 16 1.41299 0 17614 1.41299 1
gene 1 16 18 0.14419 0 20445 0.14419 1
gene 1 12 13 -0.351166 0 21186 -0.351166 1
gene 1 4 15 1.27385 0 21841 1.27385 1
gene 1 11 26 -0.755747 0 25579 -0.755747 1
gene 1 10 20 0.316393 0 26492 0.316393 1
gene 1 18 20 -0.780782 0 26799 -0.780782 1
gene 1 10 18 -0.139676 0 27321 -0.139676 1
gene 1 17 11 1.97546 0 28525 1.97546 1
gene 1 2 18 1.19234 0 29359 1.19234 1
gene 1 7 10 0.543414 0 29833 0.543414 1
gene 1 20 26 1.50139 1 30140 1.50139 1
gene 1 10 11 -0.58644 1 30210 -0.58644 1
gene 1 11 12 1.36296 0 30401 1.36296 1
gene 1 12 12 1.86208 1 30865 1.86208 1
gene 1 27 19 -0.365073 0 33040 -0.365073 1
gene 1 19 12 1.31293 0 33444 1.31293 1
gene 1 17 26 -0.311691 0 33547 -0.311691 1
gene 1 11 18 -0.587917 0 34013 -0.587917 1
gene 1 3 17 -0.666366 0 34539 -0.666366 1
gene 1 18 15 0.889235 0 34753 0.889235 1
gene 1 10 15 0.589657 0 35235 0.589657 1
gene 1 6 27 -0.224592 0 36105 -0.224592 1
gene 1 13 13 -0.0665206 1 36525 -0.0665206 1
gene 1 3 14 0.518786 0 37581 0.518786 1
gene 1 1552 20 -0.975389 0 37653 -0.975389 1
gene 1 1569 20 -0.48211 0 38018 -0.50915 1
gene 1 17 17 -0.392429 1 38692 -0.392429 1
gene 1 2 11 -0.90569 0 39711 -0.90569 1
gene 1 1552 1552 0.885817 1 40432 0.885817 1
gene 1 26 17 -1.00097 1 41304 -1.00097 1
gene 1 26 1746 0.122267 0 41857 -0.154588 1
gene 1 1746 13 1.17493 0 41858 0.866388 1
gene 1 6 20 0.00887808 0 42146 0.00887808 1
gene 1 21 24 -0.261939 0 42903 -0.261939 1
gene 1 9 17 1.84399 0 43059 1.84399 1
gene 1 1810 17 0.440122 0 43602 0.328642 1
gene 1 16 11 -0.448752 0 43728 -0.448752 1
gene 1 15 15 0.191553 1 43855 0.191553 1
gene 1 27 1822 0.4756 0 44204 0.4756 1
gene 1 1822 11 -0.538538 0 44205 -0.268283 1
gene 1 16 16 0.484185 1 44639 0.484185 1
gene 1 9 20 -2.77773 0 45460 -2.77773 1
gene 1 6 12 -0.622761 0 45961 -0.622761 1
gene 1 1822 1822 0.160674 1 46486 0.160674 1
gene 1 1569 1746 -0.0499983 0 47748 -0.0499983 1
gene 1 8 15 0.339023 0 48585 0.339023 1
gene 1 1552 1810 0.729604 0 48992 0.729604 1
gene 1 1 1569 -0.6813 0 49671 -0.6813 1
gene 1 19 15 -0.222333 0 50668 -0.222333 1
gene 1 26 2070 1.23418 1 50913 0.903491 1
gene 1 2070 26 -0.149722 0 50914 -0.00200305 1
gene 1 26 26 0.742694 1 51501 0.742694 1
gene 1 1746 12 -0.221922 0 52718 -0.221922 1
gene 1 5 14 -0.82839 0 53714 -0.82839 1
gene 1 20 16 0.539738 1 53980 0.539738 1
gene 1 10 1746 0.768569 0 54446 0.768569 1
gene 1 15 20 -0.75303 0 54735 -0.75303 1
gene 1 2070 2070 -0.134447 1 55142 -0.134447 1
gene 1 17 15 0.56782 0 55348 0.56782 1
gene 1 1810 1810 0.0642566 1 56155 0.0642566 1
gene 1 26 1569 -0.181267 0 56691 -0.181267 1
gene 1 14 13 0.963304 0 56870 0.963304 1
gene 1 5 17 1.17508 0 57624 1.17508 1
gene 1 18 14 -0.978001 0 57863 -0.978001 1
gene 1 1552 10 0.464884 0 58222 0.464884 1
gene 1 1 1810 0.173825 0 58416 0.173825 1
gene 1 12 10 -0.0175953 1 58740 -0.0175953 1
gene 1 7 15 -1.79075 0 58951 -1.79075 1
gene 1 2358 14 -1.29391 0 59181 -1.29391 1
gene 1 2070 24 0.72509 0 59540 0.72509 1
gene 1 1569 1822 0.443104 1 61560 0.443104 1
gene 1 11 11 -0.719227 1 61895 -0.719227 1
gene 1 4 24 0.507996 0 62332 0.507996 1
gene 1 1810 11 -0.379454 0 62513 -0.379454 1
gene 1 6 2358 0.802136 0 62705 0.802136 1
gene 1 24 2480 1 0 62791 0 1
gene 1 2480 14 -2.64552 0 62792 0 1
gene 1 24 27 -0.193073 0 63179 -0.193073 1
gene 1 18 17 -0.0203531 1 63755 -0.0203531 1
genomeend 461
