/* Organism #140170512136200 Fitness: -31418.8 
genomestart 0
trait 1 0.465304 0.974753 0 0.957272 0.1853 1 0 0.648682 
node 1 1 0
node 2 1 1
node 3 1 1
node 4 1 1
node 5 1 1
node 6 1 1
node 7 1 1
node 8 1 1
node 9 1 1
node 10 1 2
node 11 1 2
node 12 1 2
node 13 1 2
node 14 1 2
node 15 1 2
node 16 1 2
node 17 1 2
node 18 1 2
node 19 1 2
node 20 1 2
node 23 1 3
node 24 1 3
node 26 1 3
node 191 1 3
node 720 1 3
node 759 1 3
node 836 1 3
node 1139 1 3
node 1472 1 3
node 1541 1 3
node 1962 1 3
node 2317 1 3
node 2554 1 3
node 2571 1 3
gene 1 1 23 3.72529 0 3 3.72529 1
gene 1 1 26 1.5379 0 6 1.5379 1
gene 1 2 26 0.551249 0 14 0.551249 1
gene 1 3 24 -1.07093 0 20 -1.07093 1
gene 1 3 26 1.42295 0 22 1.42295 1
gene 1 5 26 5.28762 0 38 5.28762 1
gene 1 6 24 1.2648 0 44 1.2648 1
gene 1 7 26 -3.93632 0 54 -3.93632 1
gene 1 8 24 2.30388 0 60 2.30388 1
gene 1 8 26 1.91263 0 62 1.91263 1
gene 1 9 24 2.24194 0 68 2.24194 1
gene 1 9 26 0.333257 0 70 0.333257 1
gene 1 23 10 1.87006 0 95 1.87006 1
gene 1 23 11 -1.23704 0 96 -1.23704 1
gene 1 23 12 0.5804 0 97 0.5804 1
gene 1 23 14 -4.43433 0 99 -4.43433 1
gene 1 23 15 -1.81044 0 100 -1.81044 1
gene 1 23 16 -1.23577 0 101 -1.23577 1
gene 1 24 11 -1.21563 0 107 -1.21563 1
gene 1 24 12 -4.58367 0 108 -4.58367 1
gene 1 24 14 1.40598 0 110 1.40598 1
gene 1 24 16 0.409365 0 112 0.409365 1
gene 1 24 18 -0.172804 0 114 -0.172804 1
gene 1 26 10 0.00718776 0 128 0.00718776 1
gene 1 26 11 -0.517629 0 129 -0.517629 1
gene 1 26 16 -1.73574 0 134 -1.73574 1
gene 1 26 20 -1.46521 0 138 -1.46521 1
gene 1 3 18 -2.15744 0 560 -2.15744 1
gene 1 19 20 2.41469 0 2267 2.41469 1
gene 1 26 191 3.63337 0 3971 3.63337 1
gene 1 1 13 -4.5223 0 4409 -4.5223 1
gene 1 191 12 5.12315 0 6076 5.12315 1
gene 1 10 10 3.87002 1 7239 3.87002 1
gene 1 17 18 5.63105 0 8242 5.63105 1
gene 1 20 16 0.425143 0 8769 0.425143 1
gene 1 11 24 1.16605 1 9970 1.16605 1
gene 1 12 12 0.766506 1 10152 0.766506 1
gene 1 26 26 -0.00541807 1 11395 -0.00541807 1
gene 1 17 16 1.70184 0 13424 1.70184 1
gene 1 6 17 -0.419156 0 13955 -0.419156 1
gene 1 11 11 0.0865071 1 14115 0.0865071 1
gene 1 20 20 -0.931351 1 14741 -0.931351 1
gene 1 3 12 1.02749 0 15197 1.02749 1
gene 1 759 13 0.164765 0 17139 0.164765 1
gene 1 19 18 -0.0748761 0 17553 -0.0748761 1
gene 1 6 14 -0.690303 0 17784 -0.690303 1
gene 1 19 19 4.59822 1 18151 4.59822 1
gene 1 836 26 1.40668 0 19313 1.40668 1
gene 1 14 14 1.5045 1 19587 1.5045 1
gene 1 15 17 -0.738068 0 21093 -0.738068 1
gene 1 10 720 0.44031 0 21652 0.44031 1
gene 1 836 13 0.478582 0 25931 0.478582 1
gene 1 12 11 1.83629 0 27421 1.83629 1
gene 1 17 11 -0.770674 0 27915 -0.770674 1
gene 1 24 759 0.700917 0 28667 0.700917 1
gene 1 8 19 -3.00059 0 30192 -3.00059 1
gene 1 2 13 0.448501 0 30331 0.448501 1
gene 1 10 14 -0.705027 0 30772 -0.705027 1
gene 1 4 17 1.1181 0 32317 1.1181 1
gene 1 11 19 3.11934 1 33942 3.11934 1
gene 1 759 759 -0.695652 1 34270 -0.695652 1
gene 1 7 24 2.72408 0 34446 2.72408 1
gene 1 9 20 0.42803 0 34636 0.42803 1
gene 1 1139 20 -0.748955 0 36100 -0.748955 1
gene 1 1541 11 -1.29895 0 37062 -1.29895 1
gene 1 5 836 1.49916 0 37262 1.49916 1
gene 1 19 1472 2.93231 1 37862 2.93231 1
gene 1 9 16 -1.17873 0 37980 -1.17873 1
gene 1 7 12 -0.0362373 0 38236 -0.0362373 1
gene 1 19 10 -3.99134 0 38467 -3.99134 1
gene 1 7 1139 -1.30832 0 39080 -1.30832 1
gene 1 7 1472 -2.75573 0 39223 -2.75573 1
gene 1 836 836 0.465639 1 39797 0.465639 1
gene 1 11 14 0.816082 0 40196 0.816082 1
gene 1 11 17 0.782345 1 40973 0.782345 1
gene 1 18 18 0.122677 1 41975 0.122677 1
gene 1 759 20 1.36969 0 43446 1.36969 1
gene 1 4 19 -0.49545 0 43657 -0.49545 1
gene 1 8 720 -0.119661 0 44451 -0.119661 1
gene 1 720 720 0.319864 1 45750 0.319864 1
gene 1 19 26 -0.482804 0 45957 -0.482804 1
gene 1 2 18 -0.707839 0 46164 -0.707839 1
gene 1 759 836 -0.0752372 0 46374 -0.0752372 1
gene 1 24 10 0.552528 0 46959 0.552528 1
gene 1 2 19 2.2418 0 47292 2.2418 1
gene 1 12 1962 0.536465 0 47627 0.536465 1
gene 1 1962 14 1.85424 0 47628 1.85424 1
gene 1 836 18 0.553283 0 47811 0.553283 1
gene 1 15 11 0.695329 0 49217 0.695329 1
gene 1 191 191 -1.68685 1 50246 -1.68685 1
gene 1 1 1472 -0.441811 0 51072 -0.441811 1
gene 1 1472 1139 0.0922998 0 51304 0.0922998 1
gene 1 24 24 1.45478 1 51427 1.45478 1
gene 1 9 13 0.141184 0 52741 0.141184 1
gene 1 1472 191 -1.49601 0 53559 -1.49601 1
gene 1 20 24 0.590804 1 53769 0.590804 1
gene 1 5 16 -0.331008 0 54156 -0.331008 1
gene 1 13 16 1.00037 0 55529 1.00037 1
gene 1 8 17 -0.550651 0 55649 -0.550651 1
gene 1 9 2317 -0.56197 0 57188 -0.56197 1
gene 1 2317 836 0.766686 0 57189 0.766686 1
gene 1 14 1541 -0.163511 1 58179 -0.163511 1
gene 1 1962 720 0.444761 0 59411 0.444761 1
gene 1 2317 1139 -0.427295 0 59612 -0.427295 1
gene 1 5 1472 0.577356 0 59835 0.577356 1
gene 1 13 11 1.35917 0 59915 1.35917 1
gene 1 24 1472 1.29491 0 60184 1.29491 1
gene 1 6 720 0.052199 0 60526 0.052199 1
gene 1 1472 16 -0.643899 0 61902 -0.643899 1
gene 1 2317 191 0.688514 0 63097 0.688514 1
gene 1 16 2554 1 1 63519 0 1
gene 1 2554 16 -1.72822 0 63520 0 1
gene 1 17 17 -0.659278 1 63656 -0.659278 1
gene 1 23 23 -0.753373 1 63938 -0.753373 1
gene 1 2 2571 1 0 64135 0 1
gene 1 2571 11 2.67796 0 64136 0 1
gene 1 15 15 0.976553 1 64555 0.976553 1
genomeend 0
