/* Organism #44205808 Fitness: -31601.3 
genomestart 644
trait 1 0.208235 0.0506759 0.500611 0.720306 0.0903656 0.749521 0.000331611 0.756471 
node 1 1 0
node 2 1 1
node 3 1 1
node 4 1 1
node 5 1 1
node 6 1 1
node 7 1 1
node 8 1 1
node 9 1 1
node 10 1 2
node 11 1 2
node 12 1 2
node 13 1 2
node 14 1 2
node 15 1 2
node 16 1 2
node 17 1 2
node 18 1 2
node 19 1 2
node 20 1 2
node 21 1 3
node 26 1 3
node 27 1 3
node 28 1 3
node 632 1 3
node 1285 1 3
node 1489 1 3
node 1685 1 3
node 2062 1 3
node 2416 1 3
node 2585 1 3
node 2601 1 3
gene 1 1 21 -0.807041 0 1 -0.807041 1
gene 1 1 26 1.32068 0 6 1.32068 1
gene 1 1 27 -1.48849 0 7 -1.48849 1
gene 1 1 28 3.56303 0 8 3.56303 1
gene 1 2 27 0.207116 0 15 0.207116 1
gene 1 3 21 -1.24811 0 17 -1.24811 1
gene 1 3 26 0.795831 0 22 0.795831 1
gene 1 4 27 1.71809 0 31 1.71809 1
gene 1 5 27 -3.74757 0 39 -3.74757 1
gene 1 7 21 -0.248066 0 49 -0.248066 1
gene 1 7 26 -0.121748 0 54 -0.121748 1
gene 1 7 27 3.72789 0 55 3.72789 1
gene 1 7 28 0.927528 0 56 0.927528 1
gene 1 8 21 -5.21215 0 57 -5.21215 1
gene 1 8 27 2.19796 0 63 2.19796 1
gene 1 9 21 0.902418 0 65 0.902418 1
gene 1 9 26 1.49235 0 70 1.49235 1
gene 1 9 27 -2.09727 0 71 -2.09727 1
gene 1 21 11 -0.900918 0 74 -0.900918 1
gene 1 21 12 -2.16805 0 75 -2.16805 1
gene 1 21 13 -1.78265 0 76 -1.78265 1
gene 1 21 14 -1.39129 0 77 -1.39129 1
gene 1 21 16 -0.565717 0 79 -0.565717 1
gene 1 21 17 -0.283931 0 80 -0.283931 1
gene 1 21 19 -2.40006 0 82 -2.40006 1
gene 1 26 10 4.57471 0 128 4.57471 1
gene 1 26 11 -2.4707 0 129 -2.4707 1
gene 1 26 12 1.11496 0 130 1.11496 1
gene 1 26 17 -1.42843 0 135 -1.42843 1
gene 1 26 20 -1.65362 0 138 -1.65362 1
gene 1 27 11 0.901137 0 140 0.901137 1
gene 1 27 13 3.74824 0 142 3.74824 1
gene 1 27 14 2.07078 0 143 2.07078 1
gene 1 27 15 -2.03948 0 144 -2.03948 1
gene 1 27 17 1.62079 0 146 1.62079 1
gene 1 27 20 1.35637 0 149 1.35637 1
gene 1 28 12 -0.458196 0 152 -0.458196 1
gene 1 28 14 -1.41702 0 154 -1.41702 1
gene 1 28 15 -1.8377 0 155 -1.8377 1
gene 1 17 19 3.78287 0 3831 3.78287 1
gene 1 15 19 5.64481 0 4188 5.64481 1
gene 1 13 14 -2.14296 0 5046 -2.14296 1
gene 1 20 12 -0.498656 0 5440 -0.498656 1
gene 1 18 16 4.73588 0 5904 4.73588 1
gene 1 27 27 -0.452965 1 7048 -0.452965 1
gene 1 10 14 -1.68085 0 7237 -1.68085 1
gene 1 3 18 1.67388 0 7418 1.67388 1
gene 1 5 19 -1.09334 0 7555 -1.09334 1
gene 1 13 17 -0.977877 0 9003 -0.977877 1
gene 1 632 19 -1.79637 0 14902 -1.79637 1
gene 1 18 632 -0.688726 0 18186 -0.688726 1
gene 1 19 632 3.13504 1 18827 3.13504 1
gene 1 4 632 0.921385 0 19210 0.921385 1
gene 1 26 18 -1.8586 0 21238 -1.8586 1
gene 1 1 15 -0.560819 0 21417 -0.560819 1
gene 1 9 15 -3.09398 0 21760 -3.09398 1
gene 1 13 18 0.551161 0 22203 0.551161 1
gene 1 2 21 0.307703 0 22465 0.307703 1
gene 1 1 17 0.589053 0 22987 0.589053 1
gene 1 8 12 1.92907 0 23277 1.92907 1
gene 1 16 11 0.93042 0 23452 0.93042 1
gene 1 632 16 -0.476744 0 23691 -0.476744 1
gene 1 18 12 -0.188732 1 24199 -0.188732 1
gene 1 8 20 1.35539 0 25179 1.35539 1
gene 1 5 13 -0.378121 0 25364 -0.378121 1
gene 1 9 19 0.462062 0 27093 0.462062 1
gene 1 13 15 0.88627 0 27856 0.88627 1
gene 1 16 10 -0.435729 0 28235 -0.435729 1
gene 1 20 17 1.39304 0 29020 1.39304 1
gene 1 15 20 -0.526815 1 29266 -0.526815 1
gene 1 14 11 -0.000395011 0 29875 -0.000395011 1
gene 1 6 15 0.237926 0 30887 0.237926 1
gene 1 11 12 0.132181 0 30967 0.132181 1
gene 1 1285 13 2.07998 0 31719 1.92607 1
gene 1 17 15 0.112624 0 32613 0.112624 1
gene 1 18 10 -0.117247 0 33725 -0.117247 1
gene 1 8 1285 -0.829638 0 34722 -0.829638 1
gene 1 3 13 0.433868 0 35287 0.433868 1
gene 1 16 16 -0.225291 1 37655 -0.225291 1
gene 1 13 13 -0.6121 1 39035 -0.6121 1
gene 1 17 10 -0.656624 0 39617 -0.656624 1
gene 1 14 13 -0.767329 1 40575 -0.767329 1
gene 1 26 1685 0.325412 0 41649 0.228629 1
gene 1 28 13 0.745161 0 42138 0.745161 1
gene 1 14 19 0.130632 0 42333 0.130632 1
gene 1 26 19 0.545027 0 43320 0.545027 1
gene 1 4 26 0.431358 0 43866 0.431358 1
gene 1 2 1285 -0.172437 0 44111 -0.172437 1
gene 1 16 19 0.197616 0 44255 0.197616 1
gene 1 2 18 1.98962 0 44880 1.98962 1
gene 1 1489 17 -0.268866 0 45078 -0.268866 1
gene 1 26 28 0.521834 0 46100 0.521834 1
gene 1 12 12 0.203716 1 46462 0.203716 1
gene 1 5 28 1.18153 0 46676 1.18153 1
gene 1 1489 21 -0.240834 0 47748 -0.240834 1
gene 1 1685 17 0.664243 0 48437 0.664243 1
gene 1 1489 20 1.19518 0 49071 1.19518 1
gene 1 15 16 -0.331534 1 49276 -0.331534 1
gene 1 3 17 -0.390044 0 49639 -0.390044 1
gene 1 28 28 -0.595986 1 49709 -0.595986 1
gene 1 1 14 -1.37597 0 50311 -1.37597 1
gene 1 1489 12 0.267136 0 50680 0.267136 1
gene 1 27 12 0.535703 0 51533 0.535703 1
gene 1 18 14 -0.163849 0 51984 -0.163849 1
gene 1 1489 1489 1.51568 1 52071 1.51568 1
gene 1 15 12 -0.179071 0 52496 -0.179071 1
gene 1 20 20 -0.0571769 1 52712 -0.0571769 1
gene 1 632 632 0.437438 1 54943 0.437438 1
gene 1 27 26 -0.727164 0 55511 -0.727164 1
gene 1 8 2062 -1.57675 0 55623 -1.57675 1
gene 1 16 632 0.292464 1 56058 0.292464 1
gene 1 11 19 1.1929 0 56609 1.1929 1
gene 1 21 21 0.585629 1 58336 0.585629 1
gene 1 3 14 -0.593204 0 58731 -0.593204 1
gene 1 4 16 -0.121529 0 59355 -0.121529 1
gene 1 4 10 0.604434 0 59558 0.604434 1
gene 1 5 21 -0.144647 0 59800 -0.144647 1
gene 1 2062 2416 1.02451 0 60090 0.395604 1
gene 1 2416 632 0.101661 0 60091 0.0249667 1
gene 1 3 15 0.0862055 0 60454 0.0862055 1
gene 1 7 16 0.485018 0 60852 0.485018 1
gene 1 8 11 -0.159161 0 61638 -0.159161 1
gene 1 20 632 0.933748 0 61959 0.933748 1
gene 1 1 12 -0.229207 0 62321 -0.229207 1
gene 1 26 14 -0.794884 0 63250 -0.794884 1
gene 1 1285 28 -0.266677 0 63363 -0.266677 1
gene 1 8 14 0.0591507 0 63643 0.0591507 1
gene 1 632 2585 1 1 64535 0 1
gene 1 2585 18 0.225769 0 64536 0 1
gene 1 27 2601 1 0 64940 0 1
gene 1 2601 10 1.0968 0 64941 0 1
gene 1 2601 17 -0.742417 0 65320 -0.742417 1
gene 1 3 12 0.0290013 0 65496 0.0290013 1
gene 1 1685 1685 0.31403 1 65548 0.31403 1
genomeend 644
