/* Organism #140585983461384 Fitness: -3.43887e+06 
genomestart 289
trait 1 0.213665 1 0.121345 1 1 0.462667 0 0.264956 
node 1 1 0
node 2 1 1
node 3 1 1
node 4 1 1
node 5 1 1
node 6 1 1
node 7 1 1
node 8 1 1
node 9 1 1
node 10 1 1
node 11 1 1
node 12 1 2
node 13 1 2
node 14 1 2
node 15 1 2
node 16 1 2
node 17 1 2
node 18 1 2
node 19 1 2
node 20 1 2
node 21 1 2
node 22 1 2
node 23 1 2
node 24 1 2
node 25 1 2
node 30 1 3
node 31 1 3
node 32 1 3
node 369 1 3
node 638 1 3
node 649 1 3
node 1691 1 3
node 1942 1 3
node 2286 1 3
gene 1 1 31 1.51347 0 6 1.51347 1
gene 1 1 32 1.74477 0 7 1.74477 1
gene 1 2 30 -3.28613 0 15 -3.28613 1
gene 1 2 32 1.65835 0 17 1.65835 1
gene 1 3 32 1.24256 0 27 1.24256 1
gene 1 4 31 -4.47049 0 36 -4.47049 1
gene 1 4 32 3.75334 0 37 3.75334 1
gene 1 5 30 -8 0 45 -8 1
gene 1 5 32 7.08492 0 47 7.08492 1
gene 1 6 32 0.162432 0 57 0.162432 1
gene 1 7 30 -0.805798 0 65 -0.805798 1
gene 1 7 32 -5.19342 0 67 -5.19342 1
gene 1 8 31 3.24091 0 76 3.24091 1
gene 1 9 31 1.78262 0 86 1.78262 1
gene 1 9 32 4.55758 0 87 4.55758 1
gene 1 10 30 -2.76212 0 95 -2.76212 1
gene 1 10 31 -6.07565 0 96 -6.07565 1
gene 1 11 32 -1.6416 0 107 -1.6416 1
gene 1 30 13 4.28495 0 168 4.28495 1
gene 1 30 14 -0.153313 0 169 -0.153313 1
gene 1 30 15 8 0 170 8 1
gene 1 30 17 -0.315702 0 172 -0.315702 1
gene 1 30 18 -0.183074 0 173 -0.183074 1
gene 1 30 20 7.61176 0 175 7.61176 1
gene 1 30 21 2.29333 0 176 2.29333 1
gene 1 30 23 1.28999 0 178 1.28999 1
gene 1 30 24 0.819647 0 179 0.819647 1
gene 1 31 13 -3.39843 0 182 -3.39843 1
gene 1 31 14 6.14864 0 183 6.14864 1
gene 1 31 15 1.45615 0 184 1.45615 1
gene 1 31 16 0.481957 0 185 0.481957 1
gene 1 31 17 -7.55106 0 186 -7.55106 1
gene 1 31 18 -1.08312 0 187 -1.08312 1
gene 1 31 20 1.96728 0 189 1.96728 1
gene 1 31 21 0.782361 0 190 0.782361 1
gene 1 31 23 -0.128978 0 192 -0.128978 1
gene 1 31 24 -2.56415 0 193 -2.56415 1
gene 1 31 25 1.67656 0 194 1.67656 1
gene 1 32 12 5.98559 0 195 5.98559 1
gene 1 32 13 -3.53606 0 196 -3.53606 1
gene 1 32 14 -0.470816 0 197 -0.470816 1
gene 1 32 15 3.6682 0 198 3.6682 1
gene 1 32 16 0.0491594 0 199 0.0491594 1
gene 1 32 17 7.3146 0 200 7.3146 1
gene 1 32 18 -3.07479 0 201 -3.07479 1
gene 1 32 25 0.762169 0 208 0.762169 1
gene 1 22 24 -0.643999 0 507 -0.643999 1
gene 1 13 18 0.363486 0 2905 0.363486 1
gene 1 16 13 -1.18839 0 3286 -1.18839 1
gene 1 13 22 2.15209 0 8696 2.15209 1
gene 1 369 19 -1.22547 0 9469 -1.22547 1
gene 1 10 19 -0.20053 0 10597 -0.20053 1
gene 1 24 21 1.36969 0 11027 1.36969 1
gene 1 2 18 2.53459 0 12204 2.53459 1
gene 1 9 23 -0.802197 0 12381 -0.802197 1
gene 1 7 369 -1.56351 0 12997 -1.56351 1
gene 1 14 23 -0.578884 0 14922 -0.578884 1
gene 1 7 19 1.01919 0 15564 1.01919 1
gene 1 14 19 -2.61867 0 17271 -2.61867 1
gene 1 638 19 0.265562 0 17870 0.265562 1
gene 1 649 23 2.16137 0 18268 2.16137 1
gene 1 14 369 -3.69799 0 22108 -3.69799 1
gene 1 11 12 2.08034 0 22558 2.08034 1
gene 1 3 23 1.03535 0 24425 1.03535 1
gene 1 21 23 -0.831259 1 25936 -0.831259 1
gene 1 18 25 2.68122 0 26338 2.68122 1
gene 1 19 22 -0.714924 0 27181 -0.714924 1
gene 1 21 20 0.27866 0 27673 0.27866 1
gene 1 24 24 1.89757 1 27903 1.89757 1
gene 1 17 16 0.00701337 0 28381 0.00701337 1
gene 1 13 23 -0.710968 0 29759 -0.710968 1
gene 1 16 16 0.399092 1 29932 0.399092 1
gene 1 649 19 -0.432607 0 30761 -0.432607 1
gene 1 369 369 -3.06772 1 33062 -3.06772 1
gene 1 17 17 -2.28869 1 33447 -2.28869 1
gene 1 30 30 -0.954769 1 33898 -0.954769 1
gene 1 19 17 1.61359 0 34088 1.61359 1
gene 1 20 20 -1.00609 1 34495 -1.00609 1
gene 1 2 14 4.92939 0 35745 4.92939 1
gene 1 14 25 0.184493 0 35968 0.184493 1
gene 1 1 17 -3.12708 0 36380 -3.12708 1
gene 1 9 25 -0.0633535 0 37025 -0.0633535 1
gene 1 11 23 1.6075 0 38273 1.6075 1
gene 1 4 19 -0.622369 0 38532 -0.622369 1
gene 1 21 21 -4.11218 1 38984 -4.11218 1
gene 1 23 23 -0.627375 1 40294 -0.627375 1
gene 1 32 32 2.29108 1 40651 2.29108 1
gene 1 13 13 -0.367144 1 41330 -0.367144 1
gene 1 17 20 -0.120489 0 41478 -0.120489 1
gene 1 649 649 0.455171 1 42747 0.455171 1
gene 1 14 14 -3.99966 1 43411 -3.99966 1
gene 1 369 23 -1.65772 0 43574 -1.65772 1
gene 1 32 19 1.08547 0 44038 1.08547 1
gene 1 6 638 -3.64835 0 44240 -3.64835 1
gene 1 32 22 -1.61263 0 44839 -1.61263 1
gene 1 13 25 2.9098 0 45678 2.9098 1
gene 1 638 15 2.64151 0 46084 2.64151 1
gene 1 2 23 0.784487 0 46298 0.784487 1
gene 1 4 1691 1.85713 0 47787 1.85713 1
gene 1 24 1691 1.29816 0 48412 1.29816 1
gene 1 369 24 -0.920816 0 49211 -0.920816 1
gene 1 4 23 0.833674 0 49632 0.833674 1
gene 1 15 25 -2.28314 0 50267 -2.28314 1
gene 1 11 638 -0.848241 0 51195 -0.848241 1
gene 1 649 15 0.572284 0 52997 0.572284 1
gene 1 12 12 -0.227844 1 53181 -0.227844 1
gene 1 24 638 -0.751212 1 53886 -0.751212 1
gene 1 638 14 -1.3938 0 54105 -1.3938 1
gene 1 1691 1942 -1.02768 0 54319 -1.02768 1
gene 1 1942 15 0.261533 0 54320 0.261533 1
gene 1 19 18 1.10024 0 56138 1.10024 1
gene 1 15 13 -1.47382 1 56363 -1.47382 1
gene 1 22 22 0.488591 1 56459 0.488591 1
gene 1 25 25 -0.566396 1 56713 -0.566396 1
gene 1 1691 15 2.05018 0 57574 2.05018 1
gene 1 2 1691 1.1352 0 58205 1.1352 1
gene 1 16 17 0.0126564 1 58868 0.0126564 1
gene 1 2 17 2.22581 0 60997 2.22581 1
gene 1 10 12 -0.284102 0 61182 -0.284102 1
gene 1 13 19 3.45683 1 61827 3.45683 1
gene 1 20 1691 -0.287985 0 62988 -0.287985 1
gene 1 2 22 -1.76575 0 63138 -1.76575 1
gene 1 7 25 -1.34267 0 64306 -1.34267 1
gene 1 30 2286 -0.789588 0 64854 -0.789588 1
gene 1 2286 16 1.69735 0 64855 1.69735 1
gene 1 1691 1691 1.14799 1 65134 1.14799 1
gene 1 32 369 -0.544417 0 66762 -0.544417 1
gene 1 15 15 -1.18183 1 67152 -1.18183 1
gene 1 9 24 -2.37351 0 68396 -2.37351 1
gene 1 23 12 -0.0325425 0 68673 -0.0325425 1
gene 1 4 22 1.4409 0 68877 1.4409 1
gene 1 11 31 -0.988025 0 70002 -0.988025 1
gene 1 9 369 0.308421 0 70528 0.308421 1
gene 1 10 17 -0.620757 0 70718 -0.620757 1
gene 1 1 23 -0.982468 0 71578 -0.982468 1
genomeend 289
