/* Organism #52595296 Fitness: -3.3725e+06 
genomestart 208
trait 1 0.999454 1 0.861859 0.13382 0.354536 0.0653278 0.863166 0.202084 
node 1 1 0
node 2 1 1
node 3 1 1
node 4 1 1
node 5 1 1
node 6 1 1
node 7 1 1
node 8 1 1
node 9 1 1
node 10 1 1
node 11 1 1
node 12 1 2
node 13 1 2
node 14 1 2
node 15 1 2
node 16 1 2
node 17 1 2
node 18 1 2
node 19 1 2
node 20 1 2
node 21 1 2
node 22 1 2
node 23 1 2
node 24 1 2
node 25 1 2
node 26 1 3
node 27 1 3
node 28 1 3
node 29 1 3
node 1209 1 3
node 1430 1 3
node 1524 1 3
node 1572 1 3
node 1908 1 3
node 2003 1 3
node 2158 1 3
node 2433 1 3
node 2584 1 3
gene 1 1 26 1.66652 0 1 1.66652 1
gene 1 1 28 4.87195 0 3 4.87195 1
gene 1 1 29 -4.28623 0 4 -4.28623 1
gene 1 2 26 -1.78328 0 11 -1.78328 1
gene 1 2 27 3.41895 0 12 3.41895 1
gene 1 2 28 0.882882 0 13 0.882882 1
gene 1 2 29 1.12776 0 14 1.12776 1
gene 1 4 26 0.343058 0 31 0.343058 1
gene 1 4 27 -0.192778 0 32 -0.192778 1
gene 1 5 27 -5.2179 0 42 -5.2179 1
gene 1 5 28 7.01569 0 43 7.01569 1
gene 1 6 26 5.68389 0 51 5.68389 1
gene 1 6 27 0.424205 0 52 0.424205 1
gene 1 7 28 -7.21919 0 63 -7.21919 1
gene 1 8 26 -0.569467 0 71 -0.569467 1
gene 1 8 27 0.0518392 0 72 0.0518392 1
gene 1 8 28 -1.39515 0 73 -1.39515 1
gene 1 8 29 -1.25495 0 74 -1.25495 1
gene 1 9 26 -0.665703 0 81 -0.665703 1
gene 1 9 27 -0.330781 0 82 -0.330781 1
gene 1 9 28 1.20904 0 83 1.20904 1
gene 1 9 29 1.59093 0 84 1.59093 1
gene 1 10 26 0.96628 0 91 0.96628 1
gene 1 10 28 3.96725 0 93 3.96725 1
gene 1 11 27 3.96261 0 102 3.96261 1
gene 1 11 29 -1.35692 0 104 -1.35692 1
gene 1 26 13 -2.0155 0 112 -2.0155 1
gene 1 26 15 -4.12471 0 114 -4.12471 1
gene 1 26 19 0.77851 0 118 0.77851 1
gene 1 26 21 0.646565 0 120 0.646565 1
gene 1 26 23 -4.61294 0 122 -4.61294 1
gene 1 26 24 -1.18396 0 123 -1.18396 1
gene 1 27 12 -1.90628 0 125 -1.90628 1
gene 1 27 13 0.214257 0 126 0.214257 1
gene 1 27 14 -0.622141 0 127 -0.622141 1
gene 1 27 16 1.1389 0 129 1.1389 1
gene 1 27 17 -1.49571 0 130 -1.49571 1
gene 1 27 21 1.89879 0 134 1.89879 1
gene 1 27 24 -1.3172 0 137 -1.3172 1
gene 1 28 12 6.53847 0 139 6.53847 1
gene 1 28 13 -0.173547 0 140 -0.173547 1
gene 1 28 15 1.59202 0 142 1.59202 1
gene 1 28 16 0.839071 0 143 0.839071 1
gene 1 28 19 -0.739101 0 146 -0.739101 1
gene 1 28 20 3.27166 0 147 3.27166 1
gene 1 28 21 -4.00675 0 148 -4.00675 1
gene 1 28 22 -1.76491 0 149 -1.76491 1
gene 1 28 23 -0.76468 0 150 -0.76468 1
gene 1 28 25 -1.81395 0 152 -1.81395 1
gene 1 29 14 2.06914 0 155 2.06914 1
gene 1 29 18 1.48665 0 159 1.48665 1
gene 1 29 19 -6.12811 0 160 -6.12811 1
gene 1 29 20 0.991129 0 161 0.991129 1
gene 1 29 21 3.65308 0 162 3.65308 1
gene 1 29 22 3.03395 0 163 3.03395 1
gene 1 29 23 0.442331 0 164 0.442331 1
gene 1 29 24 -1.77238 0 165 -1.77238 1
gene 1 20 17 -0.676634 0 417 -0.676634 1
gene 1 18 13 2.63961 0 863 2.63961 1
gene 1 25 13 3.21251 0 1380 3.21251 1
gene 1 20 16 -0.0757157 0 1544 -0.0757157 1
gene 1 1 19 1.51552 0 2334 1.51552 1
gene 1 7 24 -2.466 0 2753 -2.466 1
gene 1 10 21 1.13589 0 3151 1.13589 1
gene 1 15 25 -0.688703 0 5380 -0.688703 1
gene 1 24 25 -1.16719 0 5778 -1.16719 1
gene 1 20 25 1.02747 0 5973 1.02747 1
gene 1 18 18 -0.872733 1 6170 -0.872733 1
gene 1 9 20 -4.01334 0 7844 -4.01334 1
gene 1 1 21 2.43616 0 8988 2.43616 1
gene 1 19 16 -1.65971 0 9555 -1.65971 1
gene 1 15 14 3.99291 0 10093 3.99291 1
gene 1 24 15 -0.719273 0 10280 -0.719273 1
gene 1 2 18 1.24818 0 11169 1.24818 1
gene 1 12 23 -4.66523 0 12077 -4.66523 1
gene 1 10 18 -1.51189 0 12484 -1.51189 1
gene 1 7 22 0.834721 0 12779 0.834721 1
gene 1 12 21 -2.48411 0 12962 -2.48411 1
gene 1 7 21 0.36291 0 13489 0.36291 1
gene 1 21 21 0.528816 1 13751 0.528816 1
gene 1 22 14 -0.785495 0 14441 -0.785495 1
gene 1 20 22 1.17812 0 15663 1.17812 1
gene 1 4 13 -1.28865 0 16162 -1.28865 1
gene 1 19 19 2.09211 1 16658 2.09211 1
gene 1 21 16 -4.47552 0 18230 -4.47552 1
gene 1 19 22 1.7953 0 18453 1.7953 1
gene 1 14 23 -0.775772 0 18638 -0.775772 1
gene 1 19 24 -3.77824 0 20528 -3.77824 1
gene 1 27 26 0.160367 0 22158 0.160367 1
gene 1 26 26 2.71056 1 22688 2.71056 1
gene 1 16 24 -2.65008 0 23679 -2.65008 1
gene 1 2 15 -0.429961 0 24873 -0.429961 1
gene 1 22 15 -2.82702 0 25951 -2.82702 1
gene 1 7 14 3.76996 0 27168 3.76996 1
gene 1 25 26 0.761521 1 27340 0.761521 1
gene 1 14 18 -0.652938 0 27970 -0.652938 1
gene 1 1209 21 2.79437 0 28663 2.79437 1
gene 1 1 18 0.486244 0 28913 0.486244 1
gene 1 1209 14 -1.61423 0 29260 -1.61423 1
gene 1 10 12 -4.61511 0 29443 -4.61511 1
gene 1 8 13 -2.42185 0 29826 -2.42185 1
gene 1 23 18 4.31545 0 30585 4.31545 1
gene 1 12 15 0.573197 0 30753 0.573197 1
gene 1 3 13 -3.56399 0 31395 -3.56399 1
gene 1 16 16 0.218176 1 31599 0.218176 1
gene 1 8 23 1.39447 0 32095 1.39447 1
gene 1 24 20 1.7645 0 32700 1.7645 1
gene 1 21 25 -4.6041 0 32773 -4.6041 1
gene 1 25 25 1.4304 1 33382 1.4304 1
gene 1 26 1430 6.30885 0 33770 6.30885 1
gene 1 1430 20 -4.01872 0 33771 -4.01872 1
gene 1 26 29 -1.14302 0 34391 -1.14302 1
gene 1 26 27 -1.58356 1 34773 -1.58356 1
gene 1 10 15 0.235604 0 35228 0.235604 1
gene 1 3 15 -3.1727 0 35508 -3.1727 1
gene 1 1 25 -8 0 35720 -8 1
gene 1 2 1524 0.587992 0 35965 0.587992 1
gene 1 1524 17 2.23479 0 35966 2.23479 1
gene 1 18 25 -0.0910083 0 36369 -0.0910083 1
gene 1 27 1572 1.7366 0 37241 1.7366 1
gene 1 1572 19 1.62729 0 37242 1.62729 1
gene 1 22 25 -1.92987 0 38029 -1.92987 1
gene 1 14 14 0.054621 1 38424 0.054621 1
gene 1 6 25 1.08183 0 39646 1.08183 1
gene 1 4 24 -1.1417 0 39778 -1.1417 1
gene 1 5 20 0.362173 0 40186 0.362173 1
gene 1 13 19 -6.20396 0 40617 -6.20396 1
gene 1 1209 28 -0.235899 0 40947 -0.235899 1
gene 1 1430 29 -1.51996 0 41166 -1.51996 1
gene 1 1524 24 1.0807 0 42094 1.0807 1
gene 1 1 17 -2.82614 0 44541 -2.82614 1
gene 1 1524 21 0.466552 0 44673 0.466552 1
gene 1 1524 1524 -1.26337 1 44870 -1.26337 1
gene 1 19 12 -0.289362 0 45239 -0.289362 1
gene 1 1 1209 -1.85011 0 45410 -1.85011 1
gene 1 14 12 -0.494436 0 45610 -0.494436 1
gene 1 27 19 0.336263 0 45827 0.336263 1
gene 1 3 1908 -2.00293 0 46024 -2.00293 1
gene 1 29 29 -0.686829 1 46794 -0.686829 1
gene 1 1572 20 1.16806 0 47157 1.16806 1
gene 1 12 17 -0.906331 0 47958 -0.906331 1
gene 1 7 18 2.82344 0 48264 2.82344 1
gene 1 2003 24 -1.77467 0 48519 -1.77467 1
gene 1 8 1572 0.436871 0 49644 0.436871 1
gene 1 5 18 1.31799 0 49854 1.31799 1
gene 1 25 1908 -3.14245 0 51716 -3.14245 1
gene 1 1209 1572 1.34584 0 51997 1.34584 1
gene 1 9 14 0.155308 0 52260 0.155308 1
gene 1 10 2003 -1.57901 0 52448 -1.57901 1
gene 1 10 2158 -4.5231 0 52693 -4.5231 1
gene 1 2158 27 -0.145836 0 52694 -0.145836 1
gene 1 1524 2003 -1.45176 0 53758 -1.45176 1
gene 1 28 26 -1.63743 0 54173 -1.63743 1
gene 1 2 25 -0.123605 0 54403 -0.123605 1
gene 1 8 1524 1.79417 0 56305 1.79417 1
gene 1 22 22 -2.33576 1 56554 -2.33576 1
gene 1 1430 12 1.89853 0 56672 1.89853 1
gene 1 7 1908 4.71302 0 56951 4.71302 1
gene 1 5 29 -0.406384 0 57877 -0.406384 1
gene 1 1430 17 0.281566 0 58127 0.281566 1
gene 1 23 23 0.174413 1 58487 0.174413 1
gene 1 9 21 0.781272 0 58746 0.781272 1
gene 1 1209 17 -0.865452 0 58976 -0.865452 1
gene 1 1209 1430 -0.327317 0 59978 -0.327317 1
gene 1 28 29 0.367984 0 60413 0.367984 1
gene 1 1430 15 1.61107 0 60539 1.61107 1
gene 1 1209 15 0.297912 0 60754 0.297912 1
gene 1 15 28 0.133941 1 60946 0.133941 1
gene 1 4 2433 -0.360565 0 61232 -0.360565 1
gene 1 2433 1209 1.20004 0 61233 1.20004 1
gene 1 3 2433 -2.13631 0 61335 -2.13631 1
gene 1 12 12 0.96278 1 61534 0.96278 1
gene 1 26 20 -1.45923 0 63532 -1.45923 1
gene 1 1524 20 -1.47102 0 65101 -1.47102 1
gene 1 20 2584 0.744299 0 65270 0.744299 1
gene 1 2584 15 1.50948 0 65271 1.50948 1
gene 1 1209 16 0.927635 0 65571 0.927635 1
gene 1 19 13 0.646414 1 65701 0.646414 1
gene 1 7 15 2.51291 0 66136 2.51291 1
gene 1 1524 22 -0.00461105 0 66305 -0.00461105 1
gene 1 2584 29 0.074333 0 66743 0.074333 1
gene 1 2584 19 0.0121922 0 67280 0.0121922 1
gene 1 23 20 0.267394 1 67683 0.267394 1
gene 1 2158 29 0.332014 0 68548 0.332014 1
genomeend 208
