/* Organism #37446736 Fitness: -3.37576e+06 
genomestart 852
trait 1 0 0.783903 0.298628 0.607932 0.972199 0.711906 0.731793 0 
node 1 1 0
node 2 1 1
node 3 1 1
node 4 1 1
node 5 1 1
node 6 1 1
node 7 1 1
node 8 1 1
node 9 1 1
node 10 1 1
node 11 1 1
node 12 1 2
node 13 1 2
node 14 1 2
node 15 1 2
node 16 1 2
node 17 1 2
node 18 1 2
node 19 1 2
node 20 1 2
node 21 1 2
node 22 1 2
node 23 1 2
node 24 1 2
node 25 1 2
node 26 1 3
node 896 1 3
node 1087 1 3
node 1145 1 3
node 1808 1 3
node 2287 1 3
gene 1 1 26 -7.28965 0 1 -7.28965 1
gene 1 2 26 -2.19154 0 11 -2.19154 1
gene 1 3 26 -4.8324 0 21 -4.8324 1
gene 1 4 26 2.07813 0 31 2.07813 1
gene 1 6 26 -1.20198 0 51 -1.20198 1
gene 1 7 26 0.308869 0 61 0.308869 1
gene 1 8 26 -0.455708 0 71 -0.455708 1
gene 1 26 12 4.69927 0 111 4.69927 1
gene 1 26 13 0.605459 0 112 0.605459 1
gene 1 26 15 -1.06135 0 114 -1.06135 1
gene 1 26 16 -0.975042 0 115 -0.975042 1
gene 1 26 17 7.27554 0 116 7.27554 1
gene 1 26 18 -5.44343 0 117 -5.44343 1
gene 1 26 20 4.56522 0 119 4.56522 1
gene 1 26 21 6.99978 0 120 6.99978 1
gene 1 26 22 2.85289 0 121 2.85289 1
gene 1 26 25 2.26937 0 124 2.26937 1
gene 1 10 12 -2.41858 0 733 -2.41858 1
gene 1 14 23 -2.98615 0 1525 -2.98615 1
gene 1 16 21 2.52469 0 2143 2.52469 1
gene 1 9 20 -5.97846 0 3987 -5.97846 1
gene 1 15 25 -1.15367 0 4393 -1.15367 1
gene 1 14 16 -2.51499 0 5015 -2.51499 1
gene 1 18 18 -1.97409 1 5396 -1.97409 1
gene 1 1 22 -0.386977 0 7985 -0.386977 1
gene 1 19 19 -1.40087 1 13322 -1.40087 1
gene 1 24 24 -2.87075 1 15308 -2.87075 1
gene 1 10 18 -2.75744 0 15912 -2.75744 1
gene 1 6 24 1.778 0 16333 1.778 1
gene 1 22 17 -4.52251 0 16516 -4.52251 1
gene 1 17 24 5.47487 0 18791 5.47487 1
gene 1 13 14 -4.11016 0 19820 -4.11016 1
gene 1 5 25 -5.83023 0 20145 -5.83023 1
gene 1 15 19 3.62394 0 20970 3.62394 1
gene 1 5 15 0.883867 0 21078 0.883867 1
gene 1 25 24 -0.0112114 0 23485 -0.0112114 1
gene 1 14 25 -1.65846 1 23672 -1.65846 1
gene 1 24 12 -6.61988 0 23895 -6.61988 1
gene 1 7 12 -7.78392 0 24566 -7.78392 1
gene 1 16 896 2.34427 0 24694 2.34427 1
gene 1 1145 17 -0.401652 0 27921 -0.401652 1
gene 1 1087 16 -0.089478 0 28125 -0.089478 1
gene 1 16 19 -2.50153 0 29059 -2.50153 1
gene 1 5 19 1.64976 0 30786 1.64976 1
gene 1 5 26 -3.29577 0 31011 -3.29577 1
gene 1 3 12 0.0048083 0 33437 0.0048083 1
gene 1 12 12 -1.61259 1 34173 -1.61259 1
gene 1 13 13 7.79466 1 34370 7.79466 1
gene 1 1145 20 -4.19956 0 35216 -4.19956 1
gene 1 25 19 -0.368759 0 35867 -0.368759 1
gene 1 2 14 0.550917 0 36160 0.550917 1
gene 1 7 21 -0.960997 0 36937 -0.960997 1
gene 1 1087 1145 -0.0119799 0 37047 -0.0119799 1
gene 1 5 16 4.6394 0 38073 4.6394 1
gene 1 13 896 -0.909332 0 38618 -0.909332 1
gene 1 25 17 1.93854 0 39611 1.93854 1
gene 1 4 25 0.93838 0 41111 0.93838 1
gene 1 26 26 0.44977 1 42487 0.44977 1
gene 1 11 19 1.95065 0 43297 1.95065 1
gene 1 3 19 1.61786 0 44745 1.61786 1
gene 1 16 18 0.55114 0 45189 0.55114 1
gene 1 2 1808 -2.57909 0 45317 -2.57909 1
gene 1 1808 24 3.22833 0 45318 3.22833 1
gene 1 1808 16 -2.40328 0 46598 -2.40328 1
gene 1 896 25 -2.49034 1 47861 -2.49034 1
gene 1 16 16 4.13881 1 49068 4.13881 1
gene 1 9 1808 -0.813443 0 50002 -0.813443 1
gene 1 17 18 -2.21703 0 50562 -2.21703 1
gene 1 4 21 -3.75649 0 50692 -3.75649 1
gene 1 25 12 -2.16584 0 50942 -2.16584 1
gene 1 10 24 0.228729 0 51119 0.228729 1
gene 1 13 20 0.0922642 0 51829 0.0922642 1
gene 1 21 896 -2.54619 0 53011 -2.54619 1
gene 1 7 1087 -0.936237 0 53768 -0.936237 1
gene 1 3 14 2.17189 0 54111 2.17189 1
gene 1 23 19 1.97482 0 54463 1.97482 1
gene 1 1145 1145 -0.327358 1 54944 -0.327358 1
gene 1 1 15 -2.66841 0 56221 -2.66841 1
gene 1 12 15 2.15592 1 56420 2.15592 1
gene 1 17 17 1.75254 1 56601 1.75254 1
gene 1 24 16 0.3061 0 57007 0.3061 1
gene 1 25 20 0.436189 0 57194 0.436189 1
gene 1 23 2287 0.708957 0 57748 0.708957 1
gene 1 2287 17 -0.393053 0 57749 -0.393053 1
gene 1 1087 13 -0.509426 0 58011 -0.509426 1
gene 1 24 19 -1.741 0 58536 -1.741 1
gene 1 11 20 0.193454 0 58708 0.193454 1
gene 1 16 12 0.931692 0 59164 0.931692 1
gene 1 15 21 -0.0335617 0 59366 -0.0335617 1
gene 1 10 20 -0.489167 0 59572 -0.489167 1
gene 1 17 13 -0.411427 1 59772 -0.411427 1
gene 1 8 1087 -1.20523 0 61510 -1.20523 1
gene 1 2287 2287 -1.46599 1 61644 -1.46599 1
gene 1 14 14 0.956872 1 62457 0.956872 1
gene 1 3 23 -0.083859 0 62787 -0.083859 1
gene 1 1 20 0.30816 0 63602 0.30816 1
gene 1 22 21 -0.162381 0 64011 -0.162381 1
gene 1 22 19 -0.78364 0 64423 -0.78364 1
gene 1 5 24 0.276589 0 64812 0.276589 1
gene 1 18 16 2.58685 1 65797 2.58685 1
gene 1 1087 1087 -0.825607 1 66230 -0.825607 1
gene 1 1808 19 0.80936 0 66634 0.80936 1
gene 1 1 17 0.460514 0 67005 0.460514 1
gene 1 9 24 -0.62106 0 67401 -0.62106 1
gene 1 19 21 1.11662 0 67526 1.11662 1
gene 1 9 18 0.896051 0 67725 0.896051 1
gene 1 24 20 -1.17755 0 67971 -1.17755 1
gene 1 7 18 0.385848 0 68407 0.385848 1
gene 1 1087 20 0.400149 0 68692 0.400149 1
gene 1 20 20 -0.285541 1 69261 -0.285541 1
genomeend 852
