/* Organism #63978096 Fitness: -3.37228e+06 
genomestart 890
trait 1 0.430829 0.549148 0.0657057 0.714026 0.21056 0.710311 0.982333 1 
node 1 1 0
node 2 1 1
node 3 1 1
node 4 1 1
node 5 1 1
node 6 1 1
node 7 1 1
node 8 1 1
node 9 1 1
node 10 1 1
node 11 1 1
node 12 1 2
node 13 1 2
node 14 1 2
node 15 1 2
node 16 1 2
node 17 1 2
node 18 1 2
node 19 1 2
node 20 1 2
node 21 1 2
node 22 1 2
node 23 1 2
node 24 1 2
node 25 1 2
node 30 1 3
node 31 1 3
node 43 1 3
node 635 1 3
node 1509 1 3
node 1589 1 3
node 2514 1 3
gene 1 1 30 2.27825 0 5 2.27825 1
gene 1 1 31 -3.31176 0 6 -3.31176 1
gene 1 4 30 -5.48843 0 35 -5.48843 1
gene 1 4 31 0.578639 0 36 0.578639 1
gene 1 5 31 -8 0 46 -8 1
gene 1 6 30 -0.18512 0 55 -0.18512 1
gene 1 7 30 -1.48979 0 65 -1.48979 1
gene 1 7 31 2.88651 0 66 2.88651 1
gene 1 9 31 2.52805 0 86 2.52805 1
gene 1 10 31 3.914 0 96 3.914 1
gene 1 30 13 -6.16842 0 168 -6.16842 1
gene 1 30 14 -3.89778 0 169 -3.89778 1
gene 1 30 15 -7.84428 0 170 -7.84428 1
gene 1 30 18 3.6415 0 173 3.6415 1
gene 1 30 20 -8 0 175 -8 1
gene 1 30 22 5.44261 0 177 5.44261 1
gene 1 30 24 -1.92865 0 179 -1.92865 1
gene 1 30 25 -0.0587079 0 180 -0.0587079 1
gene 1 31 12 -7.91632 0 181 -7.91632 1
gene 1 31 16 1.04142 0 185 1.04142 1
gene 1 31 18 -4.7071 0 187 -4.7071 1
gene 1 31 20 -1.35168 0 189 -1.35168 1
gene 1 31 23 -1.96992 0 192 -1.96992 1
gene 1 31 24 -4.28485 0 193 -4.28485 1
gene 1 31 25 3.78546 0 194 3.78546 1
gene 1 43 12 -1.34323 0 571 -1.34323 1
gene 1 11 13 -7.93311 0 1709 -7.93311 1
gene 1 8 18 2.19002 0 5861 2.19002 1
gene 1 17 21 -3.55788 0 7207 -3.55788 1
gene 1 8 12 -0.198784 0 8215 -0.198784 1
gene 1 3 20 1.92412 0 8818 1.92412 1
gene 1 2 19 1.68339 0 12195 1.68339 1
gene 1 14 23 -1.50021 0 12358 -1.50021 1
gene 1 20 21 -1.13086 0 12926 -1.13086 1
gene 1 5 15 -4.27607 0 13566 -4.27607 1
gene 1 25 21 4.05611 0 13840 4.05611 1
gene 1 30 635 -8 0 16410 -8 1
gene 1 1 19 -0.433663 0 19168 -0.433663 1
gene 1 635 43 1.38579 0 19572 1.38579 1
gene 1 635 635 1.50678 1 20788 1.50678 1
gene 1 12 19 -5.66247 0 22506 -5.66247 1
gene 1 14 15 4.71369 0 23266 4.71369 1
gene 1 20 15 -2.83381 0 23835 -2.83381 1
gene 1 18 20 1.02228 0 24047 1.02228 1
gene 1 20 19 -2.44777 0 28226 -2.44777 1
gene 1 43 24 4.62721 0 28603 4.62721 1
gene 1 3 24 -3.14747 0 29364 -3.14747 1
gene 1 25 19 -0.246961 0 30338 -0.246961 1
gene 1 22 18 2.97586 0 30540 2.97586 1
gene 1 6 22 4.76874 0 31116 4.76874 1
gene 1 12 12 1.52527 1 32661 1.52527 1
gene 1 21 22 3.00917 1 33348 3.00917 1
gene 1 635 19 -0.617167 0 35862 -0.617167 1
gene 1 1 23 -2.06466 0 36414 -2.06466 1
gene 1 31 31 0.201835 1 36443 0.201835 1
gene 1 30 30 2.00798 1 36731 2.00798 1
gene 1 16 24 2.50892 0 36957 2.50892 1
gene 1 635 22 3.4002 0 37901 3.4002 1
gene 1 24 14 -6.8916 1 38910 -6.8916 1
gene 1 1509 22 7.50554 0 39091 7.50554 1
gene 1 1509 18 1.72144 0 40168 1.72144 1
gene 1 30 23 3.9743 0 40514 3.9743 1
gene 1 17 16 1.90273 0 40867 1.90273 1
gene 1 15 1589 -6.51861 0 41545 -6.51861 1
gene 1 19 19 4.54378 1 41904 4.54378 1
gene 1 22 1589 6.72966 0 42088 6.72966 1
gene 1 6 20 2.72638 0 42470 2.72638 1
gene 1 20 20 0.813391 1 42964 0.813391 1
gene 1 3 23 -4.34651 0 44330 -4.34651 1
gene 1 10 14 -6.14324 0 45019 -6.14324 1
gene 1 19 12 -0.216692 1 46284 -0.216692 1
gene 1 17 17 -3.74288 1 46495 -3.74288 1
gene 1 21 30 -0.886868 1 47136 -0.886868 1
gene 1 8 24 2.01447 0 47571 2.01447 1
gene 1 14 25 -0.504189 0 48440 -0.504189 1
gene 1 2 1509 1.36869 0 51062 1.36869 1
gene 1 1589 1589 2.04911 1 51270 2.04911 1
gene 1 15 15 2.00474 1 53099 2.00474 1
gene 1 1509 15 0.112669 0 53319 0.112669 1
gene 1 25 23 2.40233 0 54295 2.40233 1
gene 1 11 1509 -2.64902 0 58160 -2.64902 1
gene 1 635 25 0.102129 0 58788 0.102129 1
gene 1 22 21 1.00122 0 60288 1.00122 1
gene 1 9 43 0.0641731 0 60719 0.0641731 1
gene 1 14 16 -0.227255 0 60937 -0.227255 1
gene 1 24 15 1.28649 0 61240 1.28649 1
gene 1 25 25 -1.30094 1 61379 -1.30094 1
gene 1 43 23 0.782193 0 61641 0.782193 1
gene 1 13 24 -0.610457 0 61794 -0.610457 1
gene 1 18 16 -0.48668 0 62432 -0.48668 1
gene 1 22 25 0.878778 0 62847 0.878778 1
gene 1 16 21 -0.843745 0 63321 -0.843745 1
gene 1 43 31 -0.25905 0 64540 -0.25905 1
gene 1 7 22 -1.64339 0 64726 -1.64339 1
gene 1 13 13 1.40975 1 65042 1.40975 1
gene 1 1509 25 -1.01813 0 65822 -1.01813 1
gene 1 635 24 0.792075 0 66013 0.792075 1
gene 1 20 2514 1 0 66976 0 1
gene 1 2514 12 5.0532 0 66977 0 1
gene 1 43 2514 0.0838423 0 67179 0.0838423 1
gene 1 25 18 0.3628 0 67578 0.3628 1
gene 1 2514 21 -0.490601 0 67813 -0.490601 1
gene 1 21 21 -0.811347 1 68008 -0.811347 1
gene 1 30 21 0.111394 0 68604 0.111394 1
genomeend 890
