/* Organism #45509888 Fitness: -3.52661e+06 
genomestart 744
trait 1 0.282381 0.631308 0.799402 0.816209 0.638513 0.642689 0.288198 0.750365 
node 1 1 0
node 2 1 1
node 3 1 1
node 4 1 1
node 5 1 1
node 6 1 1
node 7 1 1
node 8 1 1
node 9 1 1
node 10 1 1
node 11 1 1
node 12 1 2
node 13 1 2
node 14 1 2
node 15 1 2
node 16 1 2
node 17 1 2
node 18 1 2
node 19 1 2
node 20 1 2
node 21 1 2
node 22 1 2
node 23 1 2
node 24 1 2
node 25 1 2
node 27 1 3
node 32 1 3
node 229 1 3
node 291 1 3
node 2339 1 3
node 2477 1 3
gene 1 1 27 5.8119 0 2 5.8119 1
gene 1 1 32 3.94268 0 7 3.94268 1
gene 1 2 32 0.0439376 0 17 0.0439376 1
gene 1 4 27 4.25248 0 32 4.25248 1
gene 1 4 32 4.26875 0 37 4.26875 1
gene 1 5 27 6.70947 0 42 6.70947 1
gene 1 5 32 0.0017608 0 47 0.0017608 1
gene 1 6 32 -0.796657 0 57 -0.796657 1
gene 1 7 27 -7.17175 0 62 -7.17175 1
gene 1 7 32 -1.57596 0 67 -1.57596 1
gene 1 8 27 0.969042 0 72 0.969042 1
gene 1 9 27 -0.644073 0 82 -0.644073 1
gene 1 10 27 -0.367587 0 92 -0.367587 1
gene 1 11 32 -0.142817 0 107 -0.142817 1
gene 1 27 12 6.70568 0 125 6.70568 1
gene 1 27 14 0.336346 0 127 0.336346 1
gene 1 27 15 0.294391 0 128 0.294391 1
gene 1 27 18 0.493163 0 131 0.493163 1
gene 1 27 20 0.782543 0 133 0.782543 1
gene 1 27 21 0.712677 0 134 0.712677 1
gene 1 27 22 -1.09248 0 135 -1.09248 1
gene 1 27 23 0.0779395 0 136 0.0779395 1
gene 1 32 14 7.35091 0 197 7.35091 1
gene 1 32 16 0.707785 0 199 0.707785 1
gene 1 32 17 2.29167 0 200 2.29167 1
gene 1 32 18 1.11479 0 201 1.11479 1
gene 1 32 21 0.188478 0 204 0.188478 1
gene 1 32 25 -8 0 208 -8 1
gene 1 6 12 -0.277767 0 1002 -0.277767 1
gene 1 2 16 -2.80903 0 3630 -2.80903 1
gene 1 17 17 1.73143 1 4223 1.73143 1
gene 1 25 17 -4.16224 0 8652 -4.16224 1
gene 1 27 27 -2.30276 1 10675 -2.30276 1
gene 1 17 20 -5.78985 0 11062 -5.78985 1
gene 1 22 16 -2.35518 0 11268 -2.35518 1
gene 1 15 18 -0.770627 0 12058 -0.770627 1
gene 1 3 24 -2.41797 0 12438 -2.41797 1
gene 1 24 23 0.486987 0 13201 0.486987 1
gene 1 24 24 0.348967 1 13351 0.348967 1
gene 1 14 25 -1.02858 0 13888 -1.02858 1
gene 1 2 19 0.49616 0 16702 0.49616 1
gene 1 25 24 -2.21828 0 17118 -2.21828 1
gene 1 18 16 2.28848 0 18578 2.28848 1
gene 1 3 16 -2.58192 0 18779 -2.58192 1
gene 1 25 25 -1.37021 1 19633 -1.37021 1
gene 1 10 18 1.5759 0 20500 1.5759 1
gene 1 9 16 -0.248293 0 21953 -0.248293 1
gene 1 9 15 -0.366007 0 23808 -0.366007 1
gene 1 4 24 0.71105 0 24715 0.71105 1
gene 1 3 14 0.376407 0 24987 0.376407 1
gene 1 21 13 0.324738 0 25697 0.324738 1
gene 1 229 229 0.836589 1 26918 0.836589 1
gene 1 6 15 1.14436 0 28140 1.14436 1
gene 1 32 22 2.70029 0 28527 2.70029 1
gene 1 25 21 4.58872 0 28670 4.58872 1
gene 1 24 15 -0.517111 0 28891 -0.517111 1
gene 1 25 20 1.63523 0 30174 1.63523 1
gene 1 11 18 1.32983 0 31908 1.32983 1
gene 1 12 22 -1.13983 0 32825 -1.13983 1
gene 1 2 22 1.05634 0 33324 1.05634 1
gene 1 4 14 -1.19493 0 33972 -1.19493 1
gene 1 13 13 0.107074 1 34179 0.107074 1
gene 1 21 20 -3.48747 0 34624 -3.48747 1
gene 1 8 22 1.15106 0 35743 1.15106 1
gene 1 22 229 2.78587 0 35837 2.78587 1
gene 1 23 22 2.41643 0 36351 2.41643 1
gene 1 6 16 -2.27138 0 37037 -2.27138 1
gene 1 7 16 -3.16236 0 40466 -3.16236 1
gene 1 21 16 2.23786 0 40739 2.23786 1
gene 1 11 25 -2.23977 0 41127 -2.23977 1
gene 1 21 17 -0.876372 0 41353 -0.876372 1
gene 1 17 14 1.75583 1 42496 1.75583 1
gene 1 17 24 -4.76835 1 44902 -4.76835 1
gene 1 7 15 -2.96961 0 45310 -2.96961 1
gene 1 8 19 0.76074 0 46255 0.76074 1
gene 1 291 16 0.713229 0 47005 0.713229 1
gene 1 22 17 0.687246 0 47191 0.687246 1
gene 1 17 13 4.43027 0 47555 4.43027 1
gene 1 25 291 -0.0126119 0 48152 -0.0126119 1
gene 1 12 12 0.404099 1 48528 0.404099 1
gene 1 20 20 0.0343951 1 49835 0.0343951 1
gene 1 19 12 2.76636 0 51679 2.76636 1
gene 1 15 15 -1.32347 1 52111 -1.32347 1
gene 1 22 12 -1.0868 1 52486 -1.0868 1
gene 1 7 23 -0.796125 0 57543 -0.796125 1
gene 1 1 22 -0.342792 0 57734 -0.342792 1
gene 1 229 21 0.488603 0 57955 0.488603 1
gene 1 21 21 -0.149175 1 58518 -0.149175 1
gene 1 1 25 0.355368 0 58716 0.355368 1
gene 1 291 23 2.74633 0 58970 2.74633 1
gene 1 10 12 -0.404491 0 59183 -0.404491 1
gene 1 27 2339 0.0729806 0 61206 0.0729806 1
gene 1 2339 24 0.903446 0 61207 0.903446 1
gene 1 19 291 1.76295 0 62513 1.76295 1
gene 1 10 19 1.0714 0 63290 1.0714 1
gene 1 18 14 0.278352 1 64089 0.278352 1
gene 1 2339 2339 -1.22678 1 64508 -1.22678 1
gene 1 18 19 -0.869036 0 64753 -0.869036 1
gene 1 17 2477 2.47797 0 65004 2.47797 1
gene 1 2477 16 -0.0705545 0 65005 -0.0705545 1
gene 1 19 19 -2.07448 1 65673 -2.07448 1
gene 1 32 291 -2.01265 0 65937 -2.01265 1
gene 1 13 16 -0.0812767 0 66103 -0.0812767 1
gene 1 15 17 -0.129909 0 66307 -0.129909 1
gene 1 229 2339 -0.136517 1 66943 -0.136517 1
gene 1 22 20 -0.738442 0 66988 -0.738442 1
gene 1 291 291 -0.178423 1 67214 -0.178423 1
gene 1 9 291 -0.394324 0 67469 -0.394324 1
genomeend 744
