/* Organism #79636688 Fitness: -3.25134e+06 
genomestart 676
trait 1 0.00957491 0.0183573 0.159371 0.239488 0.998532 0.987126 0.136325 0.301885 
node 1 1 0
node 2 1 1
node 3 1 1
node 4 1 1
node 5 1 1
node 6 1 1
node 7 1 1
node 8 1 1
node 9 1 1
node 10 1 1
node 11 1 1
node 12 1 2
node 13 1 2
node 14 1 2
node 15 1 2
node 16 1 2
node 17 1 2
node 18 1 2
node 19 1 2
node 20 1 2
node 21 1 2
node 22 1 2
node 23 1 2
node 24 1 2
node 25 1 2
node 29 1 3
node 30 1 3
node 153 1 3
node 515 1 3
node 785 1 3
node 1061 1 3
node 1071 1 3
node 1120 1 3
node 1268 1 3
node 1598 1 3
node 1901 1 3
node 2133 1 3
gene 1 1 30 7.059 0 5 7.059 1
gene 1 3 29 -4.56691 0 24 -4.56691 1
gene 1 3 30 -0.685858 0 25 -0.685858 1
gene 1 6 29 -1.00543 0 54 -1.00543 1
gene 1 6 30 -2.85392 0 55 -2.85392 1
gene 1 7 30 0.549771 0 65 0.549771 1
gene 1 8 30 1.93315 0 75 1.93315 1
gene 1 9 29 -4.63596 0 84 -4.63596 1
gene 1 11 29 -0.232287 0 104 -0.232287 1
gene 1 11 30 1.13917 0 105 1.13917 1
gene 1 29 17 6.63109 0 158 6.63109 1
gene 1 29 21 -0.565537 0 162 -0.565537 1
gene 1 29 22 0.36536 0 163 0.36536 1
gene 1 30 12 -2.67427 0 167 -2.67427 1
gene 1 30 13 -2.48781 0 168 -2.48781 1
gene 1 30 14 7.14553 0 169 7.14553 1
gene 1 30 16 3.1448 0 171 3.1448 1
gene 1 30 17 0.020177 0 172 0.020177 1
gene 1 30 18 4.14222 0 173 4.14222 1
gene 1 30 20 -7.49763 0 175 -7.49763 1
gene 1 30 21 -5.26897 0 176 -5.26897 1
gene 1 30 24 -4.86163 0 179 -4.86163 1
gene 1 30 25 -4.3781 0 180 -4.3781 1
gene 1 12 30 1.2967 1 1016 1.2967 1
gene 1 12 15 0.0468791 0 1541 0.0468791 1
gene 1 20 23 7.28449 0 2265 7.28449 1
gene 1 17 23 -2.14926 0 2627 -2.14926 1
gene 1 14 12 -1.63348 0 3779 -1.63348 1
gene 1 8 14 -1.09023 0 4150 -1.09023 1
gene 1 24 15 4.49833 0 4645 4.49833 1
gene 1 9 24 -6.07469 0 5678 -6.07469 1
gene 1 14 15 1.88918 0 6058 1.88918 1
gene 1 23 24 -4.96843 0 8451 -4.96843 1
gene 1 3 16 1.5254 0 8660 1.5254 1
gene 1 21 22 1.73252 0 8966 1.73252 1
gene 1 16 20 -4.45011 0 11062 -4.45011 1
gene 1 30 30 -0.174316 1 12409 -0.174316 1
gene 1 14 153 5.8077 0 13783 5.8077 1
gene 1 1 23 -0.522858 0 14376 -0.522858 1
gene 1 6 23 5.37188 0 15739 5.37188 1
gene 1 17 24 -2.45801 0 16425 -2.45801 1
gene 1 7 13 -2.50862 0 17424 -2.50862 1
gene 1 25 25 1.8984 1 17432 1.8984 1
gene 1 515 12 5.39408 0 18977 5.39408 1
gene 1 5 515 5.34493 0 21416 5.34493 1
gene 1 3 785 -0.385818 0 21971 -0.385818 1
gene 1 515 515 3.25518 1 22177 3.25518 1
gene 1 14 14 6.40059 1 23654 6.40059 1
gene 1 8 16 3.62546 0 24362 3.62546 1
gene 1 785 19 -5.80605 0 24980 -5.80605 1
gene 1 515 29 -3.54929 0 25060 -3.54929 1
gene 1 10 22 2.66783 0 25215 2.66783 1
gene 1 19 19 1.01486 1 25757 1.01486 1
gene 1 9 22 -0.252476 0 25968 -0.252476 1
gene 1 10 25 -7.35612 0 26747 -7.35612 1
gene 1 17 17 -2.41379 1 26892 -2.41379 1
gene 1 16 15 -1.48011 0 27312 -1.48011 1
gene 1 10 13 3.02651 0 28264 3.02651 1
gene 1 12 21 -1.67813 0 28413 -1.67813 1
gene 1 29 1061 6.63121 0 28559 6.63121 1
gene 1 1071 29 -2.85168 0 28785 -2.85168 1
gene 1 25 785 -2.14517 0 29238 -2.14517 1
gene 1 14 25 -5.07977 0 29600 -5.07977 1
gene 1 1120 19 -2.36137 0 29818 -2.36137 1
gene 1 30 22 -1.31396 0 31297 -1.31396 1
gene 1 19 20 0.348277 0 33018 0.348277 1
gene 1 14 1268 -0.251349 0 33573 -0.251349 1
gene 1 1268 24 -0.56918 0 33574 -0.56918 1
gene 1 7 1071 -0.999396 0 33917 -0.999396 1
gene 1 785 18 0.0327198 0 34569 0.0327198 1
gene 1 515 16 -0.812451 0 34763 -0.812451 1
gene 1 1061 30 -3.94291 0 36145 -3.94291 1
gene 1 24 21 -0.0913174 1 36695 -0.0913174 1
gene 1 12 13 0.164452 0 36818 0.164452 1
gene 1 13 153 0.249215 0 37329 0.249215 1
gene 1 1061 1061 -4.21605 1 37494 -4.21605 1
gene 1 23 23 7.54245 1 40529 7.54245 1
gene 1 7 25 5.92843 0 40838 5.92843 1
gene 1 2 22 0.381783 0 42257 0.381783 1
gene 1 18 17 1.14332 0 42457 1.14332 1
gene 1 2 1598 -0.917319 0 42644 -0.917319 1
gene 1 1598 19 0.9247 0 42645 0.9247 1
gene 1 5 17 -4.09392 0 43649 -4.09392 1
gene 1 1 1120 1.69812 0 43983 1.69812 1
gene 1 23 21 -2.39827 0 44943 -2.39827 1
gene 1 1071 1268 -2.74 0 45021 -2.74 1
gene 1 16 1598 -0.179115 0 45518 -0.179115 1
gene 1 515 785 0.191971 0 46127 0.191971 1
gene 1 1071 25 -3.24023 0 46726 -3.24023 1
gene 1 19 21 2.68578 0 49211 2.68578 1
gene 1 1061 16 1.10156 0 49422 1.10156 1
gene 1 1120 25 0.585861 0 50337 0.585861 1
gene 1 1120 30 0.544336 0 50796 0.544336 1
gene 1 1901 1071 -0.866176 0 51005 -0.866176 1
gene 1 1 24 -4.55128 0 51444 -4.55128 1
gene 1 30 1598 0.723331 0 51873 0.723331 1
gene 1 13 12 0.811112 1 52700 0.811112 1
gene 1 18 22 -1.46704 0 53402 -1.46704 1
gene 1 4 23 -3.64344 0 53612 -3.64344 1
gene 1 14 13 -1.9758 0 53820 -1.9758 1
gene 1 4 1268 0.820526 0 57444 0.820526 1
gene 1 9 2133 -0.282541 0 58053 -0.282541 1
gene 1 2133 16 -0.485379 0 58054 -0.485379 1
gene 1 29 29 2.5655 1 58322 2.5655 1
gene 1 1598 1598 2.03136 1 58497 2.03136 1
gene 1 6 1071 4.65316 0 59566 4.65316 1
gene 1 785 17 0.507238 0 59768 0.507238 1
gene 1 19 13 -0.946488 0 61248 -0.946488 1
gene 1 11 14 -0.731037 0 61849 -0.731037 1
gene 1 30 15 -3.16653 0 62086 -3.16653 1
gene 1 5 2133 -0.191633 0 62498 -0.191633 1
gene 1 10 14 3.60083 0 62735 3.60083 1
gene 1 16 16 -0.997792 1 63219 -0.997792 1
gene 1 5 30 2.55733 0 63617 2.55733 1
gene 1 1071 18 -3.68519 0 64218 -3.68519 1
gene 1 29 785 2.22877 0 64645 2.22877 1
gene 1 153 21 -1.88712 0 64853 -1.88712 1
gene 1 24 22 0.434189 0 66092 0.434189 1
gene 1 2 515 1.11105 0 66489 1.11105 1
gene 1 20 16 0.0720021 1 67135 0.0720021 1
gene 1 1598 24 -0.293823 0 67992 -0.293823 1
gene 1 9 14 1.22651 0 68531 1.22651 1
gene 1 14 24 1.39241 0 68927 1.39241 1
gene 1 10 515 -0.794577 0 69750 -0.794577 1
genomeend 676
