/* Organism #140237229959208 Fitness: -3.24887e+06 
genomestart 347
trait 1 0.721795 0.614544 1 1 0.33543 0.158719 0 0 
node 1 1 0
node 2 1 1
node 3 1 1
node 4 1 1
node 5 1 1
node 6 1 1
node 7 1 1
node 8 1 1
node 9 1 1
node 10 1 1
node 11 1 1
node 12 1 2
node 13 1 2
node 14 1 2
node 15 1 2
node 16 1 2
node 17 1 2
node 18 1 2
node 19 1 2
node 20 1 2
node 21 1 2
node 22 1 2
node 23 1 2
node 24 1 2
node 25 1 2
node 27 1 3
node 33 1 3
node 590 1 3
node 659 1 3
node 1411 1 3
node 1583 1 3
node 2140 1 3
node 2172 1 3
node 2451 1 3
gene 1 1 27 -2.70172 0 2 -2.70172 1
gene 1 1 33 3.89484 0 8 3.89484 1
gene 1 3 27 -0.716807 0 22 -0.716807 1
gene 1 3 33 4.37898 0 28 4.37898 1
gene 1 4 27 1.02641 0 32 1.02641 1
gene 1 4 33 1.74094 0 38 1.74094 1
gene 1 5 27 -2.46832 0 42 -2.46832 1
gene 1 5 33 6.80426 0 48 6.80426 1
gene 1 6 27 -2.29928 0 52 -2.29928 1
gene 1 6 33 1.23289 0 58 1.23289 1
gene 1 7 27 -3.85498 0 62 -3.85498 1
gene 1 7 33 -4.36581 0 68 -4.36581 1
gene 1 8 33 -0.569918 0 78 -0.569918 1
gene 1 10 27 -0.203519 0 92 -0.203519 1
gene 1 10 33 -3.71016 0 98 -3.71016 1
gene 1 11 33 -6.98067 0 108 -6.98067 1
gene 1 27 12 -1.3465 0 125 -1.3465 1
gene 1 27 13 -1.45163 0 126 -1.45163 1
gene 1 27 14 -2.82861 0 127 -2.82861 1
gene 1 27 15 1.6198 0 128 1.6198 1
gene 1 27 16 -5.48767 0 129 -5.48767 1
gene 1 27 19 -1.98185 0 132 -1.98185 1
gene 1 27 20 5.61477 0 133 5.61477 1
gene 1 27 22 2.98298 0 135 2.98298 1
gene 1 27 23 2.30834 0 136 2.30834 1
gene 1 33 12 5.42351 0 209 5.42351 1
gene 1 33 15 2.62331 0 212 2.62331 1
gene 1 33 17 -3.70825 0 214 -3.70825 1
gene 1 33 18 -1.89276 0 215 -1.89276 1
gene 1 33 19 2.89022 0 216 2.89022 1
gene 1 33 21 -3.69803 0 218 -3.69803 1
gene 1 33 24 -5.43659 0 221 -5.43659 1
gene 1 19 24 1.08021 0 4342 1.08021 1
gene 1 25 18 3.79775 0 4781 3.79775 1
gene 1 20 24 -0.223663 0 5413 -0.223663 1
gene 1 14 24 -0.604168 0 7432 -0.604168 1
gene 1 21 25 -1.55664 0 8582 -1.55664 1
gene 1 15 12 -0.00398934 0 11392 -0.00398934 1
gene 1 15 20 0.522537 0 11546 0.522537 1
gene 1 4 20 -2.04271 0 11806 -2.04271 1
gene 1 13 22 4.54038 0 12009 4.54038 1
gene 1 12 12 -7.80959 1 12218 -7.80959 1
gene 1 22 20 0.566098 0 12408 0.566098 1
gene 1 23 13 -0.34041 0 12861 -0.34041 1
gene 1 8 24 -1.41779 0 13140 -1.41779 1
gene 1 1 19 5.31289 0 13368 5.31289 1
gene 1 24 24 -1.35026 1 14244 -1.35026 1
gene 1 18 18 2.57935 1 14459 2.57935 1
gene 1 25 24 -1.94725 0 16042 -1.94725 1
gene 1 18 590 -0.899119 0 17163 -0.899119 1
gene 1 25 23 1.48401 0 17449 1.48401 1
gene 1 27 27 1.85997 1 17867 1.85997 1
gene 1 25 25 -1.49973 1 18075 -1.49973 1
gene 1 13 13 -1.72697 1 19288 -1.72697 1
gene 1 9 21 1.67816 0 19608 1.67816 1
gene 1 2 14 0.130778 0 19693 0.130778 1
gene 1 22 18 5.43556 0 20128 5.43556 1
gene 1 20 18 -5.66888 0 22638 -5.66888 1
gene 1 18 19 -0.931325 0 24003 -0.931325 1
gene 1 8 13 -1.41848 0 24557 -1.41848 1
gene 1 1 13 -1.42773 0 25001 -1.42773 1
gene 1 33 16 -0.329395 0 25324 -0.329395 1
gene 1 3 12 3.68362 0 25394 3.68362 1
gene 1 15 18 -1.54985 0 25615 -1.54985 1
gene 1 1 15 -0.552032 0 27406 -0.552032 1
gene 1 22 22 3.26475 1 28058 3.26475 1
gene 1 7 590 1.84579 0 28216 1.84579 1
gene 1 16 19 -7.49683 0 28625 -7.49683 1
gene 1 3 19 2.67776 0 29352 2.67776 1
gene 1 20 20 -0.618254 1 29566 -0.618254 1
gene 1 23 23 2.45431 1 31419 2.45431 1
gene 1 12 590 3.79711 0 32090 3.79711 1
gene 1 12 17 3.36406 0 34684 3.36406 1
gene 1 15 13 -2.77124 0 34857 -2.77124 1
gene 1 17 21 1.48892 0 35849 1.48892 1
gene 1 3 24 -0.917647 0 37541 -0.917647 1
gene 1 18 27 -1.19394 1 38443 -1.19394 1
gene 1 33 590 1.14046 0 38848 1.14046 1
gene 1 14 20 0.366011 0 39239 0.366011 1
gene 1 1411 19 -2.58563 0 39667 -2.58563 1
gene 1 24 19 -0.648543 1 39877 -0.648543 1
gene 1 19 19 0.58313 1 40093 0.58313 1
gene 1 14 17 3.68104 1 40720 3.68104 1
gene 1 590 590 -2.95284 1 41282 -2.95284 1
gene 1 2 1583 1.60149 0 41760 1.60149 1
gene 1 17 14 -1.39945 0 42059 -1.39945 1
gene 1 9 1411 8 0 42262 8 1
gene 1 2 18 3.14767 0 43204 3.14767 1
gene 1 21 24 4.69445 0 44212 4.69445 1
gene 1 6 659 0.296067 0 44826 0.296067 1
gene 1 8 1411 -0.982259 0 45670 -0.982259 1
gene 1 7 19 1.74297 0 46116 1.74297 1
gene 1 14 14 2.99593 1 47774 2.99593 1
gene 1 5 12 0.975749 0 49052 0.975749 1
gene 1 17 659 0.90446 0 49409 0.90446 1
gene 1 9 19 -2.42918 0 49690 -2.42918 1
gene 1 21 21 -2.46867 1 52382 -2.46867 1
gene 1 1 21 -1.22557 0 52540 -1.22557 1
gene 1 3 16 -3.07148 0 53124 -3.07148 1
gene 1 659 659 3.61052 1 53318 3.61052 1
gene 1 590 24 1.01631 0 53542 1.01631 1
gene 1 7 16 -2.37315 0 53784 -2.37315 1
gene 1 11 20 1.30325 0 53948 1.30325 1
gene 1 17 17 1.06103 1 54138 1.06103 1
gene 1 21 15 -0.252413 0 54646 -0.252413 1
gene 1 2 24 -0.00669324 0 54847 -0.00669324 1
gene 1 12 14 -0.407948 0 55056 -0.407948 1
gene 1 659 18 0.761666 1 55457 0.761666 1
gene 1 3 13 0.384129 0 55693 0.384129 1
gene 1 25 15 -0.906509 1 57265 -0.906509 1
gene 1 5 659 -1.31145 0 57457 -1.31145 1
gene 1 25 2172 -1.37322 0 58541 -1.37322 1
gene 1 2172 14 -0.629257 0 58542 -0.629257 1
gene 1 12 1583 -0.639031 0 58951 -0.639031 1
gene 1 33 13 0.256697 0 59778 0.256697 1
gene 1 8 25 -0.506171 0 60204 -0.506171 1
gene 1 33 33 0.305322 1 60417 0.305322 1
gene 1 8 23 1.15447 0 61507 1.15447 1
gene 1 1583 1583 -1.34914 1 61658 -1.34914 1
gene 1 16 16 -1.3538 1 61844 -1.3538 1
gene 1 4 2140 1.11615 0 62128 1.11615 1
gene 1 21 27 1.21666 0 62506 1.21666 1
gene 1 1411 2140 -0.631372 1 64090 -0.631372 1
gene 1 16 2172 -0.964463 0 64486 -0.964463 1
gene 1 22 14 -1.39892 0 64910 -1.39892 1
gene 1 1 20 -0.394926 0 65120 -0.394926 1
gene 1 1411 2451 1.45178 0 66160 1.45178 1
gene 1 2451 12 -3.35763 0 66161 -3.35763 1
gene 1 659 20 0.0979795 0 66296 0.0979795 1
gene 1 12 25 0.761691 0 66792 0.761691 1
gene 1 14 18 -0.226782 0 66986 -0.226782 1
gene 1 6 19 0.0649771 0 68197 0.0649771 1
gene 1 13 14 0.594811 0 68616 0.594811 1
gene 1 6 20 0.847412 0 68823 0.847412 1
genomeend 347
