/* Organism #28799440 Fitness: -3.50064e+06 
genomestart 492
trait 1 0.0684197 0.340448 0.932584 0.872012 1 1 1 0.471922 
node 1 1 0
node 2 1 1
node 3 1 1
node 4 1 1
node 5 1 1
node 6 1 1
node 7 1 1
node 8 1 1
node 9 1 1
node 10 1 1
node 11 1 1
node 12 1 2
node 13 1 2
node 14 1 2
node 15 1 2
node 16 1 2
node 17 1 2
node 18 1 2
node 19 1 2
node 20 1 2
node 21 1 2
node 22 1 2
node 23 1 2
node 24 1 2
node 25 1 2
node 27 1 3
node 30 1 3
node 615 1 3
node 1117 1 3
node 1530 1 3
node 1565 1 3
node 1663 1 3
node 1754 1 3
node 1808 1 3
node 2127 1 3
node 2154 1 3
node 2281 1 3
node 2590 1 3
gene 1 1 27 6.06043 0 2 6.06043 1
gene 1 1 30 1.61681 0 5 1.61681 1
gene 1 2 27 -1.14413 0 12 -1.14413 1
gene 1 2 30 0.686798 0 15 0.686798 1
gene 1 3 30 -6.31664 0 25 -6.31664 1
gene 1 4 27 -3.17133 0 32 -3.17133 1
gene 1 6 27 1.50046 0 52 1.50046 1
gene 1 8 30 0.751039 0 75 0.751039 1
gene 1 9 27 2.15042 0 82 2.15042 1
gene 1 9 30 -1.5344 0 85 -1.5344 1
gene 1 27 12 -2.74838 0 125 -2.74838 1
gene 1 27 13 4.1827 0 126 4.1827 1
gene 1 27 14 5.80383 0 127 5.80383 1
gene 1 27 15 -0.702109 0 128 -0.702109 1
gene 1 27 20 -1.7407 0 133 -1.7407 1
gene 1 27 21 -3.95436 0 134 -3.95436 1
gene 1 27 24 -5.01377 0 137 -5.01377 1
gene 1 27 25 4.42028 0 138 4.42028 1
gene 1 30 12 3.20671 0 167 3.20671 1
gene 1 30 14 2.05664 0 169 2.05664 1
gene 1 30 15 1.63889 0 170 1.63889 1
gene 1 30 16 4.43062 0 171 4.43062 1
gene 1 30 17 2.48251 0 172 2.48251 1
gene 1 30 22 -3.7712 0 177 -3.7712 1
gene 1 30 23 -1.28647 0 178 -1.28647 1
gene 1 17 23 -4.21709 0 2440 -4.21709 1
gene 1 4 15 -5.48662 0 3230 -5.48662 1
gene 1 17 17 1.56225 1 3767 1.56225 1
gene 1 13 21 -2.62874 0 4849 -2.62874 1
gene 1 21 16 0.955725 0 5874 0.955725 1
gene 1 2 23 -0.248954 0 6619 -0.248954 1
gene 1 20 20 -2.52888 1 8930 -2.52888 1
gene 1 23 20 -0.710817 0 9732 -0.710817 1
gene 1 21 21 -2.97516 1 11715 -2.97516 1
gene 1 24 12 0.601427 0 12760 0.601427 1
gene 1 1 16 -5.23403 0 13143 -5.23403 1
gene 1 5 12 6.13219 0 14409 6.13219 1
gene 1 8 615 -0.264072 0 14986 -0.264072 1
gene 1 30 19 1.39387 0 17003 1.39387 1
gene 1 7 615 0.0763825 0 18820 0.0763825 1
gene 1 5 16 1.69581 0 20208 1.69581 1
gene 1 15 15 0.384991 1 21552 0.384991 1
gene 1 20 13 0.450042 0 23847 0.450042 1
gene 1 7 17 -0.623289 0 24242 -0.623289 1
gene 1 12 15 4.10582 0 25734 4.10582 1
gene 1 3 615 -1.58806 0 26504 -1.58806 1
gene 1 18 18 -0.719311 1 27552 -0.719311 1
gene 1 1117 14 -1.83285 0 28286 -1.83285 1
gene 1 18 13 0.368031 0 28822 0.368031 1
gene 1 27 27 -0.763143 1 29444 -0.763143 1
gene 1 14 18 -2.25178 0 29828 -2.25178 1
gene 1 27 1117 1.86191 0 30997 1.86191 1
gene 1 24 25 6.94844 0 32228 6.94844 1
gene 1 615 615 -0.955478 1 33050 -0.955478 1
gene 1 7 25 -2.75346 0 33903 -2.75346 1
gene 1 23 23 4.53783 1 33948 4.53783 1
gene 1 3 21 -3.53053 0 35688 -3.53053 1
gene 1 18 20 0.956393 0 38123 0.956393 1
gene 1 1530 17 4.67447 0 38931 4.67447 1
gene 1 23 16 2.79494 0 40617 2.79494 1
gene 1 4 1663 -3.53938 0 42447 -3.53938 1
gene 1 1663 22 4.16125 0 42448 4.16125 1
gene 1 27 1530 -0.223795 0 44933 -0.223795 1
gene 1 10 1754 1.23487 0 45306 1.23487 1
gene 1 1754 12 0.567565 0 45307 0.567565 1
gene 1 14 17 0.597577 0 45689 0.597577 1
gene 1 22 18 1.59276 0 46468 1.59276 1
gene 1 1808 21 -2.67163 0 46686 -2.67163 1
gene 1 10 23 1.11194 0 47773 1.11194 1
gene 1 13 13 -2.19994 1 48449 -2.19994 1
gene 1 16 16 2.59172 1 48635 2.59172 1
gene 1 1808 20 -4.5259 0 49302 -4.5259 1
gene 1 4 1117 0.0407737 0 49748 0.0407737 1
gene 1 1663 1663 -1.49737 1 51348 -1.49737 1
gene 1 1565 1565 -1.28112 1 52239 -1.28112 1
gene 1 1530 16 3.49932 0 52615 3.49932 1
gene 1 1808 25 0.352841 0 53684 0.352841 1
gene 1 5 13 3.35431 0 53902 3.35431 1
gene 1 10 2127 2.35563 0 55510 2.35563 1
gene 1 2127 21 0.940236 0 55511 0.940236 1
gene 1 1530 1530 1.58017 1 55675 1.58017 1
gene 1 615 2154 2.70913 0 56232 2.70913 1
gene 1 2127 2127 0.279621 1 56667 0.279621 1
gene 1 2154 16 -1.65627 0 56856 -1.65627 1
gene 1 2 12 -1.78715 0 57226 -1.78715 1
gene 1 1808 1754 0.343569 0 57506 0.343569 1
gene 1 1808 1808 0.321833 1 57643 0.321833 1
gene 1 14 2127 -3.15605 0 58878 -3.15605 1
gene 1 9 2154 -1.40835 0 59057 -1.40835 1
gene 1 8 2281 1.5351 0 59760 1.5351 1
gene 1 1754 1754 0.778146 1 60638 0.778146 1
gene 1 25 25 0.0619123 1 61365 0.0619123 1
gene 1 1117 1117 0.776045 1 61615 0.776045 1
gene 1 2 16 -1.1103 0 61785 -1.1103 1
gene 1 4 21 2.22565 0 61933 2.22565 1
gene 1 1 1663 -1.39234 0 62114 -1.39234 1
gene 1 1530 25 1.50294 0 62536 1.50294 1
gene 1 12 2154 2.18766 0 62864 2.18766 1
gene 1 9 15 1.47148 0 63014 1.47148 1
gene 1 9 1565 -1.31199 0 63314 -1.31199 1
gene 1 3 24 -0.811208 0 63745 -0.811208 1
gene 1 5 615 -3.06175 0 64404 -3.06175 1
gene 1 5 1117 -4.0866 0 64826 -4.0866 1
gene 1 615 12 0.432746 0 65758 0.432746 1
gene 1 8 2127 0.912548 0 65959 0.912548 1
gene 1 1754 30 -0.294193 0 66640 -0.294193 1
gene 1 11 2154 1.62087 0 66738 1.62087 1
gene 1 18 2590 1.15431 0 68278 1.15431 1
gene 1 2590 1530 -0.521174 0 68279 -0.521174 1
genomeend 492
