/* Organism #46895936 Fitness: -3.50287e+06 
genomestart 345
trait 1 0.327036 0 0.235801 0.71564 0.0175119 0.991018 0.945427 0.976579 
node 1 1 0
node 2 1 1
node 3 1 1
node 4 1 1
node 5 1 1
node 6 1 1
node 7 1 1
node 8 1 1
node 9 1 1
node 10 1 1
node 11 1 1
node 12 1 2
node 13 1 2
node 14 1 2
node 15 1 2
node 16 1 2
node 17 1 2
node 18 1 2
node 19 1 2
node 20 1 2
node 21 1 2
node 22 1 2
node 23 1 2
node 24 1 2
node 25 1 2
node 29 1 3
node 32 1 3
node 34 1 3
node 516 1 3
node 899 1 3
node 1167 1 3
node 1397 1 3
gene 1 1 29 -7.7 0 4 -7.7 1
gene 1 1 32 7.0943 0 7 7.0943 1
gene 1 1 34 7.64284 0 9 7.64284 1
gene 1 2 29 1.07174 0 14 1.07174 1
gene 1 2 34 3.81831 0 19 3.81831 1
gene 1 3 29 0.776773 0 24 0.776773 1
gene 1 3 34 -0.0835644 0 29 -0.0835644 1
gene 1 4 29 2.59166 0 34 2.59166 1
gene 1 4 34 6.36302 0 39 6.36302 1
gene 1 5 29 -6.64532 0 44 -6.64532 1
gene 1 5 32 -0.247144 0 47 -0.247144 1
gene 1 5 34 1.56311 0 49 1.56311 1
gene 1 6 32 0.186525 0 57 0.186525 1
gene 1 6 34 -0.111508 0 59 -0.111508 1
gene 1 7 29 7.77721 0 64 7.77721 1
gene 1 7 32 2.27016 0 67 2.27016 1
gene 1 8 34 5.96061 0 79 5.96061 1
gene 1 9 29 1.62819 0 84 1.62819 1
gene 1 9 32 0.616503 0 87 0.616503 1
gene 1 10 29 1.33131 0 94 1.33131 1
gene 1 10 34 -0.164159 0 99 -0.164159 1
gene 1 11 29 -2.03592 0 104 -2.03592 1
gene 1 29 12 -6.17703 0 153 -6.17703 1
gene 1 29 14 -2.34427 0 155 -2.34427 1
gene 1 29 18 -8 0 159 -8 1
gene 1 29 21 1.07815 0 162 1.07815 1
gene 1 29 24 7.80055 0 165 7.80055 1
gene 1 32 12 4.8328 0 195 4.8328 1
gene 1 32 13 4.28254 0 196 4.28254 1
gene 1 32 14 5.24105 0 197 5.24105 1
gene 1 32 16 -6.34881 0 199 -6.34881 1
gene 1 32 18 -6.31835 0 201 -6.31835 1
gene 1 32 20 -1.75718 0 203 -1.75718 1
gene 1 32 22 -3.4995 0 205 -3.4995 1
gene 1 32 23 -3.59157 0 206 -3.59157 1
gene 1 32 25 -0.36922 0 208 -0.36922 1
gene 1 34 14 7.71871 0 225 7.71871 1
gene 1 34 15 2.56064 0 226 2.56064 1
gene 1 34 18 -0.612656 0 229 -0.612656 1
gene 1 34 21 -4.33227 0 232 -4.33227 1
gene 1 34 23 -1.12275 0 234 -1.12275 1
gene 1 34 25 0.820673 0 236 0.820673 1
gene 1 21 19 1.30525 0 4687 1.30525 1
gene 1 32 34 -0.669173 0 5578 -0.669173 1
gene 1 6 17 1.9976 0 7367 1.9976 1
gene 1 9 19 -3.30771 0 7971 -3.30771 1
gene 1 9 16 -1.80383 0 10638 -1.80383 1
gene 1 4 13 -3.36613 0 10958 -3.36613 1
gene 1 32 29 2.89893 0 11172 2.89893 1
gene 1 16 23 0.942995 0 11572 0.942995 1
gene 1 22 14 -6.95029 0 11651 -6.95029 1
gene 1 29 516 -1.21375 0 13246 -1.21375 1
gene 1 516 25 -0.0456172 0 13247 -0.0456172 1
gene 1 25 16 -5.42611 0 13428 -5.42611 1
gene 1 4 17 -8 0 13992 -8 1
gene 1 21 13 -2.51819 0 14390 -2.51819 1
gene 1 25 15 -1.47616 0 14915 -1.47616 1
gene 1 3 20 4.23791 0 15521 4.23791 1
gene 1 9 12 -0.460328 0 15583 -0.460328 1
gene 1 2 21 1.09996 0 16503 1.09996 1
gene 1 3 18 -3.2055 0 16927 -3.2055 1
gene 1 18 23 -5.03559 0 19333 -5.03559 1
gene 1 21 32 -2.33564 1 19734 -2.33564 1
gene 1 21 516 1.12657 1 19966 1.12657 1
gene 1 24 25 3.07297 0 20324 3.07297 1
gene 1 29 13 2.64464 0 21264 2.64464 1
gene 1 8 15 1.36167 0 22065 1.36167 1
gene 1 5 20 -0.420091 0 22982 -0.420091 1
gene 1 899 18 -0.460275 0 23931 -0.460275 1
gene 1 4 21 -1.04203 0 24222 -1.04203 1
gene 1 9 17 -4.15073 0 25515 -4.15073 1
gene 1 5 14 1.06597 0 26265 1.06597 1
gene 1 7 24 3.79039 0 26336 3.79039 1
gene 1 25 18 0.152169 0 26642 0.152169 1
gene 1 24 23 2.25121 0 26860 2.25121 1
gene 1 4 16 1.18721 0 26988 1.18721 1
gene 1 7 34 -4.48118 0 27307 -4.48118 1
gene 1 899 899 5.58078 1 27672 5.58078 1
gene 1 12 13 -4.92643 0 27945 -4.92643 1
gene 1 10 17 -3.82884 0 29005 -3.82884 1
gene 1 5 15 0.402906 0 30370 0.402906 1
gene 1 14 899 3.96772 0 30615 3.96772 1
gene 1 516 899 2.09381 0 30774 2.09381 1
gene 1 23 23 -2.58093 1 31020 -2.58093 1
gene 1 8 13 -3.25615 0 31170 -3.25615 1
gene 1 3 1167 4.26644 0 31324 4.26644 1
gene 1 1167 14 4.13397 0 31325 4.13397 1
gene 1 3 19 0.791874 0 32382 0.791874 1
gene 1 8 899 4.41203 0 33042 4.41203 1
gene 1 23 21 2.14443 0 34405 2.14443 1
gene 1 1167 899 -2.56161 0 34628 -2.56161 1
gene 1 6 13 1.07396 0 34818 1.07396 1
gene 1 13 19 5.05456 0 35145 5.05456 1
gene 1 29 29 3.94567 1 35593 3.94567 1
gene 1 25 899 -0.818899 0 36190 -0.818899 1
gene 1 1397 16 2.9745 0 36599 2.9745 1
gene 1 22 19 -1.17314 0 37231 -1.17314 1
gene 1 21 21 3.62129 1 37466 3.62129 1
gene 1 11 20 0.204264 0 38224 0.204264 1
gene 1 1397 1397 -2.24684 1 38774 -2.24684 1
gene 1 1397 19 1.37185 0 38987 1.37185 1
gene 1 10 24 1.08697 0 39121 1.08697 1
gene 1 13 21 2.83101 1 39471 2.83101 1
gene 1 14 14 -1.71036 1 40551 -1.71036 1
gene 1 24 15 -0.239765 0 40833 -0.239765 1
gene 1 15 15 1.3159 1 40941 1.3159 1
gene 1 19 19 1.25384 1 41714 1.25384 1
gene 1 2 17 3.56093 0 42093 3.56093 1
gene 1 7 15 3.52808 0 42852 3.52808 1
gene 1 516 21 -4.02553 0 43438 -4.02553 1
gene 1 24 21 1.02154 0 45595 1.02154 1
gene 1 13 13 -2.61631 1 45779 -2.61631 1
gene 1 8 22 -1.43973 0 47320 -1.43973 1
gene 1 3 32 1.03128 0 47980 1.03128 1
gene 1 6 1397 -0.923303 0 48190 -0.923303 1
gene 1 29 1167 -0.885632 0 49259 -0.885632 1
gene 1 21 17 0.293177 0 49513 0.293177 1
gene 1 12 899 -3.92239 1 49995 -3.92239 1
gene 1 19 23 -0.220322 0 50433 -0.220322 1
gene 1 19 516 0.624622 0 50560 0.624622 1
gene 1 1 15 -1.17578 0 51109 -1.17578 1
gene 1 34 34 -1.37141 1 51289 -1.37141 1
gene 1 20 14 -0.810599 0 52227 -0.810599 1
gene 1 17 17 1.93667 1 52519 1.93667 1
gene 1 8 20 -0.382094 0 54645 -0.382094 1
gene 1 15 899 0.0662678 0 55116 0.0662678 1
gene 1 7 14 -0.220484 0 55646 -0.220484 1
gene 1 3 12 1.35632 0 56416 1.35632 1
gene 1 3 23 0.830971 0 57526 0.830971 1
gene 1 25 516 0.901961 1 57710 0.901961 1
gene 1 15 34 -0.896365 1 58704 -0.896365 1
gene 1 3 15 -0.111874 0 58820 -0.111874 1
gene 1 1167 20 0.055249 0 59059 0.055249 1
gene 1 15 20 -0.180716 0 59213 -0.180716 1
gene 1 7 18 -1.55136 0 60178 -1.55136 1
gene 1 18 18 -0.0507569 1 60383 -0.0507569 1
gene 1 7 16 -0.589539 0 60581 -0.589539 1
gene 1 6 516 0.340945 0 60792 0.340945 1
gene 1 34 1167 0.853336 0 61000 0.853336 1
gene 1 4 22 -0.619454 0 61549 -0.619454 1
gene 1 20 20 0.759792 1 61781 0.759792 1
gene 1 10 19 1.84997 0 63001 1.84997 1
gene 1 8 516 1.77988 0 63477 1.77988 1
gene 1 16 16 0.417117 1 63803 0.417117 1
gene 1 4 899 -0.878402 0 64344 -0.878402 1
gene 1 22 24 -0.896612 0 64899 -0.896612 1
gene 1 24 32 -0.340963 1 65298 -0.340963 1
gene 1 899 16 -0.0574296 0 65749 -0.0574296 1
gene 1 32 32 -0.492295 1 65868 -0.492295 1
gene 1 1 24 -0.887742 0 66290 -0.887742 1
gene 1 8 1397 0.214337 0 66701 0.214337 1
genomeend 345
