/* Organism #58470992 Fitness: -3.50315e+06 
genomestart 184
trait 1 0.983565 0.622062 0.502598 0.118577 0.00129514 1 0.119561 0.694889 
node 1 1 0
node 2 1 1
node 3 1 1
node 4 1 1
node 5 1 1
node 6 1 1
node 7 1 1
node 8 1 1
node 9 1 1
node 10 1 1
node 11 1 1
node 12 1 2
node 13 1 2
node 14 1 2
node 15 1 2
node 16 1 2
node 17 1 2
node 18 1 2
node 19 1 2
node 20 1 2
node 21 1 2
node 22 1 2
node 23 1 2
node 24 1 2
node 25 1 2
node 27 1 3
node 28 1 3
node 29 1 3
node 34 1 3
node 1407 1 3
node 1719 1 3
node 1804 1 3
node 2057 1 3
node 2319 1 3
node 2338 1 3
node 2502 1 3
gene 1 1 27 -0.559708 0 2 -0.559708 1
gene 1 1 28 -2.75582 0 3 -2.75582 1
gene 1 1 29 4.44132 0 4 4.44132 1
gene 1 1 34 -5.94128 0 9 -5.94128 1
gene 1 3 27 2.93962 0 22 2.93962 1
gene 1 3 29 -0.628541 0 24 -0.628541 1
gene 1 3 34 0.26938 0 29 0.26938 1
gene 1 4 27 1.75211 0 32 1.75211 1
gene 1 4 28 -0.70732 0 33 -0.70732 1
gene 1 4 29 -1.58981 0 34 -1.58981 1
gene 1 4 34 0.028332 0 39 0.028332 1
gene 1 5 27 -2.92621 0 42 -2.92621 1
gene 1 5 28 -2.27271 0 43 -2.27271 1
gene 1 5 29 0.66818 0 44 0.66818 1
gene 1 6 27 -0.32189 0 52 -0.32189 1
gene 1 6 34 0.4924 0 59 0.4924 1
gene 1 7 27 5.12392 0 62 5.12392 1
gene 1 7 29 -0.138321 0 64 -0.138321 1
gene 1 8 27 -1.14803 0 72 -1.14803 1
gene 1 8 28 2.16989 0 73 2.16989 1
gene 1 8 29 -5.87018 0 74 -5.87018 1
gene 1 9 27 -1.2736 0 82 -1.2736 1
gene 1 9 28 -3.09014 0 83 -3.09014 1
gene 1 9 29 -1.43882 0 84 -1.43882 1
gene 1 9 34 -0.0628987 0 89 -0.0628987 1
gene 1 10 27 3.31916 0 92 3.31916 1
gene 1 11 27 -0.247787 0 102 -0.247787 1
gene 1 11 28 -1.71378 0 103 -1.71378 1
gene 1 27 12 -7.42596 0 125 -7.42596 1
gene 1 27 14 1.97475 0 127 1.97475 1
gene 1 27 17 -1.88573 0 130 -1.88573 1
gene 1 27 18 1.15581 0 131 1.15581 1
gene 1 27 21 4.96897 0 134 4.96897 1
gene 1 27 24 -0.416667 0 137 -0.416667 1
gene 1 27 25 7.0428 0 138 7.0428 1
gene 1 28 14 -0.64191 0 141 -0.64191 1
gene 1 28 18 7.21641 0 145 7.21641 1
gene 1 28 21 0.809653 0 148 0.809653 1
gene 1 28 22 -1.18348 0 149 -1.18348 1
gene 1 28 23 7.52515 0 150 7.52515 1
gene 1 28 24 2.84201 0 151 2.84201 1
gene 1 29 12 -0.715814 0 153 -0.715814 1
gene 1 29 14 0.405204 0 155 0.405204 1
gene 1 29 15 -1.90069 0 156 -1.90069 1
gene 1 29 16 -3.32982 0 157 -3.32982 1
gene 1 29 18 -1.67447 0 159 -1.67447 1
gene 1 29 20 -1.39141 0 161 -1.39141 1
gene 1 29 21 -6.07385 0 162 -6.07385 1
gene 1 29 22 -2.34774 0 163 -2.34774 1
gene 1 29 23 -2.67581 0 164 -2.67581 1
gene 1 29 24 -0.92769 0 165 -0.92769 1
gene 1 34 12 -6.38936 0 223 -6.38936 1
gene 1 34 13 2.00752 0 224 2.00752 1
gene 1 34 14 -2.13369 0 225 -2.13369 1
gene 1 34 15 2.60004 0 226 2.60004 1
gene 1 34 16 1.44592 0 227 1.44592 1
gene 1 34 17 -0.463689 0 228 -0.463689 1
gene 1 34 18 -2.72382 0 229 -2.72382 1
gene 1 34 20 2.33149 0 231 2.33149 1
gene 1 34 21 -4.24566 0 232 -4.24566 1
gene 1 34 23 -1.12737 0 234 -1.12737 1
gene 1 34 25 1.46841 0 236 1.46841 1
gene 1 15 22 -0.0455461 0 909 -0.0455461 1
gene 1 2 18 -1.46912 0 1537 -1.46912 1
gene 1 19 19 4.04983 1 3641 4.04983 1
gene 1 28 28 2.37138 1 4325 2.37138 1
gene 1 27 34 4.25157 0 4565 4.25157 1
gene 1 11 12 -1.20368 0 4735 -1.20368 1
gene 1 5 22 0.273569 0 5174 0.273569 1
gene 1 20 25 3.23713 0 8075 3.23713 1
gene 1 22 21 1.56582 0 8556 1.56582 1
gene 1 19 16 0.814963 0 8862 0.814963 1
gene 1 15 19 -0.575006 0 9940 -0.575006 1
gene 1 20 27 3.37385 1 10264 3.37385 1
gene 1 21 20 1.15918 0 11850 1.15918 1
gene 1 24 23 -0.851789 0 16120 -0.851789 1
gene 1 18 18 1.29655 1 16229 1.29655 1
gene 1 25 25 0.0193811 1 16432 0.0193811 1
gene 1 16 25 3.61544 0 16650 3.61544 1
gene 1 12 18 -0.759346 0 16774 -0.759346 1
gene 1 10 17 1.89629 0 17170 1.89629 1
gene 1 23 23 -4.57286 1 17749 -4.57286 1
gene 1 18 20 2.16844 0 17971 2.16844 1
gene 1 6 25 3.54763 0 18380 3.54763 1
gene 1 8 24 0.285566 0 18781 0.285566 1
gene 1 24 24 -0.643607 1 18976 -0.643607 1
gene 1 18 21 0.685935 0 19161 0.685935 1
gene 1 3 21 1.01891 0 19888 1.01891 1
gene 1 17 12 6.50615 0 20102 6.50615 1
gene 1 25 19 -2.71425 0 20615 -2.71425 1
gene 1 6 13 -6.03775 0 21586 -6.03775 1
gene 1 12 20 1.62993 0 21774 1.62993 1
gene 1 8 15 1.84069 0 22182 1.84069 1
gene 1 13 18 2.97724 0 22563 2.97724 1
gene 1 12 12 1.55486 1 22773 1.55486 1
gene 1 29 34 -1.51418 0 23214 -1.51418 1
gene 1 22 22 -0.736255 1 25036 -0.736255 1
gene 1 19 24 2.73681 1 26331 2.73681 1
gene 1 3 17 -1.77617 0 27022 -1.77617 1
gene 1 16 16 0.355451 1 28088 0.355451 1
gene 1 13 13 0.0657752 1 28362 0.0657752 1
gene 1 20 20 -0.0239177 1 28511 -0.0239177 1
gene 1 10 15 2.68798 0 28884 2.68798 1
gene 1 21 25 -1.34719 1 29980 -1.34719 1
gene 1 12 15 0.84047 0 31582 0.84047 1
gene 1 18 19 0.517966 0 32746 0.517966 1
gene 1 19 21 2.77464 0 34555 2.77464 1
gene 1 13 15 4.56227 0 35426 4.56227 1
gene 1 7 34 -2.57958 0 36443 -2.57958 1
gene 1 14 1407 0.210965 1 37101 0.210965 1
gene 1 1407 14 -0.961909 0 37102 -0.961909 1
gene 1 6 18 1.18013 0 38678 1.18013 1
gene 1 25 29 0.193866 1 38876 0.193866 1
gene 1 3 12 0.845107 0 40050 0.845107 1
gene 1 23 17 4.59295 0 40264 4.59295 1
gene 1 1 14 1.6845 0 40672 1.6845 1
gene 1 4 19 -1.43295 0 40874 -1.43295 1
gene 1 10 18 0.319021 0 42356 0.319021 1
gene 1 8 14 1.26701 0 42786 1.26701 1
gene 1 24 1407 -0.597559 0 42987 -0.597559 1
gene 1 1 15 -0.972391 0 43586 -0.972391 1
gene 1 17 17 -0.0122645 1 43800 -0.0122645 1
gene 1 10 12 1.2127 0 45029 1.2127 1
gene 1 27 1719 -0.178273 0 46771 -0.178273 1
gene 1 1 25 0.792828 0 46966 0.792828 1
gene 1 29 1804 -1.29749 0 47811 -1.29749 1
gene 1 1804 13 1.74273 0 47812 1.74273 1
gene 1 1 19 -1.83898 0 49258 -1.83898 1
gene 1 15 15 0.614383 1 49482 0.614383 1
gene 1 19 1407 -1.23813 0 49669 -1.23813 1
gene 1 27 27 1.2985 1 50323 1.2985 1
gene 1 4 15 1.92373 0 50626 1.92373 1
gene 1 1719 20 0.146758 0 51632 0.146758 1
gene 1 1719 1719 -0.78134 1 51728 -0.78134 1
gene 1 25 17 0.246122 1 52040 0.246122 1
gene 1 9 23 -0.788101 0 52887 -0.788101 1
gene 1 23 15 -2.4667 0 53027 -2.4667 1
gene 1 34 22 1.72265 0 53239 1.72265 1
gene 1 1 1719 0.788121 0 53594 0.788121 1
gene 1 2057 19 -0.255461 0 54015 -0.19127 1
gene 1 14 14 0.967998 1 54244 0.967998 1
gene 1 1804 1804 0.840362 1 54525 0.840362 1
gene 1 1804 23 -0.596792 0 55804 -0.596792 1
gene 1 24 13 -0.11374 1 57119 -0.11374 1
gene 1 14 18 -0.340292 0 57603 -0.340292 1
gene 1 5 14 -0.132764 0 58111 -0.132764 1
gene 1 14 2057 -0.975692 0 58500 -0.975692 1
gene 1 1719 21 0.599133 0 58887 0.599133 1
gene 1 13 22 -0.768626 0 59452 -0.768626 1
gene 1 34 1719 0.210445 0 59659 0.210445 1
gene 1 29 29 0.981249 1 60902 0.981249 1
gene 1 1804 28 -0.68964 0 61323 -0.68964 1
gene 1 1804 22 -0.574057 0 61804 -0.574057 1
gene 1 2319 2057 1.7708 0 62197 1.7708 1
gene 1 20 2338 -0.545161 0 62482 -0.545161 1
gene 1 2338 1407 0.187751 0 62483 0 1
gene 1 24 13 0.987081 0 63085 0.987081 1
gene 1 13 2057 0.692335 0 64364 0.692335 1
gene 1 9 21 1.56513 0 64793 1.56513 1
gene 1 2 17 0.560542 0 65489 0.560542 1
gene 1 23 2057 -1.34241 0 65685 -1.34241 1
gene 1 8 21 -0.178538 0 66130 -0.178538 1
gene 1 1804 14 0.154313 0 66530 0.154313 1
gene 1 34 2502 1 1 66966 0 1
gene 1 2502 34 -0.503563 0 66967 0 1
gene 1 3 22 0.9789 0 67624 0.9789 1
gene 1 4 23 0.678762 0 67816 0.678762 1
gene 1 18 1719 -0.0898458 0 68031 -0.0898458 1
gene 1 29 13 0.683071 0 68294 0.683071 1
gene 1 25 22 -0.658365 0 68957 -0.658365 1
gene 1 5 1407 0.179399 0 69374 0.179399 1
genomeend 184
