/* Organism #61206160 Fitness: -7.89772e+08 
genomestart 134
trait 1 0.180465 0.50364 0.015068 0.251635 0.142159 0.20812 0.883019 0.987603 
node 1 1 0
node 2 1 1
node 3 1 1
node 4 1 1
node 5 1 1
node 6 1 1
node 7 1 1
node 8 1 1
node 9 1 1
node 10 1 1
node 11 1 1
node 12 1 2
node 13 1 2
node 14 1 2
node 15 1 2
node 16 1 2
node 17 1 2
node 18 1 2
node 19 1 2
node 20 1 2
node 21 1 2
node 22 1 2
node 23 1 2
node 24 1 2
node 25 1 2
node 29 1 3
node 31 1 3
node 33 1 3
node 35 1 3
node 1420 1 3
node 2058 1 3
node 2351 1 3
node 2545 1 3
gene 1 1 29 -1.81541 0 4 -1.81541 1
gene 1 1 31 -1.00589 0 6 -1.00589 1
gene 1 1 33 4.07486 0 8 4.07486 1
gene 1 1 35 -1.63562 0 10 -1.63562 1
gene 1 2 29 0.520253 0 14 0.520253 1
gene 1 3 31 1.38259 0 26 1.38259 1
gene 1 3 35 -1.5277 0 30 -1.5277 1
gene 1 4 29 3.59245 0 34 3.59245 1
gene 1 4 35 -0.861248 0 40 -0.861248 1
gene 1 5 31 -0.788843 0 46 -0.788843 1
gene 1 5 33 1.96691 0 48 1.96691 1
gene 1 5 35 -1.03817 0 50 -1.03817 1
gene 1 6 29 -1.60058 0 54 -1.60058 1
gene 1 6 31 -8 0 56 -8 1
gene 1 7 31 -2.13213 0 66 -2.13213 1
gene 1 7 35 2.11008 0 70 2.11008 1
gene 1 8 33 1.26597 0 78 1.26597 1
gene 1 8 35 -6.37857 0 80 -6.37857 1
gene 1 9 35 -1.74384 0 90 -1.74384 1
gene 1 10 35 1.38614 0 100 1.38614 1
gene 1 11 29 -0.842209 0 104 -0.842209 1
gene 1 11 33 -0.23705 0 108 -0.23705 1
gene 1 29 12 6.87565 0 153 6.87565 1
gene 1 29 14 -7.31738 0 155 -7.31738 1
gene 1 29 15 -0.0338705 0 156 -0.0338705 1
gene 1 29 16 -3.27598 0 157 -3.27598 1
gene 1 29 17 -3.4355 0 158 -3.4355 1
gene 1 29 20 -0.072716 0 161 -0.072716 1
gene 1 29 21 6.64335 0 162 6.64335 1
gene 1 29 23 0.750883 0 164 0.750883 1
gene 1 31 12 -0.249764 0 181 -0.249764 1
gene 1 31 13 -0.143554 0 182 -0.143554 1
gene 1 31 14 -6.50109 0 183 -6.50109 1
gene 1 31 17 8 0 186 8 1
gene 1 31 19 -5.1824 0 188 -5.1824 1
gene 1 31 20 -0.0276618 0 189 -0.0276618 1
gene 1 31 23 -0.428735 0 192 -0.428735 1
gene 1 33 14 -0.39454 0 211 -0.39454 1
gene 1 33 16 -0.226843 0 213 -0.226843 1
gene 1 33 18 3.1817 0 215 3.1817 1
gene 1 33 22 -0.46192 0 219 -0.46192 1
gene 1 33 23 1.98801 0 220 1.98801 1
gene 1 35 12 -1.69909 0 237 -1.69909 1
gene 1 35 13 0.021736 0 238 0.021736 1
gene 1 35 14 -1.31158 0 239 -1.31158 1
gene 1 35 15 -1.06354 0 240 -1.06354 1
gene 1 35 16 -3.77908 0 241 -3.77908 1
gene 1 35 17 0.885861 0 242 0.885861 1
gene 1 35 20 1.77758 0 245 1.77758 1
gene 1 35 21 1.46917 0 246 1.46917 1
gene 1 35 22 0.7369 0 247 0.7369 1
gene 1 35 23 -1.04926 0 248 -1.04926 1
gene 1 35 24 0.124641 0 249 0.124641 1
gene 1 35 25 4.36747 0 250 4.36747 1
gene 1 14 18 -0.451319 0 427 -0.451319 1
gene 1 15 18 3.0234 0 835 3.0234 1
gene 1 24 20 -1.19582 0 1514 -1.19582 1
gene 1 29 29 0.623238 1 1922 0.623238 1
gene 1 22 25 -0.904128 0 2181 -0.904128 1
gene 1 8 15 -2.46858 0 2398 -2.46858 1
gene 1 9 17 -4.0399 0 4141 -4.0399 1
gene 1 24 15 -2.91844 0 6312 -2.91844 1
gene 1 23 23 -0.201209 1 6470 -0.201209 1
gene 1 5 12 8 0 7190 8 1
gene 1 1 25 -0.537247 0 7442 -0.537247 1
gene 1 24 17 2.15103 0 8530 2.15103 1
gene 1 15 15 2.87082 1 11080 2.87082 1
gene 1 22 15 -0.654701 0 12478 -0.654701 1
gene 1 6 22 -0.953836 0 12852 -0.953836 1
gene 1 21 20 0.0294649 0 13859 0.0294649 1
gene 1 15 21 2.93687 0 14262 2.93687 1
gene 1 13 18 -1.79758 0 15534 -1.79758 1
gene 1 22 24 1.66836 0 16595 1.66836 1
gene 1 3 18 -2.33049 0 16763 -2.33049 1
gene 1 9 21 4.92961 0 20848 4.92961 1
gene 1 25 25 0.205997 1 21901 0.205997 1
gene 1 15 20 -0.398658 0 22668 -0.398658 1
gene 1 2 15 -0.857151 0 22950 -0.857151 1
gene 1 16 22 -1.75012 0 23749 -1.75012 1
gene 1 19 22 -0.293524 0 24561 -0.293524 1
gene 1 7 23 2.65548 0 25774 2.65548 1
gene 1 25 24 2.55037 0 26566 2.55037 1
gene 1 35 35 -3.49694 1 28753 -3.49694 1
gene 1 24 24 2.14118 1 30013 2.14118 1
gene 1 1 19 7.75317 0 30538 7.75317 1
gene 1 12 19 3.85321 0 33144 3.85321 1
gene 1 10 14 1.65355 0 33344 1.65355 1
gene 1 23 22 1.24761 0 33521 1.24761 1
gene 1 4 23 2.27574 0 33890 2.27574 1
gene 1 16 13 2.7805 0 35760 2.7805 1
gene 1 5 15 -0.47484 0 37383 -0.47484 1
gene 1 2 1420 -0.169722 0 38156 -0.169722 1
gene 1 11 13 -0.744054 0 38853 -0.744054 1
gene 1 17 17 -1.85048 1 38909 -1.85048 1
gene 1 20 20 0.588862 1 39815 0.588862 1
gene 1 14 19 -3.34407 0 40412 -3.34407 1
gene 1 19 19 -0.495424 1 40836 -0.495424 1
gene 1 35 31 0.687193 0 43163 0.687193 1
gene 1 4 16 2.85018 0 43403 2.85018 1
gene 1 33 33 0.0585411 1 44960 0.0585411 1
gene 1 18 20 -0.29595 0 45609 -0.29595 1
gene 1 9 33 1.32559 0 46703 1.32559 1
gene 1 13 33 -0.456623 1 48447 -0.456623 1
gene 1 7 20 -2.55827 0 48841 -2.55827 1
gene 1 1 12 -0.522452 0 49237 -0.522452 1
gene 1 9 20 0.0413118 0 49849 0.0413118 1
gene 1 14 15 0.926658 0 50084 0.926658 1
gene 1 29 1420 -0.171071 0 50199 -0.171071 1
gene 1 2 22 -0.93809 0 51118 -0.93809 1
gene 1 22 35 1.4337 1 51336 1.4337 1
gene 1 33 31 -0.654621 0 51715 -0.654621 1
gene 1 1420 16 -1.27412 0 52100 -1.27412 1
gene 1 8 14 -1.05189 0 52700 -1.05189 1
gene 1 13 25 2.03486 0 53291 2.03486 1
gene 1 1420 12 0.308182 0 53711 0.308182 1
gene 1 1420 14 -0.834496 0 54148 -0.834496 1
gene 1 12 2058 0.718209 0 54539 0.718209 1
gene 1 2058 13 -0.982657 0 54540 -0.982657 1
gene 1 5 1420 -1.36554 0 54615 -1.36554 1
gene 1 1420 1420 1.18308 1 55739 1.18308 1
gene 1 33 12 2.80711 0 56148 2.80711 1
gene 1 19 13 1.31967 0 56536 1.31967 1
gene 1 33 24 0.771548 0 57025 0.771548 1
gene 1 10 1420 2.52871 0 57738 2.52871 1
gene 1 18 18 -0.589668 1 57803 -0.589668 1
gene 1 1420 22 4.61739 0 58146 4.61739 1
gene 1 10 23 1.4769 0 58407 1.4769 1
gene 1 2058 33 -3.77504 1 59056 -3.77504 1
gene 1 14 16 0.433965 0 59211 0.433965 1
gene 1 14 12 0.561839 0 59377 0.561839 1
gene 1 1 16 -0.517479 0 59595 -0.517479 1
gene 1 4 20 0.833551 0 61023 0.833551 1
gene 1 6 18 0.711646 0 61529 0.711646 1
gene 1 8 2351 2.66157 0 62147 2.66157 1
gene 1 2351 29 -1.05279 0 62148 -1.05279 1
gene 1 23 12 1.32101 0 62243 1.32101 1
gene 1 2058 16 -0.857546 0 62820 -0.857546 1
gene 1 33 13 0.329688 0 65468 0.329688 1
gene 1 10 12 0.428293 0 65870 0.428293 1
gene 1 7 2351 0.240101 0 66108 0.240101 1
gene 1 31 2058 1.55376 0 66240 1.55376 1
gene 1 4 2545 1 0 67465 0 1
gene 1 2545 21 2.41741 0 67466 0 1
gene 1 4 17 -0.99878 0 67888 -0.99878 1
gene 1 9 24 -0.177172 0 68455 -0.177172 1
genomeend 134
