/* Organism #54668144 Fitness: -7.89778e+08 
genomestart 200
trait 1 0.0372734 0.259211 0.273416 1 0.407281 0.657898 0.212389 0.143803 
node 1 1 0
node 2 1 1
node 3 1 1
node 4 1 1
node 5 1 1
node 6 1 1
node 7 1 1
node 8 1 1
node 9 1 1
node 10 1 1
node 11 1 1
node 12 1 2
node 13 1 2
node 14 1 2
node 15 1 2
node 16 1 2
node 17 1 2
node 18 1 2
node 19 1 2
node 20 1 2
node 21 1 2
node 22 1 2
node 23 1 2
node 24 1 2
node 25 1 2
node 30 1 3
node 31 1 3
node 33 1 3
node 34 1 3
node 35 1 3
node 678 1 3
node 989 1 3
node 1001 1 3
node 1281 1 3
node 1565 1 3
node 1851 1 3
gene 1 1 30 -1.66769 0 5 -1.66769 1
gene 1 1 33 4.26101 0 8 4.26101 1
gene 1 1 34 2.19778 0 9 2.19778 1
gene 1 2 30 -0.397675 0 15 -0.397675 1
gene 1 2 31 -0.99684 0 16 -0.99684 1
gene 1 2 33 -0.117772 0 18 -0.117772 1
gene 1 2 35 -0.134722 0 20 -0.134722 1
gene 1 3 31 0.229421 0 26 0.229421 1
gene 1 3 34 -1.17006 0 29 -1.17006 1
gene 1 3 35 -0.613253 0 30 -0.613253 1
gene 1 4 30 -2.07175 0 35 -2.07175 1
gene 1 4 31 0.108616 0 36 0.108616 1
gene 1 4 33 2.34741 0 38 2.34741 1
gene 1 4 34 -0.481744 0 39 -0.481744 1
gene 1 5 33 -0.690655 0 48 -0.690655 1
gene 1 5 34 -5.67794 0 49 -5.67794 1
gene 1 5 35 -0.203279 0 50 -0.203279 1
gene 1 6 30 -4.88129 0 55 -4.88129 1
gene 1 6 31 -1.33847 0 56 -1.33847 1
gene 1 6 33 0.205851 0 58 0.205851 1
gene 1 6 34 0.11717 0 59 0.11717 1
gene 1 7 30 2.23879 0 65 2.23879 1
gene 1 7 31 -0.542057 0 66 -0.542057 1
gene 1 7 33 0.155787 0 68 0.155787 1
gene 1 7 34 -0.334909 0 69 -0.334909 1
gene 1 8 33 -0.51552 0 78 -0.51552 1
gene 1 9 30 -0.123569 0 85 -0.123569 1
gene 1 9 33 -0.360786 0 88 -0.360786 1
gene 1 10 30 -6.64779 0 95 -6.64779 1
gene 1 10 34 1.07229 0 99 1.07229 1
gene 1 11 30 -3.93367 0 105 -3.93367 1
gene 1 11 31 -1.16164 0 106 -1.16164 1
gene 1 11 33 1.34783 0 108 1.34783 1
gene 1 11 35 -0.237652 0 110 -0.237652 1
gene 1 30 12 -4.18766 0 167 -4.18766 1
gene 1 30 16 4.62398 0 171 4.62398 1
gene 1 30 17 -2.19894 0 172 -2.19894 1
gene 1 30 18 -3.59615 0 173 -3.59615 1
gene 1 30 19 -0.781209 0 174 -0.781209 1
gene 1 30 22 1.55269 0 177 1.55269 1
gene 1 30 24 2.81791 0 179 2.81791 1
gene 1 30 25 6.28604 0 180 6.28604 1
gene 1 31 12 -0.487787 0 181 -0.487787 1
gene 1 31 13 -1.51718 0 182 -1.51718 1
gene 1 31 17 0.785176 0 186 0.785176 1
gene 1 31 19 -1.23396 0 188 -1.23396 1
gene 1 31 20 1.59075 0 189 1.59075 1
gene 1 31 21 2.53084 0 190 2.53084 1
gene 1 31 22 0.208084 0 191 0.208084 1
gene 1 33 12 0.612573 0 209 0.612573 1
gene 1 33 13 -2.9975 0 210 -2.9975 1
gene 1 33 14 1.63509 0 211 1.63509 1
gene 1 33 15 -6.54761 0 212 -6.54761 1
gene 1 33 16 0.175816 0 213 0.175816 1
gene 1 33 18 3.91346 0 215 3.91346 1
gene 1 33 19 -0.836678 0 216 -0.836678 1
gene 1 33 22 3.02954 0 219 3.02954 1
gene 1 33 23 0.291191 0 220 0.291191 1
gene 1 33 24 -0.471968 0 221 -0.471968 1
gene 1 33 25 0.694965 0 222 0.694965 1
gene 1 34 12 -1.39074 0 223 -1.39074 1
gene 1 34 13 2.13469 0 224 2.13469 1
gene 1 34 15 0.922006 0 226 0.922006 1
gene 1 34 16 -2.35308 0 227 -2.35308 1
gene 1 34 18 -0.867814 0 229 -0.867814 1
gene 1 34 21 -0.605732 0 232 -0.605732 1
gene 1 34 22 4.04561 0 233 4.04561 1
gene 1 34 24 0.522517 0 235 0.522517 1
gene 1 34 25 6.01534 0 236 6.01534 1
gene 1 35 13 -0.578339 0 238 -0.578339 1
gene 1 35 17 -0.779328 0 242 -0.779328 1
gene 1 35 18 -3.29852 0 243 -3.29852 1
gene 1 35 19 -1.25059 0 244 -1.25059 1
gene 1 35 21 1.41694 0 246 1.41694 1
gene 1 35 22 -1.70493 0 247 -1.70493 1
gene 1 35 23 0.857386 0 248 0.857386 1
gene 1 35 24 2.80698 0 249 2.80698 1
gene 1 13 12 -0.648636 0 893 -0.648636 1
gene 1 33 33 0.971867 1 1502 0.971867 1
gene 1 3 19 -0.679597 0 2101 -0.679597 1
gene 1 35 35 -0.047722 1 2358 -0.047722 1
gene 1 6 13 1.35526 0 3651 1.35526 1
gene 1 17 20 1.47324 0 4281 1.47324 1
gene 1 18 12 2.52642 0 5988 2.52642 1
gene 1 17 17 -4.22335 1 7294 -4.22335 1
gene 1 13 23 6.18765 0 8538 6.18765 1
gene 1 13 20 1.71192 0 8740 1.71192 1
gene 1 11 18 0.700777 0 9180 0.700777 1
gene 1 25 25 -0.345834 1 9954 -0.345834 1
gene 1 23 21 2.64519 0 10359 2.64519 1
gene 1 4 14 2.52191 0 11029 2.52191 1
gene 1 14 14 -2.54515 1 11612 -2.54515 1
gene 1 1 17 -0.542047 0 12343 -0.542047 1
gene 1 22 20 -1.02931 0 12724 -1.02931 1
gene 1 16 16 -2.30081 1 12861 -2.30081 1
gene 1 19 23 -0.366704 0 13082 -0.366704 1
gene 1 30 20 2.92992 0 14851 2.92992 1
gene 1 8 18 2.01622 0 15714 2.01622 1
gene 1 23 14 -0.488255 0 16604 -0.488255 1
gene 1 35 678 3.24194 0 17373 3.24194 1
gene 1 678 25 1.5338 0 17374 1.5338 1
gene 1 22 22 0.81294 1 18505 0.81294 1
gene 1 25 16 4.97917 0 19043 4.97917 1
gene 1 20 15 1.0455 1 19439 1.0455 1
gene 1 22 19 1.52031 0 20394 1.52031 1
gene 1 9 22 0.281258 0 20499 0.281258 1
gene 1 14 30 -0.401284 1 20738 -0.401284 1
gene 1 6 22 -2.76567 0 20914 -2.76567 1
gene 1 18 18 0.849786 1 22272 0.849786 1
gene 1 9 12 -1.2099 0 22522 -1.2099 1
gene 1 6 678 -0.503001 0 22719 -0.503001 1
gene 1 15 13 7.43514 0 23112 7.43514 1
gene 1 6 17 -1.71566 0 23263 -1.71566 1
gene 1 3 13 0.511097 0 24094 0.511097 1
gene 1 5 19 1.35631 0 24475 1.35631 1
gene 1 12 21 -0.484106 0 24618 -0.484106 1
gene 1 30 35 -2.71388 0 25228 -2.71388 1
gene 1 10 24 1.05131 0 25295 1.05131 1
gene 1 24 16 2.60618 0 25496 2.60618 1
gene 1 15 989 -1.8935 1 25924 -1.8935 1
gene 1 989 15 -0.0570308 0 25925 -0.0570308 1
gene 1 1001 12 1.36418 0 26304 1.36418 1
gene 1 11 17 -1.49933 0 26553 -1.49933 1
gene 1 18 13 -1.09937 0 26878 -1.09937 1
gene 1 989 34 -1.54207 0 28059 -1.54207 1
gene 1 12 19 0.758621 0 28690 0.758621 1
gene 1 17 18 1.45231 0 29393 1.45231 1
gene 1 1001 13 2.17553 0 29700 2.17553 1
gene 1 3 16 0.548068 0 30733 0.548068 1
gene 1 10 1001 -1.59169 0 32756 -1.59169 1
gene 1 989 16 0.666748 0 33145 0.666748 1
gene 1 678 1281 -2.4192 0 33360 -2.4192 1
gene 1 1281 20 -1.16638 0 33361 -1.16638 1
gene 1 22 1001 -1.47697 0 33623 -1.47697 1
gene 1 3 17 -0.143781 0 34277 -0.143781 1
gene 1 14 21 -0.392277 0 35127 -0.392277 1
gene 1 989 989 2.12185 1 36675 2.12185 1
gene 1 10 35 -0.315535 0 36833 -0.315535 1
gene 1 989 18 1.37781 0 37670 1.37781 1
gene 1 9 18 1.08649 0 37756 1.08649 1
gene 1 31 30 1.8229 0 38987 1.8229 1
gene 1 25 13 -1.30475 0 39904 -1.30475 1
gene 1 6 25 0.163386 0 40184 0.163386 1
gene 1 10 17 1.18831 0 40810 1.18831 1
gene 1 1565 23 -2.26018 0 41205 -2.26018 1
gene 1 33 34 0.936026 0 41680 0.936026 1
gene 1 19 19 0.818386 1 42033 0.818386 1
gene 1 24 678 0.50519 0 42245 0.50519 1
gene 1 11 1281 0.0687962 0 42471 0.0687962 1
gene 1 7 15 -1.4978 0 42669 -1.4978 1
gene 1 15 15 -1.81609 1 42824 -1.81609 1
gene 1 23 23 -0.108539 1 43560 -0.108539 1
gene 1 24 24 0.687772 1 45133 0.687772 1
gene 1 12 16 -0.604349 0 46458 -0.604349 1
gene 1 5 1001 -0.105017 0 46608 -0.105017 1
gene 1 35 33 0.527414 0 46719 0.527414 1
gene 1 31 14 0.238233 0 47044 0.238233 1
gene 1 21 21 -0.256858 1 48302 -0.256858 1
gene 1 2 14 1.20856 0 48516 1.20856 1
gene 1 1281 1851 1.24405 0 48973 1.24405 1
gene 1 1851 25 -0.526972 0 49991 -0.526972 1
gene 1 1 21 0.327189 0 50671 0.327189 1
gene 1 25 12 0.339068 0 51160 0.339068 1
gene 1 1 14 -1.43862 0 51527 -1.43862 1
gene 1 22 25 -0.748438 0 52117 -0.748438 1
gene 1 2 989 -0.648854 0 52320 -0.648854 1
gene 1 11 16 -0.205014 0 52541 -0.205014 1
gene 1 11 12 -1.41751 0 52754 -1.41751 1
gene 1 34 35 0.714286 1 52948 0.714286 1
gene 1 989 14 -2.21176 0 53332 -2.21176 1
gene 1 989 25 -0.314593 0 55239 -0.314593 1
gene 1 9 17 0.445762 0 57443 0.445762 1
gene 1 15 1001 0.11331 0 57656 0.11331 1
gene 1 15 16 0.172964 0 57855 0.172964 1
gene 1 1001 1001 0.305387 1 57992 0.305387 1
gene 1 3 30 -0.464818 0 58460 -0.464818 1
gene 1 15 12 0.62538 0 59463 0.62538 1
gene 1 13 13 0.0843077 1 59656 0.0843077 1
gene 1 10 13 0.0283843 0 59903 0.0283843 1
gene 1 9 15 0.0595655 0 60582 0.0595655 1
gene 1 1 1851 -1.13411 0 60793 -1.13411 1
gene 1 1 31 0.0159185 0 61229 0.0159185 1
gene 1 1001 678 0.537591 0 61784 0.537591 1
gene 1 34 1001 -0.0301768 0 62090 -0.0301768 1
gene 1 12 12 -0.844069 1 62372 -0.844069 1
gene 1 34 14 -0.97552 0 62923 -0.97552 1
gene 1 12 22 -1.04558 1 63360 -1.04558 1
gene 1 15 14 0.153348 0 64980 0.153348 1
gene 1 20 1565 -0.939739 0 65416 -0.939739 1
gene 1 12 1851 0.740594 1 66005 0.740594 1
gene 1 1281 23 -0.227801 0 66204 -0.227801 1
gene 1 8 1565 -0.50745 0 66358 -0.50745 1
gene 1 4 17 -0.134349 0 67257 -0.134349 1
gene 1 2 17 -0.1035 0 67288 -0.1035 1
gene 1 22 678 -0.221589 0 67368 -0.221589 1
gene 1 7 1001 -0.80823 0 67603 -0.80823 1
gene 1 17 22 -0.790764 0 67820 -0.790764 1
gene 1 1851 20 0.129291 0 68034 0.129291 1
gene 1 8 22 0.34099 0 69243 0.34099 1
gene 1 1281 12 -0.244973 0 69988 -0.244973 1
gene 1 20 20 0.104679 1 70194 0.104679 1
genomeend 200
