/* Organism #39491776 Fitness: -3.22968e+08 
genomestart 618
trait 1 0 0.822383 0.915429 0.464221 0.0939438 0.743042 0.849429 0.0820445 
node 1 1 0
node 2 1 1
node 3 1 1
node 4 1 1
node 5 1 1
node 6 1 1
node 7 1 1
node 8 1 1
node 9 1 1
node 10 1 1
node 11 1 1
node 12 1 2
node 13 1 2
node 14 1 2
node 15 1 2
node 16 1 2
node 17 1 2
node 18 1 2
node 19 1 2
node 20 1 2
node 21 1 2
node 22 1 2
node 23 1 2
node 24 1 2
node 25 1 2
node 26 1 3
node 374 1 3
node 850 1 3
node 1163 1 3
node 1683 1 3
node 1746 1 3
node 1880 1 3
node 2427 1 3
node 2479 1 3
node 2512 1 3
node 2541 1 3
gene 1 6 26 1.99755 0 51 1.99755 1
gene 1 7 26 1.62951 0 61 1.62951 1
gene 1 8 26 3.00358 0 71 3.00358 1
gene 1 9 26 3.30317 0 81 3.30317 1
gene 1 11 26 1.54423 0 101 1.54423 1
gene 1 26 13 -3.55722 0 112 -3.55722 1
gene 1 26 14 5.70879 0 113 5.70879 1
gene 1 26 16 0.751172 0 115 0.751172 1
gene 1 26 20 -6.49788 0 119 -6.49788 1
gene 1 26 21 -2.18617 0 120 -2.18617 1
gene 1 26 22 -0.958377 0 121 -0.958377 1
gene 1 26 25 -2.47549 0 124 -2.47549 1
gene 1 7 16 -1.79674 0 692 -1.79674 1
gene 1 21 12 -4.82733 0 1098 -4.82733 1
gene 1 14 16 2.6535 0 2944 2.6535 1
gene 1 16 19 -0.0285269 0 3581 -0.0285269 1
gene 1 5 12 -4.77548 0 3944 -4.77548 1
gene 1 23 23 1.50978 1 4148 1.50978 1
gene 1 23 24 1.2739 0 4349 1.2739 1
gene 1 26 26 0.738877 1 4500 0.738877 1
gene 1 12 24 1.67414 0 5080 1.67414 1
gene 1 1 15 -2.85927 0 5678 -2.85927 1
gene 1 17 17 -0.524728 1 9749 -0.524728 1
gene 1 12 12 -6.59158 1 10112 -6.59158 1
gene 1 23 12 4.2287 0 10553 4.2287 1
gene 1 3 17 -1.22007 0 11435 -1.22007 1
gene 1 22 25 2.43924 0 12389 2.43924 1
gene 1 22 18 -1.63953 0 13680 -1.63953 1
gene 1 2 17 -0.795783 0 13897 -0.795783 1
gene 1 19 20 -4.45403 0 15738 -4.45403 1
gene 1 16 21 0.441227 0 20503 0.441227 1
gene 1 6 850 -2.25707 0 22251 -2.25707 1
gene 1 20 21 0.37563 0 22388 0.37563 1
gene 1 850 23 4.01784 0 22849 4.01784 1
gene 1 25 17 -4.25021 0 25143 -4.25021 1
gene 1 14 17 6.85773 0 26913 6.85773 1
gene 1 21 21 2.43945 1 27533 2.43945 1
gene 1 11 16 -3.26772 0 27830 -3.26772 1
gene 1 22 14 1.55658 0 29150 1.55658 1
gene 1 18 1163 -7.00371 1 30373 -7.00371 1
gene 1 1163 18 -2.38131 0 30374 -2.38131 1
gene 1 7 25 -1.05981 0 30725 -1.05981 1
gene 1 7 24 0.630997 0 34281 0.630997 1
gene 1 11 850 -4.50979 0 36043 -4.50979 1
gene 1 14 22 -0.909718 1 36246 -0.909718 1
gene 1 4 12 1.00579 0 36813 1.00579 1
gene 1 10 850 -1.26015 0 38129 -1.26015 1
gene 1 5 374 3.7746 0 40336 3.7746 1
gene 1 11 374 -4.16132 0 40917 -4.16132 1
gene 1 19 15 -1.23985 0 41324 -1.23985 1
gene 1 18 12 0.209033 0 42053 0.209033 1
gene 1 15 17 2.75678 0 42982 2.75678 1
gene 1 8 15 -0.732247 0 43380 -0.732247 1
gene 1 2 1683 -1.26818 0 43879 -1.26818 1
gene 1 1683 26 -2.788 0 43880 -2.788 1
gene 1 13 15 5.22234 0 45579 5.22234 1
gene 1 12 1746 0.51235 0 45725 0.51235 1
gene 1 1746 25 1.44492 0 45726 1.44492 1
gene 1 3 24 0.39526 0 45913 0.39526 1
gene 1 14 14 -0.494781 1 46882 -0.494781 1
gene 1 20 19 -2.80458 1 47079 -2.80458 1
gene 1 16 18 -2.97689 0 47273 -2.97689 1
gene 1 10 1163 3.63846 0 47974 3.63846 1
gene 1 1683 23 0.713151 0 48173 0.713151 1
gene 1 5 21 -3.1958 0 48461 -3.1958 1
gene 1 1163 22 0.197125 0 48645 0.197125 1
gene 1 16 23 1.26579 0 48844 1.26579 1
gene 1 1683 1683 1.82398 1 49117 1.82398 1
gene 1 1880 22 -0.184914 0 49735 -0.184914 1
gene 1 1880 1880 -2.98574 1 50485 -2.98574 1
gene 1 1163 1746 2.89192 0 51408 2.89192 1
gene 1 22 15 -3.40236 0 51815 -3.40236 1
gene 1 17 1880 1.22846 1 52020 1.22846 1
gene 1 21 16 -0.617243 1 52615 -0.617243 1
gene 1 9 1683 -0.822952 0 53807 -0.822952 1
gene 1 850 374 -0.0534119 0 54007 -0.0534119 1
gene 1 1 25 0.326925 0 54656 0.326925 1
gene 1 26 374 -0.980478 0 56304 -0.980478 1
gene 1 850 850 1.11614 1 56453 1.11614 1
gene 1 374 1163 1.25352 0 56917 1.25352 1
gene 1 9 13 -0.551661 0 57402 -0.551661 1
gene 1 1683 21 -0.0920687 0 57630 -0.0920687 1
gene 1 14 24 -0.648319 0 57834 -0.648319 1
gene 1 1163 1880 -0.923777 0 57991 -0.923777 1
gene 1 8 12 0.945762 0 58390 0.945762 1
gene 1 11 1683 0.983454 0 58818 0.983454 1
gene 1 22 1880 -2.58218 1 59409 -2.58218 1
gene 1 16 1163 0.0475469 1 60329 0.0475469 1
gene 1 1 22 0.28883 0 60721 0.28883 1
gene 1 20 23 -1.07143 0 61353 -1.07143 1
gene 1 20 24 1.56614 0 61497 1.56614 1
gene 1 7 374 0.852477 0 61593 0.852477 1
gene 1 25 25 0.396883 1 62455 0.396883 1
gene 1 850 15 -0.23762 0 62970 -0.23762 1
gene 1 19 19 -0.258589 1 63174 -0.258589 1
gene 1 6 23 -0.297022 0 63366 -0.297022 1
gene 1 13 13 -1.14863 1 63890 -1.14863 1
gene 1 1163 2427 0.645389 1 64456 0.207889 1
gene 1 850 1746 -0.122528 0 64650 -0.122528 1
gene 1 7 1163 -1.59545 0 65397 -1.59545 1
gene 1 19 23 -0.860703 0 65517 -0.860703 1
gene 1 22 2479 0.44911 0 65829 0.0116101 1
gene 1 2479 21 -0.159491 0 65830 0.123706 1
gene 1 22 23 -0.297638 0 66224 -0.297638 1
gene 1 1880 13 -0.998579 0 66675 -0.998579 1
gene 1 24 2512 1 0 66880 0 1
gene 1 2512 17 -0.944785 0 66881 0 1
gene 1 6 25 0.468902 0 67075 0.468902 1
gene 1 9 23 -0.603851 0 67449 -0.603851 1
gene 1 1163 20 -0.225416 0 67631 -0.225416 1
gene 1 15 2541 1 1 67830 0 1
gene 1 2541 15 -1.05285 0 67831 0 1
gene 1 2541 1880 -0.261686 0 68012 -0.261686 1
genomeend 618
