/* Organism #75676768 Fitness: -3.26947e+08 
genomestart 0
trait 1 0.479726 0.128371 0.358709 0.154835 0 1 1 0.466583 
node 1 1 0
node 2 1 1
node 3 1 1
node 4 1 1
node 5 1 1
node 6 1 1
node 7 1 1
node 8 1 1
node 9 1 1
node 10 1 1
node 11 1 1
node 12 1 2
node 13 1 2
node 14 1 2
node 15 1 2
node 16 1 2
node 17 1 2
node 18 1 2
node 19 1 2
node 20 1 2
node 21 1 2
node 22 1 2
node 23 1 2
node 24 1 2
node 25 1 2
node 26 1 3
node 27 1 3
node 540 1 3
node 1097 1 3
node 1461 1 3
node 1681 1 3
node 1845 1 3
node 2176 1 3
gene 1 1 26 2.08462 0 1 2.08462 1
gene 1 1 27 5.85906 0 2 5.85906 1
gene 1 2 26 -0.732109 0 11 -0.732109 1
gene 1 3 27 0.703564 0 22 0.703564 1
gene 1 4 27 -4.58996 0 32 -4.58996 1
gene 1 5 26 5.40619 0 41 5.40619 1
gene 1 6 26 0.759661 0 51 0.759661 1
gene 1 7 26 -3.20035 0 61 -3.20035 1
gene 1 7 27 1.69082 0 62 1.69082 1
gene 1 8 26 0.899686 0 71 0.899686 1
gene 1 9 26 -1.12057 0 81 -1.12057 1
gene 1 9 27 3.81718 0 82 3.81718 1
gene 1 26 12 1.18797 0 111 1.18797 1
gene 1 26 17 2.65674 0 116 2.65674 1
gene 1 26 21 6.22672 0 120 6.22672 1
gene 1 26 23 -6.40972 0 122 -6.40972 1
gene 1 27 14 8 0 127 8 1
gene 1 27 17 7.91853 0 130 7.91853 1
gene 1 27 18 -1.90304 0 131 -1.90304 1
gene 1 27 21 -0.654747 0 134 -0.654747 1
gene 1 27 23 4.85283 0 136 4.85283 1
gene 1 27 24 -2.8504 0 137 -2.8504 1
gene 1 27 25 -2.80756 0 138 -2.80756 1
gene 1 16 20 5.58392 0 3114 5.58392 1
gene 1 18 13 4.01396 0 4519 4.01396 1
gene 1 19 14 -0.0756499 0 4884 -0.0756499 1
gene 1 6 25 1.32701 0 5674 1.32701 1
gene 1 13 24 1.79448 0 5860 1.79448 1
gene 1 21 24 -0.907619 0 7191 -0.907619 1
gene 1 5 21 3.44875 0 8165 3.44875 1
gene 1 10 14 -3.34185 0 8817 -3.34185 1
gene 1 12 13 -0.903297 0 9918 -0.903297 1
gene 1 16 23 1.99479 0 12285 1.99479 1
gene 1 27 27 -1.24044 1 12588 -1.24044 1
gene 1 2 13 2.78509 0 12859 2.78509 1
gene 1 12 16 -2.68542 0 13397 -2.68542 1
gene 1 1 14 0.397951 0 15779 0.397951 1
gene 1 5 19 0.0625637 0 16636 0.0625637 1
gene 1 5 20 -0.536379 0 17123 -0.536379 1
gene 1 8 24 -0.293206 0 17442 -0.293206 1
gene 1 18 18 -0.767361 1 17835 -0.767361 1
gene 1 540 26 2.36349 0 20117 2.36349 1
gene 1 19 24 1.16528 0 20332 1.16528 1
gene 1 4 26 -0.673403 0 20723 -0.673403 1
gene 1 1 17 -0.9931 0 20845 -0.9931 1
gene 1 5 18 -1.98491 0 21298 -1.98491 1
gene 1 10 25 2.0299 0 21898 2.0299 1
gene 1 4 12 -5.64087 0 22280 -5.64087 1
gene 1 15 16 -4.59324 0 22503 -4.59324 1
gene 1 8 14 2.05556 0 23104 2.05556 1
gene 1 9 14 1.0514 0 23526 1.0514 1
gene 1 26 16 -0.4699 0 24125 -0.4699 1
gene 1 15 25 1.21642 0 25142 1.21642 1
gene 1 1 25 -3.26985 0 25217 -3.26985 1
gene 1 17 17 0.510427 1 25798 0.510427 1
gene 1 9 25 -0.217681 0 29535 -0.217681 1
gene 1 11 19 2.89859 0 31865 2.89859 1
gene 1 11 27 -1.23005 0 32189 -1.23005 1
gene 1 13 23 -2.60999 0 33115 -2.60999 1
gene 1 5 1097 2.34734 0 33609 2.34734 1
gene 1 20 21 1.34652 0 33796 1.34652 1
gene 1 22 22 0.112633 1 34451 0.112633 1
gene 1 24 24 -1.48396 1 34618 -1.48396 1
gene 1 8 17 -1.2525 0 35646 -1.2525 1
gene 1 23 19 0.540964 1 36965 0.540964 1
gene 1 26 1461 -3.96762 0 37382 -3.96762 1
gene 1 1461 22 5.86475 0 37383 5.86475 1
gene 1 8 19 -1.31388 0 37789 -1.31388 1
gene 1 1097 23 -2.53837 0 37992 -2.53837 1
gene 1 18 21 6.33929 0 38407 6.33929 1
gene 1 16 22 -0.664032 0 39712 -0.664032 1
gene 1 21 22 1.95399 0 40030 1.95399 1
gene 1 16 17 -1.07393 0 40654 -1.07393 1
gene 1 18 23 -1.72736 0 40833 -1.72736 1
gene 1 13 13 -2.4894 1 41800 -2.4894 1
gene 1 23 25 0.811737 0 43179 0.811737 1
gene 1 4 1681 0.81545 0 43395 0.81545 1
gene 1 1681 1097 -0.50044 0 43396 -0.50044 1
gene 1 20 17 1.30165 0 43778 1.30165 1
gene 1 540 25 -0.142244 0 44214 -0.142244 1
gene 1 19 19 -0.559219 1 44376 -0.559219 1
gene 1 540 14 -3.07015 0 45170 -3.07015 1
gene 1 1461 26 3.15978 1 46051 3.15978 1
gene 1 15 15 -1.80288 1 46464 -1.80288 1
gene 1 8 20 -1.45546 0 46866 -1.45546 1
gene 1 1 1461 -1.31496 0 47500 -1.31496 1
gene 1 1845 20 4.09712 0 48099 4.09712 1
gene 1 540 540 3.22925 1 48368 3.22925 1
gene 1 7 540 0.810185 0 48657 0.810185 1
gene 1 6 1845 3.13521 0 48924 3.13521 1
gene 1 12 12 0.773309 1 49962 0.773309 1
gene 1 10 1097 0.349874 0 50624 0.349874 1
gene 1 12 21 -1.76073 0 51026 -1.76073 1
gene 1 20 20 -0.827819 1 51643 -0.827819 1
gene 1 10 16 -1.18949 0 51860 -1.18949 1
gene 1 11 13 0.421945 0 52058 0.421945 1
gene 1 12 25 -4.72873 0 52245 -4.72873 1
gene 1 13 15 -3.68745 0 53027 -3.68745 1
gene 1 5 16 -1.26184 0 53941 -1.26184 1
gene 1 1681 1681 1.11135 1 54352 1.11135 1
gene 1 8 1681 -1.18919 0 54784 -1.18919 1
gene 1 25 15 1.69185 1 55410 1.69185 1
gene 1 1461 20 0.119884 0 56448 0.119884 1
gene 1 2 2176 -0.574007 0 56846 -0.574007 1
gene 1 2176 27 4.12295 0 56847 4.12295 1
gene 1 4 24 0.317226 0 58106 0.317226 1
gene 1 25 25 -1.56113 1 58207 -1.56113 1
gene 1 10 24 -1.32307 0 58410 -1.32307 1
gene 1 11 1461 -0.96056 0 59104 -0.96056 1
gene 1 13 25 0.951025 0 59295 0.951025 1
gene 1 1681 23 -0.0217063 0 60146 -0.0217063 1
gene 1 6 2176 -1.09527 0 60997 -1.09527 1
gene 1 1681 20 0.399077 0 61330 0.399077 1
gene 1 27 20 0.142503 0 61584 0.142503 1
gene 1 8 1461 -1.44841 0 62104 -1.44841 1
gene 1 10 18 0.555573 0 62428 0.555573 1
gene 1 24 17 -1.28998 0 62708 -1.28998 1
gene 1 13 1097 -0.677958 0 63345 -0.677958 1
gene 1 14 15 0.570795 0 63963 0.570795 1
gene 1 2 1845 -1.33269 0 64414 -1.33269 1
gene 1 21 1461 -1.08813 1 65019 -1.08813 1
gene 1 18 20 1.32301 0 65453 1.32301 1
genomeend 0
