/* Organism #42537184 Fitness: -3.27066e+08 
genomestart 145
trait 1 0.569817 0 0 0.088724 0.471014 1 0.812611 0 
node 1 1 0
node 2 1 1
node 3 1 1
node 4 1 1
node 5 1 1
node 6 1 1
node 7 1 1
node 8 1 1
node 9 1 1
node 10 1 1
node 11 1 1
node 12 1 2
node 13 1 2
node 14 1 2
node 15 1 2
node 16 1 2
node 17 1 2
node 18 1 2
node 19 1 2
node 20 1 2
node 21 1 2
node 22 1 2
node 23 1 2
node 24 1 2
node 25 1 2
node 32 1 3
node 33 1 3
node 829 1 3
node 974 1 3
node 1126 1 3
node 1275 1 3
node 1970 1 3
node 2064 1 3
node 2132 1 3
node 2285 1 3
gene 1 1 32 -5.65903 0 7 -5.65903 1
gene 1 1 33 -7.96245 0 8 -7.96245 1
gene 1 3 32 -3.61405 0 27 -3.61405 1
gene 1 3 33 -2.1405 0 28 -2.1405 1
gene 1 4 33 4.12572 0 38 4.12572 1
gene 1 5 33 -7.45718 0 48 -7.45718 1
gene 1 7 33 7.83976 0 68 7.83976 1
gene 1 8 33 -2.21969 0 78 -2.21969 1
gene 1 9 33 0.793938 0 88 0.793938 1
gene 1 10 33 -0.950196 0 98 -0.950196 1
gene 1 32 14 -8 0 197 -8 1
gene 1 32 16 -1.65604 0 199 -1.65604 1
gene 1 32 17 -3.12943 0 200 -3.12943 1
gene 1 32 18 1.63127 0 201 1.63127 1
gene 1 32 19 -8 0 202 -8 1
gene 1 32 20 2.49299 0 203 2.49299 1
gene 1 32 21 7.98842 0 204 7.98842 1
gene 1 33 12 -7.61153 0 209 -7.61153 1
gene 1 33 16 2.84262 0 213 2.84262 1
gene 1 33 17 3.03454 0 214 3.03454 1
gene 1 33 19 -1.99602 0 216 -1.99602 1
gene 1 33 23 0.0368721 0 220 0.0368721 1
gene 1 33 24 -0.315335 0 221 -0.315335 1
gene 1 21 18 -4.95828 0 632 -4.95828 1
gene 1 22 19 -1.63469 0 817 -1.63469 1
gene 1 18 18 0.0548553 1 1940 0.0548553 1
gene 1 1 22 -8 0 2881 -8 1
gene 1 5 13 -4.92028 0 4377 -4.92028 1
gene 1 13 18 1.65977 0 5156 1.65977 1
gene 1 4 15 0.148544 0 5584 0.148544 1
gene 1 12 13 -3.69755 0 6171 -3.69755 1
gene 1 8 19 0.359936 0 7138 0.359936 1
gene 1 1 18 -1.12121 0 7918 -1.12121 1
gene 1 24 16 3.31878 0 8531 3.31878 1
gene 1 17 19 -6.12651 0 10628 -6.12651 1
gene 1 4 16 2.05231 0 11022 2.05231 1
gene 1 10 13 7.6835 0 12228 7.6835 1
gene 1 6 17 -1.00354 0 13606 -1.00354 1
gene 1 4 22 -0.195916 0 14442 -0.195916 1
gene 1 32 32 -0.186676 1 14919 -0.186676 1
gene 1 25 25 -1.41766 1 17790 -1.41766 1
gene 1 2 12 4.096 0 17985 4.096 1
gene 1 11 14 2.15437 0 18165 2.15437 1
gene 1 16 16 3.92233 1 18728 3.92233 1
gene 1 16 13 -0.227903 0 18936 -0.227903 1
gene 1 21 15 4.43003 0 19163 4.43003 1
gene 1 16 32 -2.40777 1 19570 -2.40777 1
gene 1 14 22 -4.65268 0 19946 -4.65268 1
gene 1 24 23 -2.98625 0 20329 -2.98625 1
gene 1 1 17 1.20282 0 20924 1.20282 1
gene 1 12 829 -1.89157 0 21187 -1.89157 1
gene 1 829 18 -1.45927 0 21188 -1.45927 1
gene 1 10 18 -0.779337 0 21376 -0.779337 1
gene 1 19 12 -1.80322 0 23059 -1.80322 1
gene 1 8 18 -2.41145 0 24238 -2.41145 1
gene 1 3 20 0.173755 0 24422 0.173755 1
gene 1 19 20 -1.19228 0 24809 -1.19228 1
gene 1 24 24 6.67842 1 25023 6.67842 1
gene 1 15 19 -4.68628 1 26613 -4.68628 1
gene 1 1 12 5.68769 0 27400 5.68769 1
gene 1 13 13 5.62953 1 27714 5.62953 1
gene 1 829 21 0.0723118 0 29525 0.0723118 1
gene 1 6 33 0.85596 0 29760 0.85596 1
gene 1 7 25 -0.872317 0 30968 -0.872317 1
gene 1 2 23 -2.18494 0 31255 -2.18494 1
gene 1 19 25 -5.80472 0 33070 -5.80472 1
gene 1 12 1275 0.583251 0 34540 0.583251 1
gene 1 13 829 -0.800334 0 35120 -0.800334 1
gene 1 10 25 -0.265048 0 35753 -0.265048 1
gene 1 17 18 -2.6881 0 36325 -2.6881 1
gene 1 5 12 -1.85552 0 37274 -1.85552 1
gene 1 4 1126 2.80341 0 37662 2.80341 1
gene 1 14 13 -4.65485 0 39634 -4.65485 1
gene 1 829 829 1.0547 1 39801 1.0547 1
gene 1 7 974 -6.75311 0 40174 -6.75311 1
gene 1 21 23 0.154406 0 40355 0.154406 1
gene 1 14 16 2.85944 0 41151 2.85944 1
gene 1 1275 16 -3.60314 0 41441 -3.60314 1
gene 1 6 21 -1.16062 0 41480 -1.16062 1
gene 1 6 1126 -0.808483 0 41692 -0.808483 1
gene 1 25 24 4.40239 0 42082 4.40239 1
gene 1 1 14 3.59343 0 42280 3.59343 1
gene 1 1275 829 -0.217111 0 43814 -0.217111 1
gene 1 24 18 -1.95279 0 44404 -1.95279 1
gene 1 16 974 -2.4874 0 44597 -2.4874 1
gene 1 20 20 -0.757107 1 47013 -0.757107 1
gene 1 25 18 -4.85875 0 47281 -4.85875 1
gene 1 22 22 -0.320199 1 47885 -0.320199 1
gene 1 11 19 1.29809 0 48266 1.29809 1
gene 1 2 13 -1.62724 0 48790 -1.62724 1
gene 1 14 14 -1.47126 1 48980 -1.47126 1
gene 1 13 974 -0.627801 0 49209 -0.627801 1
gene 1 9 18 1.84917 0 49449 1.84917 1
gene 1 829 15 -0.701337 0 50566 -0.701337 1
gene 1 12 24 1.70971 0 50762 1.70971 1
gene 1 33 32 -1.24128 0 52132 -1.24128 1
gene 1 7 1970 -1.83882 0 52375 -1.83882 1
gene 1 1970 17 3.43001 0 52376 3.43001 1
gene 1 8 1126 0.872053 0 52855 0.872053 1
gene 1 14 24 -1.8351 0 53265 -1.8351 1
gene 1 15 2064 -6.29603 0 54542 -6.29603 1
gene 1 2064 20 -3.33433 0 54543 -3.33433 1
gene 1 22 974 2.72749 0 56181 2.72749 1
gene 1 5 2064 -0.887848 0 56659 -0.887848 1
gene 1 24 2132 0.167527 0 56859 0.167527 1
gene 1 2132 21 -1.01223 0 56860 -1.01223 1
gene 1 19 18 -1.10692 0 58440 -1.10692 1
gene 1 10 1970 -0.716029 0 58642 -0.716029 1
gene 1 25 13 0.491728 0 59748 0.491728 1
gene 1 32 1126 -1.35442 0 60549 -1.35442 1
gene 1 19 33 2.32591 1 60754 2.32591 1
gene 1 2 1126 0.396058 0 60985 0.396058 1
gene 1 8 2285 2.26999 0 61075 2.26999 1
gene 1 2285 13 -5.76129 0 61076 -5.76129 1
gene 1 33 1970 0.416938 0 62034 0.416938 1
gene 1 20 974 -0.494862 0 62779 -0.494862 1
gene 1 11 2132 0.426029 0 63359 0.426029 1
gene 1 17 2064 2.26077 0 63761 2.26077 1
gene 1 4 19 -0.621451 0 63980 -0.621451 1
gene 1 23 974 -1.81549 0 64405 -1.81549 1
gene 1 33 14 -2.36155 0 65033 -2.36155 1
gene 1 974 974 0.0880447 1 65204 0.0880447 1
gene 1 17 17 0.115361 1 65376 0.115361 1
gene 1 24 25 -0.877944 1 65771 -0.877944 1
gene 1 829 23 0.257366 0 65832 0.257366 1
gene 1 829 2132 0.660581 0 66285 0.660581 1
gene 1 2285 1970 0.0157739 0 66414 0.0157739 1
gene 1 19 19 0.876811 1 66577 0.876811 1
gene 1 2 15 0.405684 0 67857 0.405684 1
gene 1 25 20 -0.237671 0 68057 -0.237671 1
genomeend 145
