/* Organism #64496192 Fitness: -2.60597e+08 
genomestart 980
trait 1 0.100468 0.994672 0.174448 0.124455 0.523512 0.803734 0.53643 0.866954 
node 1 1 0
node 2 1 1
node 3 1 1
node 4 1 1
node 5 1 1
node 6 1 1
node 7 1 1
node 8 1 1
node 9 1 1
node 10 1 1
node 11 1 1
node 12 1 2
node 13 1 2
node 14 1 2
node 15 1 2
node 16 1 2
node 17 1 2
node 18 1 2
node 19 1 2
node 20 1 2
node 21 1 2
node 22 1 2
node 23 1 2
node 24 1 2
node 25 1 2
node 29 1 3
node 30 1 3
node 31 1 3
gene 1 1 29 0.98338 0 4 0.98338 1
gene 1 1 30 -3.90751 0 5 -3.90751 1
gene 1 3 29 -5.12424 0 24 -5.12424 1
gene 1 3 30 0.226309 0 25 0.226309 1
gene 1 4 30 -3.41971 0 35 -3.41971 1
gene 1 5 30 -4.26058 0 45 -4.26058 1
gene 1 6 29 -0.486536 0 54 -0.486536 1
gene 1 6 30 -3.38476 0 55 -3.38476 1
gene 1 7 30 4.81701 0 65 4.81701 1
gene 1 7 31 -0.338758 0 66 -0.338758 1
gene 1 8 29 2.97506 0 74 2.97506 1
gene 1 8 30 -2.98871 0 75 -2.98871 1
gene 1 8 31 -3.17941 0 76 -3.17941 1
gene 1 9 29 7.86618 0 84 7.86618 1
gene 1 9 30 1.55848 0 85 1.55848 1
gene 1 9 31 -3.19869 0 86 -3.19869 1
gene 1 10 30 2.99049 0 95 2.99049 1
gene 1 11 29 1.67433 0 104 1.67433 1
gene 1 11 30 6.4574 0 105 6.4574 1
gene 1 11 31 -5.5052 0 106 -5.5052 1
gene 1 29 13 1.49891 0 154 1.49891 1
gene 1 29 14 2.37004 0 155 2.37004 1
gene 1 29 15 -1.05549 0 156 -1.05549 1
gene 1 29 17 6.0296 0 158 6.0296 1
gene 1 29 18 -1.0299 0 159 -1.0299 1
gene 1 29 21 -1.2045 0 162 -1.2045 1
gene 1 29 22 1.05046 0 163 1.05046 1
gene 1 29 25 -1.64023 0 166 -1.64023 1
gene 1 30 12 -5.90871 0 167 -5.90871 1
gene 1 30 13 -0.794346 0 168 -0.794346 1
gene 1 30 18 7.41401 0 173 7.41401 1
gene 1 30 21 0.0341601 0 176 0.0341601 1
gene 1 30 23 -2.03916 0 178 -2.03916 1
gene 1 31 13 -2.94819 0 182 -2.94819 1
gene 1 31 19 7.24343 0 188 7.24343 1
gene 1 31 20 8 0 189 8 1
gene 1 31 21 6.84276 0 190 6.84276 1
gene 1 31 23 -7.81187 0 192 -7.81187 1
gene 1 31 24 0.573214 0 193 0.573214 1
gene 1 31 25 0.569263 0 194 0.569263 1
gene 1 23 24 -2.88722 0 4447 -2.88722 1
gene 1 2 12 -1.29848 0 7344 -1.29848 1
gene 1 20 12 1.49567 0 8172 1.49567 1
gene 1 4 13 0.507057 0 11848 0.507057 1
gene 1 17 13 -2.29544 0 12504 -2.29544 1
gene 1 8 13 -2.68408 0 13318 -2.68408 1
gene 1 19 15 3.20807 0 15569 3.20807 1
gene 1 9 19 -2.19114 0 16718 -2.19114 1
gene 1 10 14 3.6138 0 17468 3.6138 1
gene 1 20 16 -4.60454 0 17667 -4.60454 1
gene 1 3 13 0.404499 0 18077 0.404499 1
gene 1 23 31 -7.22962 1 18457 -7.22962 1
gene 1 23 15 -2.67619 0 20521 -2.67619 1
gene 1 7 18 2.25163 0 20750 2.25163 1
gene 1 19 22 -2.1915 0 20875 -2.1915 1
gene 1 4 24 -1.68643 0 22904 -1.68643 1
gene 1 18 12 1.20464 0 23395 1.20464 1
gene 1 15 15 -1.25716 1 25513 -1.25716 1
gene 1 20 18 -3.24433 0 25892 -3.24433 1
gene 1 17 17 -2.01698 1 26282 -2.01698 1
gene 1 5 13 4.01754 0 26812 4.01754 1
gene 1 30 17 -0.860697 0 28474 -0.860697 1
gene 1 18 19 3.58904 0 28666 3.58904 1
gene 1 7 19 -0.399035 0 30204 -0.399035 1
gene 1 21 21 -0.576733 1 30776 -0.576733 1
gene 1 9 21 -3.20115 0 30961 -3.20115 1
gene 1 14 19 6.33019 0 31167 6.33019 1
gene 1 17 12 1.65148 0 32623 1.65148 1
gene 1 14 14 1.33815 1 33585 1.33815 1
gene 1 6 19 4.31801 0 35948 4.31801 1
gene 1 8 18 5.93172 0 36495 5.93172 1
gene 1 23 23 3.19545 1 36621 3.19545 1
gene 1 22 15 -0.638793 0 37257 -0.638793 1
gene 1 6 20 -0.59003 0 40680 -0.59003 1
gene 1 15 23 6.92415 1 41069 6.92415 1
gene 1 17 14 5.63336 0 41697 5.63336 1
gene 1 22 25 2.90153 0 42957 2.90153 1
gene 1 30 16 -1.31679 0 43163 -1.31679 1
gene 1 10 24 3.48467 0 43750 3.48467 1
gene 1 1 18 -1.71864 0 44530 -1.71864 1
gene 1 19 24 -3.30636 0 46781 -3.30636 1
gene 1 12 22 -4.31155 0 48413 -4.31155 1
gene 1 12 14 1.32542 0 48795 1.32542 1
gene 1 16 16 -0.180103 1 49015 -0.180103 1
gene 1 1 12 -0.89824 0 51008 -0.89824 1
gene 1 13 24 0.84281 0 51196 0.84281 1
gene 1 25 24 -0.358909 0 52497 -0.358909 1
gene 1 6 25 0.959564 0 52686 0.959564 1
gene 1 8 14 0.921571 0 54458 0.921571 1
gene 1 8 20 -1.42931 0 56409 -1.42931 1
gene 1 14 13 -0.551724 0 56532 -0.551724 1
gene 1 3 17 2.31426 0 56797 2.31426 1
gene 1 15 21 0.856447 0 57172 0.856447 1
gene 1 14 15 -1.53962 0 57643 -1.53962 1
gene 1 1 24 -1.66203 0 58126 -1.66203 1
gene 1 23 18 -0.398774 0 58614 -0.398774 1
gene 1 17 23 0.807423 0 58805 0.807423 1
gene 1 18 18 0.634706 1 60811 0.634706 1
gene 1 29 23 -0.746601 0 61350 -0.746601 1
gene 1 25 16 -0.385837 0 62845 -0.385837 1
gene 1 24 21 0.560341 0 63232 0.560341 1
gene 1 30 24 -0.56342 0 63431 -0.56342 1
gene 1 2 20 -0.807074 0 64342 -0.807074 1
gene 1 15 16 0.58073 0 66268 0.58073 1
gene 1 7 16 0.185182 0 66805 0.185182 1
gene 1 9 22 -0.839848 0 66953 -0.839848 1
gene 1 2 15 -0.661751 0 67204 -0.661751 1
gene 1 10 22 -0.018926 0 67433 -0.018926 1
genomeend 980
