/* Organism #30893600 Fitness: -2.06361e+08 
genomestart 40
trait 1 0.976081 0.422025 0.830069 1 0.404161 1 0.784059 0.306713 
node 1 1 0
node 2 1 1
node 3 1 1
node 4 1 1
node 5 1 1
node 6 1 1
node 7 1 1
node 8 1 1
node 9 1 1
node 10 1 1
node 11 1 1
node 12 1 2
node 13 1 2
node 14 1 2
node 15 1 2
node 16 1 2
node 17 1 2
node 18 1 2
node 19 1 2
node 20 1 2
node 21 1 2
node 22 1 2
node 23 1 2
node 24 1 2
node 25 1 2
node 30 1 3
node 35 1 3
node 410 1 3
node 686 1 3
node 715 1 3
node 1255 1 3
node 1617 1 3
node 2087 1 3
node 2309 1 3
node 2518 1 3
gene 1 1 35 -4.07503 0 10 -4.07503 1
gene 1 2 35 -0.423188 0 20 -0.423188 1
gene 1 3 30 -4.37695 0 25 -4.37695 1
gene 1 3 35 0.676532 0 30 0.676532 1
gene 1 5 30 3.03767 0 45 3.03767 1
gene 1 5 35 -1.84109 0 50 -1.84109 1
gene 1 6 30 -0.990389 0 55 -0.990389 1
gene 1 7 30 1.1901 0 65 1.1901 1
gene 1 7 35 4.59086 0 70 4.59086 1
gene 1 10 30 -2.60142 0 95 -2.60142 1
gene 1 11 30 4.33221 0 105 4.33221 1
gene 1 11 35 2.18467 0 110 2.18467 1
gene 1 30 14 0.324413 0 169 0.324413 1
gene 1 30 15 -0.297658 0 170 -0.297658 1
gene 1 30 18 0.423536 0 173 0.423536 1
gene 1 30 20 -4.93403 0 175 -4.93403 1
gene 1 30 21 -2.89141 0 176 -2.89141 1
gene 1 30 23 2.84329 0 178 2.84329 1
gene 1 30 24 -1.49262 0 179 -1.49262 1
gene 1 30 25 -2.77943 0 180 -2.77943 1
gene 1 35 12 -3.54043 0 237 -3.54043 1
gene 1 35 13 -1.0715 0 238 -1.0715 1
gene 1 35 15 -2.53707 0 240 -2.53707 1
gene 1 35 16 -0.284774 0 241 -0.284774 1
gene 1 35 17 -1.71025 0 242 -1.71025 1
gene 1 35 18 -5.6929 0 243 -5.6929 1
gene 1 35 22 2.51056 0 247 2.51056 1
gene 1 30 30 1.0675 1 709 1.0675 1
gene 1 14 20 2.09013 0 1317 2.09013 1
gene 1 12 23 -2.99319 0 2431 -2.99319 1
gene 1 5 24 -0.882194 0 2661 -0.882194 1
gene 1 21 12 2.13192 0 4019 2.13192 1
gene 1 2 17 -1.72788 0 4955 -1.72788 1
gene 1 3 22 2.8341 0 6237 2.8341 1
gene 1 17 17 -2.22821 1 7699 -2.22821 1
gene 1 2 13 -1.97566 0 8084 -1.97566 1
gene 1 24 16 -0.470262 0 8667 -0.470262 1
gene 1 4 410 0.0416355 0 10411 0.0416355 1
gene 1 35 35 -6.19127 1 10570 -6.19127 1
gene 1 13 13 -1.16124 1 11525 -1.16124 1
gene 1 14 14 3.51427 1 12291 3.51427 1
gene 1 15 23 -0.61 0 12735 -0.61 1
gene 1 1 14 2.18406 0 12952 2.18406 1
gene 1 7 22 2.72763 0 13119 2.72763 1
gene 1 12 13 -1.69034 0 14419 -1.69034 1
gene 1 13 17 0.97909 0 15389 0.97909 1
gene 1 24 23 2.63594 0 15588 2.63594 1
gene 1 16 16 2.7755 1 15958 2.7755 1
gene 1 2 19 3.47436 0 16341 3.47436 1
gene 1 2 686 -4.19831 0 16830 -4.19831 1
gene 1 686 30 1.07989 0 16831 1.07989 1
gene 1 24 18 -1.25023 0 17028 -1.25023 1
gene 1 8 19 -1.72181 0 18549 -1.72181 1
gene 1 715 715 3.84374 1 19850 3.84374 1
gene 1 21 13 1.60783 0 20041 1.60783 1
gene 1 686 21 -1.3793 0 20845 -1.3793 1
gene 1 8 686 1.28942 0 21909 1.28942 1
gene 1 30 16 1.22941 0 24955 1.22941 1
gene 1 2 20 -3.21797 0 25118 -3.21797 1
gene 1 9 410 2.63362 0 26127 2.63362 1
gene 1 16 23 6.06131 0 27032 6.06131 1
gene 1 13 16 3.21571 0 27758 3.21571 1
gene 1 2 715 -1.13826 0 28358 -1.13826 1
gene 1 13 18 -1.53766 1 29162 -1.53766 1
gene 1 1 12 -0.933734 0 29929 -0.933734 1
gene 1 715 24 3.56694 0 32800 3.56694 1
gene 1 1 20 -5.53343 0 33065 -5.53343 1
gene 1 13 1255 -5.37293 0 33532 -5.37293 1
gene 1 15 24 -3.37008 0 34792 -3.37008 1
gene 1 10 21 0.495191 0 35202 0.495191 1
gene 1 16 19 4.66748 0 37041 4.66748 1
gene 1 5 14 -0.284687 0 37355 -0.284687 1
gene 1 30 410 -1.38876 0 38738 -1.38876 1
gene 1 10 25 2.57304 0 40190 2.57304 1
gene 1 35 1617 -0.534163 0 41877 -0.534163 1
gene 1 1617 23 -1.62405 0 41878 -1.62405 1
gene 1 10 1255 -3.8722 0 42091 -3.8722 1
gene 1 23 16 -2.07682 1 42373 -2.07682 1
gene 1 7 15 1.90548 0 42430 1.90548 1
gene 1 1 686 0.840577 0 43300 0.840577 1
gene 1 14 16 -1.16086 0 44376 -1.16086 1
gene 1 4 23 -0.568773 0 44590 -0.568773 1
gene 1 715 18 -0.68642 0 46068 -0.68642 1
gene 1 11 20 1.14637 0 47618 1.14637 1
gene 1 15 25 -1.019 0 49726 -1.019 1
gene 1 3 1617 -0.274653 0 49923 -0.274653 1
gene 1 35 23 -2.00169 0 50170 -2.00169 1
gene 1 1617 21 -1.18586 0 50698 -1.18586 1
gene 1 21 21 -1.12235 1 52177 -1.12235 1
gene 1 9 13 -1.85049 0 52611 -1.85049 1
gene 1 20 23 0.320951 0 53016 0.320951 1
gene 1 3 19 -1.80311 0 53622 -1.80311 1
gene 1 1255 1255 -0.857456 1 54790 -0.857456 1
gene 1 10 410 -1.74952 0 55190 -1.74952 1
gene 1 686 2087 -2.81358 0 55881 -2.81358 1
gene 1 1617 17 0.313652 0 58343 0.313652 1
gene 1 24 13 0.180726 0 58555 0.180726 1
gene 1 410 1617 -0.0753301 0 58753 -0.0753301 1
gene 1 16 22 0.834126 0 61266 0.834126 1
gene 1 3 13 -0.9959 0 61693 -0.9959 1
gene 1 410 22 -1.79682 0 62101 -1.79682 1
gene 1 10 2309 -1.14025 0 62557 -1.14025 1
gene 1 2 14 2.38644 0 62708 2.38644 1
gene 1 21 22 -1.53484 0 62924 -1.53484 1
gene 1 9 25 -0.743274 0 63156 -0.743274 1
gene 1 3 410 0.703033 0 63304 0.703033 1
gene 1 1 2309 1.762 0 63763 1.762 1
gene 1 3 21 -1.94389 0 64369 -1.94389 1
gene 1 3 24 1.00009 0 65188 1.00009 1
gene 1 8 35 0.962845 0 66407 0.962845 1
gene 1 30 12 -0.651307 0 67267 -0.651307 1
gene 1 17 18 -0.78688 0 67467 -0.78688 1
gene 1 9 2518 1 0 68257 1 1
gene 1 2309 2309 -0.556204 1 69123 -0.556204 1
gene 1 715 17 0.0718199 0 70122 0.0718199 1
gene 1 2309 14 -0.909934 0 70557 -0.909934 1
gene 1 20 21 0.180722 0 71235 0.180722 1
genomeend 40
