/* Organism #31935600 Fitness: -2.2032e+08 
genomestart 695
trait 1 0.243808 0.93694 0.789283 0.807167 0.118974 0.901876 0.576864 0.521919 
node 1 1 0
node 2 1 1
node 3 1 1
node 4 1 1
node 5 1 1
node 6 1 1
node 7 1 1
node 8 1 1
node 9 1 1
node 10 1 1
node 11 1 1
node 12 1 2
node 13 1 2
node 14 1 2
node 15 1 2
node 16 1 2
node 17 1 2
node 18 1 2
node 19 1 2
node 20 1 2
node 21 1 2
node 22 1 2
node 23 1 2
node 24 1 2
node 25 1 2
node 26 1 3
node 27 1 3
node 28 1 3
node 30 1 3
node 33 1 3
node 34 1 3
node 402 1 3
node 816 1 3
node 1344 1 3
node 2199 1 3
gene 1 1 26 0.0972933 0 1 0.0972933 1
gene 1 1 27 -3.75663 0 2 -3.75663 1
gene 1 1 28 -3.15993 0 3 -3.15993 1
gene 1 1 30 -1.14973 0 5 -1.14973 1
gene 1 1 33 2.82492 0 8 2.82492 1
gene 1 1 34 -2.58593 0 9 -2.58593 1
gene 1 2 27 1.11358 0 12 1.11358 1
gene 1 2 28 -1.36096 0 13 -1.36096 1
gene 1 2 30 0.481752 0 15 0.481752 1
gene 1 3 26 0.0417306 0 21 0.0417306 1
gene 1 3 28 2.3186 0 23 2.3186 1
gene 1 3 30 3.52293 0 25 3.52293 1
gene 1 4 26 1.91529 0 31 1.91529 1
gene 1 4 27 1.01699 0 32 1.01699 1
gene 1 4 28 3.63133 0 33 3.63133 1
gene 1 4 30 5.93815 0 35 5.93815 1
gene 1 4 33 0.605509 0 38 0.605509 1
gene 1 4 34 -1.20624 0 39 -1.20624 1
gene 1 5 26 2.20579 0 41 2.20579 1
gene 1 5 28 -1.30725 0 43 -1.30725 1
gene 1 5 30 -6.05504 0 45 -6.05504 1
gene 1 5 33 -2.26717 0 48 -2.26717 1
gene 1 5 34 -1.11898 0 49 -1.11898 1
gene 1 6 26 -1.3432 0 51 -1.3432 1
gene 1 6 28 0.373066 0 53 0.373066 1
gene 1 6 30 -0.000494646 0 55 -0.000494646 1
gene 1 6 33 -1.21053 0 58 -1.21053 1
gene 1 6 34 0.249563 0 59 0.249563 1
gene 1 7 27 1.21926 0 62 1.21926 1
gene 1 7 33 1.68972 0 68 1.68972 1
gene 1 8 27 1.17827 0 72 1.17827 1
gene 1 8 28 -1.11467 0 73 -1.11467 1
gene 1 8 30 1.9605 0 75 1.9605 1
gene 1 9 26 1.71647 0 81 1.71647 1
gene 1 9 27 -5.52411 0 82 -5.52411 1
gene 1 9 28 -0.290065 0 83 -0.290065 1
gene 1 9 33 -1.30734 0 88 -1.30734 1
gene 1 9 34 -1.41565 0 89 -1.41565 1
gene 1 10 26 0.288739 0 91 0.288739 1
gene 1 10 28 -2.87273 0 93 -2.87273 1
gene 1 10 30 -1.10749 0 95 -1.10749 1
gene 1 10 34 1.34168 0 99 1.34168 1
gene 1 11 27 -4.19589 0 102 -4.19589 1
gene 1 11 28 1.75055 0 103 1.75055 1
gene 1 11 30 -0.636276 0 105 -0.636276 1
gene 1 11 33 -0.223451 0 108 -0.223451 1
gene 1 11 34 -4.14632 0 109 -4.14632 1
gene 1 26 12 -0.285596 0 111 -0.285596 1
gene 1 26 13 -0.595809 0 112 -0.595809 1
gene 1 26 15 -2.14538 0 114 -2.14538 1
gene 1 26 18 3.96524 0 117 3.96524 1
gene 1 26 19 -2.25783 0 118 -2.25783 1
gene 1 26 22 5.56029 0 121 5.56029 1
gene 1 26 24 -0.664416 0 123 -0.664416 1
gene 1 26 25 -4.29635 0 124 -4.29635 1
gene 1 27 13 1.13297 0 126 1.13297 1
gene 1 27 14 -0.390833 0 127 -0.390833 1
gene 1 27 15 4.19336 0 128 4.19336 1
gene 1 27 17 -7.68401 0 130 -7.68401 1
gene 1 27 18 -2.34284 0 131 -2.34284 1
gene 1 27 21 -2.57304 0 134 -2.57304 1
gene 1 27 22 1.55784 0 135 1.55784 1
gene 1 27 23 4.91727 0 136 4.91727 1
gene 1 27 24 5.61438 0 137 5.61438 1
gene 1 28 12 -5.04649 0 139 -5.04649 1
gene 1 28 13 3.71393 0 140 3.71393 1
gene 1 28 14 2.05256 0 141 2.05256 1
gene 1 28 15 0.860631 0 142 0.860631 1
gene 1 28 16 4.6224 0 143 4.6224 1
gene 1 28 17 -1.34882 0 144 -1.34882 1
gene 1 28 18 2.46216 0 145 2.46216 1
gene 1 28 19 3.75496 0 146 3.75496 1
gene 1 28 20 3.67359 0 147 3.67359 1
gene 1 28 23 0.745887 0 150 0.745887 1
gene 1 28 25 0.861767 0 152 0.861767 1
gene 1 30 13 3.54898 0 168 3.54898 1
gene 1 30 14 -2.42232 0 169 -2.42232 1
gene 1 30 15 4.08656 0 170 4.08656 1
gene 1 30 17 -3.07841 0 172 -3.07841 1
gene 1 30 18 -4.43066 0 173 -4.43066 1
gene 1 30 20 2.29979 0 175 2.29979 1
gene 1 30 22 7.3515 0 177 7.3515 1
gene 1 30 23 6.62878 0 178 6.62878 1
gene 1 30 24 -0.480846 0 179 -0.480846 1
gene 1 30 25 2.91648 0 180 2.91648 1
gene 1 33 12 2.21103 0 209 2.21103 1
gene 1 33 15 -6.64232 0 212 -6.64232 1
gene 1 33 20 -2.77183 0 217 -2.77183 1
gene 1 33 22 -1.75645 0 219 -1.75645 1
gene 1 33 24 0.345683 0 221 0.345683 1
gene 1 34 12 -0.724745 0 223 -0.724745 1
gene 1 34 15 0.732829 0 226 0.732829 1
gene 1 34 17 2.68231 0 228 2.68231 1
gene 1 34 18 -2.69201 0 229 -2.69201 1
gene 1 34 19 0.946265 0 230 0.946265 1
gene 1 34 22 -1.76761 0 233 -1.76761 1
gene 1 34 23 -3.27662 0 234 -3.27662 1
gene 1 34 25 1.07085 0 236 1.07085 1
gene 1 16 15 1.2281 0 563 1.2281 1
gene 1 25 21 2.03828 0 1051 2.03828 1
gene 1 19 21 0.514954 0 1255 0.514954 1
gene 1 6 13 -1.25891 0 1780 -1.25891 1
gene 1 1 12 -2.16473 0 3485 -2.16473 1
gene 1 11 24 1.12617 0 4133 1.12617 1
gene 1 8 17 0.751745 0 4301 0.751745 1
gene 1 25 12 -0.381808 0 5295 -0.381808 1
gene 1 14 25 -4.64691 0 7078 -4.64691 1
gene 1 9 20 -3.40099 0 8659 -3.40099 1
gene 1 16 20 1.30553 0 8827 1.30553 1
gene 1 24 24 0.825556 1 9233 0.825556 1
gene 1 5 402 1.87294 0 9773 1.87294 1
gene 1 402 27 -1.34651 0 9774 -1.34651 1
gene 1 12 12 0.497661 1 10035 0.497661 1
gene 1 25 18 -1.16203 0 10548 -1.16203 1
gene 1 27 33 -2.21433 0 10758 -2.21433 1
gene 1 14 12 2.78781 0 10954 2.78781 1
gene 1 17 16 1.10815 0 11530 1.10815 1
gene 1 10 25 -2.39826 0 12267 -2.39826 1
gene 1 23 23 0.604394 1 12443 0.604394 1
gene 1 17 13 -2.93183 0 13957 -2.93183 1
gene 1 13 13 0.249822 1 14400 0.249822 1
gene 1 33 33 0.125884 1 14803 0.125884 1
gene 1 402 18 -0.760911 0 15019 -0.760911 1
gene 1 27 26 -0.427819 0 16041 -0.427819 1
gene 1 22 27 -2.83429 1 16792 -2.83429 1
gene 1 9 16 -3.13665 0 16996 -3.13665 1
gene 1 12 24 2.0776 0 17119 2.0776 1
gene 1 10 12 0.125731 0 17325 0.125731 1
gene 1 25 25 -0.648379 1 17749 -0.648379 1
gene 1 3 18 -1.39334 0 18478 -1.39334 1
gene 1 20 20 0.559765 1 18662 0.559765 1
gene 1 15 33 -1.30292 1 20331 -1.30292 1
gene 1 11 23 -3.26234 0 20389 -3.26234 1
gene 1 30 816 0.184287 0 20617 0.184287 1
gene 1 816 12 -1.06368 0 20618 -1.06368 1
gene 1 34 816 -0.824733 0 20859 -0.824733 1
gene 1 27 28 -0.975827 0 22254 -0.975827 1
gene 1 19 17 0.997061 0 22440 0.997061 1
gene 1 10 13 0.211848 0 23462 0.211848 1
gene 1 18 18 -1.40796 1 23683 -1.40796 1
gene 1 22 17 -0.638549 0 24598 -0.638549 1
gene 1 22 816 -0.102524 0 25992 -0.102524 1
gene 1 23 25 -0.555693 0 26613 -0.555693 1
gene 1 402 28 -0.689697 0 27218 -0.689697 1
gene 1 7 18 -1.58949 0 28499 -1.58949 1
gene 1 2 17 0.619518 0 28890 0.619518 1
gene 1 8 15 -3.84921 0 29611 -3.84921 1
gene 1 2 12 -0.117414 0 30215 -0.117414 1
gene 1 14 20 -0.882128 0 30634 -0.882128 1
gene 1 28 28 1.75067 1 31199 1.75067 1
gene 1 15 15 0.143961 1 31604 0.143961 1
gene 1 1 816 -1.19517 0 32452 -1.19517 1
gene 1 11 1344 1.206 0 33125 1.206 1
gene 1 1344 26 3.66115 0 33126 3.66115 1
gene 1 19 19 0.361599 1 33241 0.361599 1
gene 1 1344 21 -0.136266 0 33515 -0.136266 1
gene 1 26 26 -0.352688 1 33676 -0.352688 1
gene 1 20 15 -0.219721 0 34384 -0.219721 1
gene 1 34 20 1.79453 0 34712 1.79453 1
gene 1 22 14 -0.537366 0 34906 -0.537366 1
gene 1 1344 19 -1.81253 0 36560 -1.81253 1
gene 1 1344 12 -0.771208 0 38326 -0.771208 1
gene 1 6 16 1.16534 0 39307 1.16534 1
gene 1 10 15 -1.31828 0 39510 -1.31828 1
gene 1 1344 30 2.48012 0 40113 2.48012 1
gene 1 25 15 -0.82246 0 40769 -0.82246 1
gene 1 1 15 1.928 0 41141 1.928 1
gene 1 24 816 0.014229 0 42035 0.014229 1
gene 1 5 24 -0.185612 0 42650 -0.185612 1
gene 1 7 1344 0.128795 0 43483 0.128795 1
gene 1 15 12 -0.89581 0 44870 -0.89581 1
gene 1 1 23 0.050116 0 45676 0.050116 1
gene 1 7 28 0.264736 0 46101 0.264736 1
gene 1 1 18 1.25889 0 46349 1.25889 1
gene 1 1 22 -1.11119 0 46759 -1.11119 1
gene 1 1344 17 -0.3225 0 46976 -0.3225 1
gene 1 10 1344 1.22462 0 47214 1.22462 1
gene 1 22 20 0.36238 0 48810 0.36238 1
gene 1 19 16 1.67718 0 49016 1.67718 1
gene 1 1344 18 1.75823 0 49266 1.75823 1
gene 1 402 25 0.28007 0 49490 0.28007 1
gene 1 3 14 -0.905756 0 50628 -0.905756 1
gene 1 18 24 -0.29013 0 51171 -0.29013 1
gene 1 33 18 1.53952 0 52185 1.53952 1
gene 1 402 20 0.268001 0 52578 0.268001 1
gene 1 33 21 -0.0537717 0 52983 -0.0537717 1
gene 1 3 12 1.19391 0 53147 1.19391 1
gene 1 33 17 0.845847 0 53296 0.845847 1
gene 1 1344 22 -0.930296 0 54160 -0.930296 1
gene 1 5 15 0.293574 0 54384 0.293574 1
gene 1 25 13 -0.410575 0 55542 -0.410575 1
gene 1 16 18 0.125483 0 55753 0.125483 1
gene 1 14 14 0.691715 1 56108 0.691715 1
gene 1 10 18 0.0831233 0 56605 0.0831233 1
gene 1 30 21 -0.134203 0 56998 -0.134203 1
gene 1 11 14 0.23159 0 57193 0.23159 1
gene 1 14 23 -0.31513 0 57505 -0.31513 1
gene 1 3 402 0.775086 0 57675 0.775086 1
gene 1 4 2199 0.312795 0 57883 0.312795 1
gene 1 2199 18 0.518619 0 57884 0.518619 1
gene 1 10 816 0.549694 0 58323 0.549694 1
gene 1 9 18 1.43064 0 58673 1.43064 1
gene 1 1 2199 -0.549703 0 59154 -0.549703 1
gene 1 16 16 -1.98778 1 59185 -1.98778 1
gene 1 26 14 0.784041 0 59557 0.784041 1
gene 1 13 24 0.71074 0 61614 0.71074 1
gene 1 27 27 -0.244576 1 62173 -0.244576 1
gene 1 33 14 1.67528 0 62371 1.67528 1
gene 1 21 27 -0.245282 1 62753 -0.245282 1
gene 1 27 2199 0.116885 0 63188 0.116885 1
gene 1 2199 12 0.294472 0 63409 0.294472 1
gene 1 22 24 -0.526155 0 63894 -0.526155 1
gene 1 33 2199 -0.230061 0 65662 -0.230061 1
gene 1 2 23 -0.356365 0 65870 -0.356365 1
gene 1 17 25 0.860261 0 66102 0.860261 1
gene 1 14 24 0.659114 0 66599 0.659114 1
gene 1 402 402 0.914241 1 66741 0.914241 1
gene 1 28 26 -0.438705 0 67169 -0.438705 1
gene 1 30 30 -0.135242 1 68377 -0.135242 1
gene 1 1 19 0.65862 0 68618 0.65862 1
gene 1 6 23 -0.511845 0 68842 -0.511845 1
gene 1 816 816 -0.289338 1 68903 -0.289338 1
gene 1 7 19 0.855013 0 69474 0.855013 1
gene 1 1344 15 0.310203 0 69674 0.310203 1
genomeend 695
