/* Organism #50160976 Fitness: -2.27687e+08 
genomestart 173
trait 1 0.329905 0.118749 0.465084 0.346187 0 1 0.119659 0.508897 
node 1 1 0
node 2 1 1
node 3 1 1
node 4 1 1
node 5 1 1
node 6 1 1
node 7 1 1
node 8 1 1
node 9 1 1
node 10 1 1
node 11 1 1
node 12 1 2
node 13 1 2
node 14 1 2
node 15 1 2
node 16 1 2
node 17 1 2
node 18 1 2
node 19 1 2
node 20 1 2
node 21 1 2
node 22 1 2
node 23 1 2
node 24 1 2
node 25 1 2
node 33 1 3
node 35 1 3
node 787 1 3
node 800 1 3
node 1379 1 3
node 1894 1 3
node 1989 1 3
node 2306 1 3
node 2469 1 3
gene 1 1 33 -6.92319 0 8 -6.92319 1
gene 1 2 35 -2.99195 0 20 -2.99195 1
gene 1 6 35 1.69086 0 60 1.69086 1
gene 1 7 33 8 0 68 8 1
gene 1 8 33 -0.631255 0 78 -0.631255 1
gene 1 9 35 6.53331 0 90 6.53331 1
gene 1 11 35 1.71971 0 110 1.71971 1
gene 1 33 12 -5.30351 0 209 -5.30351 1
gene 1 33 13 -1.86805 0 210 -1.86805 1
gene 1 33 14 1.70581 0 211 1.70581 1
gene 1 33 16 -5.35395 0 213 -5.35395 1
gene 1 33 18 -1.03204 0 215 -1.03204 1
gene 1 33 19 3.01259 0 216 3.01259 1
gene 1 33 21 2.16217 0 218 2.16217 1
gene 1 33 22 -0.516311 0 219 -0.516311 1
gene 1 33 24 3.03971 0 221 3.03971 1
gene 1 35 12 -4.80952 0 237 -4.80952 1
gene 1 35 13 -6.35504 0 238 -6.35504 1
gene 1 35 15 -0.322434 0 240 -0.322434 1
gene 1 35 17 1.85931 0 242 1.85931 1
gene 1 35 22 -1.81768 0 247 -1.81768 1
gene 1 35 25 -2.78264 0 250 -2.78264 1
gene 1 17 20 -1.26175 0 627 -1.26175 1
gene 1 18 15 2.28581 0 1810 2.28581 1
gene 1 24 24 4.17836 1 2592 4.17836 1
gene 1 21 21 0.0859099 1 3643 0.0859099 1
gene 1 25 25 -0.825533 1 5500 -0.825533 1
gene 1 23 12 -2.79418 0 6714 -2.79418 1
gene 1 5 16 0.672509 0 12444 0.672509 1
gene 1 17 22 -1.76506 0 12660 -1.76506 1
gene 1 17 17 -0.516988 1 13486 -0.516988 1
gene 1 7 17 1.38623 0 14089 1.38623 1
gene 1 17 16 0.678993 0 14275 0.678993 1
gene 1 3 15 0.644091 0 15285 0.644091 1
gene 1 22 17 1.92731 1 16457 1.92731 1
gene 1 15 21 0.524435 0 16772 0.524435 1
gene 1 15 19 3.65935 0 17586 3.65935 1
gene 1 4 19 7.19489 0 18163 7.19489 1
gene 1 8 25 1.2158 0 18531 1.2158 1
gene 1 1 15 -3.73492 0 18711 -3.73492 1
gene 1 12 21 0.723128 0 20355 0.723128 1
gene 1 8 787 1.06386 0 20540 1.06386 1
gene 1 800 24 0.175182 0 20920 0.175182 1
gene 1 4 23 -2.47559 0 22642 -2.47559 1
gene 1 2 13 -2.28141 0 22832 -2.28141 1
gene 1 14 14 0.140996 1 23078 0.140996 1
gene 1 800 787 0.484501 0 23567 0.484501 1
gene 1 11 800 -1.97058 0 23927 -1.97058 1
gene 1 15 20 3.78886 0 24104 3.78886 1
gene 1 24 18 3.88595 0 24322 3.88595 1
gene 1 23 15 -2.15796 1 24538 -2.15796 1
gene 1 2 18 1.37459 0 27171 1.37459 1
gene 1 9 15 -1.18349 0 27375 -1.18349 1
gene 1 3 13 -3.20527 0 27777 -3.20527 1
gene 1 19 19 4.91707 1 27870 4.91707 1
gene 1 10 15 -1.35281 0 28183 -1.35281 1
gene 1 25 14 -1.79531 0 28308 -1.79531 1
gene 1 4 12 -3.88719 0 28519 -3.88719 1
gene 1 16 16 -1.00241 1 28832 -1.00241 1
gene 1 6 25 0.249087 0 29567 0.249087 1
gene 1 11 12 -1.27256 0 29711 -1.27256 1
gene 1 10 18 3.68003 0 31431 3.68003 1
gene 1 11 17 -1.55514 0 32216 -1.55514 1
gene 1 7 25 2.34221 0 34178 2.34221 1
gene 1 787 787 -2.48792 1 35829 -2.48792 1
gene 1 7 18 -0.0200019 0 36131 -0.0200019 1
gene 1 21 1379 4.6947 0 36468 4.6947 1
gene 1 12 20 2.08299 0 38088 2.08299 1
gene 1 10 25 -0.141404 0 38922 -0.141404 1
gene 1 19 22 -0.406 0 39334 -0.406 1
gene 1 33 33 1.65965 1 39739 1.65965 1
gene 1 22 22 -0.334008 1 39863 -0.334008 1
gene 1 7 787 4.75018 0 40176 4.75018 1
gene 1 12 12 0.189541 1 41112 0.189541 1
gene 1 6 21 -1.70542 0 41618 -1.70542 1
gene 1 6 22 1.83405 0 41909 1.83405 1
gene 1 19 787 2.20938 0 42662 2.20938 1
gene 1 16 1379 -2.44273 0 43480 -2.44273 1
gene 1 1 18 -0.67889 0 43821 -0.67889 1
gene 1 15 17 -3.86591 0 43982 -3.86591 1
gene 1 25 15 1.30603 0 44275 1.30603 1
gene 1 2 17 0.702493 0 44397 0.702493 1
gene 1 25 18 3.93885 0 44819 3.93885 1
gene 1 787 12 -1.39032 0 45973 -1.39032 1
gene 1 1379 1379 0.107845 1 46076 0.107845 1
gene 1 16 25 -1.27409 1 46987 -1.27409 1
gene 1 20 16 -1.05313 0 48561 -1.05313 1
gene 1 13 23 0.762388 0 48695 0.762388 1
gene 1 11 1894 4.88721 0 49551 4.88721 1
gene 1 1894 33 -0.116914 0 49552 -0.116914 1
gene 1 25 19 -1.01281 0 50191 -1.01281 1
gene 1 2 24 0.0567757 0 50553 0.0567757 1
gene 1 9 23 -0.995963 0 50762 -0.995963 1
gene 1 25 21 -0.184637 0 51856 -0.184637 1
gene 1 5 1989 1.27672 0 52272 1.27672 1
gene 1 1989 33 -3.46233 0 52273 -3.46233 1
gene 1 20 21 0.00982506 0 54106 0.00982506 1
gene 1 35 1894 -0.548963 0 55189 -0.548963 1
gene 1 5 17 -0.224365 0 55599 -0.224365 1
gene 1 1894 787 0.929305 0 55787 0.929305 1
gene 1 6 12 1.09959 0 55923 1.09959 1
gene 1 13 15 -0.0356811 0 56112 -0.0356811 1
gene 1 787 20 -1.33902 0 56292 -1.33902 1
gene 1 15 787 -1.64966 0 56740 -1.64966 1
gene 1 5 15 1.77225 0 57377 1.77225 1
gene 1 6 787 1.68402 0 57986 1.68402 1
gene 1 25 16 -0.786882 0 58186 -0.786882 1
gene 1 3 35 1.58272 0 58408 1.58272 1
gene 1 23 15 -0.161963 0 59359 -0.161963 1
gene 1 25 12 0.780207 0 59850 0.780207 1
gene 1 1379 23 -0.0767813 1 60375 -0.0767813 1
gene 1 13 2306 0.722565 0 60661 0.39444 1
gene 1 2306 17 1.495 0 60662 1.495 1
gene 1 6 800 -1.44365 0 62045 -1.44365 1
gene 1 13 13 -0.32632 1 62569 -0.32632 1
gene 1 4 22 -0.707521 0 63873 -0.707521 1
gene 1 3 2469 1 0 64650 0 1
gene 1 2469 21 -0.323627 0 64651 0 1
gene 1 12 14 0.0630557 0 64869 0.0630557 1
gene 1 18 12 0.111742 0 65108 0.111742 1
gene 1 13 787 0.610404 0 65275 0.610404 1
gene 1 9 25 0.371771 0 66159 0.371771 1
gene 1 7 22 0.450273 0 66567 0.450273 1
genomeend 173
