/* Organism #57889392 Fitness: -1.58044e+08 
genomestart 498
trait 1 0.360941 0.269426 0.152856 0.457375 0.428115 0.209148 0.502488 0.8134 
node 1 1 0
node 2 1 1
node 3 1 1
node 4 1 1
node 5 1 1
node 6 1 1
node 7 1 1
node 8 1 1
node 9 1 1
node 10 1 1
node 11 1 1
node 12 1 2
node 13 1 2
node 14 1 2
node 15 1 2
node 16 1 2
node 17 1 2
node 18 1 2
node 19 1 2
node 20 1 2
node 21 1 2
node 22 1 2
node 23 1 2
node 24 1 2
node 25 1 2
node 30 1 3
node 35 1 3
node 81 1 3
node 1509 1 3
node 1597 1 3
node 1933 1 3
gene 1 1 30 -4.46756 0 5 -4.46756 1
gene 1 1 35 -6.01523 0 10 -6.01523 1
gene 1 4 30 0.517399 0 35 0.517399 1
gene 1 4 35 2.43383 0 40 2.43383 1
gene 1 5 30 -7.0196 0 45 -7.0196 1
gene 1 6 30 0.0580717 0 55 0.0580717 1
gene 1 7 30 6.36869 0 65 6.36869 1
gene 1 7 35 0.168852 0 70 0.168852 1
gene 1 8 30 0.839372 0 75 0.839372 1
gene 1 9 30 -0.325748 0 85 -0.325748 1
gene 1 10 30 1.45088 0 95 1.45088 1
gene 1 10 35 -1.10994 0 100 -1.10994 1
gene 1 11 30 -1.53613 0 105 -1.53613 1
gene 1 11 35 0.0188623 0 110 0.0188623 1
gene 1 30 12 -7.17912 0 167 -7.17912 1
gene 1 30 14 0.283273 0 169 0.283273 1
gene 1 30 16 -2.0549 0 171 -2.0549 1
gene 1 30 17 2.55926 0 172 2.55926 1
gene 1 30 18 -2.76561 0 173 -2.76561 1
gene 1 30 20 -2.05801 0 175 -2.05801 1
gene 1 30 21 2.94311 0 176 2.94311 1
gene 1 30 22 6.09867 0 177 6.09867 1
gene 1 30 25 5.73677 0 180 5.73677 1
gene 1 35 12 -5.13446 0 237 -5.13446 1
gene 1 35 13 1.87281 0 238 1.87281 1
gene 1 35 14 -7.19008 0 239 -7.19008 1
gene 1 35 15 3.46003 0 240 3.46003 1
gene 1 35 18 -0.689001 0 243 -0.689001 1
gene 1 35 19 -2.82796 0 244 -2.82796 1
gene 1 35 20 1.36651 0 245 1.36651 1
gene 1 35 22 0.832579 0 247 0.832579 1
gene 1 35 23 0.849468 0 248 0.849468 1
gene 1 35 24 -0.211475 0 249 -0.211475 1
gene 1 81 12 -1.22147 0 1392 -1.22147 1
gene 1 35 35 1.53354 1 2125 1.53354 1
gene 1 19 19 4.36646 1 2537 4.36646 1
gene 1 23 15 -6.35414 0 2721 -6.35414 1
gene 1 18 21 0.697568 0 3833 0.697568 1
gene 1 3 19 0.380342 0 6767 0.380342 1
gene 1 2 18 -1.55237 0 6945 -1.55237 1
gene 1 8 21 1.34742 0 7375 1.34742 1
gene 1 24 22 0.893765 0 8571 0.893765 1
gene 1 17 17 1.66587 1 9705 1.66587 1
gene 1 20 25 0.0182678 0 9991 0.0182678 1
gene 1 3 15 3.28372 0 11258 3.28372 1
gene 1 7 81 1.57699 0 13419 1.57699 1
gene 1 10 16 -2.69578 0 15307 -2.69578 1
gene 1 22 12 -3.40837 0 15636 -3.40837 1
gene 1 21 19 -1.99932 0 21112 -1.99932 1
gene 1 6 21 -3.52449 0 21379 -3.52449 1
gene 1 8 19 1.60472 0 21999 1.60472 1
gene 1 5 13 0.666272 0 23033 0.666272 1
gene 1 24 24 -1.25494 1 23860 -1.25494 1
gene 1 25 12 -1.59911 0 25366 -1.59911 1
gene 1 16 22 2.13313 0 27227 2.13313 1
gene 1 20 17 0.750798 0 28987 0.750798 1
gene 1 25 25 2.57073 1 29154 2.57073 1
gene 1 18 15 -1.88998 0 29701 -1.88998 1
gene 1 1 20 -5.45596 0 30392 -5.45596 1
gene 1 2 13 2.7484 0 31186 2.7484 1
gene 1 7 22 -0.361448 0 31600 -0.361448 1
gene 1 20 24 0.535239 0 33022 0.535239 1
gene 1 18 16 2.56411 0 33193 2.56411 1
gene 1 6 24 -2.13444 0 33419 -2.13444 1
gene 1 30 30 4.58191 1 33791 4.58191 1
gene 1 30 35 1.37147 0 34235 1.37147 1
gene 1 21 21 -3.16142 1 36650 -3.16142 1
gene 1 24 16 -4.62994 0 36825 -4.62994 1
gene 1 6 13 0.177048 0 37147 0.177048 1
gene 1 81 81 0.377751 1 37358 0.377751 1
gene 1 1 24 -1.59697 0 37558 -1.59697 1
gene 1 18 20 0.81998 0 38321 0.81998 1
gene 1 81 24 -3.95238 0 38889 -3.95238 1
gene 1 81 1509 -2.50477 0 39107 -2.50477 1
gene 1 1509 35 -1.71959 0 39108 -1.71959 1
gene 1 16 23 -2.17497 0 39631 -2.17497 1
gene 1 9 13 0.865572 0 40024 0.865572 1
gene 1 1509 1509 -2.96879 1 40199 -2.96879 1
gene 1 14 13 1.45318 0 40369 1.45318 1
gene 1 22 23 -0.739316 0 40565 -0.739316 1
gene 1 11 24 3.44802 0 40823 3.44802 1
gene 1 35 17 2.84979 0 41511 2.84979 1
gene 1 10 1597 -1.47735 0 41751 -1.47735 1
gene 1 3 25 1.08577 0 41885 1.08577 1
gene 1 14 23 -2.44249 0 42163 -2.44249 1
gene 1 16 13 -0.581074 0 43082 -0.581074 1
gene 1 24 19 2.51835 0 43692 2.51835 1
gene 1 10 23 1.86708 0 44909 1.86708 1
gene 1 20 23 -2.09245 0 46109 -2.09245 1
gene 1 1597 24 -0.571617 0 46301 -0.571617 1
gene 1 12 13 -0.0830444 0 46603 -0.0830444 1
gene 1 4 23 0.182982 0 47394 0.182982 1
gene 1 15 23 0.389448 1 48690 0.389448 1
gene 1 2 21 0.683151 0 48861 0.683151 1
gene 1 11 21 -0.266537 0 49460 -0.266537 1
gene 1 9 1933 -0.766045 0 50020 -0.766045 1
gene 1 1933 19 2.51887 0 50021 2.51887 1
gene 1 10 1509 -2.83447 0 50702 -2.83447 1
gene 1 24 20 1.64441 1 51735 1.64441 1
gene 1 4 21 1.39549 0 52833 1.39549 1
gene 1 10 1933 -1.07861 0 53296 -1.07861 1
gene 1 2 35 -0.746972 0 53640 -0.746972 1
gene 1 21 18 0.31548 1 54226 0.31548 1
gene 1 6 17 2.44609 0 56674 2.44609 1
gene 1 1 16 0.389649 0 58058 0.389649 1
gene 1 22 1933 -0.971236 0 58793 -0.971236 1
gene 1 16 14 0.503435 0 59580 0.503435 1
gene 1 20 21 0.969045 0 59784 0.969045 1
gene 1 1597 1597 0.911576 1 59818 0.911576 1
gene 1 16 16 -0.1092 1 61032 -0.1092 1
gene 1 4 16 -1.55436 0 61267 -1.55436 1
gene 1 1933 1933 -0.783209 1 61605 -0.783209 1
gene 1 22 17 0.201902 0 61813 0.201902 1
gene 1 81 22 -1.43092 0 62798 -1.43092 1
gene 1 12 14 0.136092 0 63002 0.136092 1
gene 1 20 20 0.694715 1 63363 0.694715 1
gene 1 21 1509 1.49485 1 63575 1.49485 1
gene 1 1 23 -0.309376 0 63782 -0.309376 1
gene 1 12 1509 0.355278 1 63976 0.355278 1
gene 1 18 14 -2.27855 0 64392 -2.27855 1
gene 1 14 22 -0.359608 1 64715 -0.359608 1
gene 1 4 13 0.977381 0 64887 0.977381 1
gene 1 23 23 -0.32196 1 65067 -0.32196 1
gene 1 6 1933 -0.694242 0 65213 -0.694242 1
gene 1 15 15 0.285909 1 65511 0.285909 1
gene 1 3 30 -0.127428 0 65709 -0.127428 1
gene 1 7 17 0.0391975 0 66098 0.0391975 1
gene 1 21 25 0.631565 0 66466 0.631565 1
gene 1 1509 1597 0.44884 0 67501 0.44884 1
gene 1 4 12 -0.0567569 0 67705 -0.0567569 1
gene 1 13 15 -0.868106 0 67901 -0.868106 1
gene 1 3 13 0.805124 0 68094 0.805124 1
genomeend 498
