/* Organism #77443408 Fitness: -1.57917e+08 
genomestart 399
trait 1 0.711587 0.555704 0.711036 0.810035 0.752064 0.663697 0.33947 0.846708 
node 1 1 0
node 2 1 1
node 3 1 1
node 4 1 1
node 5 1 1
node 6 1 1
node 7 1 1
node 8 1 1
node 9 1 1
node 10 1 1
node 11 1 1
node 12 1 2
node 13 1 2
node 14 1 2
node 15 1 2
node 16 1 2
node 17 1 2
node 18 1 2
node 19 1 2
node 20 1 2
node 21 1 2
node 22 1 2
node 23 1 2
node 24 1 2
node 25 1 2
node 32 1 3
node 34 1 3
node 677 1 3
node 1026 1 3
node 1386 1 3
node 1738 1 3
node 2006 1 3
node 2096 1 3
node 2141 1 3
node 2420 1 3
gene 1 1 32 -5.28996 0 7 -5.28996 1
gene 1 1 34 4.42947 0 9 4.42947 1
gene 1 2 34 2.04093 0 19 2.04093 1
gene 1 4 32 -1.55078 0 37 -1.55078 1
gene 1 4 34 -3.09607 0 39 -3.09607 1
gene 1 5 32 -7.26124 0 47 -7.26124 1
gene 1 6 34 2.28682 0 59 2.28682 1
gene 1 7 32 5.92061 0 67 5.92061 1
gene 1 8 34 1.65026 0 79 1.65026 1
gene 1 9 32 2.33152 0 87 2.33152 1
gene 1 9 34 1.57891 0 89 1.57891 1
gene 1 10 32 2.17718 0 97 2.17718 1
gene 1 11 32 -2.48859 0 107 -2.48859 1
gene 1 32 12 -4.92469 0 195 -4.92469 1
gene 1 32 13 -1.96594 0 196 -1.96594 1
gene 1 32 18 -0.549564 0 201 -0.549564 1
gene 1 32 20 2.12975 0 203 2.12975 1
gene 1 32 24 4.81898 0 207 4.81898 1
gene 1 32 25 2.34542 0 208 2.34542 1
gene 1 34 13 -2.52646 0 224 -2.52646 1
gene 1 34 14 1.16098 0 225 1.16098 1
gene 1 34 15 -0.960412 0 226 -0.960412 1
gene 1 34 16 -0.309441 0 227 -0.309441 1
gene 1 34 17 5.05211 0 228 5.05211 1
gene 1 34 18 -3.00523 0 229 -3.00523 1
gene 1 34 19 0.543182 0 230 0.543182 1
gene 1 34 20 -3.69922 0 231 -3.69922 1
gene 1 34 23 -3.09921 0 234 -3.09921 1
gene 1 34 24 -6.66827 0 235 -6.66827 1
gene 1 34 25 -6.54918 0 236 -6.54918 1
gene 1 10 21 0.964234 0 1223 0.964234 1
gene 1 34 34 -1.27356 1 1987 -1.27356 1
gene 1 19 21 0.808159 0 2771 0.808159 1
gene 1 2 16 0.990572 0 4246 0.990572 1
gene 1 8 22 2.31293 0 4434 2.31293 1
gene 1 24 17 1.05136 0 4514 1.05136 1
gene 1 18 18 3.33106 1 4683 3.33106 1
gene 1 2 18 0.0429467 0 5133 0.0429467 1
gene 1 22 23 -0.489932 0 6879 -0.489932 1
gene 1 21 13 1.78425 1 8546 1.78425 1
gene 1 22 22 -0.601483 1 8752 -0.601483 1
gene 1 1 19 5.34105 0 9047 5.34105 1
gene 1 8 12 -5.06932 0 10351 -5.06932 1
gene 1 23 25 0.474412 0 10535 0.474412 1
gene 1 15 13 2.85174 0 11478 2.85174 1
gene 1 19 22 0.800858 0 12499 0.800858 1
gene 1 17 13 -0.626562 0 13010 -0.626562 1
gene 1 11 15 1.53255 0 13970 1.53255 1
gene 1 34 32 -1.84619 0 15466 -1.84619 1
gene 1 17 17 -2.49075 1 16838 -2.49075 1
gene 1 3 25 -2.68345 0 16931 -2.68345 1
gene 1 8 677 0.053078 0 16996 0.053078 1
gene 1 22 14 -2.91246 0 17229 -2.91246 1
gene 1 1 15 -3.666 0 18414 -3.666 1
gene 1 25 25 -1.26305 1 18623 -1.26305 1
gene 1 17 34 0.101972 1 19411 0.101972 1
gene 1 1 25 1.81259 0 20207 1.81259 1
gene 1 16 22 3.99039 0 21630 3.99039 1
gene 1 19 25 2.0864 0 22010 2.0864 1
gene 1 17 22 -1.42483 0 23637 -1.42483 1
gene 1 7 13 -6.09096 0 24383 -6.09096 1
gene 1 4 20 0.55844 0 26291 0.55844 1
gene 1 8 17 1.39212 0 27288 1.39212 1
gene 1 25 13 0.578852 0 29016 0.578852 1
gene 1 18 14 -2.16075 0 29214 -2.16075 1
gene 1 10 17 0.309246 0 29427 0.309246 1
gene 1 10 677 5.67517 0 31180 5.67517 1
gene 1 24 24 1.14774 1 31920 1.14774 1
gene 1 3 22 3.24612 0 32408 3.24612 1
gene 1 8 1386 0.46211 0 34336 0.46211 1
gene 1 1386 15 0.88194 0 34337 0.88194 1
gene 1 8 1026 2.38773 0 36581 2.38773 1
gene 1 1 14 -2.96054 0 37879 -2.96054 1
gene 1 12 677 -2.9078 0 37993 -2.9078 1
gene 1 677 1386 0.198444 0 40319 0.198444 1
gene 1 677 24 -4.16991 0 41177 -4.16991 1
gene 1 1026 13 2.95152 0 41489 2.95152 1
gene 1 6 12 2.31772 0 42234 2.31772 1
gene 1 34 22 -1.6046 0 42436 -1.6046 1
gene 1 13 1026 2.03285 1 43071 2.03285 1
gene 1 16 1738 1.38437 0 43689 1.38437 1
gene 1 1738 13 1.57096 0 43690 1.57096 1
gene 1 25 14 3.52061 0 44107 3.52061 1
gene 1 12 20 1.6679 0 44297 1.6679 1
gene 1 3 17 -0.307768 0 45546 -0.307768 1
gene 1 5 15 -0.247774 0 45791 -0.247774 1
gene 1 32 32 2.28009 1 47290 2.28009 1
gene 1 4 24 -0.782542 0 47588 -0.782542 1
gene 1 1738 19 0.888942 0 48723 0.888942 1
gene 1 1738 1738 -3.53829 1 48953 -3.53829 1
gene 1 24 18 -0.988856 0 49374 -0.988856 1
gene 1 16 23 -0.873196 0 49574 -0.873196 1
gene 1 14 14 -5.40861 1 50506 -5.40861 1
gene 1 23 23 -0.126687 1 50652 -0.126687 1
gene 1 9 2006 1.50591 0 50925 1.50591 1
gene 1 2006 20 -1.62674 0 50926 -1.62674 1
gene 1 5 12 -1.77301 0 51474 -1.77301 1
gene 1 16 18 -2.46811 0 52818 -2.46811 1
gene 1 2096 13 2.15999 0 53023 2.15999 1
gene 1 11 1386 -0.92914 0 53217 -0.92914 1
gene 1 14 21 2.26059 0 53441 2.26059 1
gene 1 7 12 0.264338 0 53945 0.264338 1
gene 1 25 2141 0.544556 0 54150 0.544556 1
gene 1 18 20 0.894733 0 54344 0.894733 1
gene 1 2006 19 -2.08338 0 54619 -2.08338 1
gene 1 12 19 2.59964 0 55503 2.59964 1
gene 1 2141 21 -0.00735339 0 55571 -0.00735339 1
gene 1 24 20 0.50903 0 56431 0.50903 1
gene 1 1 16 0.0527766 0 56683 0.0527766 1
gene 1 1738 1026 0.931297 0 57193 0.931297 1
gene 1 25 18 1.20882 0 57431 1.20882 1
gene 1 5 22 -0.068584 0 57842 -0.068584 1
gene 1 6 1738 -0.610925 0 58842 -0.610925 1
gene 1 2096 12 -2.07998 0 59230 -2.07998 1
gene 1 2 22 -0.240597 0 59873 -0.240597 1
gene 1 34 2141 1.08573 0 60524 1.08573 1
gene 1 8 2006 -1.38637 0 60805 -1.38637 1
gene 1 1 17 0.0984501 0 61101 0.0984501 1
gene 1 10 1026 -0.0390745 0 61416 -0.0390745 1
gene 1 2420 15 -5.93795 0 61529 -5.93795 1
gene 1 19 23 0.154919 0 61764 0.154919 1
gene 1 9 21 -1.17334 0 61943 -1.17334 1
gene 1 677 677 0.0728581 1 62552 0.0728581 1
gene 1 1026 677 0.0607186 0 62763 0.0607186 1
gene 1 19 1026 1.18706 0 63102 1.18706 1
gene 1 16 13 -0.741612 0 63336 -0.741612 1
gene 1 17 19 -0.770683 1 64326 -0.770683 1
gene 1 22 17 -0.873151 1 64526 -0.873151 1
gene 1 2420 32 2.09227 0 64840 2.09227 1
gene 1 1386 13 0.15219 0 65034 0.15219 1
gene 1 25 20 -0.735402 0 65458 -0.735402 1
gene 1 34 677 0.718175 0 65529 0.718175 1
gene 1 1 2420 1.19997 0 65771 1.19997 1
gene 1 19 24 0.464997 0 66102 0.464997 1
gene 1 9 14 -0.450356 0 66277 -0.450356 1
gene 1 5 1738 1.29654 0 66501 1.29654 1
gene 1 2006 18 -0.964763 0 66706 -0.964763 1
gene 1 2096 18 -1.10602 0 66917 -1.10602 1
gene 1 2006 24 0.409641 0 67690 0.409641 1
gene 1 4 19 -0.289362 0 67900 -0.289362 1
gene 1 2006 2141 -0.0586493 0 68098 -0.0586493 1
gene 1 18 13 0.757647 0 68712 0.757647 1
gene 1 21 21 0.929765 1 69053 0.929765 1
gene 1 32 1738 -0.320706 0 69333 -0.320706 1
gene 1 4 25 -0.1677 0 69498 -0.1677 1
gene 1 3 23 0.337385 0 69682 0.337385 1
gene 1 1738 23 -0.1735 0 69909 -0.1735 1
gene 1 4 18 -0.937095 0 70517 -0.937095 1
gene 1 7 15 -0.1051 0 70698 -0.1051 1
gene 1 2420 2420 0.691099 1 70817 0.691099 1
gene 1 2006 2096 -0.279939 0 71110 -0.279939 1
genomeend 399
