/* Organism #38367424 Fitness: -1.54314e+08 
genomestart 341
trait 1 0.959195 0.66375 0.0163643 0.14391 0.549173 0.949024 0.399825 0.126483 
node 1 1 0
node 2 1 1
node 3 1 1
node 4 1 1
node 5 1 1
node 6 1 1
node 7 1 1
node 8 1 1
node 9 1 1
node 10 1 1
node 11 1 1
node 12 1 2
node 13 1 2
node 14 1 2
node 15 1 2
node 16 1 2
node 17 1 2
node 18 1 2
node 19 1 2
node 20 1 2
node 21 1 2
node 22 1 2
node 23 1 2
node 24 1 2
node 25 1 2
node 28 1 3
node 31 1 3
node 35 1 3
node 546 1 3
node 724 1 3
node 1911 1 3
node 2222 1 3
node 2240 1 3
node 2424 1 3
node 2598 1 3
gene 1 1 28 0.311222 0 3 0.311222 1
gene 1 1 31 1.76487 0 6 1.76487 1
gene 1 1 35 -1.90935 0 10 -1.90935 1
gene 1 2 28 -1.44667 0 13 -1.44667 1
gene 1 3 31 1.29724 0 26 1.29724 1
gene 1 3 35 -4.44554 0 30 -4.44554 1
gene 1 4 28 0.0331253 0 33 0.0331253 1
gene 1 5 31 6.87074 0 46 6.87074 1
gene 1 6 28 -2.16514 0 53 -2.16514 1
gene 1 6 31 0.70005 0 56 0.70005 1
gene 1 7 28 -0.865197 0 63 -0.865197 1
gene 1 7 31 -2.67506 0 66 -2.67506 1
gene 1 7 35 -2.42695 0 70 -2.42695 1
gene 1 8 31 -1.61921 0 76 -1.61921 1
gene 1 9 31 -0.654491 0 86 -0.654491 1
gene 1 9 35 -4.82518 0 90 -4.82518 1
gene 1 11 28 -3.27825 0 103 -3.27825 1
gene 1 11 31 0.394011 0 106 0.394011 1
gene 1 28 12 -4.6569 0 139 -4.6569 1
gene 1 28 14 -0.500051 0 141 -0.500051 1
gene 1 28 16 1.8357 0 143 1.8357 1
gene 1 28 17 -2.05121 0 144 -2.05121 1
gene 1 28 19 1.0442 0 146 1.0442 1
gene 1 28 20 -1.89487 0 147 -1.89487 1
gene 1 28 23 0.255599 0 150 0.255599 1
gene 1 28 24 2.21994 0 151 2.21994 1
gene 1 28 25 -1.35596 0 152 -1.35596 1
gene 1 31 12 -3.90099 0 181 -3.90099 1
gene 1 31 15 -0.388893 0 184 -0.388893 1
gene 1 31 17 -4.4028 0 186 -4.4028 1
gene 1 31 18 -0.823253 0 187 -0.823253 1
gene 1 31 21 -2.88075 0 190 -2.88075 1
gene 1 31 22 -4.19087 0 191 -4.19087 1
gene 1 31 24 -7.39745 0 193 -7.39745 1
gene 1 31 25 -3.48671 0 194 -3.48671 1
gene 1 35 12 -0.854428 0 237 -0.854428 1
gene 1 35 13 -0.20192 0 238 -0.20192 1
gene 1 35 14 -7.90035 0 239 -7.90035 1
gene 1 35 16 -0.678824 0 241 -0.678824 1
gene 1 35 17 -7.32468 0 242 -7.32468 1
gene 1 35 19 0.403888 0 244 0.403888 1
gene 1 35 20 7.3601 0 245 7.3601 1
gene 1 35 21 2.85874 0 246 2.85874 1
gene 1 35 23 -1.71764 0 248 -1.71764 1
gene 1 1 21 2.62189 0 2604 2.62189 1
gene 1 2 18 -1.82979 0 4641 -1.82979 1
gene 1 23 14 -0.0471202 0 5180 -0.0471202 1
gene 1 19 19 1.7067 1 5843 1.7067 1
gene 1 35 28 0.76884 0 7548 0.76884 1
gene 1 16 16 -0.371917 1 7938 -0.371917 1
gene 1 5 18 2.42501 0 8411 2.42501 1
gene 1 14 18 2.58362 0 8758 2.58362 1
gene 1 15 17 0.684166 0 9769 0.684166 1
gene 1 7 13 -0.00290105 0 9951 -0.00290105 1
gene 1 546 25 -3.78154 0 13662 -3.78154 1
gene 1 21 19 -7.77158 0 14017 -7.77158 1
gene 1 35 24 -0.26158 0 14587 -0.26158 1
gene 1 9 23 -0.472837 0 14944 -0.472837 1
gene 1 5 15 -0.534058 0 15565 -0.534058 1
gene 1 35 31 0.964999 0 15811 0.964999 1
gene 1 11 23 -5.98531 0 16124 -5.98531 1
gene 1 16 13 -3.46476 0 17218 -3.46476 1
gene 1 8 19 1.46753 0 17407 1.46753 1
gene 1 18 24 -2.31735 0 18265 -2.31735 1
gene 1 4 18 0.490634 0 22235 0.490634 1
gene 1 7 23 0.253202 0 23332 0.253202 1
gene 1 10 12 -3.92974 0 23896 -3.92974 1
gene 1 546 546 0.995855 1 25619 0.995855 1
gene 1 4 23 -1.73624 0 25864 -1.73624 1
gene 1 22 22 3.55468 1 27608 3.55468 1
gene 1 35 35 -0.269147 1 28097 -0.269147 1
gene 1 22 25 3.37079 0 28318 3.37079 1
gene 1 13 13 -0.0163785 1 29201 -0.0163785 1
gene 1 724 22 -0.348326 0 29610 -0.348326 1
gene 1 6 22 -3.24453 0 29811 -3.24453 1
gene 1 2 14 -1.94582 0 29990 -1.94582 1
gene 1 3 24 -1.77943 0 32104 -1.77943 1
gene 1 1 23 -0.787752 0 32597 -0.787752 1
gene 1 15 15 -1.90493 1 34356 -1.90493 1
gene 1 11 24 2.57327 0 35421 2.57327 1
gene 1 20 20 1.6063 1 35606 1.6063 1
gene 1 22 546 -1.02375 0 35820 -1.02375 1
gene 1 23 22 -1.95689 0 36198 -1.95689 1
gene 1 19 13 1.39056 0 36564 1.39056 1
gene 1 724 23 -6.65932 0 36987 -6.65932 1
gene 1 16 546 -3.14144 0 37494 -3.14144 1
gene 1 3 16 7.20233 0 39605 7.20233 1
gene 1 14 14 -1.11474 1 40392 -1.11474 1
gene 1 8 546 -0.658594 0 41427 -0.658594 1
gene 1 23 16 1.8456 0 41807 1.8456 1
gene 1 16 18 0.69383 0 43159 0.69383 1
gene 1 12 724 0.413698 0 43358 0.413698 1
gene 1 24 31 -1.96692 1 44511 -1.96692 1
gene 1 19 22 -0.343997 0 44923 -0.343997 1
gene 1 12 17 0.304755 0 45101 0.304755 1
gene 1 31 20 1.28242 0 45354 1.28242 1
gene 1 19 16 2.96285 0 45461 2.96285 1
gene 1 12 12 2.33551 1 46854 2.33551 1
gene 1 18 18 -0.968808 1 47055 -0.968808 1
gene 1 6 546 0.570488 0 47494 0.570488 1
gene 1 2 35 -1.00746 0 48521 -1.00746 1
gene 1 1911 12 3.32347 0 48729 3.32347 1
gene 1 15 19 -1.36869 0 49130 -1.36869 1
gene 1 24 24 0.34907 1 49561 0.34907 1
gene 1 2 24 -1.14464 0 49763 -1.14464 1
gene 1 6 15 0.336608 0 50033 0.336608 1
gene 1 1 16 -1.22448 0 50895 -1.22448 1
gene 1 22 12 -1.19333 1 51097 -1.19333 1
gene 1 2 16 0.708973 0 51318 0.708973 1
gene 1 15 20 -0.340739 0 52183 -0.340739 1
gene 1 21 546 1.6225 0 52604 1.6225 1
gene 1 15 23 1.18368 0 53485 1.18368 1
gene 1 23 13 0.973723 0 53975 0.973723 1
gene 1 13 21 0.460671 1 54357 0.460671 1
gene 1 17 546 1.403 0 55434 1.403 1
gene 1 5 2222 0.595532 0 57207 0.595532 1
gene 1 2222 28 -1.71243 0 57208 -1.71243 1
gene 1 724 2240 -0.176672 1 57643 -0.176672 1
gene 1 2240 724 0.0117027 0 57644 0.0117027 1
gene 1 20 12 -1.76821 0 58012 -1.76821 1
gene 1 23 546 -2.8812 0 58136 -2.8812 1
gene 1 2 25 0.145487 0 58291 0.145487 1
gene 1 1911 1911 0.975845 1 58552 0.975845 1
gene 1 11 14 0.335231 0 58709 0.335231 1
gene 1 7 15 0.661097 0 60421 0.661097 1
gene 1 18 25 0.933958 0 60618 0.933958 1
gene 1 2240 546 -0.789336 0 61402 -0.789336 1
gene 1 12 2424 1.47759 0 62047 1.47759 1
gene 1 2424 23 0.836831 0 62048 0.836831 1
gene 1 3 1911 0.839968 0 62217 0.839968 1
gene 1 19 724 0.515424 0 62422 0.515424 1
gene 1 12 19 -1.43262 0 62534 -1.43262 1
gene 1 31 2424 -1.35475 0 62945 -1.35475 1
gene 1 10 2424 -0.269917 0 63148 -0.269917 1
gene 1 3 18 -0.380005 0 63825 -0.380005 1
gene 1 724 2424 -1.20992 0 64233 -1.20992 1
gene 1 16 14 0.28129 0 64642 0.28129 1
gene 1 23 17 -0.603291 0 65469 -0.603291 1
gene 1 4 25 1.54897 0 65532 1.54897 1
gene 1 2424 25 -0.454301 0 66072 -0.454301 1
gene 1 12 24 0.0909607 0 66322 0.0909607 1
gene 1 5 2598 0.901514 0 66659 0.260889 1
gene 1 2598 22 1.66614 0 66660 0.734365 1
gene 1 4 14 0.254638 0 67041 0.254638 1
gene 1 9 21 0.845717 0 67618 0.845717 1
gene 1 4 2598 0.818889 0 68670 0.818889 1
gene 1 12 18 -0.122454 0 69115 -0.122454 1
gene 1 22 14 0.426395 0 69548 0.426395 1
gene 1 724 724 0.498509 1 69746 0.498509 1
gene 1 20 21 0.938506 0 70113 0.938506 1
gene 1 1911 19 -0.0645895 0 70523 -0.0645895 1
gene 1 23 23 -0.369297 1 70660 -0.369297 1
gene 1 2 2222 -0.246141 0 70913 -0.246141 1
genomeend 341
