/* Organism #28091808 Fitness: -1.11857e+08 
genomestart 351
trait 1 0.373318 0.378667 0.192374 0.0457384 0.781395 0.443444 0.15849 0.913342 
node 1 1 0
node 2 1 1
node 3 1 1
node 4 1 1
node 5 1 1
node 6 1 1
node 7 1 1
node 8 1 1
node 9 1 1
node 10 1 1
node 11 1 1
node 12 1 2
node 13 1 2
node 14 1 2
node 15 1 2
node 16 1 2
node 17 1 2
node 18 1 2
node 19 1 2
node 20 1 2
node 21 1 2
node 22 1 2
node 23 1 2
node 24 1 2
node 25 1 2
node 28 1 3
node 29 1 3
node 33 1 3
node 34 1 3
node 154 1 3
node 674 1 3
node 787 1 3
node 1275 1 3
node 1428 1 3
node 1434 1 3
node 1472 1 3
node 1505 1 3
node 1762 1 3
node 1794 1 3
node 2189 1 3
gene 1 1 28 3.74799 0 3 3.74799 1
gene 1 1 29 2.12158 0 4 2.12158 1
gene 1 1 33 4.40732 0 8 4.40732 1
gene 1 1 34 -1.57278 0 9 -1.57278 1
gene 1 2 28 -3.2124 0 13 -3.2124 1
gene 1 2 29 0.292443 0 14 0.292443 1
gene 1 2 33 1.81592 0 18 1.81592 1
gene 1 2 34 -0.270494 0 19 -0.270494 1
gene 1 3 28 -3.18933 0 23 -3.18933 1
gene 1 3 33 1.32003 0 28 1.32003 1
gene 1 4 29 -6.08424 0 34 -6.08424 1
gene 1 4 33 -4.30553 0 38 -4.30553 1
gene 1 4 34 0.703728 0 39 0.703728 1
gene 1 5 28 7.40048 0 43 7.40048 1
gene 1 5 34 -5.74736 0 49 -5.74736 1
gene 1 6 28 1.39838 0 53 1.39838 1
gene 1 7 28 -6.54623 0 63 -6.54623 1
gene 1 7 29 1.2666 0 64 1.2666 1
gene 1 7 34 0.787258 0 69 0.787258 1
gene 1 8 33 -1.07479 0 78 -1.07479 1
gene 1 9 28 1.6006 0 83 1.6006 1
gene 1 9 29 3.54819 0 84 3.54819 1
gene 1 9 33 2.0821 0 88 2.0821 1
gene 1 9 34 -1.80822 0 89 -1.80822 1
gene 1 10 28 -5.94097 0 93 -5.94097 1
gene 1 11 28 -2.54769 0 103 -2.54769 1
gene 1 11 34 1.26243 0 109 1.26243 1
gene 1 28 12 7.53433 0 139 7.53433 1
gene 1 28 13 -1.15791 0 140 -1.15791 1
gene 1 28 15 -2.64952 0 142 -2.64952 1
gene 1 28 18 -5.36966 0 145 -5.36966 1
gene 1 28 20 2.44644 0 147 2.44644 1
gene 1 28 21 0.319934 0 148 0.319934 1
gene 1 28 23 -0.846373 0 150 -0.846373 1
gene 1 28 24 -2.67522 0 151 -2.67522 1
gene 1 28 25 2.02223 0 152 2.02223 1
gene 1 29 12 1.21004 0 153 1.21004 1
gene 1 29 13 -1.2844 0 154 -1.2844 1
gene 1 29 14 3.12671 0 155 3.12671 1
gene 1 29 17 1.31347 0 158 1.31347 1
gene 1 29 18 0.0794323 0 159 0.0794323 1
gene 1 29 19 -6.87285 0 160 -6.87285 1
gene 1 29 21 0.189503 0 162 0.189503 1
gene 1 29 22 -4.39355 0 163 -4.39355 1
gene 1 29 23 4.43871 0 164 4.43871 1
gene 1 29 24 -3.1365 0 165 -3.1365 1
gene 1 29 25 0.78469 0 166 0.78469 1
gene 1 33 12 1.35114 0 209 1.35114 1
gene 1 33 16 1.38482 0 213 1.38482 1
gene 1 33 17 3.10558 0 214 3.10558 1
gene 1 33 20 -4.87788 0 217 -4.87788 1
gene 1 33 21 -2.06459 0 218 -2.06459 1
gene 1 33 22 -0.317261 0 219 -0.317261 1
gene 1 33 23 -3.07366 0 220 -3.07366 1
gene 1 33 24 -5.74418 0 221 -5.74418 1
gene 1 33 25 -4.88883 0 222 -4.88883 1
gene 1 34 13 4.14967 0 224 4.14967 1
gene 1 34 15 -0.357503 0 226 -0.357503 1
gene 1 34 16 -2.84959 0 227 -2.84959 1
gene 1 34 18 1.19297 0 229 1.19297 1
gene 1 34 21 2.18032 0 232 2.18032 1
gene 1 34 22 2.44554 0 233 2.44554 1
gene 1 34 23 -5.08541 0 234 -5.08541 1
gene 1 34 24 -3.07482 0 235 -3.07482 1
gene 1 34 25 6.93338 0 236 6.93338 1
gene 1 14 20 -0.636744 0 1553 -0.636744 1
gene 1 21 21 1.35242 1 2419 1.35242 1
gene 1 9 23 6.19344 0 2974 6.19344 1
gene 1 29 29 1.9662 1 3404 1.9662 1
gene 1 20 15 -0.758532 0 4571 -0.758532 1
gene 1 14 154 5.78933 0 4808 5.78933 1
gene 1 17 17 3.51041 1 4863 3.51041 1
gene 1 22 15 1.91954 0 7527 1.91954 1
gene 1 12 154 -0.498044 0 8501 -0.498044 1
gene 1 18 24 -4.09945 0 8951 -4.09945 1
gene 1 3 18 -3.95881 0 9011 -3.95881 1
gene 1 7 13 1.0147 0 12566 1.0147 1
gene 1 20 24 -0.10634 0 12645 -0.10634 1
gene 1 18 13 0.941935 0 13054 0.941935 1
gene 1 8 154 -5.21693 0 14789 -5.21693 1
gene 1 28 33 1.18122 0 16507 1.18122 1
gene 1 7 21 -1.68672 0 17314 -1.68672 1
gene 1 154 18 -1.05311 0 17517 -1.05311 1
gene 1 19 154 1.48938 0 18104 1.48938 1
gene 1 20 17 7.15349 0 18495 7.15349 1
gene 1 22 24 0.0858118 0 19099 0.0858118 1
gene 1 17 13 2.20137 0 19278 2.20137 1
gene 1 787 22 1.69415 0 19473 1.69415 1
gene 1 17 787 1.25327 0 19956 1.25327 1
gene 1 20 34 2.49766 0 20338 2.49766 1
gene 1 4 20 2.21974 0 20483 2.21974 1
gene 1 6 17 -0.557075 0 20662 -0.557075 1
gene 1 20 13 1.33317 0 21247 1.33317 1
gene 1 6 22 -0.467577 0 21931 -0.467577 1
gene 1 8 23 -0.520503 0 23322 -0.520503 1
gene 1 16 17 -0.76402 0 24765 -0.76402 1
gene 1 33 33 -2.79373 1 26074 -2.79373 1
gene 1 674 22 0.228475 0 26470 0.228475 1
gene 1 7 14 5.109 0 27822 5.109 1
gene 1 3 14 1.97406 0 28652 1.97406 1
gene 1 7 22 -1.98215 0 28930 -1.98215 1
gene 1 7 33 -2.93265 0 29613 -2.93265 1
gene 1 34 674 -3.52367 0 31213 -3.52367 1
gene 1 33 1275 -3.45464 0 32595 -3.45464 1
gene 1 2 18 -1.45272 0 33113 -1.45272 1
gene 1 13 13 5.19607 1 33468 5.19607 1
gene 1 17 22 2.14068 0 33657 2.14068 1
gene 1 29 1275 -0.401439 0 33889 -0.401439 1
gene 1 21 22 0.0103918 0 34102 0.0103918 1
gene 1 24 1275 2.72991 0 34425 2.72991 1
gene 1 2 25 -3.87273 0 36575 -3.87273 1
gene 1 10 1428 -0.173227 0 36789 -0.173227 1
gene 1 1428 154 0.728696 0 36790 0.728696 1
gene 1 6 1434 3.76869 0 37047 3.76869 1
gene 1 1434 34 -0.378509 0 37048 -0.378509 1
gene 1 1275 1275 -1.14405 1 37468 -1.14405 1
gene 1 16 1472 -0.623288 1 38050 -0.623288 1
gene 1 1472 16 2.41379 0 38051 2.41379 1
gene 1 1 1275 1.39097 0 38286 1.39097 1
gene 1 8 1428 3.309 0 39889 3.309 1
gene 1 18 1505 -0.799314 0 40081 -0.799314 1
gene 1 2 13 -3.15424 0 40706 -3.15424 1
gene 1 12 19 -3.17049 0 40911 -3.17049 1
gene 1 23 13 0.731157 0 42104 0.731157 1
gene 1 674 18 1.69135 0 43124 1.69135 1
gene 1 4 16 3.89382 0 45507 3.89382 1
gene 1 24 1762 1.19787 1 46313 1.19787 1
gene 1 1762 24 2.1068 0 46314 2.1068 1
gene 1 19 34 0.359104 1 46515 0.359104 1
gene 1 8 1794 -1.88543 0 47285 -1.88543 1
gene 1 1794 34 0.396153 0 47286 0.396153 1
gene 1 17 24 1.31674 0 47685 1.31674 1
gene 1 12 12 -1.53525 1 47912 -1.53525 1
gene 1 1762 18 2.23921 0 48844 2.23921 1
gene 1 3 1762 1.09987 0 49059 1.09987 1
gene 1 8 1472 -1.2147 0 49740 -1.2147 1
gene 1 1 14 1.23585 0 52287 1.23585 1
gene 1 18 18 0.976334 1 52512 0.976334 1
gene 1 1794 17 1.95743 0 53791 1.95743 1
gene 1 154 21 1.09356 0 54041 1.09356 1
gene 1 18 1275 0.119966 0 54283 0.119966 1
gene 1 1434 28 0.193417 0 54986 0.193417 1
gene 1 28 1428 1.20841 0 55158 1.20841 1
gene 1 19 1505 3.43771 0 55820 3.43771 1
gene 1 22 1505 -1.21846 0 55955 -1.21846 1
gene 1 1434 1434 -0.471577 1 56202 -0.471577 1
gene 1 1794 1794 1.87185 1 56714 1.87185 1
gene 1 8 14 -0.777467 0 57021 -0.777467 1
gene 1 19 13 0.728107 0 58068 0.728107 1
gene 1 14 2189 -0.0334454 1 58280 -0.0334454 1
gene 1 2189 14 0.840528 0 58281 0.840528 1
gene 1 2189 16 0.246597 0 58495 0.246597 1
gene 1 14 14 1.26834 1 58857 1.26834 1
gene 1 25 25 0.534282 1 59326 0.534282 1
gene 1 1794 2189 -0.416527 0 59625 -0.416527 1
gene 1 19 19 -1.12898 1 59804 -1.12898 1
gene 1 11 19 -0.207786 0 60127 -0.207786 1
gene 1 9 1275 -0.741913 0 60183 -0.741913 1
gene 1 14 1275 0.376219 0 62178 0.376219 1
gene 1 4 787 2.87407 0 62658 2.87407 1
gene 1 5 24 -0.243181 0 63079 -0.243181 1
gene 1 9 24 -1.26599 0 63773 -1.26599 1
gene 1 2189 1472 -0.281731 0 64028 -0.281731 1
gene 1 2189 12 -1.31029 0 64151 -1.31029 1
gene 1 2189 2189 -1.57595 1 64578 -1.57595 1
gene 1 1505 19 -0.224521 1 65563 -0.224521 1
gene 1 12 17 -0.681821 0 66435 -0.681821 1
gene 1 1434 19 0.616575 0 67102 0.616575 1
gene 1 674 1505 -0.661603 0 68002 -0.661603 1
gene 1 34 34 3.12729 1 68439 3.12729 1
gene 1 674 25 -2.00136 0 68620 -2.00136 1
gene 1 15 17 0.996895 1 68838 0.996895 1
gene 1 3 1275 0.570747 0 69543 0.570747 1
gene 1 1428 1275 1.05406 0 70033 1.05406 1
gene 1 20 16 0.643 0 70395 0.643 1
gene 1 33 2189 -0.61936 0 70702 -0.61936 1
genomeend 351
