/* Organism #81825440 Fitness: -1.15122e+08 
genomestart 289
trait 1 0.23058 0.0126875 0.261138 0.0913721 0.302636 0.747344 0.655652 0.853427 
node 1 1 0
node 2 1 1
node 3 1 1
node 4 1 1
node 5 1 1
node 6 1 1
node 7 1 1
node 8 1 1
node 9 1 1
node 10 1 1
node 11 1 1
node 12 1 2
node 13 1 2
node 14 1 2
node 15 1 2
node 16 1 2
node 17 1 2
node 18 1 2
node 19 1 2
node 20 1 2
node 21 1 2
node 22 1 2
node 23 1 2
node 24 1 2
node 25 1 2
node 33 1 3
node 792 1 3
node 1357 1 3
node 1721 1 3
node 1889 1 3
node 2512 1 3
gene 1 3 33 -0.286853 0 28 -0.286853 1
gene 1 4 33 5.10515 0 38 5.10515 1
gene 1 6 33 -2.99522 0 58 -2.99522 1
gene 1 9 33 -2.13612 0 88 -2.13612 1
gene 1 10 33 -0.422957 0 98 -0.422957 1
gene 1 33 13 1.14795 0 210 1.14795 1
gene 1 33 14 -4.04303 0 211 -4.04303 1
gene 1 33 18 6.05077 0 215 6.05077 1
gene 1 33 20 0.815248 0 217 0.815248 1
gene 1 33 24 3.14647 0 221 3.14647 1
gene 1 33 25 4.24307 0 222 4.24307 1
gene 1 16 22 -3.62332 0 288 -3.62332 1
gene 1 25 22 2.96826 0 875 2.96826 1
gene 1 18 17 -2.37603 0 1780 -2.37603 1
gene 1 9 12 3.81742 0 4364 3.81742 1
gene 1 7 12 -2.6729 0 6217 -2.6729 1
gene 1 24 23 -4.84448 0 6422 -4.84448 1
gene 1 23 13 -2.34084 0 6807 -2.34084 1
gene 1 17 22 -4.27592 0 7218 -4.27592 1
gene 1 11 25 -6.60602 0 8307 -6.60602 1
gene 1 21 13 -1.19098 0 9554 -1.19098 1
gene 1 20 14 -4.29939 0 10810 -4.29939 1
gene 1 5 21 -5.10439 0 14391 -5.10439 1
gene 1 21 12 -6.4015 0 15799 -6.4015 1
gene 1 22 22 1.78788 1 17114 1.78788 1
gene 1 14 13 -4.47214 0 19690 -4.47214 1
gene 1 792 24 -1.74299 0 20422 -1.74299 1
gene 1 21 22 2.32498 0 21569 2.32498 1
gene 1 3 17 -2.63658 0 24055 -2.63658 1
gene 1 33 33 -7.56261 1 24863 -7.56261 1
gene 1 3 23 3.35535 0 25142 3.35535 1
gene 1 4 16 3.25154 0 25925 3.25154 1
gene 1 3 25 2.73534 0 26125 2.73534 1
gene 1 24 13 -2.29205 0 28094 -2.29205 1
gene 1 25 13 -4.60851 0 28243 -4.60851 1
gene 1 9 20 -1.66603 0 30973 -1.66603 1
gene 1 4 24 -2.96256 0 31161 -2.96256 1
gene 1 25 25 -5.21051 1 31649 -5.21051 1
gene 1 3 15 4.9047 0 32043 4.9047 1
gene 1 12 19 -4.0257 0 32315 -4.0257 1
gene 1 23 20 -0.209154 0 32730 -0.209154 1
gene 1 9 17 0.20426 0 32894 0.20426 1
gene 1 20 20 0.895955 1 34023 0.895955 1
gene 1 24 1357 1.33476 0 34972 1.33476 1
gene 1 792 13 -5.96794 0 35175 -5.96794 1
gene 1 8 25 3.32658 0 35235 3.32658 1
gene 1 19 1357 3.45336 0 39941 3.45336 1
gene 1 8 15 0.923133 0 40282 0.923133 1
gene 1 22 13 0.867229 0 41864 0.867229 1
gene 1 23 25 -3.63072 0 43731 -3.63072 1
gene 1 12 12 5.58922 1 44328 5.58922 1
gene 1 1721 23 -0.16299 0 44474 -0.16299 1
gene 1 4 21 -5.71061 0 45145 -5.71061 1
gene 1 6 19 -2.09277 0 45373 -2.09277 1
gene 1 19 16 -1.78405 0 46669 -1.78405 1
gene 1 18 25 2.34614 0 47640 2.34614 1
gene 1 1889 21 -1.318 0 48946 -1.318 1
gene 1 2 23 -1.06382 0 50520 -1.06382 1
gene 1 24 1721 0.975645 0 51292 0.975645 1
gene 1 17 14 0.259364 0 52955 0.259364 1
gene 1 8 16 -3.98892 0 53333 -3.98892 1
gene 1 5 1357 3.69926 0 53911 3.69926 1
gene 1 2 21 1.67936 0 54731 1.67936 1
gene 1 1889 18 -4.30015 0 56562 -4.30015 1
gene 1 1 23 -3.17416 0 56731 -3.17416 1
gene 1 6 24 -0.596758 0 57863 -0.596758 1
gene 1 1889 25 0.43585 0 58267 0.43585 1
gene 1 15 33 -0.673124 0 58849 -0.673124 1
gene 1 16 16 -1.61031 1 59242 -1.61031 1
gene 1 14 22 -1.72195 0 61295 -1.72195 1
gene 1 21 24 0.103824 0 61699 0.103824 1
gene 1 11 16 -0.20896 0 63018 -0.20896 1
gene 1 18 23 -0.900682 0 63423 -0.900682 1
gene 1 21 18 -0.429316 0 64028 -0.429316 1
gene 1 8 33 3.95579 0 64190 3.95579 1
gene 1 3 20 0.278548 0 64316 0.278548 1
gene 1 6 25 1.14265 0 64599 1.14265 1
gene 1 33 17 -0.425814 0 65116 -0.425814 1
gene 1 24 17 -1.46496 0 65337 -1.46496 1
gene 1 19 2512 1 0 66434 0 1
gene 1 2512 18 -0.556391 0 66435 0 1
gene 1 11 24 0.264739 0 66787 0.264739 1
gene 1 9 16 -0.433416 0 67200 -0.433416 1
gene 1 21 1357 0.782624 0 67618 0.782624 1
gene 1 8 18 0.710572 0 67810 0.710572 1
gene 1 792 792 0.413159 1 68188 0.413159 1
genomeend 289
