/* Organism #69731360 Fitness: -15436 
genomestart 318
trait 1 0.043598 0.0469811 0.178646 0.847563 0.179725 0.549467 0.0136786 0.112773 
node 1 1 0
node 2 1 1
node 3 1 1
node 4 1 1
node 5 1 1
node 6 1 1
node 7 1 1
node 8 1 1
node 9 1 1
node 10 1 1
node 11 1 1
node 12 1 2
node 13 1 2
node 14 1 2
node 15 1 2
node 16 1 2
node 17 1 2
node 18 1 2
node 19 1 2
node 20 1 2
node 21 1 2
node 22 1 2
node 23 1 2
node 24 1 2
node 25 1 2
node 27 1 3
node 28 1 3
node 29 1 3
node 34 1 3
node 1554 1 3
node 1789 1 3
node 2440 1 3
gene 1 1 27 -2.11942 0 2 -2.11942 1
gene 1 1 28 -3.87244 0 3 -3.87244 1
gene 1 1 29 -2.69478 0 4 -2.69478 1
gene 1 1 34 -6.71946 0 9 -6.71946 1
gene 1 3 27 -1.31665 0 22 -1.31665 1
gene 1 3 29 -0.884896 0 24 -0.884896 1
gene 1 3 34 0.604297 0 29 0.604297 1
gene 1 4 27 0.601217 0 32 0.601217 1
gene 1 4 28 -1.799 0 33 -1.799 1
gene 1 4 34 2.51023 0 39 2.51023 1
gene 1 5 27 -4.91815 0 42 -4.91815 1
gene 1 5 28 -7.26502 0 43 -7.26502 1
gene 1 6 27 3.4127 0 52 3.4127 1
gene 1 6 28 -0.741251 0 53 -0.741251 1
gene 1 7 27 0.87326 0 62 0.87326 1
gene 1 7 28 5.05773 0 63 5.05773 1
gene 1 8 27 -0.853934 0 72 -0.853934 1
gene 1 8 34 -0.716878 0 79 -0.716878 1
gene 1 9 27 2.44082 0 82 2.44082 1
gene 1 9 29 -2.28366 0 84 -2.28366 1
gene 1 10 28 1.90289 0 93 1.90289 1
gene 1 10 29 -3.22234 0 94 -3.22234 1
gene 1 10 34 3.83074 0 99 3.83074 1
gene 1 11 27 -0.421681 0 102 -0.421681 1
gene 1 27 12 -0.502642 0 125 -0.502642 1
gene 1 27 14 -4.20181 0 127 -4.20181 1
gene 1 27 15 1.35609 0 128 1.35609 1
gene 1 27 16 -1.65543 0 129 -1.65543 1
gene 1 27 17 -0.082991 0 130 -0.082991 1
gene 1 27 23 4.14093 0 136 4.14093 1
gene 1 28 12 -6.64191 0 139 -6.64191 1
gene 1 28 13 -2.20225 0 140 -2.20225 1
gene 1 28 16 -2.59231 0 143 -2.59231 1
gene 1 28 17 2.71013 0 144 2.71013 1
gene 1 28 18 -0.616113 0 145 -0.616113 1
gene 1 28 19 -0.0819235 0 146 -0.0819235 1
gene 1 28 20 0.843678 0 147 0.843678 1
gene 1 28 21 0.753459 0 148 0.753459 1
gene 1 28 23 2.68547 0 150 2.68547 1
gene 1 28 25 4.78253 0 152 4.78253 1
gene 1 29 12 3.24289 0 153 3.24289 1
gene 1 29 13 -3.09799 0 154 -3.09799 1
gene 1 29 15 2.90364 0 156 2.90364 1
gene 1 29 16 2.8429 0 157 2.8429 1
gene 1 29 18 -0.746424 0 159 -0.746424 1
gene 1 29 20 0.894741 0 161 0.894741 1
gene 1 29 22 0.909737 0 163 0.909737 1
gene 1 29 25 -5.17263 0 166 -5.17263 1
gene 1 34 12 -0.0425446 0 223 -0.0425446 1
gene 1 34 13 -4.60893 0 224 -4.60893 1
gene 1 34 17 -1.41489 0 228 -1.41489 1
gene 1 34 18 -1.19957 0 229 -1.19957 1
gene 1 34 20 6.93882 0 231 6.93882 1
gene 1 34 21 0.172614 0 232 0.172614 1
gene 1 34 22 1.69359 0 233 1.69359 1
gene 1 34 23 0.728379 0 234 0.728379 1
gene 1 34 24 4.3149 0 235 4.3149 1
gene 1 34 25 -0.220726 0 236 -0.220726 1
gene 1 17 18 -1.26954 0 458 -1.26954 1
gene 1 17 21 0.93129 0 1813 0.93129 1
gene 1 8 15 -2.64058 0 2447 -2.64058 1
gene 1 23 12 -0.205669 0 3406 -0.205669 1
gene 1 2 21 1.60298 0 3609 1.60298 1
gene 1 21 19 3.41835 0 3810 3.41835 1
gene 1 10 17 -0.791077 0 4351 -0.791077 1
gene 1 6 16 -0.254689 0 4636 -0.254689 1
gene 1 12 20 -0.24896 0 4995 -0.24896 1
gene 1 20 13 3.69923 0 6315 3.69923 1
gene 1 17 16 -0.801086 0 6716 -0.801086 1
gene 1 17 15 4.08961 0 9690 4.08961 1
gene 1 16 12 2.70932 0 9913 2.70932 1
gene 1 29 27 3.12563 0 10118 3.12563 1
gene 1 9 18 -4.49813 0 11114 -4.49813 1
gene 1 18 20 -0.372089 0 11515 -0.372089 1
gene 1 5 22 -4.8379 0 13337 -4.8379 1
gene 1 22 21 -0.697394 0 14030 -0.697394 1
gene 1 1 14 1.9969 0 14235 1.9969 1
gene 1 12 12 2.17087 1 16160 2.17087 1
gene 1 1 25 -2.34934 0 16913 -2.34934 1
gene 1 22 22 2.93202 1 17025 2.93202 1
gene 1 7 23 -0.902853 0 17373 -0.902853 1
gene 1 11 20 1.22013 0 17460 1.22013 1
gene 1 19 12 1.39579 0 18472 1.39579 1
gene 1 18 15 -2.53165 0 19428 -2.53165 1
gene 1 4 17 0.691577 0 19833 0.691577 1
gene 1 2 20 -1.09077 0 20821 -1.09077 1
gene 1 7 14 -1.76119 0 20927 -1.76119 1
gene 1 28 14 -2.65276 0 21470 -2.65276 1
gene 1 3 19 1.6428 0 21667 1.6428 1
gene 1 22 15 -0.877389 0 23099 -0.877389 1
gene 1 2 16 -0.388257 0 23293 -0.388257 1
gene 1 10 19 -0.815111 0 23493 -0.815111 1
gene 1 2 19 -3.0784 0 28827 -3.0784 1
gene 1 2 13 2.08927 0 29022 2.08927 1
gene 1 18 24 1.1937 0 29830 1.1937 1
gene 1 18 16 -0.24392 0 30454 -0.24392 1
gene 1 3 21 0.221443 0 30801 0.221443 1
gene 1 9 21 -1.02589 0 30981 -1.02589 1
gene 1 5 15 1.11486 0 31142 1.11486 1
gene 1 8 21 -1.23721 0 31331 -1.23721 1
gene 1 8 12 1.87428 0 33001 1.87428 1
gene 1 9 14 0.152447 0 33221 0.152447 1
gene 1 17 19 1.00622 0 33403 1.00622 1
gene 1 7 21 0.0504879 0 34543 0.0504879 1
gene 1 14 20 1.44607 0 36651 1.44607 1
gene 1 16 23 1.30321 0 38307 1.30321 1
gene 1 19 1554 0.869021 1 38811 0.847564 1
gene 1 1554 23 -0.212482 0 38812 -0.181583 1
gene 1 6 17 -0.845906 0 39467 -0.845906 1
gene 1 29 19 1.77737 0 39489 1.77737 1
gene 1 11 28 -0.370106 0 39764 -0.370106 1
gene 1 15 21 -0.601179 0 39858 -0.601179 1
gene 1 2 14 -1.30935 0 40420 -1.30935 1
gene 1 7 16 0.674162 0 40629 0.674162 1
gene 1 12 14 0.296835 0 40974 0.296835 1
gene 1 11 1554 0.858779 0 41174 0.858779 1
gene 1 8 19 -0.661632 0 41382 -0.661632 1
gene 1 3 23 -0.385482 0 41584 -0.385482 1
gene 1 7 22 0.646151 0 41787 0.646151 1
gene 1 10 23 -0.59484 0 41915 -0.59484 1
gene 1 7 1554 -0.533807 0 42488 -0.533807 1
gene 1 34 27 0.482532 0 42685 0.482532 1
gene 1 12 22 -0.156584 0 43267 -0.156584 1
gene 1 3 14 0.0753571 0 43608 0.0753571 1
gene 1 1554 29 -0.649407 0 44248 -0.649407 1
gene 1 27 27 -0.701443 1 44496 -0.701443 1
gene 1 21 21 -0.51605 1 44705 -0.51605 1
gene 1 1554 25 -0.535964 0 45277 -0.535964 1
gene 1 1789 13 1.032 0 45312 0.96737 1
gene 1 15 15 -0.828248 1 46104 -0.828248 1
gene 1 8 13 -0.612396 0 47075 -0.612396 1
gene 1 4 20 -0.500564 0 47596 -0.500564 1
gene 1 8 23 -0.0129422 0 47980 -0.0129422 1
gene 1 1554 27 0.134304 0 48500 0.134304 1
gene 1 15 1789 0.163991 0 48666 0.163991 1
gene 1 1554 1789 -0.0380947 0 48924 -0.0380947 1
gene 1 10 22 -1.09325 0 50239 -1.09325 1
gene 1 6 12 0.720151 0 50605 0.720151 1
gene 1 4 1789 -0.662694 0 50807 -0.662694 1
gene 1 5 20 0.689484 0 50994 0.689484 1
gene 1 18 22 0.140544 0 51366 0.140544 1
gene 1 4 13 -0.489373 0 51724 -0.489373 1
gene 1 6 22 -0.454263 0 52711 -0.454263 1
gene 1 1789 1789 0.182793 1 52914 0.182793 1
gene 1 19 19 0.0762767 1 53315 0.0762767 1
gene 1 11 19 -0.0303021 0 53664 -0.0303021 1
gene 1 23 21 0.491422 0 53865 0.491422 1
gene 1 2 17 -0.754619 0 55028 -0.754619 1
gene 1 1554 1554 -0.162214 1 55145 -0.162214 1
gene 1 4 25 -0.753171 0 55427 -0.753171 1
gene 1 4 14 0.796812 0 55809 0.796812 1
gene 1 29 24 -0.227038 0 56397 -0.227038 1
gene 1 7 13 0.0737038 0 56548 0.0737038 1
gene 1 3 1789 -0.322918 0 56767 -0.322918 1
gene 1 16 16 0.208953 1 57000 0.208953 1
gene 1 29 29 0.491664 1 57330 0.491664 1
gene 1 11 25 0.409263 0 58204 0.409263 1
gene 1 24 24 0.447741 1 59161 0.447741 1
gene 1 3 20 0.701983 0 59925 0.701983 1
gene 1 10 25 -0.215844 0 60334 -0.215844 1
gene 1 1 1554 0.354687 0 60529 0.354687 1
gene 1 6 18 -0.127821 0 60735 -0.127821 1
gene 1 28 1789 -0.719928 0 61287 -0.719928 1
gene 1 7 24 -0.480467 0 61658 -0.480467 1
gene 1 16 21 0.0851173 0 62033 0.0851173 1
gene 1 1 23 0.526507 0 62207 0.526507 1
gene 1 27 2440 0.865226 0 62467 0.615226 1
gene 1 2440 20 0.512651 0 62468 0.12511 1
gene 1 12 27 0.424107 1 62641 0.424107 1
gene 1 13 13 -0.0981799 1 62695 -0.0981799 1
gene 1 3 2440 -0.808978 0 63007 -0.808978 1
gene 1 17 20 -0.239524 0 63613 -0.239524 1
gene 1 3 15 -0.423737 0 63877 -0.423737 1
gene 1 1554 19 -0.351061 0 64092 -0.351061 1
gene 1 10 1789 -0.211442 0 64599 -0.211442 1
gene 1 22 20 0.731101 0 64984 0.731101 1
gene 1 2440 15 -0.280482 0 65621 -0.280482 1
gene 1 23 23 0.146872 1 66061 0.146872 1
genomeend 318
