/* Organism #52879392 Fitness: -15443 
genomestart 506
trait 1 1 0 0 0.436594 0 0 0.158337 0.489132 
node 1 1 0
node 2 1 1
node 3 1 1
node 4 1 1
node 5 1 1
node 6 1 1
node 7 1 1
node 8 1 1
node 9 1 1
node 10 1 1
node 11 1 1
node 12 1 2
node 13 1 2
node 14 1 2
node 15 1 2
node 16 1 2
node 17 1 2
node 18 1 2
node 19 1 2
node 20 1 2
node 21 1 2
node 22 1 2
node 23 1 2
node 24 1 2
node 25 1 2
node 26 1 3
node 28 1 3
node 33 1 3
node 34 1 3
node 470 1 3
node 715 1 3
node 1417 1 3
node 1919 1 3
node 2112 1 3
node 2136 1 3
node 2494 1 3
gene 1 1 26 -0.379211 0 1 -0.379211 1
gene 1 1 33 2.37939 0 8 2.37939 1
gene 1 1 34 -0.765846 0 9 -0.765846 1
gene 1 2 33 -0.0580556 0 18 -0.0580556 1
gene 1 2 34 -0.142077 0 19 -0.142077 1
gene 1 3 33 -0.407281 0 28 -0.407281 1
gene 1 3 34 0.907672 0 29 0.907672 1
gene 1 4 28 -1.82679 0 33 -1.82679 1
gene 1 4 33 0.546167 0 38 0.546167 1
gene 1 5 26 4.892 0 41 4.892 1
gene 1 5 28 -1.8352 0 43 -1.8352 1
gene 1 5 33 2.96182 0 48 2.96182 1
gene 1 5 34 -0.400257 0 49 -0.400257 1
gene 1 6 26 1.32529 0 51 1.32529 1
gene 1 6 33 -1.04893 0 58 -1.04893 1
gene 1 7 26 -3.56104 0 61 -3.56104 1
gene 1 7 28 -4.52876 0 63 -4.52876 1
gene 1 7 33 -2.97458 0 68 -2.97458 1
gene 1 7 34 -0.140823 0 69 -0.140823 1
gene 1 8 26 4.80422 0 71 4.80422 1
gene 1 8 33 -3.49912 0 78 -3.49912 1
gene 1 8 34 1.37932 0 79 1.37932 1
gene 1 9 26 1.55069 0 81 1.55069 1
gene 1 9 33 0.500989 0 88 0.500989 1
gene 1 10 28 1.04209 0 93 1.04209 1
gene 1 10 33 -1.26367 0 98 -1.26367 1
gene 1 11 26 1.22343 0 101 1.22343 1
gene 1 11 28 -0.187233 0 103 -0.187233 1
gene 1 11 34 -1.52177 0 109 -1.52177 1
gene 1 26 12 2.34885 0 111 2.34885 1
gene 1 26 13 2.93129 0 112 2.93129 1
gene 1 26 14 1.32384 0 113 1.32384 1
gene 1 26 16 -2.6966 0 115 -2.6966 1
gene 1 26 17 -0.346962 0 116 -0.346962 1
gene 1 26 19 -3.19573 0 118 -3.19573 1
gene 1 26 21 0.507468 0 120 0.507468 1
gene 1 26 22 -0.185614 0 121 -0.185614 1
gene 1 26 23 -0.0167506 0 122 -0.0167506 1
gene 1 26 24 -0.574799 0 123 -0.574799 1
gene 1 26 25 -3.48246 0 124 -3.48246 1
gene 1 28 12 1.67684 0 139 1.67684 1
gene 1 28 13 -3.13146 0 140 -3.13146 1
gene 1 28 14 -2.84939 0 141 -2.84939 1
gene 1 28 15 2.42935 0 142 2.42935 1
gene 1 28 16 -1.07609 0 143 -1.07609 1
gene 1 28 18 -3.84945 0 145 -3.84945 1
gene 1 28 20 3.87506 0 147 3.87506 1
gene 1 28 21 3.46396 0 148 3.46396 1
gene 1 28 22 0.864851 0 149 0.864851 1
gene 1 28 24 1.60255 0 151 1.60255 1
gene 1 28 25 3.13616 0 152 3.13616 1
gene 1 33 12 2.27135 0 209 2.27135 1
gene 1 33 13 -0.205157 0 210 -0.205157 1
gene 1 33 14 1.71202 0 211 1.71202 1
gene 1 33 15 -1.51107 0 212 -1.51107 1
gene 1 33 16 2.62628 0 213 2.62628 1
gene 1 33 21 0.199648 0 218 0.199648 1
gene 1 33 22 1.05595 0 219 1.05595 1
gene 1 33 23 -1.69092 0 220 -1.69092 1
gene 1 33 24 0.60488 0 221 0.60488 1
gene 1 34 12 0.0604339 0 223 0.0604339 1
gene 1 34 16 -0.220119 0 227 -0.220119 1
gene 1 34 17 -2.12996 0 228 -2.12996 1
gene 1 34 22 1.50851 0 233 1.50851 1
gene 1 21 12 -1.62249 0 843 -1.62249 1
gene 1 2 16 -3.05856 0 3662 -3.05856 1
gene 1 22 16 -2.34241 0 4818 -2.34241 1
gene 1 23 25 0.932334 0 5432 0.932334 1
gene 1 5 14 1.67477 0 6878 1.67477 1
gene 1 18 24 -3.84636 0 10136 -3.84636 1
gene 1 4 18 -0.057182 0 11910 -0.057182 1
gene 1 470 14 2.57871 0 12561 2.57871 1
gene 1 10 15 -1.24557 0 16978 -1.24557 1
gene 1 14 20 -1.71123 0 17608 -1.71123 1
gene 1 9 14 4.19013 0 18229 4.19013 1
gene 1 23 17 2.62966 0 18880 2.62966 1
gene 1 15 12 -1.81515 0 20706 -1.81515 1
gene 1 24 13 0.0462035 0 20754 0.0462035 1
gene 1 715 28 0.877962 0 21046 0.877962 1
gene 1 25 24 -0.37286 0 21818 -0.37286 1
gene 1 11 21 -0.399329 0 22070 -0.399329 1
gene 1 15 15 0.212544 1 27592 0.212544 1
gene 1 16 16 -0.845091 1 29347 -0.845091 1
gene 1 9 19 -2.48251 0 29807 -2.48251 1
gene 1 3 21 0.220939 0 30226 0.220939 1
gene 1 1 470 0.0862016 0 31078 0.0862016 1
gene 1 28 26 -0.345814 0 31935 -0.345814 1
gene 1 9 12 -2.04926 0 32220 -2.04926 1
gene 1 5 15 1.02672 0 32729 1.02672 1
gene 1 22 22 1.62713 1 33733 1.62713 1
gene 1 8 21 0.75046 0 34513 0.75046 1
gene 1 20 20 -1.52906 1 35425 -1.52906 1
gene 1 17 470 0.162293 0 37224 0.162293 1
gene 1 3 1417 0.168145 0 38208 0.162634 1
gene 1 11 470 1.60315 0 38555 1.60315 1
gene 1 15 20 0.80993 0 39505 0.80993 1
gene 1 7 470 -0.194662 0 40948 -0.194662 1
gene 1 6 13 0.611071 0 42173 0.611071 1
gene 1 18 22 -0.663321 0 42582 -0.663321 1
gene 1 19 25 0.875988 0 44804 0.875988 1
gene 1 8 1417 0.340505 0 45411 0.340505 1
gene 1 11 16 0.665028 0 45805 0.665028 1
gene 1 17 28 1.33225 1 45956 1.33225 1
gene 1 1417 1417 -0.159894 1 46387 -0.159894 1
gene 1 5 13 0.882446 0 46764 0.882446 1
gene 1 7 1417 0.982006 0 47150 0.982006 1
gene 1 21 15 -1.17626 0 48325 -1.17626 1
gene 1 1417 21 1.02451 0 48729 1.02451 1
gene 1 24 24 -0.864051 1 49992 -0.864051 1
gene 1 715 26 -0.224263 0 50197 -0.224263 1
gene 1 3 24 -0.280277 0 50371 -0.280277 1
gene 1 33 1919 1.91317 0 50965 1.9096 1
gene 1 19 19 0.0319216 1 51398 0.0319216 1
gene 1 4 1417 -0.520101 0 51910 -0.520101 1
gene 1 1919 20 -0.150521 0 52925 -0.150521 1
gene 1 8 18 0.555482 0 53113 0.555482 1
gene 1 1 23 -0.215853 0 53723 -0.215853 1
gene 1 19 470 0.508057 0 54026 0.508057 1
gene 1 21 14 -0.481338 0 54136 -0.481338 1
gene 1 6 715 -0.14572 0 54624 -0.14572 1
gene 1 18 2112 0.17361 0 56775 0.122828 1
gene 1 2112 470 -0.356552 0 56776 -0.273454 1
gene 1 34 2136 0.544413 0 57390 0.503397 1
gene 1 2136 15 -0.0361911 0 57391 0.0210341 1
gene 1 17 1417 -0.460992 0 58240 -0.460992 1
gene 1 8 14 -0.459702 0 58427 -0.459702 1
gene 1 6 14 0.0264415 0 59180 0.0264415 1
gene 1 470 13 -0.323254 0 59400 -0.323254 1
gene 1 9 23 -0.32316 0 59875 -0.32316 1
gene 1 34 33 -0.438091 0 60687 -0.438091 1
gene 1 26 26 0.644847 1 61105 0.644847 1
gene 1 19 16 -0.124541 0 61444 -0.124541 1
gene 1 2136 2136 0.187098 1 61605 0.187098 1
gene 1 11 2112 0.242538 0 62260 0.242538 1
gene 1 18 18 -2.07254 1 62418 -2.07254 1
gene 1 715 13 -0.648713 0 62691 -0.648713 1
gene 1 26 20 0.994566 0 62917 0.994566 1
gene 1 2136 13 -0.466405 0 63138 -0.466405 1
gene 1 8 20 0.159801 0 63315 0.159801 1
gene 1 5 470 0.855233 0 64183 0.855233 1
gene 1 25 17 0.879063 0 65880 0.879063 1
gene 1 25 20 0.204781 0 66507 0.204781 1
gene 1 8 24 0.63918 0 66770 0.63918 1
gene 1 4 2136 -0.963714 0 66928 -0.963714 1
gene 1 2112 2112 -0.0337495 1 67387 -0.0337495 1
gene 1 10 2494 1 0 67800 0 1
gene 1 715 14 -0.44438 0 68952 -0.44438 1
gene 1 13 1919 0.167081 0 69540 0.167081 1
genomeend 506
