/* Organism #37736016 Fitness: -15441.9 
genomestart 701
trait 1 0.870494 0.945199 1 0.313592 0.146383 1 0.117264 0.609813 
node 1 1 0
node 2 1 1
node 3 1 1
node 4 1 1
node 5 1 1
node 6 1 1
node 7 1 1
node 8 1 1
node 9 1 1
node 10 1 1
node 11 1 1
node 12 1 2
node 13 1 2
node 14 1 2
node 15 1 2
node 16 1 2
node 17 1 2
node 18 1 2
node 19 1 2
node 20 1 2
node 21 1 2
node 22 1 2
node 23 1 2
node 24 1 2
node 25 1 2
node 26 1 3
node 27 1 3
node 29 1 3
node 31 1 3
node 33 1 3
node 260 1 3
node 410 1 3
node 910 1 3
node 1146 1 3
node 1741 1 3
node 1824 1 3
node 2424 1 3
gene 1 1 26 -0.285139 0 1 -0.285139 1
gene 1 1 31 0.316366 0 6 0.316366 1
gene 1 1 33 0.516303 0 8 0.516303 1
gene 1 2 26 -1.37907 0 11 -1.37907 1
gene 1 2 29 4.37405 0 14 4.37405 1
gene 1 2 31 -2.13439 0 16 -2.13439 1
gene 1 3 26 0.138266 0 21 0.138266 1
gene 1 3 27 2.43106 0 22 2.43106 1
gene 1 3 29 3.33229 0 24 3.33229 1
gene 1 3 33 -1.29022 0 28 -1.29022 1
gene 1 4 26 1.6798 0 31 1.6798 1
gene 1 4 27 1.2442 0 32 1.2442 1
gene 1 4 31 0.0473971 0 36 0.0473971 1
gene 1 4 33 -4.77771 0 38 -4.77771 1
gene 1 5 26 -3.47295 0 41 -3.47295 1
gene 1 5 29 1.76244 0 44 1.76244 1
gene 1 5 31 -7.50899 0 46 -7.50899 1
gene 1 6 26 -2.92486 0 51 -2.92486 1
gene 1 6 27 3.99292 0 52 3.99292 1
gene 1 7 26 2.41591 0 61 2.41591 1
gene 1 7 27 -1.23358 0 62 -1.23358 1
gene 1 7 29 0.335079 0 64 0.335079 1
gene 1 7 33 -7.83685 0 68 -7.83685 1
gene 1 8 26 -3.94727 0 71 -3.94727 1
gene 1 8 31 1.06408 0 76 1.06408 1
gene 1 8 33 -2.55519 0 78 -2.55519 1
gene 1 9 27 5.05866 0 82 5.05866 1
gene 1 9 29 -7.47106 0 84 -7.47106 1
gene 1 9 31 0.839819 0 86 0.839819 1
gene 1 9 33 0.098426 0 88 0.098426 1
gene 1 10 26 2.11362 0 91 2.11362 1
gene 1 10 27 -0.00392399 0 92 -0.00392399 1
gene 1 10 29 1.78205 0 94 1.78205 1
gene 1 10 31 -1.62185 0 96 -1.62185 1
gene 1 10 33 -3.3679 0 98 -3.3679 1
gene 1 11 26 -0.687064 0 101 -0.687064 1
gene 1 11 29 -4.0909 0 104 -4.0909 1
gene 1 11 31 -0.283394 0 106 -0.283394 1
gene 1 26 12 -7.45556 0 111 -7.45556 1
gene 1 26 13 7.82091 0 112 7.82091 1
gene 1 26 15 1.06808 0 114 1.06808 1
gene 1 26 16 -0.0517789 0 115 -0.0517789 1
gene 1 26 17 -2.14801 0 116 -2.14801 1
gene 1 26 20 0.820989 0 119 0.820989 1
gene 1 26 21 3.35291 0 120 3.35291 1
gene 1 26 22 3.04322 0 121 3.04322 1
gene 1 26 23 0.912163 0 122 0.912163 1
gene 1 26 24 5.08227 0 123 5.08227 1
gene 1 27 15 -1.07413 0 128 -1.07413 1
gene 1 27 16 -1.34413 0 129 -1.34413 1
gene 1 27 17 2.9478 0 130 2.9478 1
gene 1 27 18 0.860777 0 131 0.860777 1
gene 1 27 20 -6.00911 0 133 -6.00911 1
gene 1 27 24 0.198975 0 137 0.198975 1
gene 1 27 25 0.681343 0 138 0.681343 1
gene 1 29 13 2.34901 0 154 2.34901 1
gene 1 29 14 -5.39741 0 155 -5.39741 1
gene 1 29 16 1.27497 0 157 1.27497 1
gene 1 29 17 -1.37075 0 158 -1.37075 1
gene 1 29 18 1.69103 0 159 1.69103 1
gene 1 29 19 2.19157 0 160 2.19157 1
gene 1 29 20 1.76468 0 161 1.76468 1
gene 1 29 22 -0.228014 0 163 -0.228014 1
gene 1 29 25 4.69803 0 166 4.69803 1
gene 1 31 12 -3.51182 0 181 -3.51182 1
gene 1 31 14 -1.15783 0 183 -1.15783 1
gene 1 31 15 0.956913 0 184 0.956913 1
gene 1 31 18 1.83211 0 187 1.83211 1
gene 1 31 19 1.80208 0 188 1.80208 1
gene 1 31 21 -1.40508 0 190 -1.40508 1
gene 1 31 24 0.667205 0 193 0.667205 1
gene 1 33 12 -1.39173 0 209 -1.39173 1
gene 1 33 13 -0.50005 0 210 -0.50005 1
gene 1 33 14 -5.47551 0 211 -5.47551 1
gene 1 33 15 1.75656 0 212 1.75656 1
gene 1 33 16 1.27171 0 213 1.27171 1
gene 1 33 20 1.30784 0 217 1.30784 1
gene 1 33 22 -0.797466 0 219 -0.797466 1
gene 1 33 23 0.732035 0 220 0.732035 1
gene 1 9 23 -0.965589 0 1131 -0.965589 1
gene 1 16 23 -0.558906 0 1371 -0.558906 1
gene 1 11 25 -0.451289 0 1567 -0.451289 1
gene 1 24 24 1.70994 1 2003 1.70994 1
gene 1 16 13 0.301316 0 2481 0.301316 1
gene 1 20 21 2.66554 0 3984 2.66554 1
gene 1 22 13 -3.42231 0 4317 -3.42231 1
gene 1 3 14 0.511579 0 4562 0.511579 1
gene 1 11 24 0.0293027 0 5409 0.0293027 1
gene 1 21 25 1.4974 0 6420 1.4974 1
gene 1 16 24 1.56707 0 7342 1.56707 1
gene 1 2 24 -0.659633 0 8558 -0.659633 1
gene 1 7 20 -0.833755 0 8739 -0.833755 1
gene 1 10 19 4.27757 0 8896 4.27757 1
gene 1 31 26 5.31736 0 9121 5.31736 1
gene 1 33 410 -1.26834 0 9543 -1.26834 1
gene 1 410 18 -1.91754 0 9544 -1.91754 1
gene 1 7 18 2.83526 0 10108 2.83526 1
gene 1 21 24 1.78336 0 11749 1.78336 1
gene 1 14 25 -1.72402 0 11952 -1.72402 1
gene 1 25 25 -1.06997 1 12359 -1.06997 1
gene 1 23 23 -4.10434 1 13264 -4.10434 1
gene 1 6 17 1.54627 0 13601 1.54627 1
gene 1 8 18 1.24087 0 14473 1.24087 1
gene 1 19 17 0.581715 0 15109 0.581715 1
gene 1 26 26 1.67617 1 16381 1.67617 1
gene 1 3 16 -0.387732 0 17872 -0.387732 1
gene 1 22 22 2.44035 1 18080 2.44035 1
gene 1 18 24 0.0297798 0 22110 0.0297798 1
gene 1 9 910 1.53259 0 22522 1.53259 1
gene 1 910 31 -0.694899 0 22714 -0.694899 1
gene 1 1 19 1.3026 0 25441 1.3026 1
gene 1 13 18 -1.48137 0 25803 -1.48137 1
gene 1 21 21 0.942712 1 25966 0.942712 1
gene 1 3 23 -2.54205 0 26363 -2.54205 1
gene 1 1146 29 0.280277 0 29760 0.280277 1
gene 1 4 14 1.66951 0 30020 1.66951 1
gene 1 11 19 -0.399374 0 31302 -0.399374 1
gene 1 8 12 -2.5874 0 31736 -2.5874 1
gene 1 410 21 0.839735 0 33028 0.839735 1
gene 1 19 19 -0.178988 1 34538 -0.178988 1
gene 1 12 12 0.342205 1 34931 0.342205 1
gene 1 260 18 1.5788 0 35797 1.5788 1
gene 1 16 22 4.78473 0 38070 4.78473 1
gene 1 1146 25 -1.391 0 38278 -1.391 1
gene 1 1146 27 3.73402 0 38913 3.73402 1
gene 1 21 15 -0.740581 0 39704 -0.740581 1
gene 1 27 27 -0.121042 1 39890 -0.121042 1
gene 1 22 14 -0.0164403 0 40114 -0.0164403 1
gene 1 27 410 1.13308 0 40834 1.13308 1
gene 1 910 410 0.859421 0 42247 0.859421 1
gene 1 26 27 0.0444043 0 42898 0.0444043 1
gene 1 1 13 0.968679 0 43054 0.968679 1
gene 1 16 12 0.530038 0 43208 0.530038 1
gene 1 5 18 1.31299 0 43528 1.31299 1
gene 1 7 14 0.418682 0 44252 0.418682 1
gene 1 27 1741 0.791846 0 45095 0.791846 1
gene 1 1741 13 0.555948 0 45096 0.555948 1
gene 1 14 14 -0.284488 1 45306 -0.284488 1
gene 1 16 17 0.471122 0 45739 0.471122 1
gene 1 410 410 0.284847 1 45970 0.284847 1
gene 1 18 17 -1.08138 0 46371 -1.08138 1
gene 1 20 410 -0.199599 0 46707 -0.199599 1
gene 1 5 20 1.01537 0 46991 1.01537 1
gene 1 7 260 -1.58633 0 47349 -1.58633 1
gene 1 31 1824 0.502811 0 47706 0.502811 1
gene 1 1824 25 -1.86533 0 47707 -1.86533 1
gene 1 260 410 -0.389004 0 48106 -0.389004 1
gene 1 17 17 -1.94073 1 48686 -1.94073 1
gene 1 33 29 -0.371697 0 49106 -0.371697 1
gene 1 29 910 -0.310835 0 50154 -0.310835 1
gene 1 8 1146 -1.0317 0 50572 -1.0317 1
gene 1 260 20 -1.28617 0 51171 -1.28617 1
gene 1 10 20 0.931306 0 51392 0.931306 1
gene 1 8 14 -0.381714 0 51553 -0.381714 1
gene 1 910 910 -0.299292 1 51800 -0.299292 1
gene 1 410 14 -0.283167 0 52386 -0.283167 1
gene 1 24 14 0.382515 0 52811 0.382515 1
gene 1 13 13 0.298021 1 53416 0.298021 1
gene 1 8 910 0.0340949 0 53682 0.0340949 1
gene 1 1146 23 0.25172 0 54332 0.25172 1
gene 1 6 29 0.562274 0 54517 0.562274 1
gene 1 2 23 1.12486 0 54933 1.12486 1
gene 1 11 1824 0.281605 0 55173 0.281605 1
gene 1 18 18 0.152104 1 55588 0.152104 1
gene 1 17 24 0.456499 0 55757 0.456499 1
gene 1 260 33 -0.579041 0 56576 -0.579041 1
gene 1 260 16 0.406125 0 56797 0.406125 1
gene 1 910 1146 0.985509 1 58510 0.985509 1
gene 1 1 23 0.653787 0 59367 0.653787 1
gene 1 5 25 1.05304 0 59542 1.05304 1
gene 1 4 24 0.601718 0 59729 0.601718 1
gene 1 1741 1741 0.585685 1 60378 0.585685 1
gene 1 16 14 -0.902791 0 61616 -0.902791 1
gene 1 3 1146 -0.449881 0 61826 -0.449881 1
gene 1 5 910 -0.688677 0 62544 -0.688677 1
gene 1 12 22 0.583829 0 63338 0.583829 1
gene 1 29 260 0.404161 1 63586 0.404161 1
gene 1 1741 1824 0.68034 0 63857 0.68034 1
gene 1 1741 14 -0.135688 0 64094 -0.135688 1
gene 1 1146 1146 0.611182 1 64134 0.611182 1
gene 1 31 2424 0.427767 0 64378 -0.134733 1
gene 1 2424 20 -3.12563 0 64379 -0.706309 1
gene 1 5 17 0.470976 0 64541 0.470976 1
gene 1 16 16 -0.852314 1 64837 -0.852314 1
gene 1 910 23 0.607389 0 65138 0.607389 1
gene 1 910 1824 -0.806018 0 65552 -0.806018 1
gene 1 410 15 0.539508 0 65757 0.539508 1
gene 1 19 23 0.372522 0 65982 0.372522 1
gene 1 7 410 -0.292222 0 66399 -0.292222 1
gene 1 14 19 -0.403594 0 67031 -0.403594 1
gene 1 9 14 -0.996666 0 67783 -0.996666 1
gene 1 1824 22 -0.155289 0 67988 -0.155289 1
gene 1 22 18 0.106034 0 68578 0.106034 1
gene 1 1146 2424 0.169876 0 69026 0.169876 1
gene 1 33 33 -0.963121 1 70093 -0.963121 1
gene 1 1741 12 0.348925 0 70735 0.348925 1
genomeend 701
