/* Organism #63012208 Fitness: -16385 
genomestart 598
trait 1 0.197872 1 0 0 0.10048 0.222615 0.96517 0.218263 
node 1 1 0
node 2 1 1
node 3 1 1
node 4 1 1
node 5 1 1
node 6 1 1
node 7 1 1
node 8 1 1
node 9 1 1
node 10 1 1
node 11 1 1
node 12 1 2
node 13 1 2
node 14 1 2
node 15 1 2
node 16 1 2
node 17 1 2
node 18 1 2
node 19 1 2
node 20 1 2
node 21 1 2
node 22 1 2
node 23 1 2
node 24 1 2
node 25 1 2
node 26 1 3
node 27 1 3
node 29 1 3
node 31 1 3
node 32 1 3
node 1951 1 3
node 2084 1 3
node 2113 1 3
node 2288 1 3
node 2341 1 3
node 2444 1 3
gene 1 1 26 -3.31005 0 1 -3.31005 1
gene 1 1 27 2.95383 0 2 2.95383 1
gene 1 1 29 -0.122809 0 4 -0.122809 1
gene 1 1 31 -4.92516 0 6 -4.92516 1
gene 1 1 32 -4.41295 0 7 -4.41295 1
gene 1 2 32 1.57499 0 17 1.57499 1
gene 1 3 26 -3.05115 0 21 -3.05115 1
gene 1 3 27 -1.60181 0 22 -1.60181 1
gene 1 3 29 -1.59721 0 24 -1.59721 1
gene 1 3 32 1.25985 0 27 1.25985 1
gene 1 4 26 -1.18576 0 31 -1.18576 1
gene 1 4 29 1.67136 0 34 1.67136 1
gene 1 4 31 0.210489 0 36 0.210489 1
gene 1 5 26 -7.34883 0 41 -7.34883 1
gene 1 5 32 3.58892 0 47 3.58892 1
gene 1 6 27 -7.03921 0 52 -7.03921 1
gene 1 6 29 -4.32858 0 54 -4.32858 1
gene 1 7 26 6.31727 0 61 6.31727 1
gene 1 7 27 3.24592 0 62 3.24592 1
gene 1 7 29 -2.69125 0 64 -2.69125 1
gene 1 7 31 4.85831 0 66 4.85831 1
gene 1 7 32 -1.92835 0 67 -1.92835 1
gene 1 8 26 1.32679 0 71 1.32679 1
gene 1 8 29 1.84846 0 74 1.84846 1
gene 1 8 31 -3.33756 0 76 -3.33756 1
gene 1 8 32 -1.26493 0 77 -1.26493 1
gene 1 9 26 -3.40513 0 81 -3.40513 1
gene 1 9 27 1.33215 0 82 1.33215 1
gene 1 9 32 -0.425351 0 87 -0.425351 1
gene 1 10 26 2.79927 0 91 2.79927 1
gene 1 10 29 4.88397 0 94 4.88397 1
gene 1 10 31 -0.704693 0 96 -0.704693 1
gene 1 11 26 -3.4481 0 101 -3.4481 1
gene 1 11 29 -2.08618 0 104 -2.08618 1
gene 1 11 31 4.36382 0 106 4.36382 1
gene 1 11 32 -1.18158 0 107 -1.18158 1
gene 1 26 12 -7.34063 0 111 -7.34063 1
gene 1 26 14 -6.00873 0 113 -6.00873 1
gene 1 26 16 1.35595 0 115 1.35595 1
gene 1 26 17 2.28773 0 116 2.28773 1
gene 1 26 19 -0.0572581 0 118 -0.0572581 1
gene 1 26 20 -0.820085 0 119 -0.820085 1
gene 1 26 23 5.94049 0 122 5.94049 1
gene 1 26 24 2.74061 0 123 2.74061 1
gene 1 26 25 4.58604 0 124 4.58604 1
gene 1 27 12 0.637903 0 125 0.637903 1
gene 1 27 13 -3.53202 0 126 -3.53202 1
gene 1 27 14 6.84622 0 127 6.84622 1
gene 1 27 16 -1.69719 0 129 -1.69719 1
gene 1 27 17 3.09957 0 130 3.09957 1
gene 1 27 18 0.432056 0 131 0.432056 1
gene 1 27 20 -0.736483 0 133 -0.736483 1
gene 1 27 21 0.801534 0 134 0.801534 1
gene 1 27 22 -0.264505 0 135 -0.264505 1
gene 1 27 24 0.70654 0 137 0.70654 1
gene 1 29 12 1.63663 0 153 1.63663 1
gene 1 29 13 1.39462 0 154 1.39462 1
gene 1 29 14 -5.66229 0 155 -5.66229 1
gene 1 29 15 2.06923 0 156 2.06923 1
gene 1 29 16 1.52286 0 157 1.52286 1
gene 1 29 18 5.87707 0 159 5.87707 1
gene 1 29 19 4.27334 0 160 4.27334 1
gene 1 29 20 2.85304 0 161 2.85304 1
gene 1 29 21 3.31968 0 162 3.31968 1
gene 1 29 23 4.53118 0 164 4.53118 1
gene 1 29 24 4.19547 0 165 4.19547 1
gene 1 29 25 6.04575 0 166 6.04575 1
gene 1 31 14 1.44087 0 183 1.44087 1
gene 1 31 17 -5.00749 0 186 -5.00749 1
gene 1 31 18 0.846581 0 187 0.846581 1
gene 1 31 21 0.749296 0 190 0.749296 1
gene 1 31 24 3.8469 0 193 3.8469 1
gene 1 31 25 1.36657 0 194 1.36657 1
gene 1 32 12 1.85813 0 195 1.85813 1
gene 1 32 17 -1.75162 0 200 -1.75162 1
gene 1 32 18 -3.01813 0 201 -3.01813 1
gene 1 32 20 7.83186 0 203 7.83186 1
gene 1 32 21 1.96475 0 204 1.96475 1
gene 1 32 22 -0.624603 0 205 -0.624603 1
gene 1 32 23 -0.854995 0 206 -0.854995 1
gene 1 21 18 -0.147821 0 4730 -0.147821 1
gene 1 1 21 1.19033 0 4981 1.19033 1
gene 1 5 23 -2.20604 0 8455 -2.20604 1
gene 1 22 14 1.36717 0 9946 1.36717 1
gene 1 8 19 -0.210164 0 10575 -0.210164 1
gene 1 24 24 -1.53378 1 10768 -1.53378 1
gene 1 21 13 0.528242 0 12427 0.528242 1
gene 1 21 21 3.7715 1 12740 3.7715 1
gene 1 25 14 -1.29317 0 14722 -1.29317 1
gene 1 2 15 3.98167 0 14925 3.98167 1
gene 1 23 20 0.310665 0 15117 0.310665 1
gene 1 12 32 -2.29315 1 15304 -2.29315 1
gene 1 4 21 2.7416 0 15596 2.7416 1
gene 1 18 20 -2.20416 0 15954 -2.20416 1
gene 1 22 15 -0.656659 0 16362 -0.656659 1
gene 1 4 20 -2.55647 0 16921 -2.55647 1
gene 1 17 20 -0.405617 0 17726 -0.405617 1
gene 1 10 14 -1.80668 0 19748 -1.80668 1
gene 1 21 23 -1.49463 0 19949 -1.49463 1
gene 1 2 25 0.933086 0 21816 0.933086 1
gene 1 26 27 -1.59427 0 22061 -1.59427 1
gene 1 32 25 -1.89181 0 22649 -1.89181 1
gene 1 13 13 -1.73596 1 23103 -1.73596 1
gene 1 5 14 2.7151 0 23792 2.7151 1
gene 1 21 31 -0.693716 1 25056 -0.693716 1
gene 1 12 19 -0.0726211 0 26054 -0.0726211 1
gene 1 5 18 -2.52984 0 26406 -2.52984 1
gene 1 20 20 2.5175 1 27964 2.5175 1
gene 1 11 16 1.93095 0 28381 1.93095 1
gene 1 5 19 0.131044 0 29220 0.131044 1
gene 1 19 17 0.32117 0 30058 0.32117 1
gene 1 26 26 3.96203 1 30265 3.96203 1
gene 1 9 15 -3.11546 0 31124 -3.11546 1
gene 1 2 14 1.12294 0 31865 1.12294 1
gene 1 22 24 0.334042 1 34164 0.334042 1
gene 1 13 25 0.282694 0 34715 0.282694 1
gene 1 12 12 -1.12199 1 35560 -1.12199 1
gene 1 5 13 0.903842 0 35741 0.903842 1
gene 1 17 21 -0.687642 0 36199 -0.687642 1
gene 1 5 24 2.72775 0 36412 2.72775 1
gene 1 5 15 2.93813 0 37039 2.93813 1
gene 1 31 12 1.07578 0 37658 1.07578 1
gene 1 19 15 -0.308027 0 38479 -0.308027 1
gene 1 15 20 2.13572 0 38913 2.13572 1
gene 1 22 20 0.806297 0 39055 0.806297 1
gene 1 21 15 -0.725552 0 39437 -0.725552 1
gene 1 20 14 0.772405 0 39880 0.772405 1
gene 1 15 25 -1.21293 0 41239 -1.21293 1
gene 1 4 13 -1.07424 0 41333 -1.07424 1
gene 1 3 21 0.240276 0 42783 0.240276 1
gene 1 18 18 1.09206 1 43720 1.09206 1
gene 1 18 22 -0.577762 0 44283 -0.577762 1
gene 1 2 18 -0.972866 0 45403 -0.972866 1
gene 1 21 24 0.0694573 0 46437 0.0694573 1
gene 1 3 18 -2.30703 0 46590 -2.30703 1
gene 1 22 26 -1.7936 1 46801 -1.7936 1
gene 1 19 14 1.10161 0 47203 1.10161 1
gene 1 17 24 -0.0036999 0 48270 -0.0036999 1
gene 1 12 15 -0.524683 0 49046 -0.524683 1
gene 1 4 15 1.72456 0 49433 1.72456 1
gene 1 20 13 -0.205895 0 49655 -0.205895 1
gene 1 22 19 1.28824 1 49863 1.28824 1
gene 1 10 13 2.47609 0 50733 2.47609 1
gene 1 27 1951 1.98878 0 51676 1.94552 1
gene 1 1951 19 4.5738 0 51677 4.5738 1
gene 1 1 1951 0.0573709 0 52462 0.0573709 1
gene 1 32 29 0.321038 0 52822 0.321038 1
gene 1 1 17 0.829366 0 53248 0.829366 1
gene 1 3 19 0.96947 0 54227 0.96947 1
gene 1 6 19 1.23767 0 54605 1.23767 1
gene 1 21 16 1.14527 0 54894 1.14527 1
gene 1 31 2084 1.23251 0 55249 0.959068 1
gene 1 2084 32 -0.301304 0 55250 -0.301304 1
gene 1 9 25 -0.770667 0 55324 -0.770667 1
gene 1 26 18 0.282045 0 55715 0.282045 1
gene 1 2113 13 2.15114 0 55936 1.7741 1
gene 1 32 19 0.602326 0 56158 0.602326 1
gene 1 12 13 1.16543 0 57457 1.16543 1
gene 1 10 2084 -0.96225 0 58058 -0.96225 1
gene 1 27 27 0.354793 1 59032 0.354793 1
gene 1 32 24 -0.563433 0 59822 -0.563433 1
gene 1 1951 24 0.207232 0 60588 0.207232 1
gene 1 4 27 1.26857 0 60830 1.26857 1
gene 1 6 2288 1.53099 0 60992 1.09349 1
gene 1 2288 31 -0.781393 0 60993 -0.439534 1
gene 1 32 1951 -0.0633545 0 61274 -0.0633545 1
gene 1 26 2084 0.236358 0 61556 0.236358 1
gene 1 8 2113 1.20214 0 61769 1.20214 1
gene 1 20 2341 1.17597 0 62229 0.738471 1
gene 1 10 21 0.761815 0 62430 0.761815 1
gene 1 26 22 1.06441 0 62788 1.06441 1
gene 1 2341 23 -1.68621 0 62979 -1.68621 1
gene 1 25 25 -0.0716046 1 63195 -0.0716046 1
gene 1 2341 2341 0.14317 1 63589 0.14317 1
gene 1 12 14 0.479385 0 63795 0.479385 1
gene 1 22 13 -0.491836 0 63996 -0.491836 1
gene 1 4 25 -0.399724 0 64568 -0.399724 1
gene 1 2288 2113 -0.892554 0 64881 -0.892554 1
gene 1 2444 2113 0.475866 0 65129 0 1
gene 1 9 13 0.368792 0 65238 0.368792 1
gene 1 11 2084 0.484827 0 65686 0.484827 1
gene 1 24 25 0.534285 0 66130 0.534285 1
gene 1 12 18 -0.556768 0 67001 -0.556768 1
gene 1 5 27 -0.827261 0 67586 -0.827261 1
gene 1 2084 2084 -0.336651 1 67665 -0.336651 1
gene 1 7 13 0.907744 0 67984 0.907744 1
gene 1 1951 23 -0.674248 0 68786 -0.674248 1
genomeend 598
