/* Organism #80824192 Fitness: -16392.1 
genomestart 194
trait 1 0.303272 0.877705 0.422305 0.568508 0.847148 0.32636 0.765377 0.145392 
node 1 1 0
node 2 1 1
node 3 1 1
node 4 1 1
node 5 1 1
node 6 1 1
node 7 1 1
node 8 1 1
node 9 1 1
node 10 1 1
node 11 1 1
node 12 1 2
node 13 1 2
node 14 1 2
node 15 1 2
node 16 1 2
node 17 1 2
node 18 1 2
node 19 1 2
node 20 1 2
node 21 1 2
node 22 1 2
node 23 1 2
node 24 1 2
node 25 1 2
node 26 1 3
node 27 1 3
node 28 1 3
node 30 1 3
node 31 1 3
node 34 1 3
node 248 1 3
node 1140 1 3
node 1591 1 3
node 2125 1 3
node 2290 1 3
node 2497 1 3
gene 1 1 26 4.44192 0 1 4.44192 1
gene 1 1 27 6.06537 0 2 6.06537 1
gene 1 1 28 6.10774 0 3 6.10774 1
gene 1 1 30 1.26479 0 5 1.26479 1
gene 1 1 31 1.28955 0 6 1.28955 1
gene 1 1 34 1.64313 0 9 1.64313 1
gene 1 2 26 -0.857504 0 11 -0.857504 1
gene 1 2 27 2.264 0 12 2.264 1
gene 1 2 28 -1.75208 0 13 -1.75208 1
gene 1 2 31 3.84454 0 16 3.84454 1
gene 1 2 34 1.16622 0 19 1.16622 1
gene 1 3 27 -1.56449 0 22 -1.56449 1
gene 1 3 30 1.86895 0 25 1.86895 1
gene 1 3 34 0.485748 0 29 0.485748 1
gene 1 4 26 -2.47013 0 31 -2.47013 1
gene 1 4 27 1.32698 0 32 1.32698 1
gene 1 4 28 2.06196 0 33 2.06196 1
gene 1 4 31 0.388199 0 36 0.388199 1
gene 1 5 26 0.256613 0 41 0.256613 1
gene 1 5 28 -1.75111 0 43 -1.75111 1
gene 1 6 26 -1.09207 0 51 -1.09207 1
gene 1 6 28 -0.427624 0 53 -0.427624 1
gene 1 6 30 2.39924 0 55 2.39924 1
gene 1 6 31 4.49281 0 56 4.49281 1
gene 1 6 34 -1.58895 0 59 -1.58895 1
gene 1 7 30 -5.95147 0 65 -5.95147 1
gene 1 7 31 -0.829399 0 66 -0.829399 1
gene 1 7 34 -4.11801 0 69 -4.11801 1
gene 1 8 27 2.84736 0 72 2.84736 1
gene 1 8 30 3.60078 0 75 3.60078 1
gene 1 8 31 0.513328 0 76 0.513328 1
gene 1 9 26 1.70824 0 81 1.70824 1
gene 1 9 27 3.32592 0 82 3.32592 1
gene 1 9 28 1.62262 0 83 1.62262 1
gene 1 9 30 2.16494 0 85 2.16494 1
gene 1 9 31 3.88289 0 86 3.88289 1
gene 1 9 34 -2.10107 0 89 -2.10107 1
gene 1 10 28 -0.117501 0 93 -0.117501 1
gene 1 10 30 1.36501 0 95 1.36501 1
gene 1 10 31 -1.06439 0 96 -1.06439 1
gene 1 10 34 0.687838 0 99 0.687838 1
gene 1 11 28 -0.311022 0 103 -0.311022 1
gene 1 11 31 -0.0574976 0 106 -0.0574976 1
gene 1 26 12 -1.22304 0 111 -1.22304 1
gene 1 26 13 3.74133 0 112 3.74133 1
gene 1 26 14 0.659724 0 113 0.659724 1
gene 1 26 16 -3.37174 0 115 -3.37174 1
gene 1 26 17 0.319647 0 116 0.319647 1
gene 1 26 19 -1.14221 0 118 -1.14221 1
gene 1 26 20 -3.19632 0 119 -3.19632 1
gene 1 26 21 2.86346 0 120 2.86346 1
gene 1 26 23 0.0259157 0 122 0.0259157 1
gene 1 26 24 -0.870697 0 123 -0.870697 1
gene 1 27 12 0.849211 0 125 0.849211 1
gene 1 27 14 3.49773 0 127 3.49773 1
gene 1 27 15 -2.94735 0 128 -2.94735 1
gene 1 27 18 -1.55721 0 131 -1.55721 1
gene 1 27 20 -2.13245 0 133 -2.13245 1
gene 1 27 21 -1.40861 0 134 -1.40861 1
gene 1 27 22 -3.94847 0 135 -3.94847 1
gene 1 27 23 -0.958165 0 136 -0.958165 1
gene 1 27 25 -3.03918 0 138 -3.03918 1
gene 1 28 13 -5.00086 0 140 -5.00086 1
gene 1 28 14 -0.209029 0 141 -0.209029 1
gene 1 28 15 -1.81429 0 142 -1.81429 1
gene 1 28 16 1.65136 0 143 1.65136 1
gene 1 28 20 -2.52626 0 147 -2.52626 1
gene 1 28 21 -3.75619 0 148 -3.75619 1
gene 1 28 22 -1.05729 0 149 -1.05729 1
gene 1 28 23 0.711215 0 150 0.711215 1
gene 1 28 24 -0.556314 0 151 -0.556314 1
gene 1 30 12 2.43159 0 167 2.43159 1
gene 1 30 13 -0.129579 0 168 -0.129579 1
gene 1 30 15 -0.435588 0 170 -0.435588 1
gene 1 30 17 -2.02929 0 172 -2.02929 1
gene 1 30 23 1.24461 0 178 1.24461 1
gene 1 30 24 -1.94547 0 179 -1.94547 1
gene 1 30 25 -2.71191 0 180 -2.71191 1
gene 1 31 12 0.778594 0 181 0.778594 1
gene 1 31 14 0.779182 0 183 0.779182 1
gene 1 31 17 -1.54449 0 186 -1.54449 1
gene 1 31 18 -0.961288 0 187 -0.961288 1
gene 1 31 19 -0.564784 0 188 -0.564784 1
gene 1 31 20 -1.87688 0 189 -1.87688 1
gene 1 31 23 2.695 0 192 2.695 1
gene 1 34 12 6.32772 0 223 6.32772 1
gene 1 34 13 -1.81826 0 224 -1.81826 1
gene 1 34 14 2.15068 0 225 2.15068 1
gene 1 34 16 0.257935 0 227 0.257935 1
gene 1 34 17 0.905618 0 228 0.905618 1
gene 1 34 19 2.20988 0 230 2.20988 1
gene 1 34 20 -1.28795 0 231 -1.28795 1
gene 1 34 21 0.907877 0 232 0.907877 1
gene 1 34 22 -0.795292 0 233 -0.795292 1
gene 1 34 23 1.70747 0 234 1.70747 1
gene 1 34 24 -0.827263 0 235 -0.827263 1
gene 1 13 17 -2.17993 0 324 -2.17993 1
gene 1 27 34 2.20798 0 968 2.20798 1
gene 1 10 13 1.79464 0 2249 1.79464 1
gene 1 15 15 -0.470197 1 2531 -0.470197 1
gene 1 19 15 1.12026 0 3760 1.12026 1
gene 1 22 18 0.583919 0 4664 0.583919 1
gene 1 8 20 -0.00986404 0 4837 -0.00986404 1
gene 1 248 24 -2.81239 0 5408 -2.81239 1
gene 1 14 19 -1.27855 0 8246 -1.27855 1
gene 1 25 18 2.61217 0 8471 2.61217 1
gene 1 16 21 0.255441 0 8594 0.255441 1
gene 1 31 31 0.242963 1 12033 0.242963 1
gene 1 26 26 -1.89271 1 12663 -1.89271 1
gene 1 24 17 0.646961 0 12778 0.646961 1
gene 1 23 18 1.22255 0 13445 1.22255 1
gene 1 24 16 1.36852 0 13681 1.36852 1
gene 1 8 24 -1.33284 0 14473 -1.33284 1
gene 1 8 248 -0.0938566 0 16809 -0.0938566 1
gene 1 11 20 -2.55056 0 17199 -2.55056 1
gene 1 3 248 0.398113 0 17290 0.398113 1
gene 1 13 22 0.422654 0 17365 0.422654 1
gene 1 8 12 -0.745911 0 17801 -0.745911 1
gene 1 3 15 0.410816 0 18636 0.410816 1
gene 1 17 13 1.50714 1 19738 1.50714 1
gene 1 22 22 -0.107283 1 20142 -0.107283 1
gene 1 25 25 -0.150239 1 21442 -0.150239 1
gene 1 23 23 -1.64795 1 25803 -1.64795 1
gene 1 23 15 0.808281 0 29426 0.808281 1
gene 1 17 22 2.29923 0 29625 2.29923 1
gene 1 248 22 1.14779 0 29862 1.14779 1
gene 1 7 21 -0.842574 0 29995 -0.842574 1
gene 1 5 1140 2.7827 0 30335 2.78214 1
gene 1 1140 34 3.88416 0 30336 3.88416 1
gene 1 3 28 1.64584 0 30672 1.64584 1
gene 1 31 26 -2.671 0 31760 -2.671 1
gene 1 13 248 -0.455541 0 32423 -0.455541 1
gene 1 7 19 -0.440074 0 33944 -0.440074 1
gene 1 1140 21 0.429007 0 34172 0.429007 1
gene 1 28 28 0.882382 1 34355 0.882382 1
gene 1 1 23 -0.434686 0 36479 -0.434686 1
gene 1 20 18 0.0999522 0 37093 0.0999522 1
gene 1 8 16 0.196912 0 37508 0.196912 1
gene 1 19 19 2.11557 1 37664 2.11557 1
gene 1 1140 1140 2.35476 1 38301 2.35476 1
gene 1 6 14 0.074412 0 42516 0.074412 1
gene 1 26 1591 -0.335327 0 42908 -0.351372 1
gene 1 1591 22 2.14924 0 42909 2.14924 1
gene 1 1591 12 -0.242418 0 43219 -0.242418 1
gene 1 25 21 -0.206916 0 44241 -0.206916 1
gene 1 14 15 0.761371 0 44661 0.761371 1
gene 1 27 248 -0.676347 0 46744 -0.676347 1
gene 1 13 13 -0.198472 1 47835 -0.198472 1
gene 1 5 248 -1.42332 0 48507 -1.42332 1
gene 1 15 27 -0.464038 1 49387 -0.464038 1
gene 1 2 13 1.61424 0 51321 1.61424 1
gene 1 5 15 1.83858 0 52208 1.83858 1
gene 1 9 12 -0.671567 0 52470 -0.671567 1
gene 1 20 15 1.05058 0 53163 1.05058 1
gene 1 21 21 0.415056 1 53493 0.415056 1
gene 1 3 12 -0.0509063 0 54652 -0.0509063 1
gene 1 1591 18 0.704831 0 55264 0.704831 1
gene 1 1 22 1.73841 0 55548 1.73841 1
gene 1 18 30 0.414568 1 55759 0.414568 1
gene 1 25 20 -0.0978053 0 56768 -0.0978053 1
gene 1 31 28 -1.50089 0 56976 -1.50089 1
gene 1 28 2125 1.21531 0 57217 1.19924 1
gene 1 2125 18 1.7498 0 57218 1.73504 1
gene 1 7 17 1.94727 0 58659 1.94727 1
gene 1 2 22 -0.618212 0 58849 -0.618212 1
gene 1 22 26 -0.809607 1 59249 -0.809607 1
gene 1 23 16 0.70373 0 59666 0.70373 1
gene 1 16 1591 -0.901964 0 59895 -0.901964 1
gene 1 9 24 0.216649 0 60667 0.216649 1
gene 1 13 20 -0.729217 0 60942 -0.729217 1
gene 1 11 2290 0.063018 0 61743 -0.077607 1
gene 1 10 15 -1.16985 0 62333 -1.16985 1
gene 1 27 2125 0.15895 0 62470 0.15895 1
gene 1 14 17 -0.0890081 0 62920 -0.0890081 1
gene 1 6 25 0.353246 0 63175 0.353246 1
gene 1 17 17 0.663515 1 63300 0.663515 1
gene 1 19 18 -0.678072 0 63994 -0.678072 1
gene 1 16 12 -0.562826 0 64185 -0.562826 1
gene 1 2 23 0.430749 0 64589 0.430749 1
gene 1 25 15 1.06082 0 65046 1.06082 1
gene 1 20 20 -2.42391 1 65094 -2.42391 1
gene 1 13 23 -0.586839 0 65341 -0.586839 1
gene 1 16 14 -1.3868 0 65566 -1.3868 1
gene 1 12 30 1.08001 1 65981 1.08001 1
gene 1 1591 14 0.0418371 0 66183 0.0418371 1
gene 1 3 21 0.726735 0 66743 0.726735 1
gene 1 2125 2125 -0.196707 1 67127 -0.196707 1
gene 1 4 2497 1.24284 0 67381 1.24284 1
gene 1 18 17 -0.660183 0 68360 -0.660183 1
gene 1 5 21 -1.34121 0 68820 -1.34121 1
gene 1 1 20 0.0838356 0 69447 0.0838356 1
gene 1 7 16 0.286028 0 69931 0.286028 1
gene 1 17 20 -0.626628 0 70402 -0.626628 1
gene 1 16 16 -0.936594 1 71168 -0.936594 1
genomeend 194
