/* Organism #140234282817560 Fitness: -15819.6 
genomestart 498
trait 1 0.0310907 0.774813 0.125471 0 0.542489 0.318408 0.739757 0.583612 
node 1 1 0
node 2 1 1
node 3 1 1
node 4 1 1
node 5 1 1
node 6 1 1
node 7 1 1
node 8 1 1
node 9 1 1
node 10 1 1
node 11 1 1
node 12 1 2
node 13 1 2
node 14 1 2
node 15 1 2
node 16 1 2
node 17 1 2
node 18 1 2
node 19 1 2
node 20 1 2
node 21 1 2
node 22 1 2
node 23 1 2
node 24 1 2
node 25 1 2
node 26 1 3
node 29 1 3
node 33 1 3
node 360 1 3
node 391 1 3
node 496 1 3
node 731 1 3
node 1595 1 3
node 1716 1 3
node 2207 1 3
node 2358 1 3
node 2529 1 3
gene 1 1 26 -4.85032 0 1 -4.85032 1
gene 1 1 29 -0.491474 0 4 -0.491474 1
gene 1 1 33 1.7124 0 8 1.7124 1
gene 1 2 26 -1.70302 0 11 -1.70302 1
gene 1 3 29 -6.20484 0 24 -6.20484 1
gene 1 4 26 5.72959 0 31 5.72959 1
gene 1 4 29 -5.33947 0 34 -5.33947 1
gene 1 4 33 -1.31033 0 38 -1.31033 1
gene 1 5 29 -7.52223 0 44 -7.52223 1
gene 1 5 33 0.0996547 0 48 0.0996547 1
gene 1 7 26 -3.74186 0 61 -3.74186 1
gene 1 7 29 5.23134 0 64 5.23134 1
gene 1 7 33 -4.15862 0 68 -4.15862 1
gene 1 8 26 3.76173 0 71 3.76173 1
gene 1 9 26 -1.76222 0 81 -1.76222 1
gene 1 9 29 -0.416785 0 84 -0.416785 1
gene 1 9 33 -3.81654 0 88 -3.81654 1
gene 1 10 29 0.659495 0 94 0.659495 1
gene 1 11 26 -0.956492 0 101 -0.956492 1
gene 1 26 12 2.66813 0 111 2.66813 1
gene 1 26 14 -0.299291 0 113 -0.299291 1
gene 1 26 15 4.92412 0 114 4.92412 1
gene 1 26 17 -1.09407 0 116 -1.09407 1
gene 1 26 18 4.79052 0 117 4.79052 1
gene 1 26 24 7.41482 0 123 7.41482 1
gene 1 26 25 2.26379 0 124 2.26379 1
gene 1 29 12 -8 0 153 -8 1
gene 1 29 13 1.00717 0 154 1.00717 1
gene 1 29 14 0.861781 0 155 0.861781 1
gene 1 29 15 2.86221 0 156 2.86221 1
gene 1 29 17 -3.45137 0 158 -3.45137 1
gene 1 29 18 0.559034 0 159 0.559034 1
gene 1 29 21 4.42791 0 162 4.42791 1
gene 1 29 22 1.34872 0 163 1.34872 1
gene 1 29 24 -3.10033 0 165 -3.10033 1
gene 1 29 25 -3.88897 0 166 -3.88897 1
gene 1 33 12 2.00344 0 209 2.00344 1
gene 1 33 13 0.592778 0 210 0.592778 1
gene 1 33 15 1.13093 0 212 1.13093 1
gene 1 33 21 0.820347 0 218 0.820347 1
gene 1 33 23 0.225796 0 220 0.225796 1
gene 1 33 24 0.0211643 0 221 0.0211643 1
gene 1 33 25 -5.98934 0 222 -5.98934 1
gene 1 24 24 1.34582 1 4445 1.34582 1
gene 1 26 29 3.6218 0 5295 3.6218 1
gene 1 12 12 -0.341673 1 5728 -0.341673 1
gene 1 23 12 1.22115 0 6325 1.22115 1
gene 1 17 14 -1.90237 0 6916 -1.90237 1
gene 1 20 22 0.59604 0 8489 0.59604 1
gene 1 3 391 -2.68862 0 9765 -2.68862 1
gene 1 391 33 -4.94544 0 9766 -4.94544 1
gene 1 21 21 1.54428 1 9935 1.54428 1
gene 1 29 391 2.25832 0 10308 2.25832 1
gene 1 26 13 0.623263 0 10720 0.623263 1
gene 1 391 20 -3.94444 0 11058 -3.94444 1
gene 1 496 33 5.62119 0 12464 5.62119 1
gene 1 6 496 4.06157 0 14002 4.06157 1
gene 1 25 23 -0.675692 0 14637 -0.675692 1
gene 1 14 19 -1.24467 0 15897 -1.24467 1
gene 1 360 14 1.43898 0 16095 1.43898 1
gene 1 6 22 1.92336 0 17351 1.92336 1
gene 1 25 13 -1.49086 0 17417 -1.49086 1
gene 1 731 20 3.14149 0 19120 3.14149 1
gene 1 731 731 3.09045 1 20252 3.09045 1
gene 1 1 23 -0.695377 0 21135 -0.695377 1
gene 1 360 23 3.92597 0 21764 3.92597 1
gene 1 18 18 -0.663302 1 22448 -0.663302 1
gene 1 6 26 -5.56185 0 22925 -5.56185 1
gene 1 2 16 -2.32212 0 23572 -2.32212 1
gene 1 10 17 -5.56161 0 25436 -5.56161 1
gene 1 6 12 -1.5556 0 26307 -1.5556 1
gene 1 496 496 0.958176 1 27188 0.958176 1
gene 1 7 25 1.72509 0 27663 1.72509 1
gene 1 23 25 -3.01069 1 29137 -3.01069 1
gene 1 2 12 0.129121 0 29780 0.129121 1
gene 1 391 24 1.30955 0 31426 1.30955 1
gene 1 5 19 -0.653854 0 32048 -0.653854 1
gene 1 391 391 -0.920876 1 32220 -0.920876 1
gene 1 13 23 -1.24953 0 32450 -1.24953 1
gene 1 22 19 -1.32376 0 32778 -1.32376 1
gene 1 14 14 0.536427 1 34268 0.536427 1
gene 1 731 16 -2.86454 0 35023 -2.86454 1
gene 1 10 13 -2.60619 0 36361 -2.60619 1
gene 1 22 14 -2.57322 0 36755 -2.57322 1
gene 1 18 25 3.17293 0 37564 3.17293 1
gene 1 29 33 1.09174 0 38017 1.09174 1
gene 1 360 19 2.52591 0 40570 2.52591 1
gene 1 11 29 -1.4135 0 42311 -1.4135 1
gene 1 11 360 -0.969017 0 42552 -0.969017 1
gene 1 1 360 4.41524 0 42800 4.41524 1
gene 1 26 1595 3.13752 0 43141 3.13752 1
gene 1 1595 20 0.226127 0 43142 0.226127 1
gene 1 5 17 -1.61674 0 43561 -1.61674 1
gene 1 12 17 -2.09468 0 44147 -2.09468 1
gene 1 5 23 0.869269 0 44783 0.869269 1
gene 1 9 16 -0.0685781 0 45321 -0.0685781 1
gene 1 496 25 0.21285 0 46182 0.21285 1
gene 1 8 1716 1.05939 0 46388 1.05939 1
gene 1 496 731 -1.96937 0 46544 -1.96937 1
gene 1 20 25 0.245056 0 46669 0.245056 1
gene 1 25 19 2.71256 0 47206 2.71256 1
gene 1 496 17 1.08434 0 47299 1.08434 1
gene 1 10 496 0.52638 0 47502 0.52638 1
gene 1 17 17 0.886394 1 48682 0.886394 1
gene 1 20 20 3.42705 1 50091 3.42705 1
gene 1 8 496 2.07255 0 50952 2.07255 1
gene 1 13 12 -1.89625 0 51548 -1.89625 1
gene 1 5 391 0.643245 0 52348 0.643245 1
gene 1 2 1595 -1.23797 0 52969 -1.23797 1
gene 1 731 13 0.976942 0 53169 0.976942 1
gene 1 13 14 0.674388 0 53391 0.674388 1
gene 1 10 20 -1.56974 0 53572 -1.56974 1
gene 1 6 25 -1.68572 0 53912 -1.68572 1
gene 1 4 23 -2.08279 0 54348 -2.08279 1
gene 1 11 15 1.08395 0 54700 1.08395 1
gene 1 3 22 -0.945598 0 55248 -0.945598 1
gene 1 496 22 -0.922031 0 55318 -0.922031 1
gene 1 8 23 0.79575 0 55516 0.79575 1
gene 1 15 731 -0.320808 0 56738 -0.320808 1
gene 1 7 731 -1.73578 0 58170 -1.73578 1
gene 1 29 26 0.0346773 1 59021 0.0346773 1
gene 1 29 29 -0.254543 1 59201 -0.254543 1
gene 1 26 26 -0.763679 1 60012 -0.763679 1
gene 1 1716 2207 1.33807 1 60251 1.33807 1
gene 1 2207 1716 1.31432 0 60252 1.31432 1
gene 1 391 1716 -2.1879 0 61096 -2.1879 1
gene 1 4 496 1.22087 0 61291 1.22087 1
gene 1 21 360 0.965272 0 62490 0.965272 1
gene 1 496 15 0.336159 0 62704 0.336159 1
gene 1 1595 391 -0.619772 0 63149 -0.619772 1
gene 1 10 24 1.65741 0 63406 1.65741 1
gene 1 8 33 -1.81343 0 63673 -1.81343 1
gene 1 1595 2358 -0.384718 0 64131 -0.384718 1
gene 1 2358 22 0.328525 0 64132 0.328525 1
gene 1 1716 23 1.46353 0 65458 1.46353 1
gene 1 19 19 0.193155 1 66075 0.193155 1
gene 1 496 20 0.0490516 0 66512 0.0490516 1
gene 1 11 1716 -0.405258 0 66938 -0.405258 1
gene 1 1716 1716 0.625924 1 67136 0.625924 1
gene 1 8 25 -0.609999 0 68249 -0.609999 1
gene 1 360 2529 1 0 68738 1 1
gene 1 2529 13 -1.01544 0 68739 -1.01544 1
gene 1 1595 2207 -1.19207 0 68795 -1.19207 1
gene 1 2 18 -0.837766 0 69072 -0.837766 1
gene 1 25 1595 0.477458 1 69646 0.477458 1
gene 1 25 17 -0.4104 0 70365 -0.4104 1
genomeend 498
