/* Organism #70039968 Fitness: -16929.8 
genomestart 326
trait 1 0.814717 0.478317 0.565099 0.874301 0.829101 0.288618 0.646075 0.371173 
node 1 1 0
node 2 1 1
node 3 1 1
node 4 1 1
node 5 1 1
node 6 1 1
node 7 1 1
node 8 1 1
node 9 1 1
node 10 1 1
node 11 1 1
node 12 1 2
node 13 1 2
node 14 1 2
node 15 1 2
node 16 1 2
node 17 1 2
node 18 1 2
node 19 1 2
node 20 1 2
node 21 1 2
node 22 1 2
node 23 1 2
node 24 1 2
node 25 1 2
node 31 1 3
node 32 1 3
gene 1 1 32 -0.883332 0 7 -0.883332 1
gene 1 2 31 1.5758 0 16 1.5758 1
gene 1 2 32 0.625775 0 17 0.625775 1
gene 1 3 32 -1.55561 0 27 -1.55561 1
gene 1 4 31 2.35315 0 36 2.35315 1
gene 1 4 32 -0.60811 0 37 -0.60811 1
gene 1 5 31 3.6196 0 46 3.6196 1
gene 1 5 32 7.39917 0 47 7.39917 1
gene 1 7 31 1.89839 0 66 1.89839 1
gene 1 7 32 -1.09093 0 67 -1.09093 1
gene 1 9 31 -0.0369308 0 86 -0.0369308 1
gene 1 9 32 -0.0369219 0 87 -0.0369219 1
gene 1 10 32 0.148521 0 97 0.148521 1
gene 1 31 12 -0.107837 0 181 -0.107837 1
gene 1 31 13 1.39096 0 182 1.39096 1
gene 1 31 14 2.09589 0 183 2.09589 1
gene 1 31 17 -0.177778 0 186 -0.177778 1
gene 1 31 18 -1.43451 0 187 -1.43451 1
gene 1 31 19 -1.01358 0 188 -1.01358 1
gene 1 31 20 -1.98692 0 189 -1.98692 1
gene 1 31 21 -0.280666 0 190 -0.280666 1
gene 1 31 22 -0.512232 0 191 -0.512232 1
gene 1 31 23 0.33634 0 192 0.33634 1
gene 1 31 24 -1.11011 0 193 -1.11011 1
gene 1 32 12 4.73808 0 195 4.73808 1
gene 1 32 13 -1.47783 0 196 -1.47783 1
gene 1 32 16 -2.11608 0 199 -2.11608 1
gene 1 32 17 -1.995 0 200 -1.995 1
gene 1 32 19 -2.58041 0 202 -2.58041 1
gene 1 32 21 -1.15443 0 204 -1.15443 1
gene 1 32 22 -2.7023 0 205 -2.7023 1
gene 1 32 24 -0.861322 0 207 -0.861322 1
gene 1 32 25 -1.6768 0 208 -1.6768 1
gene 1 23 13 0.268014 0 294 0.268014 1
gene 1 6 13 0.263458 0 1047 0.263458 1
gene 1 10 22 -0.501385 0 1826 -0.501385 1
gene 1 17 25 -2.65252 0 3898 -2.65252 1
gene 1 16 16 -4.02041 1 5054 -4.02041 1
gene 1 4 15 1.6442 0 5845 1.6442 1
gene 1 8 25 1.07202 0 6486 1.07202 1
gene 1 24 17 -1.11926 0 6875 -1.11926 1
gene 1 19 18 2.22062 0 6983 2.22062 1
gene 1 18 25 0.947777 0 8448 0.947777 1
gene 1 16 14 -1.90507 0 10196 -1.90507 1
gene 1 17 14 0.776513 0 12840 0.776513 1
gene 1 12 25 -0.308996 0 12953 -0.308996 1
gene 1 7 23 -0.0791029 0 14746 -0.0791029 1
gene 1 8 14 1.04468 0 15489 1.04468 1
gene 1 3 18 -1.64513 0 15743 -1.64513 1
gene 1 19 19 -1.35739 1 16943 -1.35739 1
gene 1 20 14 -2.17187 0 17786 -2.17187 1
gene 1 6 19 2.59785 0 17964 2.59785 1
gene 1 15 15 -0.123503 1 18500 -0.123503 1
gene 1 13 22 1.98542 0 21022 1.98542 1
gene 1 31 31 4.48457 1 21239 4.48457 1
gene 1 12 14 1.36927 0 22206 1.36927 1
gene 1 23 23 0.844446 1 23058 0.844446 1
gene 1 18 22 0.934378 0 23234 0.934378 1
gene 1 12 12 -0.620968 1 23624 -0.620968 1
gene 1 7 16 -0.0863492 0 24573 -0.0863492 1
gene 1 5 18 1.58589 0 24739 1.58589 1
gene 1 10 14 1.00217 0 26941 1.00217 1
gene 1 6 18 -1.63959 0 27958 -1.63959 1
gene 1 24 24 0.968633 1 28371 0.968633 1
gene 1 4 20 -2.20184 0 28734 -2.20184 1
gene 1 18 16 2.08183 0 28978 2.08183 1
gene 1 31 32 1.30377 0 29172 1.30377 1
gene 1 19 12 0.547475 0 29559 0.547475 1
gene 1 23 18 0.725778 0 30927 0.725778 1
gene 1 1 22 0.518754 0 31494 0.518754 1
gene 1 21 16 0.471489 0 32827 0.471489 1
gene 1 11 13 -1.12162 0 33099 -1.12162 1
gene 1 32 32 0.140351 1 34174 0.140351 1
gene 1 4 14 0.936017 0 35999 0.936017 1
gene 1 9 22 0.409527 0 36293 0.409527 1
gene 1 16 13 -0.628774 0 36508 -0.628774 1
gene 1 22 22 0.466514 1 36795 0.466514 1
gene 1 22 19 -1.01326 1 40885 -1.01326 1
gene 1 23 14 -0.697414 0 42154 -0.697414 1
gene 1 19 20 0.0165019 1 42724 0.0165019 1
gene 1 23 21 -0.51674 0 42926 -0.51674 1
gene 1 3 22 -0.113855 0 43108 -0.113855 1
gene 1 16 23 -1.47307 1 43499 -1.47307 1
gene 1 17 20 1.72723 0 43861 1.72723 1
gene 1 19 23 0.899508 0 44440 0.899508 1
gene 1 14 14 0.115433 1 44616 0.115433 1
gene 1 21 21 -1.48033 1 45069 -1.48033 1
gene 1 9 25 -1.94554 0 45378 -1.94554 1
gene 1 8 12 0.46154 0 45796 0.46154 1
gene 1 18 21 0.871228 0 46031 0.871228 1
gene 1 12 18 0.335117 0 49688 0.335117 1
gene 1 11 20 -0.314047 0 49888 -0.314047 1
gene 1 5 15 -0.522966 0 50049 -0.522966 1
gene 1 25 25 0.375996 1 51571 0.375996 1
gene 1 5 14 0.0300737 0 51774 0.0300737 1
gene 1 3 15 -0.388566 0 52154 -0.388566 1
gene 1 10 17 0.0995282 0 53420 0.0995282 1
gene 1 10 21 0.705779 0 54171 0.705779 1
gene 1 6 15 -0.668074 0 55575 -0.668074 1
gene 1 1 25 -0.707746 0 57321 -0.707746 1
gene 1 18 17 0.619111 0 58006 0.619111 1
gene 1 23 25 -0.26218 0 58238 -0.26218 1
gene 1 13 17 -0.601363 0 60806 -0.601363 1
gene 1 19 17 0.0990714 0 61184 0.0990714 1
gene 1 8 32 0.140432 0 61442 0.140432 1
gene 1 8 18 -0.690535 0 61621 -0.690535 1
gene 1 19 16 -0.706383 0 62005 -0.706383 1
gene 1 2 13 0.353677 0 62731 0.353677 1
gene 1 11 24 0.0713135 0 63203 0.0713135 1
gene 1 11 16 0.57452 0 63593 0.57452 1
gene 1 5 20 -0.376632 0 63800 -0.376632 1
gene 1 4 24 -0.775184 0 65399 -0.775184 1
gene 1 12 24 0.310445 0 65764 0.310445 1
gene 1 17 17 -0.664994 1 65909 -0.664994 1
gene 1 18 24 0.866013 0 66171 0.866013 1
gene 1 1 15 -0.30611 0 66371 -0.30611 1
gene 1 10 24 0.462375 0 67577 0.462375 1
gene 1 21 25 0.174433 0 68033 0.174433 1
gene 1 9 14 -0.106227 0 68233 -0.106227 1
genomeend 326
