/* Organism #139994889758728 Fitness: -16092.1 
genomestart 294
trait 1 1 0 0.867989 0.686309 0.289727 0.502373 1 0.648949 
node 1 1 0
node 2 1 1
node 3 1 1
node 4 1 1
node 5 1 1
node 6 1 1
node 7 1 1
node 8 1 1
node 9 1 1
node 10 1 1
node 11 1 1
node 12 1 2
node 13 1 2
node 14 1 2
node 15 1 2
node 16 1 2
node 17 1 2
node 18 1 2
node 19 1 2
node 20 1 2
node 21 1 2
node 22 1 2
node 23 1 2
node 24 1 2
node 25 1 2
node 26 1 3
node 27 1 3
node 28 1 3
node 30 1 3
node 31 1 3
node 32 1 3
node 33 1 3
node 35 1 3
node 192 1 3
node 455 1 3
node 964 1 3
node 1054 1 3
node 1282 1 3
node 2178 1 3
node 2206 1 3
node 2434 1 3
node 2472 1 3
gene 1 1 26 -3.13339 0 1 -3.13339 1
gene 1 1 27 2.32721 0 2 2.32721 1
gene 1 1 28 -1.07817 0 3 -1.07817 1
gene 1 1 30 3.62016 0 5 3.62016 1
gene 1 1 31 3.57205 0 6 3.57205 1
gene 1 1 32 0.613721 0 7 0.613721 1
gene 1 1 33 3.67245 0 8 3.67245 1
gene 1 1 35 4.66004 0 10 4.66004 1
gene 1 2 27 3.83775 0 12 3.83775 1
gene 1 2 31 -0.100226 0 16 -0.100226 1
gene 1 2 32 1.28124 0 17 1.28124 1
gene 1 2 35 -2.78588 0 20 -2.78588 1
gene 1 3 26 2.71915 0 21 2.71915 1
gene 1 3 27 1.93947 0 22 1.93947 1
gene 1 3 30 -1.2076 0 25 -1.2076 1
gene 1 3 32 1.20738 0 27 1.20738 1
gene 1 3 33 -3.6568 0 28 -3.6568 1
gene 1 3 35 -0.102233 0 30 -0.102233 1
gene 1 4 27 2.51904 0 32 2.51904 1
gene 1 4 28 3.01022 0 33 3.01022 1
gene 1 4 30 1.5348 0 35 1.5348 1
gene 1 4 31 -0.321256 0 36 -0.321256 1
gene 1 5 28 -1.47628 0 43 -1.47628 1
gene 1 5 31 -1.69278 0 46 -1.69278 1
gene 1 5 32 4.69476 0 47 4.69476 1
gene 1 5 33 4.55958 0 48 4.55958 1
gene 1 5 35 1.46111 0 50 1.46111 1
gene 1 6 26 6.109 0 51 6.109 1
gene 1 6 28 -0.152555 0 53 -0.152555 1
gene 1 6 30 2.04929 0 55 2.04929 1
gene 1 6 32 5.22385 0 57 5.22385 1
gene 1 6 33 -0.469398 0 58 -0.469398 1
gene 1 6 35 -0.175652 0 60 -0.175652 1
gene 1 7 26 -1.90638 0 61 -1.90638 1
gene 1 7 27 3.93582 0 62 3.93582 1
gene 1 7 28 0.818745 0 63 0.818745 1
gene 1 7 30 3.02138 0 65 3.02138 1
gene 1 7 31 -2.26578 0 66 -2.26578 1
gene 1 7 32 -5.70795 0 67 -5.70795 1
gene 1 7 33 2.75842 0 68 2.75842 1
gene 1 7 35 2.45848 0 70 2.45848 1
gene 1 8 28 1.27063 0 73 1.27063 1
gene 1 8 31 -2.21047 0 76 -2.21047 1
gene 1 8 32 -0.749869 0 77 -0.749869 1
gene 1 8 33 -2.16809 0 78 -2.16809 1
gene 1 8 35 -2.64391 0 80 -2.64391 1
gene 1 9 26 0.854977 0 81 0.854977 1
gene 1 9 27 1.54748 0 82 1.54748 1
gene 1 9 28 0.723809 0 83 0.723809 1
gene 1 9 31 5.7355 0 86 5.7355 1
gene 1 9 32 2.68676 0 87 2.68676 1
gene 1 9 33 5.41912 0 88 5.41912 1
gene 1 10 26 1.12942 0 91 1.12942 1
gene 1 10 27 2.24058 0 92 2.24058 1
gene 1 10 28 -0.0643977 0 93 -0.0643977 1
gene 1 10 31 0.207167 0 96 0.207167 1
gene 1 10 32 1.32203 0 97 1.32203 1
gene 1 10 33 1.14444 0 98 1.14444 1
gene 1 10 35 1.45943 0 100 1.45943 1
gene 1 11 28 -3.80101 0 103 -3.80101 1
gene 1 11 31 -1.90301 0 106 -1.90301 1
gene 1 11 32 -2.81295 0 107 -2.81295 1
gene 1 11 33 0.182573 0 108 0.182573 1
gene 1 26 13 0.107489 0 112 0.107489 1
gene 1 26 14 -4.52051 0 113 -4.52051 1
gene 1 26 15 1.50268 0 114 1.50268 1
gene 1 26 16 2.88824 0 115 2.88824 1
gene 1 26 17 -1.24862 0 116 -1.24862 1
gene 1 26 19 -2.6039 0 118 -2.6039 1
gene 1 26 20 0.0500443 0 119 0.0500443 1
gene 1 26 23 -6.26401 0 122 -6.26401 1
gene 1 26 24 1.2417 0 123 1.2417 1
gene 1 27 12 -2.83886 0 125 -2.83886 1
gene 1 27 13 6.2335 0 126 6.2335 1
gene 1 27 14 0.434769 0 127 0.434769 1
gene 1 27 15 -0.656011 0 128 -0.656011 1
gene 1 27 16 4.18282 0 129 4.18282 1
gene 1 27 17 -0.508882 0 130 -0.508882 1
gene 1 27 19 -0.894285 0 132 -0.894285 1
gene 1 27 20 -7.33654 0 133 -7.33654 1
gene 1 27 21 -1.24891 0 134 -1.24891 1
gene 1 27 23 0.450057 0 136 0.450057 1
gene 1 27 24 -0.229863 0 137 -0.229863 1
gene 1 28 12 -2.47577 0 139 -2.47577 1
gene 1 28 14 -3.45829 0 141 -3.45829 1
gene 1 28 15 -0.185986 0 142 -0.185986 1
gene 1 28 16 0.679784 0 143 0.679784 1
gene 1 28 17 -0.285698 0 144 -0.285698 1
gene 1 28 18 3.68076 0 145 3.68076 1
gene 1 28 19 -0.968886 0 146 -0.968886 1
gene 1 28 20 -0.976694 0 147 -0.976694 1
gene 1 28 21 0.00779711 0 148 0.00779711 1
gene 1 28 22 -0.520409 0 149 -0.520409 1
gene 1 30 13 -2.58628 0 168 -2.58628 1
gene 1 30 14 1.04092 0 169 1.04092 1
gene 1 30 15 -1.0408 0 170 -1.0408 1
gene 1 30 16 1.16565 0 171 1.16565 1
gene 1 30 17 -2.52656 0 172 -2.52656 1
gene 1 30 18 0.268952 0 173 0.268952 1
gene 1 30 20 -2.81045 0 175 -2.81045 1
gene 1 30 21 -1.2663 0 176 -1.2663 1
gene 1 30 22 -0.888322 0 177 -0.888322 1
gene 1 30 24 -5.15211 0 179 -5.15211 1
gene 1 31 12 0.373283 0 181 0.373283 1
gene 1 31 16 -5.25998 0 185 -5.25998 1
gene 1 31 17 -2.35241 0 186 -2.35241 1
gene 1 31 18 2.10054 0 187 2.10054 1
gene 1 31 19 -2.86614 0 188 -2.86614 1
gene 1 31 20 -0.708205 0 189 -0.708205 1
gene 1 31 21 0.64635 0 190 0.64635 1
gene 1 31 22 1.03056 0 191 1.03056 1
gene 1 31 25 -0.568324 0 194 -0.568324 1
gene 1 32 12 6.96968 0 195 6.96968 1
gene 1 32 14 2.71803 0 197 2.71803 1
gene 1 32 16 2.68199 0 199 2.68199 1
gene 1 32 17 -1.18514 0 200 -1.18514 1
gene 1 32 19 -0.533637 0 202 -0.533637 1
gene 1 32 20 1.24798 0 203 1.24798 1
gene 1 32 21 -1.24226 0 204 -1.24226 1
gene 1 32 22 -3.56762 0 205 -3.56762 1
gene 1 32 24 0.151633 0 207 0.151633 1
gene 1 32 25 -1.31428 0 208 -1.31428 1
gene 1 33 13 -1.42797 0 210 -1.42797 1
gene 1 33 14 -0.167877 0 211 -0.167877 1
gene 1 33 15 -3.49832 0 212 -3.49832 1
gene 1 33 16 -4.72123 0 213 -4.72123 1
gene 1 33 17 -0.357253 0 214 -0.357253 1
gene 1 33 19 -3.17979 0 216 -3.17979 1
gene 1 33 21 1.60878 0 218 1.60878 1
gene 1 33 23 -1.06228 0 220 -1.06228 1
gene 1 33 24 -2.84551 0 221 -2.84551 1
gene 1 33 25 -1.71038 0 222 -1.71038 1
gene 1 35 12 0.878861 0 237 0.878861 1
gene 1 35 13 -1.55803 0 238 -1.55803 1
gene 1 35 17 1.29949 0 242 1.29949 1
gene 1 35 18 -1.3366 0 243 -1.3366 1
gene 1 35 19 -0.476265 0 244 -0.476265 1
gene 1 35 20 1.99147 0 245 1.99147 1
gene 1 35 23 2.06232 0 248 2.06232 1
gene 1 18 22 0.891331 0 1090 0.891331 1
gene 1 10 16 -2.68023 0 1490 -2.68023 1
gene 1 13 24 -0.951537 0 2864 -0.951537 1
gene 1 2 192 5.50576 0 3897 5.50576 1
gene 1 22 25 -0.985561 0 4349 -0.985561 1
gene 1 16 21 0.821603 0 4843 0.821603 1
gene 1 17 22 1.80718 0 5827 1.80718 1
gene 1 3 192 -0.106813 0 7711 -0.106813 1
gene 1 26 32 -1.6435 0 11085 -1.6435 1
gene 1 19 22 1.87517 0 11997 1.87517 1
gene 1 9 14 -0.964337 0 12268 -0.964337 1
gene 1 4 18 -0.0803442 0 12739 -0.0803442 1
gene 1 192 33 -0.6671 0 12964 -0.6671 1
gene 1 24 14 -3.45964 0 13399 -3.45964 1
gene 1 28 24 -0.493548 0 14366 -0.493548 1
gene 1 18 24 3.39837 0 16004 3.39837 1
gene 1 23 18 -1.24522 0 16880 -1.24522 1
gene 1 4 12 -1.61585 0 17033 -1.61585 1
gene 1 455 15 -0.279371 0 17665 -0.279371 1
gene 1 11 20 -0.951435 0 19610 -0.951435 1
gene 1 8 455 1.03553 0 19809 1.03553 1
gene 1 3 19 3.03013 0 20856 3.03013 1
gene 1 19 17 -0.836729 0 21209 -0.836729 1
gene 1 19 19 3.20864 1 21368 3.20864 1
gene 1 16 192 0.527668 1 21878 0.527668 1
gene 1 18 15 0.359714 0 22023 0.359714 1
gene 1 32 28 -4.35034 0 22546 -4.35034 1
gene 1 19 12 -0.572544 0 22942 -0.572544 1
gene 1 2 20 -0.468039 0 23120 -0.468039 1
gene 1 7 18 -0.135505 0 23589 -0.135505 1
gene 1 33 33 3.39821 1 24616 3.39821 1
gene 1 27 964 3.94718 0 26198 3.94718 1
gene 1 964 25 -1.53366 0 26199 -1.53366 1
gene 1 6 15 -0.0505769 0 26538 -0.0505769 1
gene 1 28 28 -1.00577 1 26744 -1.00577 1
gene 1 7 22 -1.50489 0 27914 -1.50489 1
gene 1 30 455 0.00267247 0 28136 0.00267247 1
gene 1 27 1054 -1.60163 0 28774 -1.60163 1
gene 1 1054 22 -1.80691 0 28775 -1.80691 1
gene 1 18 18 0.138378 1 28973 0.138378 1
gene 1 964 17 -0.0397531 0 29650 -0.0397531 1
gene 1 964 19 -1.34347 0 29885 -1.34347 1
gene 1 14 17 0.923616 0 30339 0.923616 1
gene 1 11 12 1.88955 0 30469 1.88955 1
gene 1 5 14 -1.33215 0 30892 -1.33215 1
gene 1 31 455 -0.127565 0 33001 -0.127565 1
gene 1 25 28 0.82594 1 33661 0.82594 1
gene 1 4 17 0.188363 0 34036 0.188363 1
gene 1 9 23 -1.34111 0 34212 -1.34111 1
gene 1 2 17 2.12196 0 34734 2.12196 1
gene 1 455 1282 -0.589904 0 34859 -0.589904 1
gene 1 1282 14 0.435486 0 34860 0.435486 1
gene 1 7 1282 1.97971 0 35425 1.97971 1
gene 1 192 24 -0.759808 0 35653 -0.759808 1
gene 1 17 17 1.09883 1 37903 1.09883 1
gene 1 16 18 -0.99578 0 38943 -0.99578 1
gene 1 20 33 0.599717 0 39484 0.599717 1
gene 1 32 32 0.678495 1 39719 0.678495 1
gene 1 30 1054 -1.10182 0 39935 -1.10182 1
gene 1 14 1054 -0.446182 0 40148 -0.446182 1
gene 1 455 17 -2.14457 0 40678 -2.14457 1
gene 1 30 964 -0.774628 0 42883 -0.774628 1
gene 1 20 1282 -0.58843 0 43101 -0.58843 1
gene 1 3 12 0.439624 0 43573 0.439624 1
gene 1 1282 18 -2.03691 0 43909 -2.03691 1
gene 1 27 30 1.12842 0 44164 1.12842 1
gene 1 31 1054 -0.38103 0 44267 -0.38103 1
gene 1 1282 23 1.71311 0 44694 1.71311 1
gene 1 32 27 2.53158 0 46012 2.53158 1
gene 1 5 12 1.12596 0 46236 1.12596 1
gene 1 17 23 -0.0487399 0 47197 -0.0487399 1
gene 1 20 20 -0.833541 1 47260 -0.833541 1
gene 1 21 21 0.363949 1 47526 0.363949 1
gene 1 16 16 -1.03313 1 48632 -1.03313 1
gene 1 21 964 -0.112614 0 50457 -0.112614 1
gene 1 10 22 -1.40535 0 51562 -1.40535 1
gene 1 6 192 1.83906 0 53536 1.83906 1
gene 1 13 964 1.06405 0 55105 1.06405 1
gene 1 455 35 -1.39442 0 55789 -1.39442 1
gene 1 25 25 -0.770472 1 56124 -0.770472 1
gene 1 24 24 2.14439 1 56252 2.14439 1
gene 1 26 18 0.0882505 0 56583 0.0882505 1
gene 1 16 22 -0.178668 0 56686 -0.178668 1
gene 1 22 22 0.469924 1 57474 0.469924 1
gene 1 13 25 -1.7174 0 58399 -1.7174 1
gene 1 22 24 0.883519 0 59644 0.883519 1
gene 1 9 1054 -0.518991 0 60232 -0.518991 1
gene 1 1282 1282 0.116867 1 60559 0.116867 1
gene 1 27 2178 0.344478 0 60839 0.344478 1
gene 1 2178 35 0.73051 0 60840 0.73051 1
gene 1 14 21 -1.54911 0 60994 -1.54911 1
gene 1 17 25 -0.0579078 0 61426 -0.0579078 1
gene 1 20 2206 0.231746 0 61696 0.231746 1
gene 1 2206 19 -0.182614 0 61697 -0.182614 1
gene 1 1 13 0.664879 0 61775 0.664879 1
gene 1 21 12 0.812525 0 62015 0.812525 1
gene 1 21 1054 0.823079 0 62249 0.823079 1
gene 1 4 16 -0.0319583 0 62451 -0.0319583 1
gene 1 33 28 0.310599 1 62848 0.310599 1
gene 1 31 23 -0.912658 0 63054 -0.912658 1
gene 1 2206 18 1.212 0 63488 1.212 1
gene 1 32 30 -1.44367 0 63710 -1.44367 1
gene 1 7 20 0.171446 0 64345 0.171446 1
gene 1 31 2206 0.20317 0 64469 0.20317 1
gene 1 8 20 -0.668839 0 64712 -0.668839 1
gene 1 25 15 -0.548752 0 65570 -0.548752 1
gene 1 23 15 -0.671274 0 66324 -0.671274 1
gene 1 3 455 0.868417 0 66541 0.868417 1
gene 1 19 18 -0.247955 0 66746 -0.247955 1
gene 1 28 2434 0.645598 0 68470 -0.0106517 1
gene 1 2434 23 0.294478 0 68471 0.124504 1
gene 1 455 192 -0.963739 0 69262 -0.963739 1
gene 1 20 13 -0.0234324 0 69431 -0.0234324 1
gene 1 26 2472 1 0 69745 0 1
gene 1 2472 27 2.62292 0 69746 0 1
gene 1 192 964 0.531145 0 69975 0.531145 1
gene 1 26 455 -0.692109 0 70182 -0.692109 1
gene 1 35 14 -0.389874 0 70625 -0.389874 1
gene 1 5 192 -0.00219489 0 70780 -0.00219489 1
gene 1 1282 22 -0.0199798 0 71080 -0.0199798 1
gene 1 2434 30 0.613284 0 71288 0.613284 1
gene 1 1282 12 -0.830418 0 71509 -0.830418 1
gene 1 21 15 -0.0730934 0 71709 -0.0730934 1
genomeend 294
