/* Organism #29349520 Fitness: -15700.9 
genomestart 83
trait 1 0.162193 0.978704 0.0856106 0.808384 0.818059 0.774035 0.171264 0.73902 
node 1 1 0
node 2 1 1
node 3 1 1
node 4 1 1
node 5 1 1
node 6 1 1
node 7 1 1
node 8 1 1
node 9 1 1
node 10 1 1
node 11 1 1
node 12 1 2
node 13 1 2
node 14 1 2
node 15 1 2
node 16 1 2
node 17 1 2
node 18 1 2
node 19 1 2
node 20 1 2
node 21 1 2
node 22 1 2
node 23 1 2
node 24 1 2
node 25 1 2
node 28 1 3
node 29 1 3
node 30 1 3
node 31 1 3
node 35 1 3
node 1119 1 3
node 1906 1 3
node 2486 1 3
gene 1 1 28 -7.64916 0 3 -7.64916 1
gene 1 1 29 -6.49635 0 4 -6.49635 1
gene 1 1 30 -4.4278 0 5 -4.4278 1
gene 1 2 30 -0.361437 0 15 -0.361437 1
gene 1 3 28 -2.26622 0 23 -2.26622 1
gene 1 3 29 -1.33412 0 24 -1.33412 1
gene 1 4 28 2.47905 0 33 2.47905 1
gene 1 4 29 0.150578 0 34 0.150578 1
gene 1 4 31 1.63153 0 36 1.63153 1
gene 1 5 29 -4.68243 0 44 -4.68243 1
gene 1 5 30 -7.29741 0 45 -7.29741 1
gene 1 5 31 -2.04192 0 46 -2.04192 1
gene 1 5 35 -5.11974 0 50 -5.11974 1
gene 1 6 28 -2.91714 0 53 -2.91714 1
gene 1 6 29 2.99117 0 54 2.99117 1
gene 1 6 30 0.354738 0 55 0.354738 1
gene 1 6 31 4.85271 0 56 4.85271 1
gene 1 6 35 1.27519 0 60 1.27519 1
gene 1 7 29 2.89793 0 64 2.89793 1
gene 1 7 30 5.49779 0 65 5.49779 1
gene 1 8 28 -3.32085 0 73 -3.32085 1
gene 1 8 35 -4.45257 0 80 -4.45257 1
gene 1 9 29 3.29423 0 84 3.29423 1
gene 1 9 30 0.383789 0 85 0.383789 1
gene 1 9 31 2.30764 0 86 2.30764 1
gene 1 9 35 -5.4432 0 90 -5.4432 1
gene 1 10 30 0.642399 0 95 0.642399 1
gene 1 10 31 -7.02337 0 96 -7.02337 1
gene 1 10 35 -2.24191 0 100 -2.24191 1
gene 1 11 28 1.59927 0 103 1.59927 1
gene 1 11 29 0.644312 0 104 0.644312 1
gene 1 11 30 0.34046 0 105 0.34046 1
gene 1 11 31 2.20351 0 106 2.20351 1
gene 1 11 35 6.01635 0 110 6.01635 1
gene 1 28 12 5.14928 0 139 5.14928 1
gene 1 28 15 2.65654 0 142 2.65654 1
gene 1 28 16 -6.10263 0 143 -6.10263 1
gene 1 28 20 4.17802 0 147 4.17802 1
gene 1 28 21 0.297833 0 148 0.297833 1
gene 1 28 23 -2.09474 0 150 -2.09474 1
gene 1 28 24 1.67166 0 151 1.67166 1
gene 1 28 25 2.1431 0 152 2.1431 1
gene 1 29 12 -1.71257 0 153 -1.71257 1
gene 1 29 13 3.31319 0 154 3.31319 1
gene 1 29 14 -4.48806 0 155 -4.48806 1
gene 1 29 16 -1.81133 0 157 -1.81133 1
gene 1 29 17 2.36289 0 158 2.36289 1
gene 1 29 19 -1.66913 0 160 -1.66913 1
gene 1 29 21 1.57878 0 162 1.57878 1
gene 1 29 22 5.75906 0 163 5.75906 1
gene 1 29 23 -0.757572 0 164 -0.757572 1
gene 1 29 24 1.09469 0 165 1.09469 1
gene 1 29 25 5.04701 0 166 5.04701 1
gene 1 30 12 -6.59083 0 167 -6.59083 1
gene 1 30 13 1.08123 0 168 1.08123 1
gene 1 30 14 0.88502 0 169 0.88502 1
gene 1 30 15 -0.636272 0 170 -0.636272 1
gene 1 30 17 -4.75117 0 172 -4.75117 1
gene 1 30 20 3.06159 0 175 3.06159 1
gene 1 30 21 0.923104 0 176 0.923104 1
gene 1 30 24 5.83226 0 179 5.83226 1
gene 1 30 25 -4.33957 0 180 -4.33957 1
gene 1 31 13 1.23976 0 182 1.23976 1
gene 1 31 14 1.16567 0 183 1.16567 1
gene 1 31 15 -0.980787 0 184 -0.980787 1
gene 1 31 16 0.262969 0 185 0.262969 1
gene 1 31 17 -3.87371 0 186 -3.87371 1
gene 1 31 18 -3.08509 0 187 -3.08509 1
gene 1 31 19 -3.42383 0 188 -3.42383 1
gene 1 31 20 -5.20163 0 189 -5.20163 1
gene 1 31 21 1.72235 0 190 1.72235 1
gene 1 31 22 -4.20141 0 191 -4.20141 1
gene 1 31 23 -0.715923 0 192 -0.715923 1
gene 1 35 12 -1.82769 0 237 -1.82769 1
gene 1 35 15 -2.91542 0 240 -2.91542 1
gene 1 35 16 6.24047 0 241 6.24047 1
gene 1 35 17 3.05427 0 242 3.05427 1
gene 1 35 18 1.08285 0 243 1.08285 1
gene 1 35 19 -3.698 0 244 -3.698 1
gene 1 35 20 -0.721217 0 245 -0.721217 1
gene 1 35 21 -0.251904 0 246 -0.251904 1
gene 1 35 24 1.34051 0 249 1.34051 1
gene 1 35 25 -1.39669 0 250 -1.39669 1
gene 1 9 16 -3.47196 0 682 -3.47196 1
gene 1 23 23 -4.65792 1 3328 -4.65792 1
gene 1 20 19 1.5733 0 4404 1.5733 1
gene 1 14 18 -1.49743 0 5419 -1.49743 1
gene 1 18 30 0.137308 1 6810 0.137308 1
gene 1 12 18 -1.42276 0 8424 -1.42276 1
gene 1 17 17 -1.1903 1 9698 -1.1903 1
gene 1 6 14 -0.224629 0 10114 -0.224629 1
gene 1 31 29 -0.908657 0 10314 -0.908657 1
gene 1 6 21 -2.53532 0 12099 -2.53532 1
gene 1 20 12 0.464794 0 13473 0.464794 1
gene 1 14 24 0.110825 0 14440 0.110825 1
gene 1 1 19 1.566 0 15253 1.566 1
gene 1 24 16 -1.48302 0 15680 -1.48302 1
gene 1 14 12 1.21013 0 16314 1.21013 1
gene 1 18 18 -3.123 1 17377 -3.123 1
gene 1 6 12 -0.870626 0 17592 -0.870626 1
gene 1 31 31 -0.58121 1 17807 -0.58121 1
gene 1 4 20 2.04874 0 17990 2.04874 1
gene 1 28 28 -0.75213 1 18413 -0.75213 1
gene 1 12 12 2.1543 1 19271 2.1543 1
gene 1 16 17 0.38677 0 20120 0.38677 1
gene 1 24 24 0.543697 1 20430 0.543697 1
gene 1 29 15 -1.3147 0 22312 -1.3147 1
gene 1 19 16 0.836519 0 24745 0.836519 1
gene 1 19 19 -4.56384 1 24941 -4.56384 1
gene 1 35 31 -1.83461 0 25397 -1.83461 1
gene 1 29 1119 0.304694 0 28615 0.304694 1
gene 1 1119 18 -1.68322 0 28616 -1.68322 1
gene 1 28 22 -0.371467 0 29185 -0.371467 1
gene 1 3 15 -0.463233 0 30057 -0.463233 1
gene 1 11 13 0.645051 0 31729 0.645051 1
gene 1 7 12 -1.21445 0 32492 -1.21445 1
gene 1 4 19 -0.0625241 0 32666 -0.0625241 1
gene 1 3 24 -1.91285 0 32914 -1.91285 1
gene 1 1 35 1.92988 0 33953 1.92988 1
gene 1 35 35 1.80662 1 35171 1.80662 1
gene 1 15 24 0.636041 0 35999 0.636041 1
gene 1 8 22 0.403166 0 36454 0.403166 1
gene 1 29 29 -1.39762 1 36544 -1.39762 1
gene 1 15 15 0.111875 1 40164 0.111875 1
gene 1 22 22 -1.64801 1 40771 -1.64801 1
gene 1 22 17 0.31543 0 41415 0.31543 1
gene 1 7 13 0.296048 0 41770 0.296048 1
gene 1 1 24 0.508858 0 42017 0.508858 1
gene 1 30 30 1.0752 1 42111 1.0752 1
gene 1 19 1119 -0.225198 0 44348 -0.225198 1
gene 1 4 23 -0.271508 0 44775 -0.271508 1
gene 1 16 16 -0.251607 1 44875 -0.251607 1
gene 1 7 31 0.488968 0 45701 0.488968 1
gene 1 9 22 -1.04104 0 45912 -1.04104 1
gene 1 9 12 1.82824 0 46728 1.82824 1
gene 1 12 24 1.34447 0 49159 1.34447 1
gene 1 4 13 -0.304845 0 49275 -0.304845 1
gene 1 3 1906 -0.791239 0 49920 -0.791239 1
gene 1 1906 31 0.895826 0 49921 0.895826 1
gene 1 31 12 0.354377 0 50802 0.354377 1
gene 1 3 35 -0.793555 0 51840 -0.793555 1
gene 1 28 31 -0.211761 0 53539 -0.211761 1
gene 1 29 1906 0.401576 1 54027 0.401576 1
gene 1 30 28 -0.476757 0 54900 -0.476757 1
gene 1 20 13 -0.273194 0 55117 -0.273194 1
gene 1 19 23 -0.887861 0 55751 -0.887861 1
gene 1 25 25 0.760138 1 56414 0.760138 1
gene 1 1119 22 -0.0156499 0 57700 -0.0156499 1
gene 1 17 24 -0.819068 1 57796 -0.819068 1
gene 1 3 13 -0.723712 0 57998 -0.723712 1
gene 1 1 25 -0.0130846 0 58301 -0.0130846 1
gene 1 24 13 0.705996 0 59700 0.705996 1
gene 1 10 25 -0.757101 0 59991 -0.757101 1
gene 1 15 13 -0.535308 0 60838 -0.535308 1
gene 1 1906 24 -0.769321 0 61589 -0.769321 1
gene 1 23 18 -0.789299 0 61873 -0.789299 1
gene 1 25 1119 0.233739 0 62096 0.233739 1
gene 1 1906 16 0.776161 0 62832 0.776161 1
gene 1 6 18 -0.0423825 0 63051 -0.0423825 1
gene 1 19 21 1.11478 0 63262 1.11478 1
gene 1 22 24 -0.448522 0 63498 -0.448522 1
gene 1 21 21 1.04254 1 63928 1.04254 1
gene 1 5 13 -0.674382 0 65052 -0.674382 1
gene 1 1906 20 -0.21448 0 65252 -0.21448 1
gene 1 3 31 -0.728417 0 65421 -0.728417 1
gene 1 7 2486 1 0 66496 0 1
gene 1 21 22 0.805156 0 66821 0.805156 1
gene 1 14 13 0.680936 0 67232 0.680936 1
gene 1 15 17 -0.999976 0 67466 -0.999976 1
gene 1 25 1906 0.817282 1 67962 0.817282 1
gene 1 4 12 -0.194274 0 68188 -0.194274 1
gene 1 14 21 -0.435028 0 68372 -0.435028 1
gene 1 1 15 0.740674 0 68575 0.740674 1
genomeend 83
