/* Organism #46377776 Fitness: -15703.9 
genomestart 319
trait 1 0.00345404 0.303306 0.222709 0.707632 0.0323009 0.702309 0.639044 0.456857 
node 1 1 0
node 2 1 1
node 3 1 1
node 4 1 1
node 5 1 1
node 6 1 1
node 7 1 1
node 8 1 1
node 9 1 1
node 10 1 1
node 11 1 1
node 12 1 2
node 13 1 2
node 14 1 2
node 15 1 2
node 16 1 2
node 17 1 2
node 18 1 2
node 19 1 2
node 20 1 2
node 21 1 2
node 22 1 2
node 23 1 2
node 24 1 2
node 25 1 2
node 26 1 3
node 27 1 3
node 28 1 3
node 29 1 3
node 31 1 3
node 403 1 3
node 2328 1 3
node 2400 1 3
node 2482 1 3
gene 1 1 26 -3.39164 0 1 -3.39164 1
gene 1 1 28 1.66098 0 3 1.66098 1
gene 1 1 29 0.386739 0 4 0.386739 1
gene 1 1 31 -6.8447 0 6 -6.8447 1
gene 1 2 26 0.959697 0 11 0.959697 1
gene 1 2 27 -2.00734 0 12 -2.00734 1
gene 1 2 29 2.90823 0 14 2.90823 1
gene 1 2 31 1.01434 0 16 1.01434 1
gene 1 3 26 0.122391 0 21 0.122391 1
gene 1 3 27 -0.839704 0 22 -0.839704 1
gene 1 3 31 -1.0389 0 26 -1.0389 1
gene 1 4 26 -1.42472 0 31 -1.42472 1
gene 1 4 27 0.264608 0 32 0.264608 1
gene 1 5 28 7.44615 0 43 7.44615 1
gene 1 5 29 -2.27032 0 44 -2.27032 1
gene 1 5 31 -6.51855 0 46 -6.51855 1
gene 1 6 27 2.38439 0 52 2.38439 1
gene 1 6 28 -0.428014 0 53 -0.428014 1
gene 1 6 29 -3.10663 0 54 -3.10663 1
gene 1 7 26 0.0861334 0 61 0.0861334 1
gene 1 7 27 2.28852 0 62 2.28852 1
gene 1 7 28 -1.39931 0 63 -1.39931 1
gene 1 7 29 3.11309 0 64 3.11309 1
gene 1 8 26 -1.09072 0 71 -1.09072 1
gene 1 8 27 0.584853 0 72 0.584853 1
gene 1 8 29 4.85091 0 74 4.85091 1
gene 1 8 31 0.601649 0 76 0.601649 1
gene 1 9 27 2.65488 0 82 2.65488 1
gene 1 9 28 -0.169583 0 83 -0.169583 1
gene 1 9 29 -0.835892 0 84 -0.835892 1
gene 1 9 31 -0.942146 0 86 -0.942146 1
gene 1 10 26 3.02312 0 91 3.02312 1
gene 1 10 28 -2.74245 0 93 -2.74245 1
gene 1 11 26 1.93479 0 101 1.93479 1
gene 1 11 27 -1.27663 0 102 -1.27663 1
gene 1 11 28 0.831023 0 103 0.831023 1
gene 1 11 31 0.262766 0 106 0.262766 1
gene 1 26 12 2.67537 0 111 2.67537 1
gene 1 26 13 0.9994 0 112 0.9994 1
gene 1 26 15 1.14197 0 114 1.14197 1
gene 1 26 17 -3.60413 0 116 -3.60413 1
gene 1 26 19 4.00022 0 118 4.00022 1
gene 1 26 20 -3.07557 0 119 -3.07557 1
gene 1 26 21 6.11134 0 120 6.11134 1
gene 1 26 22 6.75846 0 121 6.75846 1
gene 1 26 25 6.44789 0 124 6.44789 1
gene 1 27 13 0.979828 0 126 0.979828 1
gene 1 27 14 -0.687226 0 127 -0.687226 1
gene 1 27 15 -2.68845 0 128 -2.68845 1
gene 1 27 16 3.59778 0 129 3.59778 1
gene 1 27 17 -2.39653 0 130 -2.39653 1
gene 1 27 18 -1.41706 0 131 -1.41706 1
gene 1 27 19 2.08926 0 132 2.08926 1
gene 1 27 20 -5.68528 0 133 -5.68528 1
gene 1 27 22 -0.641939 0 135 -0.641939 1
gene 1 27 24 3.13717 0 137 3.13717 1
gene 1 27 25 -4.6895 0 138 -4.6895 1
gene 1 28 12 6.71683 0 139 6.71683 1
gene 1 28 13 -2.44002 0 140 -2.44002 1
gene 1 28 14 4.14565 0 141 4.14565 1
gene 1 28 15 -1.49331 0 142 -1.49331 1
gene 1 28 16 0.973446 0 143 0.973446 1
gene 1 28 19 -0.601437 0 146 -0.601437 1
gene 1 28 20 1.60547 0 147 1.60547 1
gene 1 28 22 -0.583441 0 149 -0.583441 1
gene 1 29 12 -5.17679 0 153 -5.17679 1
gene 1 29 13 -3.42676 0 154 -3.42676 1
gene 1 29 16 -5.43216 0 157 -5.43216 1
gene 1 29 17 0.384059 0 158 0.384059 1
gene 1 29 22 -5.49709 0 163 -5.49709 1
gene 1 29 23 6.18894 0 164 6.18894 1
gene 1 29 24 2.75669 0 165 2.75669 1
gene 1 31 12 -3.34559 0 181 -3.34559 1
gene 1 31 14 0.437352 0 183 0.437352 1
gene 1 31 15 0.489374 0 184 0.489374 1
gene 1 31 16 0.0372389 0 185 0.0372389 1
gene 1 31 17 -3.70222 0 186 -3.70222 1
gene 1 31 18 4.85049 0 187 4.85049 1
gene 1 31 21 0.116965 0 190 0.116965 1
gene 1 31 22 0.693513 0 191 0.693513 1
gene 1 31 24 4.08137 0 193 4.08137 1
gene 1 31 25 1.38043 0 194 1.38043 1
gene 1 26 29 -3.72299 0 1919 -3.72299 1
gene 1 6 23 0.884734 0 3810 0.884734 1
gene 1 9 21 -0.0855888 0 5281 -0.0855888 1
gene 1 12 12 0.0750776 1 6400 0.0750776 1
gene 1 8 12 4.73771 0 6890 4.73771 1
gene 1 10 23 4.21978 0 7088 4.21978 1
gene 1 27 403 2.33152 0 9445 2.33152 1
gene 1 403 23 -3.49208 0 9446 -3.49208 1
gene 1 403 20 1.46894 0 10787 1.46894 1
gene 1 23 15 -1.1561 0 10820 -1.1561 1
gene 1 26 26 -3.44736 1 11527 -3.44736 1
gene 1 20 20 3.46585 1 11969 3.46585 1
gene 1 11 13 0.716159 0 15079 0.716159 1
gene 1 8 18 -1.11152 0 16287 -1.11152 1
gene 1 1 17 -1.65201 0 17148 -1.65201 1
gene 1 23 23 -0.724645 1 17335 -0.724645 1
gene 1 17 403 -1.89151 0 17795 -1.89151 1
gene 1 8 19 0.379206 0 18013 0.379206 1
gene 1 403 403 1.25616 1 18806 1.25616 1
gene 1 6 20 -0.508338 0 19724 -0.508338 1
gene 1 31 27 -0.807197 0 21248 -0.807197 1
gene 1 21 21 -0.178294 1 23697 -0.178294 1
gene 1 6 22 -0.424997 0 23878 -0.424997 1
gene 1 28 28 0.681403 1 24135 0.681403 1
gene 1 31 26 -5.02983 0 24357 -5.02983 1
gene 1 9 17 -0.107862 0 24546 -0.107862 1
gene 1 7 17 0.667087 0 25373 0.667087 1
gene 1 24 19 -0.690163 0 25955 -0.690163 1
gene 1 14 20 -1.2219 0 26363 -1.2219 1
gene 1 29 29 2.38861 1 26630 2.38861 1
gene 1 19 19 2.0695 1 27467 2.0695 1
gene 1 9 14 0.170308 0 27736 0.170308 1
gene 1 25 24 -0.0376312 0 27911 -0.0376312 1
gene 1 18 13 0.646408 0 29496 0.646408 1
gene 1 1 13 -0.863253 0 30117 -0.863253 1
gene 1 23 24 -2.14614 0 31001 -2.14614 1
gene 1 2 17 -0.0828964 0 31685 -0.0828964 1
gene 1 22 18 0.808085 0 33398 0.808085 1
gene 1 25 16 0.450385 0 34417 0.450385 1
gene 1 25 28 0.934339 0 34956 0.934339 1
gene 1 403 13 -0.154367 0 35530 -0.154367 1
gene 1 403 24 1.0014 0 35825 1.0014 1
gene 1 11 16 0.593444 0 37882 0.593444 1
gene 1 2 14 -0.994876 0 38587 -0.994876 1
gene 1 4 21 -0.139387 0 39160 -0.139387 1
gene 1 13 23 0.345522 0 39337 0.345522 1
gene 1 19 18 0.245421 1 39551 0.245421 1
gene 1 15 14 -0.851512 0 41432 -0.851512 1
gene 1 26 27 -0.834436 0 42433 -0.834436 1
gene 1 16 15 0.0683767 1 42622 0.0683767 1
gene 1 15 29 -0.87215 1 42736 -0.87215 1
gene 1 11 25 -0.234724 0 43249 -0.234724 1
gene 1 17 12 0.27626 0 43401 0.27626 1
gene 1 23 21 1.05734 0 43836 1.05734 1
gene 1 10 21 0.774555 0 45160 0.774555 1
gene 1 8 22 0.830297 0 45721 0.830297 1
gene 1 21 22 0.591307 0 45932 0.591307 1
gene 1 9 13 0.0865822 0 46339 0.0865822 1
gene 1 25 23 0.633693 0 46532 0.633693 1
gene 1 11 20 0.114769 0 46745 0.114769 1
gene 1 25 25 -0.493192 1 47186 -0.493192 1
gene 1 2 23 0.0469117 0 47403 0.0469117 1
gene 1 22 22 -0.274243 1 47616 -0.274243 1
gene 1 3 24 0.481997 0 47872 0.481997 1
gene 1 6 15 -1.30613 0 48086 -1.30613 1
gene 1 9 23 -0.40292 0 48464 -0.40292 1
gene 1 8 14 -1.17236 0 49617 -1.17236 1
gene 1 5 14 0.655565 0 50005 0.655565 1
gene 1 1 15 -0.606145 0 50388 -0.606145 1
gene 1 29 403 -0.126172 0 50682 -0.126172 1
gene 1 6 24 0.640985 0 50837 0.640985 1
gene 1 4 28 0.417147 0 51282 0.417147 1
gene 1 19 20 -0.210371 0 51688 -0.210371 1
gene 1 8 24 0.118638 0 51899 0.118638 1
gene 1 22 403 -1.04354 1 52559 -1.04354 1
gene 1 5 16 1.27623 0 52712 1.27623 1
gene 1 4 403 -0.182558 0 52930 -0.182558 1
gene 1 24 24 -0.394981 1 53035 -0.394981 1
gene 1 8 403 -0.502273 0 53895 -0.502273 1
gene 1 25 18 -0.0739082 0 54089 -0.0739082 1
gene 1 5 15 -0.589323 0 54556 -0.589323 1
gene 1 11 22 0.605548 0 54966 0.605548 1
gene 1 31 403 -0.610049 0 55081 -0.610049 1
gene 1 11 12 0.523707 0 55305 0.523707 1
gene 1 23 22 -0.757244 1 55620 -0.757244 1
gene 1 14 15 0.233085 1 55910 0.233085 1
gene 1 403 19 0.194146 0 57004 0.194146 1
gene 1 3 22 0.32049 0 58423 0.32049 1
gene 1 12 21 0.325577 0 58606 0.325577 1
gene 1 3 17 -0.160622 0 58747 -0.160622 1
gene 1 4 18 -0.511025 0 58981 -0.511025 1
gene 1 3 25 -0.26152 0 59384 -0.26152 1
gene 1 17 24 0.401098 0 59587 0.401098 1
gene 1 9 24 -0.532671 0 59785 -0.532671 1
gene 1 1 24 0.0968318 0 60206 0.0968318 1
gene 1 5 2328 0.625684 0 60402 0.508496 1
gene 1 2328 12 0.312695 0 60403 0.264052 1
gene 1 403 16 0.225924 0 60805 0.225924 1
gene 1 15 15 0.431681 1 60981 0.431681 1
gene 1 24 2400 1.06956 0 62072 0.81175 1
gene 1 2400 21 -0.459687 0 62073 -0.274938 1
gene 1 25 2328 0.419523 0 62395 0.419523 1
gene 1 7 23 -0.596226 0 62700 -0.596226 1
gene 1 12 16 -1.12481 0 62978 -1.12481 1
gene 1 4 22 0.532218 0 63331 0.532218 1
gene 1 11 15 0.341262 0 63792 0.341262 1
gene 1 13 13 -1.17717 1 64211 -1.17717 1
gene 1 15 2482 1.08971 0 64416 0.464707 1
gene 1 2482 19 3.16384 0 64417 1.21734 1
gene 1 26 2400 0.355848 0 64669 0.355848 1
gene 1 2 2400 -0.475066 0 65014 -0.475066 1
gene 1 7 13 -0.594638 0 65116 -0.594638 1
gene 1 17 20 -0.276574 0 65833 -0.276574 1
gene 1 4 25 0.384209 0 66043 0.384209 1
gene 1 22 14 -0.930033 0 66251 -0.930033 1
gene 1 27 2328 0.788737 0 66822 0.788737 1
gene 1 29 18 -0.402961 0 66988 -0.402961 1
gene 1 21 14 -0.836187 0 67108 -0.836187 1
genomeend 319
