/* Organism #358 Fitness: 1.003 Error: 0.997 */
genomestart 358
trait 1 0.149081 0.416087 0.123733 0.107977 0.908219 0.220018 0.800354 0 
node 1 1 0
node 2 1 1
node 3 1 1
node 4 1 1
node 5 1 1
node 6 1 1
node 7 1 1
node 8 1 1
node 9 1 1
node 10 1 2
node 11 1 2
node 12 1 2
node 13 1 2
node 14 1 2
node 15 1 2
node 16 1 2
node 17 1 2
node 18 1 2
node 19 1 2
node 20 1 2
node 21 1 3
node 22 1 3
node 23 1 3
node 24 1 3
node 25 1 3
node 26 1 3
node 27 1 3
node 28 1 3
node 76 1 3
gene 1 1 21 1.40621 0 1 1.40621 1
gene 1 1 22 -1.33141 0 2 -1.33141 1
gene 1 1 23 0.225814 0 3 0.225814 1
gene 1 1 24 1.75119 0 4 1.75119 1
gene 1 1 25 -3.52032 0 5 -3.52032 1
gene 1 1 26 -0.986866 0 6 -0.986866 1
gene 1 1 27 0.678541 0 7 0.678541 1
gene 1 1 28 2.51673 0 8 2.51673 1
gene 1 2 21 -0.171307 0 9 -0.171307 1
gene 1 2 22 -1.55046 0 10 -1.55046 1
gene 1 2 23 -2.51184 0 11 -2.51184 1
gene 1 2 24 -0.481319 0 12 -0.481319 1
gene 1 2 25 0.378311 0 13 0.378311 1
gene 1 2 26 -4.37562 0 14 -4.37562 1
gene 1 2 27 4.39695 0 15 4.39695 1
gene 1 2 28 0.0378096 0 16 0.0378096 1
gene 1 3 21 1.79375 0 17 1.79375 1
gene 1 3 22 0.370999 0 18 0.370999 1
gene 1 3 23 -2.62612 0 19 -2.62612 1
gene 1 3 24 0.607564 0 20 0.607564 1
gene 1 3 25 1.5881 0 21 1.5881 1
gene 1 3 26 -0.650203 0 22 -0.650203 1
gene 1 3 27 1.33026 0 23 1.33026 1
gene 1 3 28 2.24914 0 24 2.24914 1
gene 1 4 21 0.00456296 0 25 0.00456296 1
gene 1 4 22 -1.19563 0 26 -1.19563 1
gene 1 4 23 -2.23281 0 27 -2.23281 1
gene 1 4 24 1.02879 0 28 1.02879 1
gene 1 4 25 1.25543 0 29 1.25543 1
gene 1 4 26 2.17157 0 30 2.17157 1
gene 1 4 27 -0.591558 0 31 -0.591558 1
gene 1 4 28 -0.0378456 0 32 -0.0378456 1
gene 1 5 21 -1.18507 0 33 -1.18507 1
gene 1 5 22 -0.283172 0 34 -0.283172 1
gene 1 5 23 -1.0345 0 35 -1.0345 1
gene 1 5 24 1.59683 0 36 1.59683 1
gene 1 5 25 0.310022 0 37 0.310022 1
gene 1 5 26 -1.56191 0 38 -1.56191 1
gene 1 5 27 1.21094 0 39 1.21094 1
gene 1 5 28 0.66982 0 40 0.66982 1
gene 1 6 21 -1.31047 0 41 -1.31047 1
gene 1 6 22 2.76005 0 42 2.76005 1
gene 1 6 23 -0.138069 0 43 -0.138069 1
gene 1 6 24 -0.937421 0 44 -0.937421 1
gene 1 6 25 -1.00256 0 45 -1.00256 1
gene 1 6 26 0.0708416 0 46 0.0708416 1
gene 1 6 27 0.972234 0 47 0.972234 1
gene 1 6 28 -2.6762 0 48 -2.6762 1
gene 1 7 21 -4.24271 0 49 -4.24271 1
gene 1 7 22 -1.12786 0 50 -1.12786 1
gene 1 7 23 -0.710636 0 51 -0.710636 1
gene 1 7 24 -0.0982418 0 52 -0.0982418 1
gene 1 7 25 -1.16304 0 53 -1.16304 1
gene 1 7 26 1.91837 0 54 1.91837 1
gene 1 7 27 -0.377497 0 55 -0.377497 1
gene 1 7 28 -2.72864 0 56 -2.72864 1
gene 1 8 21 0.901742 0 57 0.901742 1
gene 1 8 22 1.35229 0 58 1.35229 1
gene 1 8 24 -1.29513 0 60 -1.29513 1
gene 1 8 25 1.96271 0 61 1.96271 1
gene 1 8 26 -0.638507 0 62 -0.638507 1
gene 1 8 27 0.862963 0 63 0.862963 1
gene 1 8 28 -1.53512 0 64 -1.53512 1
gene 1 9 21 -1.60754 0 65 -1.60754 1
gene 1 9 22 -3.44222 0 66 -3.44222 1
gene 1 9 23 -2.15963 0 67 -2.15963 1
gene 1 9 24 -0.574984 0 68 -0.574984 1
gene 1 9 25 0.343332 0 69 0.343332 1
gene 1 9 26 -1.42252 0 70 -1.42252 1
gene 1 9 27 -6.53874 0 71 -6.53874 1
gene 1 9 28 -1.16603 0 72 -1.16603 1
gene 1 21 10 -0.909497 0 73 -0.909497 1
gene 1 21 11 1.73377 0 74 1.73377 1
gene 1 21 12 -0.21027 0 75 -0.21027 1
gene 1 21 13 -0.114735 0 76 -0.114735 1
gene 1 21 14 -0.406626 0 77 -0.406626 1
gene 1 21 15 -2.98311 0 78 -2.98311 1
gene 1 21 16 -3.22685 0 79 -3.22685 1
gene 1 21 17 0.0191615 0 80 0.0191615 1
gene 1 21 18 1.00526 0 81 1.00526 1
gene 1 21 19 1.30003 0 82 1.30003 1
gene 1 21 20 1.14104 0 83 1.14104 1
gene 1 22 10 0.558371 0 84 0.558371 1
gene 1 22 11 -0.346751 0 85 -0.346751 1
gene 1 22 12 -3.06904 0 86 -3.06904 1
gene 1 22 13 0.333309 0 87 0.333309 1
gene 1 22 14 1.2582 0 88 1.2582 1
gene 1 22 15 -3.01628 0 89 -3.01628 1
gene 1 22 16 0.39964 0 90 0.39964 1
gene 1 22 17 1.73451 0 91 1.73451 1
gene 1 22 18 -0.444538 0 92 -0.444538 1
gene 1 22 19 -1.68383 0 93 -1.68383 1
gene 1 22 20 1.80579 0 94 1.80579 1
gene 1 23 10 -0.22402 0 95 -0.22402 1
gene 1 23 11 1.45716 0 96 1.45716 1
gene 1 23 12 -1.27996 0 97 -1.27996 1
gene 1 23 13 -1.09627 0 98 -1.09627 1
gene 1 23 14 1.61222 0 99 1.61222 1
gene 1 23 15 -1.50522 0 100 -1.50522 1
gene 1 23 16 -2.41047 0 101 -2.41047 1
gene 1 23 17 -0.141557 0 102 -0.141557 1
gene 1 23 18 2.7736 0 103 2.7736 1
gene 1 23 19 1.03955 0 104 1.03955 1
gene 1 23 20 -1.51648 0 105 -1.51648 1
gene 1 24 10 0.997123 0 106 0.997123 1
gene 1 24 11 -3.40727 0 107 -3.40727 1
gene 1 24 12 3.19995 0 108 3.19995 1
gene 1 24 13 -1.4419 0 109 -1.4419 1
gene 1 24 14 0.359686 0 110 0.359686 1
gene 1 24 15 0.598688 0 111 0.598688 1
gene 1 24 16 -0.180399 0 112 -0.180399 1
gene 1 24 17 0.623616 0 113 0.623616 1
gene 1 24 18 -0.137537 0 114 -0.137537 1
gene 1 24 19 -2.65259 0 115 -2.65259 1
gene 1 24 20 1.19878 0 116 1.19878 1
gene 1 25 10 2.43929 0 117 2.43929 1
gene 1 25 11 2.98435 0 118 2.98435 1
gene 1 25 12 0.616442 0 119 0.616442 1
gene 1 25 13 1.22724 0 120 1.22724 1
gene 1 25 14 0.235067 0 121 0.235067 1
gene 1 25 15 -2.34309 0 122 -2.34309 1
gene 1 25 16 -1.18152 0 123 -1.18152 1
gene 1 25 17 -0.581944 0 124 -0.581944 1
gene 1 25 18 -0.573288 0 125 -0.573288 1
gene 1 25 19 2.03775 0 126 2.03775 1
gene 1 25 20 -0.450756 0 127 -0.450756 1
gene 1 26 10 -3.6632 0 128 -3.6632 1
gene 1 26 11 1.54708 0 129 1.54708 1
gene 1 26 12 -0.281212 0 130 -0.281212 1
gene 1 26 13 0.595266 0 131 0.595266 1
gene 1 26 14 -0.712186 0 132 -0.712186 1
gene 1 26 15 0.893186 0 133 0.893186 1
gene 1 26 16 0.295588 0 134 0.295588 1
gene 1 26 17 -3.49722 0 135 -3.49722 1
gene 1 26 18 2.23005 0 136 2.23005 1
gene 1 26 19 -0.952254 0 137 -0.952254 1
gene 1 26 20 2.28259 0 138 2.28259 1
gene 1 27 10 0.32622 0 139 0.32622 1
gene 1 27 11 -2.5937 0 140 -2.5937 1
gene 1 27 12 0.984685 0 141 0.984685 1
gene 1 27 13 0.771167 0 142 0.771167 1
gene 1 27 14 -2.51108 0 143 -2.51108 1
gene 1 27 15 -1.05385 0 144 -1.05385 1
gene 1 27 16 -0.31125 0 145 -0.31125 1
gene 1 27 18 -0.382576 0 147 -0.382576 1
gene 1 27 19 -1.04879 0 148 -1.04879 1
gene 1 27 20 -0.566483 0 149 -0.566483 1
gene 1 28 10 -0.158427 0 150 -0.158427 1
gene 1 28 11 -2.37337 0 151 -2.37337 1
gene 1 28 12 1.07804 0 152 1.07804 1
gene 1 28 13 -1.81142 0 153 -1.81142 1
gene 1 28 14 0.278784 0 154 0.278784 1
gene 1 28 15 -3.46553 0 155 -3.46553 1
gene 1 28 16 -1.67054 0 156 -1.67054 1
gene 1 28 17 -2.00507 0 157 -2.00507 1
gene 1 28 18 1.39457 0 158 1.39457 1
gene 1 28 19 1.30464 0 159 1.30464 1
gene 1 28 20 -1.27908 0 160 -1.27908 1
gene 1 8 23 -0.165204 0 274 -0.165204 1
gene 1 20 20 0.646975 1 623 0.646975 1
gene 1 3 16 -0.757875 0 980 -0.757875 1
gene 1 5 14 -4.03783 0 1210 -4.03783 1
gene 1 21 27 0.974417 0 1417 0.974417 1
gene 1 27 76 0.751846 0 1522 0.751846 1
gene 1 76 17 0.198618 0 1523 0.198618 1
gene 1 12 76 0.484168 0 1626 0.484168 1
gene 1 1 18 -0.805893 0 1913 -0.805893 1
gene 1 28 23 -0.31673 0 1937 -0.31673 1
gene 1 18 15 1.69554 0 2109 1.69554 1
genomeend 358
