/* Organism #41 Fitness: 1.004 Error: 0.996 */
genomestart 41
trait 1 0.2742 0.121709 0.390421 0.770428 0 0.972992 1 0.881485 
node 1 1 0
node 2 1 1
node 3 1 1
node 4 1 1
node 5 1 1
node 6 1 1
node 7 1 1
node 8 1 1
node 9 1 1
node 10 1 2
node 11 1 2
node 12 1 2
node 13 1 2
node 14 1 2
node 15 1 2
node 16 1 2
node 17 1 2
node 18 1 2
node 19 1 2
node 20 1 2
node 23 1 3
node 25 1 3
node 26 1 3
gene 1 1 23 -7.82902 0 3 -7.82902 1
gene 1 1 25 -2.76857 0 5 -2.76857 1
gene 1 1 26 0.250591 0 6 0.250591 1
gene 1 2 23 1.43413 0 11 1.43413 1
gene 1 2 25 -2.45384 0 13 -2.45384 1
gene 1 3 23 -0.737243 0 19 -0.737243 1
gene 1 3 25 -1.36954 0 21 -1.36954 1
gene 1 3 26 -0.893869 0 22 -0.893869 1
gene 1 4 23 -0.192542 0 27 -0.192542 1
gene 1 4 25 3.45124 0 29 3.45124 1
gene 1 5 25 6.15302 0 37 6.15302 1
gene 1 6 23 -0.160323 0 43 -0.160323 1
gene 1 6 26 0.40685 0 46 0.40685 1
gene 1 7 25 -0.451535 0 53 -0.451535 1
gene 1 7 26 -1.44128 0 54 -1.44128 1
gene 1 8 23 -0.299043 0 59 -0.299043 1
gene 1 8 25 -2.18951 0 61 -2.18951 1
gene 1 9 23 6.5411 0 67 6.5411 1
gene 1 9 25 -2.20833 0 69 -2.20833 1
gene 1 9 26 -1.20102 0 70 -1.20102 1
gene 1 23 10 0.970396 0 95 0.970396 1
gene 1 23 11 0.779676 0 96 0.779676 1
gene 1 23 12 -3.54876 0 97 -3.54876 1
gene 1 23 13 5.26718 0 98 5.26718 1
gene 1 23 14 -2.24453 0 99 -2.24453 1
gene 1 23 15 1.29064 0 100 1.29064 1
gene 1 23 17 3.34092 0 102 3.34092 1
gene 1 23 18 3.15656 0 103 3.15656 1
gene 1 23 19 -5.75353 0 104 -5.75353 1
gene 1 25 10 7.97436 0 117 7.97436 1
gene 1 25 11 2.89439 0 118 2.89439 1
gene 1 25 12 1.21319 0 119 1.21319 1
gene 1 25 13 1.57984 0 120 1.57984 1
gene 1 25 14 -2.01557 0 121 -2.01557 1
gene 1 25 15 7.82836 0 122 7.82836 1
gene 1 25 17 3.20303 0 124 3.20303 1
gene 1 25 18 2.34339 0 125 2.34339 1
gene 1 25 19 0.186328 0 126 0.186328 1
gene 1 25 20 2.03011 0 127 2.03011 1
gene 1 26 10 -3.86485 0 128 -3.86485 1
gene 1 26 11 -1.41446 0 129 -1.41446 1
gene 1 26 12 -6.03018 0 130 -6.03018 1
gene 1 26 14 -5.30538 0 132 -5.30538 1
gene 1 26 15 -3.07984 0 133 -3.07984 1
gene 1 26 16 -6.5828 0 134 -6.5828 1
gene 1 26 17 3.45957 0 135 3.45957 1
gene 1 26 18 0.406594 0 136 0.406594 1
gene 1 26 20 6.03257 0 138 6.03257 1
gene 1 6 12 0.494584 0 311 0.494584 1
gene 1 2 13 2.60656 0 1194 2.60656 1
gene 1 12 16 -1.27702 0 2316 -1.27702 1
gene 1 10 10 -1.54018 1 2436 -1.54018 1
gene 1 1 15 0.42653 0 2909 0.42653 1
gene 1 18 16 5.67888 0 3048 5.67888 1
gene 1 15 12 -1.23862 0 3618 -1.23862 1
gene 1 4 15 4.61407 0 4419 4.61407 1
gene 1 14 10 -1.75667 0 4918 -1.75667 1
gene 1 2 15 -1.51646 0 5559 -1.51646 1
gene 1 3 15 1.84463 0 5684 1.84463 1
gene 1 12 13 2.85735 0 5864 2.85735 1
gene 1 1 20 -0.842323 0 5936 -0.842323 1
gene 1 16 15 0.0158063 1 7763 0.0158063 1
gene 1 13 17 0.0284713 0 8409 0.0284713 1
gene 1 19 18 -0.490144 0 8648 -0.490144 1
gene 1 5 20 0.596448 0 10125 0.596448 1
gene 1 20 14 0.426047 0 10701 0.426047 1
gene 1 5 13 0.573189 0 10854 0.573189 1
gene 1 1 11 -1.79293 0 11240 -1.79293 1
gene 1 12 12 -0.255866 1 12004 -0.255866 1
gene 1 5 17 -1.10468 0 12148 -1.10468 1
gene 1 4 14 2.25976 0 12869 2.25976 1
gene 1 6 11 0.112373 0 13424 0.112373 1
gene 1 15 13 -0.532314 0 13736 -0.532314 1
gene 1 17 20 0.140729 1 14702 0.140729 1
gene 1 19 11 0.707796 0 15053 0.707796 1
gene 1 11 15 2.49509 0 15346 2.49509 1
gene 1 19 16 -0.900969 0 15521 -0.900969 1
gene 1 15 10 2.06349 0 16099 2.06349 1
gene 1 8 12 -0.469179 0 16350 -0.469179 1
gene 1 6 15 -2.11393 0 16467 -2.11393 1
gene 1 5 18 -1.08713 0 16682 -1.08713 1
gene 1 5 15 0.105382 0 17051 0.105382 1
gene 1 11 16 0.507116 0 17291 0.507116 1
gene 1 8 18 0.679628 0 17532 0.679628 1
genomeend 41
