/* Organism #239 Fitness: 1.002 Error: 0.998 */
genomestart 239
trait 1 0.202263 0.104011 0.128545 0.383171 0.909218 0 0.689098 0 
node 1 1 0
node 2 1 1
node 3 1 1
node 4 1 1
node 5 1 1
node 6 1 1
node 7 1 1
node 8 1 1
node 9 1 1
node 10 1 2
node 11 1 2
node 12 1 2
node 13 1 2
node 14 1 2
node 15 1 2
node 16 1 2
node 17 1 2
node 18 1 2
node 19 1 2
node 20 1 2
node 21 1 3
node 22 1 3
node 23 1 3
node 24 1 3
node 25 1 3
node 26 1 3
node 27 1 3
node 28 1 3
gene 1 1 21 0.110257 0 1 0.110257 1
gene 1 1 22 -2.12485 0 2 -2.12485 1
gene 1 1 23 0.577555 0 3 0.577555 1
gene 1 1 24 3.17414 0 4 3.17414 1
gene 1 1 25 2.09004 0 5 2.09004 1
gene 1 1 26 2.37044 0 6 2.37044 1
gene 1 1 27 1.84768 0 7 1.84768 1
gene 1 1 28 0.305784 0 8 0.305784 1
gene 1 2 21 2.61032 0 9 2.61032 1
gene 1 2 22 0.700768 0 10 0.700768 1
gene 1 2 23 -1.28532 0 11 -1.28532 1
gene 1 2 24 4.47059 0 12 4.47059 1
gene 1 2 25 -3.97793 0 13 -3.97793 1
gene 1 2 26 -4.32146 0 14 -4.32146 1
gene 1 2 27 -1.75965 0 15 -1.75965 1
gene 1 2 28 0.976805 0 16 0.976805 1
gene 1 3 21 3.36618 0 17 3.36618 1
gene 1 3 22 3.29332 0 18 3.29332 1
gene 1 3 23 0.961061 0 19 0.961061 1
gene 1 3 24 1.04374 0 20 1.04374 1
gene 1 3 25 0.184152 0 21 0.184152 1
gene 1 3 26 0.00450225 0 22 0.00450225 1
gene 1 3 27 1.94352 0 23 1.94352 1
gene 1 3 28 -0.119858 0 24 -0.119858 1
gene 1 4 21 -0.98004 0 25 -0.98004 1
gene 1 4 22 -3.26839 0 26 -3.26839 1
gene 1 4 23 -1.41369 0 27 -1.41369 1
gene 1 4 24 -0.653523 0 28 -0.653523 1
gene 1 4 25 3.12866 0 29 3.12866 1
gene 1 4 26 4.2005 0 30 4.2005 1
gene 1 4 27 -0.784839 0 31 -0.784839 1
gene 1 4 28 2.28245 0 32 2.28245 1
gene 1 5 21 2.49276 0 33 2.49276 1
gene 1 5 22 -1.20072 0 34 -1.20072 1
gene 1 5 23 3.43807 0 35 3.43807 1
gene 1 5 24 -0.0308875 0 36 -0.0308875 1
gene 1 5 25 -3.59992 0 37 -3.59992 1
gene 1 5 26 1.36445 0 38 1.36445 1
gene 1 5 27 5.25961 0 39 5.25961 1
gene 1 5 28 0.999079 0 40 0.999079 1
gene 1 6 21 -0.258022 0 41 -0.258022 1
gene 1 6 22 0.994673 0 42 0.994673 1
gene 1 6 23 2.38099 0 43 2.38099 1
gene 1 6 24 -1.55694 0 44 -1.55694 1
gene 1 6 25 -0.713889 0 45 -0.713889 1
gene 1 6 26 4.49969 0 46 4.49969 1
gene 1 6 27 2.32413 0 47 2.32413 1
gene 1 6 28 -0.308804 0 48 -0.308804 1
gene 1 7 21 1.22792 0 49 1.22792 1
gene 1 7 22 0.669206 0 50 0.669206 1
gene 1 7 23 3.85768 0 51 3.85768 1
gene 1 7 24 -0.641328 0 52 -0.641328 1
gene 1 7 25 1.02246 0 53 1.02246 1
gene 1 7 26 -0.170937 0 54 -0.170937 1
gene 1 7 27 2.9624 0 55 2.9624 1
gene 1 7 28 2.31324 0 56 2.31324 1
gene 1 8 21 1.99014 0 57 1.99014 1
gene 1 8 22 -0.426954 0 58 -0.426954 1
gene 1 8 23 2.40376 0 59 2.40376 1
gene 1 8 24 2.579 0 60 2.579 1
gene 1 8 25 0.273144 0 61 0.273144 1
gene 1 8 26 2.0974 0 62 2.0974 1
gene 1 8 27 0.545068 0 63 0.545068 1
gene 1 8 28 -2.75236 0 64 -2.75236 1
gene 1 9 21 0.956936 0 65 0.956936 1
gene 1 9 22 -1.45016 0 66 -1.45016 1
gene 1 9 23 2.9834 0 67 2.9834 1
gene 1 9 24 -0.229643 0 68 -0.229643 1
gene 1 9 25 -2.80794 0 69 -2.80794 1
gene 1 9 26 -1.11541 0 70 -1.11541 1
gene 1 9 27 2.00133 0 71 2.00133 1
gene 1 9 28 0.910276 0 72 0.910276 1
gene 1 21 10 2.6569 0 73 2.6569 1
gene 1 21 11 -1.51694 0 74 -1.51694 1
gene 1 21 12 4.15525 0 75 4.15525 1
gene 1 21 13 -1.82459 0 76 -1.82459 1
gene 1 21 14 0.647821 0 77 0.647821 1
gene 1 21 15 2.31253 0 78 2.31253 1
gene 1 21 16 2.41089 0 79 2.41089 1
gene 1 21 17 -0.543444 0 80 -0.543444 1
gene 1 21 18 1.06094 0 81 1.06094 1
gene 1 21 19 -3.99204 0 82 -3.99204 1
gene 1 21 20 2.16028 0 83 2.16028 1
gene 1 22 10 4.57624 0 84 4.57624 1
gene 1 22 11 0.432012 0 85 0.432012 1
gene 1 22 12 -1.08322 0 86 -1.08322 1
gene 1 22 13 3.46491 0 87 3.46491 1
gene 1 22 14 0.317623 0 88 0.317623 1
gene 1 22 15 -0.850606 0 89 -0.850606 1
gene 1 22 16 -3.00299 0 90 -3.00299 1
gene 1 22 17 2.33041 0 91 2.33041 1
gene 1 22 18 -2.14245 0 92 -2.14245 1
gene 1 22 19 2.04988 0 93 2.04988 1
gene 1 22 20 -3.00396 0 94 -3.00396 1
gene 1 23 10 1.36075 0 95 1.36075 1
gene 1 23 11 -2.42596 0 96 -2.42596 1
gene 1 23 12 0.100908 0 97 0.100908 1
gene 1 23 13 -4.80338 0 98 -4.80338 1
gene 1 23 14 1.06811 0 99 1.06811 1
gene 1 23 15 0.586825 0 100 0.586825 1
gene 1 23 16 -0.764788 0 101 -0.764788 1
gene 1 23 17 2.14184 0 102 2.14184 1
gene 1 23 18 -2.05234 0 103 -2.05234 1
gene 1 23 19 -0.202089 0 104 -0.202089 1
gene 1 23 20 3.81768 0 105 3.81768 1
gene 1 24 10 -3.89199 0 106 -3.89199 1
gene 1 24 11 2.21095 0 107 2.21095 1
gene 1 24 12 3.09224 0 108 3.09224 1
gene 1 24 13 -1.30798 0 109 -1.30798 1
gene 1 24 14 0.81556 0 110 0.81556 1
gene 1 24 15 -2.43815 0 111 -2.43815 1
gene 1 24 16 -1.7752 0 112 -1.7752 1
gene 1 24 17 4.28637 0 113 4.28637 1
gene 1 24 18 0.266087 0 114 0.266087 1
gene 1 24 19 -0.354606 0 115 -0.354606 1
gene 1 24 20 0.354571 0 116 0.354571 1
gene 1 25 10 -3.05922 0 117 -3.05922 1
gene 1 25 11 -0.180855 0 118 -0.180855 1
gene 1 25 12 -2.01926 0 119 -2.01926 1
gene 1 25 13 4.21219 0 120 4.21219 1
gene 1 25 14 -4.66663 0 121 -4.66663 1
gene 1 25 15 -3.01398 0 122 -3.01398 1
gene 1 25 16 -1.84773 0 123 -1.84773 1
gene 1 25 17 3.05289 0 124 3.05289 1
gene 1 25 18 -1.13531 0 125 -1.13531 1
gene 1 25 19 0.819885 0 126 0.819885 1
gene 1 25 20 -1.57102 0 127 -1.57102 1
gene 1 26 10 1.26787 0 128 1.26787 1
gene 1 26 11 -3.31327 0 129 -3.31327 1
gene 1 26 12 -2.97465 0 130 -2.97465 1
gene 1 26 13 -2.63069 0 131 -2.63069 1
gene 1 26 14 -4.75807 0 132 -4.75807 1
gene 1 26 15 0.202741 0 133 0.202741 1
gene 1 26 16 -1.91282 0 134 -1.91282 1
gene 1 26 17 1.85641 0 135 1.85641 1
gene 1 26 18 0.656099 0 136 0.656099 1
gene 1 26 19 1.89721 0 137 1.89721 1
gene 1 26 20 -0.252774 0 138 -0.252774 1
gene 1 27 10 1.76677 0 139 1.76677 1
gene 1 27 11 2.14203 0 140 2.14203 1
gene 1 27 12 0.907041 0 141 0.907041 1
gene 1 27 13 2.59931 0 142 2.59931 1
gene 1 27 14 0.338036 0 143 0.338036 1
gene 1 27 15 1.16945 0 144 1.16945 1
gene 1 27 16 -0.821485 0 145 -0.821485 1
gene 1 27 17 -1.836 0 146 -1.836 1
gene 1 27 18 -1.17966 0 147 -1.17966 1
gene 1 27 19 1.68699 0 148 1.68699 1
gene 1 27 20 1.39579 0 149 1.39579 1
gene 1 28 10 1.40308 0 150 1.40308 1
gene 1 28 11 -0.881111 0 151 -0.881111 1
gene 1 28 12 -0.128091 0 152 -0.128091 1
gene 1 28 13 0.374571 0 153 0.374571 1
gene 1 28 14 1.83118 0 154 1.83118 1
gene 1 28 15 -2.8421 0 155 -2.8421 1
gene 1 28 16 2.0741 0 156 2.0741 1
gene 1 28 17 0.659966 0 157 0.659966 1
gene 1 28 18 -1.47824 0 158 -1.47824 1
gene 1 28 19 1.98986 0 159 1.98986 1
gene 1 28 20 -1.22736 0 160 -1.22736 1
gene 1 3 11 -1.67769 0 504 -1.67769 1
gene 1 5 19 1.48761 0 606 1.48761 1
gene 1 20 15 1.98489 0 722 1.98489 1
gene 1 24 22 1.53771 0 1236 1.53771 1
genomeend 239
