/* Organism #19 Fitness: 1.003 Error: 0.997 */
genomestart 19
trait 1 0.166423 0.114366 0.0889983 0.572496 0.387581 0.2087 0.750173 0 
node 1 1 0
node 2 1 1
node 3 1 1
node 4 1 1
node 5 1 1
node 6 1 1
node 7 1 1
node 8 1 1
node 9 1 1
node 10 1 2
node 11 1 2
node 12 1 2
node 13 1 2
node 14 1 2
node 15 1 2
node 16 1 2
node 17 1 2
node 18 1 2
node 19 1 2
node 20 1 2
node 21 1 3
node 22 1 3
node 23 1 3
node 24 1 3
node 25 1 3
node 26 1 3
node 28 1 3
node 39 1 3
node 149 1 3
node 200 1 3
node 270 1 3
gene 1 1 21 0.350303 0 1 0.350303 1
gene 1 1 22 0.00972486 0 2 0.00972486 1
gene 1 1 24 -0.702075 0 4 -0.702075 1
gene 1 1 25 -0.84901 0 5 -0.84901 1
gene 1 1 26 -1.66063 0 6 -1.66063 1
gene 1 1 28 -2.81679 0 8 -2.81679 1
gene 1 2 21 0.938587 0 9 0.938587 1
gene 1 2 22 -0.432616 0 10 -0.432616 1
gene 1 2 23 -0.0129271 0 11 -0.0129271 1
gene 1 2 24 -1.4804 0 12 -1.4804 1
gene 1 2 25 -1.42683 0 13 -1.42683 1
gene 1 2 26 -0.554809 0 14 -0.554809 1
gene 1 2 28 3.25243 0 16 3.25243 1
gene 1 3 21 1.98698 0 17 1.98698 1
gene 1 3 22 -0.0769163 0 18 -0.0769163 1
gene 1 3 23 -2.52278 0 19 -2.52278 1
gene 1 3 24 -2.31542 0 20 -2.31542 1
gene 1 3 25 -0.481274 0 21 -0.481274 1
gene 1 3 26 0.0895726 0 22 0.0895726 1
gene 1 3 28 0.593321 0 24 0.593321 1
gene 1 4 21 -0.537731 0 25 -0.537731 1
gene 1 4 22 1.73514 0 26 1.73514 1
gene 1 4 23 1.34699 0 27 1.34699 1
gene 1 4 24 0.86315 0 28 0.86315 1
gene 1 4 25 -0.754261 0 29 -0.754261 1
gene 1 4 26 1.34028 0 30 1.34028 1
gene 1 4 28 3.57151 0 32 3.57151 1
gene 1 5 21 0.85236 0 33 0.85236 1
gene 1 5 22 0.0165559 0 34 0.0165559 1
gene 1 5 25 -1.4063 0 37 -1.4063 1
gene 1 5 26 0.345132 0 38 0.345132 1
gene 1 5 28 -2.9881 0 40 -2.9881 1
gene 1 6 21 -1.45443 0 41 -1.45443 1
gene 1 6 22 -1.04063 0 42 -1.04063 1
gene 1 6 23 -0.664595 0 43 -0.664595 1
gene 1 6 24 0.192928 0 44 0.192928 1
gene 1 6 25 -2.17614 0 45 -2.17614 1
gene 1 6 28 -1.61173 0 48 -1.61173 1
gene 1 7 21 2.28355 0 49 2.28355 1
gene 1 7 25 0.744897 0 53 0.744897 1
gene 1 7 26 1.19433 0 54 1.19433 1
gene 1 7 28 0.209078 0 56 0.209078 1
gene 1 8 21 3.16695 0 57 3.16695 1
gene 1 8 22 1.94374 0 58 1.94374 1
gene 1 8 24 1.83256 0 60 1.83256 1
gene 1 8 25 1.79961 0 61 1.79961 1
gene 1 8 26 0.546754 0 62 0.546754 1
gene 1 8 28 -1.73601 0 64 -1.73601 1
gene 1 9 21 -1.35276 0 65 -1.35276 1
gene 1 9 22 -2.43941 0 66 -2.43941 1
gene 1 9 23 2.27178 0 67 2.27178 1
gene 1 9 24 -0.380272 0 68 -0.380272 1
gene 1 9 25 -0.721971 0 69 -0.721971 1
gene 1 9 26 0.795799 0 70 0.795799 1
gene 1 9 28 -0.558959 0 72 -0.558959 1
gene 1 21 10 -1.11042 0 73 -1.11042 1
gene 1 21 11 -0.400424 0 74 -0.400424 1
gene 1 21 12 -0.508108 0 75 -0.508108 1
gene 1 21 13 -0.515962 0 76 -0.515962 1
gene 1 21 14 -0.397897 0 77 -0.397897 1
gene 1 21 15 0.667061 0 78 0.667061 1
gene 1 21 16 0.333413 0 79 0.333413 1
gene 1 21 17 0.47627 0 80 0.47627 1
gene 1 21 18 1.13541 0 81 1.13541 1
gene 1 21 19 2.02934 0 82 2.02934 1
gene 1 21 20 -0.823051 0 83 -0.823051 1
gene 1 22 10 1.71321 0 84 1.71321 1
gene 1 22 11 0.29954 0 85 0.29954 1
gene 1 22 12 -2.79868 0 86 -2.79868 1
gene 1 22 13 1.35136 0 87 1.35136 1
gene 1 22 14 0.796843 0 88 0.796843 1
gene 1 22 15 1.12906 0 89 1.12906 1
gene 1 22 16 1.60355 0 90 1.60355 1
gene 1 22 17 0.791897 0 91 0.791897 1
gene 1 22 18 0.497169 0 92 0.497169 1
gene 1 22 19 -0.180338 0 93 -0.180338 1
gene 1 22 20 -0.483135 0 94 -0.483135 1
gene 1 23 10 -1.51501 0 95 -1.51501 1
gene 1 23 11 1.09203 0 96 1.09203 1
gene 1 23 12 2.98076 0 97 2.98076 1
gene 1 23 13 -1.50394 0 98 -1.50394 1
gene 1 23 14 -0.479224 0 99 -0.479224 1
gene 1 23 15 1.25618 0 100 1.25618 1
gene 1 23 16 0.217512 0 101 0.217512 1
gene 1 23 17 -0.977498 0 102 -0.977498 1
gene 1 23 18 -1.0387 0 103 -1.0387 1
gene 1 23 19 -0.434309 0 104 -0.434309 1
gene 1 23 20 -0.155088 0 105 -0.155088 1
gene 1 24 10 -1.58927 0 106 -1.58927 1
gene 1 24 11 1.89649 0 107 1.89649 1
gene 1 24 12 -2.38263 0 108 -2.38263 1
gene 1 24 15 -1.19169 0 111 -1.19169 1
gene 1 24 16 0.311418 0 112 0.311418 1
gene 1 24 17 -1.77827 0 113 -1.77827 1
gene 1 24 18 2.69504 0 114 2.69504 1
gene 1 24 19 -2.11133 0 115 -2.11133 1
gene 1 24 20 -0.013122 0 116 -0.013122 1
gene 1 25 10 -0.364192 0 117 -0.364192 1
gene 1 25 12 -4.01703 0 119 -4.01703 1
gene 1 25 13 2.93312 0 120 2.93312 1
gene 1 25 14 0.316737 0 121 0.316737 1
gene 1 25 15 1.36471 0 122 1.36471 1
gene 1 25 16 0.0386565 0 123 0.0386565 1
gene 1 25 17 0.306723 0 124 0.306723 1
gene 1 25 18 -0.171798 0 125 -0.171798 1
gene 1 25 20 0.516726 0 127 0.516726 1
gene 1 26 10 2.00261 0 128 2.00261 1
gene 1 26 11 3.12161 0 129 3.12161 1
gene 1 26 12 -2.25823 0 130 -2.25823 1
gene 1 26 13 -1.43197 0 131 -1.43197 1
gene 1 26 14 -0.0585383 0 132 -0.0585383 1
gene 1 26 15 -0.953042 0 133 -0.953042 1
gene 1 26 16 1.00275 0 134 1.00275 1
gene 1 26 17 1.2355 0 135 1.2355 1
gene 1 26 18 -0.921568 0 136 -0.921568 1
gene 1 26 19 0.557949 0 137 0.557949 1
gene 1 26 20 1.37057 0 138 1.37057 1
gene 1 28 10 2.87225 0 150 2.87225 1
gene 1 28 11 -0.453381 0 151 -0.453381 1
gene 1 28 12 -0.854178 0 152 -0.854178 1
gene 1 28 13 1.49713 0 153 1.49713 1
gene 1 28 14 1.60747 0 154 1.60747 1
gene 1 28 15 2.48258 0 155 2.48258 1
gene 1 28 16 -1.06921 0 156 -1.06921 1
gene 1 28 17 4.25869 0 157 4.25869 1
gene 1 28 18 1.53069 0 158 1.53069 1
gene 1 28 19 -2.07599 0 159 -2.07599 1
gene 1 28 20 -0.493317 0 160 -0.493317 1
gene 1 11 14 0.0524214 0 181 0.0524214 1
gene 1 39 22 1.81115 0 440 1.81115 1
gene 1 2 16 -1.00567 0 1602 -1.00567 1
gene 1 24 21 1.24118 0 1864 1.24118 1
gene 1 3 13 0.456476 0 2120 0.456476 1
gene 1 3 18 0.0864029 0 2239 0.0864029 1
gene 1 26 28 -0.794129 0 2633 -0.794129 1
gene 1 4 39 -2.41195 0 2827 -2.41195 1
gene 1 7 11 0.366925 0 3033 0.366925 1
gene 1 24 149 0.720206 0 3166 0.720206 1
gene 1 149 13 1.08553 0 3167 1.08553 1
gene 1 22 22 -0.15758 1 4016 -0.15758 1
gene 1 7 200 0.812217 0 4170 0.812217 1
gene 1 200 39 0.329982 0 4171 0.329982 1
gene 1 18 18 2.34246 1 4426 2.34246 1
gene 1 17 12 -0.634232 0 5363 -0.634232 1
gene 1 24 28 1.44694 0 5582 1.44694 1
gene 1 5 270 -0.770758 0 5806 -0.770758 1
gene 1 270 23 -1.24821 0 5807 -1.24821 1
gene 1 5 15 -0.95677 0 5920 -0.95677 1
gene 1 25 25 -0.462932 1 6866 -0.462932 1
gene 1 24 24 -0.252277 1 7011 -0.252277 1
gene 1 270 11 0.441342 0 7449 0.441342 1
gene 1 14 19 -0.10098 0 7577 -0.10098 1
gene 1 21 21 0.0484566 1 7992 0.0484566 1
genomeend 19
