/* Organism #102 Fitness: 1.006 Error: 0.994 */
genomestart 102
trait 1 0.80065 0.643742 0.577424 0.151443 0.975612 0.957033 0.537347 0.612871 
node 1 1 0
node 2 1 1
node 3 1 1
node 4 1 1
node 5 1 1
node 6 1 1
node 7 1 1
node 8 1 1
node 9 1 1
node 10 1 2
node 11 1 2
node 12 1 2
node 13 1 2
node 14 1 2
node 15 1 2
node 16 1 2
node 17 1 2
node 18 1 2
node 19 1 2
node 20 1 2
node 21 1 3
node 23 1 3
node 24 1 3
node 26 1 3
node 27 1 3
node 28 1 3
node 338 1 3
node 757 1 3
node 793 1 3
node 857 1 3
node 898 1 3
gene 1 1 21 -3.70615 0 1 -3.70615 1
gene 1 1 23 -0.191164 0 3 -0.191164 1
gene 1 1 24 6.87628 0 4 6.87628 1
gene 1 1 26 0.120195 0 6 0.120195 1
gene 1 1 27 2.39408 0 7 2.39408 1
gene 1 1 28 2.15458 0 8 2.15458 1
gene 1 2 21 -0.862969 0 9 -0.862969 1
gene 1 2 23 -2.40243 0 11 -2.40243 1
gene 1 2 24 -2.36598 0 12 -2.36598 1
gene 1 2 26 4.16937 0 14 4.16937 1
gene 1 2 27 6.31271 0 15 6.31271 1
gene 1 2 28 -7.10691 0 16 -7.10691 1
gene 1 3 21 1.55256 0 17 1.55256 1
gene 1 3 24 -2.75917 0 20 -2.75917 1
gene 1 3 26 2.9811 0 22 2.9811 1
gene 1 3 28 1.79019 0 24 1.79019 1
gene 1 4 21 -0.646365 0 25 -0.646365 1
gene 1 4 23 6.36392 0 27 6.36392 1
gene 1 4 24 3.533 0 28 3.533 1
gene 1 4 26 2.47091 0 30 2.47091 1
gene 1 4 27 -2.05048 0 31 -2.05048 1
gene 1 4 28 -3.81537 0 32 -3.81537 1
gene 1 5 21 5.70361 0 33 5.70361 1
gene 1 5 24 -2.48778 0 36 -2.48778 1
gene 1 5 27 0.989067 0 39 0.989067 1
gene 1 5 28 -5.24838 0 40 -5.24838 1
gene 1 6 21 4.23483 0 41 4.23483 1
gene 1 6 24 -6.0945 0 44 -6.0945 1
gene 1 6 26 0.159681 0 46 0.159681 1
gene 1 6 28 -6.48027 0 48 -6.48027 1
gene 1 7 21 1.0408 0 49 1.0408 1
gene 1 7 23 -1.00487 0 51 -1.00487 1
gene 1 7 24 4.52126 0 52 4.52126 1
gene 1 7 26 5.95864 0 54 5.95864 1
gene 1 7 27 4.73896 0 55 4.73896 1
gene 1 7 28 0.186738 0 56 0.186738 1
gene 1 8 21 -2.35822 0 57 -2.35822 1
gene 1 8 24 0.0508416 0 60 0.0508416 1
gene 1 8 26 -1.44106 0 62 -1.44106 1
gene 1 8 27 -4.53752 0 63 -4.53752 1
gene 1 8 28 3.49363 0 64 3.49363 1
gene 1 9 21 1.70517 0 65 1.70517 1
gene 1 9 24 3.25503 0 68 3.25503 1
gene 1 9 27 -0.920636 0 71 -0.920636 1
gene 1 9 28 4.31034 0 72 4.31034 1
gene 1 21 10 7.9822 0 73 7.9822 1
gene 1 21 12 0.609008 0 75 0.609008 1
gene 1 21 13 3.61667 0 76 3.61667 1
gene 1 21 14 4.10209 0 77 4.10209 1
gene 1 21 17 -2.18446 0 80 -2.18446 1
gene 1 21 19 3.22599 0 82 3.22599 1
gene 1 21 20 -0.549416 0 83 -0.549416 1
gene 1 23 11 -0.581159 0 96 -0.581159 1
gene 1 23 12 -6.47744 0 97 -6.47744 1
gene 1 23 15 -4.45618 0 100 -4.45618 1
gene 1 23 16 0.0678042 0 101 0.0678042 1
gene 1 24 10 0.901651 0 106 0.901651 1
gene 1 24 12 -0.454628 0 108 -0.454628 1
gene 1 24 13 -1.31811 0 109 -1.31811 1
gene 1 24 14 6.62696 0 110 6.62696 1
gene 1 24 15 1.90676 0 111 1.90676 1
gene 1 24 17 1.46395 0 113 1.46395 1
gene 1 24 18 -8 0 114 -8 1
gene 1 24 19 -5.75953 0 115 -5.75953 1
gene 1 24 20 6.2496 0 116 6.2496 1
gene 1 26 10 8 0 128 8 1
gene 1 26 11 -3.96545 0 129 -3.96545 1
gene 1 26 16 4.71478 0 134 4.71478 1
gene 1 26 17 6.12345 0 135 6.12345 1
gene 1 26 18 -3.24652 0 136 -3.24652 1
gene 1 26 19 7.52237 0 137 7.52237 1
gene 1 27 12 3.92886 0 141 3.92886 1
gene 1 27 14 -1.35762 0 143 -1.35762 1
gene 1 27 15 -0.238529 0 144 -0.238529 1
gene 1 27 20 6.40785 0 149 6.40785 1
gene 1 28 10 -5.06668 0 150 -5.06668 1
gene 1 28 11 -3.8877 0 151 -3.8877 1
gene 1 28 12 -0.0747934 0 152 -0.0747934 1
gene 1 28 14 -2.72213 0 154 -2.72213 1
gene 1 28 15 1.389 0 155 1.389 1
gene 1 28 16 2.87959 0 156 2.87959 1
gene 1 28 20 -2.59928 0 160 -2.59928 1
gene 1 20 16 4.64224 0 334 4.64224 1
gene 1 23 27 -0.150291 0 995 -0.150291 1
gene 1 6 12 4.20781 0 1927 4.20781 1
gene 1 15 11 5.98001 0 2467 5.98001 1
gene 1 6 14 3.5379 0 2590 3.5379 1
gene 1 7 17 -2.33468 0 2982 -2.33468 1
gene 1 16 19 3.24202 0 4097 3.24202 1
gene 1 19 10 -1.77911 0 4714 -1.77911 1
gene 1 14 21 2.49588 1 6698 2.49588 1
gene 1 26 23 4.06915 0 6839 4.06915 1
gene 1 28 21 6.1691 0 7273 6.1691 1
gene 1 24 338 3.45129 0 7545 3.45129 1
gene 1 338 16 3.68875 0 7546 3.68875 1
gene 1 15 13 3.0717 0 7943 3.0717 1
gene 1 10 14 -6.96201 0 8079 -6.96201 1
gene 1 13 338 0.752375 0 9815 0.752375 1
gene 1 12 17 -1.41151 0 10186 -1.41151 1
gene 1 338 12 -0.0965387 0 10319 -0.0965387 1
gene 1 8 14 2.32217 0 10727 2.32217 1
gene 1 23 20 -4.27498 0 11122 -4.27498 1
gene 1 13 13 -0.36272 1 11805 -0.36272 1
gene 1 13 17 7.33105 0 12021 7.33105 1
gene 1 2 338 6.59613 0 12282 6.59613 1
gene 1 21 23 -1.76378 0 13493 -1.76378 1
gene 1 18 24 -0.695991 1 13642 -0.695991 1
gene 1 26 14 5.25196 0 13764 5.25196 1
gene 1 7 20 -2.32493 0 15000 -2.32493 1
gene 1 15 15 -0.370332 1 16374 -0.370332 1
gene 1 12 12 -1.42437 1 17008 -1.42437 1
gene 1 23 23 -0.877012 1 17258 -0.877012 1
gene 1 21 16 0.522113 0 17522 0.522113 1
gene 1 3 10 -1.93174 0 17775 -1.93174 1
gene 1 27 757 -0.0685689 0 18960 -0.0685689 1
gene 1 757 10 0.40949 0 18961 0.40949 1
gene 1 9 13 3.44693 0 19429 3.44693 1
gene 1 15 18 2.79862 0 19525 2.79862 1
gene 1 2 793 -1.89041 0 19941 -1.89041 1
gene 1 24 26 -1.85592 0 20928 -1.85592 1
gene 1 757 757 3.72788 1 21347 3.72788 1
gene 1 8 15 -1.91601 0 21785 -1.91601 1
gene 1 793 857 -0.0852277 0 22135 -0.0852277 1
gene 1 857 16 3.41752 0 22136 3.41752 1
gene 1 4 793 2.15954 0 22395 2.15954 1
gene 1 20 793 -3.4006 0 22910 -3.4006 1
gene 1 11 898 -2.60905 0 23168 -2.60905 1
gene 1 898 10 -2.20962 0 23169 -2.20962 1
gene 1 24 24 -0.180195 1 23703 -0.180195 1
gene 1 19 18 1.19978 0 24224 1.19978 1
gene 1 13 898 0.666397 0 24426 0.666397 1
gene 1 15 19 -0.82667 0 24635 -0.82667 1
gene 1 4 898 1.4672 0 24949 1.4672 1
gene 1 793 19 -1.01704 0 26874 -1.01704 1
gene 1 26 857 -0.448537 0 27190 -0.448537 1
gene 1 7 857 -0.0134336 0 27978 -0.0134336 1
gene 1 8 857 0.832163 0 28253 0.832163 1
gene 1 19 17 2.11891 0 28421 2.11891 1
gene 1 27 27 1.1967 1 28713 1.1967 1
gene 1 13 26 0.972385 1 29073 0.972385 1
gene 1 18 11 2.26298 0 29626 2.26298 1
gene 1 12 793 2.19195 0 29940 2.19195 1
gene 1 857 14 1.2999 0 30102 1.2999 1
gene 1 8 10 -1.42694 0 30192 -1.42694 1
gene 1 11 14 -0.902827 0 30467 -0.902827 1
gene 1 24 28 -0.679667 0 31373 -0.679667 1
gene 1 14 17 -1.61237 0 32221 -1.61237 1
gene 1 27 18 -0.550787 0 32593 -0.550787 1
gene 1 9 857 -1.01193 0 32611 -1.01193 1
gene 1 11 11 -0.979097 1 32924 -0.979097 1
gene 1 10 16 1.82887 0 33211 1.82887 1
gene 1 5 338 2.20609 0 34095 2.20609 1
gene 1 338 793 0.604006 0 34671 0.604006 1
gene 1 4 10 -1.08699 0 34815 -1.08699 1
gene 1 26 26 0.115435 1 35237 0.115435 1
gene 1 898 18 1.07146 1 35323 1.07146 1
gene 1 7 15 0.837617 0 35466 0.837617 1
gene 1 6 19 -0.491056 0 35613 -0.491056 1
gene 1 1 20 0.71662 0 35773 0.71662 1
gene 1 18 17 -1.88154 0 35883 -1.88154 1
gene 1 3 11 -0.622982 0 36467 -0.622982 1
gene 1 757 14 0.20234 0 36606 0.20234 1
gene 1 24 793 -0.374379 0 36882 -0.374379 1
genomeend 102
