/* Organism #140350811613192 Fitness: -0.493045 
genomestart 761
trait 1 0 0 1 0.0742529 0.197168 0.0261085 0.816819 0.239063 
node 1 1 0
node 2 1 1
node 3 1 1
node 4 1 1
node 5 1 1
node 6 1 1
node 7 1 1
node 8 1 1
node 9 1 1
node 10 1 1
node 11 1 1
node 12 1 2
node 13 1 2
node 14 1 2
node 15 1 2
node 16 1 2
node 19 1 3
node 21 1 3
node 787 1 3
node 899 1 3
node 1983 1 3
node 2456 1 3
gene 1 1 19 -3.87961 0 3 -3.87961 1
gene 1 1 21 0.264429 0 5 0.264429 1
gene 1 2 19 -2.65928 0 13 -2.65928 1
gene 1 3 21 -0.362149 0 25 -0.362149 1
gene 1 5 19 -2.48969 0 43 -2.48969 1
gene 1 5 21 4.85793 0 45 4.85793 1
gene 1 6 21 -1.78386 0 55 -1.78386 1
gene 1 7 21 2.38644 0 65 2.38644 1
gene 1 9 21 -0.93295 0 85 -0.93295 1
gene 1 10 21 2.21699 0 95 2.21699 1
gene 1 19 12 1.0446 0 121 1.0446 1
gene 1 19 15 0.0884253 0 124 0.0884253 1
gene 1 19 16 -0.420847 0 125 -0.420847 1
gene 1 21 12 1.30988 0 131 1.30988 1
gene 1 21 13 2.06473 0 132 2.06473 1
gene 1 21 14 1.73605 0 133 1.73605 1
gene 1 19 19 -0.739431 1 6347 -0.739431 1
gene 1 14 15 -0.092178 0 6862 -0.092178 1
gene 1 3 15 -4.55683 0 10633 -4.55683 1
gene 1 13 13 -0.860699 1 11048 -0.860699 1
gene 1 3 16 0.211108 0 13027 0.211108 1
gene 1 8 16 -1.34317 0 15891 -1.34317 1
gene 1 5 787 -0.962933 0 17474 -0.962933 1
gene 1 7 16 -0.655893 0 19570 -0.655893 1
gene 1 2 899 -1.31798 0 20628 -1.31798 1
gene 1 787 13 -0.931834 0 20675 -0.931834 1
gene 1 4 15 0.27146 0 24029 0.27146 1
gene 1 4 899 0.971871 0 24345 0.971871 1
gene 1 787 787 0.858736 1 28992 0.858736 1
gene 1 16 16 -0.639801 1 30053 -0.639801 1
gene 1 1 14 2.53111 0 30888 2.53111 1
gene 1 12 16 -1.37334 0 37847 -1.37334 1
gene 1 2 14 0.268433 0 39503 0.268433 1
gene 1 7 899 -0.326518 0 41824 -0.326518 1
gene 1 3 899 0.179601 0 44916 0.179601 1
gene 1 15 787 0.981194 0 45862 0.981194 1
gene 1 16 13 -0.776948 0 46389 -0.776948 1
gene 1 21 21 -1.75248 1 46536 -1.75248 1
gene 1 3 14 0.526941 0 48767 0.526941 1
gene 1 10 787 1.01951 0 49264 1.01951 1
gene 1 13 16 2.49943 1 49625 2.49943 1
gene 1 21 19 0.345994 1 50119 0.345994 1
gene 1 4 14 -1.44824 0 50665 -1.44824 1
gene 1 1983 899 -1.14902 0 50990 -1.14902 1
gene 1 2 16 -0.885466 0 51469 -0.885466 1
gene 1 8 1983 -1.14586 0 51805 -1.14586 1
gene 1 19 14 1.01558 0 51969 1.01558 1
gene 1 6 14 -0.284603 0 52419 -0.284603 1
gene 1 1983 1983 1.00351 1 52953 1.00351 1
gene 1 14 899 -1.59829 0 53055 -1.59829 1
gene 1 11 19 1.19976 0 53511 1.19976 1
gene 1 1 787 1.76607 0 53653 1.76607 1
gene 1 6 899 1.71202 0 53830 1.71202 1
gene 1 1983 16 -0.931912 0 55271 -0.931912 1
gene 1 1 13 1.43537 0 55610 1.43537 1
gene 1 3 13 1.70773 0 56086 1.70773 1
gene 1 8 2456 1 0 56522 1 1
gene 1 12 15 -0.58202 0 56651 -0.58202 1
gene 1 14 2456 0.83538 0 57545 0.83538 1
gene 1 21 1983 0.608832 0 57700 0.608832 1
genomeend 761
