/* Organism #52137952 Fitness: -0.497595 
genomestart 662
trait 1 0 0.771374 0.617167 0.695573 0.41647 0.863318 1 0.569314 
node 1 1 0
node 2 1 1
node 3 1 1
node 4 1 1
node 5 1 1
node 6 1 1
node 7 1 1
node 8 1 1
node 9 1 1
node 10 1 1
node 11 1 1
node 12 1 2
node 13 1 2
node 14 1 2
node 15 1 2
node 16 1 2
node 17 1 3
node 19 1 3
node 20 1 3
node 970 1 3
node 1650 1 3
node 2423 1 3
gene 1 1 17 -0.908527 0 1 -0.908527 1
gene 1 1 19 -3.79212 0 3 -3.79212 1
gene 1 1 20 2.07735 0 4 2.07735 1
gene 1 3 17 -0.617151 0 21 -0.617151 1
gene 1 3 20 0.356817 0 24 0.356817 1
gene 1 4 17 0.217622 0 31 0.217622 1
gene 1 4 19 1.06503 0 33 1.06503 1
gene 1 5 17 -0.723454 0 41 -0.723454 1
gene 1 6 17 -0.59757 0 51 -0.59757 1
gene 1 6 20 0.958186 0 54 0.958186 1
gene 1 7 17 0.624766 0 61 0.624766 1
gene 1 7 19 -0.331496 0 63 -0.331496 1
gene 1 7 20 1.51895 0 64 1.51895 1
gene 1 8 17 -0.361995 0 71 -0.361995 1
gene 1 8 20 0.0880848 0 74 0.0880848 1
gene 1 10 19 -0.0331793 0 93 -0.0331793 1
gene 1 10 20 -0.437015 0 94 -0.437015 1
gene 1 11 20 -1.36737 0 104 -1.36737 1
gene 1 17 12 -0.180503 0 111 -0.180503 1
gene 1 19 15 1.27912 0 124 1.27912 1
gene 1 20 12 1.02292 0 126 1.02292 1
gene 1 20 13 2.59138 0 127 2.59138 1
gene 1 20 14 0.904125 0 128 0.904125 1
gene 1 20 15 2.66978 0 129 2.66978 1
gene 1 14 13 0.158372 0 678 0.158372 1
gene 1 3 16 1.89908 0 2789 1.89908 1
gene 1 1 12 -0.713726 0 3987 -0.713726 1
gene 1 5 16 0.301307 0 5314 0.301307 1
gene 1 11 14 -0.413117 0 6439 -0.413117 1
gene 1 10 16 -0.65535 0 8495 -0.65535 1
gene 1 5 13 0.520484 0 9347 0.520484 1
gene 1 12 12 -0.733972 1 9973 -0.733972 1
gene 1 16 13 0.501311 0 12092 0.501311 1
gene 1 16 15 -0.606644 0 12624 -0.606644 1
gene 1 7 16 0.187211 0 13646 0.187211 1
gene 1 2 16 0.5747 0 14452 0.5747 1
gene 1 13 15 -0.461872 0 16095 -0.461872 1
gene 1 4 15 0.43161 0 16326 0.43161 1
gene 1 2 13 -0.100079 0 16789 -0.100079 1
gene 1 5 970 1.47874 0 17859 1.43211 1
gene 1 15 14 0.0564961 0 17985 0.0564961 1
gene 1 2 12 -0.153098 0 18736 -0.153098 1
gene 1 19 14 -1.23259 0 18877 -1.23259 1
gene 1 20 20 -0.929022 1 18984 -0.929022 1
gene 1 970 13 -0.0414185 0 19080 -0.0414185 1
gene 1 2 970 -1.0532 0 19318 -1.0532 1
gene 1 6 12 -0.823979 0 19466 -0.823979 1
gene 1 2 19 0.26798 0 19989 0.26798 1
gene 1 11 970 -0.809264 0 21276 -0.809264 1
gene 1 970 15 0.239556 0 21990 0.239556 1
gene 1 13 13 -0.0803963 1 22328 -0.0803963 1
gene 1 19 12 0.292966 0 23075 0.292966 1
gene 1 14 20 -0.279766 1 23392 -0.279766 1
gene 1 17 17 -0.340603 1 23746 -0.340603 1
gene 1 11 16 -0.108477 0 27048 -0.108477 1
gene 1 7 970 0.632036 0 27735 0.632036 1
gene 1 17 19 0.464344 0 28520 0.464344 1
gene 1 12 16 -0.170463 0 28944 -0.170463 1
gene 1 1650 17 0.16194 0 30606 0.176973 1
gene 1 6 1650 -1.03087 0 31266 -1.03087 1
gene 1 6 19 -0.246396 0 31800 -0.246396 1
gene 1 1650 15 -0.00203593 0 31945 -0.00203593 1
gene 1 9 19 0.513862 0 32651 0.513862 1
gene 1 16 16 -0.253206 1 33680 -0.253206 1
gene 1 14 16 1.26503 0 34403 1.26503 1
gene 1 970 16 0.418841 0 34705 0.418841 1
gene 1 5 14 -0.186835 0 34836 -0.186835 1
gene 1 16 19 0.910506 1 35555 0.910506 1
gene 1 970 19 -0.139866 0 36361 -0.139866 1
gene 1 970 20 -0.360708 0 36512 -0.360708 1
gene 1 6 13 0.844791 0 36808 0.844791 1
gene 1 9 15 0.191622 0 37728 0.191622 1
gene 1 8 16 0.0488978 0 38223 0.0488978 1
gene 1 1 13 1.0335 0 38642 1.0335 1
gene 1 17 970 -0.225307 0 39221 -0.225307 1
gene 1 10 14 0.620794 0 40045 0.620794 1
gene 1 1650 1650 -0.350084 1 40428 -0.350084 1
gene 1 15 15 -0.550321 1 40579 -0.550321 1
gene 1 16 20 0.0995099 1 40930 0.0995099 1
gene 1 1650 970 -0.705648 0 40948 -0.705648 1
gene 1 19 19 0.22689 1 41082 0.22689 1
gene 1 10 12 -0.022775 0 41690 -0.022775 1
gene 1 3 13 0.216241 0 41888 0.216241 1
gene 1 17 14 0.488023 0 42417 0.488023 1
gene 1 6 15 0.336959 0 42715 0.336959 1
gene 1 9 17 0.440523 0 43663 0.440523 1
gene 1 4 12 0.992852 0 44188 0.992852 1
gene 1 3 19 -1.0159 0 44461 -1.0159 1
gene 1 9 14 1.00867 0 44639 1.00867 1
gene 1 970 2423 0.817787 1 44898 0.0765762 1
gene 1 2423 970 -0.233524 0 44899 0.0992349 1
gene 1 2 15 -0.105476 0 45150 -0.105476 1
gene 1 1 16 -0.665349 0 45729 -0.665349 1
gene 1 7 2423 0.164589 0 46005 0.164589 1
gene 1 4 16 -0.269405 0 46250 -0.269405 1
gene 1 4 20 0.109147 0 46415 0.109147 1
gene 1 3 14 0.890012 0 46535 0.890012 1
gene 1 12 20 -0.998044 1 46594 -0.998044 1
gene 1 970 970 0.0646429 1 46928 0.0646429 1
gene 1 2423 14 -0.350676 0 47059 -0.350676 1
gene 1 9 20 0.302762 0 47177 0.302762 1
gene 1 13 19 -0.532098 0 47674 -0.532098 1
gene 1 9 1650 -0.30679 0 47808 -0.30679 1
gene 1 9 2423 -0.80697 0 48405 -0.80697 1
gene 1 6 14 0.251162 0 48909 0.251162 1
gene 1 14 14 -0.159821 1 49054 -0.159821 1
gene 1 7 15 -0.78312 0 49523 -0.78312 1
gene 1 8 15 -0.718222 0 49661 -0.718222 1
gene 1 14 1650 -0.708878 0 49841 -0.708878 1
gene 1 2423 2423 -0.0302457 1 49934 -0.0302457 1
gene 1 9 16 -0.446001 0 50129 -0.446001 1
gene 1 2423 16 0.851189 0 50364 0.851189 1
genomeend 662
