/* Organism #28880720 Fitness: -0.618961 
genomestart 204
trait 1 0.0822204 0.513653 0.246982 0.422619 0.498126 0.606363 0.883791 0 
node 1 1 0
node 2 1 1
node 3 1 1
node 4 1 1
node 5 1 1
node 6 1 1
node 7 1 1
node 8 1 1
node 9 1 1
node 10 1 1
node 11 1 1
node 12 1 2
node 13 1 2
node 14 1 2
node 15 1 2
node 16 1 2
node 17 1 3
node 22 1 3
node 23 1 3
node 26 1 3
node 43 1 3
node 75 1 3
node 276 1 3
node 384 1 3
node 441 1 3
node 450 1 3
node 962 1 3
node 1139 1 3
node 1204 1 3
node 1551 1 3
node 2141 1 3
node 2435 1 3
gene 1 1 23 -6.61212 0 7 -6.61212 1
gene 1 2 22 -1.39508 0 16 -1.39508 1
gene 1 3 17 -0.409848 0 21 -0.409848 1
gene 1 3 22 1.00487 0 26 1.00487 1
gene 1 3 26 2.65576 0 30 2.65576 1
gene 1 5 23 -3.01311 0 47 -3.01311 1
gene 1 6 22 1.35816 0 56 1.35816 1
gene 1 7 22 0.673681 0 66 0.673681 1
gene 1 8 17 -1.49024 0 71 -1.49024 1
gene 1 8 22 0.945756 0 76 0.945756 1
gene 1 9 17 0.126852 0 81 0.126852 1
gene 1 9 23 -1.60508 0 87 -1.60508 1
gene 1 9 26 1.30007 0 90 1.30007 1
gene 1 10 17 0.263573 0 91 0.263573 1
gene 1 11 17 -0.180268 0 101 -0.180268 1
gene 1 11 22 2.6905 0 106 2.6905 1
gene 1 11 23 1.23996 0 107 1.23996 1
gene 1 11 26 0.733363 0 110 0.733363 1
gene 1 17 12 -0.656711 0 111 -0.656711 1
gene 1 17 13 0.539866 0 112 0.539866 1
gene 1 17 14 -1.51461 0 113 -1.51461 1
gene 1 17 15 -0.552698 0 114 -0.552698 1
gene 1 22 14 0.741963 0 138 0.741963 1
gene 1 22 15 -1.02135 0 139 -1.02135 1
gene 1 22 16 -2.84475 0 140 -2.84475 1
gene 1 23 12 -0.696711 0 141 -0.696711 1
gene 1 23 13 -0.785835 0 142 -0.785835 1
gene 1 23 14 2.0438 0 143 2.0438 1
gene 1 23 15 1.75255 0 144 1.75255 1
gene 1 23 16 1.60885 0 145 1.60885 1
gene 1 26 12 -1.59233 0 156 -1.59233 1
gene 1 26 14 -1.02938 0 158 -1.02938 1
gene 1 26 15 -1.27292 0 159 -1.27292 1
gene 1 26 16 0.468028 0 160 0.468028 1
gene 1 4 43 -1.97133 0 438 -1.97133 1
gene 1 3 75 -2.03326 0 1235 -2.03326 1
gene 1 2 13 0.36789 0 2433 0.36789 1
gene 1 11 15 -0.710269 0 2726 -0.710269 1
gene 1 7 276 2.93328 0 4977 2.93328 1
gene 1 4 276 3.68496 0 6211 3.68496 1
gene 1 11 75 2.42917 0 6387 2.42917 1
gene 1 3 276 2.33843 0 6569 2.33843 1
gene 1 17 17 0.159967 1 7680 0.159967 1
gene 1 4 450 -0.70184 0 8672 -0.70184 1
gene 1 450 17 0.613347 0 8673 0.613347 1
gene 1 5 16 0.914033 0 11947 0.914033 1
gene 1 441 276 -4.07778 0 13278 -4.07778 1
gene 1 9 384 0.425084 0 13667 0.425084 1
gene 1 384 276 0.520052 0 14088 0.520052 1
gene 1 75 13 0.462582 0 14722 0.462582 1
gene 1 6 43 -0.502494 0 15033 -0.502494 1
gene 1 7 26 1.84111 0 15609 1.84111 1
gene 1 10 23 -6.16064 0 17042 -6.16064 1
gene 1 441 441 0.09898 1 17249 0.09898 1
gene 1 441 15 -0.571949 0 17811 -0.571949 1
gene 1 384 450 -2.18754 0 21146 -2.18754 1
gene 1 43 962 2.39351 0 21525 2.39351 1
gene 1 962 23 -0.0509972 0 21526 -0.0509972 1
gene 1 16 276 -0.356282 1 23454 -0.356282 1
gene 1 384 441 -0.105959 0 23643 -0.105959 1
gene 1 384 13 -2.71436 0 25379 -2.71436 1
gene 1 10 1139 2.1704 0 25695 2.1704 1
gene 1 1139 43 -2.43581 0 25696 -2.43581 1
gene 1 75 1139 1.7698 0 27086 1.7698 1
gene 1 10 1204 2.95839 0 27463 2.95839 1
gene 1 1204 450 2.98929 0 27464 2.98929 1
gene 1 276 22 -1.32695 0 27573 -1.32695 1
gene 1 12 14 -2.6975 0 27867 -2.6975 1
gene 1 12 16 0.694401 0 28222 0.694401 1
gene 1 450 12 0.542735 0 28599 0.542735 1
gene 1 13 12 2.05496 0 29350 2.05496 1
gene 1 450 22 0.445551 0 30325 0.445551 1
gene 1 8 450 -0.659105 0 30526 -0.659105 1
gene 1 441 962 2.30711 0 31696 2.30711 1
gene 1 75 23 -0.773949 0 31900 -0.773949 1
gene 1 4 75 -1.54238 0 32085 -1.54238 1
gene 1 6 962 -1.50322 0 32306 -1.50322 1
gene 1 11 14 1.10064 0 34772 1.10064 1
gene 1 23 26 -2.03665 0 34960 -2.03665 1
gene 1 16 16 -0.837964 1 35058 -0.837964 1
gene 1 3 962 -1.92893 0 36196 -1.92893 1
gene 1 1551 23 -1.41283 0 36384 -1.41283 1
gene 1 1551 441 2.03463 0 37329 2.03463 1
gene 1 3 1204 -0.617963 0 37512 -0.617963 1
gene 1 1139 13 -0.0797096 0 37916 -0.0797096 1
gene 1 384 22 1.34734 0 38110 1.34734 1
gene 1 450 16 0.492229 0 38319 0.492229 1
gene 1 962 962 -0.375978 1 38479 -0.375978 1
gene 1 450 14 -1.59434 0 38856 -1.59434 1
gene 1 43 43 -0.221523 1 39653 -0.221523 1
gene 1 1551 384 1.71452 0 40400 1.71452 1
gene 1 962 13 0.603025 0 40670 0.603025 1
gene 1 1204 441 0.612888 0 40691 0.612888 1
gene 1 450 450 0.704952 1 41140 0.704952 1
gene 1 384 384 -0.0421934 1 41253 -0.0421934 1
gene 1 16 43 -1.05237 1 41889 -1.05237 1
gene 1 1 384 -2.93016 0 42076 -2.93016 1
gene 1 3 16 2.13153 0 43371 2.13153 1
gene 1 5 441 1.08738 0 43658 1.08738 1
gene 1 10 16 0.298256 0 44087 0.298256 1
gene 1 13 13 2.48728 1 44667 2.48728 1
gene 1 1 14 0.574883 0 46042 0.574883 1
gene 1 10 75 -1.54524 0 46253 -1.54524 1
gene 1 43 276 0.227386 0 48597 0.227386 1
gene 1 9 962 0.265561 0 49172 0.265561 1
gene 1 26 22 0.476285 0 49748 0.476285 1
gene 1 7 1139 1.94815 0 50132 1.94815 1
gene 1 14 14 -0.0450669 1 50298 -0.0450669 1
gene 1 441 16 2.14542 0 50526 2.14542 1
gene 1 3 12 -1.21198 0 50712 -1.21198 1
gene 1 1551 14 0.473401 0 51161 0.473401 1
gene 1 2 276 1.69919 0 51483 1.69919 1
gene 1 1551 17 1.34167 0 51711 1.34167 1
gene 1 384 2141 0.0999102 0 51882 0.0999102 1
gene 1 2141 23 0.16471 0 51883 0.16471 1
gene 1 1139 962 -0.840037 0 52080 -0.840037 1
gene 1 276 14 3.32897 0 52450 3.32897 1
gene 1 75 17 -0.987365 0 52885 -0.987365 1
gene 1 2 75 2.1009 0 53070 2.1009 1
gene 1 23 23 1.83962 1 53878 1.83962 1
gene 1 1139 17 0.799683 0 54459 0.799683 1
gene 1 3 450 -0.960023 0 54673 -0.960023 1
gene 1 1204 1204 0.530361 1 55225 0.530361 1
gene 1 7 43 1.02605 0 55488 1.02605 1
gene 1 75 14 1.68765 0 55855 1.68765 1
gene 1 12 12 -1.09775 1 56206 -1.09775 1
gene 1 23 450 2.64716 0 57731 2.64716 1
gene 1 1551 16 -0.267856 0 57897 -0.267856 1
gene 1 1204 75 -0.91417 0 58272 -0.91417 1
gene 1 2141 22 -2.7551 0 58815 -2.7551 1
gene 1 2141 2141 -0.175843 1 59031 -0.175843 1
gene 1 17 962 -1.49122 1 59234 -1.49122 1
gene 1 1551 1551 0.480804 1 59462 0.480804 1
gene 1 7 384 -0.0210191 0 59663 -0.0210191 1
gene 1 276 2435 0.652527 1 60002 0.335632 1
gene 1 2435 1139 -1.35955 0 60003 -0.932377 1
gene 1 13 22 0.0917253 0 60675 0.0917253 1
gene 1 1139 1139 -1.09122 1 61217 -1.09122 1
gene 1 1 43 0.977401 0 61608 0.977401 1
gene 1 4 14 1.10624 0 62019 1.10624 1
gene 1 11 962 1.11762 0 62621 1.11762 1
gene 1 12 15 -0.326852 0 62817 -0.326852 1
gene 1 3 43 -0.340051 0 62970 -0.340051 1
gene 1 5 22 0.769148 0 63157 0.769148 1
gene 1 2141 75 -0.256396 0 63464 -0.256396 1
gene 1 450 13 0.627607 0 63700 0.627607 1
gene 1 17 22 -0.58075 0 63834 -0.58075 1
gene 1 8 16 -0.373023 0 64378 -0.373023 1
genomeend 204
