/* Organism #52954992 Fitness: -1.18553 
genomestart 864
trait 1 0 0.939513 0.38559 0.132843 0.872913 0.971164 1 0.469632 
node 1 1 0
node 2 1 1
node 3 1 1
node 4 1 1
node 5 1 1
node 6 1 1
node 7 1 1
node 8 1 1
node 9 1 1
node 10 1 1
node 11 1 1
node 12 1 2
node 13 1 2
node 14 1 2
node 15 1 2
node 16 1 2
node 19 1 3
node 23 1 3
node 24 1 3
node 26 1 3
node 1352 1 3
node 1543 1 3
node 1575 1 3
node 2298 1 3
node 2327 1 3
gene 1 1 19 2.34852 0 3 2.34852 1
gene 1 1 23 0.401376 0 7 0.401376 1
gene 1 1 26 0.485224 0 10 0.485224 1
gene 1 2 19 2.64666 0 13 2.64666 1
gene 1 2 26 0.263806 0 20 0.263806 1
gene 1 3 19 1.15175 0 23 1.15175 1
gene 1 4 23 -0.209804 0 37 -0.209804 1
gene 1 4 26 0.580567 0 40 0.580567 1
gene 1 5 19 -0.686155 0 43 -0.686155 1
gene 1 5 24 -0.176667 0 48 -0.176667 1
gene 1 6 19 -1.17635 0 53 -1.17635 1
gene 1 6 24 -0.998829 0 58 -0.998829 1
gene 1 6 26 5.02034 0 60 5.02034 1
gene 1 7 24 0.404239 0 68 0.404239 1
gene 1 7 26 1.50558 0 70 1.50558 1
gene 1 8 23 0.201909 0 77 0.201909 1
gene 1 9 19 0.500052 0 83 0.500052 1
gene 1 10 24 0.377628 0 98 0.377628 1
gene 1 10 26 -0.653962 0 100 -0.653962 1
gene 1 11 19 -1.32776 0 103 -1.32776 1
gene 1 11 24 0.867274 0 108 0.867274 1
gene 1 11 26 -1.68963 0 110 -1.68963 1
gene 1 19 12 -0.310908 0 121 -0.310908 1
gene 1 19 13 0.313756 0 122 0.313756 1
gene 1 19 14 -0.50557 0 123 -0.50557 1
gene 1 23 13 -3.37876 0 142 -3.37876 1
gene 1 23 15 1.55155 0 144 1.55155 1
gene 1 23 16 -0.0972642 0 145 -0.0972642 1
gene 1 24 12 -0.365185 0 146 -0.365185 1
gene 1 24 15 -1.92788 0 149 -1.92788 1
gene 1 26 12 0.498827 0 156 0.498827 1
gene 1 26 16 0.125976 0 160 0.125976 1
gene 1 26 13 -0.0209408 0 5324 -0.0209408 1
gene 1 15 14 -5.44278 0 7022 -5.44278 1
gene 1 2 13 1.38721 0 7325 1.38721 1
gene 1 19 26 0.161743 0 8988 0.161743 1
gene 1 6 13 0.230414 0 9802 0.230414 1
gene 1 15 15 -0.252153 1 10073 -0.252153 1
gene 1 3 24 -2.06009 0 10453 -2.06009 1
gene 1 6 15 -0.616769 0 10943 -0.616769 1
gene 1 9 16 1.00786 0 11461 1.00786 1
gene 1 9 24 0.34519 0 13350 0.34519 1
gene 1 1 14 1.11575 0 14195 1.11575 1
gene 1 16 24 -1.10591 1 15336 -1.10591 1
gene 1 8 15 -0.297874 0 15851 -0.297874 1
gene 1 13 13 1.633 1 16769 1.633 1
gene 1 12 15 -2.33597 0 17541 -2.33597 1
gene 1 12 13 -0.979947 0 20269 -0.979947 1
gene 1 19 23 -0.482734 0 20607 -0.482734 1
gene 1 11 14 -0.40807 0 20815 -0.40807 1
gene 1 7 16 0.907488 0 21664 0.907488 1
gene 1 10 23 1.5366 0 22527 1.5366 1
gene 1 8 14 -1.63352 0 22699 -1.63352 1
gene 1 2 15 -0.455936 0 23427 -0.455936 1
gene 1 3 15 -1.0941 0 24620 -1.0941 1
gene 1 2 16 0.896092 0 26958 0.896092 1
gene 1 8 13 0.521868 0 27879 0.521868 1
gene 1 6 14 3.29807 0 28155 3.29807 1
gene 1 4 13 0.464633 0 28602 0.464633 1
gene 1 11 1352 -1.00731 0 29082 -1.00731 1
gene 1 1352 1352 4.03718 1 29677 4.03718 1
gene 1 2 12 -1.35271 0 29819 -1.35271 1
gene 1 10 19 0.113975 0 32026 0.113975 1
gene 1 26 1543 0.312983 0 33280 0.312983 1
gene 1 1543 15 -0.488944 0 33281 -0.488944 1
gene 1 26 1352 0.229683 0 33865 0.229683 1
gene 1 9 1575 0.537974 0 34007 0.537974 1
gene 1 1575 26 0.458393 0 34008 0.458393 1
gene 1 8 16 -2.93851 0 34484 -2.93851 1
gene 1 5 16 0.826059 0 34580 0.826059 1
gene 1 16 13 -2.38553 0 34704 -2.38553 1
gene 1 11 1575 0.7609 0 36080 0.7609 1
gene 1 9 13 0.361062 0 36360 0.361062 1
gene 1 11 1543 -0.478403 0 36494 -0.478403 1
gene 1 16 1543 1.31659 0 37925 1.31659 1
gene 1 1352 12 -0.203439 0 39089 -0.203439 1
gene 1 14 14 2.71107 1 39225 2.71107 1
gene 1 1575 15 -1.25214 0 39423 -1.25214 1
gene 1 1575 1575 1.70609 1 40121 1.70609 1
gene 1 7 19 2.05057 0 40882 2.05057 1
gene 1 1575 13 0.898122 0 41076 0.898122 1
gene 1 10 16 -1.95381 0 41244 -1.95381 1
gene 1 5 26 -0.820282 0 42052 -0.820282 1
gene 1 1 15 -0.722951 0 42229 -0.722951 1
gene 1 26 23 -0.954516 0 42429 -0.954516 1
gene 1 7 1575 0.840458 0 42572 0.840458 1
gene 1 15 13 -1.47559 0 43335 -1.47559 1
gene 1 9 12 -0.290858 0 45164 -0.290858 1
gene 1 2 24 0.987881 0 46773 0.987881 1
gene 1 5 23 -1.00596 0 48118 -1.00596 1
gene 1 19 15 -0.0475106 0 48398 -0.0475106 1
gene 1 1 24 0.0637113 0 48592 0.0637113 1
gene 1 8 1575 0.803726 0 49279 0.803726 1
gene 1 14 13 0.24439 0 49703 0.24439 1
gene 1 26 15 -0.354216 0 49903 -0.354216 1
gene 1 6 16 -0.249814 0 50121 -0.249814 1
gene 1 24 2298 1.17153 1 50296 0.655908 1
gene 1 2298 24 -0.197914 0 50297 -0.154434 1
gene 1 2 1543 -0.424703 0 50346 -0.424703 1
gene 1 26 2327 0.965694 1 50821 0.528194 1
gene 1 2327 26 0.156896 0 50822 -0.0103362 1
gene 1 1575 19 -0.360585 0 51627 -0.360585 1
gene 1 2298 19 1.01791 0 51806 1.01791 1
gene 1 4 2298 -0.862625 0 52099 -0.862625 1
gene 1 2298 1543 0.0500656 0 52240 0.0500656 1
gene 1 15 23 0.522452 1 52413 0.522452 1
gene 1 10 12 -0.501079 0 52556 -0.501079 1
gene 1 1 16 -0.187743 0 52723 -0.187743 1
gene 1 3 14 -1.18192 0 52835 -1.18192 1
gene 1 24 1352 -0.475829 0 53112 -0.475829 1
gene 1 23 1352 1.72541 0 53602 1.72541 1
gene 1 10 13 0.504849 0 53988 0.504849 1
gene 1 7 2327 -0.972316 0 54215 -0.972316 1
gene 1 9 15 -0.596577 0 54303 -0.596577 1
gene 1 1543 1575 0.77452 1 54405 0.77452 1
gene 1 4 19 0.598851 0 54548 0.598851 1
gene 1 19 1543 -0.723457 0 55154 -0.723457 1
gene 1 23 1543 -0.314443 0 55326 -0.314443 1
genomeend 864
