/* Organism #43815280 Fitness: -0.726556 
genomestart 813
trait 1 0.912856 0 0.638738 0.462641 0 0 0 0.00297631 
node 1 1 0
node 2 1 1
node 3 1 1
node 4 1 1
node 5 1 1
node 6 1 1
node 7 1 1
node 8 1 1
node 9 1 1
node 10 1 1
node 11 1 1
node 12 1 2
node 13 1 2
node 14 1 2
node 15 1 2
node 16 1 2
node 17 1 3
node 18 1 3
node 23 1 3
node 534 1 3
node 671 1 3
node 898 1 3
node 1728 1 3
node 1917 1 3
node 1925 1 3
node 2055 1 3
node 2248 1 3
node 2364 1 3
node 2609 1 3
gene 1 1 18 1.62826 0 2 1.62826 1
gene 1 1 23 1.30286 0 7 1.30286 1
gene 1 2 17 -2.04322 0 11 -2.04322 1
gene 1 3 17 0.754148 0 21 0.754148 1
gene 1 4 17 -2.99612 0 31 -2.99612 1
gene 1 4 18 2.779 0 32 2.779 1
gene 1 4 23 -0.116071 0 37 -0.116071 1
gene 1 7 17 -1.9424 0 61 -1.9424 1
gene 1 7 18 -0.963433 0 62 -0.963433 1
gene 1 7 23 2.43286 0 67 2.43286 1
gene 1 8 17 -0.523304 0 71 -0.523304 1
gene 1 8 18 2.48244 0 72 2.48244 1
gene 1 9 23 -0.951089 0 87 -0.951089 1
gene 1 10 17 -3.74512 0 91 -3.74512 1
gene 1 10 18 0.255028 0 92 0.255028 1
gene 1 11 17 -0.790537 0 101 -0.790537 1
gene 1 11 23 0.829869 0 107 0.829869 1
gene 1 17 12 0.700719 0 111 0.700719 1
gene 1 17 14 -1.4821 0 113 -1.4821 1
gene 1 18 12 0.0243191 0 116 0.0243191 1
gene 1 18 13 2.25016 0 117 2.25016 1
gene 1 23 12 0.929836 0 141 0.929836 1
gene 1 23 13 -0.479648 0 142 -0.479648 1
gene 1 23 14 0.89575 0 143 0.89575 1
gene 1 12 12 -0.968912 1 2426 -0.968912 1
gene 1 4 16 -0.495212 0 6081 -0.495212 1
gene 1 13 14 -0.615598 0 6547 -0.615598 1
gene 1 11 12 -0.594837 0 8070 -0.594837 1
gene 1 8 534 1.10634 0 10347 1.10634 1
gene 1 14 534 0.289912 0 11533 0.289912 1
gene 1 8 14 2.35078 0 14540 2.35078 1
gene 1 11 14 -0.506881 0 14798 -0.506881 1
gene 1 671 671 1.09656 1 16815 1.09656 1
gene 1 12 671 2.42611 1 17381 2.42611 1
gene 1 898 17 -0.269141 0 18452 -0.269141 1
gene 1 12 898 -1.03621 1 20191 -1.03621 1
gene 1 898 898 1.05807 1 20645 1.05807 1
gene 1 14 16 0.241334 0 20770 0.241334 1
gene 1 9 534 -0.333959 0 21118 -0.333959 1
gene 1 1 16 1.10937 0 23489 1.10937 1
gene 1 10 15 0.781449 0 23886 0.781449 1
gene 1 7 14 -0.58617 0 24029 -0.58617 1
gene 1 7 13 0.830267 0 24516 0.830267 1
gene 1 17 18 -1.02083 1 24679 -1.02083 1
gene 1 8 15 -2.09605 0 29644 -2.09605 1
gene 1 9 17 0.912498 0 29808 0.912498 1
gene 1 3 18 -1.50842 0 30687 -1.50842 1
gene 1 9 15 -1.39961 0 30968 -1.39961 1
gene 1 15 13 0.843833 0 31322 0.843833 1
gene 1 3 23 2.87989 0 34112 2.87989 1
gene 1 13 13 2.09162 1 34524 2.09162 1
gene 1 2 15 0.521521 0 36341 0.521521 1
gene 1 16 16 1.51689 1 36697 1.51689 1
gene 1 15 23 1.28633 0 36869 1.28633 1
gene 1 1728 534 -1.91943 0 37373 -1.91943 1
gene 1 13 16 -0.163399 0 37556 -0.163399 1
gene 1 5 671 -0.104312 0 37803 -0.104312 1
gene 1 15 16 1.17891 0 38084 1.17891 1
gene 1 15 15 0.976412 1 39970 0.976412 1
gene 1 11 898 -0.728274 0 41180 -0.728274 1
gene 1 16 1917 -0.485488 1 41782 -0.485488 1
gene 1 1 14 -0.531619 0 42443 -0.531619 1
gene 1 15 18 -0.330185 0 42674 -0.330185 1
gene 1 1728 1728 0.112483 1 42737 0.112483 1
gene 1 10 671 0.478749 0 44773 0.478749 1
gene 1 7 2055 -0.225979 0 44966 -0.225979 1
gene 1 18 2055 0.314827 0 45118 0.314827 1
gene 1 2 12 -0.754387 0 45549 -0.754387 1
gene 1 2 1728 -0.767271 0 45785 -0.767271 1
gene 1 1917 14 -0.0910191 0 46296 -0.0910191 1
gene 1 1 17 0.696682 0 47738 0.696682 1
gene 1 1 1917 0.120748 0 48452 0.120748 1
gene 1 2 671 -0.369322 0 48890 -0.369322 1
gene 1 2055 2055 0.201743 1 48919 0.201743 1
gene 1 9 671 -1.41882 0 49465 -1.41882 1
gene 1 2248 13 1.28205 0 50174 0.488661 1
gene 1 23 23 0.283453 1 50391 0.283453 1
gene 1 2248 2248 -0.29653 1 50421 -0.29653 1
gene 1 6 671 0.840581 0 50932 0.840581 1
gene 1 11 2248 0.545219 0 52274 0.545219 1
gene 1 4 15 -0.0160687 0 52621 -0.0160687 1
gene 1 11 671 -1.45566 0 52848 -1.45566 1
gene 1 2364 671 -0.347745 0 53045 -0.215224 1
gene 1 9 14 1.15606 0 53180 1.15606 1
gene 1 898 1925 -0.927529 1 53650 -0.927529 1
gene 1 6 23 -0.365805 0 53703 -0.365805 1
gene 1 2248 17 0.0808205 0 54396 0.0808205 1
gene 1 1917 2364 0.200107 0 55582 0.200107 1
gene 1 12 534 -0.52286 0 55785 -0.52286 1
gene 1 23 18 -1.00185 0 55985 -1.00185 1
gene 1 23 1917 -0.0571096 0 56630 -0.0571096 1
gene 1 5 16 0.749164 0 57178 0.749164 1
gene 1 17 17 -0.892122 1 57638 -0.892122 1
gene 1 2364 18 0.130822 0 58064 0.130822 1
gene 1 1925 18 -0.685925 0 58532 -0.685925 1
gene 1 4 1925 -0.620687 0 58829 -0.620687 1
gene 1 14 14 -0.383712 1 59036 -0.383712 1
gene 1 1 1925 0.343008 0 59585 0.343008 1
gene 1 12 2609 1 0 59781 0 1
gene 1 2609 16 -0.151652 0 59782 0 1
gene 1 5 1925 0.506637 0 60145 0.506637 1
gene 1 1917 1925 0.0285771 0 60357 0.0285771 1
genomeend 813
