/* Organism #52644048 Fitness: -3.34433 
genomestart 61
trait 1 0.380782 0.296502 0.379078 0.639326 0.920969 0.224662 0.219162 0.370677 
node 1 1 0
node 2 1 1
node 3 1 1
node 4 1 1
node 5 1 1
node 6 1 1
node 7 1 1
node 8 1 1
node 9 1 1
node 10 1 1
node 11 1 1
node 12 1 2
node 13 1 2
node 14 1 2
node 15 1 2
node 16 1 2
node 18 1 3
node 20 1 3
node 25 1 3
node 939 1 3
node 956 1 3
node 2017 1 3
node 2396 1 3
node 2417 1 3
node 2504 1 3
gene 1 1 18 0.222583 0 2 0.222583 1
gene 1 1 20 -0.406483 0 4 -0.406483 1
gene 1 2 20 0.911455 0 14 0.911455 1
gene 1 4 18 0.544789 0 32 0.544789 1
gene 1 4 20 -0.00302341 0 34 -0.00302341 1
gene 1 4 25 -1.0621 0 39 -1.0621 1
gene 1 5 18 0.573487 0 42 0.573487 1
gene 1 6 18 -0.915348 0 52 -0.915348 1
gene 1 7 18 0.15725 0 62 0.15725 1
gene 1 7 20 0.101839 0 64 0.101839 1
gene 1 9 25 0.994703 0 89 0.994703 1
gene 1 10 18 2.46519 0 92 2.46519 1
gene 1 10 25 0.574796 0 99 0.574796 1
gene 1 18 12 0.548045 0 116 0.548045 1
gene 1 18 13 1.06678 0 117 1.06678 1
gene 1 18 16 -0.170608 0 120 -0.170608 1
gene 1 20 12 0.41034 0 126 0.41034 1
gene 1 20 13 -0.321175 0 127 -0.321175 1
gene 1 20 15 0.10852 0 129 0.10852 1
gene 1 20 16 0.751135 0 130 0.751135 1
gene 1 25 14 0.214295 0 153 0.214295 1
gene 1 20 18 -2.12873 0 303 -2.12873 1
gene 1 5 14 0.735338 0 628 0.735338 1
gene 1 14 12 0.467297 0 1585 0.467297 1
gene 1 8 16 -0.62078 0 3262 -0.62078 1
gene 1 5 15 -0.0792381 0 3939 -0.0792381 1
gene 1 13 16 0.720555 0 4637 0.720555 1
gene 1 8 20 -0.577477 0 4852 -0.577477 1
gene 1 12 12 -0.00516377 1 5255 -0.00516377 1
gene 1 10 14 -0.768824 0 5478 -0.768824 1
gene 1 16 16 0.53095 1 5709 0.53095 1
gene 1 18 18 -0.690362 1 6531 -0.690362 1
gene 1 4 13 -0.556282 0 6735 -0.556282 1
gene 1 9 16 0.0183448 0 8008 0.0183448 1
gene 1 14 14 -0.846062 1 8723 -0.846062 1
gene 1 6 16 -0.589644 0 10858 -0.589644 1
gene 1 16 13 -1.70646 1 13210 -1.70646 1
gene 1 14 13 -0.150428 0 13370 -0.150428 1
gene 1 18 14 -0.115514 0 13935 -0.115514 1
gene 1 2 14 -0.348875 0 14773 -0.348875 1
gene 1 15 16 1.08131 0 15814 1.08131 1
gene 1 5 956 0.438698 0 19291 0.438698 1
gene 1 956 20 -0.171271 0 19292 -0.171271 1
gene 1 3 16 -0.633219 0 21633 -0.633219 1
gene 1 956 956 0.99755 1 21953 0.99755 1
gene 1 7 14 -0.136717 0 22799 -0.136717 1
gene 1 25 939 0.140319 0 23502 0.140319 1
gene 1 15 12 -0.0815133 0 25832 -0.0815133 1
gene 1 7 15 -0.618158 0 27038 -0.618158 1
gene 1 939 939 0.205278 1 28563 0.205278 1
gene 1 20 20 0.666627 1 29100 0.666627 1
gene 1 14 16 -1.07785 0 30638 -1.07785 1
gene 1 1 956 0.615685 0 32137 0.615685 1
gene 1 18 25 0.777657 0 32674 0.777657 1
gene 1 10 13 0.538697 0 33773 0.538697 1
gene 1 8 18 -0.26164 0 34880 -0.26164 1
gene 1 4 939 0.0132626 0 36234 0.0132626 1
gene 1 13 14 1.03983 1 36923 1.03983 1
gene 1 15 939 -0.2363 1 37387 -0.2363 1
gene 1 4 15 -0.0530943 0 40028 -0.0530943 1
gene 1 8 956 0.542111 0 40199 0.542111 1
gene 1 16 12 0.906084 0 42843 0.906084 1
gene 1 956 12 0.515754 0 43577 0.515754 1
gene 1 6 956 0.357942 0 44472 0.357942 1
gene 1 1 939 0.445429 0 45847 0.445429 1
gene 1 20 2017 -0.327304 0 46442 -0.327304 1
gene 1 6 2017 -0.911184 0 46629 -0.911184 1
gene 1 956 18 0.681023 0 46974 0.681023 1
gene 1 939 2017 -0.713543 0 48433 -0.713543 1
gene 1 9 14 0.980253 0 49387 0.980253 1
gene 1 16 939 0.705115 0 49571 0.705115 1
gene 1 14 939 -0.500117 0 49759 -0.500117 1
gene 1 956 2017 -1.00208 0 50281 -1.00208 1
gene 1 956 14 0.567051 0 50726 0.567051 1
gene 1 1 16 -0.791332 0 51444 -0.791332 1
gene 1 6 20 0.106477 0 51802 0.106477 1
gene 1 3 939 -0.836033 0 51976 -0.836033 1
gene 1 15 2396 1.01691 1 52092 0.378975 1
gene 1 2396 15 -0.812142 0 52093 -0.0667108 1
gene 1 10 956 0.975301 0 52852 0.975301 1
gene 1 9 939 0.103307 0 53325 0.103307 1
gene 1 1 2417 0.315272 0 53891 0.315272 1
gene 1 15 13 0.197808 0 54048 0.197808 1
gene 1 2 2504 1 0 54230 0 1
gene 1 2504 18 2.88692 0 54231 0.885276 1
gene 1 2396 2396 -0.690394 1 55185 -0.690394 1
gene 1 9 2017 0.603557 0 56285 0.603557 1
genomeend 61
