/* Organism #56854704 Fitness: -0.704157 
genomestart 61
trait 1 0.1907 1 0.240369 0.833152 0.334708 0.567072 0.804507 0.00860973 
node 1 1 0
node 2 1 1
node 3 1 1
node 4 1 1
node 5 1 1
node 6 1 1
node 7 1 1
node 8 1 1
node 9 1 1
node 10 1 1
node 11 1 1
node 12 1 2
node 13 1 2
node 14 1 2
node 15 1 2
node 16 1 2
node 20 1 3
node 21 1 3
node 23 1 3
node 26 1 3
node 32 1 3
node 1023 1 3
node 2228 1 3
gene 1 1 20 0.925709 0 4 0.925709 1
gene 1 2 21 1.3756 0 15 1.3756 1
gene 1 2 23 -0.989406 0 17 -0.989406 1
gene 1 3 21 1.407 0 25 1.407 1
gene 1 3 23 0.0550865 0 27 0.0550865 1
gene 1 4 20 1.34165 0 34 1.34165 1
gene 1 4 23 -1.24779 0 37 -1.24779 1
gene 1 5 20 -0.92882 0 44 -0.92882 1
gene 1 6 21 0.613613 0 55 0.613613 1
gene 1 7 21 0.365801 0 65 0.365801 1
gene 1 7 23 -2.11448 0 67 -2.11448 1
gene 1 7 26 -1.24648 0 70 -1.24648 1
gene 1 8 21 -0.109654 0 75 -0.109654 1
gene 1 9 23 1.29896 0 87 1.29896 1
gene 1 9 26 0.54117 0 90 0.54117 1
gene 1 10 21 -0.00873265 0 95 -0.00873265 1
gene 1 11 21 1.24098 0 105 1.24098 1
gene 1 20 13 -0.320445 0 127 -0.320445 1
gene 1 21 12 0.37685 0 131 0.37685 1
gene 1 21 13 1.84942 0 132 1.84942 1
gene 1 21 15 0.965396 0 134 0.965396 1
gene 1 21 16 -1.03619 0 135 -1.03619 1
gene 1 23 12 1.04706 0 141 1.04706 1
gene 1 23 14 -1.5708 0 143 -1.5708 1
gene 1 23 15 -0.155497 0 144 -0.155497 1
gene 1 23 16 0.891564 0 145 0.891564 1
gene 1 26 12 -0.753344 0 156 -0.753344 1
gene 1 26 14 -0.409858 0 158 -0.409858 1
gene 1 26 16 0.785045 0 160 0.785045 1
gene 1 11 32 2.37014 0 284 2.36966 1
gene 1 23 13 -0.607627 0 1115 -0.607627 1
gene 1 13 16 -0.279238 0 2115 -0.279238 1
gene 1 10 32 0.795179 0 2285 0.795179 1
gene 1 21 20 1.2567 0 2564 1.2567 1
gene 1 13 20 -1.26744 1 3600 -1.26744 1
gene 1 12 12 -0.614251 1 4674 -0.614251 1
gene 1 26 32 -0.296899 0 9575 -0.296899 1
gene 1 26 26 1.75022 1 9746 1.75022 1
gene 1 15 15 -0.154667 1 10929 -0.154667 1
gene 1 12 16 -0.041446 0 11113 -0.041446 1
gene 1 13 23 -0.788442 1 14614 -0.788442 1
gene 1 23 32 -0.876241 0 14963 -0.876241 1
gene 1 9 14 -0.0942328 0 15539 -0.0942328 1
gene 1 16 15 -0.751274 1 16021 -0.751274 1
gene 1 7 20 -0.447009 0 16387 -0.447009 1
gene 1 9 20 -0.0232852 0 16732 -0.0232852 1
gene 1 12 13 1.24244 0 18126 1.24244 1
gene 1 16 14 -0.0179293 0 18307 -0.0179293 1
gene 1 1 21 -0.168986 0 19204 -0.168986 1
gene 1 14 14 -0.284125 1 19350 -0.284125 1
gene 1 2 15 -0.767085 0 19583 -0.767085 1
gene 1 4 32 0.497688 0 19772 0.497688 1
gene 1 20 14 -0.0775696 0 19930 -0.0775696 1
gene 1 8 16 0.213967 0 21324 0.213967 1
gene 1 2 1023 0.6039 0 23171 0.468873 1
gene 1 1023 12 0.022279 0 23172 -0.0215987 1
gene 1 6 12 -0.104586 0 23342 -0.104586 1
gene 1 10 20 0.268872 0 24129 0.268872 1
gene 1 1 16 0.938556 0 24624 0.938556 1
gene 1 3 1023 0.285841 0 28351 0.285841 1
gene 1 11 13 1.39602 0 28720 1.39602 1
gene 1 9 1023 0.127241 0 29021 0.127241 1
gene 1 5 1023 -1.10635 0 29503 -1.10635 1
gene 1 1 13 0.14384 0 30247 0.14384 1
gene 1 32 20 0.462259 0 30425 0.462259 1
gene 1 21 1023 0.0675019 0 30943 0.0675019 1
gene 1 10 1023 0.802944 0 32159 0.802944 1
gene 1 23 20 0.623795 0 32235 0.623795 1
gene 1 1023 1023 0.952383 1 32463 0.952383 1
gene 1 14 1023 -0.06602 1 32622 -0.06602 1
gene 1 1 12 0.276943 0 33478 0.276943 1
gene 1 6 13 0.783255 0 33729 0.783255 1
gene 1 32 32 -0.00848782 1 33952 -0.00848782 1
gene 1 7 14 -0.52715 0 35615 -0.52715 1
gene 1 9 16 -0.285875 0 36224 -0.285875 1
gene 1 12 15 1.10543 0 39160 1.10543 1
gene 1 5 16 0.831742 0 39391 0.831742 1
gene 1 1023 20 -0.191631 0 40053 -0.191631 1
gene 1 3 15 0.599463 0 40994 0.599463 1
gene 1 5 14 -0.571749 0 41276 -0.571749 1
gene 1 8 20 0.653629 0 41792 0.653629 1
gene 1 11 23 -1.20903 0 42540 -1.20903 1
gene 1 13 13 -0.471107 1 43044 -0.471107 1
gene 1 1 14 0.662239 0 44164 0.662239 1
gene 1 20 23 0.264399 1 44603 0.264399 1
gene 1 3 32 -1.91888 0 45148 -1.91888 1
gene 1 8 32 -1.00096 0 45401 -1.00096 1
gene 1 20 20 0.615523 1 46589 0.615523 1
gene 1 32 1023 0.23095 1 47061 0.23095 1
gene 1 16 1023 -0.155332 1 47425 -0.155332 1
gene 1 3 13 0.404477 0 48115 0.404477 1
gene 1 26 13 -0.214575 0 48943 -0.214575 1
gene 1 4 15 0.181714 0 49854 0.181714 1
gene 1 7 16 -0.195115 0 50376 -0.195115 1
gene 1 8 2228 -1.37316 0 51239 -1.37316 1
gene 1 2228 1023 -0.197071 0 51240 0.0314622 1
gene 1 2228 2228 -0.778901 1 51745 -0.778901 1
gene 1 21 21 0.881366 1 52426 0.881366 1
gene 1 11 14 -0.86219 0 53527 -0.86219 1
gene 1 1023 13 -0.568895 0 54558 -0.568895 1
gene 1 6 23 -0.274761 0 54959 -0.274761 1
gene 1 23 2228 0.741862 0 55590 0.741862 1
gene 1 9 15 0.184627 0 55976 0.184627 1
gene 1 9 13 -0.147888 0 56605 -0.147888 1
gene 1 1 15 0.120016 0 56943 0.120016 1
gene 1 5 13 -0.867314 0 57183 -0.867314 1
gene 1 32 13 0.996057 0 57893 0.996057 1
genomeend 61
