/* Organism #57440912 Fitness: -0.436423 
genomestart 29
trait 1 0.667238 0.000477284 0.208237 0.690461 0 0.0569786 0.221509 0 
node 1 1 0
node 2 1 1
node 3 1 1
node 4 1 1
node 5 1 1
node 6 1 1
node 7 1 1
node 8 1 1
node 9 1 1
node 10 1 1
node 11 1 1
node 12 1 2
node 13 1 2
node 14 1 2
node 15 1 2
node 16 1 2
node 22 1 3
node 1546 1 3
node 1950 1 3
node 2370 1 3
gene 1 1 22 2.8763 0 6 2.8763 1
gene 1 2 22 0.978295 0 16 0.978295 1
gene 1 8 22 0.217299 0 76 0.217299 1
gene 1 22 12 0.245116 0 136 0.245116 1
gene 1 22 13 2.2985 0 137 2.2985 1
gene 1 22 16 1.32188 0 140 1.32188 1
gene 1 11 13 3.71647 0 1653 3.71647 1
gene 1 3 12 -1.2593 0 5096 -1.2593 1
gene 1 7 16 0.727861 0 6936 0.727861 1
gene 1 12 15 -3.73957 0 16831 -3.73957 1
gene 1 6 16 1.70965 0 19804 1.70965 1
gene 1 14 14 -1.59712 1 20053 -1.59712 1
gene 1 16 14 4.44263 0 20139 4.44263 1
gene 1 14 13 1.16538 0 20402 1.16538 1
gene 1 8 15 3.58794 0 25353 3.58794 1
gene 1 9 14 1.09507 0 27895 1.09507 1
gene 1 1 15 0.792942 0 29923 0.792942 1
gene 1 2 15 1.47745 0 30357 1.47745 1
gene 1 2 12 1.37592 0 32107 1.37592 1
gene 1 3 15 -0.192298 0 32934 -0.192298 1
gene 1 12 13 1.20216 0 34475 1.20216 1
gene 1 8 16 -0.699704 0 36473 -0.699704 1
gene 1 4 14 2.3318 0 37618 2.3318 1
gene 1 15 15 0.406894 1 38336 0.406894 1
gene 1 16 1546 2.23899 0 38567 2.23899 1
gene 1 13 13 -2.62199 1 40521 -2.62199 1
gene 1 8 13 2.50544 0 41239 2.50544 1
gene 1 6 22 1.88225 0 41775 1.88225 1
gene 1 22 15 -3.3369 0 42653 -3.3369 1
gene 1 7 22 1.89298 0 44669 1.89298 1
gene 1 1950 1950 2.13713 1 48391 2.13713 1
gene 1 1 14 0.877877 0 48875 0.877877 1
gene 1 1950 12 1.53595 0 49029 1.53595 1
gene 1 10 14 0.856887 0 49130 0.856887 1
gene 1 5 15 1.2742 0 49307 1.2742 1
gene 1 9 22 0.25096 0 51032 0.25096 1
gene 1 5 1546 -0.753538 0 51175 -0.753538 1
gene 1 9 15 -1.16959 0 52174 -1.16959 1
gene 1 13 1546 -1.4729 0 52380 -1.4729 1
gene 1 2370 1546 -0.830027 0 52588 -0.830027 1
gene 1 1546 15 1.45791 1 52876 1.45791 1
gene 1 8 14 -2.47382 0 53009 -2.47382 1
gene 1 16 16 0.589913 1 53592 0.589913 1
gene 1 22 22 1.88557 1 54027 1.88557 1
gene 1 9 2370 -0.179243 0 54618 -0.179243 1
genomeend 29
