/* Organism #54284656 Fitness: -1.86898 
genomestart 271
trait 1 0.816192 0.507358 0.348062 0.573123 0.921914 0.572213 0.202347 0.121229 
node 1 1 0
node 2 1 1
node 3 1 1
node 4 1 1
node 5 1 1
node 6 1 1
node 7 1 1
node 8 1 1
node 9 1 1
node 10 1 1
node 11 1 1
node 12 1 2
node 13 1 2
node 14 1 2
node 15 1 2
node 16 1 2
node 23 1 3
node 66 1 3
node 496 1 3
node 948 1 3
node 1193 1 3
node 1235 1 3
node 1324 1 3
node 1821 1 3
node 2199 1 3
node 2289 1 3
node 2467 1 3
gene 1 1 23 1.37121 0 7 1.37121 1
gene 1 4 23 -0.989945 0 37 -0.989945 1
gene 1 10 23 -1.37754 0 97 -1.37754 1
gene 1 23 13 1.28524 0 142 1.28524 1
gene 1 23 16 -0.0341134 0 145 -0.0341134 1
gene 1 66 12 -0.0521435 0 3814 -0.0521435 1
gene 1 10 12 -0.747092 0 4840 -0.747092 1
gene 1 4 14 1.88266 0 9563 1.88266 1
gene 1 3 15 0.967531 0 9703 0.967531 1
gene 1 23 496 0.768107 0 10756 0.768107 1
gene 1 496 12 0.331707 0 10757 0.331707 1
gene 1 12 15 -1.97284 0 11871 -1.97284 1
gene 1 7 496 -1.68066 0 16922 -1.68066 1
gene 1 10 948 2.19415 0 21211 2.19415 1
gene 1 948 66 -1.86501 0 21212 -1.86501 1
gene 1 16 13 1.73725 0 21596 1.73725 1
gene 1 14 496 -0.476037 0 21930 -0.476037 1
gene 1 10 14 -0.317843 0 23303 -0.317843 1
gene 1 15 16 0.298177 0 25831 0.298177 1
gene 1 1193 15 1.82581 0 26664 1.82581 1
gene 1 1235 12 0.144807 0 27655 0.144807 1
gene 1 6 16 1.66165 0 28580 1.66165 1
gene 1 1324 16 -0.246254 0 29248 -0.246254 1
gene 1 12 14 3.18902 1 29923 3.18902 1
gene 1 11 12 0.28593 0 33279 0.28593 1
gene 1 1235 66 -0.664509 0 33995 -0.664509 1
gene 1 4 496 0.475686 0 34283 0.475686 1
gene 1 8 16 -0.260663 0 36663 -0.260663 1
gene 1 1235 496 1.91998 0 37075 1.91998 1
gene 1 16 14 0.00279017 1 37398 0.00279017 1
gene 1 4 1193 -0.176438 0 38784 -0.176438 1
gene 1 14 14 0.307462 1 39587 0.307462 1
gene 1 11 16 1.8492 0 39779 1.8492 1
gene 1 2 1821 1.77566 0 40241 1.77566 1
gene 1 6 1324 0.179191 0 40795 0.179191 1
gene 1 1 13 0.644158 0 40870 0.644158 1
gene 1 948 1821 0.0930298 0 41083 0.0930298 1
gene 1 7 23 0.902086 0 42222 0.902086 1
gene 1 1324 15 0.646311 0 42408 0.646311 1
gene 1 66 496 -0.809384 0 42564 -0.809384 1
gene 1 948 948 0.796967 1 42740 0.796967 1
gene 1 1821 15 0.394989 0 43085 0.394989 1
gene 1 6 23 0.677562 0 43218 0.677562 1
gene 1 10 496 0.336544 0 43736 0.336544 1
gene 1 1821 12 -0.781773 0 43889 -0.781773 1
gene 1 16 16 0.685169 1 44258 0.685169 1
gene 1 66 13 -0.754449 0 44430 -0.754449 1
gene 1 2 23 0.534866 0 44645 0.534866 1
gene 1 8 1193 -0.454959 0 45437 -0.454959 1
gene 1 11 13 -0.313001 0 45801 -0.313001 1
gene 1 1821 1235 -0.226714 0 46379 -0.226714 1
gene 1 6 1193 0.570954 0 46486 0.570954 1
gene 1 1193 496 -0.241252 0 46602 -0.241252 1
gene 1 5 16 -0.0754796 0 46800 -0.0754796 1
gene 1 1 948 0.677424 0 47258 0.677424 1
gene 1 11 14 -0.323962 0 47359 -0.323962 1
gene 1 66 16 0.97148 0 47545 0.97148 1
gene 1 3 948 1.19465 0 48323 1.19465 1
gene 1 14 2199 1.35515 0 48486 1.10858 1
gene 1 2199 13 1.29174 0 48487 0.73252 1
gene 1 2 2199 -0.933124 0 49495 -0.933124 1
gene 1 948 16 -0.878246 0 49798 -0.878246 1
gene 1 1324 1235 0.438956 0 49971 0.438956 1
gene 1 10 66 -0.00516502 0 50461 -0.00516502 1
gene 1 9 2289 0.893475 0 50639 0.173077 1
gene 1 2199 2199 0.69019 1 50856 0.69019 1
gene 1 1235 2199 0.187196 0 51594 0.187196 1
gene 1 1235 2289 0.524363 0 52336 0.524363 1
gene 1 9 2199 0.114056 0 52702 0.114056 1
gene 1 11 66 -0.502226 0 53037 -0.502226 1
gene 1 9 13 -0.144771 0 53180 -0.144771 1
gene 1 1193 948 -0.809587 0 53305 -0.809587 1
gene 1 1235 14 -0.906267 0 53677 -0.906267 1
gene 1 2289 1324 0.0268945 1 54593 0.0268945 1
gene 1 5 496 -0.428846 0 54767 -0.428846 1
gene 1 1821 2467 0.99514 0 54947 0.299828 1
gene 1 2467 13 -0.264163 0 54948 -0.177138 1
gene 1 1 16 1.28369 0 56726 1.28369 1
gene 1 6 15 0.511984 0 56846 0.511984 1
gene 1 5 14 -0.673456 0 57405 -0.673456 1
gene 1 1193 12 0.367969 0 57537 0.367969 1
gene 1 6 2289 0.375816 0 57769 0.375816 1
gene 1 2 1235 0.039037 0 57975 0.039037 1
gene 1 23 2289 -0.770576 0 58355 -0.770576 1
gene 1 2199 66 -0.198875 0 59202 -0.198875 1
genomeend 271
