/* Organism #140562656409672 Fitness: -3.52544 
genomestart 17
trait 1 0.52276 0.129049 0.166623 1 1 0.0359584 0.988798 0.96455 
node 1 1 0
node 2 1 1
node 3 1 1
node 4 1 1
node 5 1 1
node 6 1 1
node 7 1 1
node 8 1 1
node 9 1 1
node 10 1 1
node 11 1 1
node 12 1 2
node 13 1 2
node 14 1 2
node 15 1 2
node 16 1 2
node 17 1 3
node 22 1 3
node 1147 1 3
node 1907 1 3
node 2080 1 3
node 2167 1 3
gene 1 4 17 2.10878 0 31 2.10878 1
gene 1 4 22 5.07065 0 36 5.07065 1
gene 1 7 17 -3.28413 0 61 -3.28413 1
gene 1 9 17 1.88425 0 81 1.88425 1
gene 1 10 17 -3.263 0 91 -3.263 1
gene 1 11 17 -0.189431 0 101 -0.189431 1
gene 1 11 22 2.41119 0 106 2.41119 1
gene 1 17 12 2.97794 0 111 2.97794 1
gene 1 17 13 -2.25701 0 112 -2.25701 1
gene 1 17 14 1.45302 0 113 1.45302 1
gene 1 22 12 3.11042 0 136 3.11042 1
gene 1 22 13 1.18475 0 137 1.18475 1
gene 1 22 15 -2.2413 0 139 -2.2413 1
gene 1 22 16 -1.74134 0 140 -1.74134 1
gene 1 22 22 4.8906 1 950 4.8906 1
gene 1 14 14 5.79072 1 3260 5.79072 1
gene 1 13 16 4.54829 0 3945 4.54829 1
gene 1 12 15 -2.78703 0 7101 -2.78703 1
gene 1 1 16 -6.26062 0 8215 -6.26062 1
gene 1 10 12 3.39789 0 13430 3.39789 1
gene 1 8 15 -2.29269 0 15547 -2.29269 1
gene 1 5 14 -0.473965 0 17295 -0.473965 1
gene 1 3 14 -3.46719 0 19517 -3.46719 1
gene 1 22 17 -3.77203 0 21864 -3.77203 1
gene 1 1147 1147 1.19683 1 24741 1.19683 1
gene 1 2 13 0.134025 0 25782 0.134025 1
gene 1 4 14 4.08416 0 26744 4.08416 1
gene 1 15 15 -3.0602 1 27655 -3.0602 1
gene 1 9 13 2.74841 0 28314 2.74841 1
gene 1 5 15 2.9697 0 28650 2.9697 1
gene 1 12 22 -1.18002 1 28927 -1.18002 1
gene 1 3 15 -2.66246 0 29666 -2.66246 1
gene 1 15 16 -0.663991 0 31937 -0.663991 1
gene 1 9 15 -1.43973 0 32268 -1.43973 1
gene 1 10 14 -3.95481 0 35544 -3.95481 1
gene 1 6 16 -1.56039 0 35689 -1.56039 1
gene 1 13 14 4.2594 0 35896 4.2594 1
gene 1 11 14 0.425565 0 36356 0.425565 1
gene 1 3 13 2.19585 0 38313 2.19585 1
gene 1 7 14 -0.681869 0 38967 -0.681869 1
gene 1 2 15 2.56585 0 39377 2.56585 1
gene 1 3 16 0.533327 0 39931 0.533327 1
gene 1 5 1147 -6.54267 0 40514 -6.54267 1
gene 1 5 16 2.00984 0 40739 2.00984 1
gene 1 10 15 -0.615635 0 40911 -0.615635 1
gene 1 16 16 1.39176 1 41058 1.39176 1
gene 1 3 1907 0.687504 0 42036 0.687504 1
gene 1 1 14 3.14431 0 42184 3.14431 1
gene 1 1907 1907 -0.48141 1 42759 -0.48141 1
gene 1 13 2080 2.28847 1 43819 2.28847 1
gene 1 2080 13 -0.611641 0 43820 -0.611641 1
gene 1 2080 2080 1.11946 1 44077 1.11946 1
gene 1 6 2167 4.3971 0 45451 4.3971 1
gene 1 2167 1147 0.848678 0 45452 0.848678 1
gene 1 6 15 -1.06563 0 46087 -1.06563 1
gene 1 9 22 -0.836248 0 46217 -0.836248 1
gene 1 14 1907 -1.41647 0 46885 -1.41647 1
gene 1 12 14 1.05232 0 46986 1.05232 1
gene 1 4 2167 -0.455905 0 47346 -0.455905 1
gene 1 22 1147 0.731 0 47478 0.731 1
gene 1 13 13 -1.57111 1 48583 -1.57111 1
gene 1 8 13 -1.76483 0 48746 -1.76483 1
gene 1 2167 17 0.648369 0 49494 0.648369 1
gene 1 7 15 0.0666454 0 49834 0.0666454 1
gene 1 2080 2167 -1.47196 0 49979 -1.47196 1
gene 1 2167 2080 0.155025 1 51457 0.155025 1
gene 1 22 2080 -0.77529 0 51914 -0.77529 1
genomeend 17
