/* Organism #175 Fitness: 1.008 Error: 0.992 */
genomestart 175
trait 1 0.147943 0.616298 0.21521 0.175884 0.959877 0.268798 0.715304 0.15 
node 1 1 0
node 2 1 1
node 3 1 1
node 4 1 1
node 5 1 1
node 6 1 1
node 7 1 1
node 8 1 1
node 9 1 1
node 10 1 2
node 11 1 2
node 12 1 2
node 13 1 2
node 14 1 2
node 15 1 2
node 16 1 2
node 17 1 2
node 18 1 2
node 19 1 2
node 20 1 2
node 23 1 3
node 25 1 3
node 27 1 3
gene 1 1 23 3.40423 0 3 3.40423 1
gene 1 1 25 0.85719 0 5 0.85719 1
gene 1 1 27 -4.24772 0 7 -4.24772 1
gene 1 2 23 2.86279 0 11 2.86279 1
gene 1 2 27 -0.569144 0 15 -0.569144 1
gene 1 3 23 -1.4818 0 19 -1.4818 1
gene 1 3 25 1.50893 0 21 1.50893 1
gene 1 3 27 0.308662 0 23 0.308662 1
gene 1 4 23 -0.773504 0 27 -0.773504 1
gene 1 4 25 2.02154 0 29 2.02154 1
gene 1 4 27 -2.41366 0 31 -2.41366 1
gene 1 5 23 -5.07342 0 35 -5.07342 1
gene 1 5 25 4.26861 0 37 4.26861 1
gene 1 6 25 0.576921 0 45 0.576921 1
gene 1 6 27 -1.90582 0 47 -1.90582 1
gene 1 7 23 -2.13541 0 51 -2.13541 1
gene 1 7 25 -0.502973 0 53 -0.502973 1
gene 1 7 27 1.09582 0 55 1.09582 1
gene 1 8 23 -1.03544 0 59 -1.03544 1
gene 1 8 25 -2.11666 0 61 -2.11666 1
gene 1 8 27 3.66254 0 63 3.66254 1
gene 1 9 23 3.45876 0 67 3.45876 1
gene 1 9 25 1.0553 0 69 1.0553 1
gene 1 9 27 0.905869 0 71 0.905869 1
gene 1 23 10 -3.79001 0 95 -3.79001 1
gene 1 23 11 0.0701638 0 96 0.0701638 1
gene 1 23 12 3.78621 0 97 3.78621 1
gene 1 23 13 -0.769235 0 98 -0.769235 1
gene 1 23 14 -2.80139 0 99 -2.80139 1
gene 1 23 15 0.915037 0 100 0.915037 1
gene 1 23 16 -2.71981 0 101 -2.71981 1
gene 1 23 18 3.23287 0 103 3.23287 1
gene 1 23 19 0.640997 0 104 0.640997 1
gene 1 23 20 0.427588 0 105 0.427588 1
gene 1 25 10 0.0690116 0 117 0.0690116 1
gene 1 25 11 1.24356 0 118 1.24356 1
gene 1 25 12 7.0847 0 119 7.0847 1
gene 1 25 13 0.591903 0 120 0.591903 1
gene 1 25 14 -1.09631 0 121 -1.09631 1
gene 1 25 15 -2.73954 0 122 -2.73954 1
gene 1 25 16 3.71205 0 123 3.71205 1
gene 1 25 17 -0.489662 0 124 -0.489662 1
gene 1 25 19 -2.82323 0 126 -2.82323 1
gene 1 25 20 -2.54625 0 127 -2.54625 1
gene 1 27 10 -3.42752 0 139 -3.42752 1
gene 1 27 11 1.34097 0 140 1.34097 1
gene 1 27 12 -0.990541 0 141 -0.990541 1
gene 1 27 13 1.37261 0 142 1.37261 1
gene 1 27 14 0.152465 0 143 0.152465 1
gene 1 27 15 5.3044 0 144 5.3044 1
gene 1 27 17 2.38132 0 146 2.38132 1
gene 1 27 18 -1.68182 0 147 -1.68182 1
gene 1 27 20 0.307558 0 149 0.307558 1
gene 1 9 14 -2.98044 0 523 -2.98044 1
gene 1 19 17 -1.02461 0 643 -1.02461 1
gene 1 12 19 -0.650117 0 878 -0.650117 1
gene 1 9 13 2.34374 0 1146 2.34374 1
gene 1 6 11 1.11795 0 1896 1.11795 1
gene 1 16 12 -0.731429 0 2231 -0.731429 1
gene 1 11 20 0.0303151 0 2460 0.0303151 1
gene 1 2 15 0.318585 0 3189 0.318585 1
gene 1 14 11 -0.00731 0 4112 -0.00731 1
gene 1 2 13 0.47696 0 4474 0.47696 1
gene 1 5 10 -0.790053 0 4557 -0.790053 1
genomeend 175
