/* Organism #80574048 Fitness: -28490.6 
genomestart 117
trait 1 0.836703 0.806331 0.640798 0.733406 0.631172 0.638506 1 0.38012 
node 1 1 0
node 2 1 1
node 3 1 1
node 4 1 1
node 5 1 1
node 6 1 1
node 7 1 1
node 8 1 1
node 9 1 1
node 10 1 1
node 11 1 1
node 12 1 2
node 13 1 2
node 14 1 2
node 15 1 2
node 16 1 2
node 17 1 2
node 18 1 2
node 19 1 2
node 20 1 2
node 21 1 2
node 22 1 2
node 23 1 2
node 24 1 2
node 25 1 2
node 26 1 3
node 28 1 3
node 31 1 3
node 34 1 3
node 339 1 3
node 734 1 3
node 841 1 3
node 1230 1 3
node 1537 1 3
node 1845 1 3
node 1857 1 3
node 2002 1 3
node 2319 1 3
node 2515 1 3
gene 1 1 26 1.45771 0 1 1.45771 1
gene 1 1 28 -0.458827 0 3 -0.458827 1
gene 1 1 31 0.170186 0 6 0.170186 1
gene 1 1 34 -2.93236 0 9 -2.93236 1
gene 1 2 28 -2.3495 0 13 -2.3495 1
gene 1 2 31 1.00871 0 16 1.00871 1
gene 1 3 26 -0.6085 0 21 -0.6085 1
gene 1 3 28 1.92212 0 23 1.92212 1
gene 1 3 31 2.79017 0 26 2.79017 1
gene 1 3 34 -0.478034 0 29 -0.478034 1
gene 1 4 26 -0.339638 0 31 -0.339638 1
gene 1 4 28 -0.468329 0 33 -0.468329 1
gene 1 4 31 0.14425 0 36 0.14425 1
gene 1 4 34 -1.59875 0 39 -1.59875 1
gene 1 5 28 4.23661 0 43 4.23661 1
gene 1 5 31 2.82861 0 46 2.82861 1
gene 1 5 34 1.44347 0 49 1.44347 1
gene 1 6 31 2.27763 0 56 2.27763 1
gene 1 7 26 0.656883 0 61 0.656883 1
gene 1 8 26 -1.69623 0 71 -1.69623 1
gene 1 8 28 0.658981 0 73 0.658981 1
gene 1 8 31 -0.913335 0 76 -0.913335 1
gene 1 9 26 2.95115 0 81 2.95115 1
gene 1 9 28 -0.11125 0 83 -0.11125 1
gene 1 10 26 0.56089 0 91 0.56089 1
gene 1 10 28 -0.10004 0 93 -0.10004 1
gene 1 11 31 4.90778 0 106 4.90778 1
gene 1 11 34 -0.367511 0 109 -0.367511 1
gene 1 26 12 -0.475121 0 111 -0.475121 1
gene 1 26 14 6.53838 0 113 6.53838 1
gene 1 26 15 -0.656661 0 114 -0.656661 1
gene 1 26 16 -1.29752 0 115 -1.29752 1
gene 1 26 17 -0.85299 0 116 -0.85299 1
gene 1 26 18 3.32274 0 117 3.32274 1
gene 1 26 19 -1.13802 0 118 -1.13802 1
gene 1 26 21 -4.63831 0 120 -4.63831 1
gene 1 26 22 0.00803768 0 121 0.00803768 1
gene 1 26 24 -0.386849 0 123 -0.386849 1
gene 1 26 25 -0.282493 0 124 -0.282493 1
gene 1 28 15 -4.70261 0 142 -4.70261 1
gene 1 28 16 -0.692884 0 143 -0.692884 1
gene 1 28 19 -0.705663 0 146 -0.705663 1
gene 1 28 21 0.515423 0 148 0.515423 1
gene 1 28 22 -3.4897 0 149 -3.4897 1
gene 1 28 24 0.540355 0 151 0.540355 1
gene 1 28 25 -3.00119 0 152 -3.00119 1
gene 1 31 12 2.885 0 181 2.885 1
gene 1 31 13 -4.2863 0 182 -4.2863 1
gene 1 31 15 -0.688705 0 184 -0.688705 1
gene 1 31 17 1.18462 0 186 1.18462 1
gene 1 31 18 0.2349 0 187 0.2349 1
gene 1 31 20 -4.74298 0 189 -4.74298 1
gene 1 31 22 1.92765 0 191 1.92765 1
gene 1 31 23 1.39694 0 192 1.39694 1
gene 1 31 25 2.57488 0 194 2.57488 1
gene 1 34 12 -1.90209 0 223 -1.90209 1
gene 1 34 15 -0.985107 0 226 -0.985107 1
gene 1 34 19 -2.71888 0 230 -2.71888 1
gene 1 34 23 1.06322 0 234 1.06322 1
gene 1 34 25 -1.89172 0 236 -1.89172 1
gene 1 11 15 -5.04245 0 1499 -5.04245 1
gene 1 19 15 -0.00128456 0 1769 -0.00128456 1
gene 1 12 12 -1.38247 1 2167 -1.38247 1
gene 1 20 25 3.77765 0 3030 3.77765 1
gene 1 14 16 -3.22471 0 4613 -3.22471 1
gene 1 2 24 1.83404 0 4970 1.83404 1
gene 1 20 17 -0.387516 0 5136 -0.387516 1
gene 1 1 21 -2.06841 0 6640 -2.06841 1
gene 1 21 21 -0.244956 1 8260 -0.244956 1
gene 1 3 19 1.28979 0 8665 1.28979 1
gene 1 339 28 0.319629 0 8859 0.319629 1
gene 1 25 24 2.54551 0 9224 2.54551 1
gene 1 2 17 -0.849364 0 9331 -0.849364 1
gene 1 22 22 -0.788965 1 10909 -0.788965 1
gene 1 4 17 1.38703 0 11983 1.38703 1
gene 1 34 339 -1.317 0 12751 -1.317 1
gene 1 4 16 2.15362 0 13152 2.15362 1
gene 1 4 18 1.53983 0 13714 1.53983 1
gene 1 4 15 -0.0387406 0 14669 -0.0387406 1
gene 1 8 15 -0.188043 0 16257 -0.188043 1
gene 1 8 22 1.73023 0 17015 1.73023 1
gene 1 23 23 1.7789 1 17622 1.7789 1
gene 1 8 24 -0.678364 0 17964 -0.678364 1
gene 1 6 19 -0.685393 0 18639 -0.685393 1
gene 1 734 19 0.958265 0 19313 0.958265 1
gene 1 14 19 0.359736 0 20038 0.359736 1
gene 1 18 20 -0.187225 0 20500 -0.187225 1
gene 1 25 22 0.855518 0 20956 0.855518 1
gene 1 13 13 0.632238 1 21102 0.632238 1
gene 1 8 20 -0.40501 0 21274 -0.40501 1
gene 1 8 841 0.868962 0 22155 0.868962 1
gene 1 25 25 -0.717718 1 22394 -0.717718 1
gene 1 9 12 0.267783 0 22872 0.267783 1
gene 1 14 22 -0.738039 0 23281 -0.738039 1
gene 1 26 31 -1.6344 0 24986 -1.6344 1
gene 1 5 19 -0.0520444 0 25208 -0.0520444 1
gene 1 841 13 -0.0918426 0 26481 -0.0918426 1
gene 1 24 21 0.397467 0 27088 0.397467 1
gene 1 22 17 -0.268519 0 27695 -0.268519 1
gene 1 20 21 -0.0490683 0 28301 -0.0490683 1
gene 1 31 31 -1.41306 1 28486 -1.41306 1
gene 1 734 23 1.36416 0 28857 1.36416 1
gene 1 2 18 1.40089 0 29311 1.40089 1
gene 1 7 339 1.17021 0 29966 1.17021 1
gene 1 15 12 0.26018 0 31334 0.26018 1
gene 1 1 841 -0.0125558 0 32011 -0.0125558 1
gene 1 1230 13 -0.751582 0 32226 -0.749715 1
gene 1 18 25 -0.901389 0 32448 -0.901389 1
gene 1 13 24 0.388457 0 33442 0.388457 1
gene 1 18 18 0.327603 1 33499 0.327603 1
gene 1 9 23 1.44407 0 33721 1.44407 1
gene 1 17 18 0.195256 1 34955 0.195256 1
gene 1 8 13 0.337202 0 35554 0.337202 1
gene 1 19 20 0.340381 0 36170 0.340381 1
gene 1 9 734 -0.0229159 0 36534 -0.0229159 1
gene 1 6 25 0.35356 0 38420 0.35356 1
gene 1 22 21 -1.93508 0 38618 -1.93508 1
gene 1 11 18 -0.66551 0 39047 -0.66551 1
gene 1 734 734 -0.230513 1 39466 -0.230513 1
gene 1 1230 24 -0.690858 0 39664 -0.690858 1
gene 1 34 31 -0.982409 0 40067 -0.982409 1
gene 1 8 339 -0.243191 0 40855 -0.243191 1
gene 1 1537 25 -0.138583 0 41031 -0.132852 1
gene 1 1 15 -0.0923446 0 41196 -0.0923446 1
gene 1 1537 339 -0.533094 0 41665 -0.533094 1
gene 1 19 19 -0.138448 1 42295 -0.138448 1
gene 1 5 734 -0.484071 0 42949 -0.484071 1
gene 1 8 19 -0.438533 0 43140 -0.438533 1
gene 1 18 23 -1.17687 0 44795 -1.17687 1
gene 1 1230 14 0.437748 0 45545 0.437748 1
gene 1 25 23 0.114668 0 48124 0.114668 1
gene 1 9 1845 0.777256 0 49341 0.766741 1
gene 1 1857 17 -0.32022 0 49787 -0.32627 1
gene 1 734 1537 0.706501 0 50786 0.706501 1
gene 1 20 14 -1.07356 1 51222 -1.07356 1
gene 1 31 1857 0.102213 0 53106 0.102213 1
gene 1 31 2002 1.43724 0 53773 1.43724 1
gene 1 2002 19 0.638936 0 53774 0.648952 1
gene 1 20 23 -0.352475 0 53950 -0.352475 1
gene 1 734 339 -0.777589 0 54391 -0.777589 1
gene 1 25 734 -0.819192 1 57126 -0.819192 1
gene 1 11 13 0.637518 0 57527 0.637518 1
gene 1 20 339 -0.1764 1 57656 -0.1764 1
gene 1 14 14 -0.387519 1 58094 -0.387519 1
gene 1 2 12 0.0885925 0 58772 0.0885925 1
gene 1 17 17 0.454479 1 58986 0.454479 1
gene 1 14 21 0.650407 0 59230 0.650407 1
gene 1 6 24 0.748482 0 59371 0.748482 1
gene 1 5 25 -0.525185 0 60581 -0.525185 1
gene 1 10 2002 0.586277 0 61196 0.586277 1
gene 1 6 21 0.968524 0 61416 0.968524 1
gene 1 1537 841 -0.438946 0 61669 -0.438946 1
gene 1 2 21 -0.626125 0 61837 -0.626125 1
gene 1 1537 26 0.1357 0 62096 0.1357 1
gene 1 13 12 0.14022 0 62319 0.14022 1
gene 1 2002 28 -0.150927 0 62448 -0.150927 1
gene 1 6 1845 0.064144 0 62600 0.064144 1
gene 1 339 15 -0.515047 0 63085 -0.515047 1
gene 1 28 2319 0.204525 0 63339 -0.107975 1
gene 1 2319 12 0.484436 0 63340 0.148478 1
gene 1 9 339 -0.522121 0 63980 -0.522121 1
gene 1 6 1537 1.30391 0 64208 1.30391 1
gene 1 19 13 0.0566345 0 64985 0.0566345 1
gene 1 13 23 -0.569647 0 65179 -0.569647 1
gene 1 4 23 0.6456 0 65378 0.6456 1
gene 1 14 25 0.138672 0 65964 0.138672 1
gene 1 3 1845 0.796389 0 66060 0.796389 1
gene 1 841 15 0.110822 0 66378 0.110822 1
gene 1 734 2002 -0.0712174 0 66499 -0.0712174 1
gene 1 2319 17 0.642068 0 66753 0.642068 1
gene 1 10 23 0.286135 0 66918 0.286135 1
gene 1 6 22 0.0847054 0 67421 0.0847054 1
gene 1 339 2002 0.862731 0 67899 0.862731 1
gene 1 1537 1537 -0.79275 1 68439 -0.79275 1
gene 1 23 841 0.790916 1 69070 0.790916 1
gene 1 10 2515 1 0 69284 0 1
gene 1 2515 34 0.973193 0 69285 0 1
gene 1 16 1857 0.358405 0 69717 0.358405 1
genomeend 117
