/* Organism #35272000 Fitness: -2018.89 
genomestart 232
trait 1 0.581509 0 0.935706 0.517736 0.764764 1 0.167577 0.556927 
node 1 1 0
node 2 1 1
node 3 1 1
node 4 1 1
node 5 1 1
node 6 1 1
node 7 1 1
node 8 1 1
node 9 1 1
node 10 1 1
node 11 1 1
node 12 1 2
node 13 1 2
node 14 1 2
node 15 1 2
node 16 1 2
node 17 1 2
node 18 1 2
node 19 1 2
node 20 1 2
node 21 1 2
node 22 1 2
node 23 1 2
node 24 1 2
node 25 1 2
node 27 1 3
node 29 1 3
node 31 1 3
node 33 1 3
node 488 1 3
node 812 1 3
node 951 1 3
node 1005 1 3
node 1218 1 3
node 1535 1 3
node 1922 1 3
node 2252 1 3
node 2259 1 3
gene 1 1 27 -8 0 2 -8 1
gene 1 1 29 -6.73515 0 4 -6.73515 1
gene 1 1 31 -1.41266 0 6 -1.41266 1
gene 1 2 27 -2.96383 0 12 -2.96383 1
gene 1 2 29 5.42054 0 14 5.42054 1
gene 1 2 33 0.0747988 0 18 0.0747988 1
gene 1 3 29 4.48348 0 24 4.48348 1
gene 1 3 33 -0.247282 0 28 -0.247282 1
gene 1 4 31 -0.407265 0 36 -0.407265 1
gene 1 5 27 -2.87891 0 42 -2.87891 1
gene 1 5 31 -5.79054 0 46 -5.79054 1
gene 1 5 33 -5.01293 0 48 -5.01293 1
gene 1 6 29 1.93726 0 54 1.93726 1
gene 1 7 31 3.55207 0 66 3.55207 1
gene 1 7 33 -2.72757 0 68 -2.72757 1
gene 1 8 27 -0.49381 0 72 -0.49381 1
gene 1 8 31 -0.0221733 0 76 -0.0221733 1
gene 1 9 27 -2.19492 0 82 -2.19492 1
gene 1 9 29 -1.5251 0 84 -1.5251 1
gene 1 9 31 -2.24961 0 86 -2.24961 1
gene 1 9 33 -3.34724 0 88 -3.34724 1
gene 1 10 27 -1.04838 0 92 -1.04838 1
gene 1 10 33 0.131985 0 98 0.131985 1
gene 1 11 27 0.981533 0 102 0.981533 1
gene 1 11 29 -4.59047 0 104 -4.59047 1
gene 1 27 12 0.624472 0 125 0.624472 1
gene 1 27 13 3.72529 0 126 3.72529 1
gene 1 27 14 -4.1982 0 127 -4.1982 1
gene 1 27 17 -2.64092 0 130 -2.64092 1
gene 1 27 18 -0.238549 0 131 -0.238549 1
gene 1 27 20 2.42884 0 133 2.42884 1
gene 1 27 23 1.25401 0 136 1.25401 1
gene 1 27 25 3.56798 0 138 3.56798 1
gene 1 29 12 -1.96964 0 153 -1.96964 1
gene 1 29 13 2.64932 0 154 2.64932 1
gene 1 29 14 0.929182 0 155 0.929182 1
gene 1 29 15 -1.80619 0 156 -1.80619 1
gene 1 29 16 1.33476 0 157 1.33476 1
gene 1 29 20 7.67246 0 161 7.67246 1
gene 1 29 21 2.04157 0 162 2.04157 1
gene 1 29 23 1.95857 0 164 1.95857 1
gene 1 29 25 -2.19896 0 166 -2.19896 1
gene 1 31 12 -6.74994 0 181 -6.74994 1
gene 1 31 15 2.87572 0 184 2.87572 1
gene 1 31 16 -0.333253 0 185 -0.333253 1
gene 1 31 17 3.67667 0 186 3.67667 1
gene 1 31 18 7.74973 0 187 7.74973 1
gene 1 31 19 5.03338 0 188 5.03338 1
gene 1 31 20 2.95424 0 189 2.95424 1
gene 1 31 21 -0.282322 0 190 -0.282322 1
gene 1 31 22 1.85812 0 191 1.85812 1
gene 1 33 12 -6.72673 0 209 -6.72673 1
gene 1 33 13 -2.84894 0 210 -2.84894 1
gene 1 33 16 3.5529 0 213 3.5529 1
gene 1 33 18 -0.0753851 0 215 -0.0753851 1
gene 1 33 20 -3.34663 0 217 -3.34663 1
gene 1 33 21 5.5534 0 218 5.5534 1
gene 1 33 22 0.445963 0 219 0.445963 1
gene 1 33 23 -1.20248 0 220 -1.20248 1
gene 1 33 24 2.19344 0 221 2.19344 1
gene 1 33 25 -2.5585 0 222 -2.5585 1
gene 1 31 31 3.66706 1 460 3.66706 1
gene 1 19 13 3.14513 0 5425 3.14513 1
gene 1 27 27 -1.98435 1 6589 -1.98435 1
gene 1 17 23 0.858342 0 7365 0.858342 1
gene 1 25 21 -2.50896 0 8447 -2.50896 1
gene 1 23 22 -0.591178 0 9284 -0.591178 1
gene 1 9 23 -0.346693 0 11942 -0.346693 1
gene 1 3 13 -3.68686 0 12328 -3.68686 1
gene 1 1 19 1.82256 0 13744 1.82256 1
gene 1 11 17 -2.95929 0 13962 -2.95929 1
gene 1 14 24 -0.167217 0 19233 -0.167217 1
gene 1 11 22 1.74731 0 19633 1.74731 1
gene 1 13 13 0.669559 1 20941 0.669559 1
gene 1 29 812 3.48628 0 21708 3.48628 1
gene 1 812 24 6.8526 0 21709 6.8526 1
gene 1 10 17 -1.32212 0 22183 -1.32212 1
gene 1 7 18 -1.66307 0 23020 -1.66307 1
gene 1 7 488 -0.854892 0 23254 -0.854892 1
gene 1 16 16 4.2246 1 23827 4.2246 1
gene 1 14 14 1.47772 1 24229 1.47772 1
gene 1 13 24 3.51275 0 24662 3.51275 1
gene 1 4 1005 -1.05428 0 27312 -1.05428 1
gene 1 1005 33 1.91583 0 27313 1.91583 1
gene 1 9 25 -3.64454 0 27536 -3.64454 1
gene 1 812 18 -0.395597 0 28353 -0.395597 1
gene 1 12 12 -1.50076 1 28802 -1.50076 1
gene 1 15 17 -0.596248 0 29977 -0.596248 1
gene 1 9 1005 0.0919687 0 30507 0.0919687 1
gene 1 8 15 -1.74733 0 30719 -1.74733 1
gene 1 14 1005 -0.00722153 0 31571 -0.00722153 1
gene 1 24 24 -0.172349 1 33142 -0.172349 1
gene 1 6 19 -0.722066 0 33473 -0.722066 1
gene 1 7 21 -2.64544 0 33692 -2.64544 1
gene 1 22 24 -4.48304 0 34067 -4.48304 1
gene 1 19 24 -1.13557 0 34354 -1.13557 1
gene 1 3 812 -3.0137 0 34938 -3.0137 1
gene 1 18 14 -1.1123 1 35157 -1.1123 1
gene 1 1005 23 1.2235 0 35575 1.2235 1
gene 1 12 488 0.343524 0 36883 0.343524 1
gene 1 1 15 2.09168 0 37985 2.09168 1
gene 1 14 33 -2.75272 0 39026 -2.75272 1
gene 1 1 13 1.62944 0 40871 1.62944 1
gene 1 22 1535 2.16778 0 42469 2.16778 1
gene 1 1535 21 1.55821 0 42470 1.55315 1
gene 1 15 1005 -2.00431 0 42912 -2.00431 1
gene 1 2 1218 -2.60965 0 43589 -2.60965 1
gene 1 15 33 -1.34171 0 43900 -1.34171 1
gene 1 10 22 -1.64728 0 44935 -1.64728 1
gene 1 17 25 0.893139 0 45548 0.893139 1
gene 1 21 16 -0.156035 0 45978 -0.156035 1
gene 1 29 29 0.0384176 1 46395 0.0384176 1
gene 1 19 16 -0.605902 0 47066 -0.605902 1
gene 1 27 1535 0.650208 0 47347 0.650208 1
gene 1 1535 25 -0.0797818 0 47521 -0.0797818 1
gene 1 14 20 -0.583095 0 48926 -0.583095 1
gene 1 16 24 -2.02605 0 49964 -2.02605 1
gene 1 21 24 0.989143 0 50335 0.989143 1
gene 1 16 951 1.63125 0 50774 1.63125 1
gene 1 10 16 -0.864227 0 51394 -0.864227 1
gene 1 15 15 1.77187 1 51525 1.77187 1
gene 1 488 22 0.876752 0 51791 0.876752 1
gene 1 6 1005 0.589979 0 51983 0.589979 1
gene 1 20 18 1.47058 0 52403 1.47058 1
gene 1 12 24 -0.0513118 0 53002 -0.0513118 1
gene 1 3 1922 0.737393 0 53190 0.724261 1
gene 1 21 14 -1.17717 1 54854 -1.17717 1
gene 1 27 812 -0.795205 0 55440 -0.795205 1
gene 1 1 951 0.449264 0 55674 0.449264 1
gene 1 29 27 -0.847402 0 56318 -0.847402 1
gene 1 27 1005 -0.229036 0 57450 -0.229036 1
gene 1 15 951 -0.460547 0 58104 -0.460547 1
gene 1 951 12 -1.32799 0 58328 -1.32799 1
gene 1 23 23 -0.256507 1 58544 -0.256507 1
gene 1 21 951 0.296337 0 58756 0.296337 1
gene 1 17 17 0.200521 1 58989 0.200521 1
gene 1 4 21 -0.511687 0 59355 -0.511687 1
gene 1 15 21 -0.382667 0 59834 -0.382667 1
gene 1 4 27 0.913988 0 60224 0.913988 1
gene 1 10 12 -0.128529 0 60314 -0.128529 1
gene 1 3 12 -0.415027 0 60543 -0.415027 1
gene 1 18 18 -0.315818 1 61280 -0.315818 1
gene 1 2 951 -0.147676 0 61724 -0.147676 1
gene 1 11 951 1.12676 0 61938 1.12676 1
gene 1 21 18 -0.528063 0 62764 -0.528063 1
gene 1 25 2252 0.225138 0 62972 0.225138 1
gene 1 2252 18 1.56189 0 62973 1.23168 1
gene 1 17 2259 0.847517 0 63192 0.285017 1
gene 1 2259 18 1.26574 0 63193 1.182 1
gene 1 12 25 0.62186 0 63693 0.62186 1
gene 1 2252 2252 -0.283059 1 64201 -0.283059 1
gene 1 951 23 0.359515 0 64395 0.359515 1
gene 1 8 18 -0.0541073 0 64992 -0.0541073 1
gene 1 24 2259 -0.507471 0 65679 -0.507471 1
gene 1 8 16 0.264857 0 66108 0.264857 1
gene 1 812 2259 -0.95969 0 66746 -0.95969 1
gene 1 2 12 -0.663717 0 67841 -0.663717 1
gene 1 27 21 -0.239428 0 68065 -0.239428 1
gene 1 31 14 -0.405611 0 68185 -0.405611 1
gene 1 11 1922 0.186908 0 69668 0.186908 1
gene 1 25 25 0.050472 1 69893 0.050472 1
gene 1 22 22 -1.20964 1 70071 -1.20964 1
gene 1 22 1922 0.599497 0 70303 0.599497 1
gene 1 8 33 1.22135 0 70706 1.22135 1
gene 1 7 13 -0.248492 0 71344 -0.248492 1
gene 1 19 21 -0.947229 0 71387 -0.947229 1
gene 1 812 812 -0.0175345 1 71640 -0.0175345 1
gene 1 1005 812 0.169175 0 71896 0.169175 1
gene 1 3 15 0.625313 0 72402 0.625313 1
gene 1 2252 21 0.721108 1 72556 0.721108 1
genomeend 232
