/* Organism #41792720 Fitness: -1412.99 
genomestart 214
trait 1 0.401423 0.863824 0.232654 0.985973 0.320784 0.311198 0.963704 0.000508215 
node 1 1 0
node 2 1 1
node 3 1 1
node 4 1 1
node 5 1 1
node 6 1 1
node 7 1 1
node 8 1 1
node 9 1 1
node 10 1 1
node 11 1 1
node 12 1 2
node 13 1 2
node 14 1 2
node 15 1 2
node 16 1 2
node 17 1 2
node 18 1 2
node 19 1 2
node 20 1 2
node 21 1 2
node 22 1 2
node 23 1 2
node 24 1 2
node 25 1 2
node 28 1 3
node 29 1 3
node 30 1 3
node 31 1 3
node 35 1 3
node 985 1 3
node 1744 1 3
node 1974 1 3
node 2372 1 3
node 2430 1 3
gene 1 1 29 -1.84992 0 4 -1.84992 1
gene 1 1 30 -5.13443 0 5 -5.13443 1
gene 1 1 35 -2.5148 0 10 -2.5148 1
gene 1 2 28 -0.94114 0 13 -0.94114 1
gene 1 2 31 -0.876481 0 16 -0.876481 1
gene 1 2 35 1.26531 0 20 1.26531 1
gene 1 3 28 0.671517 0 23 0.671517 1
gene 1 3 30 -3.14129 0 25 -3.14129 1
gene 1 3 35 2.32385 0 30 2.32385 1
gene 1 4 29 -2.3079 0 34 -2.3079 1
gene 1 4 31 -2.6382 0 36 -2.6382 1
gene 1 4 35 2.21163 0 40 2.21163 1
gene 1 5 30 -0.779443 0 45 -0.779443 1
gene 1 5 31 -1.91765 0 46 -1.91765 1
gene 1 6 28 4.43536 0 53 4.43536 1
gene 1 6 29 -0.319646 0 54 -0.319646 1
gene 1 6 30 -0.529204 0 55 -0.529204 1
gene 1 6 31 -1.25876 0 56 -1.25876 1
gene 1 7 29 5.27577 0 64 5.27577 1
gene 1 7 35 -2.49648 0 70 -2.49648 1
gene 1 8 29 1.5433 0 74 1.5433 1
gene 1 8 30 -4.20228 0 75 -4.20228 1
gene 1 8 35 1.01829 0 80 1.01829 1
gene 1 9 28 0.0696109 0 83 0.0696109 1
gene 1 9 29 -0.145489 0 84 -0.145489 1
gene 1 9 30 -3.04137 0 85 -3.04137 1
gene 1 9 31 -4.35198 0 86 -4.35198 1
gene 1 9 35 -3.81782 0 90 -3.81782 1
gene 1 10 29 1.80471 0 94 1.80471 1
gene 1 10 35 -1.5155 0 100 -1.5155 1
gene 1 11 29 -1.33606 0 104 -1.33606 1
gene 1 11 30 -1.54267 0 105 -1.54267 1
gene 1 11 31 -0.148106 0 106 -0.148106 1
gene 1 28 13 -2.07017 0 140 -2.07017 1
gene 1 28 14 -0.480727 0 141 -0.480727 1
gene 1 28 15 -1.09041 0 142 -1.09041 1
gene 1 28 16 0.833675 0 143 0.833675 1
gene 1 28 21 0.0407668 0 148 0.0407668 1
gene 1 28 22 3.71534 0 149 3.71534 1
gene 1 28 24 -0.834306 0 151 -0.834306 1
gene 1 28 25 -2.91996 0 152 -2.91996 1
gene 1 29 13 -4.0693 0 154 -4.0693 1
gene 1 29 14 -3.57986 0 155 -3.57986 1
gene 1 29 16 -1.37234 0 157 -1.37234 1
gene 1 29 17 0.686051 0 158 0.686051 1
gene 1 29 19 1.36354 0 160 1.36354 1
gene 1 29 20 -0.604365 0 161 -0.604365 1
gene 1 29 21 2.94494 0 162 2.94494 1
gene 1 29 23 -1.23738 0 164 -1.23738 1
gene 1 29 24 0.216041 0 165 0.216041 1
gene 1 29 25 2.3294 0 166 2.3294 1
gene 1 30 12 -2.51976 0 167 -2.51976 1
gene 1 30 14 -0.413528 0 169 -0.413528 1
gene 1 30 16 5.91446 0 171 5.91446 1
gene 1 30 18 -0.205038 0 173 -0.205038 1
gene 1 30 20 2.90887 0 175 2.90887 1
gene 1 30 21 3.36841 0 176 3.36841 1
gene 1 30 23 2.28545 0 178 2.28545 1
gene 1 31 13 3.18911 0 182 3.18911 1
gene 1 31 14 0.833795 0 183 0.833795 1
gene 1 31 15 1.16244 0 184 1.16244 1
gene 1 31 16 0.786923 0 185 0.786923 1
gene 1 31 20 1.09182 0 189 1.09182 1
gene 1 31 21 -2.86063 0 190 -2.86063 1
gene 1 31 24 1.79861 0 193 1.79861 1
gene 1 35 12 -2.07178 0 237 -2.07178 1
gene 1 35 13 -2.58787 0 238 -2.58787 1
gene 1 35 14 -3.68283 0 239 -3.68283 1
gene 1 35 15 -5.5229 0 240 -5.5229 1
gene 1 35 16 -1.38934 0 241 -1.38934 1
gene 1 35 17 0.811533 0 242 0.811533 1
gene 1 35 18 -1.61777 0 243 -1.61777 1
gene 1 35 19 -1.72519 0 244 -1.72519 1
gene 1 35 21 1.47728 0 246 1.47728 1
gene 1 4 17 -1.66608 0 566 -1.66608 1
gene 1 14 19 0.2022 0 774 0.2022 1
gene 1 23 22 -0.0289148 0 1352 -0.0289148 1
gene 1 11 25 -1.01054 0 2865 -1.01054 1
gene 1 7 22 -1.78169 0 3059 -1.78169 1
gene 1 21 22 3.54697 0 4072 3.54697 1
gene 1 14 14 3.95216 1 4809 3.95216 1
gene 1 20 17 0.111738 0 5384 0.111738 1
gene 1 13 23 -0.052609 0 5951 -0.052609 1
gene 1 20 15 0.0329819 0 6760 0.0329819 1
gene 1 15 31 -1.8291 1 8653 -1.8291 1
gene 1 11 20 -0.834855 0 8737 -0.834855 1
gene 1 16 17 0.221481 0 8959 0.221481 1
gene 1 3 13 -0.304819 0 9157 -0.304819 1
gene 1 2 18 0.238218 0 9690 0.238218 1
gene 1 2 15 -1.00227 0 10856 -1.00227 1
gene 1 13 22 -0.348416 0 12244 -0.348416 1
gene 1 2 21 1.00839 0 12458 1.00839 1
gene 1 5 21 -1.79329 0 12584 -1.79329 1
gene 1 25 23 -1.34552 0 12784 -1.34552 1
gene 1 7 23 1.36304 0 13720 1.36304 1
gene 1 29 29 -0.0411787 1 15294 -0.0411787 1
gene 1 21 17 0.511754 0 15890 0.511754 1
gene 1 7 12 -1.23939 0 16105 -1.23939 1
gene 1 18 18 0.243214 1 17078 0.243214 1
gene 1 23 24 -1.54487 0 17418 -1.54487 1
gene 1 19 19 0.482499 1 17482 0.482499 1
gene 1 7 16 0.107019 0 17755 0.107019 1
gene 1 21 21 0.441681 1 18120 0.441681 1
gene 1 4 25 1.83436 0 19870 1.83436 1
gene 1 15 15 0.515425 1 20048 0.515425 1
gene 1 18 29 -0.469338 1 20469 -0.469338 1
gene 1 12 20 0.38056 0 20957 0.38056 1
gene 1 4 15 -0.105829 0 21178 -0.105829 1
gene 1 1 22 -0.975678 0 21393 -0.975678 1
gene 1 13 13 -0.103423 1 21602 -0.103423 1
gene 1 14 25 -0.724032 0 22355 -0.724032 1
gene 1 16 16 0.670541 1 22785 0.670541 1
gene 1 2 16 0.473645 0 23522 0.473645 1
gene 1 8 15 -0.205874 0 23921 -0.205874 1
gene 1 985 28 0.518614 0 24237 0.39789 1
gene 1 23 16 -0.336498 0 25103 -0.336498 1
gene 1 30 25 -0.0775363 0 25528 -0.0775363 1
gene 1 14 22 0.118175 0 25738 0.118175 1
gene 1 10 25 1.06404 0 26132 1.06404 1
gene 1 7 24 0.0338644 0 26670 0.0338644 1
gene 1 14 18 -0.705188 0 27788 -0.705188 1
gene 1 19 35 0.930364 1 28000 0.930364 1
gene 1 985 30 -1.64716 0 28944 -1.64716 1
gene 1 6 19 -1.27949 0 29717 -1.27949 1
gene 1 8 13 -0.220567 0 30245 -0.220567 1
gene 1 18 23 -1.44802 0 30726 -1.44802 1
gene 1 19 25 0.646207 0 31262 0.646207 1
gene 1 13 25 -1.10122 0 31594 -1.10122 1
gene 1 18 19 -0.0322426 0 32492 -0.0322426 1
gene 1 985 14 -0.283384 0 32733 -0.283384 1
gene 1 31 31 -1.24109 1 32817 -1.24109 1
gene 1 21 14 -1.15925 0 33170 -1.15925 1
gene 1 16 12 -0.727505 0 33579 -0.727505 1
gene 1 21 13 -0.117336 0 33729 -0.117336 1
gene 1 21 985 -0.132262 1 34729 -0.132262 1
gene 1 2 12 0.945606 0 35335 0.945606 1
gene 1 23 15 -1.04243 0 35902 -1.04243 1
gene 1 29 30 0.613596 0 36644 0.613596 1
gene 1 12 22 -1.17573 0 37392 -1.17573 1
gene 1 14 985 -0.910491 1 38141 -0.910491 1
gene 1 21 18 -1.05469 0 38338 -1.05469 1
gene 1 24 20 0.515466 0 39502 0.515466 1
gene 1 6 12 0.458437 0 39901 0.458437 1
gene 1 16 24 1.19664 0 41440 1.19664 1
gene 1 29 31 -0.300156 0 41604 -0.300156 1
gene 1 13 19 -0.514566 0 42241 -0.514566 1
gene 1 17 24 0.720578 0 42443 0.720578 1
gene 1 23 20 -0.0488741 0 42885 -0.0488741 1
gene 1 23 12 -0.33355 0 43071 -0.33355 1
gene 1 7 13 -0.296924 0 43243 -0.296924 1
gene 1 2 1744 0.58652 0 44859 0.266872 1
gene 1 1744 985 -0.0615301 0 44860 -0.16152 1
gene 1 15 24 0.0357495 0 46764 0.0357495 1
gene 1 15 17 1.00575 0 47728 1.00575 1
gene 1 1 985 0.137222 0 47984 0.137222 1
gene 1 8 14 0.218491 0 48635 0.218491 1
gene 1 9 16 -0.394163 0 48806 -0.394163 1
gene 1 19 20 0.266684 0 50017 0.266684 1
gene 1 4 20 -0.260971 0 50418 -0.260971 1
gene 1 23 1974 0.42787 1 50782 0.0901515 1
gene 1 35 22 -0.46196 0 51615 -0.46196 1
gene 1 23 23 -0.00250585 1 52317 -0.00250585 1
gene 1 22 35 -0.199066 1 53591 -0.199066 1
gene 1 30 35 1.08563 0 53996 1.08563 1
gene 1 2 24 -0.901457 0 54540 -0.901457 1
gene 1 14 15 -0.874166 0 54683 -0.874166 1
gene 1 28 20 -0.72362 0 55344 -0.72362 1
gene 1 985 17 0.741537 0 55554 0.741537 1
gene 1 2 25 -0.025561 0 56032 -0.025561 1
gene 1 1 15 -0.781414 0 56175 -0.781414 1
gene 1 1744 19 -0.0206096 0 57318 -0.0206096 1
gene 1 6 20 -0.0938146 0 57440 -0.0938146 1
gene 1 1974 28 -0.829616 0 58301 -0.829616 1
gene 1 29 15 0.109331 0 58544 0.109331 1
gene 1 1974 1744 0.332355 0 59048 0.332355 1
gene 1 985 13 -0.149088 0 59144 -0.149088 1
gene 1 1974 1974 0.683326 1 59940 0.683326 1
gene 1 2372 17 -1.26742 0 60918 -0.388939 1
gene 1 11 19 -0.112462 0 62043 -0.112462 1
gene 1 1744 30 -0.617005 0 62319 -0.617005 1
gene 1 2430 18 0.0296716 0 62776 0.0296716 1
gene 1 2430 23 -0.0116746 0 63955 -0.0116746 1
gene 1 17 19 -0.397289 1 64563 -0.397289 1
gene 1 30 29 -0.140643 1 65324 -0.140643 1
gene 1 1 23 -0.873855 0 65871 -0.873855 1
gene 1 17 17 -0.475967 1 66461 -0.475967 1
gene 1 2 23 0.056069 0 66725 0.056069 1
genomeend 214
