/* Organism #46451856 Fitness: -1409.53 
genomestart 81
trait 1 0.875884 0.859465 0.43662 0 0.999197 0.152631 0.518604 0.139216 
node 1 1 0
node 2 1 1
node 3 1 1
node 4 1 1
node 5 1 1
node 6 1 1
node 7 1 1
node 8 1 1
node 9 1 1
node 10 1 1
node 11 1 1
node 12 1 2
node 13 1 2
node 14 1 2
node 15 1 2
node 16 1 2
node 17 1 2
node 18 1 2
node 19 1 2
node 20 1 2
node 21 1 2
node 22 1 2
node 23 1 2
node 24 1 2
node 25 1 2
node 27 1 3
node 28 1 3
node 29 1 3
node 31 1 3
node 32 1 3
node 33 1 3
node 34 1 3
node 35 1 3
node 60 1 3
node 378 1 3
node 507 1 3
node 1270 1 3
node 2629 1 3
gene 1 1 28 -2.24879 0 3 -2.24879 1
gene 1 1 29 2.30506 0 4 2.30506 1
gene 1 1 31 6.80423 0 6 6.80423 1
gene 1 1 32 1.60324 0 7 1.60324 1
gene 1 1 33 0.358134 0 8 0.358134 1
gene 1 1 34 -1.07427 0 9 -1.07427 1
gene 1 1 35 0.723172 0 10 0.723172 1
gene 1 2 28 1.58434 0 13 1.58434 1
gene 1 2 29 1.18497 0 14 1.18497 1
gene 1 2 33 4.47595 0 18 4.47595 1
gene 1 2 34 2.69989 0 19 2.69989 1
gene 1 2 35 -0.596073 0 20 -0.596073 1
gene 1 3 27 -0.241604 0 22 -0.241604 1
gene 1 3 28 -5.58182 0 23 -5.58182 1
gene 1 3 31 1.39727 0 26 1.39727 1
gene 1 3 32 -0.574305 0 27 -0.574305 1
gene 1 3 33 0.762963 0 28 0.762963 1
gene 1 3 35 -2.88531 0 30 -2.88531 1
gene 1 4 27 -0.706347 0 32 -0.706347 1
gene 1 4 28 0.640147 0 33 0.640147 1
gene 1 4 29 1.6433 0 34 1.6433 1
gene 1 4 31 -4.11506 0 36 -4.11506 1
gene 1 4 32 -3.74663 0 37 -3.74663 1
gene 1 4 34 1.38639 0 39 1.38639 1
gene 1 4 35 2.9334 0 40 2.9334 1
gene 1 5 27 0.798346 0 42 0.798346 1
gene 1 5 28 2.0861 0 43 2.0861 1
gene 1 5 32 4.03811 0 47 4.03811 1
gene 1 5 34 1.29009 0 49 1.29009 1
gene 1 5 35 5.07195 0 50 5.07195 1
gene 1 6 27 -2.38658 0 52 -2.38658 1
gene 1 6 28 0.422701 0 53 0.422701 1
gene 1 6 29 0.514874 0 54 0.514874 1
gene 1 6 31 -0.149433 0 56 -0.149433 1
gene 1 6 32 3.59998 0 57 3.59998 1
gene 1 6 33 -1.72228 0 58 -1.72228 1
gene 1 6 34 -2.35955 0 59 -2.35955 1
gene 1 7 27 -4.97055 0 62 -4.97055 1
gene 1 7 28 -1.11124 0 63 -1.11124 1
gene 1 7 29 6.70612 0 64 6.70612 1
gene 1 7 31 -7.3952 0 66 -7.3952 1
gene 1 7 33 -1.72397 0 68 -1.72397 1
gene 1 7 35 -3.83371 0 70 -3.83371 1
gene 1 8 28 0.518385 0 73 0.518385 1
gene 1 8 29 1.87655 0 74 1.87655 1
gene 1 8 31 -0.277463 0 76 -0.277463 1
gene 1 8 32 1.12982 0 77 1.12982 1
gene 1 8 33 0.883654 0 78 0.883654 1
gene 1 8 34 -0.038537 0 79 -0.038537 1
gene 1 8 35 1.93035 0 80 1.93035 1
gene 1 9 27 -2.4367 0 82 -2.4367 1
gene 1 9 28 -4.73371 0 83 -4.73371 1
gene 1 9 29 -0.448952 0 84 -0.448952 1
gene 1 9 31 -0.27016 0 86 -0.27016 1
gene 1 9 32 0.813527 0 87 0.813527 1
gene 1 9 33 1.4016 0 88 1.4016 1
gene 1 9 34 1.97245 0 89 1.97245 1
gene 1 10 27 -0.818299 0 92 -0.818299 1
gene 1 10 28 0.721322 0 93 0.721322 1
gene 1 10 29 -0.764006 0 94 -0.764006 1
gene 1 10 33 -0.189391 0 98 -0.189391 1
gene 1 10 34 0.512755 0 99 0.512755 1
gene 1 10 35 -0.0329485 0 100 -0.0329485 1
gene 1 11 27 -0.739627 0 102 -0.739627 1
gene 1 11 28 0.548511 0 103 0.548511 1
gene 1 11 29 -0.174664 0 104 -0.174664 1
gene 1 11 31 -0.36552 0 106 -0.36552 1
gene 1 11 34 -2.22926 0 109 -2.22926 1
gene 1 11 35 0.622306 0 110 0.622306 1
gene 1 27 12 -0.398151 0 125 -0.398151 1
gene 1 27 13 2.69097 0 126 2.69097 1
gene 1 27 14 -1.81762 0 127 -1.81762 1
gene 1 27 15 -1.59678 0 128 -1.59678 1
gene 1 27 16 3.17518 0 129 3.17518 1
gene 1 27 17 2.17461 0 130 2.17461 1
gene 1 27 18 -0.733319 0 131 -0.733319 1
gene 1 27 19 -1.72861 0 132 -1.72861 1
gene 1 27 20 1.94788 0 133 1.94788 1
gene 1 27 21 -3.23603 0 134 -3.23603 1
gene 1 27 23 2.64493 0 136 2.64493 1
gene 1 27 24 0.544946 0 137 0.544946 1
gene 1 27 25 1.4935 0 138 1.4935 1
gene 1 28 12 -0.101383 0 139 -0.101383 1
gene 1 28 13 0.547282 0 140 0.547282 1
gene 1 28 14 -2.95599 0 141 -2.95599 1
gene 1 28 15 0.820194 0 142 0.820194 1
gene 1 28 16 1.52976 0 143 1.52976 1
gene 1 28 17 -1.87368 0 144 -1.87368 1
gene 1 28 18 -1.64328 0 145 -1.64328 1
gene 1 28 19 4.55837 0 146 4.55837 1
gene 1 28 20 5.22915 0 147 5.22915 1
gene 1 28 21 2.56434 0 148 2.56434 1
gene 1 28 22 0.929435 0 149 0.929435 1
gene 1 28 23 0.865998 0 150 0.865998 1
gene 1 28 25 2.5023 0 152 2.5023 1
gene 1 29 12 2.79221 0 153 2.79221 1
gene 1 29 13 -1.07242 0 154 -1.07242 1
gene 1 29 14 -1.12486 0 155 -1.12486 1
gene 1 29 18 6.01549 0 159 6.01549 1
gene 1 29 20 -1.51403 0 161 -1.51403 1
gene 1 29 21 0.0713408 0 162 0.0713408 1
gene 1 29 23 -1.96346 0 164 -1.96346 1
gene 1 29 24 -3.2854 0 165 -3.2854 1
gene 1 31 13 -1.90207 0 182 -1.90207 1
gene 1 31 14 4.01906 0 183 4.01906 1
gene 1 31 15 0.276842 0 184 0.276842 1
gene 1 31 16 2.63286 0 185 2.63286 1
gene 1 31 17 -1.04042 0 186 -1.04042 1
gene 1 31 18 2.61263 0 187 2.61263 1
gene 1 31 19 -0.731844 0 188 -0.731844 1
gene 1 31 22 -5.63261 0 191 -5.63261 1
gene 1 31 23 1.86112 0 192 1.86112 1
gene 1 31 24 1.3292 0 193 1.3292 1
gene 1 32 12 1.98915 0 195 1.98915 1
gene 1 32 14 -2.17676 0 197 -2.17676 1
gene 1 32 15 1.48036 0 198 1.48036 1
gene 1 32 16 -1.62351 0 199 -1.62351 1
gene 1 32 17 1.00928 0 200 1.00928 1
gene 1 32 18 -0.135173 0 201 -0.135173 1
gene 1 32 19 -4.64241 0 202 -4.64241 1
gene 1 32 21 -1.37982 0 204 -1.37982 1
gene 1 32 22 1.71244 0 205 1.71244 1
gene 1 32 23 -0.131902 0 206 -0.131902 1
gene 1 32 24 -0.548491 0 207 -0.548491 1
gene 1 33 12 -0.716419 0 209 -0.716419 1
gene 1 33 14 0.873367 0 211 0.873367 1
gene 1 33 15 -2.39902 0 212 -2.39902 1
gene 1 33 19 1.8095 0 216 1.8095 1
gene 1 33 20 -1.56697 0 217 -1.56697 1
gene 1 33 21 -1.97682 0 218 -1.97682 1
gene 1 33 23 3.08731 0 220 3.08731 1
gene 1 33 24 -1.76704 0 221 -1.76704 1
gene 1 33 25 -2.86302 0 222 -2.86302 1
gene 1 34 12 -0.136592 0 223 -0.136592 1
gene 1 34 14 -1.30881 0 225 -1.30881 1
gene 1 34 15 -0.379083 0 226 -0.379083 1
gene 1 34 16 -0.0185945 0 227 -0.0185945 1
gene 1 34 17 -1.34083 0 228 -1.34083 1
gene 1 34 18 1.50757 0 229 1.50757 1
gene 1 34 19 -0.660695 0 230 -0.660695 1
gene 1 34 20 -0.574975 0 231 -0.574975 1
gene 1 34 21 1.75596 0 232 1.75596 1
gene 1 34 22 -0.565517 0 233 -0.565517 1
gene 1 34 23 1.83791 0 234 1.83791 1
gene 1 34 24 2.67175 0 235 2.67175 1
gene 1 35 13 -1.29985 0 238 -1.29985 1
gene 1 35 15 -1.8362 0 240 -1.8362 1
gene 1 35 16 0.73149 0 241 0.73149 1
gene 1 35 17 1.40807 0 242 1.40807 1
gene 1 35 18 0.182821 0 243 0.182821 1
gene 1 35 20 2.5505 0 245 2.5505 1
gene 1 35 22 -2.58092 0 247 -2.58092 1
gene 1 35 23 1.5028 0 248 1.5028 1
gene 1 35 24 0.544682 0 249 0.544682 1
gene 1 35 25 -1.63751 0 250 -1.63751 1
gene 1 29 35 1.25583 0 329 1.25583 1
gene 1 13 15 0.00756706 0 860 0.00756706 1
gene 1 16 20 1.60076 0 1823 1.60076 1
gene 1 2 13 1.23548 0 2570 1.23548 1
gene 1 15 22 1.1046 0 2970 1.1046 1
gene 1 27 27 -0.63925 1 4295 -0.63925 1
gene 1 15 29 0.587998 1 4929 0.587998 1
gene 1 14 16 -1.1238 0 5522 -1.1238 1
gene 1 5 21 1.60877 0 8829 1.60877 1
gene 1 24 21 -0.663195 0 9297 -0.663195 1
gene 1 9 378 -0.111742 0 10214 -0.111742 1
gene 1 22 12 -0.347566 0 10435 -0.347566 1
gene 1 34 29 -0.113867 0 10653 -0.113867 1
gene 1 28 33 -0.088536 0 11252 -0.088536 1
gene 1 23 12 -1.85592 0 11435 -1.85592 1
gene 1 2 60 0.262982 0 12385 0.262982 1
gene 1 1 378 -0.170999 0 12582 -0.170999 1
gene 1 19 19 0.823197 1 13562 0.823197 1
gene 1 33 507 2.13064 0 13750 2.13064 1
gene 1 507 16 -1.60154 0 13751 -1.60154 1
gene 1 22 25 1.32448 0 14416 1.32448 1
gene 1 16 21 0.475789 0 14942 0.475789 1
gene 1 2 23 0.141252 0 15026 0.141252 1
gene 1 18 12 0.429513 0 15568 0.429513 1
gene 1 23 21 0.22112 0 16729 0.22112 1
gene 1 29 29 -1.98762 1 16883 -1.98762 1
gene 1 33 29 2.03586 0 17075 2.03586 1
gene 1 1 12 0.218809 0 17896 0.218809 1
gene 1 23 23 -0.956533 1 18152 -0.956533 1
gene 1 378 31 0.736537 0 18414 0.736537 1
gene 1 22 18 1.13691 0 18771 1.13691 1
gene 1 3 21 -1.08429 0 20602 -1.08429 1
gene 1 18 25 1.19523 0 22304 1.19523 1
gene 1 29 19 -0.448987 0 23224 -0.448987 1
gene 1 14 14 1.22957 1 24291 1.22957 1
gene 1 378 19 0.121063 0 24897 0.121063 1
gene 1 19 25 1.14319 0 25328 1.14319 1
gene 1 378 12 0.452176 0 25816 0.452176 1
gene 1 22 16 -0.403001 0 26668 -0.403001 1
gene 1 5 12 0.18514 0 26866 0.18514 1
gene 1 20 20 0.0526068 1 30822 0.0526068 1
gene 1 17 19 -0.351187 0 31529 -0.351187 1
gene 1 22 22 1.02571 1 33269 1.02571 1
gene 1 33 34 0.0627856 0 33427 0.0627856 1
gene 1 31 34 -0.755386 0 34125 -0.755386 1
gene 1 6 12 -0.683851 0 34291 -0.683851 1
gene 1 33 1270 1.52999 0 34402 1.50408 1
gene 1 14 22 -1.28523 0 35403 -1.28523 1
gene 1 34 507 -0.731743 0 36031 -0.731743 1
gene 1 24 24 -0.327117 1 36219 -0.327117 1
gene 1 22 19 -0.487612 0 37327 -0.487612 1
gene 1 17 16 0.238781 0 37546 0.238781 1
gene 1 25 23 0.463922 0 37685 0.463922 1
gene 1 14 24 0.278405 0 38519 0.278405 1
gene 1 8 25 0.771569 0 38735 0.771569 1
gene 1 378 507 0.329134 0 39236 0.329134 1
gene 1 28 29 -0.185388 0 40375 -0.185388 1
gene 1 5 24 0.17525 0 41112 0.17525 1
gene 1 32 25 1.00884 0 41164 1.00884 1
gene 1 12 21 -2.07142 0 41899 -2.07142 1
gene 1 3 24 0.500298 0 42136 0.500298 1
gene 1 24 13 0.0447851 1 42385 0.0447851 1
gene 1 6 25 0.10767 0 42791 0.10767 1
gene 1 3 507 -1.8018 0 42981 -1.8018 1
gene 1 24 20 -0.542554 0 43302 -0.542554 1
gene 1 16 16 0.455461 1 44396 0.455461 1
gene 1 13 13 -0.0455688 1 44845 -0.0455688 1
gene 1 8 12 -0.776205 0 45722 -0.776205 1
gene 1 24 19 -0.268702 0 46750 -0.268702 1
gene 1 33 16 -0.995939 0 47173 -0.995939 1
gene 1 34 34 0.712942 1 47900 0.712942 1
gene 1 14 19 -0.16036 0 48106 -0.16036 1
gene 1 9 12 -0.531361 0 48684 -0.531361 1
gene 1 2 21 -0.152506 0 49375 -0.152506 1
gene 1 20 23 -0.372172 0 49581 -0.372172 1
gene 1 60 21 -1.20743 0 50550 -1.20743 1
gene 1 12 60 -0.0480229 0 50776 -0.0480229 1
gene 1 7 19 0.349329 0 51264 0.349329 1
gene 1 31 1270 1.11582 0 52015 1.11582 1
gene 1 22 17 0.177448 0 52220 0.177448 1
gene 1 21 14 -1.0516 0 52627 -1.0516 1
gene 1 27 507 -0.823273 0 53264 -0.823273 1
gene 1 1270 1270 -0.180369 1 53636 -0.180369 1
gene 1 2 15 0.664365 0 53883 0.664365 1
gene 1 28 32 0.0727739 0 54100 0.0727739 1
gene 1 1270 14 -0.131903 0 54537 -0.131903 1
gene 1 18 19 0.621052 0 55193 0.621052 1
gene 1 6 24 0.574228 0 56030 0.574228 1
gene 1 7 378 0.398686 0 56226 0.398686 1
gene 1 33 33 -0.702692 1 57071 -0.702692 1
gene 1 25 25 0.907066 1 57280 0.907066 1
gene 1 60 19 0.188313 0 58131 0.188313 1
gene 1 7 21 0.54117 0 58318 0.54117 1
gene 1 17 17 0.322989 1 58543 0.322989 1
gene 1 4 20 0.749047 0 58994 0.749047 1
gene 1 2 24 -0.0181133 0 59456 -0.0181133 1
gene 1 29 507 0.00757424 0 59643 0.00757424 1
gene 1 29 25 0.473543 0 59831 0.473543 1
gene 1 378 29 0.481601 0 59892 0.481601 1
gene 1 15 20 -0.417775 0 60403 -0.417775 1
gene 1 6 20 -0.863227 0 60609 -0.863227 1
gene 1 10 25 0.882092 0 61029 0.882092 1
gene 1 28 31 -0.34389 0 61841 -0.34389 1
gene 1 27 60 1.00699 0 62482 1.00699 1
gene 1 1270 25 -0.0245723 0 62907 -0.0245723 1
gene 1 31 35 0.197375 0 63534 0.197375 1
gene 1 7 15 -0.0520942 0 63774 -0.0520942 1
gene 1 35 19 -0.831522 0 63968 -0.831522 1
gene 1 378 14 0.487303 0 64444 0.487303 1
gene 1 4 18 0.283294 0 64566 0.283294 1
gene 1 15 15 0.315774 1 64781 0.315774 1
gene 1 12 12 0.734902 1 64997 0.734902 1
gene 1 8 14 -0.066527 0 67886 -0.066527 1
gene 1 8 19 -0.348943 0 68042 -0.348943 1
gene 1 8 378 -0.544511 0 68265 -0.544511 1
gene 1 17 18 0.815698 0 68518 0.815698 1
gene 1 1270 34 0.616645 0 68811 0.616645 1
gene 1 34 35 0.0777736 0 69249 0.0777736 1
gene 1 23 21 -0.694814 1 69767 -0.694814 1
gene 1 6 16 -0.911056 0 71060 -0.911056 1
gene 1 14 13 0.970362 0 71711 0.970362 1
gene 1 35 60 -0.489911 0 71940 -0.489911 1
gene 1 14 17 0.337985 0 72157 0.337985 1
gene 1 13 31 0.0834783 1 72402 0.0834783 1
gene 1 1270 22 0.640003 0 72799 0.640003 1
gene 1 5 2629 1 0 72951 0 1
gene 1 2629 33 6.43827 0 72952 0 1
genomeend 81
