/* Organism #140375679080376 Fitness: -1426.9 
genomestart 896
trait 1 0.0778222 0.984656 0.970077 0.993252 0.788346 0.0599777 0.654767 0.933477 
node 1 1 0
node 2 1 1
node 3 1 1
node 4 1 1
node 5 1 1
node 6 1 1
node 7 1 1
node 8 1 1
node 9 1 1
node 10 1 1
node 11 1 1
node 12 1 2
node 13 1 2
node 14 1 2
node 15 1 2
node 16 1 2
node 17 1 2
node 18 1 2
node 19 1 2
node 20 1 2
node 21 1 2
node 22 1 2
node 23 1 2
node 24 1 2
node 25 1 2
node 27 1 3
node 29 1 3
node 33 1 3
node 34 1 3
node 35 1 3
node 898 1 3
node 916 1 3
node 1443 1 3
node 1779 1 3
node 1796 1 3
node 1808 1 3
node 1894 1 3
node 2234 1 3
gene 1 1 27 2.88895 0 2 2.88895 1
gene 1 1 29 0.0180107 0 4 0.0180107 1
gene 1 1 34 5.92183 0 9 5.92183 1
gene 1 1 35 -2.015 0 10 -2.015 1
gene 1 2 29 -1.06766 0 14 -1.06766 1
gene 1 2 33 1.87191 0 18 1.87191 1
gene 1 2 34 -1.50957 0 19 -1.50957 1
gene 1 3 27 -1.10629 0 22 -1.10629 1
gene 1 3 34 -0.868798 0 29 -0.868798 1
gene 1 4 27 -1.76058 0 32 -1.76058 1
gene 1 4 34 -1.14778 0 39 -1.14778 1
gene 1 5 27 -0.476882 0 42 -0.476882 1
gene 1 5 29 0.738669 0 44 0.738669 1
gene 1 5 33 -0.936803 0 48 -0.936803 1
gene 1 5 35 5.07782 0 50 5.07782 1
gene 1 6 27 0.506688 0 52 0.506688 1
gene 1 6 29 -3.49111 0 54 -3.49111 1
gene 1 6 33 -2.01429 0 58 -2.01429 1
gene 1 6 34 -1.18297 0 59 -1.18297 1
gene 1 6 35 -0.420923 0 60 -0.420923 1
gene 1 7 27 2.76987 0 62 2.76987 1
gene 1 7 33 -0.370138 0 68 -0.370138 1
gene 1 7 35 -0.325619 0 70 -0.325619 1
gene 1 8 27 1.19669 0 72 1.19669 1
gene 1 8 29 2.7477 0 74 2.7477 1
gene 1 8 33 -1.68434 0 78 -1.68434 1
gene 1 8 34 3.70025 0 79 3.70025 1
gene 1 9 27 0.136414 0 82 0.136414 1
gene 1 9 33 0.266807 0 88 0.266807 1
gene 1 9 34 0.420918 0 89 0.420918 1
gene 1 10 27 4.63403 0 92 4.63403 1
gene 1 10 33 -2.76631 0 98 -2.76631 1
gene 1 10 34 -0.731334 0 99 -0.731334 1
gene 1 10 35 1.84699 0 100 1.84699 1
gene 1 11 27 -1.49503 0 102 -1.49503 1
gene 1 11 29 -0.760132 0 104 -0.760132 1
gene 1 11 34 2.97873 0 109 2.97873 1
gene 1 11 35 2.25721 0 110 2.25721 1
gene 1 27 12 3.2271 0 125 3.2271 1
gene 1 27 13 1.00482 0 126 1.00482 1
gene 1 27 14 2.99461 0 127 2.99461 1
gene 1 27 15 3.084 0 128 3.084 1
gene 1 27 16 -4.01925 0 129 -4.01925 1
gene 1 27 17 0.817535 0 130 0.817535 1
gene 1 27 20 -3.34371 0 133 -3.34371 1
gene 1 27 23 -3.44935 0 136 -3.44935 1
gene 1 27 24 -0.00517263 0 137 -0.00517263 1
gene 1 27 25 -3.25497 0 138 -3.25497 1
gene 1 29 12 0.164905 0 153 0.164905 1
gene 1 29 13 0.0779595 0 154 0.0779595 1
gene 1 29 14 0.450663 0 155 0.450663 1
gene 1 29 15 -3.3443 0 156 -3.3443 1
gene 1 29 16 2.96738 0 157 2.96738 1
gene 1 29 18 2.4075 0 159 2.4075 1
gene 1 29 19 0.318976 0 160 0.318976 1
gene 1 29 20 0.579422 0 161 0.579422 1
gene 1 29 21 1.44617 0 162 1.44617 1
gene 1 29 23 -0.675773 0 164 -0.675773 1
gene 1 29 24 -1.33374 0 165 -1.33374 1
gene 1 33 12 -1.69914 0 209 -1.69914 1
gene 1 33 14 -3.05937 0 211 -3.05937 1
gene 1 33 16 -2.49809 0 213 -2.49809 1
gene 1 33 17 -0.396077 0 214 -0.396077 1
gene 1 33 18 -1.76243 0 215 -1.76243 1
gene 1 33 23 1.29842 0 220 1.29842 1
gene 1 33 24 1.61225 0 221 1.61225 1
gene 1 33 25 -0.942649 0 222 -0.942649 1
gene 1 34 13 -1.98748 0 224 -1.98748 1
gene 1 34 15 -2.89884 0 226 -2.89884 1
gene 1 34 16 -0.482821 0 227 -0.482821 1
gene 1 34 19 1.10152 0 230 1.10152 1
gene 1 34 20 -0.143433 0 231 -0.143433 1
gene 1 34 21 -2.83622 0 232 -2.83622 1
gene 1 34 24 -2.59353 0 235 -2.59353 1
gene 1 34 25 -1.34763 0 236 -1.34763 1
gene 1 35 12 -0.0293083 0 237 -0.0293083 1
gene 1 35 14 2.13082 0 239 2.13082 1
gene 1 35 15 -2.52698 0 240 -2.52698 1
gene 1 35 16 2.62905 0 241 2.62905 1
gene 1 35 20 1.91835 0 245 1.91835 1
gene 1 35 22 -6.11782 0 247 -6.11782 1
gene 1 35 23 2.98953 0 248 2.98953 1
gene 1 35 24 0.329067 0 249 0.329067 1
gene 1 8 15 3.32171 0 503 3.32171 1
gene 1 17 25 1.41241 0 857 1.41241 1
gene 1 1 18 1.45908 0 2469 1.45908 1
gene 1 18 17 0.423937 0 2831 0.423937 1
gene 1 20 20 1.557 1 4289 1.557 1
gene 1 9 19 0.675371 0 4920 0.675371 1
gene 1 6 16 -1.02008 0 6180 -1.02008 1
gene 1 11 13 0.786861 0 7161 0.786861 1
gene 1 12 12 1.80229 1 7570 1.80229 1
gene 1 29 29 -0.231264 1 8377 -0.231264 1
gene 1 3 25 1.35877 0 8701 1.35877 1
gene 1 10 19 -1.53059 0 8775 -1.53059 1
gene 1 6 24 -0.161087 0 9382 -0.161087 1
gene 1 9 13 0.146904 0 9975 0.146904 1
gene 1 13 13 -1.37771 1 10563 -1.37771 1
gene 1 20 25 -0.0588147 0 11555 -0.0588147 1
gene 1 18 16 0.154452 0 11742 0.154452 1
gene 1 15 24 0.134509 0 12305 0.134509 1
gene 1 19 12 -0.982305 0 12388 -0.982305 1
gene 1 24 21 3.20333 0 12749 3.20333 1
gene 1 9 22 -0.163954 0 13738 -0.163954 1
gene 1 8 24 1.95749 0 14714 1.95749 1
gene 1 6 13 -1.03215 0 15419 -1.03215 1
gene 1 19 19 -1.81374 1 15666 -1.81374 1
gene 1 17 23 -0.831714 0 15903 -0.831714 1
gene 1 13 21 -0.0183013 0 16118 -0.0183013 1
gene 1 1 23 -1.3818 0 16854 -1.3818 1
gene 1 24 17 -0.991125 0 16987 -0.991125 1
gene 1 34 29 0.189441 0 17298 0.189441 1
gene 1 8 14 0.642398 0 17499 0.642398 1
gene 1 17 17 0.720177 1 17903 0.720177 1
gene 1 12 23 -1.10933 0 18127 -1.10933 1
gene 1 21 18 0.343806 0 18531 0.343806 1
gene 1 14 15 0.660749 0 18717 0.660749 1
gene 1 15 23 1.35432 0 19920 1.35432 1
gene 1 23 27 -1.18215 1 20575 -1.18215 1
gene 1 33 13 -1.02777 0 20805 -1.02777 1
gene 1 5 898 0.669214 0 21976 0.669214 1
gene 1 3 916 1.85123 0 22362 1.85123 1
gene 1 10 898 -0.201451 0 24101 -0.201451 1
gene 1 33 898 -0.109258 0 24446 -0.109258 1
gene 1 10 14 0.558717 0 24999 0.558717 1
gene 1 898 22 0.334577 0 25494 0.334577 1
gene 1 9 14 0.269991 0 27836 0.269991 1
gene 1 35 35 -0.995886 1 27964 -0.995886 1
gene 1 898 898 2.48085 1 28598 2.48085 1
gene 1 2 24 1.74323 0 29267 1.74323 1
gene 1 12 25 1.36523 0 29736 1.36523 1
gene 1 10 12 0.716477 0 30324 0.716477 1
gene 1 18 23 1.41836 0 30514 1.41836 1
gene 1 916 17 -0.200448 0 30734 -0.200448 1
gene 1 14 19 -0.652994 0 31885 -0.652994 1
gene 1 33 33 1.28731 1 32186 1.28731 1
gene 1 11 22 0.635833 0 32543 0.635833 1
gene 1 15 15 0.149364 1 33215 0.149364 1
gene 1 23 23 0.247764 1 34180 0.247764 1
gene 1 9 25 -0.0762207 0 35181 -0.0762207 1
gene 1 21 898 -0.573094 1 35652 -0.573094 1
gene 1 19 23 -0.482736 0 36455 -0.482736 1
gene 1 1443 22 0.764848 0 36834 0.7173 1
gene 1 29 33 0.569236 1 37133 0.569236 1
gene 1 4 33 -0.762284 0 37331 -0.762284 1
gene 1 14 12 -1.23273 0 38724 -1.23273 1
gene 1 22 25 -0.0196617 0 39123 -0.0196617 1
gene 1 9 29 -0.628177 0 40728 -0.628177 1
gene 1 22 22 -0.55454 1 40914 -0.55454 1
gene 1 1 15 -0.776244 0 41839 -0.776244 1
gene 1 7 25 0.140979 0 42450 0.140979 1
gene 1 35 19 0.55849 0 42624 0.55849 1
gene 1 13 25 -0.512081 0 44325 -0.512081 1
gene 1 14 14 0.632005 1 44532 0.632005 1
gene 1 20 23 0.155955 0 45739 0.155955 1
gene 1 14 1779 0.806174 0 45947 0.654528 1
gene 1 1779 24 -0.415291 0 45948 -0.425104 1
gene 1 1796 20 -0.871355 0 46373 -0.888253 1
gene 1 10 1808 1.21858 0 46590 0.632645 1
gene 1 1808 29 1.88274 0 46591 0.939404 1
gene 1 22 19 -0.470636 0 47308 -0.470636 1
gene 1 1443 1443 -0.851023 1 48266 -0.851023 1
gene 1 916 1894 0.906513 0 48874 0.606907 1
gene 1 1894 33 -1.57429 0 48875 -0.754614 1
gene 1 1894 1894 1.25304 1 51737 1.25304 1
gene 1 1796 1796 -0.0599557 1 52081 -0.0599557 1
gene 1 20 13 0.505184 0 52768 0.505184 1
gene 1 9 15 1.56693 0 53100 1.56693 1
gene 1 1779 1779 0.271459 1 53495 0.271459 1
gene 1 1779 33 0.299134 1 53662 0.299134 1
gene 1 1894 24 -0.632179 0 54624 -0.632179 1
gene 1 18 18 -0.139751 1 55710 -0.139751 1
gene 1 4 916 -0.841427 0 57054 -0.841427 1
gene 1 7 15 0.0455665 0 57305 0.0455665 1
gene 1 13 2234 0.266511 1 57460 -0.225676 1
gene 1 2234 916 -1.25871 0 57461 -0.450017 1
gene 1 8 916 0.297735 0 58124 0.297735 1
gene 1 3 12 -0.744556 0 58457 -0.744556 1
gene 1 1443 21 0.335948 0 58675 0.335948 1
gene 1 2234 2234 0.689403 1 59899 0.689403 1
gene 1 2 21 0.786596 0 60416 0.786596 1
gene 1 8 1894 0.0797579 0 61525 0.0797579 1
gene 1 1796 22 -0.224975 1 62012 -0.224975 1
gene 1 25 25 -0.0872742 1 63486 -0.0872742 1
gene 1 33 1443 -0.639488 0 63759 -0.639488 1
gene 1 1779 17 0.283504 0 64118 0.283504 1
gene 1 23 14 0.90859 1 64534 0.90859 1
gene 1 27 1796 0.329047 0 64753 0.329047 1
gene 1 16 17 0.306646 0 65018 0.306646 1
gene 1 6 22 -0.993234 0 65209 -0.993234 1
gene 1 4 15 0.508098 0 65430 0.508098 1
gene 1 2 27 0.233863 0 66071 0.233863 1
gene 1 2 916 0.325373 0 66568 0.325373 1
gene 1 2234 34 -0.141792 0 67528 -0.141792 1
gene 1 12 21 0.689228 0 67752 0.689228 1
gene 1 22 1796 -0.718291 0 68050 -0.718291 1
gene 1 24 12 -0.723809 0 68397 -0.723809 1
gene 1 1 17 -0.674044 0 68829 -0.674044 1
gene 1 4 17 0.155612 0 69054 0.155612 1
gene 1 4 2234 0.433257 0 69274 0.433257 1
gene 1 15 13 0.895329 0 69619 0.895329 1
gene 1 2 17 0.105008 0 70034 0.105008 1
genomeend 896
