/* Organism #140563711850504 Fitness: -92376.4 
genomestart 0
trait 1 0.838825 0.620969 0.307583 0.0906007 0.930157 0.504545 0.458737 0.714834 
node 1 1 0
node 2 1 1
node 3 1 1
node 4 1 1
node 5 1 1
node 6 1 1
node 7 1 1
node 8 1 1
node 9 1 1
node 10 1 1
node 11 1 1
node 12 1 2
node 13 1 2
node 14 1 2
node 15 1 2
node 16 1 2
node 17 1 2
node 18 1 2
node 19 1 2
node 20 1 2
node 21 1 2
node 22 1 2
node 23 1 2
node 24 1 2
node 25 1 2
node 29 1 3
node 30 1 3
node 32 1 3
node 34 1 3
node 532 1 3
node 913 1 3
node 1013 1 3
node 1172 1 3
node 1174 1 3
node 1298 1 3
node 1569 1 3
node 1606 1 3
node 2021 1 3
node 2040 1 3
node 2088 1 3
gene 1 1 30 -3.61505 0 5 -3.61505 1
gene 1 1 32 -4.75548 0 7 -4.75548 1
gene 1 1 34 -2.80614 0 9 -2.80614 1
gene 1 2 29 0.100731 0 14 0.100731 1
gene 1 2 30 -4.87146 0 15 -4.87146 1
gene 1 2 32 2.24993 0 17 2.24993 1
gene 1 2 34 1.64867 0 19 1.64867 1
gene 1 3 30 -3.22516 0 25 -3.22516 1
gene 1 3 32 0.652421 0 27 0.652421 1
gene 1 3 34 2.10251 0 29 2.10251 1
gene 1 4 34 -2.31897 0 39 -2.31897 1
gene 1 5 30 -7.39886 0 45 -7.39886 1
gene 1 6 29 -4.76448 0 54 -4.76448 1
gene 1 6 30 -0.720206 0 55 -0.720206 1
gene 1 6 32 0.761338 0 57 0.761338 1
gene 1 6 34 -0.942433 0 59 -0.942433 1
gene 1 7 30 3.51234 0 65 3.51234 1
gene 1 7 32 1.87214 0 67 1.87214 1
gene 1 8 29 0.169018 0 74 0.169018 1
gene 1 8 32 1.09116 0 77 1.09116 1
gene 1 9 30 -0.0555016 0 85 -0.0555016 1
gene 1 9 32 -4.02205 0 87 -4.02205 1
gene 1 9 34 -3.1998 0 89 -3.1998 1
gene 1 10 30 -1.26157 0 95 -1.26157 1
gene 1 11 30 1.37865 0 105 1.37865 1
gene 1 11 32 -1.08217 0 107 -1.08217 1
gene 1 29 15 -4.80284 0 156 -4.80284 1
gene 1 29 17 -2.50675 0 158 -2.50675 1
gene 1 29 19 0.261962 0 160 0.261962 1
gene 1 29 20 7.48201 0 161 7.48201 1
gene 1 29 24 -0.0862237 0 165 -0.0862237 1
gene 1 30 12 0.17929 0 167 0.17929 1
gene 1 30 13 0.569179 0 168 0.569179 1
gene 1 30 16 -0.664482 0 171 -0.664482 1
gene 1 30 19 1.57866 0 174 1.57866 1
gene 1 30 21 -0.0965511 0 176 -0.0965511 1
gene 1 30 22 1.59535 0 177 1.59535 1
gene 1 30 25 2.08613 0 180 2.08613 1
gene 1 32 12 -5.59081 0 195 -5.59081 1
gene 1 32 14 -6.7218 0 197 -6.7218 1
gene 1 32 15 -3.06321 0 198 -3.06321 1
gene 1 32 17 -7.68024 0 200 -7.68024 1
gene 1 32 19 4.44961 0 202 4.44961 1
gene 1 32 20 0.299752 0 203 0.299752 1
gene 1 32 22 0.458747 0 205 0.458747 1
gene 1 32 23 6.97031 0 206 6.97031 1
gene 1 32 25 0.215208 0 208 0.215208 1
gene 1 34 15 -1.66027 0 226 -1.66027 1
gene 1 34 16 -0.185285 0 227 -0.185285 1
gene 1 34 18 -2.65875 0 229 -2.65875 1
gene 1 34 19 1.08876 0 230 1.08876 1
gene 1 34 22 -0.352539 0 233 -0.352539 1
gene 1 34 23 4.43823 0 234 4.43823 1
gene 1 34 24 0.197313 0 235 0.197313 1
gene 1 19 18 -1.22137 0 3027 -1.22137 1
gene 1 1 17 4.54275 0 3425 4.54275 1
gene 1 25 23 -0.0291435 0 4615 -0.0291435 1
gene 1 20 23 -1.05523 0 5006 -1.05523 1
gene 1 9 21 0.662601 0 7981 0.662601 1
gene 1 1 21 -5.74492 0 8405 -5.74492 1
gene 1 19 16 2.54519 0 8729 2.54519 1
gene 1 25 21 -2.68364 0 8955 -2.68364 1
gene 1 16 24 3.68868 0 11115 3.68868 1
gene 1 3 25 -2.33177 0 12072 -2.33177 1
gene 1 8 22 -2.91884 0 12303 -2.91884 1
gene 1 17 14 5.24593 0 12447 5.24593 1
gene 1 18 13 -3.31804 0 12633 -3.31804 1
gene 1 532 18 0.290064 0 13004 0.290064 1
gene 1 30 29 0.0212948 0 14304 0.0212948 1
gene 1 25 15 -0.779922 0 14458 -0.779922 1
gene 1 22 23 -2.61407 0 14898 -2.61407 1
gene 1 15 23 4.60337 0 15108 4.60337 1
gene 1 24 17 -1.9557 0 15880 -1.9557 1
gene 1 30 30 -0.929316 1 16337 -0.929316 1
gene 1 4 16 -0.740099 0 16687 -0.740099 1
gene 1 11 532 6.49679 0 16914 6.49679 1
gene 1 532 24 1.81826 0 17345 1.81826 1
gene 1 10 23 2.91037 0 18270 2.91037 1
gene 1 532 25 -1.99548 0 18875 -1.99548 1
gene 1 19 20 0.789278 0 19673 0.789278 1
gene 1 15 16 -2.97376 0 20364 -2.97376 1
gene 1 5 34 0.602684 0 20750 0.602684 1
gene 1 17 17 -1.89679 1 21711 -1.89679 1
gene 1 15 18 -1.72414 0 22330 -1.72414 1
gene 1 913 13 5.30509 0 23304 5.30509 1
gene 1 10 16 0.27272 0 23478 0.27272 1
gene 1 30 913 3.60881 0 23684 3.60881 1
gene 1 7 13 2.62263 0 23888 2.62263 1
gene 1 6 24 3.6085 0 24283 3.6085 1
gene 1 9 12 1.21243 0 24412 1.21243 1
gene 1 20 24 3.89706 0 24582 3.89706 1
gene 1 1013 20 1.0893 0 24816 1.0893 1
gene 1 10 15 -1.53002 0 25239 -1.53002 1
gene 1 21 21 -3.35685 1 26784 -3.35685 1
gene 1 913 18 -2.95462 0 27166 -2.95462 1
gene 1 9 1172 1.36471 0 28565 1.36471 1
gene 1 1172 25 1.76176 0 28566 1.76176 1
gene 1 32 1174 3.59685 0 28695 3.59685 1
gene 1 1174 29 -1.4028 0 30357 -1.4028 1
gene 1 22 17 -0.538517 0 30577 -0.538517 1
gene 1 7 14 -1.46868 0 32594 -1.46868 1
gene 1 1298 18 -0.195018 0 32849 -0.195018 1
gene 1 4 25 -0.266537 0 33503 -0.266537 1
gene 1 1172 23 -2.32252 0 33882 -2.32252 1
gene 1 15 22 0.263067 0 34094 0.263067 1
gene 1 10 22 0.77338 0 34371 0.77338 1
gene 1 34 29 3.78542 0 35803 3.78542 1
gene 1 30 1298 -0.388513 0 36656 -0.388513 1
gene 1 19 15 -0.655392 0 37001 -0.655392 1
gene 1 1172 30 0.50332 0 37431 0.50332 1
gene 1 2 21 -0.278073 0 37552 -0.278073 1
gene 1 23 23 0.795318 1 39254 0.795318 1
gene 1 5 32 -0.115298 0 39918 -0.115298 1
gene 1 1174 1174 1.38991 1 40288 1.38991 1
gene 1 29 1569 1.85834 0 40502 1.85834 1
gene 1 1569 22 -0.579186 0 40503 -0.579186 1
gene 1 18 18 -0.204718 1 40614 -0.204718 1
gene 1 1013 1013 -2.43011 1 40906 -2.43011 1
gene 1 913 15 3.48954 0 41274 3.48954 1
gene 1 9 20 1.16662 0 41531 1.16662 1
gene 1 1013 1606 -1.75389 0 41685 -1.75389 1
gene 1 1606 21 0.669662 0 41686 0.669662 1
gene 1 21 12 -0.383366 0 42976 -0.383366 1
gene 1 2 532 0.340663 0 44252 0.340663 1
gene 1 1 1606 -0.212806 0 44675 -0.212806 1
gene 1 1569 18 -2.53219 0 45113 -2.53219 1
gene 1 34 34 -0.120627 1 45260 -0.120627 1
gene 1 32 16 -1.01002 0 45448 -1.01002 1
gene 1 3 12 0.535139 0 45943 0.535139 1
gene 1 1569 1569 0.0125625 1 47648 0.0125625 1
gene 1 1013 14 1.12044 0 47874 1.12044 1
gene 1 7 12 2.41517 0 48506 2.41517 1
gene 1 532 12 0.325243 0 48927 0.325243 1
gene 1 7 21 -0.0336039 0 49667 -0.0336039 1
gene 1 532 29 1.01447 0 50218 1.01447 1
gene 1 1013 1298 -1.18219 0 51010 -1.18219 1
gene 1 1013 23 3.08985 0 51443 3.08985 1
gene 1 1298 34 -1.15348 0 51654 -1.15348 1
gene 1 6 2021 0.144209 0 52902 0.144209 1
gene 1 2021 17 -2.46075 0 52903 -2.46075 1
gene 1 913 29 -0.550038 0 53355 -0.550038 1
gene 1 30 2040 -0.132813 0 53563 -0.132813 1
gene 1 4 1174 0.452155 0 53735 0.452155 1
gene 1 2088 24 -1.67102 0 54886 -1.67102 1
gene 1 1298 1298 -1.06647 1 55104 -1.06647 1
gene 1 2021 913 -0.386857 0 56614 -0.386857 1
gene 1 16 2040 -1.69513 0 56836 -1.69513 1
gene 1 2088 2040 -1.12263 0 57222 -1.12263 1
gene 1 18 1174 -0.226424 1 57434 -0.226424 1
gene 1 23 22 1.17737 1 57785 1.17737 1
gene 1 913 913 1.2247 1 58550 1.2247 1
gene 1 1606 1606 0.556024 1 58980 0.556024 1
gene 1 7 34 -0.797828 0 59185 -0.797828 1
gene 1 16 21 -0.330698 0 59404 -0.330698 1
gene 1 10 532 0.699007 0 60635 0.699007 1
gene 1 1172 34 0.183415 0 61247 0.183415 1
gene 1 4 20 0.583046 0 61930 0.583046 1
gene 1 3 2040 -0.580581 0 62037 -0.580581 1
gene 1 20 20 -0.360835 1 62523 -0.360835 1
gene 1 21 24 0.765519 0 62772 0.765519 1
gene 1 20 12 1.09892 0 62911 1.09892 1
gene 1 4 1172 0.411347 0 63205 0.411347 1
gene 1 18 1606 -0.133157 0 63802 -0.133157 1
gene 1 2 24 0.103657 0 64655 0.103657 1
gene 1 34 25 -0.251678 0 65067 -0.251678 1
gene 1 32 1606 0.714433 0 65457 0.714433 1
gene 1 29 13 -0.114093 0 65725 -0.114093 1
gene 1 1569 19 -0.626062 0 65889 -0.626062 1
gene 1 30 1174 -0.536294 0 66174 -0.536294 1
gene 1 22 1298 0.0429398 1 66261 0.0429398 1
gene 1 1013 17 0.521363 0 66466 0.521363 1
gene 1 2021 2021 -0.680823 1 66912 -0.680823 1
gene 1 21 14 -0.662733 0 67506 -0.662733 1
gene 1 19 2088 0.889311 0 67723 0.889311 1
gene 1 4 18 -0.309391 0 68098 -0.309391 1
gene 1 19 17 0.838551 0 69651 0.838551 1
gene 1 12 23 -0.720325 0 69806 -0.720325 1
gene 1 1172 1174 -0.926115 0 70232 -0.926115 1
gene 1 2 2040 0.171999 0 70466 0.171999 1
gene 1 9 1013 0.155787 0 71576 0.155787 1
genomeend 0
