/* Organism #140541816264712 Fitness: -92043.6 
genomestart 200
trait 1 0.209607 0.657779 0.892004 0.0728918 0.465777 0.741738 0.271941 0.56356 
node 1 1 0
node 2 1 1
node 3 1 1
node 4 1 1
node 5 1 1
node 6 1 1
node 7 1 1
node 8 1 1
node 9 1 1
node 10 1 1
node 11 1 1
node 12 1 2
node 13 1 2
node 14 1 2
node 15 1 2
node 16 1 2
node 17 1 2
node 18 1 2
node 19 1 2
node 20 1 2
node 21 1 2
node 22 1 2
node 23 1 2
node 24 1 2
node 25 1 2
node 28 1 3
node 29 1 3
node 31 1 3
node 33 1 3
node 515 1 3
node 1547 1 3
node 1889 1 3
node 1898 1 3
node 2319 1 3
node 2476 1 3
gene 1 1 28 3.55261 0 3 3.55261 1
gene 1 1 29 3.65258 0 4 3.65258 1
gene 1 1 31 -2.4149 0 6 -2.4149 1
gene 1 1 33 -3.64814 0 8 -3.64814 1
gene 1 2 28 -0.262369 0 13 -0.262369 1
gene 1 2 29 0.959654 0 14 0.959654 1
gene 1 2 31 1.2321 0 16 1.2321 1
gene 1 2 33 -1.64464 0 18 -1.64464 1
gene 1 3 31 0.352757 0 26 0.352757 1
gene 1 4 28 -4.96786 0 33 -4.96786 1
gene 1 4 33 0.00869231 0 38 0.00869231 1
gene 1 5 29 0.479953 0 44 0.479953 1
gene 1 5 31 -6.63038 0 46 -6.63038 1
gene 1 5 33 0.209193 0 48 0.209193 1
gene 1 6 28 0.93924 0 53 0.93924 1
gene 1 6 29 3.59015 0 54 3.59015 1
gene 1 7 29 1.23466 0 64 1.23466 1
gene 1 7 31 3.2691 0 66 3.2691 1
gene 1 8 28 -1.05661 0 73 -1.05661 1
gene 1 8 29 -1.22444 0 74 -1.22444 1
gene 1 8 33 0.843032 0 78 0.843032 1
gene 1 9 28 0.220298 0 83 0.220298 1
gene 1 9 31 0.62597 0 86 0.62597 1
gene 1 9 33 2.08927 0 88 2.08927 1
gene 1 10 28 1.91982 0 93 1.91982 1
gene 1 10 31 -1.45876 0 96 -1.45876 1
gene 1 10 33 1.01281 0 98 1.01281 1
gene 1 11 28 -0.355561 0 103 -0.355561 1
gene 1 11 29 -1.78612 0 104 -1.78612 1
gene 1 11 31 0.135375 0 106 0.135375 1
gene 1 28 12 3.27422 0 139 3.27422 1
gene 1 28 13 -4.9024 0 140 -4.9024 1
gene 1 28 15 -1.97181 0 142 -1.97181 1
gene 1 28 17 0.473704 0 144 0.473704 1
gene 1 28 18 -0.275041 0 145 -0.275041 1
gene 1 28 20 -3.20931 0 147 -3.20931 1
gene 1 28 21 -0.739123 0 148 -0.739123 1
gene 1 28 23 -0.0919695 0 150 -0.0919695 1
gene 1 29 13 -0.372961 0 154 -0.372961 1
gene 1 29 14 -0.975504 0 155 -0.975504 1
gene 1 29 20 -0.594717 0 161 -0.594717 1
gene 1 29 21 -0.394528 0 162 -0.394528 1
gene 1 29 22 0.345226 0 163 0.345226 1
gene 1 29 23 -5.21525 0 164 -5.21525 1
gene 1 31 16 -0.301766 0 185 -0.301766 1
gene 1 31 17 -1.02954 0 186 -1.02954 1
gene 1 31 19 2.0573 0 188 2.0573 1
gene 1 31 22 1.49179 0 191 1.49179 1
gene 1 31 25 0.626183 0 194 0.626183 1
gene 1 33 13 -0.215451 0 210 -0.215451 1
gene 1 33 17 -1.89589 0 214 -1.89589 1
gene 1 33 21 5.7538 0 218 5.7538 1
gene 1 33 22 1.91847 0 219 1.91847 1
gene 1 14 14 -0.863898 1 2319 -0.863898 1
gene 1 13 19 1.26153 0 3106 1.26153 1
gene 1 9 13 -0.600063 0 4056 -0.600063 1
gene 1 14 23 0.255101 0 4192 0.255101 1
gene 1 4 13 0.0531444 0 4697 0.0531444 1
gene 1 4 19 2.67459 0 5326 2.67459 1
gene 1 15 13 0.213634 0 6767 0.213634 1
gene 1 3 21 -0.35256 0 7182 -0.35256 1
gene 1 7 12 1.97113 0 7627 1.97113 1
gene 1 31 31 2.29744 1 7827 2.29744 1
gene 1 6 13 1.5425 0 8210 1.5425 1
gene 1 24 15 0.901691 0 8383 0.901691 1
gene 1 7 16 -4.26664 0 8580 -4.26664 1
gene 1 9 18 -2.19478 0 9351 -2.19478 1
gene 1 15 18 -3.48427 0 9553 -3.48427 1
gene 1 18 17 1.7401 0 9974 1.7401 1
gene 1 4 24 2.64017 0 11444 2.64017 1
gene 1 23 31 0.7904 1 12426 0.7904 1
gene 1 31 515 -0.296975 0 13071 -0.296975 1
gene 1 8 20 -2.0574 0 17247 -2.0574 1
gene 1 25 25 -1.1292 1 17463 -1.1292 1
gene 1 22 22 -0.616317 1 18093 -0.616317 1
gene 1 23 23 0.171444 1 19298 0.171444 1
gene 1 20 20 -0.621423 1 21208 -0.621423 1
gene 1 23 17 0.614284 0 21663 0.614284 1
gene 1 28 515 -0.598612 0 25103 -0.598612 1
gene 1 22 21 0.290049 0 25760 0.290049 1
gene 1 19 19 1.41827 1 27096 1.41827 1
gene 1 21 24 1.76067 0 28199 1.76067 1
gene 1 24 24 -0.62966 1 28731 -0.62966 1
gene 1 24 25 1.37675 0 29696 1.37675 1
gene 1 31 33 -0.523794 0 31112 -0.523794 1
gene 1 16 18 0.866161 0 33122 0.866161 1
gene 1 5 18 1.20574 0 33757 1.20574 1
gene 1 24 18 -1.34082 0 33817 -1.34082 1
gene 1 18 18 -1.68855 1 34101 -1.68855 1
gene 1 6 16 -1.30944 0 34160 -1.30944 1
gene 1 14 25 -0.95596 0 34991 -0.95596 1
gene 1 4 25 -1.02628 0 35817 -1.02628 1
gene 1 515 24 0.27713 0 37037 0.27713 1
gene 1 10 22 -0.350858 0 37275 -0.350858 1
gene 1 20 16 0.423473 0 37415 0.423473 1
gene 1 21 25 0.749033 0 37597 0.749033 1
gene 1 13 17 0.605037 0 37825 0.605037 1
gene 1 33 12 -0.234165 0 38935 -0.234165 1
gene 1 16 15 0.300531 0 39138 0.300531 1
gene 1 3 13 -1.35111 0 39530 -1.35111 1
gene 1 17 17 -0.354879 1 39691 -0.354879 1
gene 1 22 24 0.225126 0 39938 0.225126 1
gene 1 10 12 1.1105 0 40331 1.1105 1
gene 1 23 25 -0.0463911 0 41194 -0.0463911 1
gene 1 31 1547 1.42627 0 41333 1.37496 1
gene 1 1547 14 -5.62095 0 41334 -5.17162 1
gene 1 12 12 -0.732069 1 41504 -0.732069 1
gene 1 10 14 0.551569 0 42692 0.551569 1
gene 1 1 20 -0.605992 0 42878 -0.605992 1
gene 1 1547 1547 0.415036 1 43518 0.415036 1
gene 1 6 19 0.880521 0 45060 0.880521 1
gene 1 7 24 0.320872 0 45848 0.320872 1
gene 1 13 22 0.773833 1 46030 0.773833 1
gene 1 5 515 -0.346089 0 46259 -0.346089 1
gene 1 515 515 0.0494076 1 46517 0.0494076 1
gene 1 6 24 -0.271226 0 46965 -0.271226 1
gene 1 33 33 0.269515 1 47528 0.269515 1
gene 1 7 19 -0.638186 0 49190 -0.638186 1
gene 1 11 1889 0.863713 0 50898 0.647065 1
gene 1 1889 19 -1.08416 0 50899 -0.99629 1
gene 1 7 1898 0.410965 0 51096 0.276222 1
gene 1 9 17 0.462055 0 52579 0.462055 1
gene 1 8 31 0.352222 0 52753 0.352222 1
gene 1 29 25 1.08954 0 53178 1.08954 1
gene 1 17 19 0.728187 0 53367 0.728187 1
gene 1 29 12 -0.399976 0 54338 -0.399976 1
gene 1 15 15 -0.305096 1 54767 -0.305096 1
gene 1 22 23 0.230067 0 54992 0.230067 1
gene 1 5 1547 1.34472 0 56417 1.34472 1
gene 1 11 14 -0.0566196 0 56637 -0.0566196 1
gene 1 20 13 0.529522 0 57050 0.529522 1
gene 1 28 28 -0.424103 1 59262 -0.424103 1
gene 1 13 13 0.297373 1 59318 0.297373 1
gene 1 19 515 -0.89832 1 59577 -0.89832 1
gene 1 12 1898 0.420633 1 60169 0.420633 1
gene 1 10 1547 0.594701 0 60517 0.594701 1
gene 1 6 1889 -0.38683 0 61047 -0.38683 1
gene 1 4 20 -0.980305 0 61756 -0.980305 1
gene 1 14 28 -1.3768 1 62205 -1.3768 1
gene 1 8 19 -0.125083 0 62385 -0.125083 1
gene 1 9 24 0.318601 0 62574 0.318601 1
gene 1 10 2319 0.557761 0 62702 0.0577608 1
gene 1 2319 16 0.505912 0 62703 0.522679 1
gene 1 17 23 -0.921789 1 62929 -0.921789 1
gene 1 1547 17 0.767207 0 63777 0.767207 1
gene 1 21 21 0.0983549 1 64186 0.0983549 1
gene 1 25 15 0.42411 1 64425 0.42411 1
gene 1 1898 13 0.991232 0 64631 0.991232 1
gene 1 1889 1889 -0.519405 1 64829 -0.519405 1
gene 1 33 18 -0.861858 0 65600 -0.861858 1
gene 1 33 1898 -0.171205 0 65819 -0.171205 1
gene 1 2319 1898 0.502448 0 66187 0.502448 1
gene 1 7 33 -0.587205 0 66470 -0.587205 1
gene 1 15 23 -0.6541 0 66845 -0.6541 1
gene 1 20 2476 1 0 67118 0 1
gene 1 2476 14 -0.9689 0 67119 0 1
gene 1 2476 2476 -0.163611 1 68013 -0.163611 1
gene 1 515 31 0.279875 1 68157 0.279875 1
gene 1 1 1898 0.0858044 0 68662 0.0858044 1
gene 1 10 1889 -0.655094 0 68875 -0.655094 1
gene 1 1547 19 -0.341881 0 69080 -0.341881 1
gene 1 515 2476 -0.281462 0 69691 -0.281462 1
genomeend 200
