/* Organism #32208816 Fitness: -92165.4 
genomestart 951
trait 1 0.724648 0 0 0.170953 0 0.746656 1 0.543089 
node 1 1 0
node 2 1 1
node 3 1 1
node 4 1 1
node 5 1 1
node 6 1 1
node 7 1 1
node 8 1 1
node 9 1 1
node 10 1 1
node 11 1 1
node 12 1 2
node 13 1 2
node 14 1 2
node 15 1 2
node 16 1 2
node 17 1 2
node 18 1 2
node 19 1 2
node 20 1 2
node 21 1 2
node 22 1 2
node 23 1 2
node 24 1 2
node 25 1 2
node 26 1 3
node 27 1 3
node 28 1 3
node 29 1 3
node 31 1 3
node 32 1 3
node 34 1 3
node 1372 1 3
node 1377 1 3
node 1420 1 3
node 1499 1 3
node 1657 1 3
node 2210 1 3
node 2317 1 3
node 2432 1 3
gene 1 1 26 0.0977514 0 1 0.0977514 1
gene 1 1 27 -4.01488 0 2 -4.01488 1
gene 1 1 28 0.76739 0 3 0.76739 1
gene 1 1 29 2.05657 0 4 2.05657 1
gene 1 1 32 -1.89762 0 7 -1.89762 1
gene 1 2 27 0.239487 0 12 0.239487 1
gene 1 2 28 -0.247874 0 13 -0.247874 1
gene 1 2 29 0.0756803 0 14 0.0756803 1
gene 1 2 34 0.706523 0 19 0.706523 1
gene 1 3 26 2.22834 0 21 2.22834 1
gene 1 3 27 0.332819 0 22 0.332819 1
gene 1 3 31 -0.941845 0 26 -0.941845 1
gene 1 3 34 -2.32278 0 29 -2.32278 1
gene 1 4 26 0.546449 0 31 0.546449 1
gene 1 4 28 -0.912109 0 33 -0.912109 1
gene 1 5 27 -2.08884 0 42 -2.08884 1
gene 1 5 28 3.41841 0 43 3.41841 1
gene 1 5 29 2.02629 0 44 2.02629 1
gene 1 5 32 -3.00143 0 47 -3.00143 1
gene 1 5 34 7.05472 0 49 7.05472 1
gene 1 6 26 -3.72442 0 51 -3.72442 1
gene 1 6 27 -1.58522 0 52 -1.58522 1
gene 1 6 29 0.866018 0 54 0.866018 1
gene 1 6 32 0.3094 0 57 0.3094 1
gene 1 6 34 2.48232 0 59 2.48232 1
gene 1 7 26 3.66639 0 61 3.66639 1
gene 1 7 28 -0.0322752 0 63 -0.0322752 1
gene 1 7 29 -4.45569 0 64 -4.45569 1
gene 1 7 31 -3.86134 0 66 -3.86134 1
gene 1 7 32 -0.398206 0 67 -0.398206 1
gene 1 8 31 -2.31091 0 76 -2.31091 1
gene 1 8 32 -1.79606 0 77 -1.79606 1
gene 1 9 29 2.85289 0 84 2.85289 1
gene 1 9 31 -1.6334 0 86 -1.6334 1
gene 1 9 34 0.293157 0 89 0.293157 1
gene 1 10 27 0.682916 0 92 0.682916 1
gene 1 10 28 -1.79835 0 93 -1.79835 1
gene 1 10 29 -2.60411 0 94 -2.60411 1
gene 1 10 32 -1.24466 0 97 -1.24466 1
gene 1 11 26 0.715729 0 101 0.715729 1
gene 1 11 27 1.4234 0 102 1.4234 1
gene 1 11 28 -0.975761 0 103 -0.975761 1
gene 1 11 29 -1.42864 0 104 -1.42864 1
gene 1 11 31 -1.83106 0 106 -1.83106 1
gene 1 11 32 1.57882 0 107 1.57882 1
gene 1 11 34 0.391662 0 109 0.391662 1
gene 1 26 12 1.34168 0 111 1.34168 1
gene 1 26 14 -0.375627 0 113 -0.375627 1
gene 1 26 17 1.84261 0 116 1.84261 1
gene 1 26 20 1.37327 0 119 1.37327 1
gene 1 26 21 1.15145 0 120 1.15145 1
gene 1 26 23 -1.28739 0 122 -1.28739 1
gene 1 26 24 0.035745 0 123 0.035745 1
gene 1 26 25 3.0599 0 124 3.0599 1
gene 1 27 12 0.710008 0 125 0.710008 1
gene 1 27 13 1.46039 0 126 1.46039 1
gene 1 27 14 -3.29211 0 127 -3.29211 1
gene 1 27 15 0.0156949 0 128 0.0156949 1
gene 1 27 16 5.15427 0 129 5.15427 1
gene 1 27 17 1.88982 0 130 1.88982 1
gene 1 27 19 4.54993 0 132 4.54993 1
gene 1 27 20 1.11362 0 133 1.11362 1
gene 1 27 22 -1.87918 0 135 -1.87918 1
gene 1 27 23 3.19388 0 136 3.19388 1
gene 1 27 25 0.460342 0 138 0.460342 1
gene 1 28 12 0.282163 0 139 0.282163 1
gene 1 28 14 0.0737163 0 141 0.0737163 1
gene 1 28 15 -3.28481 0 142 -3.28481 1
gene 1 28 17 0.682881 0 144 0.682881 1
gene 1 28 18 -1.18457 0 145 -1.18457 1
gene 1 28 20 -2.03584 0 147 -2.03584 1
gene 1 28 21 -4.62421 0 148 -4.62421 1
gene 1 28 22 -1.39796 0 149 -1.39796 1
gene 1 28 23 -3.95116 0 150 -3.95116 1
gene 1 28 24 -0.445521 0 151 -0.445521 1
gene 1 28 25 1.61848 0 152 1.61848 1
gene 1 29 12 -1.34535 0 153 -1.34535 1
gene 1 29 13 1.03515 0 154 1.03515 1
gene 1 29 15 -0.219577 0 156 -0.219577 1
gene 1 29 16 5.33753 0 157 5.33753 1
gene 1 29 17 -1.81931 0 158 -1.81931 1
gene 1 29 18 -2.92178 0 159 -2.92178 1
gene 1 29 19 1.33468 0 160 1.33468 1
gene 1 29 21 -1.58168 0 162 -1.58168 1
gene 1 29 22 -2.66456 0 163 -2.66456 1
gene 1 29 23 3.24238 0 164 3.24238 1
gene 1 29 24 -1.85323 0 165 -1.85323 1
gene 1 29 25 1.02091 0 166 1.02091 1
gene 1 31 13 -2.028 0 182 -2.028 1
gene 1 31 15 -0.86043 0 184 -0.86043 1
gene 1 31 16 0.106625 0 185 0.106625 1
gene 1 31 17 0.652313 0 186 0.652313 1
gene 1 31 18 1.00724 0 187 1.00724 1
gene 1 31 20 2.69797 0 189 2.69797 1
gene 1 31 21 0.126728 0 190 0.126728 1
gene 1 31 23 2.28508 0 192 2.28508 1
gene 1 31 25 0.775343 0 194 0.775343 1
gene 1 32 12 -6.82716 0 195 -6.82716 1
gene 1 32 13 -1.26899 0 196 -1.26899 1
gene 1 32 15 0.468383 0 198 0.468383 1
gene 1 32 17 -0.78073 0 200 -0.78073 1
gene 1 32 18 0.0672267 0 201 0.0672267 1
gene 1 32 19 -0.0378168 0 202 -0.0378168 1
gene 1 32 21 0.44573 0 204 0.44573 1
gene 1 32 23 -3.32763 0 206 -3.32763 1
gene 1 32 25 4.29793 0 208 4.29793 1
gene 1 34 12 6.95438 0 223 6.95438 1
gene 1 34 18 -2.18612 0 229 -2.18612 1
gene 1 34 19 0.940445 0 230 0.940445 1
gene 1 34 22 -1.79973 0 233 -1.79973 1
gene 1 34 25 -0.0724536 0 236 -0.0724536 1
gene 1 1 22 -0.0566722 0 449 -0.0566722 1
gene 1 6 12 2.35657 0 1303 2.35657 1
gene 1 10 12 0.893568 0 1514 0.893568 1
gene 1 34 34 -0.652576 1 3467 -0.652576 1
gene 1 15 20 0.94864 0 3675 0.94864 1
gene 1 19 21 1.36961 0 4411 1.36961 1
gene 1 23 12 1.03049 0 4956 1.03049 1
gene 1 3 22 -0.493561 0 5085 -0.493561 1
gene 1 7 19 -0.181959 0 6023 -0.181959 1
gene 1 28 29 0.983042 0 8453 0.983042 1
gene 1 17 17 -0.642331 1 9295 -0.642331 1
gene 1 17 19 0.380961 0 9869 0.380961 1
gene 1 15 13 1.86351 0 10060 1.86351 1
gene 1 24 15 -0.349906 0 10110 -0.349906 1
gene 1 11 14 0.746135 0 11205 0.746135 1
gene 1 13 23 -1.05357 0 12312 -1.05357 1
gene 1 23 20 0.0748655 0 12876 0.0748655 1
gene 1 22 14 0.722401 0 13298 0.722401 1
gene 1 24 20 0.461298 0 16620 0.461298 1
gene 1 13 19 -1.32053 0 17097 -1.32053 1
gene 1 27 26 1.04951 0 17285 1.04951 1
gene 1 29 29 2.11345 1 18362 2.11345 1
gene 1 21 21 0.249956 1 19555 0.249956 1
gene 1 2 12 2.3345 0 19742 2.3345 1
gene 1 29 26 -1.50343 0 20680 -1.50343 1
gene 1 9 13 -0.277993 0 21010 -0.277993 1
gene 1 10 22 1.43885 0 21503 1.43885 1
gene 1 4 17 -0.596256 0 23125 -0.596256 1
gene 1 34 15 -0.776498 0 24124 -0.776498 1
gene 1 2 22 0.406344 0 24768 0.406344 1
gene 1 12 12 0.899134 1 25528 0.899134 1
gene 1 1 23 -0.295062 0 25594 -0.295062 1
gene 1 32 22 -0.143355 0 26026 -0.143355 1
gene 1 22 25 -0.279647 1 26789 -0.279647 1
gene 1 9 25 -0.418849 0 27308 -0.418849 1
gene 1 11 15 -0.975633 0 27867 -0.975633 1
gene 1 11 19 -0.27013 0 29006 -0.27013 1
gene 1 31 31 0.517735 1 30485 0.517735 1
gene 1 11 13 0.644935 0 31422 0.644935 1
gene 1 28 13 -0.611952 0 32648 -0.611952 1
gene 1 11 20 0.10229 0 33389 0.10229 1
gene 1 24 14 0.594117 0 33735 0.594117 1
gene 1 18 20 0.775222 0 33853 0.775222 1
gene 1 21 14 -1.14311 0 34581 -1.14311 1
gene 1 5 15 -0.910594 0 34906 -0.910594 1
gene 1 4 1372 3.04974 0 36139 3.04974 1
gene 1 20 1377 0.328662 0 36342 0.212894 1
gene 1 1377 16 0.738963 0 36343 0.525762 1
gene 1 21 25 0.138297 0 36770 0.138297 1
gene 1 11 18 0.190781 0 37171 0.190781 1
gene 1 26 1420 0.8396 0 37364 0.429684 1
gene 1 1420 22 0.188471 0 37365 0.0476901 1
gene 1 1377 1377 1.02806 1 37479 1.02806 1
gene 1 5 14 0.641036 0 37745 0.641036 1
gene 1 20 28 0.212042 1 38118 0.212042 1
gene 1 21 19 -0.17772 1 39176 -0.17772 1
gene 1 29 1499 0.904079 0 39371 0.904079 1
gene 1 1499 20 -0.246645 0 39372 -0.246645 1
gene 1 8 19 -1.17618 0 40879 -1.17618 1
gene 1 1 19 -0.315545 0 41215 -0.315545 1
gene 1 8 1377 0.880252 0 41371 0.880252 1
gene 1 4 20 1.07264 0 41593 1.07264 1
gene 1 15 15 -0.222275 1 43369 -0.222275 1
gene 1 19 1657 -0.227942 0 43678 -0.227942 1
gene 1 1657 25 -0.500768 0 43679 -0.331216 1
gene 1 22 22 -0.0375833 1 43745 -0.0375833 1
gene 1 12 1657 0.196918 0 44471 0.196918 1
gene 1 20 20 -0.643024 1 44919 -0.643024 1
gene 1 1377 13 0.404119 1 45972 0.404119 1
gene 1 27 32 0.430477 0 46110 0.430477 1
gene 1 1420 1420 1.40136 1 47897 1.40136 1
gene 1 32 32 0.256968 1 48567 0.256968 1
gene 1 18 18 -0.623541 1 48908 -0.623541 1
gene 1 1499 1499 0.174435 1 49102 0.174435 1
gene 1 3 23 -0.585726 0 50242 -0.585726 1
gene 1 10 15 -0.120269 0 50496 -0.120269 1
gene 1 1372 29 0.163684 0 50766 0.163684 1
gene 1 1377 19 -0.2875 0 53855 -0.2875 1
gene 1 3 1377 0.679119 0 54072 0.679119 1
gene 1 23 23 0.956101 1 54642 0.956101 1
gene 1 8 1420 -0.320306 0 54881 -0.320306 1
gene 1 24 22 -0.630863 0 57464 -0.630863 1
gene 1 1372 2210 0.336724 0 58257 0.336724 1
gene 1 2210 32 0.148521 0 58258 -0.0466977 1
gene 1 26 32 -0.734505 0 58317 -0.734505 1
gene 1 27 1377 -0.482432 0 58456 -0.482432 1
gene 1 14 2210 1.13846 1 58697 1.13846 1
gene 1 7 1372 -0.547278 0 59143 -0.547278 1
gene 1 2 19 0.623441 0 60634 0.623441 1
gene 1 3 2210 0.058297 0 60916 0.058297 1
gene 1 24 17 -0.512416 0 61230 -0.512416 1
gene 1 21 2317 0.853592 0 61431 0.197342 1
gene 1 2317 1420 0.795323 0 61432 -0.00207759 1
gene 1 18 19 0.0142951 0 61665 0.0142951 1
gene 1 1372 34 1.58973 0 62300 1.58973 1
gene 1 23 19 -0.767773 0 62683 -0.767773 1
gene 1 28 28 0.0173148 1 63293 0.0173148 1
gene 1 1657 1657 -1.56788 1 63572 -1.56788 1
gene 1 29 2317 -0.983824 0 63717 -0.983824 1
gene 1 14 14 1.00948 1 64149 1.00948 1
gene 1 34 2432 0.833532 0 64387 -0.0414678 1
gene 1 2432 1420 0.494606 0 64388 0.295812 1
gene 1 23 25 0.112144 0 64833 0.112144 1
gene 1 26 2317 0.920056 0 65064 0.920056 1
gene 1 25 25 0.992449 1 65451 0.992449 1
gene 1 24 32 0.00984089 0 65772 0.00984089 1
gene 1 5 1377 -0.972472 0 65990 -0.972472 1
gene 1 1499 26 -0.640229 0 66406 -0.640229 1
gene 1 27 1372 1.68825 0 67032 1.68825 1
gene 1 28 1657 -0.262037 0 67308 -0.262037 1
gene 1 1372 16 -0.498926 0 67858 -0.498926 1
gene 1 1372 23 0.504848 0 68100 0.504848 1
gene 1 31 2210 1.73214 0 68533 1.73214 1
gene 1 2210 28 -0.367865 0 68924 -0.367865 1
gene 1 29 20 -0.60933 0 69131 -0.60933 1
gene 1 19 24 -0.370106 1 69555 -0.370106 1
gene 1 3 12 0.230491 0 69770 0.230491 1
gene 1 4 31 -0.214883 0 69983 -0.214883 1
gene 1 8 2210 -0.75205 0 70405 -0.75205 1
genomeend 951
