/* Organism #140062573197240 Fitness: -92771.2 
genomestart 628
trait 1 0.0170135 0.984991 0.022322 0.443657 0.889647 0.0440826 0.559357 0.974919 
node 1 1 0
node 2 1 1
node 3 1 1
node 4 1 1
node 5 1 1
node 6 1 1
node 7 1 1
node 8 1 1
node 9 1 1
node 10 1 1
node 11 1 1
node 12 1 2
node 13 1 2
node 14 1 2
node 15 1 2
node 16 1 2
node 17 1 2
node 18 1 2
node 19 1 2
node 20 1 2
node 21 1 2
node 22 1 2
node 23 1 2
node 24 1 2
node 25 1 2
node 27 1 3
node 28 1 3
node 29 1 3
node 30 1 3
node 33 1 3
node 34 1 3
node 35 1 3
node 386 1 3
node 553 1 3
node 1876 1 3
node 1934 1 3
node 2049 1 3
node 2131 1 3
node 2473 1 3
gene 1 1 28 0.858367 0 3 0.858367 1
gene 1 1 29 -1.42448 0 4 -1.42448 1
gene 1 1 30 2.57648 0 5 2.57648 1
gene 1 1 33 -0.850295 0 8 -0.850295 1
gene 1 1 34 1.50842 0 9 1.50842 1
gene 1 1 35 -6.29221 0 10 -6.29221 1
gene 1 2 27 1.74847 0 12 1.74847 1
gene 1 2 28 -0.548813 0 13 -0.548813 1
gene 1 2 30 -3.41964 0 15 -3.41964 1
gene 1 2 33 1.8711 0 18 1.8711 1
gene 1 2 35 -0.419756 0 20 -0.419756 1
gene 1 3 27 -2.23549 0 22 -2.23549 1
gene 1 3 29 -1.69395 0 24 -1.69395 1
gene 1 3 30 -1.63984 0 25 -1.63984 1
gene 1 3 33 -2.72744 0 28 -2.72744 1
gene 1 3 34 3.18638 0 29 3.18638 1
gene 1 3 35 0.112203 0 30 0.112203 1
gene 1 4 28 -0.564415 0 33 -0.564415 1
gene 1 4 29 -1.46895 0 34 -1.46895 1
gene 1 5 27 3.05337 0 42 3.05337 1
gene 1 5 29 -0.807593 0 44 -0.807593 1
gene 1 5 33 0.416771 0 48 0.416771 1
gene 1 6 28 2.70215 0 53 2.70215 1
gene 1 6 29 -0.556121 0 54 -0.556121 1
gene 1 6 30 0.512817 0 55 0.512817 1
gene 1 6 33 0.655088 0 58 0.655088 1
gene 1 6 34 1.04372 0 59 1.04372 1
gene 1 7 27 -2.66256 0 62 -2.66256 1
gene 1 7 28 -2.96518 0 63 -2.96518 1
gene 1 7 29 0.718627 0 64 0.718627 1
gene 1 7 34 0.085261 0 69 0.085261 1
gene 1 7 35 1.16268 0 70 1.16268 1
gene 1 8 28 0.288388 0 73 0.288388 1
gene 1 8 29 -3.68521 0 74 -3.68521 1
gene 1 8 30 1.90244 0 75 1.90244 1
gene 1 8 33 -2.49478 0 78 -2.49478 1
gene 1 9 27 1.07519 0 82 1.07519 1
gene 1 9 28 3.07913 0 83 3.07913 1
gene 1 9 30 0.963156 0 85 0.963156 1
gene 1 9 33 2.07432 0 88 2.07432 1
gene 1 10 27 0.628705 0 92 0.628705 1
gene 1 10 28 -1.82235 0 93 -1.82235 1
gene 1 10 29 1.24134 0 94 1.24134 1
gene 1 10 30 2.46685 0 95 2.46685 1
gene 1 10 35 0.677666 0 100 0.677666 1
gene 1 11 27 1.73089 0 102 1.73089 1
gene 1 11 28 0.336215 0 103 0.336215 1
gene 1 11 29 -2.88899 0 104 -2.88899 1
gene 1 11 30 -0.736311 0 105 -0.736311 1
gene 1 11 33 -1.05248 0 108 -1.05248 1
gene 1 27 12 1.01598 0 125 1.01598 1
gene 1 27 13 -0.555004 0 126 -0.555004 1
gene 1 27 14 0.215821 0 127 0.215821 1
gene 1 27 15 -2.84535 0 128 -2.84535 1
gene 1 27 16 -0.0970684 0 129 -0.0970684 1
gene 1 27 18 4.08585 0 131 4.08585 1
gene 1 27 24 -1.55924 0 137 -1.55924 1
gene 1 27 25 -3.96554 0 138 -3.96554 1
gene 1 28 13 1.77884 0 140 1.77884 1
gene 1 28 15 1.84054 0 142 1.84054 1
gene 1 28 16 -0.904889 0 143 -0.904889 1
gene 1 28 17 -0.608177 0 144 -0.608177 1
gene 1 28 18 1.46571 0 145 1.46571 1
gene 1 28 20 -0.726165 0 147 -0.726165 1
gene 1 28 22 -2.81907 0 149 -2.81907 1
gene 1 28 23 -2.26476 0 150 -2.26476 1
gene 1 29 12 -0.649104 0 153 -0.649104 1
gene 1 29 13 2.31601 0 154 2.31601 1
gene 1 29 14 -0.213078 0 155 -0.213078 1
gene 1 29 15 1.01072 0 156 1.01072 1
gene 1 29 16 5.11356 0 157 5.11356 1
gene 1 29 17 -2.04364 0 158 -2.04364 1
gene 1 29 18 -1.38813 0 159 -1.38813 1
gene 1 29 19 0.482927 0 160 0.482927 1
gene 1 29 20 0.181265 0 161 0.181265 1
gene 1 29 21 1.80984 0 162 1.80984 1
gene 1 29 22 -1.98624 0 163 -1.98624 1
gene 1 29 23 -1.68793 0 164 -1.68793 1
gene 1 29 24 2.95152 0 165 2.95152 1
gene 1 29 25 -0.0464719 0 166 -0.0464719 1
gene 1 30 13 -2.23488 0 168 -2.23488 1
gene 1 30 14 2.70032 0 169 2.70032 1
gene 1 30 15 3.9333 0 170 3.9333 1
gene 1 30 18 0.649999 0 173 0.649999 1
gene 1 30 20 -3.42413 0 175 -3.42413 1
gene 1 30 21 -1.61934 0 176 -1.61934 1
gene 1 30 22 0.892047 0 177 0.892047 1
gene 1 30 23 -2.56984 0 178 -2.56984 1
gene 1 30 24 -2.25379 0 179 -2.25379 1
gene 1 33 12 0.182662 0 209 0.182662 1
gene 1 33 14 2.13944 0 211 2.13944 1
gene 1 33 15 2.28086 0 212 2.28086 1
gene 1 33 17 0.359405 0 214 0.359405 1
gene 1 33 18 -4.23701 0 215 -4.23701 1
gene 1 33 19 -2.52248 0 216 -2.52248 1
gene 1 33 22 -3.07572 0 219 -3.07572 1
gene 1 33 23 -1.77983 0 220 -1.77983 1
gene 1 33 24 1.27244 0 221 1.27244 1
gene 1 33 25 -1.23103 0 222 -1.23103 1
gene 1 34 12 4.46479 0 223 4.46479 1
gene 1 34 14 2.32835 0 225 2.32835 1
gene 1 34 16 -2.61889 0 227 -2.61889 1
gene 1 34 17 0.0932115 0 228 0.0932115 1
gene 1 34 19 -1.43842 0 230 -1.43842 1
gene 1 34 20 -2.03294 0 231 -2.03294 1
gene 1 34 21 -2.01882 0 232 -2.01882 1
gene 1 34 22 -0.296625 0 233 -0.296625 1
gene 1 34 25 0.98217 0 236 0.98217 1
gene 1 35 12 -1.32218 0 237 -1.32218 1
gene 1 35 13 0.752298 0 238 0.752298 1
gene 1 35 14 -1.51898 0 239 -1.51898 1
gene 1 35 15 0.059285 0 240 0.059285 1
gene 1 35 18 -0.345423 0 243 -0.345423 1
gene 1 35 20 1.64539 0 245 1.64539 1
gene 1 35 22 0.653941 0 247 0.653941 1
gene 1 35 25 0.581675 0 250 0.581675 1
gene 1 25 21 -0.406183 0 1150 -0.406183 1
gene 1 7 16 -0.123597 0 2340 -0.123597 1
gene 1 28 28 2.08108 1 2541 2.08108 1
gene 1 14 14 -1.99161 1 4794 -1.99161 1
gene 1 23 12 1.6443 0 4963 1.6443 1
gene 1 18 17 -1.04264 0 5403 -1.04264 1
gene 1 9 12 -0.8566 0 6196 -0.8566 1
gene 1 15 19 -0.0360417 0 6329 -0.0360417 1
gene 1 35 29 0.41417 0 7156 0.41417 1
gene 1 10 19 1.16018 0 7546 1.16018 1
gene 1 12 20 0.617613 0 7731 0.617613 1
gene 1 13 12 1.40725 0 7926 1.40725 1
gene 1 6 22 -0.39787 0 8402 -0.39787 1
gene 1 10 18 2.22239 0 8699 2.22239 1
gene 1 8 386 1.01449 0 9189 1.01449 1
gene 1 386 27 -0.289857 0 9190 -0.289857 1
gene 1 27 33 1.70422 0 10128 1.70422 1
gene 1 18 18 1.4052 1 10259 1.4052 1
gene 1 34 34 -1.86825 1 10666 -1.86825 1
gene 1 14 18 -1.6046 0 12807 -1.6046 1
gene 1 27 28 0.527037 0 12971 0.527037 1
gene 1 27 553 0.860317 0 13500 0.860317 1
gene 1 553 20 0.943364 0 13501 0.943364 1
gene 1 27 30 -1.44163 0 14122 -1.44163 1
gene 1 13 18 0.746667 0 18492 0.746667 1
gene 1 20 20 -1.15386 1 19676 -1.15386 1
gene 1 5 17 -1.70301 0 20473 -1.70301 1
gene 1 7 14 -0.23484 0 20835 -0.23484 1
gene 1 33 33 -0.330904 1 21915 -0.330904 1
gene 1 4 14 0.450074 0 23041 0.450074 1
gene 1 24 24 0.397987 1 23245 0.397987 1
gene 1 19 17 0.677641 0 23902 0.677641 1
gene 1 27 21 -1.01117 0 24798 -1.01117 1
gene 1 14 22 -1.0018 0 24984 -1.0018 1
gene 1 6 21 -0.931526 0 26534 -0.931526 1
gene 1 18 21 0.445002 0 26944 0.445002 1
gene 1 386 386 -0.0603824 1 28288 -0.0603824 1
gene 1 17 17 -0.207513 1 28895 -0.207513 1
gene 1 2 13 1.95409 0 29221 1.95409 1
gene 1 8 14 -1.54561 0 31241 -1.54561 1
gene 1 30 553 -0.284211 0 31544 -0.284211 1
gene 1 386 33 2.46224 0 32086 2.46224 1
gene 1 30 33 -0.953403 0 32291 -0.953403 1
gene 1 553 21 0.422551 0 33128 0.422551 1
gene 1 553 29 -1.85304 0 33336 -1.85304 1
gene 1 16 17 -1.02045 0 35338 -1.02045 1
gene 1 27 27 1.11541 1 36387 1.11541 1
gene 1 18 12 0.332867 0 37507 0.332867 1
gene 1 14 23 -0.374284 0 40365 -0.374284 1
gene 1 4 13 0.625824 0 42298 0.625824 1
gene 1 386 19 -1.27965 0 42612 -1.27965 1
gene 1 15 15 -1.02035 1 42983 -1.02035 1
gene 1 10 553 -0.677499 0 43920 -0.677499 1
gene 1 1 16 -1.25751 0 44098 -1.25751 1
gene 1 2 17 -0.507662 0 45722 -0.507662 1
gene 1 15 14 0.144431 0 46306 0.144431 1
gene 1 7 24 0.877596 0 46440 0.877596 1
gene 1 33 20 0.757032 0 46946 0.757032 1
gene 1 23 23 0.0112937 1 47133 0.0112937 1
gene 1 23 16 -0.790358 0 47349 -0.790358 1
gene 1 553 553 -1.06555 1 47737 -1.06555 1
gene 1 34 1876 0.788417 0 47943 0.758426 1
gene 1 2 34 -0.748354 0 48476 -0.748354 1
gene 1 29 29 0.828553 1 48785 0.828553 1
gene 1 1 18 0.585246 0 49076 0.585246 1
gene 1 17 30 -0.630391 1 49444 -0.630391 1
gene 1 5 21 0.144275 0 49740 0.144275 1
gene 1 9 1934 0.231575 0 50050 0.17715 1
gene 1 1934 18 0.0593096 0 50051 0.0594365 1
gene 1 6 13 -0.0303996 0 50220 -0.0303996 1
gene 1 2 15 -0.116838 0 50358 -0.116838 1
gene 1 14 1934 -0.414559 0 50584 -0.414559 1
gene 1 23 20 0.802347 0 51231 0.802347 1
gene 1 30 2049 1.20212 0 52430 1.0834 1
gene 1 21 1876 0.103963 0 53388 0.103963 1
gene 1 1934 25 0.95952 0 54220 0.95952 1
gene 1 21 2131 1.38522 1 54561 1.25727 1
gene 1 2131 35 -1.12567 0 54562 -0.262387 1
gene 1 14 19 -0.818906 0 54780 -0.818906 1
gene 1 5 12 -0.44377 0 54965 -0.44377 1
gene 1 35 1934 0.203618 0 55182 0.203618 1
gene 1 10 1934 -1.44846 0 55594 -1.44846 1
gene 1 24 21 -0.198039 0 56651 -0.198039 1
gene 1 1934 21 0.352147 0 56856 0.352147 1
gene 1 1876 13 -0.86552 0 57054 -0.86552 1
gene 1 12 12 -0.56028 1 57264 -0.56028 1
gene 1 24 12 -0.681306 0 58786 -0.681306 1
gene 1 14 2049 -0.472846 0 59408 -0.472846 1
gene 1 15 23 0.654935 0 59619 0.654935 1
gene 1 33 1934 -0.770611 0 59897 -0.770611 1
gene 1 27 19 0.665828 0 59954 0.665828 1
gene 1 17 22 -0.301209 0 60558 -0.301209 1
gene 1 12 19 -0.00824868 0 62029 -0.00824868 1
gene 1 21 21 -0.627144 1 62244 -0.627144 1
gene 1 35 2049 0.0307398 0 62459 0.0307398 1
gene 1 2 14 1.32605 0 63499 1.32605 1
gene 1 15 20 -0.66393 0 63955 -0.66393 1
gene 1 3 1934 0.419764 0 64193 0.419764 1
gene 1 34 2473 1.02393 0 64414 0.234571 1
gene 1 2473 23 -0.188846 0 64415 -0.149191 1
gene 1 30 30 0.366684 1 65310 0.366684 1
gene 1 15 13 0.76548 0 65580 0.76548 1
gene 1 1934 2049 0.862342 0 65911 0.862342 1
gene 1 4 25 0.424923 0 66666 0.424923 1
gene 1 3 17 -0.334346 0 66884 -0.334346 1
gene 1 2473 29 -0.327622 0 67130 -0.327622 1
gene 1 19 19 0.167874 1 67238 0.167874 1
gene 1 4 1876 -0.865873 0 67565 -0.865873 1
gene 1 4 2131 0.784806 0 68377 0.784806 1
gene 1 2049 15 0.593242 1 68618 0.593242 1
gene 1 11 24 -0.924531 0 68791 -0.924531 1
gene 1 35 28 0.513316 0 69145 0.513316 1
gene 1 35 35 0.296544 1 69808 0.296544 1
genomeend 628
