/* Organism #139730614913064 Fitness: -92146.7 
genomestart 436
trait 1 0.876422 0.274528 0.340756 0.584783 0.464382 0.245808 0.519847 0.245543 
node 1 1 0
node 2 1 1
node 3 1 1
node 4 1 1
node 5 1 1
node 6 1 1
node 7 1 1
node 8 1 1
node 9 1 1
node 10 1 1
node 11 1 1
node 12 1 2
node 13 1 2
node 14 1 2
node 15 1 2
node 16 1 2
node 17 1 2
node 18 1 2
node 19 1 2
node 20 1 2
node 21 1 2
node 22 1 2
node 23 1 2
node 24 1 2
node 25 1 2
node 26 1 3
node 31 1 3
node 32 1 3
node 33 1 3
node 34 1 3
node 35 1 3
node 587 1 3
node 1829 1 3
node 2020 1 3
node 2223 1 3
node 2568 1 3
gene 1 1 26 5.82211 0 1 5.82211 1
gene 1 1 31 -2.3925 0 6 -2.3925 1
gene 1 1 32 -2.64546 0 7 -2.64546 1
gene 1 1 33 4.94675 0 8 4.94675 1
gene 1 1 34 -1.19201 0 9 -1.19201 1
gene 1 1 35 3.51532 0 10 3.51532 1
gene 1 2 26 0.964984 0 11 0.964984 1
gene 1 2 31 1.15626 0 16 1.15626 1
gene 1 2 32 -0.15852 0 17 -0.15852 1
gene 1 2 33 0.830912 0 18 0.830912 1
gene 1 2 34 5.92597 0 19 5.92597 1
gene 1 2 35 -0.993005 0 20 -0.993005 1
gene 1 3 26 -1.24063 0 21 -1.24063 1
gene 1 3 32 -1.89199 0 27 -1.89199 1
gene 1 3 33 -0.811864 0 28 -0.811864 1
gene 1 3 35 2.32224 0 30 2.32224 1
gene 1 4 26 4.45908 0 31 4.45908 1
gene 1 4 32 2.17875 0 37 2.17875 1
gene 1 4 35 -1.59627 0 40 -1.59627 1
gene 1 5 26 -0.00841665 0 41 -0.00841665 1
gene 1 5 31 -3.05517 0 46 -3.05517 1
gene 1 5 33 3.72577 0 48 3.72577 1
gene 1 5 34 0.628118 0 49 0.628118 1
gene 1 6 31 -0.281421 0 56 -0.281421 1
gene 1 6 32 -1.45096 0 57 -1.45096 1
gene 1 6 34 -0.698648 0 59 -0.698648 1
gene 1 6 35 -1.56368 0 60 -1.56368 1
gene 1 7 26 -0.688239 0 61 -0.688239 1
gene 1 7 33 -4.79481 0 68 -4.79481 1
gene 1 7 34 2.77521 0 69 2.77521 1
gene 1 7 35 1.69492 0 70 1.69492 1
gene 1 8 26 0.340128 0 71 0.340128 1
gene 1 8 31 -0.98822 0 76 -0.98822 1
gene 1 8 33 0.812016 0 78 0.812016 1
gene 1 8 34 -4.69489 0 79 -4.69489 1
gene 1 9 26 -0.769215 0 81 -0.769215 1
gene 1 9 31 -0.145242 0 86 -0.145242 1
gene 1 9 32 -0.925943 0 87 -0.925943 1
gene 1 9 33 -2.26546 0 88 -2.26546 1
gene 1 9 34 -2.50719 0 89 -2.50719 1
gene 1 10 26 -1.214 0 91 -1.214 1
gene 1 10 31 2.37127 0 96 2.37127 1
gene 1 10 32 3.40655 0 97 3.40655 1
gene 1 10 33 4.13657 0 98 4.13657 1
gene 1 10 34 -0.661283 0 99 -0.661283 1
gene 1 11 26 0.453233 0 101 0.453233 1
gene 1 11 32 2.04769 0 107 2.04769 1
gene 1 11 35 1.79047 0 110 1.79047 1
gene 1 26 12 3.34436 0 111 3.34436 1
gene 1 26 13 0.790533 0 112 0.790533 1
gene 1 26 14 -0.298788 0 113 -0.298788 1
gene 1 26 17 0.666683 0 116 0.666683 1
gene 1 26 18 -1.51366 0 117 -1.51366 1
gene 1 26 22 -1.71808 0 121 -1.71808 1
gene 1 26 23 0.258098 0 122 0.258098 1
gene 1 26 24 -3.87971 0 123 -3.87971 1
gene 1 26 25 -2.16803 0 124 -2.16803 1
gene 1 31 12 -3.45689 0 181 -3.45689 1
gene 1 31 15 -1.52126 0 184 -1.52126 1
gene 1 31 16 2.06674 0 185 2.06674 1
gene 1 31 18 -3.18352 0 187 -3.18352 1
gene 1 31 19 -1.96473 0 188 -1.96473 1
gene 1 31 20 0.933486 0 189 0.933486 1
gene 1 31 21 -1.94418 0 190 -1.94418 1
gene 1 31 22 -1.61674 0 191 -1.61674 1
gene 1 31 24 -1.84278 0 193 -1.84278 1
gene 1 31 25 2.30486 0 194 2.30486 1
gene 1 32 12 1.88412 0 195 1.88412 1
gene 1 32 13 2.54161 0 196 2.54161 1
gene 1 32 16 2.10972 0 199 2.10972 1
gene 1 32 17 -2.14358 0 200 -2.14358 1
gene 1 32 18 2.81242 0 201 2.81242 1
gene 1 32 20 1.92164 0 203 1.92164 1
gene 1 32 21 0.605328 0 204 0.605328 1
gene 1 32 24 1.36255 0 207 1.36255 1
gene 1 32 25 -1.16121 0 208 -1.16121 1
gene 1 33 12 0.229262 0 209 0.229262 1
gene 1 33 13 -0.24529 0 210 -0.24529 1
gene 1 33 15 -1.10364 0 212 -1.10364 1
gene 1 33 18 -5.80901 0 215 -5.80901 1
gene 1 33 20 1.03942 0 217 1.03942 1
gene 1 33 21 -0.910403 0 218 -0.910403 1
gene 1 33 22 -4.13008 0 219 -4.13008 1
gene 1 33 23 -1.86109 0 220 -1.86109 1
gene 1 33 25 -2.50172 0 222 -2.50172 1
gene 1 34 12 0.602597 0 223 0.602597 1
gene 1 34 13 0.356408 0 224 0.356408 1
gene 1 34 14 -0.381789 0 225 -0.381789 1
gene 1 34 18 -0.774541 0 229 -0.774541 1
gene 1 34 19 2.26707 0 230 2.26707 1
gene 1 34 21 2.32336 0 232 2.32336 1
gene 1 34 23 1.96905 0 234 1.96905 1
gene 1 34 25 -1.56577 0 236 -1.56577 1
gene 1 35 12 4.74219 0 237 4.74219 1
gene 1 35 13 -4.37245 0 238 -4.37245 1
gene 1 35 14 2.40978 0 239 2.40978 1
gene 1 35 16 -2.96896 0 241 -2.96896 1
gene 1 35 18 1.4538 0 243 1.4538 1
gene 1 35 19 2.69427 0 244 2.69427 1
gene 1 35 24 1.03255 0 249 1.03255 1
gene 1 1 14 -0.81904 0 1282 -0.81904 1
gene 1 5 18 -0.0959707 0 3259 -0.0959707 1
gene 1 20 20 -0.428558 1 3439 -0.428558 1
gene 1 16 18 -1.21225 0 4248 -1.21225 1
gene 1 23 25 -1.73028 0 4359 -1.73028 1
gene 1 16 25 0.780643 0 7451 0.780643 1
gene 1 7 24 2.42454 0 9368 2.42454 1
gene 1 19 25 2.90485 0 9790 2.90485 1
gene 1 4 19 1.14345 0 10533 1.14345 1
gene 1 2 20 -3.94805 0 12492 -3.94805 1
gene 1 20 18 -0.289252 0 12966 -0.289252 1
gene 1 8 587 2.96364 0 14446 2.96364 1
gene 1 31 31 0.203418 1 15867 0.203418 1
gene 1 11 13 -0.615768 0 16290 -0.615768 1
gene 1 14 13 1.30539 0 16527 1.30539 1
gene 1 587 22 0.364408 0 17065 0.364408 1
gene 1 587 16 0.317084 0 17565 0.317084 1
gene 1 23 23 2.25788 1 17773 2.25788 1
gene 1 18 25 0.869537 0 18662 0.869537 1
gene 1 4 23 -2.44277 0 19224 -2.44277 1
gene 1 18 14 -1.95359 0 19819 -1.95359 1
gene 1 23 16 -2.75151 0 20949 -2.75151 1
gene 1 15 17 0.323751 0 21201 0.323751 1
gene 1 15 21 1.69521 0 21613 1.69521 1
gene 1 24 24 -1.80851 1 22276 -1.80851 1
gene 1 19 24 -1.33083 0 22679 -1.33083 1
gene 1 12 21 -2.32638 0 23095 -2.32638 1
gene 1 4 24 0.386073 0 24141 0.386073 1
gene 1 19 13 -2.64985 0 24785 -2.64985 1
gene 1 35 35 1.03951 1 24945 1.03951 1
gene 1 35 587 -0.573157 0 25364 -0.573157 1
gene 1 18 18 1.15826 1 25630 1.15826 1
gene 1 13 31 0.317115 1 26191 0.317115 1
gene 1 35 34 -1.03853 0 26581 -1.03853 1
gene 1 33 24 -1.0546 0 26972 -1.0546 1
gene 1 12 13 -1.50335 0 27248 -1.50335 1
gene 1 587 587 0.338898 1 27441 0.338898 1
gene 1 13 13 0.266065 1 28203 0.266065 1
gene 1 5 23 -0.526169 0 28403 -0.526169 1
gene 1 10 24 2.10751 0 29332 2.10751 1
gene 1 25 17 1.31757 0 31317 1.31757 1
gene 1 2 15 -0.194057 0 32558 -0.194057 1
gene 1 15 20 -0.715037 0 32901 -0.715037 1
gene 1 10 21 -2.36677 0 33778 -2.36677 1
gene 1 7 23 -0.943125 0 36842 -0.943125 1
gene 1 1 24 -3.84055 0 37113 -3.84055 1
gene 1 2 24 3.16673 0 37304 3.16673 1
gene 1 17 13 1.40623 0 37684 1.40623 1
gene 1 587 23 0.299407 0 37925 0.299407 1
gene 1 14 17 -1.77277 0 38266 -1.77277 1
gene 1 3 21 -1.31331 0 38466 -1.31331 1
gene 1 9 587 -0.110425 0 38684 -0.110425 1
gene 1 33 33 1.60257 1 39324 1.60257 1
gene 1 8 32 -1.03446 0 39891 -1.03446 1
gene 1 10 14 0.147646 0 40983 0.147646 1
gene 1 6 19 -0.244401 0 41466 -0.244401 1
gene 1 15 19 -0.339851 0 41572 -0.339851 1
gene 1 6 22 -0.0505204 0 41888 -0.0505204 1
gene 1 11 19 0.34057 0 42685 0.34057 1
gene 1 10 587 -1.37431 0 43063 -1.37431 1
gene 1 25 19 0.773785 1 44488 0.773785 1
gene 1 32 35 -1.16241 0 45080 -1.16241 1
gene 1 587 20 -0.502725 0 45396 -0.502725 1
gene 1 35 22 1.59451 0 45605 1.59451 1
gene 1 32 32 0.0600482 1 46693 0.0600482 1
gene 1 34 1829 0.0356363 0 47027 0.0356363 1
gene 1 1829 16 -0.722054 0 47028 -0.722054 1
gene 1 5 25 0.0235957 0 47992 0.0235957 1
gene 1 24 1829 0.398858 0 48516 0.398858 1
gene 1 34 34 -0.0357266 1 48697 -0.0357266 1
gene 1 14 14 -0.200019 1 49178 -0.200019 1
gene 1 5 12 0.736394 0 49387 0.736394 1
gene 1 7 13 -0.0776763 0 49804 -0.0776763 1
gene 1 4 31 0.804213 0 50441 0.804213 1
gene 1 1 587 -0.398323 0 50696 -0.398323 1
gene 1 34 20 1.12433 0 50891 1.12433 1
gene 1 33 35 -0.0199437 0 51287 -0.0199437 1
gene 1 32 2020 1.52863 0 51685 1.52863 1
gene 1 2020 19 -1.60405 0 51686 -1.60405 1
gene 1 3 34 1.27537 0 52296 1.27537 1
gene 1 2 12 -0.314445 0 52535 -0.314445 1
gene 1 14 12 -0.923438 0 53594 -0.923438 1
gene 1 10 22 0.295506 0 54244 0.295506 1
gene 1 2020 21 -0.0495188 0 54463 -0.0495188 1
gene 1 12 12 -0.302895 1 55588 -0.302895 1
gene 1 21 21 0.509591 1 56669 0.509591 1
gene 1 2020 25 -1.43656 0 57018 -1.43656 1
gene 1 18 21 -1.16042 0 57231 -1.16042 1
gene 1 34 15 -0.690894 0 57463 -0.690894 1
gene 1 2223 21 0.907545 0 57686 0.907545 1
gene 1 26 2223 -0.673659 0 57918 -0.673659 1
gene 1 5 35 -1.2863 0 58730 -1.2863 1
gene 1 1829 1829 -0.0468503 1 59114 -0.0468503 1
gene 1 15 24 -0.655713 0 59340 -0.655713 1
gene 1 34 587 -0.642217 0 59957 -0.642217 1
gene 1 15 16 -0.740704 0 60344 -0.740704 1
gene 1 3 23 0.166854 0 60555 0.166854 1
gene 1 11 2223 0.852341 0 61037 0.852341 1
gene 1 22 24 0.274023 0 61190 0.274023 1
gene 1 1 18 -2.13357 0 61640 -2.13357 1
gene 1 33 587 -1.77803 0 61829 -1.77803 1
gene 1 26 15 0.433317 0 62520 0.433317 1
gene 1 14 24 0.663388 1 62913 0.663388 1
gene 1 1 12 -0.108725 0 63107 -0.108725 1
gene 1 8 22 0.368437 0 63543 0.368437 1
gene 1 2223 2223 0.478427 1 63728 0.478427 1
gene 1 11 15 0.808986 0 64382 0.808986 1
gene 1 35 2223 0.313226 0 65367 0.313226 1
gene 1 20 17 0.286696 0 65588 0.286696 1
gene 1 1 13 -0.891554 0 65757 -0.891554 1
gene 1 24 25 0.36524 0 65968 0.36524 1
gene 1 6 33 -0.135221 0 66417 -0.135221 1
gene 1 33 31 0.153175 0 66615 0.153175 1
gene 1 16 2568 0.979182 1 67017 -0.0051931 1
gene 1 2568 16 -1.44563 0 67018 -0.0273687 1
gene 1 2 23 0.480804 0 67706 0.480804 1
gene 1 12 15 0.449273 1 68313 0.449273 1
gene 1 1 21 -0.609228 0 68453 -0.609228 1
genomeend 436
