/* Organism #82441840 Fitness: -92996.5 
genomestart 52
trait 1 0.808235 0.767424 0.279993 0.151595 0.0656393 0.895269 0.345046 0.490388 
node 1 1 0
node 2 1 1
node 3 1 1
node 4 1 1
node 5 1 1
node 6 1 1
node 7 1 1
node 8 1 1
node 9 1 1
node 10 1 1
node 11 1 1
node 12 1 2
node 13 1 2
node 14 1 2
node 15 1 2
node 16 1 2
node 17 1 2
node 18 1 2
node 19 1 2
node 20 1 2
node 21 1 2
node 22 1 2
node 23 1 2
node 24 1 2
node 25 1 2
node 28 1 3
node 30 1 3
node 31 1 3
node 33 1 3
node 34 1 3
node 550 1 3
node 826 1 3
node 1518 1 3
node 1635 1 3
node 1755 1 3
node 2192 1 3
node 2665 1 3
gene 1 1 28 -1.083 0 3 -1.083 1
gene 1 1 31 -1.40355 0 6 -1.40355 1
gene 1 1 34 3.04558 0 9 3.04558 1
gene 1 2 28 0.134303 0 13 0.134303 1
gene 1 2 30 0.460259 0 15 0.460259 1
gene 1 2 33 -6.21445 0 18 -6.21445 1
gene 1 2 34 -1.07841 0 19 -1.07841 1
gene 1 3 28 -0.914438 0 23 -0.914438 1
gene 1 3 31 -1.13949 0 26 -1.13949 1
gene 1 3 33 -1.49669 0 28 -1.49669 1
gene 1 3 34 -1.09722 0 29 -1.09722 1
gene 1 4 28 0.463702 0 33 0.463702 1
gene 1 4 31 -0.494637 0 36 -0.494637 1
gene 1 4 34 0.195312 0 39 0.195312 1
gene 1 5 28 0.948585 0 43 0.948585 1
gene 1 5 30 -1.7167 0 45 -1.7167 1
gene 1 5 31 7.68291 0 46 7.68291 1
gene 1 6 28 -7.96363 0 53 -7.96363 1
gene 1 6 30 -3.15619 0 55 -3.15619 1
gene 1 6 31 0.691085 0 56 0.691085 1
gene 1 6 33 1.1082 0 58 1.1082 1
gene 1 6 34 4.74829 0 59 4.74829 1
gene 1 7 30 -2.38033 0 65 -2.38033 1
gene 1 7 31 -2.09254 0 66 -2.09254 1
gene 1 7 34 3.19409 0 69 3.19409 1
gene 1 8 28 0.682498 0 73 0.682498 1
gene 1 8 33 0.178764 0 78 0.178764 1
gene 1 9 28 -0.731483 0 83 -0.731483 1
gene 1 9 30 -1.8319 0 85 -1.8319 1
gene 1 9 31 -0.37712 0 86 -0.37712 1
gene 1 9 33 -2.9974 0 88 -2.9974 1
gene 1 9 34 0.896255 0 89 0.896255 1
gene 1 10 28 1.02406 0 93 1.02406 1
gene 1 10 30 -3.85916 0 95 -3.85916 1
gene 1 10 31 -1.38462 0 96 -1.38462 1
gene 1 11 28 -1.53139 0 103 -1.53139 1
gene 1 11 31 0.239744 0 106 0.239744 1
gene 1 28 12 -3.1884 0 139 -3.1884 1
gene 1 28 13 4.11346 0 140 4.11346 1
gene 1 28 14 0.423449 0 141 0.423449 1
gene 1 28 15 3.65917 0 142 3.65917 1
gene 1 28 16 -3.37159 0 143 -3.37159 1
gene 1 28 18 -0.870239 0 145 -0.870239 1
gene 1 28 19 1.17609 0 146 1.17609 1
gene 1 28 20 -2.42804 0 147 -2.42804 1
gene 1 28 21 2.23742 0 148 2.23742 1
gene 1 28 22 5.0287 0 149 5.0287 1
gene 1 28 24 3.94496 0 151 3.94496 1
gene 1 30 15 -4.70912 0 170 -4.70912 1
gene 1 30 16 5.25013 0 171 5.25013 1
gene 1 30 17 -5.23054 0 172 -5.23054 1
gene 1 30 18 0.803789 0 173 0.803789 1
gene 1 30 19 -1.54148 0 174 -1.54148 1
gene 1 30 21 -0.923892 0 176 -0.923892 1
gene 1 30 25 -3.60496 0 180 -3.60496 1
gene 1 31 14 1.68442 0 183 1.68442 1
gene 1 31 15 -3.06216 0 184 -3.06216 1
gene 1 31 16 -2.95633 0 185 -2.95633 1
gene 1 31 18 1.66081 0 187 1.66081 1
gene 1 31 20 2.95413 0 189 2.95413 1
gene 1 31 23 -2.2987 0 192 -2.2987 1
gene 1 31 24 1.01927 0 193 1.01927 1
gene 1 31 25 -2.55681 0 194 -2.55681 1
gene 1 33 12 -0.053288 0 209 -0.053288 1
gene 1 33 14 -2.22419 0 211 -2.22419 1
gene 1 33 16 0.777651 0 213 0.777651 1
gene 1 33 18 -1.42883 0 215 -1.42883 1
gene 1 33 20 2.98278 0 217 2.98278 1
gene 1 33 22 -0.502178 0 219 -0.502178 1
gene 1 33 25 1.53475 0 222 1.53475 1
gene 1 34 12 -0.802018 0 223 -0.802018 1
gene 1 34 13 -0.875076 0 224 -0.875076 1
gene 1 34 14 -1.99915 0 225 -1.99915 1
gene 1 34 15 1.03223 0 226 1.03223 1
gene 1 34 16 -1.39651 0 227 -1.39651 1
gene 1 34 18 2.32871 0 229 2.32871 1
gene 1 34 20 -4.47008 0 231 -4.47008 1
gene 1 34 21 -2.10575 0 232 -2.10575 1
gene 1 34 22 -0.350234 0 233 -0.350234 1
gene 1 34 23 -2.79616 0 234 -2.79616 1
gene 1 34 25 -5.89977 0 236 -5.89977 1
gene 1 30 31 -2.77011 0 891 -2.77011 1
gene 1 15 15 -0.0199932 1 2694 -0.0199932 1
gene 1 9 18 -1.60366 0 2971 -1.60366 1
gene 1 2 24 -3.15169 0 5217 -3.15169 1
gene 1 33 33 0.00918732 1 7873 0.00918732 1
gene 1 22 24 -0.0403474 0 8473 -0.0403474 1
gene 1 23 14 1.49353 0 9506 1.49353 1
gene 1 16 18 -1.78927 0 10506 -1.78927 1
gene 1 6 22 -1.54492 0 10902 -1.54492 1
gene 1 19 23 -1.26224 0 11383 -1.26224 1
gene 1 24 24 1.37111 1 12386 1.37111 1
gene 1 17 24 -1.03872 0 12833 -1.03872 1
gene 1 24 25 -3.37642 0 13025 -3.37642 1
gene 1 34 550 2.52909 0 13883 2.52909 1
gene 1 550 24 -0.761637 0 13884 -0.761637 1
gene 1 25 14 -1.03248 0 14388 -1.03248 1
gene 1 12 19 2.03219 0 16546 2.03219 1
gene 1 550 14 0.87814 0 16984 0.87814 1
gene 1 8 15 1.61769 0 18393 1.61769 1
gene 1 12 550 1.47851 0 18777 1.47851 1
gene 1 22 20 1.04892 0 19157 1.04892 1
gene 1 28 28 -0.276758 1 19957 -0.276758 1
gene 1 25 25 -0.279795 1 20336 -0.279795 1
gene 1 15 17 -0.898429 0 21028 -0.898429 1
gene 1 6 24 -1.74215 0 21159 -1.74215 1
gene 1 23 23 -1.06959 1 21756 -1.06959 1
gene 1 22 23 -0.50418 0 21847 -0.50418 1
gene 1 10 24 -0.613261 0 22134 -0.613261 1
gene 1 15 21 -0.260867 0 23807 -0.260867 1
gene 1 12 16 -1.77471 0 24642 -1.77471 1
gene 1 18 18 -0.763818 1 25381 -0.763818 1
gene 1 550 30 -0.0943515 0 27021 -0.0943515 1
gene 1 15 14 0.23953 0 28214 0.23953 1
gene 1 2 13 -2.18252 0 29082 -2.18252 1
gene 1 33 34 -0.403192 0 30912 -0.403192 1
gene 1 7 14 1.71723 0 32810 1.71723 1
gene 1 13 12 -0.313452 1 33176 -0.313452 1
gene 1 7 22 0.61078 0 33392 0.61078 1
gene 1 13 17 -0.981822 0 33844 -0.981822 1
gene 1 826 22 1.3651 0 34559 1.3651 1
gene 1 8 30 3.11152 0 36168 3.11152 1
gene 1 10 12 -3.27002 0 36861 -3.27002 1
gene 1 11 1518 0.912686 0 38052 0.901263 1
gene 1 17 22 0.52127 0 38661 0.52127 1
gene 1 13 16 -0.553243 0 39411 -0.553243 1
gene 1 1518 17 2.47203 0 39767 2.47203 1
gene 1 19 33 -1.71116 1 41009 -1.71116 1
gene 1 1635 23 0.126326 0 41506 0.126326 1
gene 1 17 14 0.0431501 0 43210 0.0431501 1
gene 1 15 18 0.321674 0 43448 0.321674 1
gene 1 13 550 0.364802 1 44116 0.364802 1
gene 1 34 1755 1.7348 0 44319 1.7348 1
gene 1 1755 19 -1.05549 0 44320 -1.04252 1
gene 1 1518 33 1.268 0 45846 1.268 1
gene 1 15 550 0.105183 1 46076 0.105183 1
gene 1 11 21 -0.596893 0 46760 -0.596893 1
gene 1 25 13 0.179755 0 47586 0.179755 1
gene 1 25 20 1.24695 0 48814 1.24695 1
gene 1 19 19 0.237752 1 49008 0.237752 1
gene 1 550 18 -0.707129 0 49769 -0.707129 1
gene 1 2 22 -1.26276 0 49976 -1.26276 1
gene 1 16 21 -1.01674 0 51318 -1.01674 1
gene 1 2 25 0.416576 0 51707 0.416576 1
gene 1 10 1518 0.902741 0 51915 0.902741 1
gene 1 6 16 -0.501022 0 52329 -0.501022 1
gene 1 826 13 0.884001 0 52634 0.884001 1
gene 1 20 21 0.984356 0 52975 0.984356 1
gene 1 22 22 0.934553 1 53328 0.934553 1
gene 1 33 30 -0.124667 0 54079 -0.124667 1
gene 1 18 1635 0.925184 0 54255 0.925184 1
gene 1 1 1635 1.38046 0 54540 1.38046 1
gene 1 1755 1755 0.359612 1 54589 0.359612 1
gene 1 16 1635 0.555832 0 55050 0.555832 1
gene 1 1518 21 -0.462298 0 55547 -0.462298 1
gene 1 11 2192 0.853044 0 56342 0.853044 1
gene 1 2192 34 -0.202721 0 56343 -0.202721 1
gene 1 826 20 0.520923 0 56773 0.520923 1
gene 1 16 15 -0.602857 0 57577 -0.602857 1
gene 1 33 13 0.139726 0 58356 0.139726 1
gene 1 4 20 -0.82596 0 59019 -0.82596 1
gene 1 24 20 -0.125422 0 60951 -0.125422 1
gene 1 21 18 -0.107227 0 61386 -0.107227 1
gene 1 1635 14 0.271601 0 61591 0.271601 1
gene 1 19 13 0.0670939 0 61784 0.0670939 1
gene 1 24 21 -1.40052 0 61985 -1.40052 1
gene 1 11 34 0.762989 0 62388 0.762989 1
gene 1 21 1635 -0.267934 0 62837 -0.267934 1
gene 1 1635 20 -1.26434 0 63070 -1.26434 1
gene 1 17 21 0.766002 0 64725 0.766002 1
gene 1 1518 550 -0.487149 0 65176 -0.487149 1
gene 1 11 12 0.789524 0 65594 0.789524 1
gene 1 20 20 -0.877551 1 66997 -0.877551 1
gene 1 23 21 0.664934 1 67462 0.664934 1
gene 1 11 25 0.113969 0 67651 0.113969 1
gene 1 9 19 0.644343 0 67985 0.644343 1
gene 1 2 16 -0.292374 0 68760 -0.292374 1
gene 1 31 31 -0.643812 1 68843 -0.643812 1
gene 1 30 2665 1 0 69621 0 1
gene 1 2665 13 2.45555 0 69622 0 1
gene 1 1518 1518 -0.116078 1 69820 -0.116078 1
gene 1 6 21 -0.00354396 0 70008 -0.00354396 1
gene 1 9 14 0.351906 0 70231 0.351906 1
gene 1 30 22 -0.745951 0 70447 -0.745951 1
gene 1 30 30 0.541496 1 70633 0.541496 1
genomeend 52
