/* Organism #47429728 Fitness: -93511.5 
genomestart 912
trait 1 0.874499 0.463177 0.322541 0.361962 0.481963 0.12985 0.548772 0.427924 
node 1 1 0
node 2 1 1
node 3 1 1
node 4 1 1
node 5 1 1
node 6 1 1
node 7 1 1
node 8 1 1
node 9 1 1
node 10 1 1
node 11 1 1
node 12 1 2
node 13 1 2
node 14 1 2
node 15 1 2
node 16 1 2
node 17 1 2
node 18 1 2
node 19 1 2
node 20 1 2
node 21 1 2
node 22 1 2
node 23 1 2
node 24 1 2
node 25 1 2
node 26 1 3
node 27 1 3
node 28 1 3
node 29 1 3
node 30 1 3
node 31 1 3
node 32 1 3
node 289 1 3
node 402 1 3
node 525 1 3
node 623 1 3
node 700 1 3
node 1351 1 3
node 1438 1 3
node 2271 1 3
gene 1 1 27 2.51318 0 2 2.51318 1
gene 1 1 28 0.411539 0 3 0.411539 1
gene 1 1 29 1.6786 0 4 1.6786 1
gene 1 1 30 1.77676 0 5 1.77676 1
gene 1 1 31 0.503646 0 6 0.503646 1
gene 1 1 32 -0.1597 0 7 -0.1597 1
gene 1 2 26 -0.03289 0 11 -0.03289 1
gene 1 2 27 0.944553 0 12 0.944553 1
gene 1 2 28 -3.20642 0 13 -3.20642 1
gene 1 2 31 0.545368 0 16 0.545368 1
gene 1 3 26 -2.40855 0 21 -2.40855 1
gene 1 3 27 0.776962 0 22 0.776962 1
gene 1 3 28 2.64659 0 23 2.64659 1
gene 1 3 30 -3.17982 0 25 -3.17982 1
gene 1 3 32 0.193429 0 27 0.193429 1
gene 1 4 26 2.29344 0 31 2.29344 1
gene 1 4 29 -0.0581291 0 34 -0.0581291 1
gene 1 4 32 3.83183 0 37 3.83183 1
gene 1 5 27 0.25309 0 42 0.25309 1
gene 1 5 28 -3.15972 0 43 -3.15972 1
gene 1 5 29 1.13008 0 44 1.13008 1
gene 1 5 30 1.38133 0 45 1.38133 1
gene 1 5 31 -0.482102 0 46 -0.482102 1
gene 1 5 32 -4.07369 0 47 -4.07369 1
gene 1 6 26 -1.00649 0 51 -1.00649 1
gene 1 6 28 -0.252843 0 53 -0.252843 1
gene 1 6 30 0.198705 0 55 0.198705 1
gene 1 7 28 -5.88516 0 63 -5.88516 1
gene 1 7 30 3.40304 0 65 3.40304 1
gene 1 7 31 3.63843 0 66 3.63843 1
gene 1 7 32 1.24062 0 67 1.24062 1
gene 1 8 26 0.920509 0 71 0.920509 1
gene 1 8 27 5.01242 0 72 5.01242 1
gene 1 8 29 -1.35559 0 74 -1.35559 1
gene 1 8 30 1.16813 0 75 1.16813 1
gene 1 8 32 1.51277 0 77 1.51277 1
gene 1 9 26 1.52337 0 81 1.52337 1
gene 1 9 28 -1.43265 0 83 -1.43265 1
gene 1 9 29 1.96929 0 84 1.96929 1
gene 1 9 31 1.65472 0 86 1.65472 1
gene 1 10 28 -3.14608 0 93 -3.14608 1
gene 1 10 29 0.449014 0 94 0.449014 1
gene 1 10 31 -0.310483 0 96 -0.310483 1
gene 1 10 32 2.30962 0 97 2.30962 1
gene 1 11 27 -1.39343 0 102 -1.39343 1
gene 1 11 28 0.37194 0 103 0.37194 1
gene 1 11 31 1.2044 0 106 1.2044 1
gene 1 26 12 -0.67931 0 111 -0.67931 1
gene 1 26 13 -0.655412 0 112 -0.655412 1
gene 1 26 15 -1.99112 0 114 -1.99112 1
gene 1 26 16 0.516492 0 115 0.516492 1
gene 1 26 17 0.569117 0 116 0.569117 1
gene 1 26 18 0.186736 0 117 0.186736 1
gene 1 26 19 1.85499 0 118 1.85499 1
gene 1 26 21 1.63046 0 120 1.63046 1
gene 1 26 23 -0.908962 0 122 -0.908962 1
gene 1 26 24 4.47467 0 123 4.47467 1
gene 1 26 25 1.32481 0 124 1.32481 1
gene 1 27 12 -1.21679 0 125 -1.21679 1
gene 1 27 14 2.18011 0 127 2.18011 1
gene 1 27 17 0.455566 0 130 0.455566 1
gene 1 27 18 -1.36785 0 131 -1.36785 1
gene 1 27 19 4.53232 0 132 4.53232 1
gene 1 27 23 -3.23033 0 136 -3.23033 1
gene 1 27 25 1.90852 0 138 1.90852 1
gene 1 28 12 -4.13092 0 139 -4.13092 1
gene 1 28 13 -1.06488 0 140 -1.06488 1
gene 1 28 15 0.830744 0 142 0.830744 1
gene 1 28 16 1.11049 0 143 1.11049 1
gene 1 28 17 -2.7063 0 144 -2.7063 1
gene 1 28 19 4.07938 0 146 4.07938 1
gene 1 28 21 2.0091 0 148 2.0091 1
gene 1 28 22 3.12982 0 149 3.12982 1
gene 1 28 23 -0.132438 0 150 -0.132438 1
gene 1 28 24 0.124967 0 151 0.124967 1
gene 1 28 25 -2.21232 0 152 -2.21232 1
gene 1 29 13 0.985874 0 154 0.985874 1
gene 1 29 15 0.714835 0 156 0.714835 1
gene 1 29 16 -2.8893 0 157 -2.8893 1
gene 1 29 18 1.12663 0 159 1.12663 1
gene 1 29 19 -0.060532 0 160 -0.060532 1
gene 1 29 23 0.163462 0 164 0.163462 1
gene 1 29 24 -1.06591 0 165 -1.06591 1
gene 1 29 25 -1.00993 0 166 -1.00993 1
gene 1 30 13 -3.92827 0 168 -3.92827 1
gene 1 30 14 1.85109 0 169 1.85109 1
gene 1 30 15 -0.682007 0 170 -0.682007 1
gene 1 30 17 -1.87517 0 172 -1.87517 1
gene 1 30 18 1.23017 0 173 1.23017 1
gene 1 30 19 0.363175 0 174 0.363175 1
gene 1 30 21 2.09417 0 176 2.09417 1
gene 1 30 22 -1.20721 0 177 -1.20721 1
gene 1 30 23 -2.40621 0 178 -2.40621 1
gene 1 30 24 -0.347117 0 179 -0.347117 1
gene 1 31 12 0.985848 0 181 0.985848 1
gene 1 31 14 2.32595 0 183 2.32595 1
gene 1 31 15 1.81414 0 184 1.81414 1
gene 1 31 16 -1.77618 0 185 -1.77618 1
gene 1 31 19 -1.80884 0 188 -1.80884 1
gene 1 31 20 -3.85882 0 189 -3.85882 1
gene 1 31 21 1.48059 0 190 1.48059 1
gene 1 31 22 -0.163441 0 191 -0.163441 1
gene 1 31 23 1.90419 0 192 1.90419 1
gene 1 31 24 0.408556 0 193 0.408556 1
gene 1 32 12 -0.26437 0 195 -0.26437 1
gene 1 32 13 -0.0517575 0 196 -0.0517575 1
gene 1 32 14 -4.64107 0 197 -4.64107 1
gene 1 32 15 2.99738 0 198 2.99738 1
gene 1 32 21 0.588211 0 204 0.588211 1
gene 1 32 22 -0.474655 0 205 -0.474655 1
gene 1 32 23 0.501592 0 206 0.501592 1
gene 1 7 13 3.0235 0 949 3.0235 1
gene 1 5 18 -2.59501 0 1341 -2.59501 1
gene 1 7 12 -0.573421 0 1516 -0.573421 1
gene 1 2 25 -0.906948 0 2124 -0.906948 1
gene 1 10 14 0.713988 0 2181 0.713988 1
gene 1 19 25 -1.03032 0 2686 -1.03032 1
gene 1 27 27 -1.08241 1 3019 -1.08241 1
gene 1 12 12 0.846617 1 3620 0.846617 1
gene 1 27 289 -1.10633 0 6262 -1.10774 1
gene 1 16 21 1.43603 0 7065 1.43603 1
gene 1 27 29 0.814402 0 8461 0.814402 1
gene 1 32 402 0.547768 0 9059 0.544796 1
gene 1 289 14 1.46622 0 9482 1.46622 1
gene 1 30 525 1.23272 0 12306 1.23272 1
gene 1 525 15 -2.51623 0 12693 -2.51623 1
gene 1 16 16 1.63987 1 12909 1.63987 1
gene 1 28 28 1.29024 1 13140 1.29024 1
gene 1 16 20 1.75328 0 14309 1.75328 1
gene 1 25 623 1.37372 1 15059 1.37181 1
gene 1 29 700 -0.125245 0 17162 -0.17795 1
gene 1 1 25 -0.516807 0 17567 -0.516807 1
gene 1 19 19 0.443849 1 17804 0.443849 1
gene 1 700 402 0.861579 0 18870 0.861579 1
gene 1 289 31 -1.73931 0 19060 -1.73931 1
gene 1 9 623 -0.911494 0 19917 -0.911494 1
gene 1 32 700 0.683616 0 20239 0.683616 1
gene 1 23 23 1.9623 1 20794 1.9623 1
gene 1 7 289 -0.554798 0 21229 -0.554798 1
gene 1 1 525 -2.16693 0 21453 -2.16693 1
gene 1 4 21 -1.79442 0 22033 -1.79442 1
gene 1 21 31 0.401176 1 22444 0.401176 1
gene 1 23 17 0.124771 0 22894 0.124771 1
gene 1 402 402 1.35615 1 25440 1.35615 1
gene 1 1 700 -0.82945 0 25730 -0.82945 1
gene 1 11 17 0.0305522 0 25968 0.0305522 1
gene 1 8 14 1.31423 0 26763 1.31423 1
gene 1 9 16 1.67432 0 27081 1.67432 1
gene 1 9 27 1.17451 0 27926 1.17451 1
gene 1 623 13 0.79414 0 28563 0.79414 1
gene 1 21 21 -1.0979 1 29441 -1.0979 1
gene 1 19 14 0.709254 0 29946 0.709254 1
gene 1 402 25 3.45748 0 30148 3.45748 1
gene 1 30 30 -0.916766 1 30362 -0.916766 1
gene 1 289 12 -1.67655 0 30760 -1.67655 1
gene 1 4 623 2.09613 0 30982 2.09613 1
gene 1 20 20 -0.819408 1 32351 -0.819408 1
gene 1 14 23 -1.92314 0 32652 -1.92314 1
gene 1 31 525 -0.253521 0 33093 -0.253521 1
gene 1 21 18 -1.59371 0 33711 -1.59371 1
gene 1 32 32 -0.438716 1 34135 -0.438716 1
gene 1 623 623 -1.59727 1 34420 -1.59727 1
gene 1 18 12 -1.02157 0 34608 -1.02157 1
gene 1 21 20 3.17867 0 35189 3.17867 1
gene 1 21 22 -0.965983 0 35494 -0.965983 1
gene 1 25 20 0.385606 0 36074 0.385606 1
gene 1 6 20 0.367697 0 36886 0.367697 1
gene 1 5 23 0.398948 0 37285 0.398948 1
gene 1 23 12 -0.612609 0 37513 -0.612609 1
gene 1 4 1438 0.861856 0 38277 0.861856 1
gene 1 1438 28 1.09559 0 38278 1.09559 1
gene 1 11 19 0.060303 0 38487 0.060303 1
gene 1 6 24 -9.0042e-05 0 38719 -9.0042e-05 1
gene 1 3 21 -0.869604 0 39263 -0.869604 1
gene 1 28 525 -0.578144 0 39579 -0.578144 1
gene 1 15 19 -0.557202 0 39831 -0.557202 1
gene 1 1351 525 0.936916 0 40334 0.936916 1
gene 1 4 19 1.36655 0 41073 1.36655 1
gene 1 17 17 -0.351737 1 41402 -0.351737 1
gene 1 4 525 -1.94999 0 41801 -1.94999 1
gene 1 30 20 -0.0841708 0 42260 -0.0841708 1
gene 1 13 13 -0.984886 1 43555 -0.984886 1
gene 1 10 22 -0.686428 0 43905 -0.686428 1
gene 1 3 23 -0.252375 0 44049 -0.252375 1
gene 1 3 13 0.976956 0 44268 0.976956 1
gene 1 8 28 -0.217717 0 44456 -0.217717 1
gene 1 1351 28 -0.179273 0 45004 -0.179273 1
gene 1 22 24 -1.06479 0 45218 -1.06479 1
gene 1 21 14 0.119031 0 46031 0.119031 1
gene 1 31 13 -1.4444 0 46661 -1.4444 1
gene 1 1 24 0.948927 0 46676 0.948927 1
gene 1 26 20 0.85965 0 47114 0.85965 1
gene 1 7 24 0.788599 0 47318 0.788599 1
gene 1 8 19 -0.956957 0 47467 -0.956957 1
gene 1 8 23 0.449376 0 47992 0.449376 1
gene 1 29 26 -1.26424 0 48142 -1.26424 1
gene 1 1351 26 2.48789 0 48501 2.48789 1
gene 1 8 289 0.0672353 0 48708 0.0672353 1
gene 1 700 25 0.757777 0 48955 0.757777 1
gene 1 31 27 1.60371 1 49179 1.60371 1
gene 1 15 28 0.159195 1 49834 0.159195 1
gene 1 18 16 0.62212 1 50038 0.62212 1
gene 1 402 21 -0.0313016 0 50439 -0.0313016 1
gene 1 6 12 0.0651097 0 50663 0.0651097 1
gene 1 525 525 0.360964 1 50781 0.360964 1
gene 1 29 14 1.51423 0 51280 1.51423 1
gene 1 29 525 0.784688 0 51456 0.784688 1
gene 1 22 12 -1.32987 0 51701 -1.32987 1
gene 1 4 14 -0.333866 0 52232 -0.333866 1
gene 1 27 16 0.120711 0 52460 0.120711 1
gene 1 16 18 0.693708 0 53161 0.693708 1
gene 1 3 29 1.09174 0 53556 1.09174 1
gene 1 289 30 0.722094 0 54165 0.722094 1
gene 1 6 25 0.740005 0 54379 0.740005 1
gene 1 28 289 0.267919 0 54819 0.267919 1
gene 1 402 31 -0.0673747 0 55509 -0.0673747 1
gene 1 9 23 0.0203168 0 55729 0.0203168 1
gene 1 18 18 -0.149637 1 56148 -0.149637 1
gene 1 10 18 -1.50834 0 56337 -1.50834 1
gene 1 26 26 1.52827 1 56483 1.52827 1
gene 1 3 18 -0.430427 0 57143 -0.430427 1
gene 1 19 24 1.17685 0 57613 1.17685 1
gene 1 29 22 -0.0307439 0 58022 -0.0307439 1
gene 1 5 1438 1.84566 0 59284 1.84566 1
gene 1 23 26 0.58319 1 59513 0.58319 1
gene 1 27 623 0.377238 0 59721 0.377238 1
gene 1 30 623 -1.02927 0 60170 -1.02927 1
gene 1 5 402 -0.300456 0 60598 -0.300456 1
gene 1 30 31 0.510729 0 61053 0.510729 1
gene 1 402 23 -0.825261 0 61418 -0.825261 1
gene 1 24 24 -0.335775 1 61573 -0.335775 1
gene 1 28 30 0.19047 0 61831 0.19047 1
gene 1 32 16 -0.683714 0 62311 -0.683714 1
gene 1 11 29 0.994134 0 62408 0.994134 1
gene 1 700 23 0.109109 0 62621 0.109109 1
gene 1 700 2271 0.726799 0 62858 0.351799 1
gene 1 2271 1351 1.13457 0 62859 0.997048 1
gene 1 9 19 0.721255 0 63484 0.721255 1
gene 1 1 289 -0.137094 0 63717 -0.137094 1
gene 1 5 2271 -1.33179 0 64583 -1.33179 1
gene 1 289 26 1.06984 0 64856 1.06984 1
gene 1 17 20 -0.838896 0 65886 -0.838896 1
gene 1 28 18 0.424676 0 68083 0.424676 1
gene 1 289 525 -1.13121 0 68302 -1.13121 1
gene 1 4 25 0.834476 0 68739 0.834476 1
gene 1 4 17 -0.250677 0 69254 -0.250677 1
gene 1 2 15 -0.871768 0 69542 -0.871768 1
gene 1 18 24 -0.280591 0 69694 -0.280591 1
gene 1 402 19 -0.452052 0 70019 -0.452052 1
gene 1 623 12 0.922099 0 70262 0.922099 1
gene 1 15 2271 -0.697106 1 70591 -0.697106 1
gene 1 10 27 -0.637936 0 70813 -0.637936 1
gene 1 11 21 0.243173 0 71163 0.243173 1
gene 1 32 17 0.354854 0 71576 0.354854 1
genomeend 912
