/* Organism #140708420573256 Fitness: -92948.6 
genomestart 116
trait 1 0.00159742 0.453414 0.00903002 0.864267 0.715426 0.0263358 0.919686 0.00762598 
node 1 1 0
node 2 1 1
node 3 1 1
node 4 1 1
node 5 1 1
node 6 1 1
node 7 1 1
node 8 1 1
node 9 1 1
node 10 1 1
node 11 1 1
node 12 1 2
node 13 1 2
node 14 1 2
node 15 1 2
node 16 1 2
node 17 1 2
node 18 1 2
node 19 1 2
node 20 1 2
node 21 1 2
node 22 1 2
node 23 1 2
node 24 1 2
node 25 1 2
node 26 1 3
node 27 1 3
node 28 1 3
node 30 1 3
node 31 1 3
node 32 1 3
node 33 1 3
node 34 1 3
node 35 1 3
node 241 1 3
node 271 1 3
node 1278 1 3
node 1400 1 3
node 2199 1 3
node 2421 1 3
gene 1 1 26 2.15752 0 1 2.15752 1
gene 1 1 27 0.8809 0 2 0.8809 1
gene 1 1 30 -2.18531 0 5 -2.18531 1
gene 1 1 32 -2.8203 0 7 -2.8203 1
gene 1 1 33 -0.119202 0 8 -0.119202 1
gene 1 1 34 3.90155 0 9 3.90155 1
gene 1 1 35 -0.531534 0 10 -0.531534 1
gene 1 2 27 -0.201983 0 12 -0.201983 1
gene 1 2 30 2.67709 0 15 2.67709 1
gene 1 2 34 1.91834 0 19 1.91834 1
gene 1 2 35 -1.25091 0 20 -1.25091 1
gene 1 3 27 1.19927 0 22 1.19927 1
gene 1 3 28 -1.03567 0 23 -1.03567 1
gene 1 3 31 -1.12483 0 26 -1.12483 1
gene 1 3 32 -0.106975 0 27 -0.106975 1
gene 1 3 33 0.0281715 0 28 0.0281715 1
gene 1 4 27 0.793017 0 32 0.793017 1
gene 1 4 30 0.799388 0 35 0.799388 1
gene 1 4 31 -0.1707 0 36 -0.1707 1
gene 1 4 33 0.356616 0 38 0.356616 1
gene 1 4 34 -0.030413 0 39 -0.030413 1
gene 1 4 35 1.04515 0 40 1.04515 1
gene 1 5 31 2.58924 0 46 2.58924 1
gene 1 5 32 0.575242 0 47 0.575242 1
gene 1 5 34 -0.620244 0 49 -0.620244 1
gene 1 6 28 -0.565203 0 53 -0.565203 1
gene 1 6 30 -0.607157 0 55 -0.607157 1
gene 1 6 31 -0.111319 0 56 -0.111319 1
gene 1 6 32 0.382531 0 57 0.382531 1
gene 1 6 33 0.598732 0 58 0.598732 1
gene 1 6 34 -1.58706 0 59 -1.58706 1
gene 1 7 26 -0.632364 0 61 -0.632364 1
gene 1 7 27 2.54077 0 62 2.54077 1
gene 1 7 28 -1.24349 0 63 -1.24349 1
gene 1 7 30 -0.642402 0 65 -0.642402 1
gene 1 7 31 3.53962 0 66 3.53962 1
gene 1 7 32 1.1881 0 67 1.1881 1
gene 1 7 33 2.49419 0 68 2.49419 1
gene 1 7 34 0.323465 0 69 0.323465 1
gene 1 7 35 -1.88837 0 70 -1.88837 1
gene 1 8 26 1.04402 0 71 1.04402 1
gene 1 8 31 -0.306131 0 76 -0.306131 1
gene 1 8 32 0.70251 0 77 0.70251 1
gene 1 8 34 -3.67688 0 79 -3.67688 1
gene 1 8 35 -1.55605 0 80 -1.55605 1
gene 1 9 26 0.497368 0 81 0.497368 1
gene 1 9 27 -1.24378 0 82 -1.24378 1
gene 1 9 28 -0.876962 0 83 -0.876962 1
gene 1 9 31 -0.412078 0 86 -0.412078 1
gene 1 9 33 0.7433 0 88 0.7433 1
gene 1 9 34 -0.565003 0 89 -0.565003 1
gene 1 10 26 -0.0542165 0 91 -0.0542165 1
gene 1 10 27 0.0650724 0 92 0.0650724 1
gene 1 10 28 -0.543605 0 93 -0.543605 1
gene 1 10 30 -1.30229 0 95 -1.30229 1
gene 1 10 31 1.99611 0 96 1.99611 1
gene 1 10 33 0.838321 0 98 0.838321 1
gene 1 10 34 -0.196809 0 99 -0.196809 1
gene 1 10 35 0.296626 0 100 0.296626 1
gene 1 11 28 1.02755 0 103 1.02755 1
gene 1 11 31 0.646883 0 106 0.646883 1
gene 1 11 32 0.466672 0 107 0.466672 1
gene 1 11 33 0.285147 0 108 0.285147 1
gene 1 11 35 -0.571744 0 110 -0.571744 1
gene 1 26 12 1.2043 0 111 1.2043 1
gene 1 26 13 0.97377 0 112 0.97377 1
gene 1 26 14 1.71957 0 113 1.71957 1
gene 1 26 16 1.05391 0 115 1.05391 1
gene 1 26 19 2.54221 0 118 2.54221 1
gene 1 26 20 -2.72943 0 119 -2.72943 1
gene 1 26 21 -0.190253 0 120 -0.190253 1
gene 1 26 22 -2.9085 0 121 -2.9085 1
gene 1 26 24 -3.58663 0 123 -3.58663 1
gene 1 26 25 -1.28753 0 124 -1.28753 1
gene 1 27 13 0.441449 0 126 0.441449 1
gene 1 27 14 -0.672746 0 127 -0.672746 1
gene 1 27 15 1.42002 0 128 1.42002 1
gene 1 27 16 -1.60103 0 129 -1.60103 1
gene 1 27 17 1.56042 0 130 1.56042 1
gene 1 27 18 1.65356 0 131 1.65356 1
gene 1 27 19 1.30302 0 132 1.30302 1
gene 1 27 22 0.231528 0 135 0.231528 1
gene 1 27 23 -1.15691 0 136 -1.15691 1
gene 1 27 25 0.0779939 0 138 0.0779939 1
gene 1 28 12 1.89216 0 139 1.89216 1
gene 1 28 13 1.27099 0 140 1.27099 1
gene 1 28 14 1.09285 0 141 1.09285 1
gene 1 28 17 -2.73898 0 144 -2.73898 1
gene 1 28 18 2.24727 0 145 2.24727 1
gene 1 28 20 2.39588 0 147 2.39588 1
gene 1 28 23 -0.661864 0 150 -0.661864 1
gene 1 28 25 -2.22715 0 152 -2.22715 1
gene 1 30 12 -1.9025 0 167 -1.9025 1
gene 1 30 14 0.760955 0 169 0.760955 1
gene 1 30 15 -2.59748 0 170 -2.59748 1
gene 1 30 16 0.557851 0 171 0.557851 1
gene 1 30 17 -0.991011 0 172 -0.991011 1
gene 1 30 19 1.66387 0 174 1.66387 1
gene 1 30 20 1.24674 0 175 1.24674 1
gene 1 30 21 1.11378 0 176 1.11378 1
gene 1 30 22 3.05102 0 177 3.05102 1
gene 1 30 23 -0.720112 0 178 -0.720112 1
gene 1 30 24 0.893792 0 179 0.893792 1
gene 1 30 25 1.54514 0 180 1.54514 1
gene 1 31 13 -1.76034 0 182 -1.76034 1
gene 1 31 14 -1.04047 0 183 -1.04047 1
gene 1 31 15 0.43951 0 184 0.43951 1
gene 1 31 16 -0.937358 0 185 -0.937358 1
gene 1 31 17 -1.95326 0 186 -1.95326 1
gene 1 31 18 1.84176 0 187 1.84176 1
gene 1 31 20 -5.14843 0 189 -5.14843 1
gene 1 31 21 -1.43291 0 190 -1.43291 1
gene 1 31 22 3.19849 0 191 3.19849 1
gene 1 31 23 -1.32064 0 192 -1.32064 1
gene 1 32 12 -0.210105 0 195 -0.210105 1
gene 1 32 13 0.436858 0 196 0.436858 1
gene 1 32 14 0.359874 0 197 0.359874 1
gene 1 32 15 2.21783 0 198 2.21783 1
gene 1 32 18 0.501308 0 201 0.501308 1
gene 1 32 20 -3.14098 0 203 -3.14098 1
gene 1 32 21 -1.46608 0 204 -1.46608 1
gene 1 32 24 0.433884 0 207 0.433884 1
gene 1 32 25 -0.466876 0 208 -0.466876 1
gene 1 33 12 0.0738172 0 209 0.0738172 1
gene 1 33 13 -1.25336 0 210 -1.25336 1
gene 1 33 15 0.339504 0 212 0.339504 1
gene 1 33 17 -0.425309 0 214 -0.425309 1
gene 1 33 18 0.98968 0 215 0.98968 1
gene 1 33 21 -0.107225 0 218 -0.107225 1
gene 1 33 23 1.19063 0 220 1.19063 1
gene 1 33 24 1.3869 0 221 1.3869 1
gene 1 33 25 -0.00690232 0 222 -0.00690232 1
gene 1 34 12 1.80056 0 223 1.80056 1
gene 1 34 14 3.55199 0 225 3.55199 1
gene 1 34 16 -2.2316 0 227 -2.2316 1
gene 1 34 18 1.79108 0 229 1.79108 1
gene 1 34 19 0.589191 0 230 0.589191 1
gene 1 34 24 -0.121208 0 235 -0.121208 1
gene 1 34 25 0.459349 0 236 0.459349 1
gene 1 35 12 -0.471857 0 237 -0.471857 1
gene 1 35 13 0.180415 0 238 0.180415 1
gene 1 35 14 -1.10982 0 239 -1.10982 1
gene 1 35 15 -0.000419718 0 240 -0.000419718 1
gene 1 35 16 -0.0795998 0 241 -0.0795998 1
gene 1 35 17 -2.72426 0 242 -2.72426 1
gene 1 35 18 -0.126103 0 243 -0.126103 1
gene 1 35 20 1.0228 0 245 1.0228 1
gene 1 35 22 -1.37833 0 247 -1.37833 1
gene 1 35 23 1.43657 0 248 1.43657 1
gene 1 35 24 1.11054 0 249 1.11054 1
gene 1 35 25 -1.61824 0 250 -1.61824 1
gene 1 1 23 -0.454871 0 324 -0.454871 1
gene 1 8 20 -1.66876 0 842 -1.66876 1
gene 1 1 21 1.27631 0 1042 1.27631 1
gene 1 27 27 -0.539663 1 1259 -0.539663 1
gene 1 6 23 -1.00549 0 1963 -1.00549 1
gene 1 20 15 1.11425 0 2913 1.11425 1
gene 1 24 18 0.886777 0 3099 0.886777 1
gene 1 30 30 1.42774 1 3304 1.42774 1
gene 1 30 32 0.411957 0 3519 0.411957 1
gene 1 23 24 0.277031 0 4334 0.277031 1
gene 1 3 241 0.556325 0 5516 0.531627 1
gene 1 18 17 -0.758442 0 7286 -0.758442 1
gene 1 17 17 0.354623 1 8504 0.354623 1
gene 1 8 13 0.794233 0 8842 0.794233 1
gene 1 27 31 -0.495631 0 9373 -0.495631 1
gene 1 3 23 0.626208 0 9582 0.626208 1
gene 1 4 271 2.34176 0 10725 2.34176 1
gene 1 24 24 -1.10967 1 11500 -1.10967 1
gene 1 26 26 -1.99948 1 11715 -1.99948 1
gene 1 27 32 -1.18018 0 12619 -1.18018 1
gene 1 16 15 0.213372 0 12799 0.213372 1
gene 1 21 22 0.47797 0 16711 0.47797 1
gene 1 11 271 -0.666342 0 18246 -0.666342 1
gene 1 35 26 0.172089 0 21647 0.172089 1
gene 1 3 15 -0.850381 0 22013 -0.850381 1
gene 1 31 33 -0.469307 0 22257 -0.469307 1
gene 1 21 20 0.151676 0 22456 0.151676 1
gene 1 28 27 -1.09805 0 25035 -1.09805 1
gene 1 22 24 -0.456525 0 25852 -0.456525 1
gene 1 14 16 0.181833 0 26508 0.181833 1
gene 1 13 25 0.724216 0 27244 0.724216 1
gene 1 28 28 1.09488 1 28047 1.09488 1
gene 1 18 241 -1.20759 0 29060 -1.20759 1
gene 1 35 35 0.364527 1 29676 0.364527 1
gene 1 5 21 -0.25905 0 31189 -0.25905 1
gene 1 24 31 -0.530408 1 31755 -0.530408 1
gene 1 17 241 0.0499142 0 32392 0.0499142 1
gene 1 23 20 0.927979 0 33458 0.927979 1
gene 1 21 12 -0.0879572 0 34030 -0.0879572 1
gene 1 14 20 0.651173 0 34262 0.651173 1
gene 1 34 34 -0.718401 1 34835 -0.718401 1
gene 1 5 1278 1.56316 0 35016 1.45201 1
gene 1 1278 28 3.6515 0 35017 3.52874 1
gene 1 5 25 -0.815944 0 35369 -0.815944 1
gene 1 19 24 -0.138732 0 36370 -0.138732 1
gene 1 1278 1278 1.27055 1 36549 1.27055 1
gene 1 21 25 0.427062 0 36754 0.427062 1
gene 1 241 241 -0.553496 1 37441 -0.553496 1
gene 1 1400 19 -0.268352 0 38130 -0.268166 1
gene 1 3 34 -0.0166875 0 38334 -0.0166875 1
gene 1 1278 21 -1.88779 0 38505 -1.88779 1
gene 1 16 17 0.018531 0 38670 0.018531 1
gene 1 12 271 -0.825693 0 39596 -0.825693 1
gene 1 30 27 1.37515 0 40593 1.37515 1
gene 1 2 22 -0.267181 0 40795 -0.267181 1
gene 1 5 24 -0.242993 0 41229 -0.242993 1
gene 1 20 20 0.223663 1 41605 0.223663 1
gene 1 12 23 -0.712803 0 41842 -0.712803 1
gene 1 31 31 0.566504 1 42898 0.566504 1
gene 1 6 1400 -0.733203 0 42988 -0.733203 1
gene 1 3 30 -0.702822 0 44749 -0.702822 1
gene 1 33 34 -0.355896 0 45180 -0.355896 1
gene 1 1400 1400 0.0580947 1 45383 0.0580947 1
gene 1 32 19 -0.578908 0 45625 -0.578908 1
gene 1 8 15 1.46454 0 45846 1.46454 1
gene 1 32 271 0.391712 0 46677 0.391712 1
gene 1 13 23 0.0701604 0 47114 0.0701604 1
gene 1 19 16 -0.794164 0 47541 -0.794164 1
gene 1 13 13 -0.0849554 1 47727 -0.0849554 1
gene 1 26 32 0.0290477 0 48142 0.0290477 1
gene 1 2 21 0.0177553 0 48773 0.0177553 1
gene 1 15 15 0.215441 1 49274 0.215441 1
gene 1 25 21 -0.295681 1 50639 -0.295681 1
gene 1 27 28 -0.246445 1 51772 -0.246445 1
gene 1 15 28 0.303958 1 52225 0.303958 1
gene 1 7 21 -0.346842 0 52381 -0.346842 1
gene 1 9 22 0.424999 0 52871 0.424999 1
gene 1 22 25 -0.749126 0 53016 -0.749126 1
gene 1 9 18 -0.959751 0 53247 -0.959751 1
gene 1 4 16 -0.00354665 0 53494 -0.00354665 1
gene 1 32 31 -0.671939 0 54396 -0.671939 1
gene 1 17 22 0.899423 0 54608 0.899423 1
gene 1 18 31 0.914469 1 54800 0.914469 1
gene 1 15 25 0.455529 0 54921 0.455529 1
gene 1 241 15 -0.0746877 0 55893 -0.0746877 1
gene 1 2 13 0.489437 0 56093 0.489437 1
gene 1 4 23 -0.457846 0 56283 -0.457846 1
gene 1 13 12 0.650963 0 57171 0.650963 1
gene 1 21 15 0.565587 0 58712 0.565587 1
gene 1 32 23 0.877088 0 58921 0.877088 1
gene 1 4 1278 -0.4828 0 59105 -0.4828 1
gene 1 12 14 -0.67617 0 59373 -0.67617 1
gene 1 23 23 -0.680314 1 59413 -0.680314 1
gene 1 6 241 -0.496547 0 60000 -0.496547 1
gene 1 3 2199 1.01448 0 60825 0.589121 1
gene 1 2199 26 -1.40484 0 60826 -0.54021 1
gene 1 28 24 0.343376 0 61373 0.343376 1
gene 1 12 16 -0.576111 0 62268 -0.576111 1
gene 1 34 271 -0.533677 0 62294 -0.533677 1
gene 1 8 17 1.0773 0 63038 1.0773 1
gene 1 8 25 0.0800251 0 63486 0.0800251 1
gene 1 30 26 -0.968457 0 64280 -0.968457 1
gene 1 3 20 0.608006 0 64925 0.608006 1
gene 1 19 21 0.171064 0 65098 0.171064 1
gene 1 7 271 -0.093301 0 65295 -0.093301 1
gene 1 1400 16 0.209056 0 65665 0.209056 1
gene 1 23 31 0.782757 1 65906 0.782757 1
gene 1 3 2421 1 0 66382 0 1
gene 1 2421 1400 -1.18137 0 66383 0 1
gene 1 14 14 0.502009 1 66939 0.502009 1
gene 1 10 18 -0.868713 0 67257 -0.868713 1
gene 1 8 23 0.729939 0 67850 0.729939 1
gene 1 1 20 -0.969516 0 68690 -0.969516 1
gene 1 28 34 0.885797 0 68901 0.885797 1
gene 1 34 20 -0.293034 0 69334 -0.293034 1
gene 1 14 21 -0.767761 1 69944 -0.767761 1
gene 1 2199 16 0.663808 0 70106 0.663808 1
gene 1 22 22 0.5401 1 70382 0.5401 1
gene 1 16 16 -0.706423 1 70604 -0.706423 1
gene 1 15 241 0.0882329 1 70833 0.0882329 1
genomeend 116
