/* Organism #54536592 Fitness: 1.83361e+06 
genomestart 608
trait 1 0.47182 0.329754 0.625993 0.466535 0.485979 0.110247 0.0767654 0.186987 
node 1 1 0
node 2 1 1
node 3 1 1
node 4 1 1
node 5 1 1
node 6 1 1
node 7 1 1
node 8 1 1
node 9 1 1
node 10 1 1
node 11 1 1
node 12 1 2
node 13 1 2
node 14 1 2
node 15 1 2
node 16 1 2
node 17 1 2
node 18 1 2
node 19 1 2
node 20 1 2
node 21 1 2
node 22 1 2
node 23 1 2
node 24 1 2
node 25 1 2
node 31 1 3
node 33 1 3
node 35 1 3
gene 1 1 31 -5.83048 0 6 -5.83048 1
gene 1 1 33 -3.79512 0 8 -3.79512 1
gene 1 2 33 2.61105 0 18 2.61105 1
gene 1 3 35 -0.155931 0 30 -0.155931 1
gene 1 4 35 -4.91471 0 40 -4.91471 1
gene 1 5 31 -6.62171 0 46 -6.62171 1
gene 1 5 35 6.83607 0 50 6.83607 1
gene 1 7 33 -4.21645 0 68 -4.21645 1
gene 1 7 35 -1.83643 0 70 -1.83643 1
gene 1 8 33 -0.992217 0 78 -0.992217 1
gene 1 9 31 -3.50388 0 86 -3.50388 1
gene 1 10 33 1.62927 0 98 1.62927 1
gene 1 31 12 -5.08828 0 181 -5.08828 1
gene 1 31 13 1.43667 0 182 1.43667 1
gene 1 31 14 -2.25021 0 183 -2.25021 1
gene 1 31 15 -1.95533 0 184 -1.95533 1
gene 1 31 16 7.34268 0 185 7.34268 1
gene 1 31 17 2.54563 0 186 2.54563 1
gene 1 31 18 1.50897 0 187 1.50897 1
gene 1 31 21 3.72094 0 190 3.72094 1
gene 1 31 22 -4.39006 0 191 -4.39006 1
gene 1 31 24 -1.39478 0 193 -1.39478 1
gene 1 31 25 4.14438 0 194 4.14438 1
gene 1 33 14 -5.40515 0 211 -5.40515 1
gene 1 33 16 -0.575425 0 213 -0.575425 1
gene 1 33 17 -3.28365 0 214 -3.28365 1
gene 1 33 18 0.69387 0 215 0.69387 1
gene 1 33 19 4.53578 0 216 4.53578 1
gene 1 33 20 5.88169 0 217 5.88169 1
gene 1 33 21 1.03429 0 218 1.03429 1
gene 1 33 22 3.38739 0 219 3.38739 1
gene 1 33 23 0.2447 0 220 0.2447 1
gene 1 33 24 -0.373902 0 221 -0.373902 1
gene 1 33 25 -0.471993 0 222 -0.471993 1
gene 1 35 14 -0.0717925 0 239 -0.0717925 1
gene 1 35 15 -3.04882 0 240 -3.04882 1
gene 1 35 17 -1.17607 0 242 -1.17607 1
gene 1 35 18 -4.64128 0 243 -4.64128 1
gene 1 35 19 1.25146 0 244 1.25146 1
gene 1 35 20 0.445019 0 245 0.445019 1
gene 1 35 21 -2.92085 0 246 -2.92085 1
gene 1 35 22 -1.10257 0 247 -1.10257 1
gene 1 19 15 -2.51485 0 2166 -2.51485 1
gene 1 12 14 -1.16587 0 2530 -1.16587 1
gene 1 5 22 -3.2417 0 4062 -3.2417 1
gene 1 16 35 -0.765028 1 7078 -0.765028 1
gene 1 14 24 -6.97661 0 7700 -6.97661 1
gene 1 8 19 0.264844 0 10530 0.264844 1
gene 1 11 25 6.10838 0 12460 6.10838 1
gene 1 13 20 -1.46629 0 12703 -1.46629 1
gene 1 15 23 -2.51593 0 12911 -2.51593 1
gene 1 20 22 1.41566 0 13387 1.41566 1
gene 1 3 22 -2.48762 0 14120 -2.48762 1
gene 1 24 15 -2.00063 0 15737 -2.00063 1
gene 1 21 16 -3.27304 0 16417 -3.27304 1
gene 1 20 19 0.817993 0 17641 0.817993 1
gene 1 18 13 -1.14049 0 19389 -1.14049 1
gene 1 20 23 2.6165 0 20230 2.6165 1
gene 1 20 24 2.57094 0 24148 2.57094 1
gene 1 9 18 1.28166 0 24707 1.28166 1
gene 1 3 21 0.346683 0 28498 0.346683 1
gene 1 12 31 -2.60687 1 28891 -2.60687 1
gene 1 19 21 -3.68857 0 29137 -3.68857 1
gene 1 14 23 2.09904 0 29842 2.09904 1
gene 1 16 13 -0.142153 1 30297 -0.142153 1
gene 1 11 14 -2.27155 0 32930 -2.27155 1
gene 1 21 21 -0.364193 1 33719 -0.364193 1
gene 1 18 31 -0.713605 1 34943 -0.713605 1
gene 1 11 18 1.6918 0 35149 1.6918 1
gene 1 2 21 -0.349512 0 35550 -0.349512 1
gene 1 14 15 -0.799876 0 36493 -0.799876 1
gene 1 1 14 0.456769 0 36612 0.456769 1
gene 1 20 20 -1.93425 1 37223 -1.93425 1
gene 1 3 23 0.267874 0 37669 0.267874 1
gene 1 11 12 -0.0120321 0 38370 -0.0120321 1
gene 1 17 25 1.69328 0 39050 1.69328 1
gene 1 31 33 -0.247691 0 40303 -0.247691 1
gene 1 23 24 -1.38056 1 40532 -1.38056 1
gene 1 17 16 1.53713 0 40743 1.53713 1
gene 1 18 15 -0.581536 0 41043 -0.581536 1
gene 1 3 16 -0.691671 0 41676 -0.691671 1
gene 1 25 25 -0.285328 1 42129 -0.285328 1
gene 1 14 14 -0.602929 1 42666 -0.602929 1
gene 1 2 20 -0.24887 0 44960 -0.24887 1
gene 1 35 31 0.502417 0 45699 0.502417 1
gene 1 22 24 -1.14563 0 49511 -1.14563 1
gene 1 3 19 0.880195 0 50594 0.880195 1
gene 1 13 21 1.34264 0 50777 1.34264 1
gene 1 35 23 -0.744765 0 50958 -0.744765 1
gene 1 23 23 0.210121 1 51331 0.210121 1
gene 1 9 24 0.117784 0 51513 0.117784 1
gene 1 15 15 -0.150601 1 51920 -0.150601 1
gene 1 22 25 0.853847 0 52109 0.853847 1
gene 1 13 15 1.30307 0 52315 1.30307 1
gene 1 16 24 -1.3729 0 52943 -1.3729 1
gene 1 16 16 0.658046 1 55268 0.658046 1
gene 1 12 21 0.04406 0 56692 0.04406 1
gene 1 21 25 0.820052 0 56802 0.820052 1
gene 1 14 19 -0.376425 0 57067 -0.376425 1
gene 1 5 17 -0.778225 0 57991 -0.778225 1
gene 1 14 16 -0.254927 0 58157 -0.254927 1
gene 1 24 24 0.954355 1 59106 0.954355 1
gene 1 1 23 0.799033 0 59292 0.799033 1
gene 1 12 16 0.588656 0 59825 0.588656 1
gene 1 25 24 0.180351 0 60027 0.180351 1
gene 1 6 17 0.961174 0 61722 0.961174 1
gene 1 3 20 0.56865 0 62805 0.56865 1
gene 1 22 23 0.694779 0 64198 0.694779 1
gene 1 13 23 -0.682028 0 64582 -0.682028 1
gene 1 12 15 0.306354 0 65323 0.306354 1
gene 1 10 21 0.589277 0 65749 0.589277 1
gene 1 4 21 -0.756174 0 66016 -0.756174 1
gene 1 10 18 0.241229 0 66570 0.241229 1
gene 1 17 17 0.136222 1 66644 0.136222 1
gene 1 35 35 0.683875 1 66857 0.683875 1
genomeend 608
