/* Organism #84387936 Fitness: 1.82823e+06 
genomestart 395
trait 1 0.291698 0.862198 0.360867 0.0789577 0.309345 0.850737 0.894658 0.469275 
node 1 1 0
node 2 1 1
node 3 1 1
node 4 1 1
node 5 1 1
node 6 1 1
node 7 1 1
node 8 1 1
node 9 1 1
node 10 1 1
node 11 1 1
node 12 1 2
node 13 1 2
node 14 1 2
node 15 1 2
node 16 1 2
node 17 1 2
node 18 1 2
node 19 1 2
node 20 1 2
node 21 1 2
node 22 1 2
node 23 1 2
node 24 1 2
node 25 1 2
node 27 1 3
node 28 1 3
node 30 1 3
node 31 1 3
node 32 1 3
node 35 1 3
node 492 1 3
node 555 1 3
node 1364 1 3
node 1769 1 3
node 1923 1 3
node 2082 1 3
node 2102 1 3
node 2200 1 3
node 2342 1 3
node 2389 1 3
gene 1 1 27 -0.0149192 0 2 -0.0149192 1
gene 1 1 28 -1.75331 0 3 -1.75331 1
gene 1 1 31 -1.51901 0 6 -1.51901 1
gene 1 2 28 0.0808187 0 13 0.0808187 1
gene 1 2 35 1.1658 0 20 1.1658 1
gene 1 3 27 -1.37372 0 22 -1.37372 1
gene 1 3 35 -0.658171 0 30 -0.658171 1
gene 1 4 27 2.86239 0 32 2.86239 1
gene 1 4 28 1.01573 0 33 1.01573 1
gene 1 4 30 -0.374488 0 35 -0.374488 1
gene 1 4 31 3.04648 0 36 3.04648 1
gene 1 4 32 -2.04412 0 37 -2.04412 1
gene 1 4 35 1.74847 0 40 1.74847 1
gene 1 5 27 1.51219 0 42 1.51219 1
gene 1 5 28 0.915726 0 43 0.915726 1
gene 1 5 30 0.559699 0 45 0.559699 1
gene 1 5 31 -1.71323 0 46 -1.71323 1
gene 1 5 32 -0.245213 0 47 -0.245213 1
gene 1 5 35 -1.48174 0 50 -1.48174 1
gene 1 6 28 -2.08774 0 53 -2.08774 1
gene 1 6 32 0.804218 0 57 0.804218 1
gene 1 6 35 -0.109728 0 60 -0.109728 1
gene 1 7 27 1.5989 0 62 1.5989 1
gene 1 7 28 -1.52643 0 63 -1.52643 1
gene 1 7 31 0.823771 0 66 0.823771 1
gene 1 7 32 -0.984077 0 67 -0.984077 1
gene 1 7 35 0.923011 0 70 0.923011 1
gene 1 8 28 1.27195 0 73 1.27195 1
gene 1 8 30 1.55154 0 75 1.55154 1
gene 1 8 35 -0.566112 0 80 -0.566112 1
gene 1 9 27 -1.54261 0 82 -1.54261 1
gene 1 9 28 0.911886 0 83 0.911886 1
gene 1 9 30 -2.24418 0 85 -2.24418 1
gene 1 9 31 2.4162 0 86 2.4162 1
gene 1 9 32 -1.60994 0 87 -1.60994 1
gene 1 9 35 1.20816 0 90 1.20816 1
gene 1 10 27 2.07116 0 92 2.07116 1
gene 1 10 31 -2.30264 0 96 -2.30264 1
gene 1 10 32 0.277581 0 97 0.277581 1
gene 1 11 27 0.290732 0 102 0.290732 1
gene 1 11 31 -0.266999 0 106 -0.266999 1
gene 1 11 32 -1.78341 0 107 -1.78341 1
gene 1 27 12 3.53786 0 125 3.53786 1
gene 1 27 14 1.41378 0 127 1.41378 1
gene 1 27 15 1.81364 0 128 1.81364 1
gene 1 27 16 -0.436105 0 129 -0.436105 1
gene 1 27 17 -0.358586 0 130 -0.358586 1
gene 1 27 18 -2.08498 0 131 -2.08498 1
gene 1 27 20 -0.389263 0 133 -0.389263 1
gene 1 27 21 2.10252 0 134 2.10252 1
gene 1 27 22 1.3105 0 135 1.3105 1
gene 1 27 23 -0.757613 0 136 -0.757613 1
gene 1 27 24 -0.69754 0 137 -0.69754 1
gene 1 27 25 0.050029 0 138 0.050029 1
gene 1 28 12 -1.57624 0 139 -1.57624 1
gene 1 28 14 -2.59068 0 141 -2.59068 1
gene 1 28 15 0.809931 0 142 0.809931 1
gene 1 28 16 1.66686 0 143 1.66686 1
gene 1 28 19 1.04002 0 146 1.04002 1
gene 1 28 20 4.2397 0 147 4.2397 1
gene 1 28 21 0.503582 0 148 0.503582 1
gene 1 28 22 -0.100195 0 149 -0.100195 1
gene 1 28 23 -1.81572 0 150 -1.81572 1
gene 1 28 25 0.547291 0 152 0.547291 1
gene 1 30 12 -1.40123 0 167 -1.40123 1
gene 1 30 15 -0.134313 0 170 -0.134313 1
gene 1 30 16 1.01523 0 171 1.01523 1
gene 1 30 18 -1.46481 0 173 -1.46481 1
gene 1 30 19 0.184768 0 174 0.184768 1
gene 1 30 20 1.13564 0 175 1.13564 1
gene 1 30 22 0.23462 0 177 0.23462 1
gene 1 30 24 1.97347 0 179 1.97347 1
gene 1 31 16 0.0680797 0 185 0.0680797 1
gene 1 31 18 0.847932 0 187 0.847932 1
gene 1 31 20 -1.00558 0 189 -1.00558 1
gene 1 31 21 2.70722 0 190 2.70722 1
gene 1 31 22 2.30159 0 191 2.30159 1
gene 1 31 24 -0.601675 0 193 -0.601675 1
gene 1 31 25 -0.703663 0 194 -0.703663 1
gene 1 32 12 1.54012 0 195 1.54012 1
gene 1 32 13 -2.50449 0 196 -2.50449 1
gene 1 32 14 -1.03137 0 197 -1.03137 1
gene 1 32 15 0.186231 0 198 0.186231 1
gene 1 32 16 0.647542 0 199 0.647542 1
gene 1 32 19 -1.3556 0 202 -1.3556 1
gene 1 32 20 0.0330971 0 203 0.0330971 1
gene 1 32 22 -0.454123 0 205 -0.454123 1
gene 1 32 23 -2.1247 0 206 -2.1247 1
gene 1 32 24 0.560033 0 207 0.560033 1
gene 1 32 25 1.40861 0 208 1.40861 1
gene 1 35 12 -0.756432 0 237 -0.756432 1
gene 1 35 15 1.26756 0 240 1.26756 1
gene 1 35 17 1.08917 0 242 1.08917 1
gene 1 35 18 -1.03964 0 243 -1.03964 1
gene 1 35 19 1.23591 0 244 1.23591 1
gene 1 35 22 2.2901 0 247 2.2901 1
gene 1 35 23 0.704326 0 248 0.704326 1
gene 1 25 22 0.413047 0 584 0.413047 1
gene 1 24 16 2.57991 0 1574 2.57991 1
gene 1 21 21 0.833305 1 2296 0.833305 1
gene 1 28 27 -0.686029 0 2499 -0.686029 1
gene 1 24 13 0.385689 0 5871 0.385689 1
gene 1 25 23 0.243522 0 6601 0.243522 1
gene 1 7 15 -0.602979 0 6795 -0.602979 1
gene 1 31 31 0.603326 1 7139 0.603326 1
gene 1 22 22 -0.537034 1 7506 -0.537034 1
gene 1 20 23 0.0976084 0 8674 0.0976084 1
gene 1 11 21 -1.91923 0 8807 -1.91923 1
gene 1 2 14 -1.38323 0 9029 -1.38323 1
gene 1 15 24 -0.575665 0 9414 -0.575665 1
gene 1 1 12 0.147975 0 10040 0.147975 1
gene 1 23 16 -0.334338 0 10246 -0.334338 1
gene 1 7 21 1.22884 0 11388 1.22884 1
gene 1 15 16 -0.0962728 0 11688 -0.0962728 1
gene 1 27 30 -1.13946 0 12252 -1.13946 1
gene 1 11 492 0.641903 0 12629 0.640277 1
gene 1 492 30 -1.47186 0 12630 -1.45795 1
gene 1 492 18 0.588076 0 13086 0.588076 1
gene 1 22 16 -0.0263601 0 13437 -0.0263601 1
gene 1 555 22 1.42447 0 14267 1.41384 1
gene 1 13 20 -0.804036 0 14646 -0.804036 1
gene 1 20 20 -0.175198 1 16475 -0.175198 1
gene 1 18 18 -0.0373289 1 16729 -0.0373289 1
gene 1 11 16 0.123933 0 16961 0.123933 1
gene 1 21 16 -1.10012 0 16986 -1.10012 1
gene 1 10 21 -1.7507 0 17442 -1.7507 1
gene 1 19 19 -0.843799 1 18036 -0.843799 1
gene 1 5 25 -0.647939 0 19989 -0.647939 1
gene 1 555 30 0.87493 0 22738 0.87493 1
gene 1 19 21 -0.495504 0 23798 -0.495504 1
gene 1 3 18 -0.0259168 0 24568 -0.0259168 1
gene 1 1 14 -0.798803 0 24820 -0.798803 1
gene 1 32 32 -0.223334 1 24963 -0.223334 1
gene 1 7 492 1.22695 0 25401 1.22695 1
gene 1 6 25 -0.53555 0 25918 -0.53555 1
gene 1 1 24 0.266074 0 27800 0.266074 1
gene 1 555 555 1.05335 1 29809 1.05335 1
gene 1 25 28 0.753454 1 30403 0.753454 1
gene 1 11 30 -0.0558933 0 31535 -0.0558933 1
gene 1 21 492 0.66941 1 32354 0.66941 1
gene 1 1 13 -1.20387 0 32818 -1.20387 1
gene 1 27 35 0.548878 0 33117 0.548878 1
gene 1 19 25 0.235949 0 35181 0.235949 1
gene 1 30 1364 0.983483 0 35559 0.953123 1
gene 1 1364 17 0.146343 0 35560 0.14816 1
gene 1 24 23 -0.935365 0 35767 -0.935365 1
gene 1 16 16 -0.355517 1 36159 -0.355517 1
gene 1 4 20 0.927047 0 36729 0.927047 1
gene 1 31 492 -0.334108 0 37165 -0.334108 1
gene 1 1364 21 1.58334 0 38810 1.58334 1
gene 1 20 18 0.239697 0 39021 0.239697 1
gene 1 23 18 1.05003 0 41102 1.05003 1
gene 1 35 14 1.66766 0 41636 1.66766 1
gene 1 2 20 -0.269748 0 42791 -0.269748 1
gene 1 32 27 0.407389 0 43213 0.407389 1
gene 1 19 15 0.812534 0 43437 0.812534 1
gene 1 32 555 1.37016 0 43636 1.37016 1
gene 1 24 12 -0.22274 0 44281 -0.22274 1
gene 1 31 14 -0.482847 0 44691 -0.482847 1
gene 1 555 35 -1.36085 0 45149 -1.36085 1
gene 1 9 22 -0.830844 0 45338 -0.830844 1
gene 1 8 25 -0.393971 0 45787 -0.393971 1
gene 1 1 25 0.32065 0 46409 0.32065 1
gene 1 1769 13 0.309527 0 46853 0.309527 1
gene 1 2 17 0.368906 0 48630 0.368906 1
gene 1 23 14 -0.20566 0 48768 -0.20566 1
gene 1 35 25 -0.936576 0 49531 -0.936576 1
gene 1 9 23 -0.619767 0 49751 -0.619767 1
gene 1 9 1923 0.463496 0 51019 -0.0208791 1
gene 1 1923 12 -2.76682 0 51020 -2.36246 1
gene 1 7 23 0.893991 0 52062 0.893991 1
gene 1 13 13 0.645158 1 52259 0.645158 1
gene 1 12 22 -0.831435 0 52503 -0.831435 1
gene 1 10 24 -0.747727 0 53002 -0.747727 1
gene 1 492 25 -0.295083 0 54757 -0.295083 1
gene 1 1923 16 0.61091 0 55187 0.61091 1
gene 1 10 2082 1.15056 0 55417 0.713062 1
gene 1 2102 35 0.3854 0 55846 0.307609 1
gene 1 2102 2102 0.806215 1 57503 0.806215 1
gene 1 7 18 0.499222 0 57714 0.499222 1
gene 1 12 25 -0.248984 0 57829 -0.248984 1
gene 1 19 1923 -0.183462 0 58032 -0.183462 1
gene 1 22 23 -0.72595 0 58288 -0.72595 1
gene 1 2082 25 0.67707 0 58731 0.67707 1
gene 1 13 2200 0.644943 1 59008 0.269943 1
gene 1 2200 1769 0.476487 0 59009 0.40945 1
gene 1 15 13 -0.162286 0 59261 -0.162286 1
gene 1 492 492 -1.0629 1 59635 -1.0629 1
gene 1 20 21 0.154684 0 60674 0.154684 1
gene 1 35 35 -0.893763 1 60833 -0.893763 1
gene 1 5 555 0.429197 0 62171 0.429197 1
gene 1 7 2082 -0.505055 0 62410 -0.505055 1
gene 1 3 2082 0.308291 0 62683 0.308291 1
gene 1 3 2342 0.46976 0 62937 -0.03024 1
gene 1 2342 32 0.815067 0 62938 0.383557 1
gene 1 10 35 0.0925896 0 63594 0.0925896 1
gene 1 6 555 -0.904208 0 64026 -0.904208 1
gene 1 28 2389 0.806599 0 64219 0.431599 1
gene 1 2389 13 3.28295 0 64220 1.73198 1
gene 1 30 2082 -0.892636 1 64432 -0.892636 1
gene 1 12 23 1.03235 0 64761 1.03235 1
gene 1 31 13 -0.595727 0 65374 -0.595727 1
gene 1 1923 17 0.527943 0 65603 0.527943 1
gene 1 3 16 1.08415 0 66241 1.08415 1
gene 1 1 23 -0.057876 0 66781 -0.057876 1
gene 1 13 22 0.327109 0 67013 0.327109 1
gene 1 4 23 0.574485 0 67166 0.574485 1
gene 1 8 19 0.456318 0 67375 0.456318 1
gene 1 10 12 0.572861 0 67595 0.572861 1
gene 1 3 1364 -0.126722 0 68030 -0.126722 1
gene 1 1 22 -0.0643295 0 68559 -0.0643295 1
gene 1 8 32 0.519709 0 68771 0.519709 1
gene 1 14 2342 -0.630081 1 69612 -0.630081 1
gene 1 25 25 -0.239844 1 69794 -0.239844 1
genomeend 395
