/* Organism #31592320 Fitness: 929563 
genomestart 774
trait 1 0.48015 0.0723104 0.659069 0.929446 0.650491 0.477789 0.823535 0.094836 
node 1 1 0
node 2 1 1
node 3 1 1
node 4 1 1
node 5 1 1
node 6 1 1
node 7 1 1
node 8 1 1
node 9 1 1
node 10 1 1
node 11 1 1
node 12 1 2
node 13 1 2
node 14 1 2
node 15 1 2
node 16 1 2
node 17 1 2
node 18 1 2
node 19 1 2
node 20 1 2
node 21 1 2
node 22 1 2
node 23 1 2
node 24 1 2
node 25 1 2
node 32 1 3
node 56 1 3
node 267 1 3
node 615 1 3
node 1485 1 3
node 1913 1 3
node 2232 1 3
gene 1 3 32 0.146834 0 27 0.146834 1
gene 1 4 32 1.22018 0 37 1.22018 1
gene 1 5 32 -1.28615 0 47 -1.28615 1
gene 1 6 32 0.608864 0 57 0.608864 1
gene 1 8 32 -0.286736 0 77 -0.286736 1
gene 1 9 32 -3.29916 0 87 -3.29916 1
gene 1 32 12 -1.26295 0 195 -1.26295 1
gene 1 32 13 0.295828 0 196 0.295828 1
gene 1 32 14 3.81102 0 197 3.81102 1
gene 1 32 15 -0.215625 0 198 -0.215625 1
gene 1 32 16 3.23773 0 199 3.23773 1
gene 1 32 19 -1.93493 0 202 -1.93493 1
gene 1 32 23 1.93469 0 206 1.93469 1
gene 1 32 25 -0.234271 0 208 -0.234271 1
gene 1 10 56 3.29179 0 798 3.29179 1
gene 1 15 22 -0.0336545 0 1221 -0.0336545 1
gene 1 9 24 1.02695 0 1643 1.02695 1
gene 1 5 24 -0.455969 0 3464 -0.455969 1
gene 1 16 12 -2.12123 0 4357 -2.12123 1
gene 1 12 12 2.2812 1 4872 2.2812 1
gene 1 20 12 -2.21908 0 5154 -2.21908 1
gene 1 23 16 -0.435674 0 5295 -0.435674 1
gene 1 22 22 4.28277 1 6051 4.28277 1
gene 1 10 267 1.05048 0 6498 1.05048 1
gene 1 1 12 1.07241 0 8411 1.07241 1
gene 1 17 17 4.4963 1 8982 4.4963 1
gene 1 19 19 -0.440017 1 9377 -0.440017 1
gene 1 10 20 0.203873 0 9829 0.203873 1
gene 1 6 25 -5.64886 0 12131 -5.64886 1
gene 1 24 25 7.47385 0 12601 7.47385 1
gene 1 11 12 0.767348 0 12805 0.767348 1
gene 1 14 25 -0.60483 0 13376 -0.60483 1
gene 1 17 267 0.683944 0 14373 0.683944 1
gene 1 267 18 -3.00652 0 14538 -3.00652 1
gene 1 7 267 -0.77216 0 16123 -0.77216 1
gene 1 18 22 2.09361 0 16519 2.09361 1
gene 1 14 14 -0.54445 1 16657 -0.54445 1
gene 1 18 14 -0.338082 0 17089 -0.338082 1
gene 1 1 18 2.81011 0 18803 2.81011 1
gene 1 24 16 -1.95099 0 19219 -1.95099 1
gene 1 7 19 -1.44528 0 19412 -1.44528 1
gene 1 615 12 -0.123675 0 19606 -0.123675 1
gene 1 18 19 3.78604 0 20232 3.78604 1
gene 1 21 32 0.114429 1 21406 0.114429 1
gene 1 9 25 0.261782 0 22154 0.261782 1
gene 1 615 23 -4.48692 0 22348 -4.48692 1
gene 1 11 14 0.126356 0 23768 0.126356 1
gene 1 20 17 -0.173135 0 23991 -0.173135 1
gene 1 23 14 -0.574177 0 25627 -0.574177 1
gene 1 615 615 -1.1232 1 26486 -1.1232 1
gene 1 24 32 -0.308682 1 28601 -0.308682 1
gene 1 6 12 -1.49788 0 29008 -1.49788 1
gene 1 15 15 1.5812 1 30071 1.5812 1
gene 1 5 22 -6.43915 0 32108 -6.43915 1
gene 1 21 19 0.297935 0 33548 0.297935 1
gene 1 21 12 -2.20952 0 33650 -2.20952 1
gene 1 23 23 -1.44735 1 34967 -1.44735 1
gene 1 15 14 -4.91178 0 36397 -4.91178 1
gene 1 8 15 -0.496878 0 37011 -0.496878 1
gene 1 24 15 2.7861 0 37159 2.7861 1
gene 1 22 13 1.51667 0 39031 1.51667 1
gene 1 22 24 5.40819 1 39223 5.40819 1
gene 1 3 24 -5.27107 0 41598 -5.27107 1
gene 1 25 25 -0.540032 1 41798 -0.540032 1
gene 1 1485 19 3.01433 0 42323 3.01433 1
gene 1 18 18 1.74839 1 43995 1.74839 1
gene 1 24 19 -3.11795 0 45065 -3.11795 1
gene 1 9 1485 4.50928 0 45309 4.50928 1
gene 1 11 32 -2.11897 0 45510 -2.11897 1
gene 1 9 19 -2.201 0 45806 -2.201 1
gene 1 19 12 0.728112 0 48092 0.728112 1
gene 1 22 19 0.571782 0 49102 0.571782 1
gene 1 21 24 -2.59157 0 49244 -2.59157 1
gene 1 20 20 0.0402667 1 50240 0.0402667 1
gene 1 615 17 1.44531 0 51882 1.44531 1
gene 1 267 267 -2.13062 1 52980 -2.13062 1
gene 1 16 1913 2.85406 0 53239 2.85406 1
gene 1 1913 18 0.207065 0 53240 0.207065 1
gene 1 1 56 -0.523446 0 55371 -0.523446 1
gene 1 12 25 0.945498 0 55986 0.945498 1
gene 1 9 16 -0.851076 0 56668 -0.851076 1
gene 1 56 17 -0.419833 0 57028 -0.419833 1
gene 1 7 1913 0.109289 0 57833 0.109289 1
gene 1 8 25 0.106897 0 58645 0.106897 1
gene 1 1913 32 0.351638 1 59629 0.351638 1
gene 1 7 25 -1.22327 0 60237 -1.22327 1
gene 1 16 16 -0.708814 1 60425 -0.708814 1
gene 1 11 13 -0.881249 0 60607 -0.881249 1
gene 1 10 14 0.665183 0 60811 0.665183 1
gene 1 19 24 -0.0130094 1 61026 -0.0130094 1
gene 1 1 20 -3.6566 0 61464 -3.6566 1
gene 1 615 2232 0.792793 0 61799 0.792793 1
gene 1 2232 16 -0.53014 0 61800 -0.53014 1
gene 1 24 1485 -0.635318 0 62465 -0.635318 1
gene 1 3 615 0.395018 0 62648 0.395018 1
gene 1 1913 1913 0.780912 1 63993 0.780912 1
gene 1 1 32 -0.0369653 0 64360 -0.0369653 1
gene 1 1 15 0.394262 0 66733 0.394262 1
gene 1 1485 1485 0.712016 1 66946 0.712016 1
gene 1 56 19 -0.00435945 0 67231 -0.00435945 1
gene 1 7 615 0.0442857 0 67429 0.0442857 1
genomeend 774
