/* Organism #140478253684872 Fitness: 932222 
genomestart 640
trait 1 0.671259 0.659885 0.382758 0.461836 0.174051 0.550772 0.256337 0.774889 
node 1 1 0
node 2 1 1
node 3 1 1
node 4 1 1
node 5 1 1
node 6 1 1
node 7 1 1
node 8 1 1
node 9 1 1
node 10 1 1
node 11 1 1
node 12 1 2
node 13 1 2
node 14 1 2
node 15 1 2
node 16 1 2
node 17 1 2
node 18 1 2
node 19 1 2
node 20 1 2
node 21 1 2
node 22 1 2
node 23 1 2
node 24 1 2
node 25 1 2
node 28 1 3
node 29 1 3
node 30 1 3
node 31 1 3
node 863 1 3
node 1827 1 3
gene 1 1 29 -3.21524 0 4 -3.21524 1
gene 1 1 30 -0.439389 0 5 -0.439389 1
gene 1 1 31 -7.54004 0 6 -7.54004 1
gene 1 3 29 1.01546 0 24 1.01546 1
gene 1 3 30 -0.247897 0 25 -0.247897 1
gene 1 4 30 -0.507302 0 35 -0.507302 1
gene 1 4 31 3.04492 0 36 3.04492 1
gene 1 5 29 -2.41879 0 44 -2.41879 1
gene 1 5 30 0.867945 0 45 0.867945 1
gene 1 5 31 2.06386 0 46 2.06386 1
gene 1 6 30 -1.23506 0 55 -1.23506 1
gene 1 6 31 -0.11988 0 56 -0.11988 1
gene 1 7 28 -2.99245 0 63 -2.99245 1
gene 1 7 29 4.79905 0 64 4.79905 1
gene 1 7 30 -5.80519 0 65 -5.80519 1
gene 1 8 28 0.191913 0 73 0.191913 1
gene 1 8 30 -0.390449 0 75 -0.390449 1
gene 1 8 31 0.251228 0 76 0.251228 1
gene 1 9 30 -1.8373 0 85 -1.8373 1
gene 1 9 31 0.8534 0 86 0.8534 1
gene 1 10 28 1.74179 0 93 1.74179 1
gene 1 10 30 1.45012 0 95 1.45012 1
gene 1 11 31 0.829033 0 106 0.829033 1
gene 1 28 12 -2.38513 0 139 -2.38513 1
gene 1 28 14 -1.93569 0 141 -1.93569 1
gene 1 28 16 5.69997 0 143 5.69997 1
gene 1 28 17 0.273217 0 144 0.273217 1
gene 1 28 20 3.05591 0 147 3.05591 1
gene 1 28 22 3.11729 0 149 3.11729 1
gene 1 28 23 0.26626 0 150 0.26626 1
gene 1 28 24 -5.34109 0 151 -5.34109 1
gene 1 29 12 -0.00605003 0 153 -0.00605003 1
gene 1 29 14 -2.86721 0 155 -2.86721 1
gene 1 29 15 4.01576 0 156 4.01576 1
gene 1 29 16 -4.64246 0 157 -4.64246 1
gene 1 29 17 -4.2711 0 158 -4.2711 1
gene 1 29 20 3.07397 0 161 3.07397 1
gene 1 29 21 0.980067 0 162 0.980067 1
gene 1 29 22 2.76611 0 163 2.76611 1
gene 1 29 23 -0.182088 0 164 -0.182088 1
gene 1 29 25 2.60349 0 166 2.60349 1
gene 1 30 13 -5.73976 0 168 -5.73976 1
gene 1 30 15 -5.47911 0 170 -5.47911 1
gene 1 30 16 0.652616 0 171 0.652616 1
gene 1 30 18 2.63146 0 173 2.63146 1
gene 1 30 19 5.39309 0 174 5.39309 1
gene 1 30 20 -1.79809 0 175 -1.79809 1
gene 1 30 21 0.796577 0 176 0.796577 1
gene 1 30 22 -1.27442 0 177 -1.27442 1
gene 1 30 23 5.1904 0 178 5.1904 1
gene 1 30 24 4.07667 0 179 4.07667 1
gene 1 31 13 2.88694 0 182 2.88694 1
gene 1 31 14 -6.18824 0 183 -6.18824 1
gene 1 31 15 -1.41893 0 184 -1.41893 1
gene 1 31 19 -0.842207 0 188 -0.842207 1
gene 1 31 20 4.83147 0 189 4.83147 1
gene 1 31 22 -0.846782 0 191 -0.846782 1
gene 1 31 23 -0.358384 0 192 -0.358384 1
gene 1 31 24 0.90925 0 193 0.90925 1
gene 1 12 19 4.19905 0 2251 4.19905 1
gene 1 21 14 0.141055 0 3187 0.141055 1
gene 1 23 22 -0.177317 0 4500 -0.177317 1
gene 1 5 12 2.91305 0 7288 2.91305 1
gene 1 17 12 0.661471 0 8518 0.661471 1
gene 1 14 19 -0.281121 0 8865 -0.281121 1
gene 1 15 15 -1.1738 1 8961 -1.1738 1
gene 1 11 15 -1.90159 0 9176 -1.90159 1
gene 1 1 24 -4.5206 0 11174 -4.5206 1
gene 1 18 22 0.228579 0 12390 0.228579 1
gene 1 17 17 -1.61525 1 13018 -1.61525 1
gene 1 30 30 2.22214 1 13171 2.22214 1
gene 1 4 23 -0.172837 0 16896 -0.172837 1
gene 1 13 24 0.0453593 0 17103 0.0453593 1
gene 1 2 13 -0.677674 0 18174 -0.677674 1
gene 1 16 16 -2.81929 1 19731 -2.81929 1
gene 1 19 31 -0.84963 1 20571 -0.84963 1
gene 1 23 23 1.29238 1 20770 1.29238 1
gene 1 31 863 0.183076 0 21176 0.176902 1
gene 1 863 21 -1.26399 0 21177 -1.25516 1
gene 1 7 18 -0.774226 0 22552 -0.774226 1
gene 1 5 19 0.455852 0 23496 0.455852 1
gene 1 9 25 -0.922764 0 25543 -0.922764 1
gene 1 25 24 -0.367411 0 26295 -0.367411 1
gene 1 6 15 0.490232 0 27619 0.490232 1
gene 1 4 21 -0.964558 0 28567 -0.964558 1
gene 1 23 18 0.722125 0 28911 0.722125 1
gene 1 13 30 -0.593015 1 29060 -0.593015 1
gene 1 18 18 0.514321 1 29440 0.514321 1
gene 1 12 12 0.774954 1 29848 0.774954 1
gene 1 6 21 -0.381531 0 31049 -0.381531 1
gene 1 21 17 0.406195 0 32274 0.406195 1
gene 1 1 20 -1.58504 0 32660 -1.58504 1
gene 1 16 15 -0.519302 0 33171 -0.519302 1
gene 1 3 22 0.60222 0 33753 0.60222 1
gene 1 19 25 0.286895 0 34358 0.286895 1
gene 1 17 25 0.432113 0 34997 0.432113 1
gene 1 863 25 0.0713197 0 35170 0.0713197 1
gene 1 4 18 2.15165 0 35357 2.15165 1
gene 1 13 31 -1.2882 1 35547 -1.2882 1
gene 1 18 19 1.32199 0 35761 1.32199 1
gene 1 16 22 0.218216 0 36373 0.218216 1
gene 1 20 28 0.444488 1 37639 0.444488 1
gene 1 1 12 0.96841 0 38105 0.96841 1
gene 1 6 13 -0.893471 0 39117 -0.893471 1
gene 1 20 20 -0.81631 1 39207 -0.81631 1
gene 1 31 28 0.810374 0 39686 0.810374 1
gene 1 7 19 0.730738 0 40250 0.730738 1
gene 1 9 29 -0.203168 0 40954 -0.203168 1
gene 1 10 25 1.06583 0 41714 1.06583 1
gene 1 18 17 -0.0817135 0 42752 -0.0817135 1
gene 1 9 19 -0.0662042 0 42920 -0.0662042 1
gene 1 18 20 0.852227 0 43148 0.852227 1
gene 1 23 16 0.265352 0 43328 0.265352 1
gene 1 21 25 0.169105 0 43516 0.169105 1
gene 1 28 28 0.719896 1 43923 0.719896 1
gene 1 21 15 0.568826 1 46096 0.568826 1
gene 1 2 1827 1.16478 0 47856 1.107 1
gene 1 4 20 -0.548615 0 48015 -0.548615 1
gene 1 20 22 0.729347 0 48116 0.729347 1
gene 1 25 19 0.489469 1 48453 0.489469 1
gene 1 17 24 -0.714888 0 48756 -0.714888 1
gene 1 16 25 0.626276 0 48884 0.626276 1
gene 1 10 19 0.878586 0 49173 0.878586 1
gene 1 18 863 -0.419991 0 49526 -0.419991 1
gene 1 1827 21 0.0551652 0 49895 0.0551652 1
gene 1 20 24 0.371519 0 50683 0.371519 1
gene 1 13 29 -0.242884 1 51101 -0.242884 1
gene 1 2 20 -0.171224 0 51325 -0.171224 1
gene 1 3 25 -0.378512 0 51722 -0.378512 1
gene 1 863 863 -0.50715 1 51832 -0.50715 1
gene 1 9 18 -0.755768 0 52431 -0.755768 1
gene 1 863 22 0.604186 1 53055 0.604186 1
gene 1 20 14 0.358505 0 55192 0.358505 1
gene 1 23 1827 -0.329891 0 55424 -0.329891 1
gene 1 23 20 -0.722392 0 55559 -0.722392 1
gene 1 5 17 0.127009 0 55995 0.127009 1
gene 1 8 13 -0.909176 0 56174 -0.909176 1
gene 1 8 15 -1.00555 0 58272 -1.00555 1
gene 1 4 12 0.107098 0 59114 0.107098 1
gene 1 13 20 -0.411956 0 59750 -0.411956 1
gene 1 18 12 -0.41913 0 60292 -0.41913 1
gene 1 14 1827 -0.126028 1 61814 -0.126028 1
gene 1 28 15 0.198362 0 62017 0.198362 1
gene 1 5 20 0.810381 0 62956 0.810381 1
gene 1 15 24 -1.0517 0 63465 -1.0517 1
gene 1 24 24 1.30194 1 64146 1.30194 1
gene 1 10 13 0.273605 0 64598 0.273605 1
gene 1 28 1827 0.142769 0 64982 0.142769 1
gene 1 6 18 -0.0263141 0 65564 -0.0263141 1
gene 1 7 21 0.0324721 0 66280 0.0324721 1
gene 1 6 19 0.173056 0 66662 0.173056 1
gene 1 22 14 -0.054847 0 67386 -0.054847 1
gene 1 1 17 0.971169 0 67621 0.971169 1
gene 1 17 13 -0.538325 0 67771 -0.538325 1
gene 1 17 14 0.0301832 0 68374 0.0301832 1
gene 1 14 14 -0.12781 1 68775 -0.12781 1
gene 1 3 20 -0.377504 0 69132 -0.377504 1
genomeend 640
