/* Organism #139745935534008 Fitness: 411235 
genomestart 2
trait 1 0 0 1 0.024752 0 0.474272 0.139566 0.427392 
node 1 1 0
node 2 1 1
node 3 1 1
node 4 1 1
node 5 1 1
node 6 1 1
node 7 1 1
node 8 1 1
node 9 1 1
node 10 1 1
node 11 1 1
node 12 1 2
node 13 1 2
node 14 1 2
node 15 1 2
node 16 1 2
node 17 1 2
node 18 1 2
node 19 1 2
node 20 1 2
node 21 1 2
node 22 1 2
node 23 1 2
node 24 1 2
node 25 1 2
node 26 1 3
node 27 1 3
node 31 1 3
node 32 1 3
node 816 1 3
node 1057 1 3
node 1067 1 3
node 1371 1 3
node 1450 1 3
node 1601 1 3
node 1817 1 3
node 2369 1 3
node 2596 1 3
gene 1 1 26 2.06591 0 1 2.06591 1
gene 1 1 27 -5.74154 0 2 -5.74154 1
gene 1 1 31 3.01858 0 6 3.01858 1
gene 1 1 32 -5.75122 0 7 -5.75122 1
gene 1 2 26 -1.87143 0 11 -1.87143 1
gene 1 2 31 -2.1299 0 16 -2.1299 1
gene 1 3 27 1.72876 0 22 1.72876 1
gene 1 3 31 0.617479 0 26 0.617479 1
gene 1 4 26 -2.83407 0 31 -2.83407 1
gene 1 4 31 2.7629 0 36 2.7629 1
gene 1 5 26 5.91792 0 41 5.91792 1
gene 1 5 32 -3.61718 0 47 -3.61718 1
gene 1 6 26 -0.436736 0 51 -0.436736 1
gene 1 7 26 -3.23377 0 61 -3.23377 1
gene 1 7 27 -3.25125 0 62 -3.25125 1
gene 1 7 31 7.80678 0 66 7.80678 1
gene 1 8 26 -5.38168 0 71 -5.38168 1
gene 1 8 31 0.389516 0 76 0.389516 1
gene 1 9 26 -1.705 0 81 -1.705 1
gene 1 9 27 3.10242 0 82 3.10242 1
gene 1 10 26 3.2961 0 91 3.2961 1
gene 1 10 27 -2.76788 0 92 -2.76788 1
gene 1 11 26 0.426176 0 101 0.426176 1
gene 1 11 27 -7.51034 0 102 -7.51034 1
gene 1 26 12 0.443208 0 111 0.443208 1
gene 1 26 14 2.12602 0 113 2.12602 1
gene 1 26 15 0.776495 0 114 0.776495 1
gene 1 26 16 -2.04389 0 115 -2.04389 1
gene 1 26 17 -7.91462 0 116 -7.91462 1
gene 1 26 18 0.145155 0 117 0.145155 1
gene 1 26 24 -1.97685 0 123 -1.97685 1
gene 1 27 18 -0.831557 0 131 -0.831557 1
gene 1 27 19 4.99715 0 132 4.99715 1
gene 1 27 22 2.64253 0 135 2.64253 1
gene 1 27 23 0.835444 0 136 0.835444 1
gene 1 27 24 3.92338 0 137 3.92338 1
gene 1 27 25 -1.35372 0 138 -1.35372 1
gene 1 31 12 5.61062 0 181 5.61062 1
gene 1 31 14 4.37824 0 183 4.37824 1
gene 1 31 15 -1.53615 0 184 -1.53615 1
gene 1 31 16 -7.74079 0 185 -7.74079 1
gene 1 31 18 -1.33471 0 187 -1.33471 1
gene 1 31 19 2.57701 0 188 2.57701 1
gene 1 31 20 -3.23131 0 189 -3.23131 1
gene 1 31 21 -0.853983 0 190 -0.853983 1
gene 1 31 23 -0.477637 0 192 -0.477637 1
gene 1 31 24 -1.11488 0 193 -1.11488 1
gene 1 31 25 -5.68005 0 194 -5.68005 1
gene 1 32 13 1.52513 0 196 1.52513 1
gene 1 32 16 -1.07536 0 199 -1.07536 1
gene 1 32 17 2.02401 0 200 2.02401 1
gene 1 32 18 -1.25828 0 201 -1.25828 1
gene 1 32 20 1.89814 0 203 1.89814 1
gene 1 32 25 -7.34076 0 208 -7.34076 1
gene 1 19 19 1.92885 1 1102 1.92885 1
gene 1 31 32 -2.71781 0 1460 -2.71781 1
gene 1 3 18 0.179332 0 1647 0.179332 1
gene 1 22 25 2.486 0 2001 2.486 1
gene 1 6 15 1.62169 0 2523 1.62169 1
gene 1 14 17 1.18107 0 3770 1.18107 1
gene 1 7 19 -2.95402 0 4244 -2.95402 1
gene 1 17 17 -2.58523 1 5434 -2.58523 1
gene 1 3 17 -1.67375 0 8266 -1.67375 1
gene 1 4 13 2.48279 0 8728 2.48279 1
gene 1 15 25 -2.49662 0 8985 -2.49662 1
gene 1 19 13 1.37017 0 9171 1.37017 1
gene 1 3 20 -1.24733 0 9470 -1.24733 1
gene 1 13 22 -2.20061 0 10084 -2.20061 1
gene 1 1 16 -0.680053 0 12247 -0.680053 1
gene 1 27 26 -1.03822 0 12882 -1.03822 1
gene 1 6 13 0.685782 0 13103 0.685782 1
gene 1 12 22 -0.123494 0 14492 -0.123494 1
gene 1 31 13 -1.84104 0 14844 -1.84104 1
gene 1 9 15 0.789692 0 15051 0.789692 1
gene 1 17 13 -1.76961 0 15763 -1.76961 1
gene 1 12 12 -2.95146 1 16642 -2.95146 1
gene 1 22 23 3.80845 0 17004 3.80845 1
gene 1 3 15 -2.99704 0 17175 -2.99704 1
gene 1 20 12 0.0871912 0 18714 0.0871912 1
gene 1 12 24 0.706737 0 19564 0.706737 1
gene 1 16 13 1.464 0 19969 1.464 1
gene 1 27 27 1.11982 1 20953 1.11982 1
gene 1 26 816 3.44827 0 21367 3.44827 1
gene 1 816 22 -5.02458 0 21368 -5.02458 1
gene 1 18 24 -2.76771 0 21758 -2.76771 1
gene 1 3 816 4.85419 0 23389 4.85419 1
gene 1 21 24 -1.06903 0 23965 -1.06903 1
gene 1 21 21 -1.02205 1 24403 -1.02205 1
gene 1 19 12 -1.68688 0 24685 -1.68688 1
gene 1 18 17 2.07366 0 24842 2.07366 1
gene 1 4 24 1.24483 0 25271 1.24483 1
gene 1 20 25 4.17188 0 25335 4.17188 1
gene 1 5 17 1.19148 0 26007 1.19148 1
gene 1 816 14 1.79394 0 26213 1.79394 1
gene 1 4 1057 1.83425 0 27089 1.83425 1
gene 1 1057 18 0.896792 0 27090 0.896792 1
gene 1 8 1067 -1.87164 0 27287 -1.87164 1
gene 1 15 15 0.262117 1 28255 0.262117 1
gene 1 13 24 0.153214 0 28602 0.153214 1
gene 1 31 31 3.61299 1 29049 3.61299 1
gene 1 15 23 -0.933564 0 29479 -0.933564 1
gene 1 13 31 0.757461 1 29874 0.757461 1
gene 1 8 15 1.46366 0 30105 1.46366 1
gene 1 4 14 1.57092 0 30298 1.57092 1
gene 1 23 14 -5.08803 0 30628 -5.08803 1
gene 1 17 19 0.495248 0 32090 0.495248 1
gene 1 816 32 -0.481175 0 32487 -0.481175 1
gene 1 16 16 -2.59066 1 33282 -2.59066 1
gene 1 6 14 -3.85543 0 33578 -3.85543 1
gene 1 13 13 -1.19342 1 34578 -1.19342 1
gene 1 4 1371 -2.98386 0 35224 -2.98386 1
gene 1 1371 816 1.43183 0 35225 1.43183 1
gene 1 7 32 0.295008 0 36057 0.295008 1
gene 1 2 20 -0.516031 0 36257 -0.516031 1
gene 1 3 13 0.254764 0 36467 0.254764 1
gene 1 22 32 -2.41762 1 36818 -2.41762 1
gene 1 32 1450 1.71086 0 37510 1.71086 1
gene 1 1371 15 4.35875 0 37596 4.35875 1
gene 1 7 1450 -1.48894 0 37932 -1.48894 1
gene 1 1057 1057 -0.903345 1 38312 -0.903345 1
gene 1 21 12 0.629464 0 38704 0.629464 1
gene 1 1 20 -0.570435 0 38922 -0.570435 1
gene 1 6 1450 -0.298244 0 39364 -0.298244 1
gene 1 10 12 -3.68426 0 40718 -3.68426 1
gene 1 10 17 -2.52239 0 41098 -2.52239 1
gene 1 27 1601 -1.74972 0 41492 -1.74972 1
gene 1 1601 20 -4.63328 0 41493 -4.63328 1
gene 1 18 22 -2.55431 1 41689 -2.55431 1
gene 1 3 14 0.546618 0 42183 0.546618 1
gene 1 26 1067 0.721212 1 42353 0.721212 1
gene 1 4 15 0.382998 0 43276 0.382998 1
gene 1 2 25 0.0459902 0 43981 0.0459902 1
gene 1 6 816 0.43312 0 44272 0.43312 1
gene 1 816 20 -0.534381 0 44480 -0.534381 1
gene 1 1601 1601 -2.64331 1 45310 -2.64331 1
gene 1 31 1601 0.754224 0 45620 0.754224 1
gene 1 4 1817 -1.08022 0 47323 -1.08022 1
gene 1 1057 22 1.18219 0 47982 1.18219 1
gene 1 9 22 2.19978 0 48380 2.19978 1
gene 1 15 24 -0.412132 0 50049 -0.412132 1
gene 1 2 12 0.223861 0 50276 0.223861 1
gene 1 6 12 0.405069 0 51191 0.405069 1
gene 1 19 16 -0.326711 0 52617 -0.326711 1
gene 1 2 22 -2.18119 0 52827 -2.18119 1
gene 1 6 22 -1.68345 0 53056 -1.68345 1
gene 1 1371 22 -1.3804 0 53879 -1.3804 1
gene 1 1 17 0.998606 0 54317 0.998606 1
gene 1 10 16 -1.21005 0 55182 -1.21005 1
gene 1 17 1817 -0.344991 0 55404 -0.344991 1
gene 1 4 32 0.312616 0 57073 0.312616 1
gene 1 1450 31 2.63728 1 57493 2.63728 1
gene 1 1817 1450 -1.74475 0 57697 -1.74475 1
gene 1 18 18 0.579865 1 58314 0.579865 1
gene 1 1817 1817 -0.41819 1 59821 -0.41819 1
gene 1 816 816 -0.392397 1 60098 -0.392397 1
gene 1 14 1450 0.358825 0 61535 0.358825 1
gene 1 6 25 -0.365208 0 62333 -0.365208 1
gene 1 9 816 -0.267305 0 62706 -0.267305 1
gene 1 27 2369 1 0 63154 1 1
gene 1 2369 13 -0.425788 0 63155 -0.425788 1
gene 1 1057 20 1.71225 0 63421 1.71225 1
gene 1 16 24 -0.968554 0 63911 -0.968554 1
gene 1 22 22 0.247767 1 64746 0.247767 1
gene 1 15 13 -0.348781 0 64976 -0.348781 1
gene 1 18 19 0.0628917 0 65613 0.0628917 1
gene 1 32 2369 -0.190344 0 66948 -0.190344 1
gene 1 14 1817 -0.667701 0 67064 -0.667701 1
gene 1 8 17 0.602648 0 67494 0.602648 1
gene 1 1057 15 -0.00973116 0 67983 -0.00973116 1
gene 1 17 20 0.533302 0 68209 0.533302 1
gene 1 14 14 0.753068 1 68409 0.753068 1
gene 1 24 2596 1 1 69103 0 1
gene 1 2596 24 -0.793173 0 69104 0 1
gene 1 2596 15 -0.452426 0 69328 -0.452426 1
genomeend 2
