/* Organism #81595008 Fitness: -4578.14 
genomestart 111
trait 1 1 0.162704 0.483847 0 0.185283 0.0644842 0.446681 0.689628 
node 1 1 0
node 2 1 1
node 3 1 1
node 4 1 1
node 5 1 1
node 6 1 1
node 7 1 1
node 8 1 1
node 9 1 1
node 10 1 1
node 11 1 1
node 12 1 2
node 13 1 2
node 14 1 2
node 15 1 2
node 16 1 2
node 17 1 2
node 18 1 2
node 19 1 2
node 20 1 2
node 21 1 2
node 22 1 2
node 23 1 2
node 24 1 2
node 25 1 2
node 27 1 3
node 28 1 3
node 31 1 3
node 32 1 3
node 33 1 3
node 200 1 3
node 515 1 3
node 1082 1 3
node 1125 1 3
node 1452 1 3
node 1667 1 3
node 2236 1 3
node 2272 1 3
node 2499 1 3
gene 1 1 27 -1.00847 0 2 -1.00847 1
gene 1 1 28 -1.61374 0 3 -1.61374 1
gene 1 1 31 -1.81077 0 6 -1.81077 1
gene 1 1 32 0.276422 0 7 0.276422 1
gene 1 1 33 2.66927 0 8 2.66927 1
gene 1 2 31 -2.09534 0 16 -2.09534 1
gene 1 2 32 3.07286 0 17 3.07286 1
gene 1 3 33 -1.22275 0 28 -1.22275 1
gene 1 4 28 -1.32611 0 33 -1.32611 1
gene 1 4 31 0.796483 0 36 0.796483 1
gene 1 4 32 0.718602 0 37 0.718602 1
gene 1 5 27 -2.75234 0 42 -2.75234 1
gene 1 5 33 -0.271355 0 48 -0.271355 1
gene 1 6 27 0.147405 0 52 0.147405 1
gene 1 6 28 0.730366 0 53 0.730366 1
gene 1 6 31 -0.820498 0 56 -0.820498 1
gene 1 6 32 0.302335 0 57 0.302335 1
gene 1 7 27 2.06492 0 62 2.06492 1
gene 1 7 31 0.657945 0 66 0.657945 1
gene 1 7 32 3.33954 0 67 3.33954 1
gene 1 8 27 -0.903361 0 72 -0.903361 1
gene 1 8 28 1.36488 0 73 1.36488 1
gene 1 8 33 1.0422 0 78 1.0422 1
gene 1 9 27 -0.943646 0 82 -0.943646 1
gene 1 9 28 -0.986986 0 83 -0.986986 1
gene 1 9 31 1.88699 0 86 1.88699 1
gene 1 9 33 0.794106 0 88 0.794106 1
gene 1 10 27 0.855442 0 92 0.855442 1
gene 1 10 31 -1.73426 0 96 -1.73426 1
gene 1 10 32 -2.15396 0 97 -2.15396 1
gene 1 10 33 -1.31449 0 98 -1.31449 1
gene 1 11 27 0.409484 0 102 0.409484 1
gene 1 11 31 1.19338 0 106 1.19338 1
gene 1 11 32 0.049973 0 107 0.049973 1
gene 1 27 14 1.68286 0 127 1.68286 1
gene 1 27 17 -1.65326 0 130 -1.65326 1
gene 1 27 18 3.28608 0 131 3.28608 1
gene 1 27 20 0.478738 0 133 0.478738 1
gene 1 27 22 2.46161 0 135 2.46161 1
gene 1 27 23 -0.958578 0 136 -0.958578 1
gene 1 28 12 -1.23351 0 139 -1.23351 1
gene 1 28 13 0.491007 0 140 0.491007 1
gene 1 28 14 -2.33306 0 141 -2.33306 1
gene 1 28 15 2.33214 0 142 2.33214 1
gene 1 28 17 -0.768007 0 144 -0.768007 1
gene 1 28 18 -0.00828159 0 145 -0.00828159 1
gene 1 28 19 -0.683466 0 146 -0.683466 1
gene 1 28 21 -0.370326 0 148 -0.370326 1
gene 1 28 22 -0.895305 0 149 -0.895305 1
gene 1 28 24 2.83724 0 151 2.83724 1
gene 1 28 25 -1.0364 0 152 -1.0364 1
gene 1 31 13 -1.38268 0 182 -1.38268 1
gene 1 31 14 -0.465363 0 183 -0.465363 1
gene 1 31 17 -0.531297 0 186 -0.531297 1
gene 1 31 18 -0.489712 0 187 -0.489712 1
gene 1 31 21 0.840343 0 190 0.840343 1
gene 1 31 22 1.47618 0 191 1.47618 1
gene 1 31 23 -3.21729 0 192 -3.21729 1
gene 1 31 25 2.39971 0 194 2.39971 1
gene 1 32 12 1.71212 0 195 1.71212 1
gene 1 32 14 0.55887 0 197 0.55887 1
gene 1 32 16 -2.38972 0 199 -2.38972 1
gene 1 32 18 -0.111985 0 201 -0.111985 1
gene 1 32 19 0.0245199 0 202 0.0245199 1
gene 1 32 20 -0.415152 0 203 -0.415152 1
gene 1 32 21 0.263366 0 204 0.263366 1
gene 1 32 23 -1.19049 0 206 -1.19049 1
gene 1 33 12 1.00102 0 209 1.00102 1
gene 1 33 13 0.0752504 0 210 0.0752504 1
gene 1 33 16 -0.724511 0 213 -0.724511 1
gene 1 33 19 -0.680475 0 216 -0.680475 1
gene 1 33 21 -1.59169 0 218 -1.59169 1
gene 1 33 22 0.172949 0 219 0.172949 1
gene 1 33 25 0.0601367 0 222 0.0601367 1
gene 1 25 25 -1.32749 1 912 -1.32749 1
gene 1 10 23 1.11889 0 1233 1.11889 1
gene 1 21 16 0.359575 0 2268 0.359575 1
gene 1 6 200 0.695687 0 4035 0.628225 1
gene 1 4 16 -0.599544 0 4451 -0.599544 1
gene 1 8 17 -0.0909944 0 4986 -0.0909944 1
gene 1 10 17 0.28352 0 6853 0.28352 1
gene 1 15 24 0.675378 0 7298 0.675378 1
gene 1 15 16 0.287903 0 8595 0.287903 1
gene 1 13 21 -0.535735 0 8951 -0.535735 1
gene 1 28 28 0.799468 1 9068 0.799468 1
gene 1 1 25 0.266219 0 10791 0.266219 1
gene 1 14 21 0.105418 0 11556 0.105418 1
gene 1 32 515 1.96626 0 12976 1.87801 1
gene 1 515 17 0.453022 0 12977 0.442536 1
gene 1 14 14 -0.0226338 1 14529 -0.0226338 1
gene 1 17 17 -0.594376 1 15624 -0.594376 1
gene 1 22 22 -0.331697 1 16294 -0.331697 1
gene 1 24 13 1.24043 0 17607 1.24043 1
gene 1 33 33 0.950675 1 21044 0.950675 1
gene 1 27 16 -0.732683 0 21791 -0.732683 1
gene 1 10 13 0.147273 0 22678 0.147273 1
gene 1 4 13 -0.0535531 0 23510 -0.0535531 1
gene 1 24 18 -0.192029 0 23687 -0.192029 1
gene 1 1 15 1.50064 0 23836 1.50064 1
gene 1 200 17 1.02688 0 25456 1.02688 1
gene 1 14 19 -0.925587 0 25663 -0.925587 1
gene 1 3 25 0.802234 0 25851 0.802234 1
gene 1 11 22 0.138543 0 26225 0.138543 1
gene 1 2 24 0.218079 0 26492 0.218079 1
gene 1 33 1082 1.29045 0 28929 1.13092 1
gene 1 1082 20 -3.02014 0 28930 -1.70226 1
gene 1 7 1125 0.513232 0 29999 0.232637 1
gene 1 4 24 0.709842 0 31015 0.709842 1
gene 1 21 21 0.319605 1 31256 0.319605 1
gene 1 22 1082 -0.396997 0 31621 -0.396997 1
gene 1 22 23 0.985338 0 32212 0.985338 1
gene 1 1082 21 -0.579827 0 33277 -0.579827 1
gene 1 27 31 -0.247042 0 33797 -0.247042 1
gene 1 8 200 0.0398968 0 34897 0.0398968 1
gene 1 27 27 0.541817 1 35528 0.541817 1
gene 1 19 19 0.150505 1 35941 0.150505 1
gene 1 1082 19 -0.485045 0 37015 -0.485045 1
gene 1 1082 13 0.190117 0 37627 0.190117 1
gene 1 20 15 0.155172 0 37830 0.155172 1
gene 1 200 24 0.153185 0 38811 0.153185 1
gene 1 13 23 -1.18897 0 39579 -1.18897 1
gene 1 10 22 0.768176 0 40453 0.768176 1
gene 1 3 515 -1.08846 0 42264 -1.08846 1
gene 1 31 16 1.03756 0 42578 1.03756 1
gene 1 6 14 -0.0843547 0 42768 -0.0843547 1
gene 1 9 21 0.0383267 0 43350 0.0383267 1
gene 1 14 18 -0.570617 0 44454 -0.570617 1
gene 1 2 1667 1.55844 0 44649 1.21664 1
gene 1 1667 33 2.44135 0 44650 1.07867 1
gene 1 8 23 0.775681 0 44862 0.775681 1
gene 1 11 15 0.550706 0 45323 0.550706 1
gene 1 12 12 -0.861332 1 45517 -0.861332 1
gene 1 1125 1125 0.150926 1 46088 0.150926 1
gene 1 8 13 0.665046 0 46271 0.665046 1
gene 1 200 16 0.78094 0 46681 0.78094 1
gene 1 16 515 -0.337107 1 46796 -0.337107 1
gene 1 31 31 -0.41454 1 47595 -0.41454 1
gene 1 14 25 -0.0827888 0 47837 -0.0827888 1
gene 1 515 1452 -0.0929372 0 48158 -0.0929372 1
gene 1 25 17 5.14545e-05 0 48383 5.14545e-05 1
gene 1 515 31 -0.223819 0 50319 -0.223819 1
gene 1 5 13 -0.491656 0 52753 -0.491656 1
gene 1 16 25 0.827326 0 52818 0.827326 1
gene 1 1082 1082 0.525212 1 53242 0.525212 1
gene 1 24 1452 -0.422926 1 53900 -0.422926 1
gene 1 31 24 0.0735511 0 54128 0.0735511 1
gene 1 1667 1452 0.98729 0 54347 0.98729 1
gene 1 19 21 -0.991467 0 54775 -0.991467 1
gene 1 2 17 -0.446222 0 55422 -0.446222 1
gene 1 1 515 -0.212749 0 55646 -0.212749 1
gene 1 14 33 0.740364 0 55833 0.740364 1
gene 1 16 17 -0.418084 0 56112 -0.418084 1
gene 1 3 16 0.765491 0 56242 0.765491 1
gene 1 1082 23 0.933067 0 56826 0.933067 1
gene 1 1452 27 -0.127464 0 57240 -0.127464 1
gene 1 8 16 0.294043 0 57883 0.294043 1
gene 1 18 18 0.0824039 1 58218 0.0824039 1
gene 1 1 1667 -0.45301 0 58920 -0.45301 1
gene 1 14 23 0.7571 0 59152 0.7571 1
gene 1 1 1125 0.712327 0 59348 0.712327 1
gene 1 14 13 -0.947305 0 59557 -0.947305 1
gene 1 22 16 -0.297955 0 59781 -0.297955 1
gene 1 14 15 -0.381727 0 60042 -0.381727 1
gene 1 25 18 -0.435232 0 60187 -0.435232 1
gene 1 8 2236 1 0 60903 0 1
gene 1 2236 32 -0.407473 0 60904 -0.319534 1
gene 1 5 2272 1.01904 0 62065 0.206544 1
gene 1 2272 28 -0.343712 0 62066 -0.206004 1
gene 1 2272 1667 -0.218498 0 62490 -0.218498 1
gene 1 1125 16 -0.76416 0 62915 -0.76416 1
gene 1 11 25 0.0305365 0 63126 0.0305365 1
gene 1 4 1125 -0.893602 0 63771 -0.893602 1
gene 1 33 15 0.158299 0 64006 0.158299 1
gene 1 1667 1082 0.265089 0 64835 0.265089 1
gene 1 2 23 0.0429857 0 65108 0.0429857 1
gene 1 7 22 0.342607 0 65547 0.342607 1
gene 1 4 200 1.27828 0 65774 1.27828 1
gene 1 10 28 0.593562 0 66824 0.593562 1
gene 1 21 13 0.186055 1 67033 0.186055 1
gene 1 2236 24 0.00502532 0 67248 0.00502532 1
gene 1 2 1125 -0.778828 0 67701 -0.778828 1
gene 1 22 21 0.119647 0 67926 0.119647 1
gene 1 4 14 -0.761097 0 68137 -0.761097 1
gene 1 18 20 -0.288457 0 68561 -0.288457 1
gene 1 4 1667 -0.0712036 0 68744 -0.0712036 1
gene 1 32 2499 1 1 68953 0 1
gene 1 2499 32 -0.360553 0 68954 0 1
gene 1 19 1082 -0.991289 1 69351 -0.991289 1
gene 1 11 14 -0.0979892 0 69631 -0.0979892 1
gene 1 6 23 -0.711469 0 69858 -0.711469 1
gene 1 4 2272 -0.0435248 0 70546 -0.0435248 1
gene 1 2272 1452 0.574977 0 70845 0.574977 1
gene 1 6 1452 0.398601 0 72325 0.398601 1
gene 1 2236 1452 0.880712 0 72561 0.880712 1
genomeend 111
