/* Organism #46261280 Fitness: -4562.95 
genomestart 498
trait 1 0.554634 0 1 1 0.735882 0.545783 0.930516 1 
node 1 1 0
node 2 1 1
node 3 1 1
node 4 1 1
node 5 1 1
node 6 1 1
node 7 1 1
node 8 1 1
node 9 1 1
node 10 1 1
node 11 1 1
node 12 1 2
node 13 1 2
node 14 1 2
node 15 1 2
node 16 1 2
node 17 1 2
node 18 1 2
node 19 1 2
node 20 1 2
node 21 1 2
node 22 1 2
node 23 1 2
node 24 1 2
node 25 1 2
node 26 1 3
node 27 1 3
node 28 1 3
node 30 1 3
node 32 1 3
node 34 1 3
node 818 1 3
node 1016 1 3
node 1064 1 3
node 1111 1 3
node 1618 1 3
node 2186 1 3
node 2284 1 3
node 2529 1 3
gene 1 1 26 0.409783 0 1 0.409783 1
gene 1 1 27 -3.23256 0 2 -3.23256 1
gene 1 1 28 1.86142 0 3 1.86142 1
gene 1 1 32 -0.603994 0 7 -0.603994 1
gene 1 1 34 3.09226 0 9 3.09226 1
gene 1 2 27 0.332549 0 12 0.332549 1
gene 1 3 27 -0.643048 0 22 -0.643048 1
gene 1 3 30 -1.07227 0 25 -1.07227 1
gene 1 4 26 1.65727 0 31 1.65727 1
gene 1 4 28 -0.770375 0 33 -0.770375 1
gene 1 4 34 2.73268 0 39 2.73268 1
gene 1 5 28 0.342692 0 43 0.342692 1
gene 1 5 32 7.45436 0 47 7.45436 1
gene 1 5 34 2.8402 0 49 2.8402 1
gene 1 6 27 -0.982054 0 52 -0.982054 1
gene 1 6 30 3.22415 0 55 3.22415 1
gene 1 6 32 -0.42166 0 57 -0.42166 1
gene 1 6 34 1.87508 0 59 1.87508 1
gene 1 7 27 0.466985 0 62 0.466985 1
gene 1 7 30 1.40111 0 65 1.40111 1
gene 1 7 32 0.0482643 0 67 0.0482643 1
gene 1 7 34 -1.31252 0 69 -1.31252 1
gene 1 8 26 0.808714 0 71 0.808714 1
gene 1 8 28 0.715169 0 73 0.715169 1
gene 1 8 30 1.58046 0 75 1.58046 1
gene 1 9 26 5.64571 0 81 5.64571 1
gene 1 9 27 -3.97208 0 82 -3.97208 1
gene 1 9 30 0.964834 0 85 0.964834 1
gene 1 9 32 0.406435 0 87 0.406435 1
gene 1 9 34 -1.43922 0 89 -1.43922 1
gene 1 10 26 0.854774 0 91 0.854774 1
gene 1 10 30 3.05098 0 95 3.05098 1
gene 1 10 32 -1.5555 0 97 -1.5555 1
gene 1 11 26 3.73568 0 101 3.73568 1
gene 1 11 30 -2.31199 0 105 -2.31199 1
gene 1 11 34 1.41657 0 109 1.41657 1
gene 1 26 12 5.33674 0 111 5.33674 1
gene 1 26 15 0.740824 0 114 0.740824 1
gene 1 26 16 -4.01961 0 115 -4.01961 1
gene 1 26 17 1.33328 0 116 1.33328 1
gene 1 26 19 1.00278 0 118 1.00278 1
gene 1 26 20 -1.37313 0 119 -1.37313 1
gene 1 26 21 1.40729 0 120 1.40729 1
gene 1 26 22 1.31647 0 121 1.31647 1
gene 1 26 23 -2.60407 0 122 -2.60407 1
gene 1 26 25 -2.01737 0 124 -2.01737 1
gene 1 27 14 -2.95962 0 127 -2.95962 1
gene 1 27 15 1.58805 0 128 1.58805 1
gene 1 27 18 -3.8269 0 131 -3.8269 1
gene 1 27 19 1.9935 0 132 1.9935 1
gene 1 27 20 2.60919 0 133 2.60919 1
gene 1 27 23 -0.392173 0 136 -0.392173 1
gene 1 27 25 -1.85691 0 138 -1.85691 1
gene 1 28 12 -0.151078 0 139 -0.151078 1
gene 1 28 13 0.848824 0 140 0.848824 1
gene 1 28 14 3.06248 0 141 3.06248 1
gene 1 28 15 -1.7774 0 142 -1.7774 1
gene 1 28 17 -2.24172 0 144 -2.24172 1
gene 1 28 19 -0.35373 0 146 -0.35373 1
gene 1 28 21 -1.51562 0 148 -1.51562 1
gene 1 28 22 -1.51801 0 149 -1.51801 1
gene 1 28 24 -3.3254 0 151 -3.3254 1
gene 1 28 25 -1.65248 0 152 -1.65248 1
gene 1 30 12 1.96061 0 167 1.96061 1
gene 1 30 13 -3.22784 0 168 -3.22784 1
gene 1 30 14 -1.17381 0 169 -1.17381 1
gene 1 30 15 -0.060025 0 170 -0.060025 1
gene 1 30 18 -1.90595 0 173 -1.90595 1
gene 1 30 19 0.121914 0 174 0.121914 1
gene 1 30 22 -1.93911 0 177 -1.93911 1
gene 1 30 25 -1.4645 0 180 -1.4645 1
gene 1 32 12 2.28438 0 195 2.28438 1
gene 1 32 13 2.76703 0 196 2.76703 1
gene 1 32 14 2.22342 0 197 2.22342 1
gene 1 32 16 -0.548417 0 199 -0.548417 1
gene 1 32 17 -4.44241 0 200 -4.44241 1
gene 1 32 18 -0.799262 0 201 -0.799262 1
gene 1 32 22 -2.88657 0 205 -2.88657 1
gene 1 32 24 -0.845777 0 207 -0.845777 1
gene 1 32 25 -0.65857 0 208 -0.65857 1
gene 1 34 13 -1.54402 0 224 -1.54402 1
gene 1 34 14 1.33051 0 225 1.33051 1
gene 1 34 15 0.218249 0 226 0.218249 1
gene 1 34 18 -0.594077 0 229 -0.594077 1
gene 1 34 20 -1.3867 0 231 -1.3867 1
gene 1 34 21 -1.72702 0 232 -1.72702 1
gene 1 34 22 0.587253 0 233 0.587253 1
gene 1 34 23 -5.16619 0 234 -5.16619 1
gene 1 34 25 -0.00598457 0 236 -0.00598457 1
gene 1 32 32 -0.629025 1 364 -0.629025 1
gene 1 10 17 1.06358 0 494 1.06358 1
gene 1 26 34 1.91681 0 1083 1.91681 1
gene 1 28 28 -0.891309 1 1499 -0.891309 1
gene 1 34 34 0.746265 1 2723 0.746265 1
gene 1 21 14 -2.31042 0 3539 -2.31042 1
gene 1 9 21 1.06165 0 4152 1.06165 1
gene 1 11 24 -2.2389 0 4418 -2.2389 1
gene 1 10 14 -1.53564 0 4779 -1.53564 1
gene 1 6 16 -1.44495 0 7518 -1.44495 1
gene 1 24 24 1.55129 1 8364 1.55129 1
gene 1 1 12 1.62318 0 8691 1.62318 1
gene 1 12 21 -0.158094 0 9307 -0.158094 1
gene 1 22 13 1.26576 0 9485 1.26576 1
gene 1 22 15 2.4147 0 9706 2.4147 1
gene 1 25 25 -0.941727 1 10638 -0.941727 1
gene 1 11 12 -0.750662 0 12772 -0.750662 1
gene 1 1 15 -0.00133329 0 13150 -0.00133329 1
gene 1 21 23 1.4224 0 14348 1.4224 1
gene 1 23 23 -0.142528 1 14731 -0.142528 1
gene 1 5 24 2.80735 0 15129 2.80735 1
gene 1 15 18 2.87253 0 15333 2.87253 1
gene 1 4 24 -0.214556 0 15762 -0.214556 1
gene 1 12 12 -1.78918 1 15985 -1.78918 1
gene 1 2 20 -1.83893 0 16312 -1.83893 1
gene 1 2 19 0.691476 0 17040 0.691476 1
gene 1 13 25 -0.97002 0 17381 -0.97002 1
gene 1 5 15 -2.1899 0 17582 -2.1899 1
gene 1 2 818 -0.98687 0 20049 -0.98687 1
gene 1 818 28 2.49998 0 20050 2.49998 1
gene 1 15 23 2.69981 0 20484 2.69981 1
gene 1 23 19 -1.5909 0 21057 -1.5909 1
gene 1 818 818 2.43408 1 21547 2.43408 1
gene 1 22 18 2.16233 0 22062 2.16233 1
gene 1 818 18 0.00540487 0 22859 0.00540487 1
gene 1 5 23 -0.950635 0 24524 -0.950635 1
gene 1 15 12 -0.787919 0 24693 -0.787919 1
gene 1 23 1016 0.911344 1 25100 0.911344 1
gene 1 25 18 -0.764864 0 25309 -0.764864 1
gene 1 1016 1016 0.868374 1 25681 0.868374 1
gene 1 1016 20 -0.458922 0 26053 -0.458922 1
gene 1 7 1064 0.410461 0 26232 0.410461 1
gene 1 1064 28 1.47001 0 26233 1.47001 1
gene 1 17 25 -1.112 0 27371 -1.112 1
gene 1 8 1111 0.914169 0 27609 0.914169 1
gene 1 30 30 1.684 1 28154 1.684 1
gene 1 1 1111 -0.37642 0 28453 -0.37642 1
gene 1 25 23 0.462985 0 30086 0.462985 1
gene 1 1064 34 -0.167038 0 31212 -0.167038 1
gene 1 30 818 0.325464 0 31403 0.325464 1
gene 1 21 21 -0.724606 1 31676 -0.724606 1
gene 1 11 1016 0.782872 0 32446 0.782872 1
gene 1 3 24 -0.661768 0 33431 -0.661768 1
gene 1 26 13 0.626479 0 33647 0.626479 1
gene 1 24 16 0.572295 0 33863 0.572295 1
gene 1 6 25 0.57415 0 36026 0.57415 1
gene 1 8 13 0.228052 0 37697 0.228052 1
gene 1 1111 27 0.266313 0 38431 0.266313 1
gene 1 26 28 -1.22081 0 39418 -1.22081 1
gene 1 818 1111 0.772827 0 39856 0.772827 1
gene 1 8 16 -0.844585 0 40211 -0.844585 1
gene 1 20 20 -0.0193574 1 40698 -0.0193574 1
gene 1 32 818 3.00682 0 40870 3.00682 1
gene 1 3 1618 3.95217 0 42013 3.95217 1
gene 1 1618 28 -0.191216 0 42014 -0.191216 1
gene 1 1016 1064 -0.3161 0 43279 -0.3161 1
gene 1 10 15 1.50562 0 43499 1.50562 1
gene 1 12 19 -1.76131 0 44151 -1.76131 1
gene 1 8 19 -0.425302 0 44798 -0.425302 1
gene 1 18 20 0.238344 0 45005 0.238344 1
gene 1 32 27 -0.238117 0 45653 -0.238117 1
gene 1 22 27 0.639423 0 45776 0.639423 1
gene 1 15 14 -0.0472038 0 46142 -0.0472038 1
gene 1 1016 27 0.438842 0 46665 0.438842 1
gene 1 11 1618 0.418527 0 49176 0.418527 1
gene 1 32 21 2.15977 0 50935 2.15977 1
gene 1 21 818 -0.407842 1 51238 -0.407842 1
gene 1 12 18 -0.354734 0 51918 -0.354734 1
gene 1 20 17 0.698366 0 52574 0.698366 1
gene 1 1111 18 -0.736671 0 52814 -0.736671 1
gene 1 10 19 -0.59807 0 53369 -0.59807 1
gene 1 4 818 -1.43382 0 53480 -1.43382 1
gene 1 9 16 0.594532 0 53740 0.594532 1
gene 1 8 25 -0.457938 0 53987 -0.457938 1
gene 1 2 28 0.276963 0 54230 0.276963 1
gene 1 2 34 -0.816467 0 54293 -0.816467 1
gene 1 1618 13 0.118565 0 55860 0.118565 1
gene 1 5 19 0.101362 0 56607 0.101362 1
gene 1 24 1618 0.611596 1 56834 0.611596 1
gene 1 25 12 -0.121617 0 57638 -0.121617 1
gene 1 24 2186 0.971455 0 57834 0.315205 1
gene 1 2186 23 2.03223 0 57835 0.127014 1
gene 1 13 13 0.0355491 1 58021 0.0355491 1
gene 1 2 15 0.497829 0 58299 0.497829 1
gene 1 20 23 -0.0624828 0 59200 -0.0624828 1
gene 1 30 2284 1.32015 0 60558 0.617025 1
gene 1 2284 20 -2.36948 0 60559 -0.73833 1
gene 1 1064 32 0.290852 0 60780 0.290852 1
gene 1 34 27 0.959541 0 61172 0.959541 1
gene 1 28 34 -0.511937 0 61373 -0.511937 1
gene 1 2284 21 -0.338235 0 61810 -0.338235 1
gene 1 2284 18 -0.128837 0 62135 -0.128837 1
gene 1 1 16 -0.309606 0 62592 -0.309606 1
gene 1 8 22 0.458414 0 62766 0.458414 1
gene 1 5 1111 -0.370561 0 63166 -0.370561 1
gene 1 16 14 0.48576 0 63395 0.48576 1
gene 1 6 1064 -0.914031 0 63599 -0.914031 1
gene 1 22 1111 -0.848656 0 64278 -0.848656 1
gene 1 10 23 -0.236741 0 64583 -0.236741 1
gene 1 25 1111 -0.782183 1 65091 -0.782183 1
gene 1 16 23 0.79139 0 65944 0.79139 1
gene 1 818 24 0.464451 0 66169 0.464451 1
gene 1 34 24 0.301092 0 66320 0.301092 1
gene 1 19 19 0.975137 1 66632 0.975137 1
gene 1 7 1111 0.996528 0 66826 0.996528 1
gene 1 1064 2186 0.0797622 0 67104 0.0797622 1
gene 1 818 2529 1 0 67365 0 1
gene 1 2529 23 0.135889 0 67366 0 1
gene 1 26 26 -0.84046 1 67688 -0.84046 1
gene 1 2284 2284 0.768136 1 68384 0.768136 1
gene 1 7 24 -0.701113 0 68605 -0.701113 1
gene 1 14 25 0.288572 1 68981 0.288572 1
gene 1 11 16 -0.824926 0 69065 -0.824926 1
gene 1 18 12 0.235743 0 69515 0.235743 1
genomeend 498
