/* Organism #75786592 Fitness: -164898 
genomestart 949
trait 1 0.062366 0.915696 0.820962 0.438234 0.922473 0.800994 0.568343 0.55559 
node 1 1 0
node 2 1 1
node 3 1 1
node 4 1 1
node 5 1 1
node 6 1 1
node 7 1 1
node 8 1 1
node 9 1 1
node 10 1 1
node 11 1 1
node 12 1 2
node 13 1 2
node 14 1 2
node 15 1 2
node 16 1 2
node 17 1 2
node 18 1 2
node 19 1 2
node 20 1 2
node 21 1 2
node 22 1 2
node 23 1 2
node 24 1 2
node 25 1 2
node 26 1 3
node 27 1 3
node 28 1 3
node 31 1 3
node 729 1 3
node 1702 1 3
node 2436 1 3
node 2447 1 3
gene 1 1 26 -3.21406 0 1 -3.21406 1
gene 1 1 27 -2.27581 0 2 -2.27581 1
gene 1 1 28 2.03585 0 3 2.03585 1
gene 1 2 26 2.83041 0 11 2.83041 1
gene 1 3 27 0.0344932 0 22 0.0344932 1
gene 1 3 28 -2.17315 0 23 -2.17315 1
gene 1 4 26 3.42829 0 31 3.42829 1
gene 1 4 27 -6.76235 0 32 -6.76235 1
gene 1 4 28 -1.22367 0 33 -1.22367 1
gene 1 5 26 -7.8274 0 41 -7.8274 1
gene 1 5 31 -2.69054 0 46 -2.69054 1
gene 1 6 26 -0.990763 0 51 -0.990763 1
gene 1 6 27 1.11186 0 52 1.11186 1
gene 1 6 31 2.37638 0 56 2.37638 1
gene 1 7 26 5.74055 0 61 5.74055 1
gene 1 8 26 -0.3995 0 71 -0.3995 1
gene 1 9 27 0.453067 0 82 0.453067 1
gene 1 9 28 4.28384 0 83 4.28384 1
gene 1 9 31 0.526377 0 86 0.526377 1
gene 1 10 26 -2.87747 0 91 -2.87747 1
gene 1 10 31 -0.593657 0 96 -0.593657 1
gene 1 11 26 2.11859 0 101 2.11859 1
gene 1 11 27 1.18173 0 102 1.18173 1
gene 1 26 12 2.56619 0 111 2.56619 1
gene 1 26 13 5.35259 0 112 5.35259 1
gene 1 26 15 -0.466114 0 114 -0.466114 1
gene 1 26 16 -3.58524 0 115 -3.58524 1
gene 1 26 17 -1.80206 0 116 -1.80206 1
gene 1 26 19 1.3424 0 118 1.3424 1
gene 1 26 20 -0.789 0 119 -0.789 1
gene 1 26 22 5.28759 0 121 5.28759 1
gene 1 26 24 4.01311 0 123 4.01311 1
gene 1 26 25 4.51257 0 124 4.51257 1
gene 1 27 12 -0.0850391 0 125 -0.0850391 1
gene 1 27 13 2.29481 0 126 2.29481 1
gene 1 27 19 -3.8077 0 132 -3.8077 1
gene 1 27 20 3.10417 0 133 3.10417 1
gene 1 27 21 4.33887 0 134 4.33887 1
gene 1 27 22 3.59343 0 135 3.59343 1
gene 1 27 24 4.17859 0 137 4.17859 1
gene 1 27 25 -2.15922 0 138 -2.15922 1
gene 1 28 12 4.04376 0 139 4.04376 1
gene 1 28 14 1.25068 0 141 1.25068 1
gene 1 28 16 -0.121368 0 143 -0.121368 1
gene 1 28 18 -2.53732 0 145 -2.53732 1
gene 1 28 21 -1.0878 0 148 -1.0878 1
gene 1 28 23 5.93309 0 150 5.93309 1
gene 1 28 25 -3.70307 0 152 -3.70307 1
gene 1 31 14 4.38984 0 183 4.38984 1
gene 1 31 16 0.666812 0 185 0.666812 1
gene 1 31 17 2.43135 0 186 2.43135 1
gene 1 31 18 3.79813 0 187 3.79813 1
gene 1 31 19 -1.66028 0 188 -1.66028 1
gene 1 31 20 -4.62653 0 189 -4.62653 1
gene 1 31 24 2.92954 0 193 2.92954 1
gene 1 27 26 0.65001 0 257 0.65001 1
gene 1 10 18 -0.671495 0 1541 -0.671495 1
gene 1 26 28 0.472368 0 1734 0.472368 1
gene 1 24 19 0.813346 0 2324 0.813346 1
gene 1 11 22 3.0201 0 2661 3.0201 1
gene 1 25 22 -0.216456 0 4261 -0.216456 1
gene 1 23 23 1.08129 1 5076 1.08129 1
gene 1 24 14 -2.24533 0 7169 -2.24533 1
gene 1 8 28 -1.77618 0 9183 -1.77618 1
gene 1 27 27 1.14962 1 9943 1.14962 1
gene 1 17 14 -1.3493 0 10365 -1.3493 1
gene 1 15 25 1.6669 0 12514 1.6669 1
gene 1 10 14 1.06405 0 14179 1.06405 1
gene 1 3 22 1.52305 0 14387 1.52305 1
gene 1 3 13 -0.742403 0 15991 -0.742403 1
gene 1 24 15 1.73595 0 16195 1.73595 1
gene 1 17 25 -1.10588 0 16443 -1.10588 1
gene 1 14 25 0.893367 0 17925 0.893367 1
gene 1 18 16 -0.735104 0 18309 -0.735104 1
gene 1 729 20 1.7329 0 18861 1.7329 1
gene 1 13 23 -1.35808 0 19169 -1.35808 1
gene 1 5 15 1.7404 0 20407 1.7404 1
gene 1 10 22 -0.10045 0 21629 -0.10045 1
gene 1 26 21 -0.139628 0 25777 -0.139628 1
gene 1 5 18 -2.51026 0 27264 -2.51026 1
gene 1 25 12 -1.08922 0 28215 -1.08922 1
gene 1 9 16 -0.257703 0 28503 -0.257703 1
gene 1 2 21 2.81041 0 28736 2.81041 1
gene 1 18 22 1.41678 0 30181 1.41678 1
gene 1 9 18 2.9522 0 30378 2.9522 1
gene 1 20 21 0.594873 0 30777 0.594873 1
gene 1 2 15 -1.33593 0 32589 -1.33593 1
gene 1 1 23 0.444014 0 32803 0.444014 1
gene 1 31 23 1.39968 0 33199 1.39968 1
gene 1 16 14 -1.66121 1 33401 -1.66121 1
gene 1 1 12 1.29884 0 34735 1.29884 1
gene 1 1 15 0.501129 0 35325 0.501129 1
gene 1 28 17 0.34694 0 39702 0.34694 1
gene 1 6 25 0.0648319 0 40546 0.0648319 1
gene 1 5 23 1.38544 0 42008 1.38544 1
gene 1 22 23 0.704909 1 42214 0.704909 1
gene 1 17 18 -0.969197 0 43193 -0.969197 1
gene 1 2 31 -1.34272 0 43595 -1.34272 1
gene 1 26 1702 2.12678 0 45063 2.12678 1
gene 1 1702 18 3.20519 0 45064 3.20519 1
gene 1 4 18 -0.734477 0 45573 -0.734477 1
gene 1 23 729 -0.139611 0 45867 -0.139611 1
gene 1 22 31 0.962271 1 46270 0.962271 1
gene 1 22 19 0.266897 0 47003 0.266897 1
gene 1 6 1702 -0.416038 0 47764 -0.416038 1
gene 1 11 14 -0.260343 0 47984 -0.260343 1
gene 1 1702 13 -1.25088 0 48863 -1.25088 1
gene 1 8 18 1.18577 0 49534 1.18577 1
gene 1 729 24 0.364213 0 50179 0.364213 1
gene 1 3 31 -0.149205 0 50564 -0.149205 1
gene 1 4 23 0.961277 0 51949 0.961277 1
gene 1 8 19 -0.649462 0 52365 -0.649462 1
gene 1 6 15 -0.81617 0 52465 -0.81617 1
gene 1 15 16 0.16176 0 52902 0.16176 1
gene 1 9 20 -0.0596225 0 53094 -0.0596225 1
gene 1 9 15 -0.248145 0 53448 -0.248145 1
gene 1 15 15 1.39938 1 53657 1.39938 1
gene 1 18 21 -0.949132 0 54831 -0.949132 1
gene 1 20 14 0.349551 0 55033 0.349551 1
gene 1 12 12 -0.178343 1 55217 -0.178343 1
gene 1 7 28 0.136349 0 55819 0.136349 1
gene 1 31 28 -0.719905 0 56364 -0.719905 1
gene 1 6 22 -0.74566 0 56491 -0.74566 1
gene 1 13 14 0.325705 0 56903 0.325705 1
gene 1 5 27 0.830479 0 57480 0.830479 1
gene 1 3 14 0.336799 0 58243 0.336799 1
gene 1 13 729 0.894673 0 58606 0.894673 1
gene 1 22 25 0.983437 1 58792 0.983437 1
gene 1 23 16 0.955023 0 59162 0.955023 1
gene 1 17 17 0.9031 1 59345 0.9031 1
gene 1 27 17 -0.0181317 0 59624 -0.0181317 1
gene 1 3 15 -0.801983 0 59847 -0.801983 1
gene 1 26 14 -0.497518 0 60033 -0.497518 1
gene 1 16 23 -0.296775 1 60139 -0.296775 1
gene 1 6 21 0.514659 0 60310 0.514659 1
gene 1 24 24 -0.697464 1 60617 -0.697464 1
gene 1 8 21 0.345297 0 61623 0.345297 1
gene 1 12 16 -0.466109 0 61912 -0.466109 1
gene 1 23 20 -0.732566 0 62320 -0.732566 1
gene 1 6 24 0.828359 0 62716 0.828359 1
gene 1 7 25 0.740999 0 63522 0.740999 1
gene 1 21 22 -0.876238 0 63726 -0.876238 1
gene 1 9 26 -0.267812 0 63917 -0.267812 1
gene 1 3 24 0.49121 0 64172 0.49121 1
gene 1 23 2436 1 0 64298 0 1
gene 1 2436 25 3.89942 0 64299 0 1
gene 1 27 2447 1 0 64607 0 1
gene 1 2447 15 2.46976 0 64608 0 1
gene 1 4 31 0.124478 0 65051 0.124478 1
gene 1 9 2436 -0.243753 0 65564 -0.243753 1
gene 1 2436 2436 -0.337595 1 65725 -0.337595 1
gene 1 6 12 0.28727 0 65870 0.28727 1
gene 1 8 2436 0.755914 0 66179 0.755914 1
gene 1 7 17 -0.0138317 0 66376 -0.0138317 1
gene 1 9 12 -0.0705402 0 66564 -0.0705402 1
gene 1 2447 23 -0.871022 0 66760 -0.871022 1
gene 1 22 22 0.782172 1 66982 0.782172 1
gene 1 18 2447 -0.0595211 0 67401 -0.0595211 1
gene 1 1 21 -0.7739 0 67759 -0.7739 1
gene 1 6 13 -0.0888651 0 67946 -0.0888651 1
genomeend 949
