/* Organism #52528336 Fitness: -165266 
genomestart 58
trait 1 0.781227 0.452959 0.705314 0.508898 0.317521 0.49903 0.88749 0.90112 
node 1 1 0
node 2 1 1
node 3 1 1
node 4 1 1
node 5 1 1
node 6 1 1
node 7 1 1
node 8 1 1
node 9 1 1
node 10 1 1
node 11 1 1
node 12 1 2
node 13 1 2
node 14 1 2
node 15 1 2
node 16 1 2
node 17 1 2
node 18 1 2
node 19 1 2
node 20 1 2
node 21 1 2
node 22 1 2
node 23 1 2
node 24 1 2
node 25 1 2
node 26 1 3
node 28 1 3
node 29 1 3
node 30 1 3
node 31 1 3
node 32 1 3
node 34 1 3
node 35 1 3
node 530 1 3
node 1032 1 3
node 1092 1 3
node 1657 1 3
node 2150 1 3
gene 1 1 26 1.1142 0 1 1.1142 1
gene 1 1 28 0.268075 0 3 0.268075 1
gene 1 1 29 1.18786 0 4 1.18786 1
gene 1 1 30 -2.80554 0 5 -2.80554 1
gene 1 1 31 0.423202 0 6 0.423202 1
gene 1 1 32 -2.72325 0 7 -2.72325 1
gene 1 2 26 0.290705 0 11 0.290705 1
gene 1 2 28 0.3446 0 13 0.3446 1
gene 1 2 29 -1.11761 0 14 -1.11761 1
gene 1 2 30 0.709205 0 15 0.709205 1
gene 1 2 31 -1.41335 0 16 -1.41335 1
gene 1 2 32 1.21141 0 17 1.21141 1
gene 1 2 34 -0.490179 0 19 -0.490179 1
gene 1 2 35 1.53526 0 20 1.53526 1
gene 1 3 28 -2.03126 0 23 -2.03126 1
gene 1 3 29 -0.0466047 0 24 -0.0466047 1
gene 1 3 31 -2.99607 0 26 -2.99607 1
gene 1 3 35 -0.0205068 0 30 -0.0205068 1
gene 1 4 26 -0.866678 0 31 -0.866678 1
gene 1 4 28 1.08687 0 33 1.08687 1
gene 1 4 29 -0.265741 0 34 -0.265741 1
gene 1 4 30 0.895589 0 35 0.895589 1
gene 1 4 31 -0.13713 0 36 -0.13713 1
gene 1 4 32 0.32617 0 37 0.32617 1
gene 1 4 34 0.814737 0 39 0.814737 1
gene 1 4 35 -0.125663 0 40 -0.125663 1
gene 1 5 26 0.675108 0 41 0.675108 1
gene 1 5 29 -3.20518 0 44 -3.20518 1
gene 1 5 30 -3.71458 0 45 -3.71458 1
gene 1 5 34 -0.255155 0 49 -0.255155 1
gene 1 5 35 -1.29942 0 50 -1.29942 1
gene 1 6 29 -1.193 0 54 -1.193 1
gene 1 6 30 0.63279 0 55 0.63279 1
gene 1 6 31 -0.326839 0 56 -0.326839 1
gene 1 6 32 0.340722 0 57 0.340722 1
gene 1 6 34 0.75693 0 59 0.75693 1
gene 1 6 35 0.667873 0 60 0.667873 1
gene 1 7 26 1.66968 0 61 1.66968 1
gene 1 7 29 -1.92001 0 64 -1.92001 1
gene 1 7 30 4.90402 0 65 4.90402 1
gene 1 7 31 0.519376 0 66 0.519376 1
gene 1 7 32 -0.858933 0 67 -0.858933 1
gene 1 7 35 1.927 0 70 1.927 1
gene 1 8 26 1.33809 0 71 1.33809 1
gene 1 8 28 2.22862 0 73 2.22862 1
gene 1 8 30 -0.216327 0 75 -0.216327 1
gene 1 8 31 -1.99545 0 76 -1.99545 1
gene 1 8 32 2.25972 0 77 2.25972 1
gene 1 8 34 -2.29398 0 79 -2.29398 1
gene 1 8 35 -0.451157 0 80 -0.451157 1
gene 1 9 26 -1.60262 0 81 -1.60262 1
gene 1 9 28 -3.97978 0 83 -3.97978 1
gene 1 9 29 -3.56564 0 84 -3.56564 1
gene 1 9 30 1.58729 0 85 1.58729 1
gene 1 9 32 -0.446308 0 87 -0.446308 1
gene 1 9 34 -3.03418 0 89 -3.03418 1
gene 1 9 35 4.63281 0 90 4.63281 1
gene 1 10 26 -1.3636 0 91 -1.3636 1
gene 1 10 28 4.04508 0 93 4.04508 1
gene 1 10 31 0.404192 0 96 0.404192 1
gene 1 10 32 0.661966 0 97 0.661966 1
gene 1 10 34 3.64459 0 99 3.64459 1
gene 1 11 26 4.72493 0 101 4.72493 1
gene 1 11 28 -0.248241 0 103 -0.248241 1
gene 1 11 29 -0.36173 0 104 -0.36173 1
gene 1 11 30 -2.51112 0 105 -2.51112 1
gene 1 11 31 -0.229035 0 106 -0.229035 1
gene 1 11 34 -0.559516 0 109 -0.559516 1
gene 1 11 35 0.964335 0 110 0.964335 1
gene 1 26 14 2.88116 0 113 2.88116 1
gene 1 26 17 0.897991 0 116 0.897991 1
gene 1 26 20 1.07161 0 119 1.07161 1
gene 1 26 21 -1.37787 0 120 -1.37787 1
gene 1 26 22 -0.23588 0 121 -0.23588 1
gene 1 26 23 -0.34303 0 122 -0.34303 1
gene 1 26 24 -0.740027 0 123 -0.740027 1
gene 1 26 25 -3.61612 0 124 -3.61612 1
gene 1 28 13 -0.00977862 0 140 -0.00977862 1
gene 1 28 14 -0.616837 0 141 -0.616837 1
gene 1 28 15 1.70839 0 142 1.70839 1
gene 1 28 16 2.64385 0 143 2.64385 1
gene 1 28 19 -1.77426 0 146 -1.77426 1
gene 1 28 20 3.6397 0 147 3.6397 1
gene 1 28 21 2.11027 0 148 2.11027 1
gene 1 28 22 -2.24862 0 149 -2.24862 1
gene 1 28 23 0.285139 0 150 0.285139 1
gene 1 28 24 2.44639 0 151 2.44639 1
gene 1 28 25 2.45482 0 152 2.45482 1
gene 1 29 15 5.00402 0 156 5.00402 1
gene 1 29 16 0.759279 0 157 0.759279 1
gene 1 29 17 -3.07568 0 158 -3.07568 1
gene 1 29 18 -0.814508 0 159 -0.814508 1
gene 1 29 19 1.17629 0 160 1.17629 1
gene 1 29 22 1.4545 0 163 1.4545 1
gene 1 29 23 2.88055 0 164 2.88055 1
gene 1 29 25 -0.98244 0 166 -0.98244 1
gene 1 30 12 -0.821988 0 167 -0.821988 1
gene 1 30 13 2.13685 0 168 2.13685 1
gene 1 30 14 -3.11207 0 169 -3.11207 1
gene 1 30 16 0.494062 0 171 0.494062 1
gene 1 30 17 0.335305 0 172 0.335305 1
gene 1 30 18 -0.221843 0 173 -0.221843 1
gene 1 30 19 3.12633 0 174 3.12633 1
gene 1 30 20 -1.12533 0 175 -1.12533 1
gene 1 30 21 -2.5318 0 176 -2.5318 1
gene 1 30 22 2.32946 0 177 2.32946 1
gene 1 30 24 -3.19404 0 179 -3.19404 1
gene 1 30 25 0.912672 0 180 0.912672 1
gene 1 31 13 0.0743805 0 182 0.0743805 1
gene 1 31 17 -0.459591 0 186 -0.459591 1
gene 1 31 18 2.38302 0 187 2.38302 1
gene 1 31 21 -0.77238 0 190 -0.77238 1
gene 1 31 22 -0.830582 0 191 -0.830582 1
gene 1 31 25 1.65866 0 194 1.65866 1
gene 1 32 13 3.02666 0 196 3.02666 1
gene 1 32 14 -1.966 0 197 -1.966 1
gene 1 32 15 0.850701 0 198 0.850701 1
gene 1 32 19 0.33922 0 202 0.33922 1
gene 1 32 20 0.748063 0 203 0.748063 1
gene 1 32 21 1.73342 0 204 1.73342 1
gene 1 32 22 -0.335631 0 205 -0.335631 1
gene 1 32 23 0.817414 0 206 0.817414 1
gene 1 32 24 0.626806 0 207 0.626806 1
gene 1 32 25 0.951164 0 208 0.951164 1
gene 1 34 12 -0.619974 0 223 -0.619974 1
gene 1 34 13 -2.16439 0 224 -2.16439 1
gene 1 34 14 1.08515 0 225 1.08515 1
gene 1 34 15 1.10948 0 226 1.10948 1
gene 1 34 16 1.34679 0 227 1.34679 1
gene 1 34 17 -2.02788 0 228 -2.02788 1
gene 1 34 18 -2.7274 0 229 -2.7274 1
gene 1 34 19 0.0699253 0 230 0.0699253 1
gene 1 34 20 1.41144 0 231 1.41144 1
gene 1 34 21 0.0913564 0 232 0.0913564 1
gene 1 34 22 0.658952 0 233 0.658952 1
gene 1 34 24 2.29296 0 235 2.29296 1
gene 1 34 25 1.73223 0 236 1.73223 1
gene 1 35 13 -0.163658 0 238 -0.163658 1
gene 1 35 14 -0.511263 0 239 -0.511263 1
gene 1 35 15 0.952146 0 240 0.952146 1
gene 1 35 17 0.170053 0 242 0.170053 1
gene 1 35 19 0.488287 0 244 0.488287 1
gene 1 35 21 0.497843 0 246 0.497843 1
gene 1 35 22 0.934409 0 247 0.934409 1
gene 1 35 24 0.781277 0 249 0.781277 1
gene 1 7 16 -0.217706 0 1081 -0.217706 1
gene 1 2 18 -0.311302 0 4298 -0.311302 1
gene 1 9 15 0.515494 0 4708 0.515494 1
gene 1 8 20 0.294138 0 4970 0.294138 1
gene 1 24 22 -0.137996 0 6394 -0.137996 1
gene 1 5 22 -0.247488 0 7819 -0.247488 1
gene 1 4 24 1.5349 0 8428 1.5349 1
gene 1 16 12 -0.265551 0 9053 -0.265551 1
gene 1 19 25 -0.106203 0 9934 -0.106203 1
gene 1 10 18 -2.54428 0 10899 -2.54428 1
gene 1 3 14 1.0928 0 11839 1.0928 1
gene 1 2 14 0.946325 0 12615 0.946325 1
gene 1 26 530 0.178715 0 12998 0.178066 1
gene 1 530 18 -1.11152 0 12999 -1.10175 1
gene 1 6 530 -0.989591 0 13628 -0.989591 1
gene 1 15 20 0.352738 0 13863 0.352738 1
gene 1 22 17 -1.58779 0 14813 -1.58779 1
gene 1 6 24 0.510845 0 15269 0.510845 1
gene 1 4 15 -0.918712 0 16081 -0.918712 1
gene 1 16 20 -0.467576 0 16877 -0.467576 1
gene 1 2 13 0.771534 0 18207 0.771534 1
gene 1 11 25 0.929697 0 18931 0.929697 1
gene 1 35 530 -1.48925 0 19514 -1.48925 1
gene 1 4 18 1.2599 0 19931 1.2599 1
gene 1 530 24 0.0416446 0 20830 0.0416446 1
gene 1 12 12 1.05766 1 20888 1.05766 1
gene 1 29 32 0.828569 0 21157 0.828569 1
gene 1 5 14 -1.4367 0 21797 -1.4367 1
gene 1 21 21 2.22084 1 23022 2.22084 1
gene 1 22 14 -1.58979 1 23245 -1.58979 1
gene 1 25 25 0.338618 1 23308 0.338618 1
gene 1 30 35 0.839148 0 25478 0.839148 1
gene 1 23 14 0.152987 0 25917 0.152987 1
gene 1 7 1032 0.0868388 0 27079 0.0868388 1
gene 1 17 15 0.986677 0 28337 0.986677 1
gene 1 17 17 0.871945 1 28662 0.871945 1
gene 1 3 1092 1.4847 0 28930 1.45275 1
gene 1 1032 19 0.83502 0 30859 0.83502 1
gene 1 6 13 0.413786 0 31267 0.413786 1
gene 1 22 26 1.17391 1 32471 1.17391 1
gene 1 12 23 -0.436506 0 32726 -0.436506 1
gene 1 19 13 0.295061 0 32853 0.295061 1
gene 1 1092 1092 -1.36038 1 33183 -1.36038 1
gene 1 4 14 0.0632715 0 33384 0.0632715 1
gene 1 28 26 0.412839 0 33534 0.412839 1
gene 1 19 20 -0.344549 0 35267 -0.344549 1
gene 1 26 32 0.965951 0 35919 0.965951 1
gene 1 1032 14 -0.632627 0 37113 -0.632627 1
gene 1 22 25 0.932641 0 37244 0.932641 1
gene 1 14 14 -0.0352418 1 37598 -0.0352418 1
gene 1 12 14 0.656803 0 37952 0.656803 1
gene 1 26 18 0.911692 0 38394 0.911692 1
gene 1 7 15 0.57956 0 38703 0.57956 1
gene 1 12 25 -0.588157 0 39881 -0.588157 1
gene 1 34 35 0.381374 0 40177 0.381374 1
gene 1 30 30 0.456361 1 40793 0.456361 1
gene 1 31 31 -0.477798 1 41063 -0.477798 1
gene 1 24 24 -0.949652 1 41308 -0.949652 1
gene 1 13 24 -0.237163 0 41600 -0.237163 1
gene 1 5 13 0.43489 0 42178 0.43489 1
gene 1 35 26 -1.11201 0 42393 -1.11201 1
gene 1 3 17 0.177082 0 42915 0.177082 1
gene 1 9 530 0.225349 0 43613 0.225349 1
gene 1 6 14 -1.19898 0 44083 -1.19898 1
gene 1 3 1657 -0.839219 0 44715 -0.904908 1
gene 1 1657 34 0.208245 0 44716 0.190939 1
gene 1 34 530 -0.146732 0 45480 -0.146732 1
gene 1 10 30 -0.373789 0 46211 -0.373789 1
gene 1 29 29 0.890233 1 46500 0.890233 1
gene 1 10 16 1.13726 0 47380 1.13726 1
gene 1 1092 19 0.306339 0 47788 0.306339 1
gene 1 24 14 -0.418308 0 48399 -0.418308 1
gene 1 18 18 -0.785005 1 48550 -0.785005 1
gene 1 16 15 -0.0118115 0 49562 -0.0118115 1
gene 1 1 12 0.144726 0 49811 0.144726 1
gene 1 34 34 0.914386 1 49965 0.914386 1
gene 1 23 23 -0.91092 1 50093 -0.91092 1
gene 1 5 1032 -0.489331 0 51466 -0.489331 1
gene 1 16 16 1.31656 1 51875 1.31656 1
gene 1 35 35 0.526821 1 52435 0.526821 1
gene 1 16 22 0.447605 0 53361 0.447605 1
gene 1 530 530 0.557223 1 53578 0.557223 1
gene 1 35 31 0.522127 0 54174 0.522127 1
gene 1 1657 14 -0.686313 0 54515 -0.686313 1
gene 1 13 20 -0.846013 0 54983 -0.846013 1
gene 1 11 32 -0.808278 0 55620 -0.808278 1
gene 1 16 26 0.227304 0 58346 0.227304 1
gene 1 1032 1032 0.33881 1 58523 0.33881 1
gene 1 20 18 -0.508125 0 58591 -0.508125 1
gene 1 1032 2150 0.837232 0 59150 0.505201 1
gene 1 530 31 1.75368 0 59965 1.75368 1
gene 1 18 26 -0.0377626 1 61155 -0.0377626 1
gene 1 1 1657 -0.906483 0 61366 -0.906483 1
gene 1 7 20 -0.0558365 0 62890 -0.0558365 1
gene 1 6 26 0.378475 0 63514 0.378475 1
gene 1 18 17 -0.570906 0 64082 -0.570906 1
gene 1 8 24 0.823869 0 64493 0.823869 1
gene 1 19 2150 0.329649 0 64919 0.329649 1
gene 1 26 26 0.439506 1 66096 0.439506 1
gene 1 20 31 -0.126289 0 66326 -0.126289 1
gene 1 9 21 0.875177 0 67526 0.875177 1
gene 1 1657 2150 -0.198179 0 67774 -0.198179 1
gene 1 11 13 -0.741605 0 68190 -0.741605 1
gene 1 23 1092 0.469121 0 68323 0.469121 1
gene 1 8 23 0.510533 0 68567 0.510533 1
gene 1 23 29 -0.608154 1 68786 -0.608154 1
gene 1 34 1092 -0.891626 0 69139 -0.891626 1
gene 1 1 35 -0.281235 0 71419 -0.281235 1
gene 1 23 18 -0.92608 0 71519 -0.92608 1
gene 1 6 22 -0.777233 0 71778 -0.777233 1
gene 1 9 23 0.270251 0 71967 0.270251 1
genomeend 58
