/* Organism #69646448 Fitness: -165013 
genomestart 242
trait 1 0.412924 0.216085 0.129244 0.814717 0.0278631 0.650247 0.111834 0.54908 
node 1 1 0
node 2 1 1
node 3 1 1
node 4 1 1
node 5 1 1
node 6 1 1
node 7 1 1
node 8 1 1
node 9 1 1
node 10 1 1
node 11 1 1
node 12 1 2
node 13 1 2
node 14 1 2
node 15 1 2
node 16 1 2
node 17 1 2
node 18 1 2
node 19 1 2
node 20 1 2
node 21 1 2
node 22 1 2
node 23 1 2
node 24 1 2
node 25 1 2
node 27 1 3
node 28 1 3
node 29 1 3
node 31 1 3
node 34 1 3
node 509 1 3
node 867 1 3
node 2540 1 3
gene 1 1 27 -2.36192 0 2 -2.36192 1
gene 1 1 28 4.90491 0 3 4.90491 1
gene 1 1 29 -2.24116 0 4 -2.24116 1
gene 1 1 31 7.34774 0 6 7.34774 1
gene 1 1 34 1.30021 0 9 1.30021 1
gene 1 2 27 3.06747 0 12 3.06747 1
gene 1 2 29 -6.09826 0 14 -6.09826 1
gene 1 2 31 1.48259 0 16 1.48259 1
gene 1 2 34 -2.09943 0 19 -2.09943 1
gene 1 3 27 3.69448 0 22 3.69448 1
gene 1 3 29 0.151255 0 24 0.151255 1
gene 1 4 28 0.262426 0 33 0.262426 1
gene 1 4 29 0.130246 0 34 0.130246 1
gene 1 4 31 -4.91155 0 36 -4.91155 1
gene 1 5 29 -3.98628 0 44 -3.98628 1
gene 1 5 34 7.07925 0 49 7.07925 1
gene 1 6 28 1.22474 0 53 1.22474 1
gene 1 6 29 -3.50942 0 54 -3.50942 1
gene 1 6 31 -4.78484 0 56 -4.78484 1
gene 1 7 27 -2.77515 0 62 -2.77515 1
gene 1 7 28 1.07067 0 63 1.07067 1
gene 1 7 31 -1.56084 0 66 -1.56084 1
gene 1 7 34 -3.70264 0 69 -3.70264 1
gene 1 8 27 2.34247 0 72 2.34247 1
gene 1 8 29 -1.52225 0 74 -1.52225 1
gene 1 8 34 0.252464 0 79 0.252464 1
gene 1 9 27 -4.44843 0 82 -4.44843 1
gene 1 9 28 -0.66531 0 83 -0.66531 1
gene 1 9 31 1.86268 0 86 1.86268 1
gene 1 10 27 -5.81405 0 92 -5.81405 1
gene 1 10 29 7.02408 0 94 7.02408 1
gene 1 11 27 -7.24257 0 102 -7.24257 1
gene 1 11 29 1.28726 0 104 1.28726 1
gene 1 11 31 -1.53603 0 106 -1.53603 1
gene 1 11 34 1.03825 0 109 1.03825 1
gene 1 27 12 0.285082 0 125 0.285082 1
gene 1 27 13 -1.49432 0 126 -1.49432 1
gene 1 27 14 -0.810034 0 127 -0.810034 1
gene 1 27 19 -4.83698 0 132 -4.83698 1
gene 1 27 20 3.06865 0 133 3.06865 1
gene 1 27 23 0.307111 0 136 0.307111 1
gene 1 27 25 5.34772 0 138 5.34772 1
gene 1 28 12 5.53229 0 139 5.53229 1
gene 1 28 14 3.02992 0 141 3.02992 1
gene 1 28 16 -4.55027 0 143 -4.55027 1
gene 1 28 17 4.52556 0 144 4.52556 1
gene 1 28 18 3.63173 0 145 3.63173 1
gene 1 28 21 -2.35477 0 148 -2.35477 1
gene 1 28 22 1.1008 0 149 1.1008 1
gene 1 28 23 0.811717 0 150 0.811717 1
gene 1 28 24 -2.06632 0 151 -2.06632 1
gene 1 28 25 -0.688025 0 152 -0.688025 1
gene 1 29 13 -2.24573 0 154 -2.24573 1
gene 1 29 15 5.36661 0 156 5.36661 1
gene 1 29 20 2.76039 0 161 2.76039 1
gene 1 29 21 6.86331 0 162 6.86331 1
gene 1 29 23 -3.67692 0 164 -3.67692 1
gene 1 31 15 -2.12037 0 184 -2.12037 1
gene 1 31 16 -3.02091 0 185 -3.02091 1
gene 1 31 18 3.42977 0 187 3.42977 1
gene 1 31 19 -3.0746 0 188 -3.0746 1
gene 1 31 20 0.189413 0 189 0.189413 1
gene 1 31 21 0.778073 0 190 0.778073 1
gene 1 31 22 -0.860246 0 191 -0.860246 1
gene 1 34 14 1.43529 0 225 1.43529 1
gene 1 34 15 2.14969 0 226 2.14969 1
gene 1 34 17 -1.31842 0 228 -1.31842 1
gene 1 34 19 -1.59904 0 230 -1.59904 1
gene 1 34 20 1.14633 0 231 1.14633 1
gene 1 34 22 -5.50596 0 233 -5.50596 1
gene 1 34 23 -4.2306 0 234 -4.2306 1
gene 1 34 24 -0.219167 0 235 -0.219167 1
gene 1 34 25 0.162823 0 236 0.162823 1
gene 1 17 27 1.84971 1 943 1.84971 1
gene 1 20 20 -1.45123 1 1727 -1.45123 1
gene 1 10 18 1.62573 0 2157 1.62573 1
gene 1 8 21 3.6548 0 3757 3.6548 1
gene 1 21 19 4.33499 0 3822 4.33499 1
gene 1 31 31 -1.77619 1 5048 -1.77619 1
gene 1 28 27 -0.273414 0 6253 -0.273414 1
gene 1 22 22 0.772581 1 6858 0.772581 1
gene 1 18 18 -0.939673 1 6978 -0.939673 1
gene 1 12 18 1.30743 0 8728 1.30743 1
gene 1 7 18 -3.98619 0 9465 -3.98619 1
gene 1 18 21 1.39296 0 9665 1.39296 1
gene 1 15 15 0.319333 1 9773 0.319333 1
gene 1 34 34 -2.39022 1 10224 -2.39022 1
gene 1 509 16 -5.85149 0 11874 -5.85149 1
gene 1 22 23 5.26433 0 12216 5.26433 1
gene 1 15 24 -0.795103 1 14376 -0.795103 1
gene 1 17 23 -0.957696 0 15373 -0.957696 1
gene 1 18 13 -3.29443 0 15554 -3.29443 1
gene 1 6 24 0.78108 0 16374 0.78108 1
gene 1 10 14 0.0578533 0 16563 0.0578533 1
gene 1 17 25 -0.137682 0 16770 -0.137682 1
gene 1 3 16 3.6698 0 17224 3.6698 1
gene 1 21 25 -2.72556 0 18723 -2.72556 1
gene 1 6 17 3.05651 0 19953 3.05651 1
gene 1 34 28 0.741086 0 20345 0.741086 1
gene 1 23 16 -1.72348 0 20893 -1.72348 1
gene 1 19 16 -1.0404 0 21112 -1.0404 1
gene 1 31 27 1.01874 0 21162 1.01874 1
gene 1 9 25 -0.810577 0 23527 -0.810577 1
gene 1 13 20 1.36888 0 24148 1.36888 1
gene 1 34 21 0.219266 0 24354 0.219266 1
gene 1 9 17 -1.18861 0 25234 -1.18861 1
gene 1 16 16 1.60853 1 25340 1.60853 1
gene 1 29 27 0.6004 0 25567 0.6004 1
gene 1 6 23 2.5904 0 25756 2.5904 1
gene 1 31 17 0.459554 0 28518 0.459554 1
gene 1 13 15 3.00772 0 29118 3.00772 1
gene 1 25 23 0.497794 0 29553 0.497794 1
gene 1 2 24 -0.744606 0 30182 -0.744606 1
gene 1 28 13 -3.42199 0 30409 -3.42199 1
gene 1 12 12 -1.45325 1 31386 -1.45325 1
gene 1 3 22 -1.72549 0 31936 -1.72549 1
gene 1 25 22 -0.596685 0 33968 -0.596685 1
gene 1 7 20 -0.783265 0 34931 -0.783265 1
gene 1 23 23 -0.199652 1 35354 -0.199652 1
gene 1 1 23 -0.0915842 0 36411 -0.0915842 1
gene 1 5 16 -1.08548 0 38552 -1.08548 1
gene 1 19 14 -0.239985 0 39952 -0.239985 1
gene 1 34 29 0.137626 0 41883 0.137626 1
gene 1 12 25 0.403071 0 42257 0.403071 1
gene 1 9 29 -0.559651 0 42413 -0.559651 1
gene 1 9 20 0.0261196 0 42979 0.0261196 1
gene 1 867 867 0.780438 1 43228 0.780438 1
gene 1 6 16 0.48957 0 43459 0.48957 1
gene 1 29 31 0.561087 0 43762 0.561087 1
gene 1 5 20 0.0987383 0 44575 0.0987383 1
gene 1 5 867 -0.797046 0 44787 -0.797046 1
gene 1 14 16 -0.749015 0 44983 -0.749015 1
gene 1 12 509 1.01632 0 45390 1.01632 1
gene 1 11 509 0.591414 0 46389 0.591414 1
gene 1 25 13 -0.550241 0 46483 -0.550241 1
gene 1 24 16 0.194199 0 46687 0.194199 1
gene 1 12 22 -0.622493 0 47009 -0.622493 1
gene 1 11 12 0.407121 0 47341 0.407121 1
gene 1 22 509 0.875551 0 47775 0.875551 1
gene 1 13 13 0.129864 1 47983 0.129864 1
gene 1 21 23 -0.590267 0 48397 -0.590267 1
gene 1 17 15 -1.82462 0 48812 -1.82462 1
gene 1 6 12 -0.679142 0 49035 -0.679142 1
gene 1 4 14 1.35031 0 49643 1.35031 1
gene 1 5 14 0.471419 0 49744 0.471419 1
gene 1 18 22 -0.492071 0 50736 -0.492071 1
gene 1 7 14 0.435118 0 50912 0.435118 1
gene 1 509 509 -0.954362 1 51364 -0.954362 1
gene 1 19 23 -0.499564 0 51681 -0.499564 1
gene 1 4 17 0.684983 0 51736 0.684983 1
gene 1 2 509 0.209267 0 52533 0.209267 1
gene 1 13 22 -0.0892524 0 53088 -0.0892524 1
gene 1 27 27 0.345631 1 53585 0.345631 1
gene 1 17 28 0.148394 1 54255 0.148394 1
gene 1 19 29 0.495262 1 54459 0.495262 1
gene 1 21 15 -1.28807 0 54654 -1.28807 1
gene 1 2 22 -0.448006 0 55011 -0.448006 1
gene 1 14 17 0.911923 0 55319 0.911923 1
gene 1 28 19 0.522679 0 55545 0.522679 1
gene 1 8 22 0.127205 0 56253 0.127205 1
gene 1 2 20 -0.473963 0 57277 -0.473963 1
gene 1 22 28 -0.176536 1 57516 -0.176536 1
gene 1 18 20 0.645528 0 57709 0.645528 1
gene 1 867 22 -0.357701 0 57904 -0.357701 1
gene 1 19 19 0.209042 1 57980 0.209042 1
gene 1 867 21 -0.687085 0 58171 -0.687085 1
gene 1 27 15 0.156495 0 58387 0.156495 1
gene 1 3 25 0.621199 0 59044 0.621199 1
gene 1 12 17 -0.183681 0 59187 -0.183681 1
gene 1 22 29 0.72744 1 59654 0.72744 1
gene 1 34 509 -0.740923 0 59761 -0.740923 1
gene 1 24 25 0.584698 0 59988 0.584698 1
gene 1 24 29 -0.768903 0 60442 -0.768903 1
gene 1 20 16 0.588666 0 60841 0.588666 1
gene 1 11 19 0.012126 0 61424 0.012126 1
gene 1 29 509 0.287261 0 63114 0.287261 1
gene 1 25 20 0.391604 0 63670 0.391604 1
gene 1 509 2540 1 1 64929 0 1
gene 1 2540 22 0.77912 0 64930 0 1
gene 1 3 14 0.330932 0 65350 0.330932 1
gene 1 2540 2540 -0.0834582 1 65766 -0.0834582 1
gene 1 34 13 -0.519969 0 66272 -0.519969 1
gene 1 24 24 0.569767 1 66707 0.569767 1
gene 1 15 29 0.201634 1 66970 0.201634 1
gene 1 509 13 0.524396 0 67200 0.524396 1
gene 1 17 17 0.567603 1 67398 0.567603 1
gene 1 8 12 -0.496069 0 67591 -0.496069 1
genomeend 242
