/* Organism #140315330992136 Fitness: -125536 
genomestart 436
trait 1 0.907109 0.444713 0.0760749 0.725845 0.487872 0.713537 0.413612 0.0288028 
node 1 1 0
node 2 1 1
node 3 1 1
node 4 1 1
node 5 1 1
node 6 1 1
node 7 1 1
node 8 1 1
node 9 1 1
node 10 1 1
node 11 1 1
node 12 1 2
node 13 1 2
node 14 1 2
node 15 1 2
node 16 1 2
node 17 1 2
node 18 1 2
node 19 1 2
node 20 1 2
node 21 1 2
node 22 1 2
node 23 1 2
node 24 1 2
node 25 1 2
node 26 1 3
node 33 1 3
node 34 1 3
node 35 1 3
node 608 1 3
node 1573 1 3
node 1592 1 3
node 1779 1 3
node 1976 1 3
node 2043 1 3
node 2240 1 3
gene 1 1 26 4.68286 0 1 4.68286 1
gene 1 1 33 -1.55258 0 8 -1.55258 1
gene 1 1 34 -2.99902 0 9 -2.99902 1
gene 1 1 35 -3.14948 0 10 -3.14948 1
gene 1 2 26 -1.16473 0 11 -1.16473 1
gene 1 2 33 3.96892 0 18 3.96892 1
gene 1 2 34 -3.95106 0 19 -3.95106 1
gene 1 2 35 -0.83817 0 20 -0.83817 1
gene 1 3 26 0.166543 0 21 0.166543 1
gene 1 3 33 -3.53327 0 28 -3.53327 1
gene 1 3 34 1.73895 0 29 1.73895 1
gene 1 4 34 -1.33641 0 39 -1.33641 1
gene 1 5 26 0.947102 0 41 0.947102 1
gene 1 5 33 -4.10655 0 48 -4.10655 1
gene 1 5 34 -0.350789 0 49 -0.350789 1
gene 1 6 35 -0.0889265 0 60 -0.0889265 1
gene 1 7 33 2.19887 0 68 2.19887 1
gene 1 8 33 1.18112 0 78 1.18112 1
gene 1 8 34 -2.50602 0 79 -2.50602 1
gene 1 8 35 -1.45098 0 80 -1.45098 1
gene 1 9 26 1.81884 0 81 1.81884 1
gene 1 9 33 -0.294744 0 88 -0.294744 1
gene 1 9 34 -4.01634 0 89 -4.01634 1
gene 1 9 35 1.07446 0 90 1.07446 1
gene 1 10 26 -0.223402 0 91 -0.223402 1
gene 1 11 26 0.191036 0 101 0.191036 1
gene 1 11 33 1.99829 0 108 1.99829 1
gene 1 11 35 -2.90826 0 110 -2.90826 1
gene 1 26 13 -2.1936 0 112 -2.1936 1
gene 1 26 14 0.0924143 0 113 0.0924143 1
gene 1 26 17 4.22607 0 116 4.22607 1
gene 1 26 18 -0.521191 0 117 -0.521191 1
gene 1 26 19 -1.90779 0 118 -1.90779 1
gene 1 26 21 0.802131 0 120 0.802131 1
gene 1 26 23 -0.787558 0 122 -0.787558 1
gene 1 26 24 -2.5048 0 123 -2.5048 1
gene 1 26 25 -5.83959 0 124 -5.83959 1
gene 1 33 13 3.61114 0 210 3.61114 1
gene 1 33 16 -1.40822 0 213 -1.40822 1
gene 1 33 17 -0.486341 0 214 -0.486341 1
gene 1 33 18 1.74058 0 215 1.74058 1
gene 1 33 20 0.170087 0 217 0.170087 1
gene 1 33 22 3.75956 0 219 3.75956 1
gene 1 33 24 2.17611 0 221 2.17611 1
gene 1 33 25 0.612518 0 222 0.612518 1
gene 1 34 12 -1.979 0 223 -1.979 1
gene 1 34 13 2.79528 0 224 2.79528 1
gene 1 34 17 2.06908 0 228 2.06908 1
gene 1 34 18 1.16012 0 229 1.16012 1
gene 1 34 19 2.90657 0 230 2.90657 1
gene 1 34 24 -0.710829 0 235 -0.710829 1
gene 1 35 14 -2.70316 0 239 -2.70316 1
gene 1 35 15 0.899938 0 240 0.899938 1
gene 1 35 16 2.84518 0 241 2.84518 1
gene 1 35 18 -2.46018 0 243 -2.46018 1
gene 1 35 19 -0.130366 0 244 -0.130366 1
gene 1 35 20 0.103888 0 245 0.103888 1
gene 1 35 23 0.556459 0 248 0.556459 1
gene 1 15 13 3.00791 0 326 3.00791 1
gene 1 24 26 -0.921861 1 2771 -0.921861 1
gene 1 9 25 -2.16335 0 3161 -2.16335 1
gene 1 23 13 -0.963899 0 4456 -0.963899 1
gene 1 21 13 -2.48419 0 5030 -2.48419 1
gene 1 12 18 -0.876838 0 5682 -0.876838 1
gene 1 8 17 -0.888683 0 5887 -0.888683 1
gene 1 16 16 3.21514 1 6567 3.21514 1
gene 1 24 13 -0.995481 0 9325 -0.995481 1
gene 1 12 12 0.331178 1 9997 0.331178 1
gene 1 3 20 -2.87517 0 12565 -2.87517 1
gene 1 34 34 -1.27267 1 12923 -1.27267 1
gene 1 23 22 0.0752508 0 14839 0.0752508 1
gene 1 14 25 -1.33319 0 16292 -1.33319 1
gene 1 17 19 -1.04186 0 16662 -1.04186 1
gene 1 17 33 0.438403 1 18210 0.438403 1
gene 1 13 14 -0.824607 0 18598 -0.824607 1
gene 1 9 18 1.7774 0 18787 1.7774 1
gene 1 3 608 3.45376 0 19435 3.45376 1
gene 1 13 13 2.36383 1 19623 2.36383 1
gene 1 608 21 -2.45646 0 20668 -2.45646 1
gene 1 9 20 0.0328755 0 20794 0.0328755 1
gene 1 19 15 2.06313 0 24228 2.06313 1
gene 1 33 26 -2.38493 0 25669 -2.38493 1
gene 1 20 13 -1.86331 0 25876 -1.86331 1
gene 1 10 14 -0.703114 0 26079 -0.703114 1
gene 1 2 12 0.808939 0 26273 0.808939 1
gene 1 11 22 1.25669 0 26624 1.25669 1
gene 1 25 25 -0.817335 1 27752 -0.817335 1
gene 1 5 35 -1.33055 0 28053 -1.33055 1
gene 1 17 12 -1.01792 0 28739 -1.01792 1
gene 1 24 24 -0.722898 1 29180 -0.722898 1
gene 1 1 19 0.331652 0 29357 0.331652 1
gene 1 13 25 -0.195845 0 29730 -0.195845 1
gene 1 33 608 -1.07751 0 29906 -1.07751 1
gene 1 2 18 0.753396 0 30311 0.753396 1
gene 1 22 13 0.803475 1 31086 0.803475 1
gene 1 17 13 2.24691 0 31280 2.24691 1
gene 1 22 35 1.57183 1 31479 1.57183 1
gene 1 18 16 -0.857849 0 31713 -0.857849 1
gene 1 15 15 0.103449 1 32187 0.103449 1
gene 1 23 23 0.829603 1 32624 0.829603 1
gene 1 7 21 -1.10481 0 33597 -1.10481 1
gene 1 14 14 2.11516 1 34675 2.11516 1
gene 1 21 23 1.58265 0 35825 1.58265 1
gene 1 24 15 0.699892 0 36019 0.699892 1
gene 1 7 24 2.73493 0 36647 2.73493 1
gene 1 10 13 1.23021 0 36820 1.23021 1
gene 1 608 608 0.0864459 1 37387 0.0864459 1
gene 1 23 20 0.578877 0 37660 0.578877 1
gene 1 19 19 -1.17585 1 37925 -1.17585 1
gene 1 2 22 -0.578297 0 39283 -0.578297 1
gene 1 11 21 0.552622 0 39985 0.552622 1
gene 1 6 26 0.441895 0 40173 0.441895 1
gene 1 4 21 0.924106 0 40370 0.924106 1
gene 1 1573 25 0.80461 0 40749 0.539983 1
gene 1 14 1592 1.16165 0 41221 1.01297 1
gene 1 1592 22 -1.60135 0 41222 -1.2771 1
gene 1 15 14 -0.00483176 0 41593 -0.00483176 1
gene 1 9 19 0.434814 0 42138 0.434814 1
gene 1 608 25 0.69179 0 42548 0.69179 1
gene 1 8 18 -0.750977 0 42938 -0.750977 1
gene 1 35 1592 0.92388 0 43116 0.92388 1
gene 1 5 18 -1.29296 0 43934 -1.29296 1
gene 1 17 608 -0.383901 0 44493 -0.383901 1
gene 1 21 18 -0.941836 0 45325 -0.941836 1
gene 1 19 14 0.977741 0 45703 0.977741 1
gene 1 35 1779 1.35663 0 46476 1.1391 1
gene 1 1779 21 2.12139 0 46477 1.82534 1
gene 1 8 20 -0.278592 0 46546 -0.278592 1
gene 1 2 21 -0.991893 0 46868 -0.991893 1
gene 1 22 22 0.540982 1 46950 0.540982 1
gene 1 3 22 -0.892379 0 47879 -0.892379 1
gene 1 20 19 -0.327311 0 47984 -0.327311 1
gene 1 21 21 -0.576169 1 48409 -0.576169 1
gene 1 22 33 1.35544 1 48723 1.35544 1
gene 1 6 12 -0.0471382 0 49627 -0.0471382 1
gene 1 1779 1779 0.428321 1 50004 0.428321 1
gene 1 1573 33 -0.194889 0 50413 -0.194889 1
gene 1 20 12 -0.166586 0 50645 -0.166586 1
gene 1 6 13 0.897604 0 51053 0.897604 1
gene 1 10 1976 1.31208 0 51469 1.06855 1
gene 1 7 14 -1.19642 0 52491 -1.19642 1
gene 1 34 14 -0.0937658 0 52851 -0.0937658 1
gene 1 1976 2043 0.846791 0 53529 0.217885 1
gene 1 2043 35 -0.263614 0 53530 -0.199102 1
gene 1 25 33 0.738112 1 54058 0.738112 1
gene 1 25 24 -0.691368 1 54420 -0.691368 1
gene 1 20 20 -0.0846538 1 55278 -0.0846538 1
gene 1 12 13 0.122458 0 55490 0.122458 1
gene 1 5 24 -0.493481 0 56310 -0.493481 1
gene 1 10 18 0.0756319 0 56506 0.0756319 1
gene 1 608 18 -0.867067 0 56708 -0.867067 1
gene 1 33 33 0.35475 1 57303 0.35475 1
gene 1 23 24 0.591031 0 57705 0.591031 1
gene 1 35 35 0.698402 1 57948 0.698402 1
gene 1 8 15 0.880112 0 58401 0.880112 1
gene 1 26 2240 1.65672 0 58821 1.34422 1
gene 1 2240 20 -4.36194 0 58822 -2.81455 1
gene 1 1779 20 -0.10298 0 60268 -0.10298 1
gene 1 608 1592 -0.181412 0 60461 -0.181412 1
gene 1 11 18 -0.657793 0 60662 -0.657793 1
gene 1 2043 1573 -0.521724 0 61044 -0.521724 1
gene 1 2 24 0.786637 0 61668 0.786637 1
gene 1 34 23 -0.907414 0 61894 -0.907414 1
gene 1 4 24 -0.280703 0 62244 -0.280703 1
gene 1 22 2043 0.840962 1 63392 0.840962 1
gene 1 15 25 0.178447 0 64302 0.178447 1
gene 1 1976 14 -0.0805904 0 64762 -0.0805904 1
gene 1 1 2043 0.319041 0 66350 0.319041 1
gene 1 13 22 -0.415864 0 66745 -0.415864 1
gene 1 20 16 -0.981755 0 66950 -0.981755 1
gene 1 7 20 -0.553011 0 67045 -0.553011 1
gene 1 1573 16 -0.376131 0 67124 -0.376131 1
gene 1 23 19 -0.477845 0 67342 -0.477845 1
gene 1 35 26 -0.77561 0 68144 -0.77561 1
gene 1 7 1573 -0.588241 0 68692 -0.588241 1
genomeend 436
