/* Organism #50240208 Fitness: -125490 
genomestart 302
trait 1 0.00638362 0.251547 0.405668 0.626299 0 0.982821 0.828704 0.913834 
node 1 1 0
node 2 1 1
node 3 1 1
node 4 1 1
node 5 1 1
node 6 1 1
node 7 1 1
node 8 1 1
node 9 1 1
node 10 1 1
node 11 1 1
node 12 1 2
node 13 1 2
node 14 1 2
node 15 1 2
node 16 1 2
node 17 1 2
node 18 1 2
node 19 1 2
node 20 1 2
node 21 1 2
node 22 1 2
node 23 1 2
node 24 1 2
node 25 1 2
node 27 1 3
node 32 1 3
node 437 1 3
node 768 1 3
node 1444 1 3
node 1500 1 3
node 1588 1 3
node 1722 1 3
node 1999 1 3
node 2502 1 3
gene 1 1 27 7.51297 0 2 7.51297 1
gene 1 1 32 -6.1405 0 7 -6.1405 1
gene 1 2 32 -2.93101 0 17 -2.93101 1
gene 1 4 32 -5.55303 0 37 -5.55303 1
gene 1 5 27 -3.89795 0 42 -3.89795 1
gene 1 6 32 -1.88513 0 57 -1.88513 1
gene 1 7 27 2.00889 0 62 2.00889 1
gene 1 7 32 7.90092 0 67 7.90092 1
gene 1 9 27 -1.41624 0 82 -1.41624 1
gene 1 10 27 -1.28666 0 92 -1.28666 1
gene 1 11 27 -1.90862 0 102 -1.90862 1
gene 1 11 32 2.8856 0 107 2.8856 1
gene 1 27 12 6.90545 0 125 6.90545 1
gene 1 27 13 -4.95139 0 126 -4.95139 1
gene 1 27 14 1.86564 0 127 1.86564 1
gene 1 27 15 -7.46026 0 128 -7.46026 1
gene 1 27 18 2.40559 0 131 2.40559 1
gene 1 27 21 -6.06136 0 134 -6.06136 1
gene 1 27 22 -1.38599 0 135 -1.38599 1
gene 1 27 24 -6.19797 0 137 -6.19797 1
gene 1 32 12 2.1175 0 195 2.1175 1
gene 1 32 16 -5.59561 0 199 -5.59561 1
gene 1 32 17 2.26558 0 200 2.26558 1
gene 1 32 19 5.08441 0 202 5.08441 1
gene 1 32 20 1.22622 0 203 1.22622 1
gene 1 32 22 5.78837 0 205 5.78837 1
gene 1 32 23 -5.20798 0 206 -5.20798 1
gene 1 32 24 3.38437 0 207 3.38437 1
gene 1 32 25 6.87979 0 208 6.87979 1
gene 1 3 21 4.53758 0 2625 4.53758 1
gene 1 22 18 2.45212 0 2818 2.45212 1
gene 1 17 22 0.36315 0 3008 0.36315 1
gene 1 13 20 1.83443 0 4543 1.83443 1
gene 1 5 19 -3.30776 0 9545 -3.30776 1
gene 1 22 22 4.75723 1 9744 4.75723 1
gene 1 437 15 -5.22986 0 10136 -5.22986 1
gene 1 20 23 0.320694 0 10848 0.320694 1
gene 1 4 18 3.41571 0 12504 3.41571 1
gene 1 18 21 -3.36287 0 12722 -3.36287 1
gene 1 7 437 -1.26805 0 12970 -1.26805 1
gene 1 21 23 2.36538 0 13154 2.36538 1
gene 1 12 23 -2.18625 0 14975 -2.18625 1
gene 1 18 15 -1.22203 0 16615 -1.22203 1
gene 1 23 23 1.20458 1 17136 1.20458 1
gene 1 19 19 1.56101 1 18701 1.56101 1
gene 1 9 768 5.58902 0 18947 5.58902 1
gene 1 12 12 1.35077 1 20760 1.35077 1
gene 1 13 14 -0.582599 0 21886 -0.582599 1
gene 1 13 437 -1.29358 0 22111 -1.29358 1
gene 1 3 19 4.12332 0 22263 4.12332 1
gene 1 22 23 -0.626286 0 25112 -0.626286 1
gene 1 8 32 -1.80098 0 25623 -1.80098 1
gene 1 13 13 2.74223 1 26674 2.74223 1
gene 1 11 13 3.72911 0 27654 3.72911 1
gene 1 15 13 4.94192 1 28278 4.94192 1
gene 1 3 14 0.606964 0 28422 0.606964 1
gene 1 6 20 -3.61751 0 28945 -3.61751 1
gene 1 32 32 0.81104 1 32971 0.81104 1
gene 1 15 25 3.63564 0 33503 3.63564 1
gene 1 14 14 -1.70441 1 35333 -1.70441 1
gene 1 768 14 2.85708 0 36893 2.85708 1
gene 1 25 12 -4.01531 0 37233 -4.01531 1
gene 1 18 18 -0.311858 1 37485 -0.311858 1
gene 1 27 1444 -2.3093 0 37727 -2.3093 1
gene 1 1444 16 1.89568 0 37728 1.89568 1
gene 1 24 19 -1.73364 0 38013 -1.73364 1
gene 1 24 22 -0.870705 0 38144 -0.870705 1
gene 1 6 15 4.62592 0 38278 4.62592 1
gene 1 437 17 -0.216633 0 38523 -0.216633 1
gene 1 437 25 -1.08516 0 38716 -1.08516 1
gene 1 9 16 -2.42691 0 39102 -2.42691 1
gene 1 24 1500 -0.277678 0 39300 -0.277678 1
gene 1 1500 13 3.97994 0 39301 3.97994 1
gene 1 6 19 1.01208 0 39965 1.01208 1
gene 1 2 16 0.304588 0 40243 0.304588 1
gene 1 2 1588 -1.81887 0 41678 -1.81887 1
gene 1 2 21 0.974567 0 41996 0.974567 1
gene 1 2 12 2.38052 0 44019 2.38052 1
gene 1 1444 20 4.46638 0 44421 4.46638 1
gene 1 2 768 0.932928 0 45089 0.932928 1
gene 1 3 1722 -0.151139 0 45506 -0.151139 1
gene 1 1722 18 1.44989 0 45507 1.44989 1
gene 1 6 1444 -1.341 0 45693 -1.341 1
gene 1 21 21 -0.168844 1 48652 -0.168844 1
gene 1 1 1588 1.39095 0 49289 1.39095 1
gene 1 2 25 0.00369453 0 50166 0.00369453 1
gene 1 32 27 -0.383794 0 50774 -0.383794 1
gene 1 2 15 -0.925794 0 50881 -0.925794 1
gene 1 1500 768 -0.947685 0 51254 -0.947685 1
gene 1 1 20 -0.710463 0 51487 -0.710463 1
gene 1 14 18 -1.01667 0 51977 -1.01667 1
gene 1 8 24 -0.841387 0 52588 -0.841387 1
gene 1 3 1999 1.62262 0 53182 1.62262 1
gene 1 1999 32 7.21101 0 53183 7.21101 1
gene 1 6 24 -0.472757 0 53395 -0.472757 1
gene 1 21 16 1.14278 0 53640 1.14278 1
gene 1 1 19 -2.03385 0 53995 -2.03385 1
gene 1 1588 20 -0.0707797 0 54149 -0.0707797 1
gene 1 2 1500 -0.357221 0 55058 -0.357221 1
gene 1 437 18 -1.62017 0 57084 -1.62017 1
gene 1 8 20 -0.616269 0 57489 -0.616269 1
gene 1 8 18 0.629016 0 57684 0.629016 1
gene 1 19 21 0.172273 0 57895 0.172273 1
gene 1 1588 1500 -0.323523 0 58344 -0.323523 1
gene 1 14 22 -0.396289 0 58521 -0.396289 1
gene 1 8 1722 0.532755 0 59132 0.532755 1
gene 1 15 15 0.841789 1 59237 0.841789 1
gene 1 27 23 -0.475834 0 59888 -0.475834 1
gene 1 7 25 -0.250869 0 60094 -0.250869 1
gene 1 3 20 1.05462 0 60299 1.05462 1
gene 1 11 20 -0.161577 0 61844 -0.161577 1
gene 1 11 16 0.802919 0 62359 0.802919 1
gene 1 1 1722 -0.0420514 0 62574 -0.0420514 1
gene 1 1722 1500 -0.626376 0 62811 -0.626376 1
gene 1 11 1500 -0.556227 0 63008 -0.556227 1
gene 1 1500 21 -0.607165 0 63218 -0.607165 1
gene 1 4 437 0.185581 0 64932 0.185581 1
gene 1 32 1500 0.307449 0 65183 0.307449 1
gene 1 437 12 0.500446 0 65528 0.500446 1
gene 1 19 32 0.711511 1 65925 0.711511 1
gene 1 11 12 0.0298588 0 66141 0.0298588 1
gene 1 1722 768 -0.552836 0 66696 -0.552836 1
gene 1 11 2502 1 0 67215 0.28125 1
gene 1 2502 21 2.63945 0 67216 0.742345 1
gene 1 8 21 -0.504442 0 67608 -0.504442 1
gene 1 1588 27 -0.424592 0 67828 -0.424592 1
gene 1 19 18 -0.344869 0 68844 -0.344869 1
gene 1 3 18 -0.482628 0 69236 -0.482628 1
gene 1 16 16 0.209283 1 70063 0.209283 1
gene 1 6 16 0.240897 0 70213 0.240897 1
genomeend 302
