/* Organism #140500895070216 Fitness: -1933.15 
genomestart 80
trait 1 0.0621453 0.169794 0.176463 0.180595 0.39132 0.96756 0.370787 0.704816 
node 1 1 0
node 2 1 1
node 3 1 1
node 4 1 1
node 5 1 1
node 6 1 1
node 7 1 1
node 8 1 1
node 9 1 1
node 10 1 1
node 11 1 1
node 12 1 2
node 13 1 2
node 14 1 2
node 15 1 2
node 16 1 2
node 17 1 2
node 18 1 2
node 19 1 2
node 20 1 2
node 21 1 2
node 22 1 2
node 23 1 2
node 24 1 2
node 25 1 2
node 26 1 3
node 27 1 3
node 28 1 3
node 29 1 3
node 30 1 3
node 32 1 3
node 34 1 3
node 35 1 3
node 147 1 3
node 1121 1 3
node 1360 1 3
node 1809 1 3
node 2196 1 3
gene 1 1 26 -1.52179 0 1 -1.52179 1
gene 1 1 27 -1.99266 0 2 -1.99266 1
gene 1 1 28 2.63791 0 3 2.63791 1
gene 1 1 29 2.74895 0 4 2.74895 1
gene 1 1 30 -1.51128 0 5 -1.51128 1
gene 1 1 32 0.915228 0 7 0.915228 1
gene 1 1 34 4.71095 0 9 4.71095 1
gene 1 1 35 2.05981 0 10 2.05981 1
gene 1 2 26 -0.178858 0 11 -0.178858 1
gene 1 2 27 1.45098 0 12 1.45098 1
gene 1 2 29 -1.27851 0 14 -1.27851 1
gene 1 2 30 0.146113 0 15 0.146113 1
gene 1 2 34 5.70658 0 19 5.70658 1
gene 1 2 35 -2.45195 0 20 -2.45195 1
gene 1 3 26 5.83522 0 21 5.83522 1
gene 1 3 29 -3.48044 0 24 -3.48044 1
gene 1 3 30 1.20449 0 25 1.20449 1
gene 1 3 35 -1.38025 0 30 -1.38025 1
gene 1 4 26 -1.45853 0 31 -1.45853 1
gene 1 4 27 -3.00876 0 32 -3.00876 1
gene 1 4 28 -0.218332 0 33 -0.218332 1
gene 1 4 29 1.03432 0 34 1.03432 1
gene 1 4 30 2.28716 0 35 2.28716 1
gene 1 4 32 1.91768 0 37 1.91768 1
gene 1 4 34 1.53439 0 39 1.53439 1
gene 1 4 35 5.0668 0 40 5.0668 1
gene 1 5 26 -5.41476 0 41 -5.41476 1
gene 1 5 27 -3.09439 0 42 -3.09439 1
gene 1 5 28 5.00678 0 43 5.00678 1
gene 1 5 32 2.92442 0 47 2.92442 1
gene 1 5 34 5.13018 0 49 5.13018 1
gene 1 6 26 -1.13095 0 51 -1.13095 1
gene 1 6 27 -3.84437 0 52 -3.84437 1
gene 1 6 30 -2.3507 0 55 -2.3507 1
gene 1 6 32 0.703966 0 57 0.703966 1
gene 1 6 35 2.99503 0 60 2.99503 1
gene 1 7 26 3.71904 0 61 3.71904 1
gene 1 7 27 -2.06284 0 62 -2.06284 1
gene 1 7 28 -2.81976 0 63 -2.81976 1
gene 1 7 29 1.09658 0 64 1.09658 1
gene 1 7 30 1.00041 0 65 1.00041 1
gene 1 7 35 2.91601 0 70 2.91601 1
gene 1 8 26 2.22751 0 71 2.22751 1
gene 1 8 28 2.72245 0 73 2.72245 1
gene 1 8 29 7.53921 0 74 7.53921 1
gene 1 8 30 0.996374 0 75 0.996374 1
gene 1 9 26 1.14764 0 81 1.14764 1
gene 1 9 27 1.54653 0 82 1.54653 1
gene 1 9 29 2.94335 0 84 2.94335 1
gene 1 9 30 -0.657068 0 85 -0.657068 1
gene 1 9 32 1.7009 0 87 1.7009 1
gene 1 9 35 0.956811 0 90 0.956811 1
gene 1 10 26 -2.01538 0 91 -2.01538 1
gene 1 10 27 -0.785065 0 92 -0.785065 1
gene 1 10 28 0.139513 0 93 0.139513 1
gene 1 10 29 -2.08544 0 94 -2.08544 1
gene 1 10 30 2.2193 0 95 2.2193 1
gene 1 10 32 0.790537 0 97 0.790537 1
gene 1 10 35 3.18476 0 100 3.18476 1
gene 1 11 26 4.97849 0 101 4.97849 1
gene 1 11 29 -1.37171 0 104 -1.37171 1
gene 1 11 32 -1.14727 0 107 -1.14727 1
gene 1 11 34 5.29349 0 109 5.29349 1
gene 1 26 12 -0.463331 0 111 -0.463331 1
gene 1 26 13 7.93324 0 112 7.93324 1
gene 1 26 14 -2.33688 0 113 -2.33688 1
gene 1 26 15 7.65261 0 114 7.65261 1
gene 1 26 16 -6.37569 0 115 -6.37569 1
gene 1 26 17 -1.19376 0 116 -1.19376 1
gene 1 26 18 0.449059 0 117 0.449059 1
gene 1 26 19 -3.31459 0 118 -3.31459 1
gene 1 26 21 3.6571 0 120 3.6571 1
gene 1 26 22 1.22825 0 121 1.22825 1
gene 1 26 23 4.09314 0 122 4.09314 1
gene 1 27 12 -1.49547 0 125 -1.49547 1
gene 1 27 13 -1.14903 0 126 -1.14903 1
gene 1 27 14 -2.26177 0 127 -2.26177 1
gene 1 27 15 -1.58681 0 128 -1.58681 1
gene 1 27 18 -2.28523 0 131 -2.28523 1
gene 1 27 19 -6.88164 0 132 -6.88164 1
gene 1 27 20 4.68622 0 133 4.68622 1
gene 1 27 22 -1.79648 0 135 -1.79648 1
gene 1 27 23 2.61202 0 136 2.61202 1
gene 1 27 25 -2.53956 0 138 -2.53956 1
gene 1 28 12 1.95465 0 139 1.95465 1
gene 1 28 18 -4.13594 0 145 -4.13594 1
gene 1 28 19 1.78168 0 146 1.78168 1
gene 1 28 20 4.11377 0 147 4.11377 1
gene 1 28 21 -2.21126 0 148 -2.21126 1
gene 1 28 22 1.56181 0 149 1.56181 1
gene 1 28 23 -4.16348 0 150 -4.16348 1
gene 1 28 24 1.89432 0 151 1.89432 1
gene 1 28 25 -3.00586 0 152 -3.00586 1
gene 1 29 12 -1.24086 0 153 -1.24086 1
gene 1 29 14 -0.957284 0 155 -0.957284 1
gene 1 29 15 -2.48843 0 156 -2.48843 1
gene 1 29 16 -7.79123 0 157 -7.79123 1
gene 1 29 17 -0.480821 0 158 -0.480821 1
gene 1 29 18 1.51735 0 159 1.51735 1
gene 1 29 21 1.23197 0 162 1.23197 1
gene 1 29 22 1.04364 0 163 1.04364 1
gene 1 29 23 -0.0288942 0 164 -0.0288942 1
gene 1 30 12 -5.14702 0 167 -5.14702 1
gene 1 30 14 0.89013 0 169 0.89013 1
gene 1 30 15 -0.538422 0 170 -0.538422 1
gene 1 30 16 -0.724583 0 171 -0.724583 1
gene 1 30 17 -3.80618 0 172 -3.80618 1
gene 1 30 19 1.58108 0 174 1.58108 1
gene 1 30 20 4.75843 0 175 4.75843 1
gene 1 30 23 -5.57398 0 178 -5.57398 1
gene 1 32 12 0.400031 0 195 0.400031 1
gene 1 32 14 4.29882 0 197 4.29882 1
gene 1 32 16 0.552768 0 199 0.552768 1
gene 1 32 20 -2.35275 0 203 -2.35275 1
gene 1 32 21 -4.54425 0 204 -4.54425 1
gene 1 32 22 -3.0592 0 205 -3.0592 1
gene 1 32 23 -2.04237 0 206 -2.04237 1
gene 1 32 25 -4.29236 0 208 -4.29236 1
gene 1 34 12 2.64268 0 223 2.64268 1
gene 1 34 13 -0.0583839 0 224 -0.0583839 1
gene 1 34 16 -2.18382 0 227 -2.18382 1
gene 1 34 17 3.8776 0 228 3.8776 1
gene 1 34 18 -1.42298 0 229 -1.42298 1
gene 1 34 19 1.82852 0 230 1.82852 1
gene 1 34 20 2.11736 0 231 2.11736 1
gene 1 34 21 3.00744 0 232 3.00744 1
gene 1 34 22 -2.31123 0 233 -2.31123 1
gene 1 34 23 -5.71445 0 234 -5.71445 1
gene 1 34 24 -6.4664 0 235 -6.4664 1
gene 1 34 25 -0.818773 0 236 -0.818773 1
gene 1 35 13 0.113087 0 238 0.113087 1
gene 1 35 14 2.48875 0 239 2.48875 1
gene 1 35 15 0.673918 0 240 0.673918 1
gene 1 35 17 -1.84412 0 242 -1.84412 1
gene 1 35 18 -3.72639 0 243 -3.72639 1
gene 1 35 19 1.64922 0 244 1.64922 1
gene 1 35 20 -3.17867 0 245 -3.17867 1
gene 1 35 21 -2.25141 0 246 -2.25141 1
gene 1 35 24 0.577707 0 249 0.577707 1
gene 1 35 25 1.24853 0 250 1.24853 1
gene 1 25 23 1.54103 0 874 1.54103 1
gene 1 32 147 -1.9885 0 3229 -1.9885 1
gene 1 147 18 -2.02841 0 3230 -2.02841 1
gene 1 35 26 -2.14848 0 3430 -2.14848 1
gene 1 22 18 -2.75491 0 4510 -2.75491 1
gene 1 15 25 2.35739 0 4959 2.35739 1
gene 1 1 24 0.994134 0 5178 0.994134 1
gene 1 35 30 -2.64744 0 5361 -2.64744 1
gene 1 15 15 2.44221 1 5567 2.44221 1
gene 1 4 14 -0.944378 0 5768 -0.944378 1
gene 1 14 14 -0.686501 1 5970 -0.686501 1
gene 1 16 16 0.982206 1 9052 0.982206 1
gene 1 11 147 1.29052 0 9510 1.29052 1
gene 1 25 12 3.4432 0 10271 3.4432 1
gene 1 2 24 -2.21196 0 11357 -2.21196 1
gene 1 25 19 -0.444649 0 11945 -0.444649 1
gene 1 12 13 0.961651 0 12724 0.961651 1
gene 1 16 13 1.74059 0 17055 1.74059 1
gene 1 35 34 2.3835 0 20439 2.3835 1
gene 1 12 16 2.32522 0 20846 2.32522 1
gene 1 9 24 1.93131 0 21317 1.93131 1
gene 1 29 30 0.349524 0 21796 0.349524 1
gene 1 25 16 2.1435 0 23377 2.1435 1
gene 1 27 147 1.57353 1 26371 1.57353 1
gene 1 35 12 -1.26018 0 26683 -1.26018 1
gene 1 23 23 1.83826 1 29500 1.83826 1
gene 1 25 13 -0.254649 0 29950 -0.254649 1
gene 1 24 14 -1.11247 0 30123 -1.11247 1
gene 1 21 18 0.693175 0 31464 0.693175 1
gene 1 1 14 0.78983 0 32857 0.78983 1
gene 1 1 13 -0.419965 0 33197 -0.419965 1
gene 1 2 15 -0.227158 0 33805 -0.227158 1
gene 1 5 29 -1.40048 0 34364 -1.40048 1
gene 1 26 26 0.11998 1 34538 0.11998 1
gene 1 16 18 -1.76124 0 35238 -1.76124 1
gene 1 14 16 -0.880419 0 35472 -0.880419 1
gene 1 9 18 -0.886152 0 37173 -0.886152 1
gene 1 29 1360 1.12572 0 37892 1.12572 1
gene 1 1360 20 -2.06906 0 37893 -2.06906 1
gene 1 1 25 -0.312645 0 38099 -0.312645 1
gene 1 24 21 -0.938199 0 38451 -0.938199 1
gene 1 1121 147 -0.216795 0 38904 -0.216795 1
gene 1 10 147 0.204398 0 39349 0.204398 1
gene 1 147 13 -0.264209 0 39543 -0.264209 1
gene 1 15 17 0.804075 0 40107 0.804075 1
gene 1 19 18 -0.580659 0 40336 -0.580659 1
gene 1 1360 25 -0.731672 0 42517 -0.731672 1
gene 1 20 19 -1.9141 0 43757 -1.9141 1
gene 1 13 15 0.62536 1 44004 0.62536 1
gene 1 32 1360 -0.542985 0 44422 -0.542985 1
gene 1 10 14 0.0522314 0 44630 0.0522314 1
gene 1 11 1360 1.07828 0 45035 1.07828 1
gene 1 7 147 0.854102 0 47209 0.854102 1
gene 1 4 15 0.569782 0 47845 0.569782 1
gene 1 10 17 -0.204566 0 48610 -0.204566 1
gene 1 19 16 0.235673 0 49457 0.235673 1
gene 1 23 16 0.798025 0 49854 0.798025 1
gene 1 17 21 -2.44618 0 50269 -2.44618 1
gene 1 10 1809 0.463266 0 51411 0.463266 1
gene 1 25 22 0.287715 0 51629 0.287715 1
gene 1 6 25 0.529609 0 54298 0.529609 1
gene 1 11 16 -1.33058 0 55542 -1.33058 1
gene 1 1809 30 -0.158348 0 55746 -0.158348 1
gene 1 1809 1809 -0.493232 1 56102 -0.493232 1
gene 1 1121 32 0.458198 0 56686 0.458198 1
gene 1 11 35 0.582675 0 57122 0.582675 1
gene 1 1121 26 0.336197 1 58037 0.336197 1
gene 1 25 17 0.40225 0 58454 0.40225 1
gene 1 14 19 -0.900037 0 59066 -0.900037 1
gene 1 9 1360 -0.253861 0 59277 -0.253861 1
gene 1 1809 17 0.358239 0 59419 0.358239 1
gene 1 14 21 0.00285696 0 59918 0.00285696 1
gene 1 29 27 -0.555339 0 60036 -0.555339 1
gene 1 5 35 -0.323077 0 60239 -0.323077 1
gene 1 8 22 -0.268529 0 60744 -0.268529 1
gene 1 28 13 -0.906853 0 60857 -0.906853 1
gene 1 13 13 0.13651 1 61372 0.13651 1
gene 1 29 1809 0.302318 0 61591 0.302318 1
gene 1 17 17 0.766117 1 61843 0.766117 1
gene 1 30 30 -1.42485 1 62095 -1.42485 1
gene 1 13 26 0.898672 1 62810 0.898672 1
gene 1 7 2196 1.01668 0 63027 0.782304 1
gene 1 2196 32 0.27994 0 63028 0.106873 1
gene 1 6 24 -0.674786 0 63363 -0.674786 1
gene 1 22 147 -1.17564 0 63634 -1.17564 1
gene 1 4 1360 0.0623607 0 64209 0.0623607 1
gene 1 1 147 -0.251912 0 64425 -0.251912 1
gene 1 24 30 0.393104 0 65456 0.393104 1
gene 1 7 25 -0.072239 0 66099 -0.072239 1
gene 1 3 20 1.13819 0 66335 1.13819 1
gene 1 22 15 0.68502 1 66488 0.68502 1
gene 1 2196 15 -0.22993 0 66658 -0.22993 1
gene 1 7 1360 0.349293 0 66867 0.349293 1
gene 1 1121 26 -0.7393 0 67065 -0.7393 1
gene 1 34 30 -0.0255185 0 67332 -0.0255185 1
gene 1 1809 34 -0.0633389 0 67789 -0.0633389 1
gene 1 21 23 1.10627 0 68236 1.10627 1
gene 1 4 20 -0.28516 0 68458 -0.28516 1
gene 1 19 13 -0.447996 0 68845 -0.447996 1
gene 1 2196 21 0.022466 0 69276 0.022466 1
gene 1 147 147 0.271805 1 69614 0.271805 1
gene 1 32 17 -0.766103 0 70930 -0.766103 1
gene 1 29 29 0.349025 1 72062 0.349025 1
genomeend 80
