/* Organism #64788928 Fitness: -1.44503e+09 
genomestart 233
trait 1 0.936438 0.737434 0.477044 0.230811 0.0255316 0.677289 0.152507 0.541426 
node 1 1 0
node 2 1 1
node 3 1 1
node 4 1 1
node 5 1 1
node 6 1 1
node 7 1 1
node 8 1 1
node 9 1 1
node 10 1 1
node 11 1 1
node 12 1 2
node 13 1 2
node 14 1 2
node 15 1 2
node 16 1 2
node 17 1 2
node 18 1 2
node 19 1 2
node 20 1 2
node 21 1 2
node 22 1 2
node 23 1 2
node 24 1 2
node 25 1 2
node 26 1 3
node 34 1 3
node 1885 1 3
node 2285 1 3
node 2441 1 3
gene 1 1 26 7.41273 0 1 7.41273 1
gene 1 1 34 5.14113 0 9 5.14113 1
gene 1 2 34 2.26532 0 19 2.26532 1
gene 1 3 34 -2.18253 0 29 -2.18253 1
gene 1 4 26 0.727538 0 31 0.727538 1
gene 1 4 34 0.290652 0 39 0.290652 1
gene 1 5 34 4.12763 0 49 4.12763 1
gene 1 6 34 1.55888 0 59 1.55888 1
gene 1 7 34 -4.80273 0 69 -4.80273 1
gene 1 9 34 -3.08096 0 89 -3.08096 1
gene 1 10 34 -0.253047 0 99 -0.253047 1
gene 1 11 26 -0.409513 0 101 -0.409513 1
gene 1 11 34 -2.60289 0 109 -2.60289 1
gene 1 26 12 0.247705 0 111 0.247705 1
gene 1 26 15 -5.91606 0 114 -5.91606 1
gene 1 26 17 1.45679 0 116 1.45679 1
gene 1 26 18 -1.03792 0 117 -1.03792 1
gene 1 26 19 1.31923 0 118 1.31923 1
gene 1 26 20 -2.425 0 119 -2.425 1
gene 1 26 22 1.85173 0 121 1.85173 1
gene 1 26 24 1.79223 0 123 1.79223 1
gene 1 26 25 -1.22688 0 124 -1.22688 1
gene 1 34 17 -5.94 0 228 -5.94 1
gene 1 34 18 -2.36573 0 229 -2.36573 1
gene 1 34 21 -1.73374 0 232 -1.73374 1
gene 1 34 22 -5.10559 0 233 -5.10559 1
gene 1 34 24 -4.431 0 235 -4.431 1
gene 1 34 25 0.179098 0 236 0.179098 1
gene 1 13 21 3.80681 0 3376 3.80681 1
gene 1 21 21 -2.62449 1 4570 -2.62449 1
gene 1 7 23 3.46697 0 4798 3.46697 1
gene 1 4 21 -1.1022 0 5155 -1.1022 1
gene 1 16 16 -1.09599 1 6670 -1.09599 1
gene 1 22 12 -1.22953 0 7471 -1.22953 1
gene 1 18 15 1.39221 0 7698 1.39221 1
gene 1 23 21 1.71837 0 7891 1.71837 1
gene 1 7 25 -0.345968 0 8630 -0.345968 1
gene 1 18 18 0.851424 1 8690 0.851424 1
gene 1 6 19 1.05875 0 9274 1.05875 1
gene 1 22 22 1.89096 1 9646 1.89096 1
gene 1 1 15 -0.72099 0 12168 -0.72099 1
gene 1 9 16 -0.939791 0 12397 -0.939791 1
gene 1 13 13 0.120306 1 12678 0.120306 1
gene 1 19 15 -0.866932 0 12810 -0.866932 1
gene 1 16 12 -1.80085 0 13226 -1.80085 1
gene 1 9 12 1.94553 0 15387 1.94553 1
gene 1 17 25 4.08523 0 15784 4.08523 1
gene 1 6 23 -0.816735 0 17555 -0.816735 1
gene 1 24 19 -0.802244 0 17821 -0.802244 1
gene 1 23 18 0.286173 0 18510 0.286173 1
gene 1 8 13 0.226673 0 18573 0.226673 1
gene 1 9 18 1.45357 0 18857 1.45357 1
gene 1 2 24 -0.416611 0 19030 -0.416611 1
gene 1 13 18 1.87628 0 19739 1.87628 1
gene 1 17 15 1.17125 0 21108 1.17125 1
gene 1 20 17 0.135324 0 23812 0.135324 1
gene 1 7 18 0.994252 0 24150 0.994252 1
gene 1 12 18 1.14511 0 24586 1.14511 1
gene 1 20 20 -0.39232 1 25973 -0.39232 1
gene 1 34 34 2.21722 1 26406 2.21722 1
gene 1 1 16 -3.71115 0 27615 -3.71115 1
gene 1 8 23 -0.531962 0 28137 -0.531962 1
gene 1 11 14 1.63575 0 28862 1.63575 1
gene 1 20 25 -0.939426 0 29422 -0.939426 1
gene 1 5 15 -1.64342 0 29786 -1.64342 1
gene 1 1 23 0.254565 0 30781 0.254565 1
gene 1 15 15 -3.23134 1 31325 -3.23134 1
gene 1 15 14 -2.09649 0 32669 -2.09649 1
gene 1 7 21 -1.8283 0 34364 -1.8283 1
gene 1 3 12 0.059252 0 35501 0.059252 1
gene 1 7 20 -0.40973 0 35860 -0.40973 1
gene 1 24 17 1.70972 0 36429 1.70972 1
gene 1 3 23 1.12541 0 36588 1.12541 1
gene 1 14 14 -3.12394 1 37300 -3.12394 1
gene 1 5 12 1.80629 0 37776 1.80629 1
gene 1 18 16 0.121351 1 37996 0.121351 1
gene 1 11 18 0.268741 0 38207 0.268741 1
gene 1 4 16 0.470918 0 39621 0.470918 1
gene 1 3 20 1.54739 0 39801 1.54739 1
gene 1 13 16 0.705617 0 39981 0.705617 1
gene 1 15 21 -1.29524 0 40389 -1.29524 1
gene 1 12 12 -2.27842 1 40939 -2.27842 1
gene 1 24 21 1.31228 0 41274 1.31228 1
gene 1 1 21 -1.4606 0 41786 -1.4606 1
gene 1 19 12 0.798465 0 41992 0.798465 1
gene 1 4 18 -2.63036 0 42406 -2.63036 1
gene 1 20 22 -0.816223 0 43741 -0.816223 1
gene 1 19 19 3.18567 1 44413 3.18567 1
gene 1 6 14 0.445326 0 44847 0.445326 1
gene 1 15 13 1.64215 1 44971 1.64215 1
gene 1 11 19 0.589284 0 45162 0.589284 1
gene 1 10 19 0.45367 0 45681 0.45367 1
gene 1 25 12 0.413378 0 46544 0.413378 1
gene 1 17 18 1.37128 0 46800 1.37128 1
gene 1 2 1885 1.70112 0 46962 1.70112 1
gene 1 1885 19 0.398437 0 46963 0.398437 1
gene 1 9 19 2.41351 0 47310 2.41351 1
gene 1 8 16 -2.31459 0 47536 -2.31459 1
gene 1 23 20 0.340882 0 47824 0.340882 1
gene 1 20 23 -0.597127 1 48023 -0.597127 1
gene 1 13 12 -1.23507 0 48047 -1.23507 1
gene 1 23 25 -1.36148 0 48407 -1.36148 1
gene 1 7 26 -0.62944 0 48711 -0.62944 1
gene 1 1 20 0.493836 0 49444 0.493836 1
gene 1 23 14 1.73498 0 49612 1.73498 1
gene 1 18 21 1.43398 0 49783 1.43398 1
gene 1 22 17 1.70757 0 51711 1.70757 1
gene 1 1885 17 1.19211 0 51851 1.19211 1
gene 1 34 13 1.25612 0 52478 1.25612 1
gene 1 3 1885 0.347148 0 52578 0.347148 1
gene 1 26 16 -2.17754 0 53221 -2.17754 1
gene 1 19 13 0.50589 0 53357 0.50589 1
gene 1 14 21 0.370281 0 53634 0.370281 1
gene 1 1885 23 0.193598 0 55620 0.193598 1
gene 1 6 21 -0.277783 0 56191 -0.277783 1
gene 1 1885 1885 -1.16988 1 56270 -1.16988 1
gene 1 26 13 -1.00629 0 56492 -1.00629 1
gene 1 23 2285 -0.120031 0 56675 -0.120031 1
gene 1 2285 34 0.737045 0 56676 0.737045 1
gene 1 8 2285 -1.94291 0 57060 -1.94291 1
gene 1 25 18 -0.247616 0 57191 -0.247616 1
gene 1 12 15 0.76404 0 57495 0.76404 1
gene 1 11 12 -1.40367 0 58258 -1.40367 1
gene 1 9 13 -0.318166 0 58864 -0.318166 1
gene 1 8 15 1.08502 0 59375 1.08502 1
gene 1 20 24 -1.46686 0 59700 -1.46686 1
gene 1 4 13 1.27367 0 59877 1.27367 1
gene 1 1 18 -0.21269 0 60236 -0.21269 1
gene 1 19 2285 -0.350556 1 60389 -0.350556 1
gene 1 1885 13 -0.413744 0 60448 -0.413744 1
gene 1 5 2441 1.38446 0 60810 1.38446 1
gene 1 13 2441 -0.0593035 1 61056 -0.0593035 1
gene 1 7 2285 -1.50252 0 61354 -1.50252 1
gene 1 2 2441 -0.445762 0 61551 -0.445762 1
gene 1 24 24 1.19218 1 61741 1.19218 1
gene 1 22 15 0.0626436 0 62163 0.0626436 1
gene 1 26 26 -0.255074 1 62372 -0.255074 1
gene 1 24 23 0.247391 1 62764 0.247391 1
gene 1 7 17 1.07925 0 63130 1.07925 1
gene 1 1 13 -1.25763 0 63602 -1.25763 1
gene 1 9 20 -2.18964 0 63988 -2.18964 1
gene 1 10 25 -0.0988485 0 64167 -0.0988485 1
gene 1 10 15 -1.14378 0 64374 -1.14378 1
gene 1 12 2285 1.36764 1 64836 1.36764 1
gene 1 25 19 -0.708261 0 65023 -0.708261 1
gene 1 1885 2285 0.236275 0 66353 0.236275 1
gene 1 17 17 -0.722485 1 66505 -0.722485 1
gene 1 22 14 0.156696 0 66944 0.156696 1
genomeend 233
