/* Organism #140586862979112 Fitness: -2.29084e+07 
genomestart 552
trait 1 0.436644 0.805231 0 0.208171 0.949344 0 0.921137 0.214402 
node 1 1 0
node 2 1 1
node 3 1 1
node 4 1 1
node 5 1 1
node 6 1 1
node 7 1 1
node 8 1 1
node 9 1 1
node 10 1 1
node 11 1 1
node 12 1 2
node 13 1 2
node 14 1 2
node 15 1 2
node 16 1 2
node 17 1 2
node 18 1 2
node 19 1 2
node 20 1 2
node 21 1 2
node 22 1 2
node 23 1 2
node 24 1 2
node 25 1 2
node 31 1 3
node 33 1 3
node 35 1 3
node 202 1 3
node 230 1 3
node 1198 1 3
node 1314 1 3
node 1486 1 3
node 1783 1 3
node 2219 1 3
gene 1 1 33 -0.405758 0 8 -0.405758 1
gene 1 1 35 -2.80434 0 10 -2.80434 1
gene 1 2 35 -0.273604 0 20 -0.273604 1
gene 1 3 35 0.296658 0 30 0.296658 1
gene 1 4 33 -0.327687 0 38 -0.327687 1
gene 1 5 31 -7.08364 0 46 -7.08364 1
gene 1 6 31 0.386985 0 56 0.386985 1
gene 1 7 31 -4.52149 0 66 -4.52149 1
gene 1 8 33 -1.07226 0 78 -1.07226 1
gene 1 9 31 -1.91049 0 86 -1.91049 1
gene 1 9 33 -1.92809 0 88 -1.92809 1
gene 1 9 35 0.625462 0 90 0.625462 1
gene 1 10 33 0.0990675 0 98 0.0990675 1
gene 1 31 12 -1.16797 0 181 -1.16797 1
gene 1 31 13 1.71511 0 182 1.71511 1
gene 1 31 14 -7.15842 0 183 -7.15842 1
gene 1 31 17 -1.72116 0 186 -1.72116 1
gene 1 31 19 -0.516076 0 188 -0.516076 1
gene 1 31 20 6.6244 0 189 6.6244 1
gene 1 31 24 -0.17295 0 193 -0.17295 1
gene 1 31 25 1.75413 0 194 1.75413 1
gene 1 33 12 1.81685 0 209 1.81685 1
gene 1 33 14 0.21078 0 211 0.21078 1
gene 1 33 15 4.78502 0 212 4.78502 1
gene 1 33 16 1.89161 0 213 1.89161 1
gene 1 33 18 2.74262 0 215 2.74262 1
gene 1 33 19 4.69802 0 216 4.69802 1
gene 1 33 21 -3.61984 0 218 -3.61984 1
gene 1 33 22 -2.27519 0 219 -2.27519 1
gene 1 33 24 -3.22278 0 221 -3.22278 1
gene 1 33 25 -0.468085 0 222 -0.468085 1
gene 1 35 12 -5.50345 0 237 -5.50345 1
gene 1 35 13 3.225 0 238 3.225 1
gene 1 35 14 -0.986683 0 239 -0.986683 1
gene 1 35 15 -2.58025 0 240 -2.58025 1
gene 1 35 17 -5.76179 0 242 -5.76179 1
gene 1 35 19 -1.62129 0 244 -1.62129 1
gene 1 35 21 1.817 0 246 1.817 1
gene 1 35 24 -2.16754 0 249 -2.16754 1
gene 1 35 25 3.14576 0 250 3.14576 1
gene 1 6 14 -0.370693 0 2392 -0.370693 1
gene 1 5 230 4.20003 0 5740 4.20003 1
gene 1 230 33 5.68306 0 5741 5.68306 1
gene 1 20 24 1.01645 0 6348 1.01645 1
gene 1 9 16 -1.50043 0 6787 -1.50043 1
gene 1 11 202 0.392549 0 7396 0.392549 1
gene 1 5 33 0.0831643 0 8233 0.0831643 1
gene 1 2 23 0.587134 0 12758 0.587134 1
gene 1 16 16 0.609073 1 13707 0.609073 1
gene 1 23 23 -0.967908 1 17659 -0.967908 1
gene 1 1 21 -0.778494 0 18850 -0.778494 1
gene 1 24 21 -0.934856 0 20962 -0.934856 1
gene 1 8 21 -2.88236 0 23267 -2.88236 1
gene 1 21 20 -0.318941 1 24434 -0.318941 1
gene 1 24 17 -2.52429 0 24944 -2.52429 1
gene 1 230 14 0.0886676 0 25590 0.0886676 1
gene 1 8 13 -4.84648 0 25739 -4.84648 1
gene 1 31 21 -2.24015 0 26122 -2.24015 1
gene 1 25 18 -5.33336 0 26737 -5.33336 1
gene 1 7 22 0.757215 0 27570 0.757215 1
gene 1 9 17 0.359327 0 29432 0.359327 1
gene 1 19 19 -1.0371 1 29838 -1.0371 1
gene 1 8 1198 1.87293 0 30425 1.87293 1
gene 1 1198 35 -2.59496 0 30426 -2.59496 1
gene 1 16 20 0.572242 0 30629 0.572242 1
gene 1 14 12 -1.68869 0 33359 -1.68869 1
gene 1 1314 20 0.308692 0 33857 0.308692 1
gene 1 3 25 0.108885 0 34237 0.108885 1
gene 1 1198 33 0.577325 0 34628 0.577325 1
gene 1 14 25 -0.83253 0 36410 -0.83253 1
gene 1 8 31 -0.291383 0 37206 -0.291383 1
gene 1 13 19 -0.0786253 0 37921 -0.0786253 1
gene 1 7 1486 0.440064 0 39004 0.440064 1
gene 1 5 25 -0.55773 0 39410 -0.55773 1
gene 1 25 23 -0.253196 0 39632 -0.253196 1
gene 1 33 202 -1.64005 0 41400 -1.64005 1
gene 1 8 18 -1.62573 0 41841 -1.62573 1
gene 1 16 21 -1.19775 0 41950 -1.19775 1
gene 1 202 18 4.57046 0 44898 4.57046 1
gene 1 4 21 3.48497 0 45132 3.48497 1
gene 1 24 15 0.581088 0 45341 0.581088 1
gene 1 18 13 -1.24839 0 45540 -1.24839 1
gene 1 5 1198 -2.37671 0 45757 -2.37671 1
gene 1 35 20 -0.30963 0 46002 -0.30963 1
gene 1 7 19 2.15938 0 46159 2.15938 1
gene 1 16 202 2.11882 0 46676 2.11882 1
gene 1 33 1783 -0.684777 0 47192 -0.684777 1
gene 1 1783 23 -0.206009 0 47193 -0.206009 1
gene 1 5 202 -1.09034 0 47995 -1.09034 1
gene 1 35 18 -0.938355 0 48631 -0.938355 1
gene 1 14 14 4.40561 1 49255 4.40561 1
gene 1 3 1314 3.39126 0 50014 3.39126 1
gene 1 1783 1783 -0.784837 1 50414 -0.784837 1
gene 1 1486 23 0.0710662 0 50857 0.0710662 1
gene 1 13 33 -0.176941 1 50988 -0.176941 1
gene 1 21 230 -0.948718 1 52825 -0.948718 1
gene 1 1198 1486 0.846074 0 53034 0.846074 1
gene 1 1486 24 -1.04524 0 54217 -1.04524 1
gene 1 230 1486 -0.337834 0 54327 -0.337834 1
gene 1 1 31 0.751758 0 55111 0.751758 1
gene 1 202 19 -2.11028 0 55511 -2.11028 1
gene 1 1198 1198 -1.47496 1 56285 -1.47496 1
gene 1 17 21 -1.2687 0 56493 -1.2687 1
gene 1 33 17 0.331117 0 56887 0.331117 1
gene 1 1314 1314 1.37681 1 57298 1.37681 1
gene 1 7 1783 -2.8194 0 57501 -2.8194 1
gene 1 7 17 -0.366574 0 58298 -0.366574 1
gene 1 2 19 1.02331 0 58459 1.02331 1
gene 1 22 2219 1.2974 0 59088 1.2974 1
gene 1 2219 24 1.93114 0 59089 1.93114 1
gene 1 31 33 -0.0972436 0 59263 -0.0972436 1
gene 1 1486 1486 0.779958 1 59404 0.779958 1
gene 1 21 21 1.41323 1 60762 1.41323 1
gene 1 16 1486 -0.0531886 0 61372 -0.0531886 1
gene 1 21 1783 -0.168053 0 62013 -0.168053 1
gene 1 6 20 -2.11823 0 62231 -2.11823 1
gene 1 18 20 1.30378 0 62702 1.30378 1
gene 1 25 20 -1.1825 0 63032 -1.1825 1
gene 1 202 31 -0.0688209 1 63199 -0.0688209 1
gene 1 5 20 0.3493 0 64197 0.3493 1
gene 1 4 2219 0.264144 0 64621 0.264144 1
gene 1 230 17 -0.223009 0 65033 -0.223009 1
gene 1 22 15 -0.156169 0 65651 -0.156169 1
gene 1 11 17 -0.456412 0 65895 -0.456412 1
gene 1 2 22 0.427378 0 66238 0.427378 1
gene 1 3 22 0.723407 0 66930 0.723407 1
gene 1 14 18 -0.682592 0 67118 -0.682592 1
gene 1 2219 1486 -0.688603 0 67371 -0.688603 1
gene 1 24 23 0.24968 0 67441 0.24968 1
gene 1 2 17 -0.381348 0 67731 -0.381348 1
gene 1 2 1314 0.432502 0 67861 0.432502 1
gene 1 5 17 0.520227 0 68631 0.520227 1
gene 1 230 1198 -0.173577 0 68817 -0.173577 1
gene 1 20 20 0.56714 1 69037 0.56714 1
gene 1 15 13 0.00310487 0 70063 0.00310487 1
gene 1 11 12 0.560733 0 70273 0.560733 1
gene 1 15 15 -0.271649 1 70661 -0.271649 1
gene 1 6 1314 -0.60004 0 70869 -0.60004 1
gene 1 12 202 -0.400953 0 71163 -0.400953 1
genomeend 552
