/* Organism #57888688 Fitness: -2.29266e+07 
genomestart 389
trait 1 0.929237 0.156898 0.761003 0.991955 0.695794 0.296187 0.989221 0.056981 
node 1 1 0
node 2 1 1
node 3 1 1
node 4 1 1
node 5 1 1
node 6 1 1
node 7 1 1
node 8 1 1
node 9 1 1
node 10 1 1
node 11 1 1
node 12 1 2
node 13 1 2
node 14 1 2
node 15 1 2
node 16 1 2
node 17 1 2
node 18 1 2
node 19 1 2
node 20 1 2
node 21 1 2
node 22 1 2
node 23 1 2
node 24 1 2
node 25 1 2
node 27 1 3
node 28 1 3
node 31 1 3
node 32 1 3
node 604 1 3
node 1578 1 3
node 1586 1 3
gene 1 1 27 -3.02957 0 2 -3.02957 1
gene 1 1 28 2.16094 0 3 2.16094 1
gene 1 1 31 -2.9122 0 6 -2.9122 1
gene 1 2 27 3.89139 0 12 3.89139 1
gene 1 3 27 -3.0465 0 22 -3.0465 1
gene 1 3 28 4.87518 0 23 4.87518 1
gene 1 4 27 2.08503 0 32 2.08503 1
gene 1 4 28 2.10197 0 33 2.10197 1
gene 1 4 31 -2.6717 0 36 -2.6717 1
gene 1 4 32 -3.42648 0 37 -3.42648 1
gene 1 5 27 2.71251 0 42 2.71251 1
gene 1 5 31 1.76572 0 46 1.76572 1
gene 1 5 32 -6.16543 0 47 -6.16543 1
gene 1 6 27 -6.32927 0 52 -6.32927 1
gene 1 6 28 1.5246 0 53 1.5246 1
gene 1 6 32 -0.28438 0 57 -0.28438 1
gene 1 7 31 -3.96098 0 66 -3.96098 1
gene 1 7 32 3.20055 0 67 3.20055 1
gene 1 9 28 0.616506 0 83 0.616506 1
gene 1 9 31 1.00248 0 86 1.00248 1
gene 1 9 32 1.56403 0 87 1.56403 1
gene 1 10 27 4.78073 0 92 4.78073 1
gene 1 10 28 -1.15794 0 93 -1.15794 1
gene 1 10 31 0.485989 0 96 0.485989 1
gene 1 11 28 3.96204 0 103 3.96204 1
gene 1 11 31 -3.66259 0 106 -3.66259 1
gene 1 11 32 -1.80153 0 107 -1.80153 1
gene 1 27 12 2.71932 0 125 2.71932 1
gene 1 27 13 4.00297 0 126 4.00297 1
gene 1 27 14 -0.0719763 0 127 -0.0719763 1
gene 1 27 15 1.43313 0 128 1.43313 1
gene 1 27 17 -0.562647 0 130 -0.562647 1
gene 1 27 18 -4.2204 0 131 -4.2204 1
gene 1 27 20 3.6765 0 133 3.6765 1
gene 1 27 21 1.27855 0 134 1.27855 1
gene 1 27 24 -0.830421 0 137 -0.830421 1
gene 1 27 25 3.79281 0 138 3.79281 1
gene 1 28 12 7.61238 0 139 7.61238 1
gene 1 28 14 -1.23847 0 141 -1.23847 1
gene 1 28 21 1.51146 0 148 1.51146 1
gene 1 28 24 -2.536 0 151 -2.536 1
gene 1 28 25 0.297861 0 152 0.297861 1
gene 1 31 12 0.0376577 0 181 0.0376577 1
gene 1 31 14 -7.02439 0 183 -7.02439 1
gene 1 31 15 -3.80246 0 184 -3.80246 1
gene 1 31 16 2.78501 0 185 2.78501 1
gene 1 31 17 -4.73622 0 186 -4.73622 1
gene 1 31 18 0.357978 0 187 0.357978 1
gene 1 31 20 2.71191 0 189 2.71191 1
gene 1 31 21 0.775089 0 190 0.775089 1
gene 1 31 23 2.15044 0 192 2.15044 1
gene 1 31 25 1.37789 0 194 1.37789 1
gene 1 32 12 3.62402 0 195 3.62402 1
gene 1 32 13 0.241069 0 196 0.241069 1
gene 1 32 14 -2.8588 0 197 -2.8588 1
gene 1 32 15 -1.72484 0 198 -1.72484 1
gene 1 32 16 0.109262 0 199 0.109262 1
gene 1 32 17 -3.52937 0 200 -3.52937 1
gene 1 32 21 0.763047 0 204 0.763047 1
gene 1 32 22 7.76232 0 205 7.76232 1
gene 1 32 23 2.75454 0 206 2.75454 1
gene 1 32 25 -1.89324 0 208 -1.89324 1
gene 1 15 16 -2.76044 0 1171 -2.76044 1
gene 1 27 27 2.58306 1 1959 2.58306 1
gene 1 6 14 4.54662 0 8767 4.54662 1
gene 1 4 12 1.63262 0 9342 1.63262 1
gene 1 9 25 3.0592 0 9669 3.0592 1
gene 1 14 22 -3.98486 0 10098 -3.98486 1
gene 1 21 21 1.11872 1 10682 1.11872 1
gene 1 11 23 -0.974334 0 12507 -0.974334 1
gene 1 13 13 -0.922646 1 12832 -0.922646 1
gene 1 9 22 3.25425 0 13035 3.25425 1
gene 1 16 23 2.72837 0 14169 2.72837 1
gene 1 14 18 0.980172 0 14601 0.980172 1
gene 1 604 13 -1.15714 0 14782 -1.15714 1
gene 1 28 28 0.319026 1 15802 0.319026 1
gene 1 19 19 -0.534991 1 16846 -0.534991 1
gene 1 21 25 0.479699 0 19065 0.479699 1
gene 1 8 22 1.94462 0 19187 1.94462 1
gene 1 2 25 -0.691581 0 19575 -0.691581 1
gene 1 18 12 4.19828 0 20096 4.19828 1
gene 1 14 25 0.615202 0 21262 0.615202 1
gene 1 25 13 1.09821 0 22921 1.09821 1
gene 1 24 24 -2.5442 1 23313 -2.5442 1
gene 1 6 20 0.57253 0 23753 0.57253 1
gene 1 25 17 -0.90126 0 23970 -0.90126 1
gene 1 21 22 2.04547 0 24752 2.04547 1
gene 1 1 24 0.975652 0 25653 0.975652 1
gene 1 31 31 1.97047 1 25970 1.97047 1
gene 1 3 16 2.46314 0 26331 2.46314 1
gene 1 10 14 -0.240299 0 26805 -0.240299 1
gene 1 25 24 1.38835 0 28282 1.38835 1
gene 1 25 15 -2.69389 0 28469 -2.69389 1
gene 1 7 19 2.57125 0 28520 2.57125 1
gene 1 18 25 -0.566398 0 28953 -0.566398 1
gene 1 13 24 1.61537 0 29329 1.61537 1
gene 1 12 15 -0.138786 0 29579 -0.138786 1
gene 1 14 14 0.0313311 1 30183 0.0313311 1
gene 1 23 23 0.233068 1 30952 0.233068 1
gene 1 16 13 0.130018 0 31697 0.130018 1
gene 1 11 12 -0.375042 0 32753 -0.375042 1
gene 1 13 12 0.83204 0 34234 0.83204 1
gene 1 7 13 -0.131358 0 35221 -0.131358 1
gene 1 25 23 -1.55218 0 36661 -1.55218 1
gene 1 9 12 0.0620927 0 37074 0.0620927 1
gene 1 23 31 2.32029 1 37272 2.32029 1
gene 1 18 19 -0.831174 0 37394 -0.831174 1
gene 1 8 15 0.39852 0 37606 0.39852 1
gene 1 18 18 0.0507879 1 39041 0.0507879 1
gene 1 3 19 -1.99135 0 39576 -1.99135 1
gene 1 1578 23 -2.64511 0 40214 -2.64511 1
gene 1 27 1586 -0.0478194 0 40394 -0.194161 1
gene 1 17 17 0.908911 1 40606 0.908911 1
gene 1 1578 20 -0.48524 0 40860 -0.48524 1
gene 1 5 24 1.51748 0 41060 1.51748 1
gene 1 4 21 0.68899 0 41234 0.68899 1
gene 1 6 25 -0.437585 0 43009 -0.437585 1
gene 1 9 19 -0.378658 0 43232 -0.378658 1
gene 1 24 16 -0.634871 1 43435 -0.634871 1
gene 1 3 13 0.424056 0 43657 0.424056 1
gene 1 21 24 0.165118 0 44839 0.165118 1
gene 1 19 20 0.297318 0 45210 0.297318 1
gene 1 32 604 0.933678 0 45486 0.933678 1
gene 1 28 1578 -0.074786 0 45603 -0.074786 1
gene 1 16 19 -2.01469 1 46504 -2.01469 1
gene 1 4 24 0.563982 0 46710 0.563982 1
gene 1 11 16 -0.0352495 0 46917 -0.0352495 1
gene 1 7 27 -0.57653 0 47860 -0.57653 1
gene 1 1578 32 -0.770987 0 48715 -0.770987 1
gene 1 1 13 0.340187 0 49169 0.340187 1
gene 1 28 31 7.47896e-05 0 49423 7.47896e-05 1
gene 1 13 1586 0.632933 0 49600 0.632933 1
gene 1 1578 14 0.899707 0 49820 0.899707 1
gene 1 1 21 0.369566 0 50034 0.369566 1
gene 1 22 24 0.594506 0 50246 0.594506 1
gene 1 1586 1586 0.265988 1 50431 0.265988 1
gene 1 2 15 -0.331248 0 51311 -0.331248 1
gene 1 9 604 0.691754 0 51736 0.691754 1
gene 1 21 17 -0.115919 0 51926 -0.115919 1
gene 1 31 22 0.355103 0 52144 0.355103 1
gene 1 16 1586 0.191893 0 52730 0.191893 1
gene 1 8 604 -0.312788 0 52801 -0.312788 1
gene 1 6 1586 -1.14518 0 52898 -1.14518 1
gene 1 604 24 1.16088 0 53474 1.16088 1
gene 1 22 23 -0.0791779 0 53694 -0.0791779 1
gene 1 16 17 0.546141 0 54679 0.546141 1
gene 1 5 19 -0.470889 0 55651 -0.470889 1
gene 1 14 13 0.377841 0 56670 0.377841 1
gene 1 13 14 -2.09514 1 56863 -2.09514 1
gene 1 18 16 0.517628 0 56961 0.517628 1
gene 1 28 1586 -0.509833 0 57808 -0.509833 1
gene 1 22 22 -0.283328 1 58233 -0.283328 1
gene 1 1 32 -1.18327 0 58924 -1.18327 1
gene 1 18 15 -0.412586 0 59812 -0.412586 1
gene 1 19 12 -0.424414 0 60656 -0.424414 1
gene 1 5 18 0.584106 0 60773 0.584106 1
gene 1 15 23 0.0036428 0 61427 0.0036428 1
gene 1 4 13 0.374071 0 61606 0.374071 1
gene 1 1578 1586 0.877611 0 62938 0.877611 1
gene 1 9 15 -0.595885 0 63009 -0.595885 1
gene 1 1578 15 0.969559 0 63519 0.969559 1
gene 1 19 1586 -0.337112 0 63685 -0.337112 1
gene 1 18 23 0.406446 0 63912 0.406446 1
gene 1 10 32 0.172972 0 64292 0.172972 1
gene 1 22 16 -0.77308 0 64457 -0.77308 1
gene 1 2 18 -0.385865 0 66113 -0.385865 1
gene 1 20 604 -0.593637 0 66312 -0.593637 1
gene 1 32 31 0.221818 0 66548 0.221818 1
gene 1 4 604 0.0437729 0 67049 0.0437729 1
genomeend 389
