/* Organism #139962978469816 Fitness: -1.44051e+09 
genomestart 81
trait 1 0.771097 0.679782 0.828484 0.531208 0.682191 0 0.358921 0.461136 
node 1 1 0
node 2 1 1
node 3 1 1
node 4 1 1
node 5 1 1
node 6 1 1
node 7 1 1
node 8 1 1
node 9 1 1
node 10 1 1
node 11 1 1
node 12 1 2
node 13 1 2
node 14 1 2
node 15 1 2
node 16 1 2
node 17 1 2
node 18 1 2
node 19 1 2
node 20 1 2
node 21 1 2
node 22 1 2
node 23 1 2
node 24 1 2
node 25 1 2
node 27 1 3
node 28 1 3
node 30 1 3
node 31 1 3
node 32 1 3
node 834 1 3
node 1098 1 3
node 1195 1 3
node 1244 1 3
node 1267 1 3
node 1402 1 3
node 1502 1 3
node 1513 1 3
node 1598 1 3
node 1777 1 3
node 1948 1 3
node 2197 1 3
node 2482 1 3
gene 1 1 28 2.13279 0 3 2.13279 1
gene 1 1 30 8 0 5 8 1
gene 1 1 31 4.78357 0 6 4.78357 1
gene 1 1 32 1.94369 0 7 1.94369 1
gene 1 2 27 0.0308021 0 12 0.0308021 1
gene 1 2 28 8 0 13 8 1
gene 1 2 31 -0.714978 0 16 -0.714978 1
gene 1 4 27 -2.71507 0 32 -2.71507 1
gene 1 4 30 -3.37485 0 35 -3.37485 1
gene 1 4 32 -1.41698 0 37 -1.41698 1
gene 1 5 27 -1.10567 0 42 -1.10567 1
gene 1 5 28 -0.423173 0 43 -0.423173 1
gene 1 5 30 6.3063 0 45 6.3063 1
gene 1 5 31 -0.538263 0 46 -0.538263 1
gene 1 5 32 -0.421374 0 47 -0.421374 1
gene 1 6 28 0.228777 0 53 0.228777 1
gene 1 6 30 -0.521545 0 55 -0.521545 1
gene 1 6 32 -0.586744 0 57 -0.586744 1
gene 1 7 27 -1.14151 0 62 -1.14151 1
gene 1 7 30 -6.31876 0 65 -6.31876 1
gene 1 8 27 -1.62315 0 72 -1.62315 1
gene 1 8 28 -0.116531 0 73 -0.116531 1
gene 1 8 30 1.30243 0 75 1.30243 1
gene 1 8 31 0.703984 0 76 0.703984 1
gene 1 9 30 -4.04052 0 85 -4.04052 1
gene 1 9 31 -0.934127 0 86 -0.934127 1
gene 1 10 27 1.3547 0 92 1.3547 1
gene 1 10 28 -1.11333 0 93 -1.11333 1
gene 1 10 30 -1.90728 0 95 -1.90728 1
gene 1 10 32 0.811406 0 97 0.811406 1
gene 1 11 27 -3.00642 0 102 -3.00642 1
gene 1 11 28 -0.795196 0 103 -0.795196 1
gene 1 11 30 -2.06051 0 105 -2.06051 1
gene 1 11 31 -0.112886 0 106 -0.112886 1
gene 1 27 14 -2.10281 0 127 -2.10281 1
gene 1 27 15 -0.143636 0 128 -0.143636 1
gene 1 27 16 7.987 0 129 7.987 1
gene 1 27 17 2.99133 0 130 2.99133 1
gene 1 27 18 -0.63934 0 131 -0.63934 1
gene 1 27 20 6.72045 0 133 6.72045 1
gene 1 27 21 2.32914 0 134 2.32914 1
gene 1 27 22 -1.33248 0 135 -1.33248 1
gene 1 27 23 -1.14239 0 136 -1.14239 1
gene 1 27 25 -0.600538 0 138 -0.600538 1
gene 1 28 12 6.6119 0 139 6.6119 1
gene 1 28 13 -4.12996 0 140 -4.12996 1
gene 1 28 15 -4.72862 0 142 -4.72862 1
gene 1 28 16 1.22572 0 143 1.22572 1
gene 1 28 17 -0.537026 0 144 -0.537026 1
gene 1 28 18 -0.30205 0 145 -0.30205 1
gene 1 28 20 -6.04185 0 147 -6.04185 1
gene 1 28 21 0.641472 0 148 0.641472 1
gene 1 28 23 -0.49312 0 150 -0.49312 1
gene 1 30 12 -0.62095 0 167 -0.62095 1
gene 1 30 13 1.79292 0 168 1.79292 1
gene 1 30 14 4.2948 0 169 4.2948 1
gene 1 30 15 -1.71391 0 170 -1.71391 1
gene 1 30 16 1.23024 0 171 1.23024 1
gene 1 30 18 -0.499852 0 173 -0.499852 1
gene 1 30 19 -3.65198 0 174 -3.65198 1
gene 1 30 21 -2.19028 0 176 -2.19028 1
gene 1 30 22 -8 0 177 -8 1
gene 1 30 23 -3.87352 0 178 -3.87352 1
gene 1 30 24 -6.17593 0 179 -6.17593 1
gene 1 30 25 -8 0 180 -8 1
gene 1 31 12 -0.805957 0 181 -0.805957 1
gene 1 31 17 4.06038 0 186 4.06038 1
gene 1 31 18 5.23125 0 187 5.23125 1
gene 1 31 19 1.65166 0 188 1.65166 1
gene 1 31 20 0.242902 0 189 0.242902 1
gene 1 31 21 -1.00903 0 190 -1.00903 1
gene 1 31 22 0.217594 0 191 0.217594 1
gene 1 31 23 4.34554 0 192 4.34554 1
gene 1 31 24 0.101759 0 193 0.101759 1
gene 1 31 25 -2.50953 0 194 -2.50953 1
gene 1 32 13 1.04962 0 196 1.04962 1
gene 1 32 15 -4.60906 0 198 -4.60906 1
gene 1 32 18 -3.42355 0 201 -3.42355 1
gene 1 32 19 -1.41342 0 202 -1.41342 1
gene 1 32 20 -2.8574 0 203 -2.8574 1
gene 1 32 23 1.85203 0 206 1.85203 1
gene 1 32 25 -0.428192 0 208 -0.428192 1
gene 1 7 12 1.17982 0 3070 1.17982 1
gene 1 12 20 2.83577 0 3283 2.83577 1
gene 1 10 14 1.7504 0 5657 1.7504 1
gene 1 10 18 3.87648 0 6370 3.87648 1
gene 1 12 13 -1.70001 0 6737 -1.70001 1
gene 1 9 17 4.19156 0 7563 4.19156 1
gene 1 1 16 0.635482 0 10464 0.635482 1
gene 1 18 14 1.17691 0 10894 1.17691 1
gene 1 11 20 -4.72837 0 12514 -4.72837 1
gene 1 15 14 0.422502 0 13699 0.422502 1
gene 1 15 19 -0.84482 0 15482 -0.84482 1
gene 1 32 28 -0.479149 0 16304 -0.479149 1
gene 1 30 32 -1.36775 0 18093 -1.36775 1
gene 1 17 22 3.74105 0 18641 3.74105 1
gene 1 10 13 4.24744 0 18846 4.24744 1
gene 1 22 14 7.43087 0 20243 7.43087 1
gene 1 28 834 1.91551 0 21006 1.91551 1
gene 1 834 25 0.441823 0 21007 0.441823 1
gene 1 7 14 1.26415 0 21397 1.26415 1
gene 1 15 15 2.08068 1 22201 2.08068 1
gene 1 3 32 0.674667 0 23052 0.674667 1
gene 1 6 25 0.885715 0 23429 0.885715 1
gene 1 7 16 -5.68284 0 24164 -5.68284 1
gene 1 16 19 -0.846248 0 25229 -0.846248 1
gene 1 3 17 -5.02618 0 25424 -5.02618 1
gene 1 24 13 1.4501 0 26114 1.4501 1
gene 1 32 32 -0.235903 1 26696 -0.235903 1
gene 1 27 27 -3.52182 1 27538 -3.52182 1
gene 1 20 20 4.20724 1 27634 4.20724 1
gene 1 3 1098 -1.2406 0 28083 -1.2406 1
gene 1 1098 32 5.13457 0 28945 5.13457 1
gene 1 13 834 -0.987077 0 29148 -0.987077 1
gene 1 4 22 0.88221 0 29349 0.88221 1
gene 1 18 18 -2.2093 1 29741 -2.2093 1
gene 1 4 17 0.262974 0 29942 0.262974 1
gene 1 23 22 3.32392 0 30540 3.32392 1
gene 1 834 834 -4.08448 1 31059 -4.08448 1
gene 1 1098 16 -4.25117 0 31618 -4.25117 1
gene 1 22 1244 -0.114011 0 31865 -0.114011 1
gene 1 8 22 1.22872 0 32188 1.22872 1
gene 1 1267 17 -1.96899 0 32413 -1.96899 1
gene 1 25 25 -0.186441 1 32540 -0.186441 1
gene 1 13 22 0.193511 0 32995 0.193511 1
gene 1 6 1244 -0.349615 0 33892 -0.349615 1
gene 1 10 1267 -6.31082 0 34473 -6.31082 1
gene 1 1 25 -2.89463 0 35065 -2.89463 1
gene 1 7 21 0.603712 0 35503 0.603712 1
gene 1 9 1402 -2.98041 0 36342 -2.98041 1
gene 1 1402 13 1.88455 0 36343 1.88455 1
gene 1 24 834 -4.03764 0 36474 -4.03764 1
gene 1 834 1267 -2.84598 0 37450 -2.84598 1
gene 1 31 1267 0.74208 0 37659 0.74208 1
gene 1 18 1502 -3.16857 1 39126 -3.16857 1
gene 1 1502 21 2.20239 0 39127 2.20239 1
gene 1 1513 16 0.488217 0 39341 0.488217 1
gene 1 1513 17 -1.34032 0 39610 -1.34032 1
gene 1 23 16 1.03369 0 39736 1.03369 1
gene 1 2 15 -0.528161 0 39948 -0.528161 1
gene 1 834 1513 -0.92636 0 41552 -0.92636 1
gene 1 5 25 -2.49662 0 41728 -2.49662 1
gene 1 1244 1598 2.60056 0 41989 2.60056 1
gene 1 31 30 1.34647 0 42637 1.34647 1
gene 1 1195 12 0.33191 0 43697 0.33191 1
gene 1 1244 20 0.013668 0 44196 0.013668 1
gene 1 10 17 -2.23898 0 44795 -2.23898 1
gene 1 4 18 0.0243862 0 45423 0.0243862 1
gene 1 20 19 0.398255 0 46328 0.398255 1
gene 1 1195 32 -0.177955 0 46899 -0.177955 1
gene 1 1777 19 -0.00825606 0 47533 -0.00825606 1
gene 1 24 24 -2.01997 1 48147 -2.01997 1
gene 1 18 12 -1.74976 0 48386 -1.74976 1
gene 1 19 19 1.7767 1 48427 1.7767 1
gene 1 31 16 -1.58791 0 48802 -1.58791 1
gene 1 11 1777 -0.648216 0 50302 -0.648216 1
gene 1 10 1098 -0.525902 0 51788 -0.525902 1
gene 1 11 23 -1.29591 0 51971 -1.29591 1
gene 1 7 1948 1.15103 0 52403 1.15103 1
gene 1 1948 32 0.294541 0 52404 0.294541 1
gene 1 9 1598 -1.23432 0 52673 -1.23432 1
gene 1 2 22 2.71877 0 53128 2.71877 1
gene 1 23 21 -1.25621 0 53335 -1.25621 1
gene 1 1502 19 -1.42146 0 54374 -1.42146 1
gene 1 24 17 1.58076 0 54777 1.58076 1
gene 1 9 1948 1.98711 0 55186 1.98711 1
gene 1 8 23 -1.23359 0 56104 -1.23359 1
gene 1 7 15 0.605916 0 58912 0.605916 1
gene 1 3 1513 1.64769 0 59099 1.64769 1
gene 1 14 20 0.59592 0 59359 0.59592 1
gene 1 28 2197 2.72646 0 59771 2.72646 1
gene 1 2197 22 -1.37263 0 59772 -1.37263 1
gene 1 14 14 0.253727 1 60622 0.253727 1
gene 1 1777 13 0.603278 0 61322 0.603278 1
gene 1 21 15 -1.335 0 61475 -1.335 1
gene 1 1948 1948 -0.556166 1 61706 -0.556166 1
gene 1 1195 22 -0.838626 0 62357 -0.838626 1
gene 1 32 31 -0.00382258 1 62775 -0.00382258 1
gene 1 1267 21 0.337152 0 63217 0.337152 1
gene 1 27 1777 1.65508 0 63416 1.65508 1
gene 1 23 1502 0.808182 0 64078 0.808182 1
gene 1 10 1777 -0.159488 0 64508 -0.159488 1
gene 1 32 1502 0.323641 0 64753 0.323641 1
gene 1 17 16 0.709637 0 64994 0.709637 1
gene 1 1098 1948 0.498607 0 66077 0.498607 1
gene 1 31 1948 1.50718 0 67167 1.50718 1
gene 1 10 23 2.03628 0 67729 2.03628 1
gene 1 1195 834 -0.115345 0 67922 -0.115345 1
gene 1 7 2482 0.784825 0 68151 0.784825 1
gene 1 2482 31 -2.64153 0 68152 -2.64153 1
gene 1 8 1513 -0.650875 0 68469 -0.650875 1
gene 1 28 1402 0.461119 0 68887 0.461119 1
gene 1 1098 21 -0.469648 0 69573 -0.469648 1
gene 1 27 1513 -1.73 0 70018 -1.73 1
gene 1 1777 1502 0.956437 0 70489 0.956437 1
genomeend 81
