/* Organism #38101408 Fitness: -1.44332e+09 
genomestart 103
trait 1 0.983828 0.345709 1 0.0150404 0.826274 1 0.946822 0.00947954 
node 1 1 0
node 2 1 1
node 3 1 1
node 4 1 1
node 5 1 1
node 6 1 1
node 7 1 1
node 8 1 1
node 9 1 1
node 10 1 1
node 11 1 1
node 12 1 2
node 13 1 2
node 14 1 2
node 15 1 2
node 16 1 2
node 17 1 2
node 18 1 2
node 19 1 2
node 20 1 2
node 21 1 2
node 22 1 2
node 23 1 2
node 24 1 2
node 25 1 2
node 27 1 3
node 29 1 3
node 30 1 3
node 35 1 3
node 788 1 3
node 969 1 3
node 1066 1 3
node 1264 1 3
node 1520 1 3
node 1633 1 3
node 2338 1 3
node 2590 1 3
gene 1 1 27 4.57495 0 2 4.57495 1
gene 1 1 29 3.75222 0 4 3.75222 1
gene 1 1 30 6.26137 0 5 6.26137 1
gene 1 1 35 -0.628736 0 10 -0.628736 1
gene 1 2 29 -0.605495 0 14 -0.605495 1
gene 1 2 30 2.85779 0 15 2.85779 1
gene 1 2 35 1.33524 0 20 1.33524 1
gene 1 3 27 -1.77066 0 22 -1.77066 1
gene 1 3 29 -1.68851 0 24 -1.68851 1
gene 1 3 35 0.141669 0 30 0.141669 1
gene 1 4 29 -1.58646 0 34 -1.58646 1
gene 1 4 35 2.14875 0 40 2.14875 1
gene 1 5 29 1.61794 0 44 1.61794 1
gene 1 5 35 4.25591 0 50 4.25591 1
gene 1 6 30 0.64516 0 55 0.64516 1
gene 1 7 27 4.94645 0 62 4.94645 1
gene 1 7 35 -4.21521 0 70 -4.21521 1
gene 1 9 27 -1.95925 0 82 -1.95925 1
gene 1 9 35 2.04529 0 90 2.04529 1
gene 1 10 27 -1.57753 0 92 -1.57753 1
gene 1 10 35 1.72227 0 100 1.72227 1
gene 1 11 27 -0.134991 0 102 -0.134991 1
gene 1 11 29 4.7315 0 104 4.7315 1
gene 1 11 30 2.52433 0 105 2.52433 1
gene 1 11 35 1.37761 0 110 1.37761 1
gene 1 27 12 -0.991086 0 125 -0.991086 1
gene 1 27 14 -0.618445 0 127 -0.618445 1
gene 1 27 15 -2.06499 0 128 -2.06499 1
gene 1 27 17 -3.204 0 130 -3.204 1
gene 1 27 19 6.32364 0 132 6.32364 1
gene 1 27 21 1.59659 0 134 1.59659 1
gene 1 27 22 1.2863 0 135 1.2863 1
gene 1 27 23 -1.14365 0 136 -1.14365 1
gene 1 27 25 -1.52001 0 138 -1.52001 1
gene 1 29 12 7.54776 0 153 7.54776 1
gene 1 29 13 0.206594 0 154 0.206594 1
gene 1 29 14 0.345298 0 155 0.345298 1
gene 1 29 15 -0.580986 0 156 -0.580986 1
gene 1 29 16 -0.826215 0 157 -0.826215 1
gene 1 29 19 -2.86733 0 160 -2.86733 1
gene 1 29 22 -1.98066 0 163 -1.98066 1
gene 1 29 23 1.68469 0 164 1.68469 1
gene 1 29 25 0.348672 0 166 0.348672 1
gene 1 30 12 2.80532 0 167 2.80532 1
gene 1 30 16 -4.92272 0 171 -4.92272 1
gene 1 30 17 6.30856 0 172 6.30856 1
gene 1 30 18 2.39952 0 173 2.39952 1
gene 1 30 19 -0.943128 0 174 -0.943128 1
gene 1 30 20 -6.13717 0 175 -6.13717 1
gene 1 30 22 0.625834 0 177 0.625834 1
gene 1 30 23 -1.49138 0 178 -1.49138 1
gene 1 30 24 2.48607 0 179 2.48607 1
gene 1 30 25 0.452514 0 180 0.452514 1
gene 1 35 12 2.6056 0 237 2.6056 1
gene 1 35 14 0.265731 0 239 0.265731 1
gene 1 35 16 4.63414 0 241 4.63414 1
gene 1 35 17 0.910746 0 242 0.910746 1
gene 1 35 20 0.203311 0 245 0.203311 1
gene 1 35 21 -3.01774 0 246 -3.01774 1
gene 1 35 22 -3.18013 0 247 -3.18013 1
gene 1 35 23 1.58839 0 248 1.58839 1
gene 1 35 24 -6.04498 0 249 -6.04498 1
gene 1 35 25 -1.01577 0 250 -1.01577 1
gene 1 21 14 -5.33885 0 391 -5.33885 1
gene 1 14 14 -0.683512 1 471 -0.683512 1
gene 1 14 12 1.028 0 1947 1.028 1
gene 1 6 19 0.206672 0 2143 0.206672 1
gene 1 18 15 0.697645 0 2371 0.697645 1
gene 1 4 16 4.30418 0 5127 4.30418 1
gene 1 10 25 1.75002 0 8064 1.75002 1
gene 1 8 17 3.51004 0 8502 3.51004 1
gene 1 8 22 6.78102 0 8697 6.78102 1
gene 1 11 20 2.23959 0 8945 2.23959 1
gene 1 16 16 3.88678 1 9749 3.88678 1
gene 1 25 18 1.47132 0 10089 1.47132 1
gene 1 14 18 -1.20352 0 10316 -1.20352 1
gene 1 24 12 1.58089 0 11012 1.58089 1
gene 1 22 12 2.10806 0 12558 2.10806 1
gene 1 20 20 -0.983359 1 12827 -0.983359 1
gene 1 15 30 -2.79417 1 13097 -2.79417 1
gene 1 35 35 -1.53718 1 14499 -1.53718 1
gene 1 21 25 0.835803 0 14765 0.835803 1
gene 1 19 25 1.81408 0 15330 1.81408 1
gene 1 22 13 0.511875 0 18898 0.511875 1
gene 1 5 788 -1.73344 0 19573 -1.73344 1
gene 1 2 12 -2.63642 0 20048 -2.63642 1
gene 1 25 19 3.15213 1 20998 3.15213 1
gene 1 10 20 0.47702 0 21222 0.47702 1
gene 1 22 22 2.34017 1 22393 2.34017 1
gene 1 1 22 0.807396 0 23398 0.807396 1
gene 1 5 13 -0.532642 0 23613 -0.532642 1
gene 1 7 14 -1.15297 0 24025 -1.15297 1
gene 1 20 25 1.34913 0 25149 1.34913 1
gene 1 1 20 -2.46675 0 26779 -2.46675 1
gene 1 1066 29 0.920421 0 27551 0.920421 1
gene 1 8 25 -0.195866 0 27951 -0.195866 1
gene 1 19 20 0.971402 0 28309 0.971402 1
gene 1 788 788 -0.422415 1 29116 -0.422415 1
gene 1 21 21 -0.710345 1 29355 -0.710345 1
gene 1 1066 27 -1.84042 0 29854 -1.84042 1
gene 1 30 30 -2.21579 1 30048 -2.21579 1
gene 1 27 35 3.32249 0 31445 3.32249 1
gene 1 25 25 0.716755 1 32554 0.716755 1
gene 1 7 23 1.43261 0 33378 1.43261 1
gene 1 788 1264 -0.855274 0 33542 -0.855274 1
gene 1 12 788 -1.74035 0 33614 -1.74035 1
gene 1 5 22 -0.759347 0 34153 -0.759347 1
gene 1 1264 1264 -2.3682 1 36129 -2.3682 1
gene 1 10 21 -1.73919 0 36558 -1.73919 1
gene 1 29 27 1.0766 0 39460 1.0766 1
gene 1 16 24 0.729019 0 39665 0.729019 1
gene 1 9 21 0.923869 0 39947 0.923869 1
gene 1 18 1520 -0.14721 0 40359 -0.14721 1
gene 1 1520 23 2.2831 0 40360 2.2831 1
gene 1 16 20 -0.323846 0 41957 -0.323846 1
gene 1 2 13 0.898547 0 42342 0.898547 1
gene 1 2 15 0.129992 0 43355 0.129992 1
gene 1 21 15 0.406936 0 43563 0.406936 1
gene 1 11 1633 4.22197 0 43952 4.22197 1
gene 1 1633 13 -0.433275 0 43953 -0.433275 1
gene 1 5 1066 0.634075 0 44107 0.634075 1
gene 1 6 22 -0.652887 0 44763 -0.652887 1
gene 1 9 17 -0.511641 0 45630 -0.511641 1
gene 1 6 14 2.66206 0 46106 2.66206 1
gene 1 7 30 -1.38701 0 47719 -1.38701 1
gene 1 1 15 -1.23556 0 47843 -1.23556 1
gene 1 10 1520 -2.54621 0 48480 -2.54621 1
gene 1 1520 21 0.341452 1 48787 0.341452 1
gene 1 29 21 -1.52633 0 49221 -1.52633 1
gene 1 14 969 0.899065 0 49454 0.899065 1
gene 1 969 1520 -2.13873 0 50039 -2.13873 1
gene 1 1264 1520 -2.6773 0 50277 -2.6773 1
gene 1 20 13 -0.269862 0 50932 -0.269862 1
gene 1 969 15 0.661506 0 51255 0.661506 1
gene 1 1633 30 2.1303 0 51441 2.1303 1
gene 1 1633 24 2.27717 0 51883 2.27717 1
gene 1 3 1520 1.67483 0 52128 1.67483 1
gene 1 27 18 0.745991 0 52489 0.745991 1
gene 1 1520 20 -1.15103 1 52718 -1.15103 1
gene 1 1066 1066 0.740323 1 52804 0.740323 1
gene 1 5 16 -2.59361 0 53509 -2.59361 1
gene 1 1 12 -1.4631 0 53960 -1.4631 1
gene 1 1520 15 1.49831 0 54402 1.49831 1
gene 1 12 20 -0.752365 0 55397 -0.752365 1
gene 1 13 1633 -2.34215 1 56066 -2.34215 1
gene 1 9 969 -0.307818 0 56276 -0.307818 1
gene 1 3 24 -0.144387 0 56468 -0.144387 1
gene 1 3 788 2.47838 0 56689 2.47838 1
gene 1 8 18 3.09349 0 56822 3.09349 1
gene 1 29 29 -0.707135 1 57321 -0.707135 1
gene 1 24 22 1.2348 0 58648 1.2348 1
gene 1 1066 35 1.84681 0 59465 1.84681 1
gene 1 21 12 -0.130508 0 59693 -0.130508 1
gene 1 14 30 -0.48965 0 60615 -0.48965 1
gene 1 25 15 -0.380533 0 60743 -0.380533 1
gene 1 1 1520 0.619843 0 60990 0.619843 1
gene 1 12 13 0.148795 0 61346 0.148795 1
gene 1 5 1264 0.323537 0 61533 0.323537 1
gene 1 14 29 -0.663125 1 61770 -0.663125 1
gene 1 788 969 -0.00615724 0 62306 -0.00615724 1
gene 1 5 2338 -0.676392 0 63132 -0.676392 1
gene 1 2338 27 1.04058 0 63133 0.973668 1
gene 1 7 969 -0.555616 0 63349 -0.555616 1
gene 1 29 969 -0.259417 0 63502 -0.259417 1
gene 1 1520 13 0.543122 0 63514 0.543122 1
gene 1 2338 15 -0.22215 0 64330 -0.22215 1
gene 1 1264 23 -0.814112 0 64554 -0.814112 1
gene 1 17 30 -0.524348 1 64959 -0.524348 1
gene 1 35 13 -0.200478 0 65125 -0.200478 1
gene 1 22 27 -0.417213 1 65312 -0.417213 1
gene 1 16 1264 0.731702 0 66206 0.731702 1
gene 1 23 13 -1.25868 0 66437 -1.25868 1
gene 1 16 13 1.25005 0 67240 1.25005 1
gene 1 1 2338 0.127226 0 67428 0.127226 1
gene 1 969 969 -1.32691 1 67604 -1.32691 1
gene 1 13 13 0.780935 1 67821 0.780935 1
gene 1 10 24 -1.06471 0 68034 -1.06471 1
gene 1 1633 17 -0.354199 0 68443 -0.354199 1
gene 1 11 788 -0.57761 0 68872 -0.57761 1
gene 1 22 14 -0.0615004 1 69293 -0.0615004 1
gene 1 4 17 -0.601295 0 69525 -0.601295 1
gene 1 8 2590 1 0 69863 0 1
gene 1 2590 27 -0.643163 0 69864 0 1
gene 1 1633 21 0.842698 0 71026 0.842698 1
gene 1 2338 13 -0.0642856 0 71242 -0.0642856 1
genomeend 103
