/* Organism #26448064 Fitness: -2.29122e+07 
genomestart 323
trait 1 0.359452 0.562073 0.40026 0.734921 0.176485 0.303338 0.986513 0.28214 
node 1 1 0
node 2 1 1
node 3 1 1
node 4 1 1
node 5 1 1
node 6 1 1
node 7 1 1
node 8 1 1
node 9 1 1
node 10 1 1
node 11 1 1
node 12 1 2
node 13 1 2
node 14 1 2
node 15 1 2
node 16 1 2
node 17 1 2
node 18 1 2
node 19 1 2
node 20 1 2
node 21 1 2
node 22 1 2
node 23 1 2
node 24 1 2
node 25 1 2
node 27 1 3
node 28 1 3
node 31 1 3
node 33 1 3
node 377 1 3
node 940 1 3
node 2068 1 3
gene 1 1 27 1.1437 0 2 1.1437 1
gene 1 1 28 -1.253 0 3 -1.253 1
gene 1 1 33 -0.381235 0 8 -0.381235 1
gene 1 2 31 2.92112 0 16 2.92112 1
gene 1 2 33 0.625097 0 18 0.625097 1
gene 1 3 28 -0.683803 0 23 -0.683803 1
gene 1 3 33 0.171508 0 28 0.171508 1
gene 1 4 28 0.384564 0 33 0.384564 1
gene 1 4 31 1.04759 0 36 1.04759 1
gene 1 4 33 -1.32396 0 38 -1.32396 1
gene 1 5 27 0.630594 0 42 0.630594 1
gene 1 5 31 -3.87773 0 46 -3.87773 1
gene 1 6 27 -2.20344 0 52 -2.20344 1
gene 1 6 31 0.0512518 0 56 0.0512518 1
gene 1 6 33 -3.7215 0 58 -3.7215 1
gene 1 7 27 -1.01208 0 62 -1.01208 1
gene 1 7 31 2.60048 0 66 2.60048 1
gene 1 7 33 -2.51064 0 68 -2.51064 1
gene 1 8 27 3.07587 0 72 3.07587 1
gene 1 8 28 -0.589446 0 73 -0.589446 1
gene 1 8 31 1.58308 0 76 1.58308 1
gene 1 8 33 -0.569863 0 78 -0.569863 1
gene 1 9 27 0.539479 0 82 0.539479 1
gene 1 9 31 -1.02633 0 86 -1.02633 1
gene 1 9 33 -0.0467326 0 88 -0.0467326 1
gene 1 10 28 -0.930283 0 93 -0.930283 1
gene 1 10 31 -1.27494 0 96 -1.27494 1
gene 1 10 33 0.330355 0 98 0.330355 1
gene 1 11 31 -1.101 0 106 -1.101 1
gene 1 11 33 -0.94839 0 108 -0.94839 1
gene 1 27 12 0.343669 0 125 0.343669 1
gene 1 27 14 1.29174 0 127 1.29174 1
gene 1 27 16 2.8063 0 129 2.8063 1
gene 1 27 18 -1.42079 0 131 -1.42079 1
gene 1 27 19 -0.580048 0 132 -0.580048 1
gene 1 27 20 0.254742 0 133 0.254742 1
gene 1 27 22 -0.789455 0 135 -0.789455 1
gene 1 27 23 -2.55912 0 136 -2.55912 1
gene 1 27 24 -1.20825 0 137 -1.20825 1
gene 1 27 25 -1.66012 0 138 -1.66012 1
gene 1 28 12 1.3424 0 139 1.3424 1
gene 1 28 13 -0.993526 0 140 -0.993526 1
gene 1 28 15 2.29768 0 142 2.29768 1
gene 1 28 17 2.20787 0 144 2.20787 1
gene 1 28 19 0.725096 0 146 0.725096 1
gene 1 28 23 0.0657436 0 150 0.0657436 1
gene 1 28 24 2.09895 0 151 2.09895 1
gene 1 31 12 -4.63797 0 181 -4.63797 1
gene 1 31 13 1.72577 0 182 1.72577 1
gene 1 31 16 -0.388414 0 185 -0.388414 1
gene 1 31 17 1.15629 0 186 1.15629 1
gene 1 31 20 -0.562308 0 189 -0.562308 1
gene 1 31 21 0.276755 0 190 0.276755 1
gene 1 31 24 -0.219525 0 193 -0.219525 1
gene 1 33 12 0.286463 0 209 0.286463 1
gene 1 33 16 -0.510831 0 213 -0.510831 1
gene 1 33 17 -0.813058 0 214 -0.813058 1
gene 1 33 18 2.6352 0 215 2.6352 1
gene 1 33 20 2.31334 0 217 2.31334 1
gene 1 33 22 1.30947 0 219 1.30947 1
gene 1 33 24 -1.41098 0 221 -1.41098 1
gene 1 15 19 0.474508 0 729 0.474508 1
gene 1 7 13 -2.53211 0 4622 -2.53211 1
gene 1 18 24 -0.649117 0 6381 -0.649117 1
gene 1 17 21 2.55465 0 6602 2.55465 1
gene 1 25 25 0.537664 1 8732 0.537664 1
gene 1 8 377 1.3167 0 9503 1.31318 1
gene 1 17 27 -1.36272 1 10603 -1.36272 1
gene 1 1 22 -0.970433 0 12991 -0.970433 1
gene 1 7 25 -0.866906 0 13125 -0.866906 1
gene 1 15 22 -0.0363194 0 13824 -0.0363194 1
gene 1 2 14 -1.37757 0 14226 -1.37757 1
gene 1 5 20 -0.340767 0 14423 -0.340767 1
gene 1 17 17 -0.0538498 1 14618 -0.0538498 1
gene 1 12 21 0.228217 0 15550 0.228217 1
gene 1 33 31 0.802486 0 15694 0.802486 1
gene 1 377 18 0.294695 0 15807 0.294695 1
gene 1 24 14 -0.166842 0 16858 -0.166842 1
gene 1 4 21 -1.844 0 16998 -1.844 1
gene 1 21 23 -0.349245 0 17708 -0.349245 1
gene 1 5 13 0.815197 0 18942 0.815197 1
gene 1 6 21 -0.642533 0 19635 -0.642533 1
gene 1 33 33 -0.492939 1 19834 -0.492939 1
gene 1 3 21 1.0297 0 20238 1.0297 1
gene 1 11 13 -0.317258 0 20385 -0.317258 1
gene 1 9 22 0.665036 0 21173 0.665036 1
gene 1 12 22 0.485888 0 21860 0.485888 1
gene 1 18 16 -0.249771 0 22166 -0.249771 1
gene 1 15 25 0.146585 0 22368 0.146585 1
gene 1 377 22 -0.155737 0 22589 -0.155737 1
gene 1 5 16 0.0583087 0 22706 0.0583087 1
gene 1 18 20 1.26889 0 22988 1.26889 1
gene 1 9 940 0.991411 0 23784 0.976933 1
gene 1 16 22 0.214641 0 23977 0.214641 1
gene 1 21 25 0.202412 0 24195 0.202412 1
gene 1 10 19 1.82289 0 24396 1.82289 1
gene 1 12 12 0.203572 1 24596 0.203572 1
gene 1 23 23 -0.378502 1 24783 -0.378502 1
gene 1 3 19 0.635866 0 24918 0.635866 1
gene 1 21 21 -0.69227 1 25452 -0.69227 1
gene 1 940 31 -0.565574 0 27657 -0.565574 1
gene 1 12 16 0.0605473 0 28677 0.0605473 1
gene 1 377 31 -1.59249 0 29113 -1.59249 1
gene 1 16 23 -0.0690649 0 30070 -0.0690649 1
gene 1 14 23 0.0113987 0 30946 0.0113987 1
gene 1 6 12 0.278871 0 31152 0.278871 1
gene 1 18 18 1.15799 1 32776 1.15799 1
gene 1 24 24 0.450882 1 32936 0.450882 1
gene 1 4 12 0.608941 0 33075 0.608941 1
gene 1 6 25 0.247562 0 34682 0.247562 1
gene 1 5 25 -0.666913 0 36832 -0.666913 1
gene 1 940 22 0.92984 0 37386 0.92984 1
gene 1 24 15 -0.277664 0 37745 -0.277664 1
gene 1 12 25 0.351464 0 38456 0.351464 1
gene 1 19 19 -0.921139 1 39528 -0.921139 1
gene 1 8 17 0.31065 0 39778 0.31065 1
gene 1 25 22 0.951395 0 40061 0.951395 1
gene 1 31 31 0.592921 1 41258 0.592921 1
gene 1 2 15 0.0535742 0 42152 0.0535742 1
gene 1 5 22 -0.349922 0 44314 -0.349922 1
gene 1 11 19 -0.057902 0 44910 -0.057902 1
gene 1 1 940 1.0764 0 45322 1.0764 1
gene 1 10 18 -0.515656 0 45706 -0.515656 1
gene 1 9 19 -0.770308 0 45913 -0.770308 1
gene 1 1 24 -0.114929 0 46517 -0.114929 1
gene 1 11 23 -0.570834 0 47062 -0.570834 1
gene 1 14 14 0.865838 1 47844 0.865838 1
gene 1 15 15 -0.114117 1 49525 -0.114117 1
gene 1 940 940 0.272155 1 50856 0.272155 1
gene 1 7 12 0.640731 0 50964 0.640731 1
gene 1 16 14 0.837929 0 51499 0.837929 1
gene 1 5 18 0.394674 0 52108 0.394674 1
gene 1 27 27 -0.745078 1 52318 -0.745078 1
gene 1 5 23 -0.716133 0 52619 -0.716133 1
gene 1 16 16 0.363313 1 52672 0.363313 1
gene 1 4 16 -0.460392 0 53408 -0.460392 1
gene 1 5 19 -0.98339 0 53578 -0.98339 1
gene 1 377 20 0.379286 0 53741 0.379286 1
gene 1 20 14 -0.33026 0 54374 -0.33026 1
gene 1 13 24 -0.276281 0 54519 -0.276281 1
gene 1 19 2068 0.062994 0 54713 -0.155481 1
gene 1 11 12 0.356864 0 55480 0.356864 1
gene 1 33 23 -1.23721 0 57162 -1.23721 1
gene 1 8 20 0.489443 0 57389 0.489443 1
gene 1 28 33 -0.782092 0 57601 -0.782092 1
gene 1 12 15 0.206647 0 57885 0.206647 1
gene 1 11 24 -0.274023 0 58306 -0.274023 1
gene 1 17 18 0.211175 0 58449 0.211175 1
gene 1 11 16 0.887891 0 58826 0.887891 1
gene 1 11 14 0.529881 0 59132 0.529881 1
gene 1 21 14 0.862905 0 59246 0.862905 1
gene 1 28 28 0.258044 1 59584 0.258044 1
gene 1 31 15 -0.567761 0 59994 -0.567761 1
gene 1 8 23 0.705038 0 60210 0.705038 1
gene 1 2 19 -0.115427 0 60999 -0.115427 1
gene 1 24 25 -0.902386 0 61206 -0.902386 1
gene 1 377 33 0.381646 0 61861 0.381646 1
gene 1 10 377 -0.451528 0 62280 -0.451528 1
gene 1 4 24 0.994726 0 63452 0.994726 1
gene 1 2 28 0.716063 0 63653 0.716063 1
gene 1 17 16 -0.251084 0 64687 -0.251084 1
gene 1 3 18 -0.835077 0 64889 -0.835077 1
gene 1 2068 2068 -0.686058 1 64954 -0.686058 1
gene 1 9 16 -0.720546 0 65304 -0.720546 1
gene 1 7 19 -0.748088 0 65371 -0.748088 1
gene 1 16 28 0.35626 1 65705 0.35626 1
gene 1 2068 17 -0.600813 1 66125 -0.600813 1
gene 1 2 25 0.35599 0 66275 0.35599 1
gene 1 11 15 0.42539 0 66388 0.42539 1
gene 1 28 14 0.697285 0 67253 0.697285 1
gene 1 20 13 0.789663 0 67476 0.789663 1
gene 1 940 16 0.28755 0 69000 0.28755 1
gene 1 22 22 -0.269969 1 69225 -0.269969 1
gene 1 31 19 -0.715054 0 69918 -0.715054 1
genomeend 323
