/* Organism #47065344 Fitness: -34641.5 
genomestart 696
trait 1 0.0231941 0 0.848022 0.774724 0.712716 0.642183 0.536887 0.0458061 
node 1 1 0
node 2 1 1
node 3 1 1
node 4 1 1
node 5 1 1
node 6 1 1
node 7 1 1
node 8 1 1
node 9 1 1
node 10 1 1
node 11 1 1
node 12 1 2
node 13 1 2
node 14 1 2
node 15 1 2
node 16 1 2
node 17 1 2
node 18 1 2
node 19 1 2
node 20 1 2
node 21 1 2
node 22 1 2
node 23 1 2
node 24 1 2
node 25 1 2
node 29 1 3
node 33 1 3
node 34 1 3
node 510 1 3
node 1437 1 3
node 1705 1 3
node 2368 1 3
node 2546 1 3
gene 1 1 33 -0.772953 0 8 -0.772953 1
gene 1 1 34 3.10871 0 9 3.10871 1
gene 1 3 33 3.30029 0 28 3.30029 1
gene 1 4 29 -5.19499 0 34 -5.19499 1
gene 1 4 33 -3.08608 0 38 -3.08608 1
gene 1 4 34 1.63985 0 39 1.63985 1
gene 1 5 29 4.68888 0 44 4.68888 1
gene 1 5 33 -1.01782 0 48 -1.01782 1
gene 1 5 34 -1.59428 0 49 -1.59428 1
gene 1 6 29 0.0244749 0 54 0.0244749 1
gene 1 6 33 -1.56912 0 58 -1.56912 1
gene 1 6 34 0.387733 0 59 0.387733 1
gene 1 7 29 -1.10007 0 64 -1.10007 1
gene 1 7 33 -1.6267 0 68 -1.6267 1
gene 1 7 34 0.212029 0 69 0.212029 1
gene 1 9 33 1.46766 0 88 1.46766 1
gene 1 10 33 -4.15106 0 98 -4.15106 1
gene 1 11 29 0.695915 0 104 0.695915 1
gene 1 11 33 -0.717787 0 108 -0.717787 1
gene 1 11 34 1.02535 0 109 1.02535 1
gene 1 29 15 -5.74648 0 156 -5.74648 1
gene 1 29 16 -1.08434 0 157 -1.08434 1
gene 1 29 18 -0.497781 0 159 -0.497781 1
gene 1 29 19 -2.51172 0 160 -2.51172 1
gene 1 29 22 -0.865189 0 163 -0.865189 1
gene 1 29 24 0.297794 0 165 0.297794 1
gene 1 29 25 -2.33454 0 166 -2.33454 1
gene 1 33 12 -1.04257 0 209 -1.04257 1
gene 1 33 14 -2.70959 0 211 -2.70959 1
gene 1 33 15 -0.0969453 0 212 -0.0969453 1
gene 1 33 16 1.10087 0 213 1.10087 1
gene 1 33 18 -2.27439 0 215 -2.27439 1
gene 1 33 20 2.86646 0 217 2.86646 1
gene 1 33 21 2.87069 0 218 2.87069 1
gene 1 34 14 6.67929 0 225 6.67929 1
gene 1 34 15 4.13997 0 226 4.13997 1
gene 1 34 16 -2.38117 0 227 -2.38117 1
gene 1 34 18 -0.372319 0 229 -0.372319 1
gene 1 34 20 -0.55831 0 231 -0.55831 1
gene 1 34 21 1.01366 0 232 1.01366 1
gene 1 34 23 1.3642 0 234 1.3642 1
gene 1 19 21 -1.7144 0 795 -1.7144 1
gene 1 4 25 2.76569 0 1184 2.76569 1
gene 1 3 22 0.299048 0 1332 0.299048 1
gene 1 9 25 -1.54136 0 1534 -1.54136 1
gene 1 13 20 0.429454 0 1712 0.429454 1
gene 1 6 15 0.526379 0 2198 0.526379 1
gene 1 25 17 -0.579607 0 2401 -0.579607 1
gene 1 6 18 -0.63265 0 4558 -0.63265 1
gene 1 1 15 0.810941 0 4772 0.810941 1
gene 1 3 13 0.160998 0 7000 0.160998 1
gene 1 29 29 -4.21163 1 7569 -4.21163 1
gene 1 23 12 -0.0208885 0 8373 -0.0208885 1
gene 1 34 33 -2.01658 0 9881 -2.01658 1
gene 1 14 19 -0.455769 0 11062 -0.455769 1
gene 1 510 34 0.886185 0 12752 0.886185 1
gene 1 22 29 -0.618405 1 12945 -0.618405 1
gene 1 6 25 0.110219 0 14880 0.110219 1
gene 1 23 17 0.734086 0 16728 0.734086 1
gene 1 23 13 0.941041 0 18022 0.941041 1
gene 1 17 13 -0.4786 0 20135 -0.4786 1
gene 1 5 22 -0.041849 0 21603 -0.041849 1
gene 1 23 15 1.58464 0 21975 1.58464 1
gene 1 13 13 -1.29795 1 22800 -1.29795 1
gene 1 9 19 0.410572 0 24238 0.410572 1
gene 1 1 13 -1.79802 0 24421 -1.79802 1
gene 1 18 19 -1.56111 0 24983 -1.56111 1
gene 1 14 24 -0.939798 0 26743 -0.939798 1
gene 1 7 24 -0.835524 0 29804 -0.835524 1
gene 1 3 25 -0.904723 0 30029 -0.904723 1
gene 1 1 25 -0.619805 0 30590 -0.619805 1
gene 1 11 19 0.855075 0 31465 0.855075 1
gene 1 10 12 2.50256 0 32693 2.50256 1
gene 1 18 16 0.237816 0 32859 0.237816 1
gene 1 7 19 0.281105 0 33253 0.281105 1
gene 1 22 23 -2.35212 1 34217 -2.35212 1
gene 1 12 12 -0.0925092 1 36143 -0.0925092 1
gene 1 5 17 -0.0293411 0 36794 -0.0293411 1
gene 1 1437 29 -2.35006 0 36919 -2.35006 1
gene 1 34 34 0.235333 1 37252 0.235333 1
gene 1 510 24 -0.913217 0 39891 -0.913217 1
gene 1 12 14 -0.103907 0 40096 -0.103907 1
gene 1 510 22 -0.369792 0 40684 -0.369792 1
gene 1 25 25 0.203895 1 40819 0.203895 1
gene 1 15 16 -0.177885 0 41189 -0.177885 1
gene 1 8 23 0.124859 0 41222 0.124859 1
gene 1 17 14 1.05427 0 41665 1.05427 1
gene 1 13 25 -0.937574 1 42625 -0.937574 1
gene 1 2 25 0.75149 0 43194 0.75149 1
gene 1 14 14 -1.32577 1 43384 -1.32577 1
gene 1 16 1705 1.09287 1 43584 0.980522 1
gene 1 1705 16 -0.649524 0 43585 -0.537689 1
gene 1 20 16 1.16858 0 44645 1.16858 1
gene 1 12 22 -1.31902 0 45898 -1.31902 1
gene 1 1705 1437 -0.264931 0 46093 -0.264931 1
gene 1 20 21 1.15307 0 46504 1.15307 1
gene 1 14 1705 0.727556 1 47104 0.727556 1
gene 1 1705 29 1.12821 0 47324 1.12821 1
gene 1 19 19 1.1995 1 47700 1.1995 1
gene 1 24 24 -0.465292 1 48855 -0.465292 1
gene 1 4 20 0.0693377 0 49315 0.0693377 1
gene 1 1437 21 1.34525 0 50095 1.34525 1
gene 1 24 15 0.0610156 0 50322 0.0610156 1
gene 1 34 13 -0.908983 0 53003 -0.908983 1
gene 1 1705 23 -1.19583 0 53370 -1.19583 1
gene 1 2 1705 0.5742 0 54000 0.5742 1
gene 1 510 16 -0.189337 0 54685 -0.189337 1
gene 1 12 25 -0.450417 0 55084 -0.450417 1
gene 1 11 14 -0.32958 0 55846 -0.32958 1
gene 1 1437 1437 -0.569898 1 56049 -0.569898 1
gene 1 8 29 -0.303987 0 56282 -0.303987 1
gene 1 15 13 0.0667547 0 56363 0.0667547 1
gene 1 6 21 -0.375702 0 56791 -0.375702 1
gene 1 21 25 -0.297601 1 56960 -0.297601 1
gene 1 9 22 0.437938 0 57124 0.437938 1
gene 1 1437 16 0.625556 0 57377 0.625556 1
gene 1 29 21 0.573943 0 57719 0.573943 1
gene 1 25 14 0.837448 0 58121 0.837448 1
gene 1 29 12 -0.131292 0 58323 -0.131292 1
gene 1 7 16 -0.44322 0 59227 -0.44322 1
gene 1 8 22 -0.52054 0 59407 -0.52054 1
gene 1 1705 12 -0.505467 0 59532 -0.505467 1
gene 1 21 20 -1.00988 1 60796 -1.00988 1
gene 1 2368 23 0.261462 0 60957 -0.148666 1
gene 1 9 1437 -0.611106 0 61170 -0.611106 1
gene 1 24 18 0.779184 0 61427 0.779184 1
gene 1 6 17 -0.535102 0 61857 -0.535102 1
gene 1 3 1705 -0.800537 0 62262 -0.800537 1
gene 1 15 15 -0.234205 1 62472 -0.234205 1
gene 1 1437 20 -0.590018 0 62822 -0.590018 1
gene 1 22 16 0.386158 0 63366 0.386158 1
gene 1 3 20 -0.299562 0 63764 -0.299562 1
gene 1 7 510 0.531506 0 64074 0.531506 1
gene 1 21 1437 0.445814 1 64553 0.445814 1
gene 1 2 23 0.389841 0 64705 0.389841 1
gene 1 2368 17 -0.0134402 0 64905 -0.0134402 1
gene 1 22 18 0.188002 0 65316 0.188002 1
gene 1 510 2546 1 0 65794 0 1
gene 1 2546 17 0.468477 0 65795 0 1
gene 1 9 20 -0.0563737 0 66009 -0.0563737 1
gene 1 16 21 0.925915 0 66888 0.925915 1
gene 1 2546 1705 0.396568 0 67026 0.396568 1
gene 1 1705 1705 -0.558589 1 67495 -0.558589 1
gene 1 19 20 -0.164626 0 68112 -0.164626 1
genomeend 696
