/* Organism #65170704 Fitness: -32563.2 
genomestart 904
trait 1 0 0.511154 0 0.169609 0.852196 0.7689 1 1 
node 1 1 0
node 2 1 1
node 3 1 1
node 4 1 1
node 5 1 1
node 6 1 1
node 7 1 1
node 8 1 1
node 9 1 1
node 10 1 1
node 11 1 1
node 12 1 2
node 13 1 2
node 14 1 2
node 15 1 2
node 16 1 2
node 17 1 2
node 18 1 2
node 19 1 2
node 20 1 2
node 21 1 2
node 22 1 2
node 23 1 2
node 24 1 2
node 25 1 2
node 27 1 3
node 31 1 3
node 969 1 3
node 1215 1 3
node 1978 1 3
node 2403 1 3
node 2447 1 3
node 2525 1 3
gene 1 1 27 -6.62788 0 2 -6.62788 1
gene 1 1 31 1.28287 0 6 1.28287 1
gene 1 2 27 1.57484 0 12 1.57484 1
gene 1 3 31 -1.03148 0 26 -1.03148 1
gene 1 4 27 -1.09734 0 32 -1.09734 1
gene 1 5 31 6.28308 0 46 6.28308 1
gene 1 6 27 -0.0041342 0 52 -0.0041342 1
gene 1 6 31 1.35059 0 56 1.35059 1
gene 1 7 31 -2.35733 0 66 -2.35733 1
gene 1 8 27 2.00416 0 72 2.00416 1
gene 1 9 27 -2.08503 0 82 -2.08503 1
gene 1 10 27 -1.2245 0 92 -1.2245 1
gene 1 10 31 6.45478 0 96 6.45478 1
gene 1 11 31 -0.670511 0 106 -0.670511 1
gene 1 27 16 -7.39063 0 129 -7.39063 1
gene 1 27 18 3.38004 0 131 3.38004 1
gene 1 27 19 -1.53481 0 132 -1.53481 1
gene 1 27 20 4.28522 0 133 4.28522 1
gene 1 27 21 8 0 134 8 1
gene 1 27 23 -0.621079 0 136 -0.621079 1
gene 1 27 25 3.89808 0 138 3.89808 1
gene 1 31 12 4.08047 0 181 4.08047 1
gene 1 31 13 1.2489 0 182 1.2489 1
gene 1 31 15 0.615771 0 184 0.615771 1
gene 1 31 16 1.81401 0 185 1.81401 1
gene 1 31 19 -0.583861 0 188 -0.583861 1
gene 1 31 21 2.49567 0 190 2.49567 1
gene 1 31 23 5.26818 0 192 5.26818 1
gene 1 31 24 2.45938 0 193 2.45938 1
gene 1 13 14 0.711631 0 1328 0.711631 1
gene 1 5 14 3.42775 0 1729 3.42775 1
gene 1 21 25 5.36145 0 2676 5.36145 1
gene 1 12 25 -0.583795 0 4152 -0.583795 1
gene 1 2 24 -0.939155 0 4402 -0.939155 1
gene 1 4 25 3.87754 0 4561 3.87754 1
gene 1 6 15 -2.32478 0 5984 -2.32478 1
gene 1 1 23 -1.77499 0 6206 -1.77499 1
gene 1 20 19 1.15821 0 6728 1.15821 1
gene 1 19 15 -1.08949 0 7160 -1.08949 1
gene 1 14 21 0.478255 0 7359 0.478255 1
gene 1 13 16 2.11994 0 7519 2.11994 1
gene 1 12 20 -3.15935 0 7637 -3.15935 1
gene 1 9 25 0.281385 0 8270 0.281385 1
gene 1 24 21 0.331717 0 8629 0.331717 1
gene 1 1 22 1.47541 0 8687 1.47541 1
gene 1 11 25 3.48442 0 9640 3.48442 1
gene 1 7 22 -6.29657 0 10578 -6.29657 1
gene 1 14 15 -1.46339 0 11731 -1.46339 1
gene 1 25 25 0.960416 1 12509 0.960416 1
gene 1 5 20 -2.82621 0 13283 -2.82621 1
gene 1 17 13 3.87103 0 15406 3.87103 1
gene 1 5 23 6.91233 0 17206 6.91233 1
gene 1 1 16 -4.97322 0 17480 -4.97322 1
gene 1 6 23 -1.16433 0 17662 -1.16433 1
gene 1 17 22 0.00879525 0 18120 0.00879525 1
gene 1 1 24 -5.40023 0 20622 -5.40023 1
gene 1 3 18 2.37651 0 20837 2.37651 1
gene 1 13 13 -2.73656 1 21226 -2.73656 1
gene 1 3 22 5.63404 0 21755 5.63404 1
gene 1 24 16 -3.14426 0 22360 -3.14426 1
gene 1 18 969 3.59488 0 23321 3.59488 1
gene 1 10 15 3.00376 0 24473 3.00376 1
gene 1 8 14 -0.548201 0 24600 -0.548201 1
gene 1 2 16 -0.634671 0 25770 -0.634671 1
gene 1 1 17 -2.44285 0 26359 -2.44285 1
gene 1 31 27 -3.50071 0 31120 -3.50071 1
gene 1 21 31 -0.995154 1 31575 -0.995154 1
gene 1 6 16 1.02093 0 31991 1.02093 1
gene 1 4 14 -3.41752 0 33045 -3.41752 1
gene 1 13 19 -2.41693 0 33220 -2.41693 1
gene 1 11 23 4.39865 0 33477 4.39865 1
gene 1 15 15 0.116738 1 33643 0.116738 1
gene 1 17 17 0.488673 1 35088 0.488673 1
gene 1 9 16 1.50283 0 36344 1.50283 1
gene 1 19 22 1.16838 0 36793 1.16838 1
gene 1 31 1215 -1.56489 0 37598 -1.56489 1
gene 1 9 19 -1.629 0 37811 -1.629 1
gene 1 1215 18 -1.82294 0 38077 -1.82294 1
gene 1 24 969 2.09737 0 39882 2.09737 1
gene 1 1215 24 1.70815 0 40877 1.70815 1
gene 1 19 16 -1.69766 0 41957 -1.69766 1
gene 1 17 19 1.98453 0 42983 1.98453 1
gene 1 18 25 2.42278 0 46546 2.42278 1
gene 1 18 19 -3.2429 0 46867 -3.2429 1
gene 1 4 19 0.337571 0 47606 0.337571 1
gene 1 3 21 -1.36104 0 48197 -1.36104 1
gene 1 24 24 2.76106 1 48974 2.76106 1
gene 1 5 25 0.451792 0 49123 0.451792 1
gene 1 8 18 -2.21235 0 49552 -2.21235 1
gene 1 18 16 1.56427 0 50158 1.56427 1
gene 1 4 13 -1.48694 0 50346 -1.48694 1
gene 1 2 20 -6.67646 0 50702 -6.67646 1
gene 1 6 1978 -3.21813 0 50876 -3.21813 1
gene 1 1978 13 0.261622 0 50877 0.261622 1
gene 1 21 12 -0.168385 0 51810 -0.168385 1
gene 1 27 17 1.64268 0 51998 1.64268 1
gene 1 2 21 1.39239 0 52201 1.39239 1
gene 1 1978 1978 -2.5054 1 53585 -2.5054 1
gene 1 3 24 2.32836 0 53781 2.32836 1
gene 1 22 23 1.34202 0 54015 1.34202 1
gene 1 8 21 -1.86306 0 54542 -1.86306 1
gene 1 19 25 0.393491 0 54712 0.393491 1
gene 1 18 18 -1.84913 1 56316 -1.84913 1
gene 1 27 1215 2.16592 0 56644 2.16592 1
gene 1 9 20 -0.41805 0 57867 -0.41805 1
gene 1 12 12 1.21703 1 58089 1.21703 1
gene 1 16 16 0.514121 1 58255 0.514121 1
gene 1 12 19 0.592083 0 58812 0.592083 1
gene 1 31 31 -0.0378648 1 59190 -0.0378648 1
gene 1 1978 12 1.13762 0 59564 1.13762 1
gene 1 22 12 2.55966 1 59758 2.55966 1
gene 1 14 14 -3.40191 1 60588 -3.40191 1
gene 1 27 2403 1.11748 1 61369 1.11748 1
gene 1 17 18 4.06107 0 61523 4.06107 1
gene 1 2 22 -0.324251 0 61735 -0.324251 1
gene 1 4 1215 1.37781 0 61994 1.37781 1
gene 1 1978 25 -1.56339 0 62215 -1.56339 1
gene 1 27 2447 0.0410197 0 62532 0.0410197 1
gene 1 2447 22 0.0268074 0 62533 0.0268074 1
gene 1 3 19 0.150255 0 63141 0.150255 1
gene 1 27 31 0.174964 1 63988 0.174964 1
gene 1 12 17 0.480787 1 64511 0.480787 1
gene 1 4 17 0.182155 0 64917 0.182155 1
gene 1 6 2525 1.5929 0 65115 1.5929 1
gene 1 2525 19 -0.107448 0 65116 -0.107448 1
gene 1 2403 13 -0.398922 0 65662 -0.398922 1
gene 1 16 15 -0.483293 0 65816 -0.483293 1
gene 1 2525 16 2.85013 0 65966 2.85013 1
gene 1 23 2525 -0.12606 1 66203 -0.12606 1
gene 1 19 19 -0.386463 1 66702 -0.386463 1
gene 1 27 13 -0.724667 0 67303 -0.724667 1
gene 1 2403 2525 -1.70768 0 67576 -1.70768 1
gene 1 5 22 0.392003 0 67707 0.392003 1
genomeend 904
