/* Organism #139669005105160 Fitness: -32532.4 
genomestart 156
trait 1 1 0 0.541992 0.328039 0.431476 0.213403 0.568873 0.489415 
node 1 1 0
node 2 1 1
node 3 1 1
node 4 1 1
node 5 1 1
node 6 1 1
node 7 1 1
node 8 1 1
node 9 1 1
node 10 1 1
node 11 1 1
node 12 1 2
node 13 1 2
node 14 1 2
node 15 1 2
node 16 1 2
node 17 1 2
node 18 1 2
node 19 1 2
node 20 1 2
node 21 1 2
node 22 1 2
node 23 1 2
node 24 1 2
node 25 1 2
node 31 1 3
node 33 1 3
node 35 1 3
node 1188 1 3
node 1320 1 3
node 1799 1 3
node 2275 1 3
node 2534 1 3
gene 1 1 31 5.50959 0 6 5.50959 1
gene 1 1 33 7.13573 0 8 7.13573 1
gene 1 1 35 3.65284 0 10 3.65284 1
gene 1 2 33 -1.24494 0 18 -1.24494 1
gene 1 3 31 5.19929 0 26 5.19929 1
gene 1 3 33 2.06439 0 28 2.06439 1
gene 1 4 31 0.607598 0 36 0.607598 1
gene 1 4 33 -0.162 0 38 -0.162 1
gene 1 5 31 2.48429 0 46 2.48429 1
gene 1 5 33 6.35911 0 48 6.35911 1
gene 1 5 35 -0.692457 0 50 -0.692457 1
gene 1 6 35 0.906792 0 60 0.906792 1
gene 1 7 33 -7.4739 0 68 -7.4739 1
gene 1 8 33 -0.666448 0 78 -0.666448 1
gene 1 9 31 1.0803 0 86 1.0803 1
gene 1 9 33 -2.25355 0 88 -2.25355 1
gene 1 9 35 0.694969 0 90 0.694969 1
gene 1 10 31 4.57346 0 96 4.57346 1
gene 1 10 35 0.0459693 0 100 0.0459693 1
gene 1 11 33 -0.986545 0 108 -0.986545 1
gene 1 11 35 4.72895 0 110 4.72895 1
gene 1 31 12 1.16864 0 181 1.16864 1
gene 1 31 13 -1.44557 0 182 -1.44557 1
gene 1 31 14 -0.734241 0 183 -0.734241 1
gene 1 31 16 -7.14066 0 185 -7.14066 1
gene 1 31 19 -1.56915 0 188 -1.56915 1
gene 1 31 20 -1.873 0 189 -1.873 1
gene 1 31 23 1.26272 0 192 1.26272 1
gene 1 31 24 2.28051 0 193 2.28051 1
gene 1 33 12 6.43353 0 209 6.43353 1
gene 1 33 13 1.31308 0 210 1.31308 1
gene 1 33 14 0.762797 0 211 0.762797 1
gene 1 33 16 0.190015 0 213 0.190015 1
gene 1 33 17 -0.594235 0 214 -0.594235 1
gene 1 33 18 -0.332303 0 215 -0.332303 1
gene 1 33 23 2.95984 0 220 2.95984 1
gene 1 33 24 -7.36175 0 221 -7.36175 1
gene 1 33 25 -1.54192 0 222 -1.54192 1
gene 1 35 12 -0.139288 0 237 -0.139288 1
gene 1 35 13 -5.14308 0 238 -5.14308 1
gene 1 35 14 -3.69685 0 239 -3.69685 1
gene 1 35 15 0.131607 0 240 0.131607 1
gene 1 35 16 0.960864 0 241 0.960864 1
gene 1 35 17 -2.02444 0 242 -2.02444 1
gene 1 35 18 -2.31066 0 243 -2.31066 1
gene 1 35 19 2.5076 0 244 2.5076 1
gene 1 35 21 -0.90131 0 246 -0.90131 1
gene 1 35 23 0.982419 0 248 0.982419 1
gene 1 35 24 -2.44345 0 249 -2.44345 1
gene 1 8 19 -0.184831 0 3888 -0.184831 1
gene 1 22 14 -2.03024 0 4095 -2.03024 1
gene 1 22 15 -0.756307 0 4669 -0.756307 1
gene 1 11 12 -1.35855 0 6997 -1.35855 1
gene 1 12 12 -0.853744 1 7189 -0.853744 1
gene 1 2 13 -1.52222 0 8528 -1.52222 1
gene 1 6 22 0.382035 0 8807 0.382035 1
gene 1 10 13 0.80236 0 9265 0.80236 1
gene 1 16 14 -0.797773 0 9468 -0.797773 1
gene 1 12 14 -1.68739 0 9625 -1.68739 1
gene 1 21 21 1.60797 1 10013 1.60797 1
gene 1 19 12 0.767355 0 10496 0.767355 1
gene 1 5 21 -1.77601 0 10692 -1.77601 1
gene 1 1 20 1.65801 0 12252 1.65801 1
gene 1 20 20 -3.95161 1 13153 -3.95161 1
gene 1 18 23 0.855788 0 13436 0.855788 1
gene 1 21 23 -0.387389 0 13650 -0.387389 1
gene 1 35 35 -0.622737 1 13837 -0.622737 1
gene 1 9 16 -2.23698 0 14587 -2.23698 1
gene 1 17 20 -2.39202 0 15364 -2.39202 1
gene 1 13 25 3.81529 0 16334 3.81529 1
gene 1 23 17 3.71945 0 17434 3.71945 1
gene 1 1 14 -0.396805 0 19199 -0.396805 1
gene 1 1 21 -0.82492 0 19968 -0.82492 1
gene 1 19 18 -7.54268 0 20423 -7.54268 1
gene 1 7 15 -5.62311 0 20470 -5.62311 1
gene 1 8 13 0.530433 0 21263 0.530433 1
gene 1 3 18 2.23358 0 22371 2.23358 1
gene 1 18 14 -1.90655 0 22740 -1.90655 1
gene 1 33 33 2.36675 1 23899 2.36675 1
gene 1 13 15 1.52349 0 24075 1.52349 1
gene 1 13 13 -1.35707 1 24255 -1.35707 1
gene 1 11 18 0.434234 0 25385 0.434234 1
gene 1 31 31 1.06451 1 25596 1.06451 1
gene 1 25 14 -1.86821 0 27339 -1.86821 1
gene 1 3 21 -0.897253 0 28454 -0.897253 1
gene 1 25 12 1.20059 0 29033 1.20059 1
gene 1 1188 35 -2.96196 0 29513 -2.96196 1
gene 1 11 21 -0.684931 0 29788 -0.684931 1
gene 1 31 18 -2.65229 0 29984 -2.65229 1
gene 1 9 24 0.686417 0 30101 0.686417 1
gene 1 22 22 -1.11202 1 30718 -1.11202 1
gene 1 21 15 -2.10958 0 31259 -2.10958 1
gene 1 8 31 0.058647 0 31836 0.058647 1
gene 1 7 12 -1.40737 0 32227 -1.40737 1
gene 1 10 1320 3.22615 0 32757 3.22615 1
gene 1 1320 14 -1.30536 0 32758 -1.30536 1
gene 1 1320 13 0.0738739 0 33000 0.0738739 1
gene 1 9 20 -0.664949 0 33516 -0.664949 1
gene 1 17 16 4.65231 0 34305 4.65231 1
gene 1 24 18 0.593369 0 35990 0.593369 1
gene 1 11 15 2.71986 0 36224 2.71986 1
gene 1 33 1320 -5.21658 0 36389 -5.21658 1
gene 1 19 19 0.0370473 1 36547 0.0370473 1
gene 1 12 18 2.12634 0 36723 2.12634 1
gene 1 16 16 -0.753957 1 36931 -0.753957 1
gene 1 4 19 -0.0204871 0 37417 -0.0204871 1
gene 1 11 13 0.138938 0 37825 0.138938 1
gene 1 19 22 -3.4366 0 38030 -3.4366 1
gene 1 1 1188 -5.51385 0 39234 -5.51385 1
gene 1 4 12 1.72942 0 40516 1.72942 1
gene 1 33 22 -0.978191 0 41623 -0.978191 1
gene 1 1188 31 -0.690408 0 42798 -0.690408 1
gene 1 15 20 0.229478 0 43012 0.229478 1
gene 1 9 25 0.421198 0 44042 0.421198 1
gene 1 9 13 -7.00889 0 44665 -7.00889 1
gene 1 9 23 -0.922507 0 45022 -0.922507 1
gene 1 15 1320 2.88005 1 45172 2.88005 1
gene 1 9 1799 -0.290315 0 45406 -0.290315 1
gene 1 1188 12 -2.07025 0 46764 -2.07025 1
gene 1 18 18 1.91994 1 47867 1.91994 1
gene 1 1799 35 -0.0606749 0 48080 -0.0606749 1
gene 1 31 15 0.899553 0 48223 0.899553 1
gene 1 19 14 3.06534 0 48417 3.06534 1
gene 1 11 19 -2.88072 0 48670 -2.88072 1
gene 1 1320 12 -0.13649 0 48807 -0.13649 1
gene 1 3 12 0.0345283 0 49593 0.0345283 1
gene 1 1 17 -0.194987 0 50170 -0.194987 1
gene 1 24 24 -2.96491 1 50512 -2.96491 1
gene 1 5 18 -0.5248 0 50748 -0.5248 1
gene 1 7 1320 0.168925 0 50968 0.168925 1
gene 1 15 15 0.650251 1 51502 0.650251 1
gene 1 3 1799 -1.52779 0 51864 -1.52779 1
gene 1 1188 13 -0.456628 0 52305 -0.456628 1
gene 1 24 22 -1.57446 0 52736 -1.57446 1
gene 1 21 18 -0.769899 0 52861 -0.769899 1
gene 1 6 18 0.543655 0 54956 0.543655 1
gene 1 11 1320 0.0739599 0 55153 0.0739599 1
gene 1 5 22 -0.461094 0 55770 -0.461094 1
gene 1 6 15 0.16291 0 55966 0.16291 1
gene 1 17 35 0.012387 1 56323 0.012387 1
gene 1 24 21 1.20181 0 56932 1.20181 1
gene 1 31 2275 -0.660957 0 57148 -0.660957 1
gene 1 33 1799 0.10791 0 57864 0.10791 1
gene 1 7 21 -0.219769 0 58744 -0.219769 1
gene 1 1188 23 0.275312 0 59156 0.275312 1
gene 1 24 25 -1.76376 0 59735 -1.76376 1
gene 1 18 17 -2.999 0 59900 -2.999 1
gene 1 35 31 1.41454 0 60061 1.41454 1
gene 1 25 21 -3.05008 0 60229 -3.05008 1
gene 1 25 18 0.905086 0 60456 0.905086 1
gene 1 13 16 -1.28162 0 60632 -1.28162 1
gene 1 2275 2275 0.460938 1 60817 0.460938 1
gene 1 23 23 -0.693095 1 62162 -0.693095 1
gene 1 8 12 1.95491 0 62400 1.95491 1
gene 1 1188 1188 -1.18944 1 62781 -1.18944 1
gene 1 6 2275 1.27395 0 63739 1.27395 1
gene 1 1320 1320 -1.19646 1 64308 -1.19646 1
gene 1 19 2534 1.44112 0 64480 1.44112 1
gene 1 2534 25 -3.13439 0 64481 -1.5672 1
gene 1 18 2275 0.660708 0 65140 0.660708 1
gene 1 15 31 0.673036 1 65361 0.673036 1
gene 1 17 12 -0.217322 1 65627 -0.217322 1
gene 1 23 1799 -0.75194 1 65678 -0.75194 1
gene 1 14 14 -0.262936 1 65860 -0.262936 1
gene 1 2275 20 -0.616811 0 66234 -0.616811 1
gene 1 31 1320 0.837942 0 66680 0.837942 1
genomeend 156
