/* Organism #140042795722760 Fitness: -32498.4 
genomestart 783
trait 1 0.639985 0.0442386 0.446486 0.0941099 1 0.587539 0.999736 0.486773 
node 1 1 0
node 2 1 1
node 3 1 1
node 4 1 1
node 5 1 1
node 6 1 1
node 7 1 1
node 8 1 1
node 9 1 1
node 10 1 1
node 11 1 1
node 12 1 2
node 13 1 2
node 14 1 2
node 15 1 2
node 16 1 2
node 17 1 2
node 18 1 2
node 19 1 2
node 20 1 2
node 21 1 2
node 22 1 2
node 23 1 2
node 24 1 2
node 25 1 2
node 33 1 3
node 2219 1 3
node 2230 1 3
node 2305 1 3
gene 1 1 33 5.39727 0 8 5.39727 1
gene 1 4 33 -2.15025 0 38 -2.15025 1
gene 1 6 33 4.19056 0 58 4.19056 1
gene 1 7 33 -0.93094 0 68 -0.93094 1
gene 1 9 33 5.49293 0 88 5.49293 1
gene 1 33 12 3.50262 0 209 3.50262 1
gene 1 33 16 -4.85014 0 213 -4.85014 1
gene 1 33 17 0.910458 0 214 0.910458 1
gene 1 33 21 -6.45438 0 218 -6.45438 1
gene 1 33 22 -3.10354 0 219 -3.10354 1
gene 1 33 23 -3.54295 0 220 -3.54295 1
gene 1 33 24 -4.94642 0 221 -4.94642 1
gene 1 15 17 -0.00624165 0 2072 -0.00624165 1
gene 1 23 23 1.39551 1 4349 1.39551 1
gene 1 12 16 -0.071882 0 6013 -0.071882 1
gene 1 22 13 6.14397 0 9650 6.14397 1
gene 1 13 21 0.233965 0 9999 0.233965 1
gene 1 15 14 -0.0781602 0 12303 -0.0781602 1
gene 1 4 16 -0.744937 0 12943 -0.744937 1
gene 1 18 16 -2.11037 0 14039 -2.11037 1
gene 1 14 14 -8 1 14224 -8 1
gene 1 18 18 -1.06445 1 15141 -1.06445 1
gene 1 11 22 -1.08025 0 16703 -1.08025 1
gene 1 18 20 1.34577 0 16767 1.34577 1
gene 1 5 15 -1.60866 0 17169 -1.60866 1
gene 1 24 17 -1.09855 0 17711 -1.09855 1
gene 1 9 17 1.56513 0 19869 1.56513 1
gene 1 12 15 -0.961116 0 20026 -0.961116 1
gene 1 4 14 1.69756 0 20791 1.69756 1
gene 1 14 18 1.52449 0 22109 1.52449 1
gene 1 10 24 -5.86096 0 22386 -5.86096 1
gene 1 23 20 -1.42378 0 23170 -1.42378 1
gene 1 12 14 1.5401 0 23371 1.5401 1
gene 1 23 18 0.401668 0 23767 0.401668 1
gene 1 7 15 1.87226 0 23987 1.87226 1
gene 1 10 14 3.83348 0 24082 3.83348 1
gene 1 24 22 2.0484 0 24998 2.0484 1
gene 1 11 23 -1.40742 0 25425 -1.40742 1
gene 1 15 21 1.70563 0 25623 1.70563 1
gene 1 20 20 -0.985952 1 25796 -0.985952 1
gene 1 10 25 -4.17079 0 27377 -4.17079 1
gene 1 25 15 -0.617266 0 29299 -0.617266 1
gene 1 9 16 -0.0259189 0 29450 -0.0259189 1
gene 1 33 33 1.60701 1 29850 1.60701 1
gene 1 14 21 0.112663 0 30238 0.112663 1
gene 1 1 21 0.70049 0 32642 0.70049 1
gene 1 24 13 0.698797 0 35338 0.698797 1
gene 1 3 22 0.786317 0 35715 0.786317 1
gene 1 22 17 0.953958 0 37262 0.953958 1
gene 1 22 15 3.21006 0 37846 3.21006 1
gene 1 1 19 3.2128 0 38230 3.2128 1
gene 1 23 17 3.04698 0 39180 3.04698 1
gene 1 1 20 -3.60291 0 40490 -3.60291 1
gene 1 21 18 -3.77453 0 41269 -3.77453 1
gene 1 10 21 -1.68877 0 41855 -1.68877 1
gene 1 1 23 0.972766 0 44110 0.972766 1
gene 1 12 19 -4.12198 0 44880 -4.12198 1
gene 1 23 21 -1.0456 0 45820 -1.0456 1
gene 1 15 15 1.82438 1 46901 1.82438 1
gene 1 6 23 -0.266199 0 47455 -0.266199 1
gene 1 16 19 -3.92471 0 48172 -3.92471 1
gene 1 14 22 -2.27187 1 48529 -2.27187 1
gene 1 2 18 -1.91159 0 49434 -1.91159 1
gene 1 22 23 0.977884 0 49793 0.977884 1
gene 1 5 23 -1.41549 0 49906 -1.41549 1
gene 1 10 15 -1.11486 0 51370 -1.11486 1
gene 1 1 17 0.768914 0 51701 0.768914 1
gene 1 12 22 -4.35153 0 52279 -4.35153 1
gene 1 17 17 1.6614 1 53114 1.6614 1
gene 1 24 24 1.53572 1 53461 1.53572 1
gene 1 12 24 -0.846092 0 53797 -0.846092 1
gene 1 22 21 -3.08164 0 53945 -3.08164 1
gene 1 8 12 -1.23073 0 54756 -1.23073 1
gene 1 5 33 3.33256 0 55559 3.33256 1
gene 1 3 25 -1.50224 0 56066 -1.50224 1
gene 1 5 20 -0.879708 0 56229 -0.879708 1
gene 1 24 15 0.0118857 0 56973 0.0118857 1
gene 1 10 23 -0.743918 0 57165 -0.743918 1
gene 1 5 12 4.05572 0 57287 4.05572 1
gene 1 4 12 -1.34622 0 57823 -1.34622 1
gene 1 16 16 2.71572 1 58477 2.71572 1
gene 1 7 22 -1.78098 0 58653 -1.78098 1
gene 1 10 2219 3.01779 0 58833 3.01779 1
gene 1 2219 33 0.113609 0 58834 0.113609 1
gene 1 22 2230 1.0698 1 59004 1.0698 1
gene 1 2230 22 -1.44521 0 59005 -1.44521 1
gene 1 17 2219 -0.942226 1 60500 -0.942226 1
gene 1 7 18 3.24625 0 60846 3.24625 1
gene 1 12 2305 -0.561045 1 61080 -0.561045 1
gene 1 2305 12 0.41709 0 61081 0.41709 1
gene 1 20 17 -2.18237 0 61303 -2.18237 1
gene 1 24 20 0.36039 0 62095 0.36039 1
gene 1 4 15 -1.67477 0 62304 -1.67477 1
gene 1 25 13 -0.599581 0 62687 -0.599581 1
gene 1 5 24 -0.0928481 0 64549 -0.0928481 1
gene 1 25 20 -2.47976 0 65252 -2.47976 1
genomeend 783
