/* Organism #33316608 Fitness: -34628 
genomestart 76
trait 1 0 0.931763 0.0909683 0.179765 0.848295 0.635697 0.571807 0.129007 
node 1 1 0
node 2 1 1
node 3 1 1
node 4 1 1
node 5 1 1
node 6 1 1
node 7 1 1
node 8 1 1
node 9 1 1
node 10 1 1
node 11 1 1
node 12 1 2
node 13 1 2
node 14 1 2
node 15 1 2
node 16 1 2
node 17 1 2
node 18 1 2
node 19 1 2
node 20 1 2
node 21 1 2
node 22 1 2
node 23 1 2
node 24 1 2
node 25 1 2
node 26 1 3
node 30 1 3
node 31 1 3
node 1373 1 3
node 1566 1 3
node 1687 1 3
node 2059 1 3
node 2210 1 3
node 2357 1 3
gene 1 1 26 7.62773 0 1 7.62773 1
gene 1 1 30 -1.96055 0 5 -1.96055 1
gene 1 2 31 -0.120574 0 16 -0.120574 1
gene 1 4 26 -2.84632 0 31 -2.84632 1
gene 1 4 31 4.79385 0 36 4.79385 1
gene 1 5 26 0.490794 0 41 0.490794 1
gene 1 5 30 7.64066 0 45 7.64066 1
gene 1 6 26 -1.9058 0 51 -1.9058 1
gene 1 6 31 -4.11268 0 56 -4.11268 1
gene 1 7 30 -3.76804 0 65 -3.76804 1
gene 1 8 30 0.395281 0 75 0.395281 1
gene 1 8 31 0.00352749 0 76 0.00352749 1
gene 1 9 30 0.26483 0 85 0.26483 1
gene 1 9 31 2.59339 0 86 2.59339 1
gene 1 10 26 -3.94047 0 91 -3.94047 1
gene 1 10 30 -1.36859 0 95 -1.36859 1
gene 1 11 26 0.403999 0 101 0.403999 1
gene 1 11 30 4.55626 0 105 4.55626 1
gene 1 11 31 3.90286 0 106 3.90286 1
gene 1 26 16 -5.57647 0 115 -5.57647 1
gene 1 26 17 0.468385 0 116 0.468385 1
gene 1 26 20 -1.55028 0 119 -1.55028 1
gene 1 26 25 -0.953489 0 124 -0.953489 1
gene 1 30 12 1.94735 0 167 1.94735 1
gene 1 30 13 1.78524 0 168 1.78524 1
gene 1 30 15 -7.25399 0 170 -7.25399 1
gene 1 30 16 -1.91708 0 171 -1.91708 1
gene 1 30 17 -7.08134 0 172 -7.08134 1
gene 1 30 18 1.80314 0 173 1.80314 1
gene 1 30 19 -5.30796 0 174 -5.30796 1
gene 1 30 22 -5.59788 0 177 -5.59788 1
gene 1 30 25 4.80078 0 180 4.80078 1
gene 1 31 12 1.34479 0 181 1.34479 1
gene 1 31 18 -4.15078 0 187 -4.15078 1
gene 1 31 21 -0.126379 0 190 -0.126379 1
gene 1 31 22 -3.7305 0 191 -3.7305 1
gene 1 31 23 0.275152 0 192 0.275152 1
gene 1 31 24 -6.55584 0 193 -6.55584 1
gene 1 31 25 0.0840925 0 194 0.0840925 1
gene 1 6 13 -0.135175 0 684 -0.135175 1
gene 1 13 24 2.33058 0 1259 2.33058 1
gene 1 12 23 0.656513 0 3292 0.656513 1
gene 1 8 17 -1.59032 0 3657 -1.59032 1
gene 1 11 25 -1.47667 0 4059 -1.47667 1
gene 1 23 20 2.88259 0 4591 2.88259 1
gene 1 23 23 -0.620576 1 5170 -0.620576 1
gene 1 26 31 1.66287 0 5813 1.66287 1
gene 1 10 25 -6.49003 0 6525 -6.49003 1
gene 1 16 19 3.40399 0 7829 3.40399 1
gene 1 14 17 2.8937 0 8307 2.8937 1
gene 1 16 13 4.67049 0 8501 4.67049 1
gene 1 4 21 -5.78277 0 8674 -5.78277 1
gene 1 16 12 -5.83693 0 8956 -5.83693 1
gene 1 15 15 1.97984 1 9149 1.97984 1
gene 1 9 25 1.87073 0 10067 1.87073 1
gene 1 17 21 7.42787 0 11774 7.42787 1
gene 1 26 26 -1.6353 1 12717 -1.6353 1
gene 1 26 30 1.29925 0 13310 1.29925 1
gene 1 1 13 -2.35733 0 13552 -2.35733 1
gene 1 22 13 -3.17912 0 16896 -3.17912 1
gene 1 17 25 6.19965 0 16938 6.19965 1
gene 1 9 20 -3.39254 0 17174 -3.39254 1
gene 1 30 23 -0.356036 0 18000 -0.356036 1
gene 1 11 20 -1.71489 0 18364 -1.71489 1
gene 1 17 12 1.35576 0 19327 1.35576 1
gene 1 1 21 -4.92711 0 20593 -4.92711 1
gene 1 6 17 -0.954557 0 21462 -0.954557 1
gene 1 24 18 -5.72464 0 22230 -5.72464 1
gene 1 11 22 -0.506628 0 22443 -0.506628 1
gene 1 1 19 -5.87079 0 23128 -5.87079 1
gene 1 13 13 0.03648 1 24757 0.03648 1
gene 1 10 12 4.9637 0 25856 4.9637 1
gene 1 19 19 -3.4122 1 26075 -3.4122 1
gene 1 10 21 -4.3668 0 27136 -4.3668 1
gene 1 8 16 -2.13076 0 28718 -2.13076 1
gene 1 12 18 3.77403 0 29038 3.77403 1
gene 1 12 20 -6.56748 0 31254 -6.56748 1
gene 1 6 25 -1.74629 0 31454 -1.74629 1
gene 1 25 23 2.68623 0 32449 2.68623 1
gene 1 2 14 -4.42447 0 32772 -4.42447 1
gene 1 21 25 0.971365 0 33492 0.971365 1
gene 1 2 1373 -2.95277 0 33758 -2.95277 1
gene 1 1373 30 -0.348532 0 33759 -0.348532 1
gene 1 5 16 -4.57914 0 34320 -4.57914 1
gene 1 4 19 -4.98314 0 35670 -4.98314 1
gene 1 18 19 1.80347 0 37484 1.80347 1
gene 1 1 14 3.21312 0 39176 3.21312 1
gene 1 10 14 6.6048 0 40572 6.6048 1
gene 1 30 30 4.00289 1 40877 4.00289 1
gene 1 30 20 -1.43918 0 41243 -1.43918 1
gene 1 25 13 -0.468788 1 41655 -0.468788 1
gene 1 22 22 1.24225 1 41817 1.24225 1
gene 1 1566 1687 -3.37318 0 42132 -3.37318 1
gene 1 1687 18 -0.949205 0 42133 -0.949205 1
gene 1 9 23 -2.32543 0 42879 -2.32543 1
gene 1 14 24 -1.92784 0 43146 -1.92784 1
gene 1 1687 1687 -1.78198 1 44560 -1.78198 1
gene 1 1566 1566 0.62364 1 46654 0.62364 1
gene 1 18 25 2.51768 0 46859 2.51768 1
gene 1 14 14 -1.26114 1 47809 -1.26114 1
gene 1 7 12 1.94198 0 48356 1.94198 1
gene 1 3 18 0.265489 0 49976 0.265489 1
gene 1 5 20 -1.68247 0 51753 -1.68247 1
gene 1 10 23 -1.34786 0 51969 -1.34786 1
gene 1 2059 20 0.745966 0 52387 0.745966 1
gene 1 16 16 0.155699 1 53296 0.155699 1
gene 1 22 19 0.444618 0 54064 0.444618 1
gene 1 1373 16 -0.784347 0 55638 -0.784347 1
gene 1 24 15 -2.3208 0 56073 -2.3208 1
gene 1 26 2210 0.361769 0 56238 0.361769 1
gene 1 2210 12 0.164677 0 56239 0.164677 1
gene 1 2059 24 1.1251 0 56477 1.1251 1
gene 1 7 23 -0.281991 0 56660 -0.281991 1
gene 1 11 16 -0.903456 0 57293 -0.903456 1
gene 1 17 17 -0.220526 1 57438 -0.220526 1
gene 1 17 18 -0.780595 0 57903 -0.780595 1
gene 1 1373 22 -1.58256 0 58527 -1.58256 1
gene 1 17 2210 0.942502 0 58947 0.942502 1
gene 1 2059 21 -1.43179 0 59525 -1.43179 1
gene 1 5 24 -0.33332 0 59958 -0.33332 1
gene 1 2357 18 -0.535424 0 60540 -0.535424 1
gene 1 21 21 -1.40151 1 62228 -1.40151 1
gene 1 16 1687 0.0846228 0 62404 0.0846228 1
gene 1 19 15 0.398289 0 63467 0.398289 1
gene 1 17 1687 0.2588 0 63666 0.2588 1
gene 1 9 17 -0.151867 0 64627 -0.151867 1
gene 1 2059 13 -0.365678 0 64824 -0.365678 1
gene 1 1687 2210 -0.356792 0 65262 -0.356792 1
gene 1 26 2059 0.165375 0 65485 0.165375 1
gene 1 13 25 -0.403251 0 66096 -0.403251 1
gene 1 12 12 -0.148664 1 66530 -0.148664 1
gene 1 1373 25 0.706847 0 67437 0.706847 1
gene 1 10 15 -0.357585 0 67635 -0.357585 1
gene 1 5 31 0.946366 0 67843 0.946366 1
gene 1 4 12 -0.475813 0 68252 -0.475813 1
gene 1 18 18 0.761612 1 68666 0.761612 1
genomeend 76
