/* Organism #140300220463240 Fitness: -71253.2 
genomestart 230
trait 1 0.0526865 0 1 0.860535 0.0907963 0.639171 0.0387965 0 
node 1 1 0
node 2 1 1
node 3 1 1
node 4 1 1
node 5 1 1
node 6 1 1
node 7 1 1
node 8 1 1
node 9 1 1
node 10 1 1
node 11 1 1
node 12 1 2
node 13 1 2
node 14 1 2
node 15 1 2
node 16 1 2
node 17 1 2
node 18 1 2
node 19 1 2
node 20 1 2
node 21 1 2
node 22 1 2
node 23 1 2
node 24 1 2
node 25 1 2
node 26 1 3
node 27 1 3
node 31 1 3
node 307 1 3
node 515 1 3
node 568 1 3
node 859 1 3
node 1157 1 3
node 1184 1 3
node 1386 1 3
node 2252 1 3
gene 1 1 26 -1.03858 0 1 -1.03858 1
gene 1 1 27 7.35954 0 2 7.35954 1
gene 1 1 31 0.883698 0 6 0.883698 1
gene 1 2 27 -8 0 12 -8 1
gene 1 3 26 1.53571 0 21 1.53571 1
gene 1 3 27 0.791805 0 22 0.791805 1
gene 1 3 31 -1.65281 0 26 -1.65281 1
gene 1 4 27 -1.13298 0 32 -1.13298 1
gene 1 5 27 5.70109 0 42 5.70109 1
gene 1 6 31 1.99164 0 56 1.99164 1
gene 1 7 26 -8 0 61 -8 1
gene 1 7 27 -8 0 62 -8 1
gene 1 8 26 2.45607 0 71 2.45607 1
gene 1 9 26 0.00449579 0 81 0.00449579 1
gene 1 9 27 2.13939 0 82 2.13939 1
gene 1 10 26 0.556266 0 91 0.556266 1
gene 1 10 27 2.18915 0 92 2.18915 1
gene 1 10 31 -5.19823 0 96 -5.19823 1
gene 1 11 27 -1.8119 0 102 -1.8119 1
gene 1 11 31 0.644541 0 106 0.644541 1
gene 1 26 13 3.1765 0 112 3.1765 1
gene 1 26 14 2.45904 0 113 2.45904 1
gene 1 26 16 5.71002 0 115 5.71002 1
gene 1 26 17 -6.99398 0 116 -6.99398 1
gene 1 26 19 3.83702 0 118 3.83702 1
gene 1 26 21 0.73295 0 120 0.73295 1
gene 1 26 22 4.89419 0 121 4.89419 1
gene 1 26 24 7.02477 0 123 7.02477 1
gene 1 26 25 -2.95058 0 124 -2.95058 1
gene 1 27 13 -1.43272 0 126 -1.43272 1
gene 1 27 14 1.50191 0 127 1.50191 1
gene 1 27 15 -3.89729 0 128 -3.89729 1
gene 1 27 20 -2.03079 0 133 -2.03079 1
gene 1 27 21 -0.786468 0 134 -0.786468 1
gene 1 27 22 -3.69846 0 135 -3.69846 1
gene 1 27 23 0.742109 0 136 0.742109 1
gene 1 27 24 -4.0128 0 137 -4.0128 1
gene 1 27 25 -4.34536 0 138 -4.34536 1
gene 1 31 12 3.98362 0 181 3.98362 1
gene 1 31 14 0.507926 0 183 0.507926 1
gene 1 31 19 4.12734 0 188 4.12734 1
gene 1 31 22 4.57471 0 191 4.57471 1
gene 1 31 23 -3.11547 0 192 -3.11547 1
gene 1 31 25 -4.70227 0 194 -4.70227 1
gene 1 5 21 -3.27055 0 1667 -3.27055 1
gene 1 6 14 1.24369 0 2381 1.24369 1
gene 1 15 24 -1.8161 0 5147 -1.8161 1
gene 1 2 23 1.51421 0 7552 1.51421 1
gene 1 10 12 3.7623 0 8601 3.7623 1
gene 1 17 24 -1.08076 0 9263 -1.08076 1
gene 1 13 13 -6.20828 1 9427 -6.20828 1
gene 1 19 21 3.75691 0 9782 3.75691 1
gene 1 24 307 1.18164 0 10371 1.18164 1
gene 1 2 25 -2.27071 0 13002 -2.27071 1
gene 1 515 19 3.11544 0 13525 3.11544 1
gene 1 21 17 -0.540342 0 13924 -0.540342 1
gene 1 7 12 0.119089 0 14331 0.119089 1
gene 1 25 15 -1.05821 0 14704 -1.05821 1
gene 1 3 22 -1.28121 0 15368 -1.28121 1
gene 1 9 20 -0.0558713 0 18888 -0.0558713 1
gene 1 10 568 2.76823 0 19081 2.76823 1
gene 1 6 515 -2.13216 0 19385 -2.13216 1
gene 1 18 21 -0.848772 0 19532 -0.848772 1
gene 1 16 15 -1.95035 0 19958 -1.95035 1
gene 1 15 17 -5.30029 0 20356 -5.30029 1
gene 1 4 25 -2.40466 0 21025 -2.40466 1
gene 1 12 20 -3.48473 0 21148 -3.48473 1
gene 1 1 14 2.50584 0 21542 2.50584 1
gene 1 19 859 -0.203646 1 22088 -0.203646 1
gene 1 859 19 4.83923 0 22089 4.83923 1
gene 1 19 18 1.49279 0 22287 1.49279 1
gene 1 7 23 -2.24194 0 23471 -2.24194 1
gene 1 859 859 1.65725 1 24798 1.65725 1
gene 1 11 13 0.912215 0 25204 0.912215 1
gene 1 4 12 -0.529876 0 26006 -0.529876 1
gene 1 19 17 -1.04837 0 26825 -1.04837 1
gene 1 21 20 3.50001 0 28245 3.50001 1
gene 1 13 18 2.40067 0 28658 2.40067 1
gene 1 31 859 -3.3118 0 28961 -3.3118 1
gene 1 18 18 0.0573652 1 29038 0.0573652 1
gene 1 27 27 -4.57629 1 29457 -4.57629 1
gene 1 8 1157 2.19939 0 29889 2.19939 1
gene 1 859 15 -0.992437 0 30647 -0.992437 1
gene 1 12 17 -0.270719 0 31988 -0.270719 1
gene 1 1157 14 4.55157 0 33029 4.55157 1
gene 1 23 21 1.55951 1 34147 1.55951 1
gene 1 31 31 2.07699 1 34221 2.07699 1
gene 1 5 24 1.8795 0 34548 1.8795 1
gene 1 1386 14 0.436968 0 35897 0.436968 1
gene 1 16 14 1.80296 0 36587 1.80296 1
gene 1 20 307 3.21786 0 37369 3.21786 1
gene 1 8 19 -0.654183 0 37676 -0.654183 1
gene 1 13 17 0.826601 0 37915 0.826601 1
gene 1 4 859 1.83926 0 38314 1.83926 1
gene 1 26 26 -0.662732 1 38953 -0.662732 1
gene 1 1157 13 3.76174 0 39162 3.76174 1
gene 1 515 25 1.54207 0 40193 1.54207 1
gene 1 6 23 2.67562 0 40893 2.67562 1
gene 1 23 307 0.213732 1 41131 0.213732 1
gene 1 21 22 0.459904 0 41503 0.459904 1
gene 1 22 515 4.18496 1 41616 4.18496 1
gene 1 8 23 -2.21196 0 41817 -2.21196 1
gene 1 12 16 -1.13123 0 42129 -1.13123 1
gene 1 16 24 -2.04596 0 42769 -2.04596 1
gene 1 1386 23 -1.95018 0 43381 -1.95018 1
gene 1 25 20 -0.424547 0 45241 -0.424547 1
gene 1 9 22 -1.53912 0 45663 -1.53912 1
gene 1 14 17 2.27906 0 46148 2.27906 1
gene 1 515 1157 -0.966289 0 48898 -0.966289 1
gene 1 18 568 0.605117 0 49282 0.605117 1
gene 1 21 24 -0.985269 0 51940 -0.985269 1
gene 1 4 20 -1.65949 0 53469 -1.65949 1
gene 1 307 307 -0.112997 1 54051 -0.112997 1
gene 1 5 307 0.0958762 0 54263 0.0958762 1
gene 1 18 24 0.108039 0 54515 0.108039 1
gene 1 1184 1184 -1.71088 1 54708 -1.71088 1
gene 1 8 21 0.946738 0 54922 0.946738 1
gene 1 8 515 -1.10299 0 56401 -1.10299 1
gene 1 2 12 0.0839061 0 57047 0.0839061 1
gene 1 17 17 -1.08638 1 57240 -1.08638 1
gene 1 1386 25 1.24953 0 57660 1.24953 1
gene 1 1184 26 1.82912 0 57905 1.82912 1
gene 1 515 24 2.57629 0 59139 2.57629 1
gene 1 22 19 0.141821 1 59397 0.141821 1
gene 1 1184 27 -0.685328 0 59782 -0.685328 1
gene 1 4 2252 3.04402 0 60173 3.04402 1
gene 1 2252 23 -3.35292 0 60174 -3.35292 1
gene 1 15 12 0.102341 1 61211 0.102341 1
gene 1 27 568 0.56914 0 61389 0.56914 1
gene 1 10 1157 -1.04839 0 62028 -1.04839 1
gene 1 515 14 0.974796 0 62236 0.974796 1
gene 1 12 307 -0.39255 0 62449 -0.39255 1
gene 1 6 18 -0.53843 0 62608 -0.53843 1
gene 1 7 2252 2.33098 0 63052 2.33098 1
gene 1 12 12 -0.778196 1 63920 -0.778196 1
gene 1 11 19 -2.00849 0 64738 -2.00849 1
gene 1 1386 21 -2.90073 0 65139 -2.90073 1
gene 1 7 14 -0.924865 0 66387 -0.924865 1
gene 1 1157 1157 0.920117 1 66523 0.920117 1
gene 1 22 568 1.08923 0 66962 1.08923 1
gene 1 14 859 -1.70003 0 67134 -1.70003 1
gene 1 15 22 -0.680837 0 67350 -0.680837 1
gene 1 568 568 -1.1041 1 67882 -1.1041 1
gene 1 20 22 0.0599173 0 68810 0.0599173 1
gene 1 14 2252 0.499735 0 69190 0.499735 1
genomeend 230
