/* Organism #44681728 Fitness: -70512.6 
genomestart 150
trait 1 0.987675 0.179151 0.941009 0.0159645 0.0815591 0 0 0.0175712 
node 1 1 0
node 2 1 1
node 3 1 1
node 4 1 1
node 5 1 1
node 6 1 1
node 7 1 1
node 8 1 1
node 9 1 1
node 10 1 1
node 11 1 1
node 12 1 2
node 13 1 2
node 14 1 2
node 15 1 2
node 16 1 2
node 17 1 2
node 18 1 2
node 19 1 2
node 20 1 2
node 21 1 2
node 22 1 2
node 23 1 2
node 24 1 2
node 25 1 2
node 31 1 3
node 34 1 3
node 839 1 3
node 967 1 3
node 1314 1 3
node 1412 1 3
node 1715 1 3
node 2089 1 3
node 2333 1 3
node 2349 1 3
node 2355 1 3
node 2399 1 3
gene 1 1 31 -7.69039 0 6 -7.69039 1
gene 1 1 34 0.609338 0 9 0.609338 1
gene 1 5 31 -5.15811 0 46 -5.15811 1
gene 1 6 31 -2.27566 0 56 -2.27566 1
gene 1 6 34 0.998427 0 59 0.998427 1
gene 1 7 31 7.9127 0 66 7.9127 1
gene 1 8 31 -0.227132 0 76 -0.227132 1
gene 1 8 34 1.31618 0 79 1.31618 1
gene 1 10 34 -2.39456 0 99 -2.39456 1
gene 1 11 31 -0.42283 0 106 -0.42283 1
gene 1 11 34 2.10602 0 109 2.10602 1
gene 1 31 12 -8 0 181 -8 1
gene 1 31 14 -5.17737 0 183 -5.17737 1
gene 1 31 15 -1.31338 0 184 -1.31338 1
gene 1 31 16 0.0140025 0 185 0.0140025 1
gene 1 31 18 4.7003 0 187 4.7003 1
gene 1 31 22 8 0 191 8 1
gene 1 31 23 1.39507 0 192 1.39507 1
gene 1 31 24 1.43608 0 193 1.43608 1
gene 1 31 25 5.75178 0 194 5.75178 1
gene 1 34 14 -2.23616 0 225 -2.23616 1
gene 1 34 15 4.31572 0 226 4.31572 1
gene 1 34 23 0.914976 0 234 0.914976 1
gene 1 34 25 0.632901 0 236 0.632901 1
gene 1 19 16 2.54952 0 756 2.54952 1
gene 1 21 23 -3.13403 0 1295 -3.13403 1
gene 1 19 19 4.0516 1 3010 4.0516 1
gene 1 13 13 2.05746 1 3820 2.05746 1
gene 1 18 12 0.301658 0 4432 0.301658 1
gene 1 16 16 -8 1 5425 -8 1
gene 1 31 31 -3.32655 1 7550 -3.32655 1
gene 1 15 15 0.375347 1 8354 0.375347 1
gene 1 17 15 0.0407669 0 9034 0.0407669 1
gene 1 23 16 -2.43701 0 12100 -2.43701 1
gene 1 4 18 -0.698541 0 12625 -0.698541 1
gene 1 22 14 0.990793 0 13036 0.990793 1
gene 1 15 12 2.56948 0 13985 2.56948 1
gene 1 17 18 3.47495 0 16205 3.47495 1
gene 1 11 25 2.67332 0 16397 2.67332 1
gene 1 24 14 -2.94653 0 18150 -2.94653 1
gene 1 25 22 1.31685 0 19712 1.31685 1
gene 1 4 12 0.449056 0 20639 0.449056 1
gene 1 5 20 -0.208511 0 20770 -0.208511 1
gene 1 8 19 0.323278 0 20969 0.323278 1
gene 1 24 15 5.13042 1 21360 5.13042 1
gene 1 11 22 1.01637 0 22828 1.01637 1
gene 1 21 21 0.125076 1 24509 0.125076 1
gene 1 16 13 -0.40958 0 24791 -0.40958 1
gene 1 2 17 -1.4528 0 25131 -1.4528 1
gene 1 967 23 -2.57439 0 25394 -2.57439 1
gene 1 21 24 1.40607 0 26696 1.40607 1
gene 1 3 967 7.75769 0 26864 7.75769 1
gene 1 8 24 -0.0549621 0 27253 -0.0549621 1
gene 1 10 967 0.743575 0 27846 0.743575 1
gene 1 34 34 -3.53033 1 28864 -3.53033 1
gene 1 13 839 -3.15663 1 29066 -3.15663 1
gene 1 25 14 -0.957561 0 29348 -0.957561 1
gene 1 8 839 0.848086 0 29990 0.848086 1
gene 1 10 18 3.10811 0 31285 3.10811 1
gene 1 6 13 0.132875 0 31728 0.132875 1
gene 1 6 20 -6.65788 0 32532 -6.65788 1
gene 1 12 17 -0.283841 0 33190 -0.283841 1
gene 1 25 24 0.453398 0 33465 0.453398 1
gene 1 13 15 2.6441 0 33524 2.6441 1
gene 1 5 16 -0.223141 0 33934 -0.223141 1
gene 1 3 24 3.84782 0 34439 3.84782 1
gene 1 14 1314 4.65688 1 34816 4.65688 1
gene 1 1314 14 -0.0110863 0 34817 -0.0110863 1
gene 1 3 21 3.23223 0 35795 3.23223 1
gene 1 22 1314 4.15452 0 36344 4.15452 1
gene 1 10 1412 -5.10417 0 37204 -5.10417 1
gene 1 1412 31 -0.637361 0 37205 -0.637361 1
gene 1 17 17 2.61044 1 37386 2.61044 1
gene 1 20 20 1.72752 1 40137 1.72752 1
gene 1 20 839 1.81282 1 40491 1.81282 1
gene 1 9 967 3.59978 0 40895 3.59978 1
gene 1 3 17 -0.350558 0 41781 -0.350558 1
gene 1 2 20 -0.823852 0 42276 -0.823852 1
gene 1 5 21 -1.1205 0 42497 -1.1205 1
gene 1 7 21 -0.775799 0 43308 -0.775799 1
gene 1 8 12 0.0999243 0 44676 0.0999243 1
gene 1 25 17 0.101608 0 46782 0.101608 1
gene 1 2 24 0.171104 0 48123 0.171104 1
gene 1 3 12 0.0929829 0 48568 0.0929829 1
gene 1 12 12 -2.21234 1 48806 -2.21234 1
gene 1 967 967 3.72021 1 50482 3.72021 1
gene 1 1314 1715 -2.48631 0 51507 -2.48631 1
gene 1 7 14 1.28633 0 52275 1.28633 1
gene 1 14 14 3.09237 1 52913 3.09237 1
gene 1 8 1412 -1.38887 0 53331 -1.38887 1
gene 1 14 21 -0.322878 1 53753 -0.322878 1
gene 1 23 23 -1.40278 1 54401 -1.40278 1
gene 1 7 22 0.572707 0 55135 0.572707 1
gene 1 21 2089 -0.383558 0 55353 -0.383558 1
gene 1 2089 19 0.257571 0 55354 0.257571 1
gene 1 2089 2089 -0.930815 1 55551 -0.930815 1
gene 1 14 13 0.637294 0 56530 0.637294 1
gene 1 25 20 -0.239673 0 56786 -0.239673 1
gene 1 5 22 0.493024 0 57126 0.493024 1
gene 1 12 24 -0.218551 0 57313 -0.218551 1
gene 1 22 19 0.734603 1 57722 0.734603 1
gene 1 24 24 -1.19612 1 58068 -1.19612 1
gene 1 8 15 0.168187 0 59278 0.168187 1
gene 1 839 13 0.488784 0 59941 0.488784 1
gene 1 22 20 -1.75904 0 60167 -1.75904 1
gene 1 20 1715 -0.2752 0 60813 -0.2752 1
gene 1 7 15 -0.91812 0 61048 -0.91812 1
gene 1 11 24 -1.21391 0 61437 -1.21391 1
gene 1 2 2333 0.50791 0 61709 0.50791 1
gene 1 2333 15 1.36782 0 61710 1.36782 1
gene 1 2 2349 0.843676 0 61997 0.843676 1
gene 1 2349 31 -1.76703 0 61998 -1.76703 1
gene 1 1412 2355 -0.101398 1 62201 -0.101398 1
gene 1 2355 1412 -2.4468 0 62202 -2.4468 1
gene 1 2 34 0.119175 0 62332 0.119175 1
gene 1 16 2399 4.00477 0 62997 4.00477 1
gene 1 2399 25 0.153211 0 62998 0.153211 1
gene 1 13 2089 -0.905267 1 63748 -0.905267 1
gene 1 1412 2333 0.684185 0 64971 0.684185 1
gene 1 3 20 -0.0902324 0 65363 -0.0902324 1
gene 1 1314 1314 -1.46973 1 65772 -1.46973 1
gene 1 2349 19 -0.332393 0 66431 -0.332393 1
gene 1 3 23 -1.53483 0 66942 -1.53483 1
gene 1 21 17 0.344108 0 67512 0.344108 1
gene 1 8 1314 -0.671834 0 67774 -0.671834 1
gene 1 2 12 -0.580389 0 67975 -0.580389 1
gene 1 967 1715 0.933784 0 68195 0.933784 1
gene 1 34 18 -0.57685 0 68437 -0.57685 1
gene 1 8 13 -0.675186 0 69068 -0.675186 1
genomeend 150
