/* Organism #77875808 Fitness: -75269.4 
genomestart 461
trait 1 0.498014 1 0.184602 0.775506 0.0659797 0.46006 0.343114 1 
node 1 1 0
node 2 1 1
node 3 1 1
node 4 1 1
node 5 1 1
node 6 1 1
node 7 1 1
node 8 1 1
node 9 1 1
node 10 1 1
node 11 1 1
node 12 1 2
node 13 1 2
node 14 1 2
node 15 1 2
node 16 1 2
node 17 1 2
node 18 1 2
node 19 1 2
node 20 1 2
node 21 1 2
node 22 1 2
node 23 1 2
node 24 1 2
node 25 1 2
node 29 1 3
node 30 1 3
node 1248 1 3
node 1872 1 3
node 2061 1 3
node 2219 1 3
node 2256 1 3
node 2381 1 3
gene 1 1 29 -5.85468 0 4 -5.85468 1
gene 1 1 30 -7.53193 0 5 -7.53193 1
gene 1 2 29 1.74691 0 14 1.74691 1
gene 1 2 30 -0.774848 0 15 -0.774848 1
gene 1 3 30 2.8199 0 25 2.8199 1
gene 1 4 29 -0.880565 0 34 -0.880565 1
gene 1 5 30 2.73167 0 45 2.73167 1
gene 1 6 30 1.6247 0 55 1.6247 1
gene 1 7 29 7.2382 0 64 7.2382 1
gene 1 8 30 0.968963 0 75 0.968963 1
gene 1 10 29 -0.277903 0 94 -0.277903 1
gene 1 11 29 -0.0983723 0 104 -0.0983723 1
gene 1 11 30 0.296022 0 105 0.296022 1
gene 1 29 12 -8 0 153 -8 1
gene 1 29 13 -0.287831 0 154 -0.287831 1
gene 1 29 17 0.92507 0 158 0.92507 1
gene 1 29 18 -3.75396 0 159 -3.75396 1
gene 1 29 20 2.49328 0 161 2.49328 1
gene 1 29 25 4.39235 0 166 4.39235 1
gene 1 30 14 -1.89328 0 169 -1.89328 1
gene 1 30 17 -0.733037 0 172 -0.733037 1
gene 1 30 18 -1.94952 0 173 -1.94952 1
gene 1 30 20 1.44148 0 175 1.44148 1
gene 1 30 23 2.51884 0 178 2.51884 1
gene 1 30 24 0.835021 0 179 0.835021 1
gene 1 30 25 -1.94702 0 180 -1.94702 1
gene 1 20 21 6.97989 0 1022 6.97989 1
gene 1 7 24 -4.05422 0 1759 -4.05422 1
gene 1 1 25 -2.16385 0 3634 -2.16385 1
gene 1 4 16 1.82133 0 4328 1.82133 1
gene 1 24 22 0.752418 0 4476 0.752418 1
gene 1 2 12 0.721359 0 4936 0.721359 1
gene 1 18 15 -0.667876 0 7002 -0.667876 1
gene 1 13 25 -1.79317 0 7408 -1.79317 1
gene 1 1 16 -0.555043 0 7628 -0.555043 1
gene 1 21 24 0.787515 0 7817 0.787515 1
gene 1 21 14 -1.51251 0 8367 -1.51251 1
gene 1 22 19 5.12685 0 10265 5.12685 1
gene 1 21 15 -0.359428 0 11059 -0.359428 1
gene 1 4 19 2.88691 0 12372 2.88691 1
gene 1 10 15 -1.267 0 14181 -1.267 1
gene 1 16 20 1.73067 0 16179 1.73067 1
gene 1 6 23 -0.669195 0 16316 -0.669195 1
gene 1 8 15 1.31944 0 18017 1.31944 1
gene 1 1 20 -1.02404 0 19060 -1.02404 1
gene 1 5 24 -1.48896 0 21130 -1.48896 1
gene 1 24 12 -4.99846 0 21638 -4.99846 1
gene 1 2 16 -1.6512 0 21841 -1.6512 1
gene 1 25 15 3.91177 0 23978 3.91177 1
gene 1 2 15 0.230469 0 24367 0.230469 1
gene 1 14 18 -0.230237 0 25147 -0.230237 1
gene 1 6 13 -2.10218 0 26564 -2.10218 1
gene 1 29 14 -0.864112 0 26855 -0.864112 1
gene 1 22 22 0.250011 1 28141 0.250011 1
gene 1 6 18 0.532336 0 29124 0.532336 1
gene 1 15 15 1.67698 1 30624 1.67698 1
gene 1 14 14 1.30196 1 30803 1.30196 1
gene 1 3 1248 4.06737 0 31626 4.06737 1
gene 1 22 23 -0.380996 0 31938 -0.380996 1
gene 1 16 12 -0.0396033 0 32119 -0.0396033 1
gene 1 4 15 -1.3661 0 32330 -1.3661 1
gene 1 8 12 -0.132487 0 34284 -0.132487 1
gene 1 20 24 1.17384 0 35007 1.17384 1
gene 1 25 14 0.131384 1 36008 0.131384 1
gene 1 16 24 -0.533464 0 36341 -0.533464 1
gene 1 6 15 0.999323 0 36744 0.999323 1
gene 1 7 23 2.65071 0 37466 2.65071 1
gene 1 15 22 0.358181 0 37810 0.358181 1
gene 1 5 20 -0.396322 0 38346 -0.396322 1
gene 1 20 30 0.537695 1 38600 0.537695 1
gene 1 20 18 -0.896915 0 40183 -0.896915 1
gene 1 7 13 -0.0679116 0 40330 -0.0679116 1
gene 1 22 17 1.63057 1 40654 1.63057 1
gene 1 7 16 -4.96124 0 42073 -4.96124 1
gene 1 1 12 0.815862 0 42284 0.815862 1
gene 1 7 22 1.20389 0 42875 1.20389 1
gene 1 21 12 -3.48706 0 43256 -3.48706 1
gene 1 9 20 -0.0767576 0 43987 -0.0767576 1
gene 1 10 18 -1.33222 0 44111 -1.33222 1
gene 1 9 14 1.43948 0 44301 1.43948 1
gene 1 6 14 0.458012 0 46449 0.458012 1
gene 1 6 19 0.744573 0 46666 0.744573 1
gene 1 15 23 -0.673818 0 46864 -0.673818 1
gene 1 29 1872 2.88529 0 47275 2.88529 1
gene 1 1872 22 3.22379 0 47276 3.22379 1
gene 1 17 19 -0.887371 0 48378 -0.887371 1
gene 1 24 24 0.626117 1 49178 0.626117 1
gene 1 11 14 -1.19155 0 49406 -1.19155 1
gene 1 30 30 1.80981 1 49574 1.80981 1
gene 1 8 19 -0.20478 0 49755 -0.20478 1
gene 1 23 24 -1.38198 1 50267 -1.38198 1
gene 1 9 18 0.12956 0 50463 0.12956 1
gene 1 20 22 -1.36425 0 50675 -1.36425 1
gene 1 1872 15 -0.0441177 0 51470 -0.0441177 1
gene 1 12 2061 -1.85262 0 51544 -1.85262 1
gene 1 4 12 -0.851015 0 51837 -0.851015 1
gene 1 1872 25 1.86275 0 52061 1.86275 1
gene 1 16 21 0.573114 0 52862 0.573114 1
gene 1 8 25 -0.67438 0 53353 -0.67438 1
gene 1 2 17 0.329907 0 54399 0.329907 1
gene 1 3 19 -0.470065 0 54823 -0.470065 1
gene 1 16 2219 1.06559 0 55056 1.06559 1
gene 1 2219 23 3.63817 0 55057 3.63817 1
gene 1 2061 2256 -0.382094 0 55900 -0.382094 1
gene 1 2256 25 2.14873 0 55901 1.91778 1
gene 1 7 2256 0.585328 0 56453 0.585328 1
gene 1 18 18 0.709308 1 57029 0.709308 1
gene 1 6 2219 0.54576 0 58090 0.54576 1
gene 1 24 15 -0.0815544 0 58320 -0.0815544 1
gene 1 5 13 0.0853666 0 58482 0.0853666 1
gene 1 14 2061 0.559045 0 58715 0.559045 1
gene 1 17 2381 0.900508 0 58884 0.412471 1
gene 1 2381 21 -0.866693 0 58885 -0.368986 1
gene 1 14 2381 -0.381134 1 59480 -0.381134 1
gene 1 2256 13 0.904593 0 59821 0.904593 1
gene 1 20 2381 0.0215928 0 60019 0.0215928 1
gene 1 1872 21 0.0321771 0 60207 0.0321771 1
gene 1 5 14 -0.392542 0 60399 -0.392542 1
gene 1 12 19 0.663633 0 60579 0.663633 1
gene 1 2061 1872 1.31283 1 60914 1.31283 1
gene 1 2381 23 -1.0814 0 61217 -1.0814 1
gene 1 30 2061 -0.0138801 0 61687 -0.0138801 1
gene 1 1248 2219 -0.633983 0 61889 -0.633983 1
gene 1 13 15 0.130454 0 62105 0.130454 1
gene 1 21 21 0.426241 1 62452 0.426241 1
gene 1 8 13 -0.416671 0 62687 -0.416671 1
gene 1 2219 2219 0.0660296 1 63625 0.0660296 1
gene 1 14 15 0.645199 0 64038 0.645199 1
gene 1 12 12 0.981456 1 64262 0.981456 1
gene 1 8 23 0.492134 0 64610 0.492134 1
gene 1 2219 17 -0.936496 0 64804 -0.936496 1
gene 1 6 21 0.245825 0 65193 0.245825 1
gene 1 1872 19 -0.296722 0 65352 -0.296722 1
gene 1 30 15 -0.672486 0 66183 -0.672486 1
gene 1 24 14 -0.289119 0 66647 -0.289119 1
gene 1 2256 19 -0.0423302 0 66753 -0.0423302 1
genomeend 461
