/* Organism #61181168 Fitness: -96958.2 
genomestart 320
trait 1 0.20863 0 0.885326 0.589204 0.448299 0.420491 0 0.0786488 
node 1 1 0
node 2 1 1
node 3 1 1
node 4 1 1
node 5 1 1
node 6 1 1
node 7 1 1
node 8 1 1
node 9 1 1
node 10 1 1
node 11 1 1
node 12 1 2
node 13 1 2
node 14 1 2
node 15 1 2
node 16 1 2
node 17 1 2
node 18 1 2
node 19 1 2
node 20 1 2
node 21 1 2
node 22 1 2
node 23 1 2
node 24 1 2
node 25 1 2
node 26 1 3
node 27 1 3
node 31 1 3
node 33 1 3
node 35 1 3
node 63 1 3
node 176 1 3
node 829 1 3
node 1349 1 3
node 1586 1 3
node 1601 1 3
node 2314 1 3
node 2386 1 3
node 2571 1 3
gene 1 1 26 6.91255 0 1 6.91255 1
gene 1 1 31 6.40339 0 6 6.40339 1
gene 1 1 33 7.31551 0 8 7.31551 1
gene 1 1 35 0.350286 0 10 0.350286 1
gene 1 2 26 -5.7475 0 11 -5.7475 1
gene 1 2 27 1.1161 0 12 1.1161 1
gene 1 2 35 -2.18453 0 20 -2.18453 1
gene 1 3 26 -1.00307 0 21 -1.00307 1
gene 1 3 33 -5.4639 0 28 -5.4639 1
gene 1 3 35 1.57423 0 30 1.57423 1
gene 1 4 26 4.70197 0 31 4.70197 1
gene 1 4 27 -3.64596 0 32 -3.64596 1
gene 1 4 35 1.2299 0 40 1.2299 1
gene 1 5 26 0.805369 0 41 0.805369 1
gene 1 5 31 6.74798 0 46 6.74798 1
gene 1 5 35 6.41837 0 50 6.41837 1
gene 1 6 27 -0.147706 0 52 -0.147706 1
gene 1 6 31 0.149604 0 56 0.149604 1
gene 1 7 26 -3.87006 0 61 -3.87006 1
gene 1 7 27 4.32154 0 62 4.32154 1
gene 1 7 31 -7.70587 0 66 -7.70587 1
gene 1 8 26 2.89532 0 71 2.89532 1
gene 1 8 31 -0.464194 0 76 -0.464194 1
gene 1 8 35 -1.09542 0 80 -1.09542 1
gene 1 9 26 -4.00957 0 81 -4.00957 1
gene 1 9 31 -5.0316 0 86 -5.0316 1
gene 1 9 33 -1.95995 0 88 -1.95995 1
gene 1 9 35 7.67202 0 90 7.67202 1
gene 1 10 27 1.95205 0 92 1.95205 1
gene 1 10 33 -6.59371 0 98 -6.59371 1
gene 1 11 26 2.2236 0 101 2.2236 1
gene 1 11 27 2.35626 0 102 2.35626 1
gene 1 11 31 1.94063 0 106 1.94063 1
gene 1 26 12 7.55106 0 111 7.55106 1
gene 1 26 13 0.857477 0 112 0.857477 1
gene 1 26 16 -1.59441 0 115 -1.59441 1
gene 1 26 19 1.74689 0 118 1.74689 1
gene 1 26 20 0.400709 0 119 0.400709 1
gene 1 26 21 -1.3414 0 120 -1.3414 1
gene 1 26 24 -5.86357 0 123 -5.86357 1
gene 1 27 12 -1.5743 0 125 -1.5743 1
gene 1 27 13 -3.27936 0 126 -3.27936 1
gene 1 27 16 2.20934 0 129 2.20934 1
gene 1 27 17 0.631164 0 130 0.631164 1
gene 1 27 19 -5.10026 0 132 -5.10026 1
gene 1 27 20 -5.96142 0 133 -5.96142 1
gene 1 27 21 -0.993126 0 134 -0.993126 1
gene 1 27 22 -5.05843 0 135 -5.05843 1
gene 1 31 12 -1.60943 0 181 -1.60943 1
gene 1 31 13 -3.58701 0 182 -3.58701 1
gene 1 31 14 -0.307735 0 183 -0.307735 1
gene 1 31 15 -7.80647 0 184 -7.80647 1
gene 1 31 16 3.06618 0 185 3.06618 1
gene 1 31 17 -7.53596 0 186 -7.53596 1
gene 1 31 21 -4.2445 0 190 -4.2445 1
gene 1 31 22 0.431802 0 191 0.431802 1
gene 1 31 24 2.87869 0 193 2.87869 1
gene 1 31 25 -6.80337 0 194 -6.80337 1
gene 1 33 12 5.25824 0 209 5.25824 1
gene 1 33 15 0.240748 0 212 0.240748 1
gene 1 33 16 -3.03848 0 213 -3.03848 1
gene 1 33 20 -6.49201 0 217 -6.49201 1
gene 1 33 21 -7.18657 0 218 -7.18657 1
gene 1 33 23 -0.370987 0 220 -0.370987 1
gene 1 33 25 -0.28089 0 222 -0.28089 1
gene 1 35 12 1.31699 0 237 1.31699 1
gene 1 35 14 0.291093 0 239 0.291093 1
gene 1 35 15 1.25726 0 240 1.25726 1
gene 1 35 16 -3.70655 0 241 -3.70655 1
gene 1 35 17 4.9449 0 242 4.9449 1
gene 1 35 18 3.39494 0 243 3.39494 1
gene 1 35 19 5.9305 0 244 5.9305 1
gene 1 35 22 -2.66576 0 247 -2.66576 1
gene 1 35 23 -1.9912 0 248 -1.9912 1
gene 1 24 12 -1.32213 0 577 -1.32213 1
gene 1 10 63 -0.738589 0 1179 -0.738589 1
gene 1 63 35 -0.374839 0 1180 -0.374839 1
gene 1 6 17 3.9851 0 2613 3.9851 1
gene 1 3 25 -1.40264 0 3753 -1.40264 1
gene 1 25 25 -3.01402 1 4192 -3.01402 1
gene 1 27 176 -0.930389 0 4594 -0.930389 1
gene 1 176 18 -0.682687 0 4595 -0.682687 1
gene 1 21 13 -0.57939 0 5679 -0.57939 1
gene 1 20 20 4.30046 1 8674 4.30046 1
gene 1 12 22 3.62355 0 9621 3.62355 1
gene 1 5 24 -2.86839 0 10011 -2.86839 1
gene 1 21 21 -4.78028 1 10932 -4.78028 1
gene 1 63 21 -2.79682 0 12009 -2.79682 1
gene 1 17 17 3.87895 1 12106 3.87895 1
gene 1 25 14 -5.48229 0 12294 -5.48229 1
gene 1 7 17 1.62327 0 13090 1.62327 1
gene 1 22 22 -1.61504 1 13393 -1.61504 1
gene 1 19 19 -3.78389 1 14010 -3.78389 1
gene 1 8 20 -5.74517 0 14420 -5.74517 1
gene 1 14 27 1.07049 1 16154 1.07049 1
gene 1 176 25 0.274592 0 16320 0.274592 1
gene 1 7 13 -1.72609 0 18517 -1.72609 1
gene 1 15 21 -0.383512 0 19888 -0.383512 1
gene 1 14 21 -2.31229 0 20422 -2.31229 1
gene 1 8 829 2.78404 0 20941 2.78404 1
gene 1 829 27 3.0326 0 20942 3.0326 1
gene 1 23 25 1.22123 0 21493 1.22123 1
gene 1 25 19 -1.7603 0 22118 -1.7603 1
gene 1 24 25 -4.40958 0 23098 -4.40958 1
gene 1 63 25 1.88603 0 23495 1.88603 1
gene 1 9 21 1.2983 0 23862 1.2983 1
gene 1 19 21 -5.23905 0 24492 -5.23905 1
gene 1 14 17 2.91538 0 25596 2.91538 1
gene 1 12 16 -0.870874 0 25989 -0.870874 1
gene 1 18 20 -1.42434 0 28285 -1.42434 1
gene 1 176 23 -0.330162 0 29029 -0.330162 1
gene 1 19 14 2.13979 1 30369 2.13979 1
gene 1 33 35 0.691676 0 30767 0.691676 1
gene 1 25 22 2.6187 0 31584 2.6187 1
gene 1 829 22 2.88384 0 32158 2.88384 1
gene 1 18 18 0.0145591 1 32701 0.0145591 1
gene 1 1 23 -2.43358 0 33557 -2.43358 1
gene 1 829 21 0.167056 0 33701 0.167056 1
gene 1 12 1349 -0.208793 1 34335 -0.208793 1
gene 1 1349 12 1.20408 0 34336 1.20408 1
gene 1 829 829 -1.13957 1 34536 -1.13957 1
gene 1 20 19 2.17035 0 35139 2.17035 1
gene 1 9 19 -0.0827304 0 35534 -0.0827304 1
gene 1 18 19 1.67528 0 37069 1.67528 1
gene 1 829 35 -1.29021 0 37356 -1.29021 1
gene 1 3 15 1.518 0 39480 1.518 1
gene 1 63 24 4.36411 0 40699 4.36411 1
gene 1 1586 16 -0.568969 0 40910 -0.568969 1
gene 1 15 1601 2.73515 0 41174 2.73515 1
gene 1 1601 22 6.16126 0 41175 6.16126 1
gene 1 1349 18 -1.17684 0 42015 -1.17684 1
gene 1 26 26 4.19582 1 42709 4.19582 1
gene 1 829 33 3.05731 0 43494 3.05731 1
gene 1 1601 1601 -1.81447 1 44867 -1.81447 1
gene 1 16 22 -0.446326 0 45127 -0.446326 1
gene 1 24 1586 3.02357 0 45480 3.02357 1
gene 1 1 25 -2.14765 0 45679 -2.14765 1
gene 1 3 14 -1.85414 0 46079 -1.85414 1
gene 1 1601 16 -0.135076 0 46290 -0.135076 1
gene 1 5 21 -1.5969 0 46480 -1.5969 1
gene 1 1601 1586 -0.265337 0 46703 -0.265337 1
gene 1 6 21 -2.5407 0 47311 -2.5407 1
gene 1 24 24 1.25166 1 48593 1.25166 1
gene 1 63 23 -0.983168 0 49282 -0.983168 1
gene 1 14 12 -0.0215043 0 49641 -0.0215043 1
gene 1 31 33 -0.230821 0 49741 -0.230821 1
gene 1 21 20 1.24668 0 50416 1.24668 1
gene 1 4 22 -0.935334 0 50645 -0.935334 1
gene 1 15 15 -0.513885 1 51017 -0.513885 1
gene 1 9 27 -0.0620319 0 52690 -0.0620319 1
gene 1 1 17 1.02094 0 53291 1.02094 1
gene 1 6 15 -0.471106 0 53471 -0.471106 1
gene 1 15 22 -1.61303 0 53870 -1.61303 1
gene 1 23 15 1.20842 0 54960 1.20842 1
gene 1 8 25 -0.704423 0 55395 -0.704423 1
gene 1 26 17 -0.183798 0 55818 -0.183798 1
gene 1 63 22 0.987855 0 56006 0.987855 1
gene 1 7 1601 0.265004 0 56225 0.265004 1
gene 1 35 35 0.00339948 1 56356 0.00339948 1
gene 1 7 22 0.23254 0 56846 0.23254 1
gene 1 16 16 -0.348486 1 57461 -0.348486 1
gene 1 4 12 -0.0614209 0 57668 -0.0614209 1
gene 1 33 24 0.232616 0 57834 0.232616 1
gene 1 33 26 0.526932 0 58245 0.526932 1
gene 1 3 12 -2.0389 0 58498 -2.0389 1
gene 1 8 63 -0.875968 0 59516 -0.875968 1
gene 1 11 16 -0.0546689 0 59929 -0.0546689 1
gene 1 17 18 -0.11222 0 60142 -0.11222 1
gene 1 1349 2314 0.753471 0 60564 0.612846 1
gene 1 2314 26 -2.58704 0 60565 -1.86087 1
gene 1 9 24 -0.103306 0 60740 -0.103306 1
gene 1 15 18 1.25316 0 61133 1.25316 1
gene 1 2 176 -0.35083 0 61914 -0.35083 1
gene 1 63 26 -0.909276 0 62109 -0.909276 1
gene 1 33 2386 1.31833 0 62355 1.1572 1
gene 1 2386 22 -0.0768179 0 62356 -0.0794752 1
gene 1 12 19 -0.0434461 0 62681 -0.0434461 1
gene 1 25 17 1.51323 0 63242 1.51323 1
gene 1 1 27 -0.26456 0 64245 -0.26456 1
gene 1 13 13 1.79525 1 64447 1.79525 1
gene 1 6 176 1.08119 0 64863 1.08119 1
gene 1 6 20 -0.0644288 0 65426 -0.0644288 1
gene 1 31 18 0.338046 0 65913 0.338046 1
gene 1 5 16 0.497182 0 66214 0.497182 1
gene 1 63 1586 0.895076 0 66829 0.895076 1
gene 1 829 13 0.460052 0 67037 0.460052 1
gene 1 13 1349 0.655098 1 67199 0.655098 1
gene 1 2386 35 -0.178203 0 67472 -0.178203 1
gene 1 8 2571 1.52408 0 67862 1.08658 1
gene 1 2571 2386 0.56658 0 67863 0.513801 1
gene 1 176 19 -0.748867 0 68183 -0.748867 1
gene 1 19 22 -0.569282 0 68943 -0.569282 1
gene 1 2571 31 0.387666 0 69146 0.387666 1
gene 1 26 2571 0.950378 1 69385 0.950378 1
genomeend 320
