/* Organism #47890640 Fitness: -70545.6 
genomestart 825
trait 1 0.0920645 0.147787 0.997211 0.112408 0.585746 0.51346 0.492515 0.433736 
node 1 1 0
node 2 1 1
node 3 1 1
node 4 1 1
node 5 1 1
node 6 1 1
node 7 1 1
node 8 1 1
node 9 1 1
node 10 1 1
node 11 1 1
node 12 1 2
node 13 1 2
node 14 1 2
node 15 1 2
node 16 1 2
node 17 1 2
node 18 1 2
node 19 1 2
node 20 1 2
node 21 1 2
node 22 1 2
node 23 1 2
node 24 1 2
node 25 1 2
node 27 1 3
node 35 1 3
node 974 1 3
node 1049 1 3
node 1741 1 3
node 1877 1 3
node 2184 1 3
node 2445 1 3
gene 1 1 27 -5.22733 0 2 -5.22733 1
gene 1 2 27 6.86874 0 12 6.86874 1
gene 1 2 35 -1.16133 0 20 -1.16133 1
gene 1 3 27 -2.55147 0 22 -2.55147 1
gene 1 4 35 2.13475 0 40 2.13475 1
gene 1 5 27 -2.24801 0 42 -2.24801 1
gene 1 5 35 2.97786 0 50 2.97786 1
gene 1 8 27 1.00778 0 72 1.00778 1
gene 1 9 27 -6.89947 0 82 -6.89947 1
gene 1 10 27 -3.97999 0 92 -3.97999 1
gene 1 10 35 1.0412 0 100 1.0412 1
gene 1 11 27 6.95266 0 102 6.95266 1
gene 1 27 12 -1.68067 0 125 -1.68067 1
gene 1 27 15 -2.24702 0 128 -2.24702 1
gene 1 27 16 3.9389 0 129 3.9389 1
gene 1 27 17 -2.97173 0 130 -2.97173 1
gene 1 27 18 5.73 0 131 5.73 1
gene 1 27 19 3.24419 0 132 3.24419 1
gene 1 27 20 1.19737 0 133 1.19737 1
gene 1 27 21 1.20821 0 134 1.20821 1
gene 1 27 22 1.86429 0 135 1.86429 1
gene 1 27 23 -7.88996 0 136 -7.88996 1
gene 1 27 24 2.37774 0 137 2.37774 1
gene 1 27 25 7.54147 0 138 7.54147 1
gene 1 35 12 7.48699 0 237 7.48699 1
gene 1 35 13 0.406626 0 238 0.406626 1
gene 1 35 14 5.87953 0 239 5.87953 1
gene 1 35 15 3.12062 0 240 3.12062 1
gene 1 35 16 4.74742 0 241 4.74742 1
gene 1 35 19 0.171646 0 244 0.171646 1
gene 1 35 23 -1.22233 0 248 -1.22233 1
gene 1 35 24 -5.45837 0 249 -5.45837 1
gene 1 13 14 1.3048 0 639 1.3048 1
gene 1 12 13 -2.50337 0 2599 -2.50337 1
gene 1 8 22 -0.775324 0 4328 -0.775324 1
gene 1 8 20 0.534847 0 5103 0.534847 1
gene 1 6 15 -3.89912 0 6436 -3.89912 1
gene 1 18 18 1.63716 1 6599 1.63716 1
gene 1 3 19 -2.99708 0 8642 -2.99708 1
gene 1 22 15 -1.8013 0 12893 -1.8013 1
gene 1 16 25 -0.697788 0 13575 -0.697788 1
gene 1 2 24 5.42919 0 15008 5.42919 1
gene 1 6 27 2.34599 0 17153 2.34599 1
gene 1 15 18 1.14339 0 18671 1.14339 1
gene 1 23 25 -5.37439 0 19883 -5.37439 1
gene 1 4 13 -4.49952 0 20209 -4.49952 1
gene 1 35 35 -4.52835 1 20586 -4.52835 1
gene 1 5 19 -2.59238 0 21270 -2.59238 1
gene 1 18 13 -1.65239 0 21649 -1.65239 1
gene 1 23 17 -4.39021 0 23853 -4.39021 1
gene 1 22 22 -2.11359 1 25369 -2.11359 1
gene 1 3 1049 -1.39947 0 26095 -1.39947 1
gene 1 5 16 -1.07832 0 26988 -1.07832 1
gene 1 6 14 0.971506 0 27631 0.971506 1
gene 1 18 19 1.86712 0 28228 1.86712 1
gene 1 14 14 2.68885 1 29439 2.68885 1
gene 1 12 14 -4.32171 0 31060 -4.32171 1
gene 1 21 15 0.796828 0 32003 0.796828 1
gene 1 22 16 1.44467 0 32204 1.44467 1
gene 1 35 27 2.33371 0 33044 2.33371 1
gene 1 22 13 -4.0194 0 33257 -4.0194 1
gene 1 8 18 -2.25993 0 35181 -2.25993 1
gene 1 14 27 -5.04321 1 38384 -5.04321 1
gene 1 25 15 -3.24721 0 38776 -3.24721 1
gene 1 11 20 -1.55676 0 40741 -1.55676 1
gene 1 4 974 -1.42026 0 41263 -1.42026 1
gene 1 1049 18 -1.87705 0 41848 -1.87705 1
gene 1 21 23 0.55831 0 42044 0.55831 1
gene 1 974 25 1.28729 0 42994 1.28729 1
gene 1 23 16 -3.42434 0 44366 -3.42434 1
gene 1 13 1741 0.987845 0 44870 0.987845 1
gene 1 12 16 1.91867 1 45835 1.91867 1
gene 1 11 24 -0.378311 0 46209 -0.378311 1
gene 1 10 1877 0.557464 0 48585 0.557464 1
gene 1 1877 14 -1.24525 0 48586 -1.24525 1
gene 1 5 1877 -2.9302 0 48753 -2.9302 1
gene 1 17 24 1.0156 0 49941 1.0156 1
gene 1 7 27 -2.15572 0 50322 -2.15572 1
gene 1 21 21 -1.7413 1 50729 -1.7413 1
gene 1 8 1049 0.794872 0 51558 0.794872 1
gene 1 3 17 0.463303 0 51926 0.463303 1
gene 1 16 1741 -1.38169 0 52730 -1.38169 1
gene 1 24 27 -0.00193801 1 52948 -0.00193801 1
gene 1 25 1049 0.232341 0 53364 0.232341 1
gene 1 6 19 -1.00309 0 53748 -1.00309 1
gene 1 21 14 -0.013315 0 54698 -0.013315 1
gene 1 23 20 -0.57046 0 55297 -0.57046 1
gene 1 9 1049 -1.15399 0 55898 -1.15399 1
gene 1 15 2184 1.17 0 57070 1.17 1
gene 1 9 14 1.77767 0 57458 1.77767 1
gene 1 25 27 -1.11471 1 57641 -1.11471 1
gene 1 974 35 0.873241 0 58475 0.873241 1
gene 1 1 24 -1.42359 0 58649 -1.42359 1
gene 1 27 1877 -1.50584 0 59061 -1.50584 1
gene 1 1049 14 -0.489249 0 59267 -0.489249 1
gene 1 15 15 -0.645957 1 59409 -0.645957 1
gene 1 2 22 0.0181547 0 59939 0.0181547 1
gene 1 8 19 0.557481 0 60073 0.557481 1
gene 1 2 13 -1.4189 0 60359 -1.4189 1
gene 1 4 23 0.0216332 0 60516 0.0216332 1
gene 1 5 15 -1.24623 0 61041 -1.24623 1
gene 1 11 35 0.43573 0 61643 0.43573 1
gene 1 1877 1877 -0.800677 1 61751 -0.800677 1
gene 1 2 12 0.57697 0 62611 0.57697 1
gene 1 25 23 0.220014 1 62797 0.220014 1
gene 1 35 18 -0.119094 0 62990 -0.119094 1
gene 1 8 13 0.777181 0 63874 0.777181 1
gene 1 18 17 0.501845 0 64015 0.501845 1
gene 1 21 2445 1 0 64278 0 1
gene 1 2445 19 3.34222 0 64279 0 1
gene 1 4 24 -0.0822283 0 64655 -0.0822283 1
gene 1 21 24 0.896906 0 64813 0.896906 1
gene 1 11 15 -0.421456 0 65026 -0.421456 1
gene 1 3 35 0.548735 0 66037 0.548735 1
gene 1 1741 20 0.1996 0 66191 0.1996 1
gene 1 6 1877 0.975103 0 66515 0.975103 1
genomeend 825
