/* Organism #60156672 Fitness: -97248 
genomestart 356
trait 1 0 0.379579 0.982251 0.113086 0.466398 0.99839 0.429986 0.0586449 
node 1 1 0
node 2 1 1
node 3 1 1
node 4 1 1
node 5 1 1
node 6 1 1
node 7 1 1
node 8 1 1
node 9 1 1
node 10 1 1
node 11 1 1
node 12 1 2
node 13 1 2
node 14 1 2
node 15 1 2
node 16 1 2
node 17 1 2
node 18 1 2
node 19 1 2
node 20 1 2
node 21 1 2
node 22 1 2
node 23 1 2
node 24 1 2
node 25 1 2
node 33 1 3
node 34 1 3
node 1096 1 3
node 1655 1 3
node 1979 1 3
node 2274 1 3
node 2444 1 3
gene 1 1 33 6.31903 0 8 6.31903 1
gene 1 1 34 -0.536006 0 9 -0.536006 1
gene 1 2 33 0.145621 0 18 0.145621 1
gene 1 3 34 -1.67258 0 29 -1.67258 1
gene 1 4 34 -3.1842 0 39 -3.1842 1
gene 1 5 33 3.7944 0 48 3.7944 1
gene 1 5 34 -0.702873 0 49 -0.702873 1
gene 1 6 33 -0.5671 0 58 -0.5671 1
gene 1 6 34 -3.31192 0 59 -3.31192 1
gene 1 7 33 -4.0985 0 68 -4.0985 1
gene 1 7 34 -1.11408 0 69 -1.11408 1
gene 1 11 33 -0.367164 0 108 -0.367164 1
gene 1 11 34 0.0199781 0 109 0.0199781 1
gene 1 33 12 6.53691 0 209 6.53691 1
gene 1 33 13 -0.665688 0 210 -0.665688 1
gene 1 33 14 1.18093 0 211 1.18093 1
gene 1 33 15 -0.337386 0 212 -0.337386 1
gene 1 33 16 -2.30127 0 213 -2.30127 1
gene 1 33 17 0.491889 0 214 0.491889 1
gene 1 33 18 -1.44854 0 215 -1.44854 1
gene 1 33 20 -2.76255 0 217 -2.76255 1
gene 1 33 22 -2.5469 0 219 -2.5469 1
gene 1 33 23 -0.84261 0 220 -0.84261 1
gene 1 33 25 -2.10498 0 222 -2.10498 1
gene 1 34 12 0.0903943 0 223 0.0903943 1
gene 1 34 13 2.53855 0 224 2.53855 1
gene 1 34 17 0.560479 0 228 0.560479 1
gene 1 34 18 -1.34159 0 229 -1.34159 1
gene 1 34 19 1.07718 0 230 1.07718 1
gene 1 34 21 4.52907 0 232 4.52907 1
gene 1 34 22 -0.033428 0 233 -0.033428 1
gene 1 34 24 3.91842 0 235 3.91842 1
gene 1 34 25 0.406721 0 236 0.406721 1
gene 1 22 14 -3.16323 0 661 -3.16323 1
gene 1 8 13 -2.03928 0 1052 -2.03928 1
gene 1 18 14 -2.56223 0 1672 -2.56223 1
gene 1 23 18 0.304118 0 2514 0.304118 1
gene 1 2 17 0.368946 0 2908 0.368946 1
gene 1 14 14 2.88995 1 3337 2.88995 1
gene 1 13 13 0.052461 1 3664 0.052461 1
gene 1 10 13 0.0049265 0 4736 0.0049265 1
gene 1 7 18 1.42966 0 5856 1.42966 1
gene 1 25 25 1.05638 1 6045 1.05638 1
gene 1 5 14 1.63418 0 7744 1.63418 1
gene 1 20 16 -3.35759 0 8474 -3.35759 1
gene 1 34 34 -2.81744 1 8871 -2.81744 1
gene 1 15 22 1.1132 0 9450 1.1132 1
gene 1 6 22 4.79781 0 9771 4.79781 1
gene 1 10 16 -3.06038 0 10839 -3.06038 1
gene 1 15 19 -3.69175 0 11397 -3.69175 1
gene 1 12 17 0.804285 0 12400 0.804285 1
gene 1 13 18 -2.03552 0 12488 -2.03552 1
gene 1 12 15 -3.6419 0 12901 -3.6419 1
gene 1 7 22 0.370318 0 13308 0.370318 1
gene 1 20 22 5.84425 0 13669 5.84425 1
gene 1 6 17 2.03237 0 14726 2.03237 1
gene 1 11 25 1.3027 0 16220 1.3027 1
gene 1 3 17 2.29141 0 16759 2.29141 1
gene 1 2 16 0.950735 0 19366 0.950735 1
gene 1 16 23 -1.61405 0 19634 -1.61405 1
gene 1 33 33 -2.52392 1 19771 -2.52392 1
gene 1 1 14 -0.124854 0 22363 -0.124854 1
gene 1 25 17 1.82818 0 23564 1.82818 1
gene 1 9 19 1.7205 0 24138 1.7205 1
gene 1 20 20 -0.431055 1 24728 -0.431055 1
gene 1 21 17 -0.292693 0 25203 -0.292693 1
gene 1 3 19 -0.508476 0 25354 -0.508476 1
gene 1 7 25 0.356743 0 25720 0.356743 1
gene 1 1096 34 -1.10606 0 26082 -1.10606 1
gene 1 1 13 -2.44056 0 26267 -2.44056 1
gene 1 24 24 0.975663 1 27488 0.975663 1
gene 1 8 22 -0.986476 0 31603 -0.986476 1
gene 1 2 34 -0.202513 0 34233 -0.202513 1
gene 1 12 23 0.0958885 0 35013 0.0958885 1
gene 1 4 12 -1.72972 0 35196 -1.72972 1
gene 1 7 19 1.03304 0 36991 1.03304 1
gene 1 5 24 1.81684 0 37202 1.81684 1
gene 1 20 24 2.21753 0 39832 2.21753 1
gene 1 22 1655 0.165109 0 40247 0.161679 1
gene 1 1655 23 -1.95415 0 40248 -1.95415 1
gene 1 6 24 0.100658 0 42065 0.100658 1
gene 1 6 12 0.588201 0 42423 0.588201 1
gene 1 9 20 -1.62522 0 43306 -1.62522 1
gene 1 24 25 0.196639 0 43553 0.196639 1
gene 1 16 21 -0.71287 0 43746 -0.71287 1
gene 1 7 1096 0.173563 0 44246 0.173563 1
gene 1 23 23 -0.218854 1 44654 -0.218854 1
gene 1 5 15 -1.15416 0 46663 -1.15416 1
gene 1 10 1655 1.01583 0 47756 1.01583 1
gene 1 17 1979 -1.03428 1 48001 -1.03428 1
gene 1 1979 17 1.69759 0 48002 1.69759 1
gene 1 8 25 -0.0370899 0 48184 -0.0370899 1
gene 1 20 34 -0.427537 0 48376 -0.427537 1
gene 1 19 13 -0.955328 0 48978 -0.955328 1
gene 1 17 22 1.34622 0 49385 1.34622 1
gene 1 4 18 -0.267398 0 51270 -0.267398 1
gene 1 24 23 -0.476753 0 51756 -0.476753 1
gene 1 11 21 0.0502866 0 52152 0.0502866 1
gene 1 5 22 -0.405313 0 52343 -0.405313 1
gene 1 22 22 0.290356 1 52556 0.290356 1
gene 1 10 34 0.339805 0 53041 0.339805 1
gene 1 8 1096 -0.0568658 0 53279 -0.0568658 1
gene 1 9 21 0.798509 0 53462 0.798509 1
gene 1 1979 19 -0.667544 0 53842 -0.667544 1
gene 1 6 14 1.40538 0 54423 1.40538 1
gene 1 15 15 -0.0959427 1 54943 -0.0959427 1
gene 1 5 19 2.15253 0 55313 2.15253 1
gene 1 21 12 -0.363564 0 55445 -0.363564 1
gene 1 10 18 -0.0920878 0 55755 -0.0920878 1
gene 1 1979 2274 0.332246 0 55890 0.168183 1
gene 1 4 24 1.30045 0 56250 1.30045 1
gene 1 6 21 0.755886 0 56648 0.755886 1
gene 1 1096 1096 0.619146 1 57568 0.619146 1
gene 1 8 34 -0.415824 0 57877 -0.415824 1
gene 1 12 25 -0.472798 0 59325 -0.472798 1
gene 1 2274 1655 1.3267 0 59752 1.3267 1
gene 1 13 2444 -0.325778 0 59921 -0.786715 1
gene 1 2444 14 -0.427641 0 59922 -0.0841011 1
gene 1 8 21 0.0184506 0 60259 0.0184506 1
gene 1 8 17 0.402951 0 60399 0.402951 1
gene 1 24 14 0.246873 0 60657 0.246873 1
gene 1 33 21 0.319307 0 60849 0.319307 1
gene 1 1979 1979 -0.864761 1 61245 -0.864761 1
gene 1 2444 1655 0.732094 0 62084 0.732094 1
gene 1 23 14 1.0358 0 62289 1.0358 1
gene 1 2444 17 -0.58419 0 62910 -0.58419 1
gene 1 9 25 0.584938 0 63234 0.584938 1
gene 1 13 1979 0.139211 1 63769 0.139211 1
gene 1 1979 14 -0.87444 0 63950 -0.87444 1
gene 1 1096 19 -0.252964 0 64205 -0.252964 1
gene 1 2274 2274 -0.206277 1 64422 -0.206277 1
gene 1 1655 14 0.192908 0 64637 0.192908 1
gene 1 8 15 -0.858396 0 65582 -0.858396 1
gene 1 19 25 -0.551871 0 66126 -0.551871 1
gene 1 16 16 -0.520907 1 66497 -0.520907 1
gene 1 1979 23 0.205558 0 67148 0.205558 1
genomeend 356
