/* Organism #140680579012664 Fitness: -71178.3 
genomestart 415
trait 1 0.349118 0.478832 0.951378 0.328003 0.863134 0.812187 0.961401 1 
node 1 1 0
node 2 1 1
node 3 1 1
node 4 1 1
node 5 1 1
node 6 1 1
node 7 1 1
node 8 1 1
node 9 1 1
node 10 1 1
node 11 1 1
node 12 1 2
node 13 1 2
node 14 1 2
node 15 1 2
node 16 1 2
node 17 1 2
node 18 1 2
node 19 1 2
node 20 1 2
node 21 1 2
node 22 1 2
node 23 1 2
node 24 1 2
node 25 1 2
node 26 1 3
node 28 1 3
node 29 1 3
node 31 1 3
node 32 1 3
node 34 1 3
node 172 1 3
node 436 1 3
node 1453 1 3
node 2116 1 3
node 2202 1 3
node 2580 1 3
gene 1 1 26 -3.07405 0 1 -3.07405 1
gene 1 1 29 -5.38309 0 4 -5.38309 1
gene 1 1 32 -6.30359 0 7 -6.30359 1
gene 1 1 34 0.0784979 0 9 0.0784979 1
gene 1 2 28 -0.135757 0 13 -0.135757 1
gene 1 2 29 -4.2849 0 14 -4.2849 1
gene 1 2 32 -0.0455628 0 17 -0.0455628 1
gene 1 2 34 -0.361716 0 19 -0.361716 1
gene 1 3 28 -2.38461 0 23 -2.38461 1
gene 1 3 29 2.70675 0 24 2.70675 1
gene 1 4 29 1.33371 0 34 1.33371 1
gene 1 4 31 4.16691 0 36 4.16691 1
gene 1 4 32 -1.43071 0 37 -1.43071 1
gene 1 5 28 0.399662 0 43 0.399662 1
gene 1 5 29 -5.46594 0 44 -5.46594 1
gene 1 5 34 -3.08493 0 49 -3.08493 1
gene 1 6 29 0.556298 0 54 0.556298 1
gene 1 6 31 0.30642 0 56 0.30642 1
gene 1 7 28 0.805963 0 63 0.805963 1
gene 1 7 29 1.90841 0 64 1.90841 1
gene 1 7 32 1.35671 0 67 1.35671 1
gene 1 7 34 0.835098 0 69 0.835098 1
gene 1 8 26 0.735744 0 71 0.735744 1
gene 1 8 29 3.14748 0 74 3.14748 1
gene 1 8 31 1.78631 0 76 1.78631 1
gene 1 8 32 0.382791 0 77 0.382791 1
gene 1 8 34 0.475931 0 79 0.475931 1
gene 1 9 26 -2.00413 0 81 -2.00413 1
gene 1 9 28 1.80226 0 83 1.80226 1
gene 1 9 29 0.427438 0 84 0.427438 1
gene 1 9 31 4.19913 0 86 4.19913 1
gene 1 9 32 -0.941969 0 87 -0.941969 1
gene 1 9 34 -1.07997 0 89 -1.07997 1
gene 1 10 26 -0.878696 0 91 -0.878696 1
gene 1 10 31 -0.956746 0 96 -0.956746 1
gene 1 10 32 -1.01328 0 97 -1.01328 1
gene 1 11 26 0.432258 0 101 0.432258 1
gene 1 11 32 1.15528 0 107 1.15528 1
gene 1 11 34 -0.284347 0 109 -0.284347 1
gene 1 26 12 -3.33651 0 111 -3.33651 1
gene 1 26 14 -0.737084 0 113 -0.737084 1
gene 1 26 15 -3.23348 0 114 -3.23348 1
gene 1 26 16 -0.842236 0 115 -0.842236 1
gene 1 26 17 -0.366844 0 116 -0.366844 1
gene 1 26 18 1.82509 0 117 1.82509 1
gene 1 26 19 1.92979 0 118 1.92979 1
gene 1 26 22 -1.19803 0 121 -1.19803 1
gene 1 26 24 -1.69333 0 123 -1.69333 1
gene 1 26 25 0.602358 0 124 0.602358 1
gene 1 28 12 -1.06236 0 139 -1.06236 1
gene 1 28 14 2.69469 0 141 2.69469 1
gene 1 28 15 2.57296 0 142 2.57296 1
gene 1 28 16 -2.07868 0 143 -2.07868 1
gene 1 28 17 0.909051 0 144 0.909051 1
gene 1 28 20 -0.577963 0 147 -0.577963 1
gene 1 28 21 2.28873 0 148 2.28873 1
gene 1 28 23 -3.56829 0 150 -3.56829 1
gene 1 28 24 -1.69518 0 151 -1.69518 1
gene 1 28 25 -0.0691915 0 152 -0.0691915 1
gene 1 29 13 0.394439 0 154 0.394439 1
gene 1 29 14 -3.64014 0 155 -3.64014 1
gene 1 29 15 0.895924 0 156 0.895924 1
gene 1 29 16 -2.8236 0 157 -2.8236 1
gene 1 29 19 2.76767 0 160 2.76767 1
gene 1 29 20 2.60617 0 161 2.60617 1
gene 1 29 23 -1.59604 0 164 -1.59604 1
gene 1 29 25 -4.22193 0 166 -4.22193 1
gene 1 31 12 0.568769 0 181 0.568769 1
gene 1 31 14 -1.30737 0 183 -1.30737 1
gene 1 31 15 -4.41268 0 184 -4.41268 1
gene 1 31 17 -1.44248 0 186 -1.44248 1
gene 1 31 18 1.80797 0 187 1.80797 1
gene 1 31 19 -1.73566 0 188 -1.73566 1
gene 1 31 20 0.107165 0 189 0.107165 1
gene 1 31 21 -1.24159 0 190 -1.24159 1
gene 1 31 24 0.261757 0 193 0.261757 1
gene 1 31 25 -1.59037 0 194 -1.59037 1
gene 1 32 12 -2.17383 0 195 -2.17383 1
gene 1 32 13 1.67904 0 196 1.67904 1
gene 1 32 15 0.881739 0 198 0.881739 1
gene 1 32 16 4.41887 0 199 4.41887 1
gene 1 32 18 -0.956141 0 201 -0.956141 1
gene 1 32 19 0.856778 0 202 0.856778 1
gene 1 32 20 4.41836 0 203 4.41836 1
gene 1 32 22 0.689162 0 205 0.689162 1
gene 1 32 24 2.74064 0 207 2.74064 1
gene 1 32 25 0.609243 0 208 0.609243 1
gene 1 34 12 -4.75914 0 223 -4.75914 1
gene 1 34 13 -0.0576573 0 224 -0.0576573 1
gene 1 34 14 -0.291275 0 225 -0.291275 1
gene 1 34 18 3.05557 0 229 3.05557 1
gene 1 34 21 4.85893 0 232 4.85893 1
gene 1 34 22 2.84271 0 233 2.84271 1
gene 1 34 23 3.7048 0 234 3.7048 1
gene 1 34 24 2.76591 0 235 2.76591 1
gene 1 34 25 4.02847 0 236 4.02847 1
gene 1 7 23 -0.21713 0 414 -0.21713 1
gene 1 14 15 -1.86789 0 1293 -1.86789 1
gene 1 1 14 3.04456 0 2384 3.04456 1
gene 1 17 24 0.370329 0 3381 0.370329 1
gene 1 18 18 -0.844369 1 4726 -0.844369 1
gene 1 18 13 0.231101 0 5797 0.231101 1
gene 1 25 21 -0.524844 0 6864 -0.524844 1
gene 1 17 17 -0.0323654 1 7886 -0.0323654 1
gene 1 16 17 -0.38789 0 8294 -0.38789 1
gene 1 3 172 0.674589 0 8541 0.674589 1
gene 1 2 25 -0.582865 0 9026 -0.582865 1
gene 1 8 18 0.101458 0 9427 0.101458 1
gene 1 11 13 -2.364 0 9855 -2.364 1
gene 1 10 20 -0.318995 0 10902 -0.318995 1
gene 1 6 436 -0.326233 0 11166 -0.326233 1
gene 1 436 436 1.95311 1 11363 1.95311 1
gene 1 436 16 -0.44549 0 11798 -0.44549 1
gene 1 19 21 1.2728 0 12539 1.2728 1
gene 1 32 32 0.609593 1 12942 0.609593 1
gene 1 1 13 -0.197084 0 13145 -0.197084 1
gene 1 26 29 -0.786275 0 14153 -0.786275 1
gene 1 1 16 -2.14194 0 14363 -2.14194 1
gene 1 28 28 0.38044 1 15424 0.38044 1
gene 1 31 31 -0.133146 1 15794 -0.133146 1
gene 1 11 14 -5.42226 0 16271 -5.42226 1
gene 1 10 172 -0.605227 0 17204 -0.605227 1
gene 1 6 22 -1.59615 0 17317 -1.59615 1
gene 1 19 14 3.50198 0 18358 3.50198 1
gene 1 15 15 -0.916669 1 18765 -0.916669 1
gene 1 25 17 1.15642 0 18979 1.15642 1
gene 1 19 31 -0.577879 1 19576 -0.577879 1
gene 1 3 19 0.411984 0 20000 0.411984 1
gene 1 34 34 -0.23722 1 21162 -0.23722 1
gene 1 29 18 -0.757316 0 21412 -0.757316 1
gene 1 22 29 0.0502235 0 25388 0.0502235 1
gene 1 19 19 -0.913948 1 25576 -0.913948 1
gene 1 2 21 1.05051 0 26152 1.05051 1
gene 1 6 172 1.16624 0 26991 1.16624 1
gene 1 23 436 -0.964265 0 27613 -0.964265 1
gene 1 9 12 -1.89113 0 27973 -1.89113 1
gene 1 26 23 -0.647146 0 29699 -0.647146 1
gene 1 12 12 -1.13165 1 29870 -1.13165 1
gene 1 19 436 0.982029 0 30710 0.982029 1
gene 1 11 21 0.405109 0 31614 0.405109 1
gene 1 2 172 0.167629 0 31815 0.167629 1
gene 1 436 14 -0.1525 0 32578 -0.1525 1
gene 1 23 14 -0.717621 0 32981 -0.717621 1
gene 1 21 18 -0.90023 0 34456 -0.90023 1
gene 1 3 23 0.492571 0 34725 0.492571 1
gene 1 8 172 1.91885 0 35098 1.91885 1
gene 1 12 436 -0.391397 0 35324 -0.391397 1
gene 1 5 19 -0.0994339 0 35522 -0.0994339 1
gene 1 22 12 -0.69089 0 35878 -0.69089 1
gene 1 22 172 -1.40541 0 37089 -1.40541 1
gene 1 29 29 0.0745358 1 37299 0.0745358 1
gene 1 3 13 -0.824923 0 37667 -0.824923 1
gene 1 5 25 -0.596365 0 37990 -0.596365 1
gene 1 28 1453 1.17908 0 38578 0.820195 1
gene 1 1453 18 0.631813 0 38579 0.328955 1
gene 1 1453 1453 1.13739 1 38883 1.13739 1
gene 1 3 12 -0.116859 0 39321 -0.116859 1
gene 1 18 16 -0.395645 0 39446 -0.395645 1
gene 1 9 22 -1.20876 0 40691 -1.20876 1
gene 1 4 26 -1.38026 0 41309 -1.38026 1
gene 1 8 15 -0.485324 0 41511 -0.485324 1
gene 1 3 26 1.27883 0 42343 1.27883 1
gene 1 6 19 -0.425962 0 43270 -0.425962 1
gene 1 10 15 -0.436591 0 43469 -0.436591 1
gene 1 23 29 -0.625951 1 43682 -0.625951 1
gene 1 32 31 0.488524 0 44076 0.488524 1
gene 1 22 24 -0.151187 0 44663 -0.151187 1
gene 1 26 28 -0.10071 0 45656 -0.10071 1
gene 1 6 25 -0.213476 0 45812 -0.213476 1
gene 1 12 15 -0.144785 0 45946 -0.144785 1
gene 1 23 12 -0.295589 0 46211 -0.295589 1
gene 1 21 21 0.361608 1 46296 0.361608 1
gene 1 26 13 -0.738517 0 47428 -0.738517 1
gene 1 1453 16 -0.957402 0 47618 -0.957402 1
gene 1 20 12 0.204961 0 48225 0.204961 1
gene 1 31 22 -0.289126 0 48453 -0.289126 1
gene 1 2 1453 0.386981 0 49346 0.386981 1
gene 1 13 14 0.923307 0 49998 0.923307 1
gene 1 1 172 1.12374 0 51366 1.12374 1
gene 1 9 1453 0.789717 0 51692 0.789717 1
gene 1 20 172 -0.922034 0 52383 -0.922034 1
gene 1 16 16 0.0177399 1 52791 0.0177399 1
gene 1 11 15 -0.538401 0 53394 -0.538401 1
gene 1 17 31 -0.309013 1 53990 -0.309013 1
gene 1 3 21 0.175307 0 55507 0.175307 1
gene 1 28 2116 1.05014 0 56312 0.393887 1
gene 1 2116 22 1.30019 0 56313 0.682134 1
gene 1 3 2116 -0.146788 0 56524 -0.146788 1
gene 1 1453 15 -0.0149504 0 56732 -0.0149504 1
gene 1 28 13 -1.27005 0 57999 -1.27005 1
gene 1 11 31 -0.0796923 0 58394 -0.0796923 1
gene 1 28 2202 1 0 58624 0.25 1
gene 1 2202 32 0.0876927 0 58625 0.147962 1
gene 1 2116 24 -0.96681 0 59245 -0.96681 1
gene 1 32 172 -0.698348 0 60281 -0.698348 1
gene 1 12 13 0.655087 0 60708 0.655087 1
gene 1 11 25 0.0203907 0 60925 0.0203907 1
gene 1 7 18 -0.642053 0 61253 -0.642053 1
gene 1 172 15 -0.237404 0 62479 -0.237404 1
gene 1 25 18 0.131571 0 62598 0.131571 1
gene 1 436 1453 0.857693 0 62805 0.857693 1
gene 1 7 31 -0.576009 0 63269 -0.576009 1
gene 1 26 20 -0.220209 0 63440 -0.220209 1
gene 1 23 26 -0.933049 1 63547 -0.933049 1
gene 1 31 436 0.139993 0 63961 0.139993 1
gene 1 4 2116 -1.28056 0 64115 -1.28056 1
gene 1 7 2202 0.196281 0 64369 0.196281 1
gene 1 26 26 0.258914 1 64469 0.258914 1
gene 1 20 13 0.608687 0 65174 0.608687 1
gene 1 22 1453 0.319547 0 65382 0.319547 1
gene 1 34 16 -0.337082 0 65597 -0.337082 1
gene 1 24 24 0.169161 1 65713 0.169161 1
gene 1 8 2202 -0.978149 0 66211 -0.978149 1
gene 1 34 32 0.60643 0 66945 0.60643 1
gene 1 172 14 -0.0201253 0 67223 -0.0201253 1
gene 1 11 23 0.752973 0 67564 0.752973 1
gene 1 3 2580 1 0 68000 0 1
gene 1 2580 18 0.147524 0 68001 0 1
gene 1 25 24 -0.0330463 0 68362 -0.0330463 1
gene 1 10 24 -0.024684 0 68642 -0.024684 1
gene 1 8 28 0.698311 0 69046 0.698311 1
gene 1 23 19 0.399891 0 69462 0.399891 1
gene 1 14 16 -0.744658 0 69654 -0.744658 1
genomeend 415
