/* Organism #45620896 Fitness: -93326.9 
genomestart 23
trait 1 0.479036 0.857182 0.866543 0.884798 0.812033 0.276542 1 0.229661 
node 1 1 0
node 2 1 1
node 3 1 1
node 4 1 1
node 5 1 1
node 6 1 1
node 7 1 1
node 8 1 1
node 9 1 1
node 10 1 1
node 11 1 1
node 12 1 2
node 13 1 2
node 14 1 2
node 15 1 2
node 16 1 2
node 17 1 2
node 18 1 2
node 19 1 2
node 20 1 2
node 21 1 2
node 22 1 2
node 23 1 2
node 24 1 2
node 25 1 2
node 29 1 3
node 32 1 3
node 35 1 3
node 103 1 3
node 810 1 3
node 1714 1 3
node 2033 1 3
node 2071 1 3
node 2171 1 3
node 2195 1 3
node 2338 1 3
node 2493 1 3
gene 1 1 29 0.151416 0 4 0.151416 1
gene 1 1 32 -1.82811 0 7 -1.82811 1
gene 1 1 35 2.42343 0 10 2.42343 1
gene 1 2 35 1.34219 0 20 1.34219 1
gene 1 3 29 -1.34209 0 24 -1.34209 1
gene 1 3 35 1.70523 0 30 1.70523 1
gene 1 4 29 5.65412 0 34 5.65412 1
gene 1 4 35 3.78828 0 40 3.78828 1
gene 1 5 32 1.68771 0 47 1.68771 1
gene 1 6 32 2.47541 0 57 2.47541 1
gene 1 7 32 -0.491402 0 67 -0.491402 1
gene 1 9 32 -5.25093 0 87 -5.25093 1
gene 1 10 29 -2.96409 0 94 -2.96409 1
gene 1 10 32 -2.23101 0 97 -2.23101 1
gene 1 10 35 -1.05248 0 100 -1.05248 1
gene 1 11 35 0.686753 0 110 0.686753 1
gene 1 29 12 7.26794 0 153 7.26794 1
gene 1 29 15 -2.71684 0 156 -2.71684 1
gene 1 29 16 -0.0475371 0 157 -0.0475371 1
gene 1 29 17 -3.7786 0 158 -3.7786 1
gene 1 29 19 -0.204581 0 160 -0.204581 1
gene 1 29 20 0.576906 0 161 0.576906 1
gene 1 29 22 1.57449 0 163 1.57449 1
gene 1 29 23 2.24445 0 164 2.24445 1
gene 1 29 25 -1.39042 0 166 -1.39042 1
gene 1 32 12 0.876883 0 195 0.876883 1
gene 1 32 13 4.68947 0 196 4.68947 1
gene 1 32 14 -1.59794 0 197 -1.59794 1
gene 1 32 17 1.79113 0 200 1.79113 1
gene 1 32 18 5.22456 0 201 5.22456 1
gene 1 32 19 -0.748974 0 202 -0.748974 1
gene 1 32 20 5.53761 0 203 5.53761 1
gene 1 32 22 3.38781 0 205 3.38781 1
gene 1 32 23 4.13137 0 206 4.13137 1
gene 1 32 24 6.5639 0 207 6.5639 1
gene 1 32 25 -0.983849 0 208 -0.983849 1
gene 1 35 12 3.86314 0 237 3.86314 1
gene 1 35 13 -1.05704 0 238 -1.05704 1
gene 1 35 14 4.26941 0 239 4.26941 1
gene 1 35 15 -0.524971 0 240 -0.524971 1
gene 1 35 16 -8 0 241 -8 1
gene 1 35 18 -8 0 243 -8 1
gene 1 35 20 -0.655695 0 245 -0.655695 1
gene 1 35 22 -0.467329 0 247 -0.467329 1
gene 1 35 23 -6.78762 0 248 -6.78762 1
gene 1 35 25 -5.39563 0 250 -5.39563 1
gene 1 19 12 1.3856 0 816 1.3856 1
gene 1 15 25 3.85051 0 1097 3.85051 1
gene 1 21 13 5.77417 0 1626 5.77417 1
gene 1 29 29 -0.0271027 1 1715 -0.0271027 1
gene 1 5 103 2.07949 0 2014 2.07949 1
gene 1 103 29 5.02662 0 2015 5.02662 1
gene 1 16 22 -1.02442 0 2819 -1.02442 1
gene 1 16 21 0.930961 0 3398 0.930961 1
gene 1 24 15 -0.296396 0 4582 -0.296396 1
gene 1 18 21 1.07282 0 5156 1.07282 1
gene 1 19 22 1.53589 0 6130 1.53589 1
gene 1 2 18 0.582686 0 6824 0.582686 1
gene 1 5 14 2.17926 0 7672 2.17926 1
gene 1 1 13 -7.99622 0 8505 -7.99622 1
gene 1 7 18 -5.12512 0 8642 -5.12512 1
gene 1 18 23 -5.7743 0 9301 -5.7743 1
gene 1 2 14 -0.360064 0 9713 -0.360064 1
gene 1 103 13 3.02761 0 10051 3.02761 1
gene 1 12 20 1.23244 0 11063 1.23244 1
gene 1 25 17 4.98982 0 11665 4.98982 1
gene 1 14 16 2.0829 0 12048 2.0829 1
gene 1 19 17 4.29786 0 13464 4.29786 1
gene 1 18 16 3.04379 0 14574 3.04379 1
gene 1 1 16 0.0419216 0 15512 0.0419216 1
gene 1 11 19 -2.01654 0 15909 -2.01654 1
gene 1 9 22 -2.3502 0 16250 -2.3502 1
gene 1 103 14 -2.31407 0 18083 -2.31407 1
gene 1 103 22 -2.67386 0 18464 -2.67386 1
gene 1 19 20 -2.46353 0 18641 -2.46353 1
gene 1 5 24 1.83167 0 20160 1.83167 1
gene 1 17 22 2.66631 0 20419 2.66631 1
gene 1 9 17 -2.05344 0 20700 -2.05344 1
gene 1 21 810 -2.16441 0 21115 -2.16441 1
gene 1 23 25 1.64391 0 22539 1.64391 1
gene 1 25 12 5.18147 0 22677 5.18147 1
gene 1 22 22 -0.237911 1 23511 -0.237911 1
gene 1 4 103 -2.11354 0 23677 -2.11354 1
gene 1 11 32 0.258991 0 24123 0.258991 1
gene 1 16 17 -5.27288 0 24758 -5.27288 1
gene 1 8 22 3.2182 0 25306 3.2182 1
gene 1 19 25 4.70811 0 26660 4.70811 1
gene 1 15 15 2.59411 1 27541 2.59411 1
gene 1 24 24 0.547195 1 27728 0.547195 1
gene 1 4 20 2.18145 0 27908 2.18145 1
gene 1 10 19 7.03518 0 29212 7.03518 1
gene 1 19 21 -1.90795 0 29369 -1.90795 1
gene 1 24 17 0.59496 0 30352 0.59496 1
gene 1 103 103 2.79893 1 30488 2.79893 1
gene 1 2 21 0.263814 0 31313 0.263814 1
gene 1 9 24 2.6278 0 31896 2.6278 1
gene 1 24 35 -3.11752 0 32051 -3.11752 1
gene 1 4 13 -3.07048 0 32308 -3.07048 1
gene 1 9 29 -1.64986 0 32574 -1.64986 1
gene 1 18 18 -5.23362 1 33447 -5.23362 1
gene 1 2 810 -2.57928 0 33717 -2.57928 1
gene 1 6 14 -2.17947 0 33861 -2.17947 1
gene 1 12 22 1.99364 0 34044 1.99364 1
gene 1 4 14 1.04207 0 35199 1.04207 1
gene 1 15 17 -2.71311 0 36418 -2.71311 1
gene 1 21 20 0.354084 0 39481 0.354084 1
gene 1 12 12 -0.759136 1 39672 -0.759136 1
gene 1 21 21 0.113885 1 39985 0.113885 1
gene 1 14 14 6.54887 1 40365 6.54887 1
gene 1 11 16 -1.45246 0 40607 -1.45246 1
gene 1 11 12 1.09539 0 40885 1.09539 1
gene 1 1 810 0.373971 0 42122 0.373971 1
gene 1 19 13 -3.23984 0 42358 -3.23984 1
gene 1 103 35 0.400126 0 42752 0.400126 1
gene 1 10 810 -3.30278 0 42840 -3.30278 1
gene 1 810 810 1.78189 1 43758 1.78189 1
gene 1 16 1714 -1.61925 0 44516 -1.61925 1
gene 1 1714 13 -1.57217 0 44517 -1.57217 1
gene 1 29 810 1.18728 0 45635 1.18728 1
gene 1 10 21 1.33006 0 46180 1.33006 1
gene 1 8 17 -0.913169 0 47965 -0.913169 1
gene 1 20 15 1.02313 0 48166 1.02313 1
gene 1 3 14 -0.235502 0 48587 -0.235502 1
gene 1 29 35 -0.622777 0 49016 -0.622777 1
gene 1 25 25 0.604085 1 49220 0.604085 1
gene 1 17 17 -1.63045 1 50115 -1.63045 1
gene 1 1 12 1.07429 0 52076 1.07429 1
gene 1 21 2033 -0.304986 0 53255 -0.304986 1
gene 1 2033 22 0.016497 0 53256 0.016497 1
gene 1 16 14 -0.299089 1 53566 -0.299089 1
gene 1 7 1714 -0.982106 0 54343 -0.982106 1
gene 1 3 2071 1.07809 0 54505 1.07809 1
gene 1 2071 13 0.69793 0 55269 0.69793 1
gene 1 16 32 2.7271 1 56103 2.7271 1
gene 1 20 20 0.133408 1 56946 0.133408 1
gene 1 6 2171 -0.195197 0 57294 -0.195197 1
gene 1 11 20 1.44782 0 57696 1.44782 1
gene 1 32 2195 1.38241 0 57971 1.38241 1
gene 1 9 21 1.75736 0 58386 1.75736 1
gene 1 11 18 -2.98504 0 58772 -2.98504 1
gene 1 2171 32 1.56183 0 59970 1.56183 1
gene 1 1714 1714 2.75086 1 61076 2.75086 1
gene 1 13 13 2.45962 1 61681 2.45962 1
gene 1 810 2338 -1.17581 0 61948 -1.17581 1
gene 1 23 23 -2.26928 1 62125 -2.26928 1
gene 1 1 20 0.813171 0 62448 0.813171 1
gene 1 16 20 -1.06676 0 62946 -1.06676 1
gene 1 8 35 1.40848 0 63177 1.40848 1
gene 1 11 24 -0.214229 0 64086 -0.214229 1
gene 1 3 19 1.36945 0 64833 1.36945 1
gene 1 103 16 2.77898 0 65025 2.77898 1
gene 1 2338 2338 -0.88015 1 65643 -0.88015 1
gene 1 17 2033 -0.525716 0 65857 -0.525716 1
gene 1 29 2493 -1.23367 0 66293 -1.23367 1
gene 1 2493 18 1.48913 0 66294 1.48913 1
gene 1 2033 2033 -2.02529 1 66748 -2.02529 1
gene 1 2071 103 -0.305658 0 67001 -0.305658 1
gene 1 2195 18 -0.338312 0 68761 -0.338312 1
genomeend 23
