/* Organism #29274592 Fitness: -90970.6 
genomestart 707
trait 1 1 1 1 1 0.130831 0.0620045 0.179867 1 
node 1 1 0
node 2 1 1
node 3 1 1
node 4 1 1
node 5 1 1
node 6 1 1
node 7 1 1
node 8 1 1
node 9 1 1
node 10 1 1
node 11 1 1
node 12 1 2
node 13 1 2
node 14 1 2
node 15 1 2
node 16 1 2
node 17 1 2
node 18 1 2
node 19 1 2
node 20 1 2
node 21 1 2
node 22 1 2
node 23 1 2
node 24 1 2
node 25 1 2
node 26 1 3
node 28 1 3
node 29 1 3
node 30 1 3
node 34 1 3
node 924 1 3
node 953 1 3
node 1325 1 3
node 1364 1 3
node 1503 1 3
node 1690 1 3
node 1717 1 3
node 1906 1 3
gene 1 1 26 6.94726 0 1 6.94726 1
gene 1 1 28 4.88297 0 3 4.88297 1
gene 1 1 30 -6.92156 0 5 -6.92156 1
gene 1 2 26 -5.69695 0 11 -5.69695 1
gene 1 2 29 -0.589395 0 14 -0.589395 1
gene 1 3 26 0.0127585 0 21 0.0127585 1
gene 1 3 28 1.00086 0 23 1.00086 1
gene 1 3 29 4.94253 0 24 4.94253 1
gene 1 3 30 -1.12213 0 25 -1.12213 1
gene 1 3 34 1.60962 0 29 1.60962 1
gene 1 4 26 -1.40858 0 31 -1.40858 1
gene 1 4 28 -0.1669 0 33 -0.1669 1
gene 1 4 29 1.11053 0 34 1.11053 1
gene 1 5 28 0.082494 0 43 0.082494 1
gene 1 5 29 0.741677 0 44 0.741677 1
gene 1 5 30 -1.01962 0 45 -1.01962 1
gene 1 5 34 -1.6113 0 49 -1.6113 1
gene 1 6 26 3.52614 0 51 3.52614 1
gene 1 6 28 0.324759 0 53 0.324759 1
gene 1 6 29 -3.40732 0 54 -3.40732 1
gene 1 6 30 1.80214 0 55 1.80214 1
gene 1 7 26 -2.39541 0 61 -2.39541 1
gene 1 7 28 -7.76198 0 63 -7.76198 1
gene 1 7 29 -4.88081 0 64 -4.88081 1
gene 1 7 34 -1.69092 0 69 -1.69092 1
gene 1 8 29 1.49159 0 74 1.49159 1
gene 1 9 26 0.471804 0 81 0.471804 1
gene 1 9 29 -5.34264 0 84 -5.34264 1
gene 1 9 34 0.44675 0 89 0.44675 1
gene 1 10 26 -4.54908 0 91 -4.54908 1
gene 1 10 28 -1.52472 0 93 -1.52472 1
gene 1 10 29 -2.34497 0 94 -2.34497 1
gene 1 10 30 0.0377058 0 95 0.0377058 1
gene 1 11 26 1.74104 0 101 1.74104 1
gene 1 11 28 1.01212 0 103 1.01212 1
gene 1 11 29 0.0949428 0 104 0.0949428 1
gene 1 11 34 -0.106237 0 109 -0.106237 1
gene 1 26 14 -0.0225725 0 113 -0.0225725 1
gene 1 26 16 -5.88576 0 115 -5.88576 1
gene 1 26 17 -0.799459 0 116 -0.799459 1
gene 1 26 20 0.0996978 0 119 0.0996978 1
gene 1 26 21 4.62889 0 120 4.62889 1
gene 1 26 24 -5.66601 0 123 -5.66601 1
gene 1 26 25 1.59852 0 124 1.59852 1
gene 1 28 13 0.403445 0 140 0.403445 1
gene 1 28 14 4.91352 0 141 4.91352 1
gene 1 28 15 -0.362786 0 142 -0.362786 1
gene 1 28 17 -5.12157 0 144 -5.12157 1
gene 1 28 18 0.675948 0 145 0.675948 1
gene 1 28 19 -2.3811 0 146 -2.3811 1
gene 1 28 20 0.624793 0 147 0.624793 1
gene 1 28 22 -3.13997 0 149 -3.13997 1
gene 1 28 23 0.151619 0 150 0.151619 1
gene 1 28 24 0.491807 0 151 0.491807 1
gene 1 28 25 -6.82874 0 152 -6.82874 1
gene 1 29 13 6.51115 0 154 6.51115 1
gene 1 29 14 -1.39366 0 155 -1.39366 1
gene 1 29 15 1.19355 0 156 1.19355 1
gene 1 29 16 1.81405 0 157 1.81405 1
gene 1 29 18 -4.67965 0 159 -4.67965 1
gene 1 29 20 5.49317 0 161 5.49317 1
gene 1 29 22 -1.37063 0 163 -1.37063 1
gene 1 29 23 -2.63354 0 164 -2.63354 1
gene 1 29 24 1.27303 0 165 1.27303 1
gene 1 29 25 2.13954 0 166 2.13954 1
gene 1 30 12 -1.48159 0 167 -1.48159 1
gene 1 30 15 3.77511 0 170 3.77511 1
gene 1 30 16 -1.3347 0 171 -1.3347 1
gene 1 30 17 -0.235801 0 172 -0.235801 1
gene 1 30 18 -0.622836 0 173 -0.622836 1
gene 1 30 21 2.61812 0 176 2.61812 1
gene 1 30 22 3.01238 0 177 3.01238 1
gene 1 30 23 -0.485691 0 178 -0.485691 1
gene 1 34 12 -1.95309 0 223 -1.95309 1
gene 1 34 13 6.70865 0 224 6.70865 1
gene 1 34 14 -1.91045 0 225 -1.91045 1
gene 1 34 17 1.06488 0 228 1.06488 1
gene 1 34 19 -0.941768 0 230 -0.941768 1
gene 1 34 20 -0.0978678 0 231 -0.0978678 1
gene 1 34 22 1.70441 0 233 1.70441 1
gene 1 34 23 -2.7825 0 234 -2.7825 1
gene 1 34 24 -0.179305 0 235 -0.179305 1
gene 1 34 25 -3.27122 0 236 -3.27122 1
gene 1 5 13 -1.94417 0 2162 -1.94417 1
gene 1 13 13 0.527776 1 4668 0.527776 1
gene 1 3 13 -0.127774 0 5039 -0.127774 1
gene 1 4 13 2.18005 0 5223 2.18005 1
gene 1 22 13 -1.05599 0 5458 -1.05599 1
gene 1 5 12 -1.89287 0 6462 -1.89287 1
gene 1 6 25 -1.29529 0 9540 -1.29529 1
gene 1 23 14 5.2227 0 9814 5.2227 1
gene 1 26 26 -0.368283 1 11259 -0.368283 1
gene 1 13 19 0.399366 0 11627 0.399366 1
gene 1 34 28 -0.718326 0 12189 -0.718326 1
gene 1 2 25 -0.525447 0 12342 -0.525447 1
gene 1 12 12 0.0043303 1 12711 0.0043303 1
gene 1 22 16 0.992772 0 16120 0.992772 1
gene 1 10 13 -4.51938 0 16521 -4.51938 1
gene 1 25 21 -0.896581 0 16781 -0.896581 1
gene 1 22 18 0.547149 0 17402 0.547149 1
gene 1 19 21 1.90534 0 17588 1.90534 1
gene 1 15 15 5.38312 1 18267 5.38312 1
gene 1 11 15 6.95242 0 18861 6.95242 1
gene 1 16 20 0.269973 0 18988 0.269973 1
gene 1 16 13 4.19659 0 19425 4.19659 1
gene 1 18 26 0.452805 1 20447 0.452805 1
gene 1 34 30 -0.454122 0 21220 -0.454122 1
gene 1 10 12 6.64309 0 23048 6.64309 1
gene 1 6 13 2.76197 0 23471 2.76197 1
gene 1 21 19 0.726212 1 24090 0.726212 1
gene 1 19 23 2.99652 0 24286 2.99652 1
gene 1 924 30 -2.32071 0 24437 -2.32071 1
gene 1 924 23 -4.63935 0 24886 -4.63935 1
gene 1 22 21 2.85602 0 24905 2.85602 1
gene 1 9 12 -4.51793 0 25121 -4.51793 1
gene 1 953 34 0.229134 0 25306 0.229134 1
gene 1 953 16 4.45991 0 25833 4.45991 1
gene 1 953 21 -2.90654 0 26418 -2.90654 1
gene 1 18 12 5.6314 0 27915 5.6314 1
gene 1 22 25 2.78005 0 28027 2.78005 1
gene 1 953 953 0.713627 1 28217 0.713627 1
gene 1 17 34 0.458111 1 28888 0.458111 1
gene 1 17 24 -1.55853 0 29102 -1.55853 1
gene 1 22 24 5.19071 0 30871 5.19071 1
gene 1 20 15 -5.16683 0 31683 -5.16683 1
gene 1 7 16 -4.89601 0 32056 -4.89601 1
gene 1 6 24 3.01275 0 32476 3.01275 1
gene 1 23 23 0.846331 1 32798 0.846331 1
gene 1 10 24 -0.763214 0 33038 -0.763214 1
gene 1 14 21 0.213519 0 33144 0.213519 1
gene 1 16 24 -0.560425 0 33551 -0.560425 1
gene 1 4 17 0.648254 0 33748 0.648254 1
gene 1 25 25 4.01936 1 34184 4.01936 1
gene 1 8 1325 1.0677 0 34567 1.0677 1
gene 1 1325 14 0.649318 0 34568 0.649318 1
gene 1 5 17 -0.138352 0 34999 -0.138352 1
gene 1 26 1364 5.69719 0 35585 5.69719 1
gene 1 924 1325 -3.11867 0 36060 -3.11867 1
gene 1 15 13 -0.392927 0 36308 -0.392927 1
gene 1 5 14 2.82337 0 37950 2.82337 1
gene 1 21 1325 1.31709 0 38728 1.31709 1
gene 1 6 23 1.7393 0 38919 1.7393 1
gene 1 28 1503 -3.05073 0 39115 -3.05073 1
gene 1 1503 12 0.0668033 0 39116 0.0668033 1
gene 1 2 17 1.72243 0 40683 1.72243 1
gene 1 1364 1364 3.25846 1 41566 3.25846 1
gene 1 18 18 3.77823 1 42029 3.77823 1
gene 1 18 34 0.936801 1 42265 0.936801 1
gene 1 9 30 -4.54174 0 42657 -4.54174 1
gene 1 1364 25 0.602395 0 42731 0.602395 1
gene 1 17 1503 0.1928 0 43052 0.1928 1
gene 1 1364 17 0.345143 0 43203 0.345143 1
gene 1 18 21 -0.471827 0 43815 -0.471827 1
gene 1 4 24 4.72773 0 44098 4.72773 1
gene 1 2 1690 -0.531199 0 44629 -0.531199 1
gene 1 1690 23 -1.12507 0 44630 -1.12507 1
gene 1 20 24 1.56668 0 45940 1.56668 1
gene 1 3 15 -1.21149 0 46344 -1.21149 1
gene 1 10 1364 -0.207386 0 46548 -0.207386 1
gene 1 1364 924 -3.19143 0 46979 -3.19143 1
gene 1 34 1364 -2.45269 0 47176 -2.45269 1
gene 1 17 17 1.6895 1 47591 1.6895 1
gene 1 12 1690 0.0227268 0 47798 0.0227268 1
gene 1 7 1690 -2.56913 0 48003 -2.56913 1
gene 1 2 34 5.82785 0 48433 5.82785 1
gene 1 18 1717 1.46445 0 48683 1.46445 1
gene 1 8 24 1.60186 0 49165 1.60186 1
gene 1 3 924 3.14501 0 49313 3.14501 1
gene 1 8 1717 0.392409 0 49766 0.392409 1
gene 1 1717 1906 1.97569 0 49958 1.97569 1
gene 1 1906 25 -0.0712025 0 49959 -0.0712025 1
gene 1 924 13 -0.735627 0 50205 -0.735627 1
gene 1 18 1364 0.86623 1 50556 0.86623 1
gene 1 16 1690 0.736555 0 51962 0.736555 1
gene 1 924 924 -0.0286543 1 52942 -0.0286543 1
gene 1 30 30 -0.558299 1 53416 -0.558299 1
gene 1 4 15 3.28114 0 53599 3.28114 1
gene 1 1 14 0.210543 0 54427 0.210543 1
gene 1 17 1906 0.695375 0 54631 0.695375 1
gene 1 11 17 -0.145007 0 55031 -0.145007 1
gene 1 12 25 3.31832 0 56086 3.31832 1
gene 1 11 14 1.61385 0 56920 1.61385 1
gene 1 10 1325 2.43879 0 57206 2.43879 1
gene 1 17 25 0.471959 0 57448 0.471959 1
gene 1 12 16 0.382485 1 57810 0.382485 1
gene 1 24 24 3.06482 1 57960 3.06482 1
gene 1 1717 12 -1.13762 0 58179 -1.13762 1
gene 1 8 15 -1.77237 0 58401 -1.77237 1
gene 1 30 1906 1.51994 0 59049 1.51994 1
gene 1 18 1503 1.16792 0 59265 1.16792 1
gene 1 9 25 -0.362979 0 59476 -0.362979 1
gene 1 7 15 0.160605 0 60078 0.160605 1
gene 1 16 23 -0.50723 0 60714 -0.50723 1
gene 1 20 20 -0.86665 1 61270 -0.86665 1
gene 1 1717 1717 2.23086 1 61407 2.23086 1
gene 1 30 1503 -1.33852 0 61614 -1.33852 1
gene 1 34 1325 -0.339981 0 61900 -0.339981 1
gene 1 13 1717 -0.249281 0 62242 -0.249281 1
gene 1 28 28 0.479975 1 62606 0.479975 1
gene 1 1906 14 0.00684094 0 64074 0.00684094 1
gene 1 17 29 2.02109 0 64271 2.02109 1
gene 1 11 13 0.0409724 0 64817 0.0409724 1
gene 1 1364 953 1.13403 1 65008 1.13403 1
gene 1 1 21 0.0338644 0 65213 0.0338644 1
gene 1 24 25 1.28082 0 65587 1.28082 1
gene 1 1364 12 0.729701 0 66198 0.729701 1
gene 1 24 12 -0.671108 0 67046 -0.671108 1
gene 1 18 1906 -0.459333 0 68712 -0.459333 1
gene 1 1 20 -0.314953 0 68911 -0.314953 1
gene 1 2 19 0.193712 0 69258 0.193712 1
genomeend 707
