/* Organism #140615893063736 Fitness: -7.91429e+06 
genomestart 747
trait 1 0 0.667935 0.852319 0 1 0.144784 0.675701 0.445822 
node 1 1 0
node 2 1 1
node 3 1 1
node 4 1 1
node 5 1 1
node 6 1 1
node 7 1 1
node 8 1 1
node 9 1 1
node 10 1 1
node 11 1 1
node 12 1 2
node 13 1 2
node 14 1 2
node 15 1 2
node 16 1 2
node 17 1 2
node 18 1 2
node 19 1 2
node 20 1 2
node 21 1 2
node 22 1 2
node 23 1 2
node 24 1 2
node 25 1 2
node 27 1 3
node 32 1 3
node 33 1 3
node 1117 1 3
node 1422 1 3
node 1618 1 3
node 2269 1 3
gene 1 1 27 -1.17922 0 2 -1.17922 1
gene 1 1 32 5.04799 0 7 5.04799 1
gene 1 1 33 3.00969 0 8 3.00969 1
gene 1 2 32 -0.0894232 0 17 -0.0894232 1
gene 1 2 33 -1.82756 0 18 -1.82756 1
gene 1 5 27 -6.81293 0 42 -6.81293 1
gene 1 5 32 -4.68272 0 47 -4.68272 1
gene 1 5 33 5.07736 0 48 5.07736 1
gene 1 6 27 -0.603422 0 52 -0.603422 1
gene 1 6 33 -3.23171 0 58 -3.23171 1
gene 1 7 27 4.5109 0 62 4.5109 1
gene 1 7 32 3.13518 0 67 3.13518 1
gene 1 7 33 -0.0959429 0 68 -0.0959429 1
gene 1 9 27 2.77195 0 82 2.77195 1
gene 1 11 32 5.56243 0 107 5.56243 1
gene 1 11 33 3.24072 0 108 3.24072 1
gene 1 27 12 -1.38411 0 125 -1.38411 1
gene 1 27 15 -0.118744 0 128 -0.118744 1
gene 1 27 19 -2.34629 0 132 -2.34629 1
gene 1 27 20 0.641314 0 133 0.641314 1
gene 1 27 22 6.97319 0 135 6.97319 1
gene 1 27 25 7.02086 0 138 7.02086 1
gene 1 32 12 2.16364 0 195 2.16364 1
gene 1 32 14 2.44406 0 197 2.44406 1
gene 1 32 16 -6.45522 0 199 -6.45522 1
gene 1 32 17 0.326937 0 200 0.326937 1
gene 1 32 18 3.64733 0 201 3.64733 1
gene 1 32 19 -0.381533 0 202 -0.381533 1
gene 1 32 20 -2.01796 0 203 -2.01796 1
gene 1 32 22 1.24059 0 205 1.24059 1
gene 1 32 23 -0.366433 0 206 -0.366433 1
gene 1 32 24 -5.04316 0 207 -5.04316 1
gene 1 32 25 -1.33243 0 208 -1.33243 1
gene 1 33 12 1.51456 0 209 1.51456 1
gene 1 33 13 -2.31631 0 210 -2.31631 1
gene 1 33 14 0.636396 0 211 0.636396 1
gene 1 33 19 -0.964765 0 216 -0.964765 1
gene 1 33 21 0.943867 0 218 0.943867 1
gene 1 33 22 2.23205 0 219 2.23205 1
gene 1 33 23 -1.32243 0 220 -1.32243 1
gene 1 33 24 0.202418 0 221 0.202418 1
gene 1 22 22 -7.00755 1 640 -7.00755 1
gene 1 22 19 2.93608 0 1042 2.93608 1
gene 1 7 12 1.8052 0 1617 1.8052 1
gene 1 16 17 -3.57113 0 2005 -3.57113 1
gene 1 21 17 -0.393517 0 2168 -0.393517 1
gene 1 24 16 2.02461 0 4947 2.02461 1
gene 1 13 13 -0.271442 1 5583 -0.271442 1
gene 1 4 12 1.80506 0 6141 1.80506 1
gene 1 8 13 -0.354467 0 8234 -0.354467 1
gene 1 9 24 0.527169 0 9303 0.527169 1
gene 1 7 16 -1.66646 0 10079 -1.66646 1
gene 1 17 14 -2.88829 0 11034 -2.88829 1
gene 1 2 24 2.06685 0 11226 2.06685 1
gene 1 24 24 0.88483 1 11607 0.88483 1
gene 1 25 25 1.72999 1 12358 1.72999 1
gene 1 15 16 0.319581 0 14237 0.319581 1
gene 1 7 24 0.770965 0 14408 0.770965 1
gene 1 17 27 -2.97254 1 14792 -2.97254 1
gene 1 20 15 1.56945 0 15383 1.56945 1
gene 1 9 23 0.673413 0 15584 0.673413 1
gene 1 19 12 -0.584835 0 15773 -0.584835 1
gene 1 13 15 2.84557 0 16212 2.84557 1
gene 1 7 15 -1.24869 0 16447 -1.24869 1
gene 1 21 23 -0.374348 0 18643 -0.374348 1
gene 1 17 17 1.12609 1 19004 1.12609 1
gene 1 8 12 -1.20816 0 20187 -1.20816 1
gene 1 24 14 -2.418 0 20582 -2.418 1
gene 1 1 18 0.0712741 0 20860 0.0712741 1
gene 1 23 24 -0.638543 0 23574 -0.638543 1
gene 1 5 14 1.1858 0 23892 1.1858 1
gene 1 19 16 -0.224039 0 24091 -0.224039 1
gene 1 20 14 0.640511 0 24684 0.640511 1
gene 1 2 15 4.26684 0 25670 4.26684 1
gene 1 3 14 0.526316 0 28756 0.526316 1
gene 1 17 23 1.19218 1 28955 1.19218 1
gene 1 27 1117 1.37089 0 29315 1.37089 1
gene 1 1117 21 2.82041 0 29316 2.82041 1
gene 1 17 1117 0.245092 1 29646 0.245092 1
gene 1 25 21 2.36483 0 30195 2.36483 1
gene 1 23 23 -0.580685 1 30831 -0.580685 1
gene 1 19 18 1.31486 0 31844 1.31486 1
gene 1 22 23 -0.494612 0 33033 -0.494612 1
gene 1 15 33 -1.0156 1 33312 -1.0156 1
gene 1 6 18 1.72756 0 33496 1.72756 1
gene 1 27 27 -0.0979822 1 33637 -0.0979822 1
gene 1 11 24 -1.49601 0 35078 -1.49601 1
gene 1 19 13 -1.70482 0 35285 -1.70482 1
gene 1 7 20 0.413896 0 36031 0.413896 1
gene 1 5 22 1.17178 0 36401 1.17178 1
gene 1 18 18 1.03958 1 36683 1.03958 1
gene 1 1422 17 -0.917944 0 37126 -0.840082 1
gene 1 18 15 0.345974 0 38087 0.345974 1
gene 1 1 24 0.648342 0 39144 0.648342 1
gene 1 12 12 0.706127 1 39735 0.706127 1
gene 1 2 19 -1.41376 0 40242 -1.41376 1
gene 1 4 17 -1.44899 0 40381 -1.44899 1
gene 1 1 19 -0.419729 0 40918 -0.419729 1
gene 1 14 14 -0.391485 1 41452 -0.391485 1
gene 1 1618 32 2.99069 0 42581 2.99069 1
gene 1 3 17 -2.44412 0 43368 -2.44412 1
gene 1 23 1422 0.170311 0 43524 0.170311 1
gene 1 8 1618 -0.824395 0 44182 -0.824395 1
gene 1 3 32 0.338527 0 44351 0.338527 1
gene 1 12 18 0.096544 1 44945 0.096544 1
gene 1 27 13 -1.22927 0 45995 -1.22927 1
gene 1 1618 17 -0.718495 0 46586 -0.718495 1
gene 1 8 27 0.370068 0 46772 0.370068 1
gene 1 6 32 -1.134 0 46990 -1.134 1
gene 1 1117 1117 -0.969205 1 47188 -0.969205 1
gene 1 21 16 0.160118 0 48509 0.160118 1
gene 1 15 1422 0.419707 0 48700 0.419707 1
gene 1 14 15 0.944397 0 48803 0.944397 1
gene 1 7 1422 -0.676647 0 49080 -0.676647 1
gene 1 19 19 1.1647 1 49825 1.1647 1
gene 1 27 18 -0.394441 0 51232 -0.394441 1
gene 1 1117 1618 -0.802815 0 51660 -0.802815 1
gene 1 32 13 -0.00407982 0 52317 -0.00407982 1
gene 1 1422 1422 0.334086 1 52500 0.334086 1
gene 1 11 18 -0.838867 0 52656 -0.838867 1
gene 1 18 21 0.481026 0 53317 0.481026 1
gene 1 1618 1618 -0.647173 1 53563 -0.647173 1
gene 1 6 1422 -0.0131068 0 54745 -0.0131068 1
gene 1 9 21 -0.393428 0 55164 -0.393428 1
gene 1 3 19 1.85689 0 56021 1.85689 1
gene 1 1 15 -0.748805 0 56234 -0.748805 1
gene 1 23 25 -0.333185 1 56895 -0.333185 1
gene 1 13 25 1.01602 0 57337 1.01602 1
gene 1 32 32 0.523912 1 57507 0.523912 1
gene 1 19 33 -0.0283238 1 57901 -0.0283238 1
gene 1 20 20 0.666266 1 57928 0.666266 1
gene 1 25 13 -0.494517 1 59335 -0.494517 1
gene 1 11 1422 0.834737 0 59890 0.834737 1
gene 1 2269 16 -0.984496 0 60101 -0.46714 1
gene 1 27 23 0.575336 0 60902 0.575336 1
gene 1 11 20 0.470242 0 61418 0.470242 1
gene 1 9 1117 -1.7896 0 61705 -1.7896 1
gene 1 2 23 -0.341356 0 61911 -0.341356 1
gene 1 17 13 0.384512 0 62310 0.384512 1
gene 1 1 20 0.339973 0 62490 0.339973 1
gene 1 1422 16 -0.000532223 0 63105 -0.000532223 1
gene 1 20 19 0.0689207 0 63353 0.0689207 1
gene 1 2269 1422 -0.269109 0 64930 -0.269109 1
gene 1 33 16 0.349893 0 65262 0.349893 1
gene 1 16 16 -0.869202 1 65384 -0.869202 1
gene 1 25 1618 -1.02808 1 65648 -1.02808 1
gene 1 1117 19 -0.315337 0 65878 -0.315337 1
gene 1 2 21 -0.70161 0 66127 -0.70161 1
gene 1 19 23 -0.55231 0 66612 -0.55231 1
gene 1 18 27 -0.200575 1 66927 -0.200575 1
gene 1 3 24 0.609502 0 67126 0.609502 1
gene 1 12 24 -0.714358 0 67340 -0.714358 1
gene 1 33 32 0.762884 0 67684 0.762884 1
gene 1 18 1422 -0.108361 0 67881 -0.108361 1
gene 1 9 2269 -0.610062 0 68050 -0.610062 1
gene 1 2 13 0.91352 0 68440 0.91352 1
genomeend 747
