/* Organism #140127115294728 Fitness: -7.90994e+06 
genomestart 157
trait 1 0.501464 0.442691 0.754795 0.154716 0.928202 0.177665 0.227132 0.299929 
node 1 1 0
node 2 1 1
node 3 1 1
node 4 1 1
node 5 1 1
node 6 1 1
node 7 1 1
node 8 1 1
node 9 1 1
node 10 1 1
node 11 1 1
node 12 1 2
node 13 1 2
node 14 1 2
node 15 1 2
node 16 1 2
node 17 1 2
node 18 1 2
node 19 1 2
node 20 1 2
node 21 1 2
node 22 1 2
node 23 1 2
node 24 1 2
node 25 1 2
node 28 1 3
node 29 1 3
node 30 1 3
node 31 1 3
node 32 1 3
node 953 1 3
node 985 1 3
node 1052 1 3
node 1307 1 3
gene 1 1 28 -5.42211 0 3 -5.42211 1
gene 1 1 29 -3.0715 0 4 -3.0715 1
gene 1 1 32 -4.20492 0 7 -4.20492 1
gene 1 2 28 -0.269932 0 13 -0.269932 1
gene 1 2 29 -0.676132 0 14 -0.676132 1
gene 1 2 31 1.18836 0 16 1.18836 1
gene 1 2 32 4.73376 0 17 4.73376 1
gene 1 3 28 -2.37918 0 23 -2.37918 1
gene 1 3 31 0.263487 0 26 0.263487 1
gene 1 3 32 -0.0108204 0 27 -0.0108204 1
gene 1 4 28 -0.918147 0 33 -0.918147 1
gene 1 4 30 2.51847 0 35 2.51847 1
gene 1 4 31 0.143826 0 36 0.143826 1
gene 1 4 32 -4.66628 0 37 -4.66628 1
gene 1 5 28 -1.5389 0 43 -1.5389 1
gene 1 5 29 -0.899777 0 44 -0.899777 1
gene 1 5 30 -1.17828 0 45 -1.17828 1
gene 1 5 31 3.17398 0 46 3.17398 1
gene 1 5 32 0.534871 0 47 0.534871 1
gene 1 6 28 -1.4355 0 53 -1.4355 1
gene 1 6 31 1.36907 0 56 1.36907 1
gene 1 6 32 1.36213 0 57 1.36213 1
gene 1 7 28 7.99542 0 63 7.99542 1
gene 1 7 29 1.12045 0 64 1.12045 1
gene 1 7 31 0.454358 0 66 0.454358 1
gene 1 7 32 -1.82401 0 67 -1.82401 1
gene 1 8 29 0.401172 0 74 0.401172 1
gene 1 8 30 1.26283 0 75 1.26283 1
gene 1 8 31 -0.887329 0 76 -0.887329 1
gene 1 9 29 -2.71385 0 84 -2.71385 1
gene 1 9 31 1.48665 0 86 1.48665 1
gene 1 10 31 1.09649 0 96 1.09649 1
gene 1 11 28 -3.45156 0 103 -3.45156 1
gene 1 11 31 -1.21888 0 106 -1.21888 1
gene 1 11 32 2.52239 0 107 2.52239 1
gene 1 28 12 -1.22664 0 139 -1.22664 1
gene 1 28 13 6.80404 0 140 6.80404 1
gene 1 28 16 1.89344 0 143 1.89344 1
gene 1 28 17 5.50807 0 144 5.50807 1
gene 1 28 18 -2.67706 0 145 -2.67706 1
gene 1 28 19 2.87704 0 146 2.87704 1
gene 1 28 20 -1.67994 0 147 -1.67994 1
gene 1 28 21 2.50487 0 148 2.50487 1
gene 1 28 23 0.817632 0 150 0.817632 1
gene 1 28 24 0.329307 0 151 0.329307 1
gene 1 28 25 0.498202 0 152 0.498202 1
gene 1 29 13 -3.28518 0 154 -3.28518 1
gene 1 29 14 -5.69054 0 155 -5.69054 1
gene 1 29 16 1.35833 0 157 1.35833 1
gene 1 29 18 1.61214 0 159 1.61214 1
gene 1 29 19 1.64008 0 160 1.64008 1
gene 1 29 20 2.9943 0 161 2.9943 1
gene 1 29 21 -1.4215 0 162 -1.4215 1
gene 1 29 22 -3.43722 0 163 -3.43722 1
gene 1 29 23 -0.747213 0 164 -0.747213 1
gene 1 29 24 -0.191482 0 165 -0.191482 1
gene 1 30 13 1.8928 0 168 1.8928 1
gene 1 30 14 -0.495332 0 169 -0.495332 1
gene 1 30 15 -0.0160152 0 170 -0.0160152 1
gene 1 30 16 2.02135 0 171 2.02135 1
gene 1 30 17 -0.370387 0 172 -0.370387 1
gene 1 30 18 3.35071 0 173 3.35071 1
gene 1 30 19 -1.29908 0 174 -1.29908 1
gene 1 30 20 7.6566 0 175 7.6566 1
gene 1 30 21 -0.420867 0 176 -0.420867 1
gene 1 30 24 6.34008 0 179 6.34008 1
gene 1 31 13 -5.18473 0 182 -5.18473 1
gene 1 31 14 3.89511 0 183 3.89511 1
gene 1 31 15 1.76327 0 184 1.76327 1
gene 1 31 16 0.822373 0 185 0.822373 1
gene 1 31 17 -2.29069 0 186 -2.29069 1
gene 1 31 18 -4.2679 0 187 -4.2679 1
gene 1 31 19 -1.54639 0 188 -1.54639 1
gene 1 31 20 1.17227 0 189 1.17227 1
gene 1 31 23 1.05865 0 192 1.05865 1
gene 1 31 25 -2.11641 0 194 -2.11641 1
gene 1 32 12 0.41489 0 195 0.41489 1
gene 1 32 13 -0.647513 0 196 -0.647513 1
gene 1 32 14 2.23299 0 197 2.23299 1
gene 1 32 15 2.13341 0 198 2.13341 1
gene 1 32 16 4.10823 0 199 4.10823 1
gene 1 32 17 0.777859 0 200 0.777859 1
gene 1 32 18 0.0420298 0 201 0.0420298 1
gene 1 32 21 -1.06608 0 204 -1.06608 1
gene 1 32 23 0.00199621 0 206 0.00199621 1
gene 1 19 19 1.10537 1 692 1.10537 1
gene 1 20 22 4.06814 0 1173 4.06814 1
gene 1 18 15 2.64737 0 1799 2.64737 1
gene 1 28 29 1.31008 0 4219 1.31008 1
gene 1 7 20 0.464033 0 4602 0.464033 1
gene 1 22 22 1.81023 1 5260 1.81023 1
gene 1 23 13 -3.09235 0 6769 -3.09235 1
gene 1 13 18 4.20552 0 8511 4.20552 1
gene 1 10 14 -3.0878 0 8687 -3.0878 1
gene 1 12 20 -1.28439 0 8853 -1.28439 1
gene 1 15 25 -4.97343 0 9058 -4.97343 1
gene 1 29 29 2.8632 1 9244 2.8632 1
gene 1 23 17 -1.57993 0 10514 -1.57993 1
gene 1 5 21 3.44721 0 10721 3.44721 1
gene 1 24 17 -2.18407 0 12052 -2.18407 1
gene 1 18 25 2.25301 0 12248 2.25301 1
gene 1 14 18 0.396101 0 12450 0.396101 1
gene 1 10 21 -2.07219 0 13666 -2.07219 1
gene 1 17 13 1.45388 0 14061 1.45388 1
gene 1 9 23 -2.51004 0 14275 -2.51004 1
gene 1 3 14 -1.32521 0 15715 -1.32521 1
gene 1 11 20 -0.635068 0 16116 -0.635068 1
gene 1 21 25 -3.47612 0 16593 -3.47612 1
gene 1 31 30 0.530606 0 16784 0.530606 1
gene 1 19 22 3.27443 0 16953 3.27443 1
gene 1 19 17 2.82553 0 17153 2.82553 1
gene 1 5 24 -0.68757 0 17775 -0.68757 1
gene 1 13 15 3.24152 0 20624 3.24152 1
gene 1 7 22 0.968237 0 20777 0.968237 1
gene 1 14 13 0.784043 0 21821 0.784043 1
gene 1 16 20 -0.457832 0 22016 -0.457832 1
gene 1 9 953 5.29934 0 23721 5.29934 1
gene 1 25 12 -0.509854 0 24462 -0.509854 1
gene 1 985 13 1.10417 0 24792 1.10417 1
gene 1 16 23 -0.44763 0 25886 -0.44763 1
gene 1 19 1052 -0.985622 0 26568 -0.985622 1
gene 1 1052 12 -0.0173455 0 26569 -0.0173455 1
gene 1 21 21 -5.69728 1 28138 -5.69728 1
gene 1 29 32 0.710411 0 28488 0.710411 1
gene 1 22 17 -1.64373 0 29298 -1.64373 1
gene 1 15 15 2.01654 1 29636 2.01654 1
gene 1 18 21 0.649145 0 30375 0.649145 1
gene 1 13 13 1.43603 1 30898 1.43603 1
gene 1 18 30 3.43562 1 31228 3.43562 1
gene 1 20 20 -2.26303 1 33159 -2.26303 1
gene 1 23 985 2.67769 0 35350 2.67769 1
gene 1 1 30 -5.35198 0 35957 -5.35198 1
gene 1 24 22 0.300059 0 36505 0.300059 1
gene 1 30 12 -5.70511 0 36967 -5.70511 1
gene 1 6 953 -1.01892 0 37246 -1.01892 1
gene 1 3 23 1.26694 0 38355 1.26694 1
gene 1 7 15 -2.87616 0 39991 -2.87616 1
gene 1 22 953 -0.0664586 0 40648 -0.0664586 1
gene 1 9 25 0.935905 0 40825 0.935905 1
gene 1 32 28 -1.49181 1 41054 -1.49181 1
gene 1 10 32 2.21364 0 41395 2.21364 1
gene 1 4 14 1.14265 0 42141 1.14265 1
gene 1 6 13 -2.35212 0 42243 -2.35212 1
gene 1 4 12 1.87129 0 43052 1.87129 1
gene 1 8 21 1.55944 0 43253 1.55944 1
gene 1 1 1052 1.24694 0 43821 1.24694 1
gene 1 1052 25 -0.581605 0 44252 -0.581605 1
gene 1 985 24 0.544934 0 45197 0.544934 1
gene 1 7 16 0.377385 0 46249 0.377385 1
gene 1 985 21 0.135343 0 47373 0.135343 1
gene 1 30 25 0.944222 0 47862 0.944222 1
gene 1 29 1307 -3.69945 0 48881 -3.69945 1
gene 1 985 17 2.17009 0 49089 2.17009 1
gene 1 21 20 1.4507 0 49262 1.4507 1
gene 1 9 12 -1.88247 0 49657 -1.88247 1
gene 1 11 15 1.30391 0 49871 1.30391 1
gene 1 19 25 1.60128 0 51473 1.60128 1
gene 1 18 18 4.52556 1 51880 4.52556 1
gene 1 9 20 -0.934128 0 53352 -0.934128 1
gene 1 1052 1052 1.28677 1 54096 1.28677 1
gene 1 6 25 -0.48861 0 54339 -0.48861 1
gene 1 16 12 -1.30952 0 54571 -1.30952 1
gene 1 30 32 -0.275019 0 55580 -0.275019 1
gene 1 1307 1052 0.589949 0 55782 0.589949 1
gene 1 29 1052 1.43376 0 55989 1.43376 1
gene 1 2 16 -0.503724 0 56177 -0.503724 1
gene 1 16 15 2.07203 0 56593 2.07203 1
gene 1 1052 24 1.21104 0 57579 1.21104 1
gene 1 31 32 0.257202 0 57807 0.257202 1
gene 1 23 23 1.78517 1 57877 1.78517 1
gene 1 18 13 -1.73127 1 58207 -1.73127 1
gene 1 32 24 1.47237 0 59543 1.47237 1
gene 1 23 32 -0.659126 1 59763 -0.659126 1
gene 1 14 1307 -0.36098 0 60579 -0.36098 1
gene 1 985 953 -0.722493 0 60800 -0.722493 1
gene 1 2 17 0.181488 0 61120 0.181488 1
gene 1 19 21 0.633038 0 61650 0.633038 1
gene 1 1307 1307 0.862789 1 61985 0.862789 1
gene 1 12 31 -0.470278 1 62282 -0.470278 1
gene 1 15 20 1.69884 0 62438 1.69884 1
gene 1 2 24 1.11968 0 63033 1.11968 1
gene 1 28 985 1.65149 0 64355 1.65149 1
gene 1 10 15 0.996549 0 64734 0.996549 1
gene 1 5 18 -1.42625 0 65709 -1.42625 1
gene 1 6 17 0.789013 0 65952 0.789013 1
gene 1 2 13 -0.638577 0 66055 -0.638577 1
gene 1 1 22 0.231811 0 66359 0.231811 1
gene 1 28 28 -1.80357 1 67141 -1.80357 1
gene 1 14 953 0.807875 0 68304 0.807875 1
gene 1 2 19 0.740975 0 68710 0.740975 1
genomeend 157
