/* Organism #90244768 Fitness: -1.47313e+07 
genomestart 286
trait 1 1 0.979376 0.910903 0.333978 0.964438 0.641289 0.830128 0 
node 1 1 0
node 2 1 1
node 3 1 1
node 4 1 1
node 5 1 1
node 6 1 1
node 7 1 1
node 8 1 1
node 9 1 1
node 10 1 1
node 11 1 1
node 12 1 2
node 13 1 2
node 14 1 2
node 15 1 2
node 16 1 2
node 17 1 2
node 18 1 2
node 19 1 2
node 20 1 2
node 21 1 2
node 22 1 2
node 23 1 2
node 24 1 2
node 25 1 2
node 28 1 3
node 29 1 3
node 35 1 3
node 70 1 3
node 126 1 3
node 206 1 3
node 520 1 3
node 671 1 3
node 1143 1 3
node 1174 1 3
node 1303 1 3
node 1587 1 3
node 2393 1 3
node 2530 1 3
gene 1 1 28 -1.7867 0 3 -1.7867 1
gene 1 1 29 7.84928 0 4 7.84928 1
gene 1 2 29 0.649351 0 14 0.649351 1
gene 1 3 28 2.69753 0 23 2.69753 1
gene 1 4 28 -2.2199 0 33 -2.2199 1
gene 1 5 29 3.45193 0 44 3.45193 1
gene 1 6 35 3.16482 0 60 3.16482 1
gene 1 7 28 -0.63978 0 63 -0.63978 1
gene 1 7 29 -5.97798 0 64 -5.97798 1
gene 1 8 35 0.88329 0 80 0.88329 1
gene 1 9 29 0.151378 0 84 0.151378 1
gene 1 9 35 3.30581 0 90 3.30581 1
gene 1 10 28 5.16303 0 93 5.16303 1
gene 1 11 29 -1.40287 0 104 -1.40287 1
gene 1 28 13 -6.16338 0 140 -6.16338 1
gene 1 28 14 -0.711502 0 141 -0.711502 1
gene 1 28 15 -2.4989 0 142 -2.4989 1
gene 1 28 16 3.0991 0 143 3.0991 1
gene 1 28 17 5.37859 0 144 5.37859 1
gene 1 28 18 -5.59122 0 145 -5.59122 1
gene 1 28 19 -2.33345 0 146 -2.33345 1
gene 1 28 20 2.55562 0 147 2.55562 1
gene 1 28 22 2.28935 0 149 2.28935 1
gene 1 29 12 1.35277 0 153 1.35277 1
gene 1 29 14 -3.8978 0 155 -3.8978 1
gene 1 29 17 -3.27072 0 158 -3.27072 1
gene 1 29 19 1.33035 0 160 1.33035 1
gene 1 29 20 0.237802 0 161 0.237802 1
gene 1 29 23 -6.67946 0 164 -6.67946 1
gene 1 29 24 -5.06129 0 165 -5.06129 1
gene 1 35 14 6.97159 0 239 6.97159 1
gene 1 35 15 -5.74758 0 240 -5.74758 1
gene 1 35 16 -4.36095 0 241 -4.36095 1
gene 1 35 18 -4.81167 0 243 -4.81167 1
gene 1 35 20 -2.13186 0 245 -2.13186 1
gene 1 35 21 3.52142 0 246 3.52142 1
gene 1 35 24 -4.38519 0 249 -4.38519 1
gene 1 70 17 2.74563 0 1065 2.74563 1
gene 1 17 22 7.4637 0 1722 7.4637 1
gene 1 23 23 -5.61704 1 2074 -5.61704 1
gene 1 126 25 2.66452 0 2272 2.66452 1
gene 1 22 18 7.83723 0 3707 7.83723 1
gene 1 206 12 -1.29174 0 4097 -1.29174 1
gene 1 14 25 -6.79267 0 4597 -6.79267 1
gene 1 5 14 -2.39144 0 5144 -2.39144 1
gene 1 7 13 -1.77358 0 5930 -1.77358 1
gene 1 19 70 3.54027 0 6861 3.54027 1
gene 1 23 12 3.5789 0 7054 3.5789 1
gene 1 7 19 4.20126 0 8860 4.20126 1
gene 1 23 22 5.21849 0 12361 5.21849 1
gene 1 14 23 0.605302 0 12634 0.605302 1
gene 1 7 16 -2.17339 0 13071 -2.17339 1
gene 1 520 29 2.28181 0 13233 2.28181 1
gene 1 35 35 -1.09555 1 13890 -1.09555 1
gene 1 5 17 -4.71135 0 14731 -4.71135 1
gene 1 24 12 -0.646548 0 15175 -0.646548 1
gene 1 3 23 3.03542 0 17144 3.03542 1
gene 1 3 17 1.23784 0 17873 1.23784 1
gene 1 15 18 3.16846 0 21625 3.16846 1
gene 1 16 16 4.49412 1 21813 4.49412 1
gene 1 19 20 1.19976 0 22031 1.19976 1
gene 1 20 12 -6.26806 0 23838 -6.26806 1
gene 1 13 15 0.781073 0 27353 0.781073 1
gene 1 7 126 -2.16112 0 29634 -2.16112 1
gene 1 23 25 2.97533 0 29973 2.97533 1
gene 1 3 1143 7.03235 0 30206 7.03235 1
gene 1 1174 22 3.64725 0 30917 3.64725 1
gene 1 4 21 3.08176 0 31099 3.08176 1
gene 1 7 206 1.67437 0 32065 1.67437 1
gene 1 1174 14 3.83324 0 32258 3.83324 1
gene 1 11 22 -1.23824 0 32832 -1.23824 1
gene 1 126 13 4.10506 0 34041 4.10506 1
gene 1 70 29 -3.4529 1 34521 -3.4529 1
gene 1 17 126 3.92091 1 34685 3.92091 1
gene 1 2 1303 5.40249 0 34923 5.40249 1
gene 1 1303 35 -0.209763 0 34924 -0.209763 1
gene 1 70 24 3.22844 0 35531 3.22844 1
gene 1 16 1174 -3.00788 0 36319 -3.00788 1
gene 1 206 24 -0.932208 0 38522 -0.932208 1
gene 1 11 17 3.93515 0 39298 3.93515 1
gene 1 22 126 -1.03376 0 39858 -1.03376 1
gene 1 7 1174 -1.1014 0 40438 -1.1014 1
gene 1 5 13 -0.235192 0 40658 -0.235192 1
gene 1 8 22 0.125829 0 41981 0.125829 1
gene 1 1303 1303 0.294714 1 42735 0.294714 1
gene 1 28 1587 2.57928 0 43146 2.57928 1
gene 1 1587 21 3.65178 0 43147 3.65178 1
gene 1 20 25 0.0786924 0 44600 0.0786924 1
gene 1 21 21 0.235732 1 45199 0.235732 1
gene 1 24 1587 0.677499 0 46558 0.677499 1
gene 1 24 1143 -0.583301 0 46789 -0.583301 1
gene 1 8 1174 -0.0310154 0 47007 -0.0310154 1
gene 1 1303 15 1.29242 0 47251 1.29242 1
gene 1 13 24 -0.540094 0 47406 -0.540094 1
gene 1 15 15 -1.283 1 47603 -1.283 1
gene 1 29 21 0.698673 0 48198 0.698673 1
gene 1 15 25 -1.31373 0 48569 -1.31373 1
gene 1 6 1303 0.279405 0 48997 0.279405 1
gene 1 10 18 -0.631657 0 49209 -0.631657 1
gene 1 24 21 0.941868 0 49623 0.941868 1
gene 1 17 17 -1.07242 1 50854 -1.07242 1
gene 1 18 12 -0.540524 0 51025 -0.540524 1
gene 1 520 13 -0.094529 0 51317 -0.094529 1
gene 1 8 1143 -1.17126 0 51960 -1.17126 1
gene 1 20 20 -0.493069 1 52763 -0.493069 1
gene 1 6 126 0.655849 0 53632 0.655849 1
gene 1 11 14 -0.555374 0 53819 -0.555374 1
gene 1 22 15 0.409824 0 54039 0.409824 1
gene 1 8 1587 -0.717515 0 55678 -0.717515 1
gene 1 29 15 -0.306938 0 56539 -0.306938 1
gene 1 14 13 0.665843 0 57378 0.665843 1
gene 1 2 14 0.950129 0 59278 0.950129 1
gene 1 28 35 -0.689922 0 59515 -0.689922 1
gene 1 13 13 0.305172 1 60040 0.305172 1
gene 1 28 25 0.961896 0 60292 0.961896 1
gene 1 1174 206 0.77216 0 60797 0.77216 1
gene 1 23 70 0.26052 0 61372 0.26052 1
gene 1 15 14 0.605209 1 63302 0.605209 1
gene 1 29 35 0.163471 0 64167 0.163471 1
gene 1 2 21 1.14232 0 64382 1.14232 1
gene 1 11 520 -0.0547617 0 64842 -0.0547617 1
gene 1 1 22 0.754976 0 65504 0.754976 1
gene 1 9 671 0.155167 0 65726 0.155167 1
gene 1 12 2393 1.20197 1 65984 0.514471 1
gene 1 2393 12 1.41621 0 65985 0.0885131 1
gene 1 70 14 -0.891773 1 66602 -0.891773 1
gene 1 16 126 0.694343 0 67224 0.694343 1
gene 1 126 21 0.482947 0 67847 0.482947 1
gene 1 19 18 -0.658294 0 68270 -0.658294 1
gene 1 19 19 0.142316 1 68567 0.142316 1
gene 1 1174 19 -0.262794 0 68899 -0.262794 1
gene 1 206 70 0.120944 0 69261 0.120944 1
gene 1 2 1143 0.299885 0 69584 0.299885 1
gene 1 5 16 0.679307 0 69731 0.679307 1
gene 1 4 2530 1 0 69928 0 1
gene 1 2530 126 0.965278 0 69929 0 1
gene 1 9 70 -0.879723 0 70555 -0.879723 1
gene 1 15 1143 -0.128838 0 70764 -0.128838 1
gene 1 14 14 -0.558894 1 70957 -0.558894 1
gene 1 1587 671 0.0995106 0 71163 0.0995106 1
gene 1 1303 520 -0.197433 0 71593 -0.197433 1
gene 1 21 126 -0.538203 1 71804 -0.538203 1
gene 1 17 20 0.099448 0 72417 0.099448 1
gene 1 206 206 0.774438 1 72618 0.774438 1
genomeend 286
