/* Organism #56046256 Fitness: -9.91263e+08 
genomestart 668
trait 1 0.58499 0.749203 0.22406 0.100413 0.63705 0.285004 0.696794 0.967003 
node 1 1 0
node 2 1 1
node 3 1 1
node 4 1 1
node 5 1 1
node 6 1 1
node 7 1 1
node 8 1 1
node 9 1 1
node 10 1 1
node 11 1 1
node 12 1 2
node 13 1 2
node 14 1 2
node 15 1 2
node 16 1 2
node 17 1 2
node 18 1 2
node 19 1 2
node 20 1 2
node 21 1 2
node 22 1 2
node 23 1 2
node 24 1 2
node 25 1 2
node 28 1 3
node 29 1 3
node 31 1 3
node 32 1 3
node 35 1 3
node 228 1 3
node 350 1 3
node 670 1 3
node 943 1 3
node 1074 1 3
node 1124 1 3
node 1324 1 3
node 1456 1 3
node 2129 1 3
node 2365 1 3
node 2462 1 3
gene 1 1 28 -1.58147 0 3 -1.58147 1
gene 1 1 32 -1.61873 0 7 -1.61873 1
gene 1 1 35 -0.278431 0 10 -0.278431 1
gene 1 2 29 1.29823 0 14 1.29823 1
gene 1 2 32 1.64396 0 17 1.64396 1
gene 1 3 29 0.410477 0 24 0.410477 1
gene 1 3 32 -1.00083 0 27 -1.00083 1
gene 1 4 28 0.248303 0 33 0.248303 1
gene 1 4 32 -1.05186 0 37 -1.05186 1
gene 1 5 31 0.712457 0 46 0.712457 1
gene 1 5 35 -0.632967 0 50 -0.632967 1
gene 1 6 35 -0.545346 0 60 -0.545346 1
gene 1 7 28 -1.21857 0 63 -1.21857 1
gene 1 7 31 1.81802 0 66 1.81802 1
gene 1 7 35 1.39473 0 70 1.39473 1
gene 1 8 29 3.01156 0 74 3.01156 1
gene 1 8 31 -1.54829 0 76 -1.54829 1
gene 1 9 28 -0.720462 0 83 -0.720462 1
gene 1 9 29 1.6622 0 84 1.6622 1
gene 1 9 31 -0.120856 0 86 -0.120856 1
gene 1 9 32 0.570458 0 87 0.570458 1
gene 1 9 35 0.476628 0 90 0.476628 1
gene 1 10 28 1.33129 0 93 1.33129 1
gene 1 10 29 -1.0309 0 94 -1.0309 1
gene 1 11 29 2.46407 0 104 2.46407 1
gene 1 11 31 2.35925 0 106 2.35925 1
gene 1 11 32 -0.299459 0 107 -0.299459 1
gene 1 11 35 -1.3123 0 110 -1.3123 1
gene 1 28 12 -0.423059 0 139 -0.423059 1
gene 1 28 15 -1.09863 0 142 -1.09863 1
gene 1 28 17 -2.3565 0 144 -2.3565 1
gene 1 28 18 -1.17633 0 145 -1.17633 1
gene 1 28 20 4.50808 0 147 4.50808 1
gene 1 28 22 0.693111 0 149 0.693111 1
gene 1 28 23 -0.519991 0 150 -0.519991 1
gene 1 28 25 -0.086559 0 152 -0.086559 1
gene 1 29 12 0.672978 0 153 0.672978 1
gene 1 29 14 2.07736 0 155 2.07736 1
gene 1 29 15 -1.33637 0 156 -1.33637 1
gene 1 29 16 -2.1047 0 157 -2.1047 1
gene 1 29 17 -0.0922263 0 158 -0.0922263 1
gene 1 29 18 0.425271 0 159 0.425271 1
gene 1 29 20 0.323586 0 161 0.323586 1
gene 1 29 23 0.849845 0 164 0.849845 1
gene 1 31 13 -1.39449 0 182 -1.39449 1
gene 1 31 14 0.761556 0 183 0.761556 1
gene 1 31 15 -1.04063 0 184 -1.04063 1
gene 1 31 16 -1.84478 0 185 -1.84478 1
gene 1 31 19 -1.94976 0 188 -1.94976 1
gene 1 31 20 -0.161199 0 189 -0.161199 1
gene 1 31 23 -1.11241 0 192 -1.11241 1
gene 1 31 24 1.04909 0 193 1.04909 1
gene 1 32 12 -2.17619 0 195 -2.17619 1
gene 1 32 15 3.1586 0 198 3.1586 1
gene 1 32 17 -2.25726 0 200 -2.25726 1
gene 1 32 20 -2.2823 0 203 -2.2823 1
gene 1 32 21 0.173057 0 204 0.173057 1
gene 1 32 22 -0.973273 0 205 -0.973273 1
gene 1 32 24 2.32438 0 207 2.32438 1
gene 1 35 13 -1.38 0 238 -1.38 1
gene 1 35 14 -0.331401 0 239 -0.331401 1
gene 1 35 17 -0.246491 0 242 -0.246491 1
gene 1 35 18 -0.217058 0 243 -0.217058 1
gene 1 35 19 -0.652598 0 244 -0.652598 1
gene 1 35 20 -1.00806 0 245 -1.00806 1
gene 1 35 21 1.33261 0 246 1.33261 1
gene 1 35 22 1.79195 0 247 1.79195 1
gene 1 35 25 2.82501 0 250 2.82501 1
gene 1 21 13 0.012135 0 1413 0.012135 1
gene 1 22 22 0.314533 1 2621 0.314533 1
gene 1 12 24 0.359612 0 4382 0.359612 1
gene 1 20 16 0.860023 0 4558 0.860023 1
gene 1 3 22 2.32933 0 5360 2.32933 1
gene 1 2 228 0.673522 0 5571 0.673522 1
gene 1 5 14 -0.210434 0 6146 -0.210434 1
gene 1 23 17 0.375538 0 8542 0.375538 1
gene 1 5 228 3.44226 0 8694 3.44226 1
gene 1 2 350 0.944 0 8948 0.944 1
gene 1 17 21 0.0149064 0 10648 0.0149064 1
gene 1 8 28 -2.57651 0 11905 -2.57651 1
gene 1 11 12 -1.05398 0 12528 -1.05398 1
gene 1 6 16 -2.0821 0 13394 -2.0821 1
gene 1 29 350 0.790339 0 13542 0.790339 1
gene 1 12 18 0.755197 0 14244 0.755197 1
gene 1 228 228 1.03708 1 14897 1.03708 1
gene 1 8 19 0.334924 0 16229 0.334924 1
gene 1 16 17 0.529871 0 16940 0.529871 1
gene 1 16 18 0.781668 0 17510 0.781668 1
gene 1 19 670 -1.84528 0 18155 -1.84528 1
gene 1 23 35 1.13636 0 18716 1.13636 1
gene 1 16 14 -1.19742 0 18930 -1.19742 1
gene 1 24 24 -0.53436 1 19911 -0.53436 1
gene 1 5 23 -2.04215 0 20725 -2.04215 1
gene 1 13 15 1.31955 0 21061 1.31955 1
gene 1 15 24 0.542545 0 22137 0.542545 1
gene 1 16 13 2.1185 0 22639 2.1185 1
gene 1 228 670 -0.401673 0 22839 -0.401673 1
gene 1 7 14 -0.526748 0 24872 -0.526748 1
gene 1 21 19 0.823402 0 25148 0.823402 1
gene 1 23 12 -0.835943 0 26696 -0.835943 1
gene 1 16 670 -0.846092 0 28139 -0.846092 1
gene 1 25 24 -0.667303 0 29799 -0.667303 1
gene 1 18 1124 -1.49432 0 30021 -1.49432 1
gene 1 1074 670 1.54895 0 30468 1.54895 1
gene 1 8 943 0.52172 0 31484 0.52172 1
gene 1 350 228 -0.0832051 0 32739 -0.0832051 1
gene 1 31 32 -0.00621759 0 34464 -0.00621759 1
gene 1 11 15 -0.299486 0 35115 -0.299486 1
gene 1 14 943 0.968092 0 35298 0.968092 1
gene 1 9 17 0.42175 0 36083 0.42175 1
gene 1 350 14 -0.000808087 0 37126 -0.000808087 1
gene 1 6 13 -0.151459 0 37635 -0.151459 1
gene 1 13 32 -0.882176 1 37847 -0.882176 1
gene 1 29 1324 0.178365 0 38001 0.178365 1
gene 1 6 1456 1.1541 0 38953 1.13978 1
gene 1 1456 31 -0.752718 0 38954 -0.752718 1
gene 1 28 28 0.992077 1 39210 0.992077 1
gene 1 15 15 1.05191 1 39435 1.05191 1
gene 1 15 18 0.165244 1 39844 0.165244 1
gene 1 8 1456 -1.33497 0 40071 -1.33497 1
gene 1 11 20 -0.190393 0 40374 -0.190393 1
gene 1 32 32 -0.108715 1 41447 -0.108715 1
gene 1 1124 1124 0.236327 1 42054 0.236327 1
gene 1 18 18 -0.67271 1 42324 -0.67271 1
gene 1 350 1124 0.326416 0 42651 0.326416 1
gene 1 9 943 0.0233938 0 43105 0.0233938 1
gene 1 21 21 -0.0194541 1 43344 -0.0194541 1
gene 1 6 1124 0.740447 0 46566 0.740447 1
gene 1 1324 1456 0.375906 0 47284 0.375906 1
gene 1 17 17 0.438704 1 47450 0.438704 1
gene 1 228 18 0.677077 0 48139 0.677077 1
gene 1 943 12 0.984659 0 48452 0.984659 1
gene 1 1456 1456 -1.3731 1 50004 -1.3731 1
gene 1 5 12 -0.2543 0 50428 -0.2543 1
gene 1 21 1124 0.944991 0 50811 0.944991 1
gene 1 1324 16 0.155709 0 51098 0.155709 1
gene 1 1 17 0.412961 0 51271 0.412961 1
gene 1 15 1324 0.61888 1 51536 0.61888 1
gene 1 1074 17 0.0703224 0 51861 0.0703224 1
gene 1 6 350 -0.0402166 0 51994 -0.0402166 1
gene 1 16 19 0.702361 0 52428 0.702361 1
gene 1 3 1124 -1.2086 0 52894 -1.2086 1
gene 1 4 19 -0.484024 0 53108 -0.484024 1
gene 1 350 31 1.30224 0 54992 1.30224 1
gene 1 2 31 -0.296164 0 55229 -0.296164 1
gene 1 12 1124 0.275155 0 55389 0.275155 1
gene 1 1456 22 -0.385576 0 55665 -0.385576 1
gene 1 1 19 0.000831027 0 56045 0.000831027 1
gene 1 5 1074 0.496389 0 56286 0.496389 1
gene 1 16 22 -0.935084 0 56805 -0.935084 1
gene 1 13 1124 0.85031 0 57855 0.85031 1
gene 1 228 2129 0.517629 0 58044 0.120901 1
gene 1 2129 20 -0.846732 0 58045 -0.630126 1
gene 1 6 21 0.567162 0 59806 0.567162 1
gene 1 28 1124 0.0225228 0 59975 0.0225228 1
gene 1 3 15 -0.77111 0 60298 -0.77111 1
gene 1 23 23 0.456629 1 60464 0.456629 1
gene 1 5 32 -0.96053 0 60917 -0.96053 1
gene 1 8 1324 -0.414321 0 61596 -0.414321 1
gene 1 25 25 -0.418299 1 62580 -0.418299 1
gene 1 13 13 0.769984 1 63538 0.769984 1
gene 1 1324 18 -0.418677 0 63958 -0.418677 1
gene 1 14 14 0.519336 1 64087 0.519336 1
gene 1 10 1074 -0.178545 0 64389 -0.178545 1
gene 1 35 350 0.139289 1 64593 0.139289 1
gene 1 7 2365 0.735851 0 64993 0.0171005 1
gene 1 2365 29 3.13474 0 64994 1.51774 1
gene 1 670 670 0.237603 1 65963 0.237603 1
gene 1 11 28 -0.933815 0 66278 -0.933815 1
gene 1 23 15 -0.897085 0 66727 -0.897085 1
gene 1 228 2462 0.88225 0 67707 0.0384998 1
gene 1 2462 35 -1.35025 0 67708 -0.171386 1
gene 1 2 1456 0.224426 0 68127 0.224426 1
gene 1 2129 2129 0.543439 1 68441 0.543439 1
gene 1 8 13 0.00774025 0 68961 0.00774025 1
gene 1 32 19 -0.479935 0 69515 -0.479935 1
gene 1 20 670 -0.646867 0 70196 -0.646867 1
genomeend 668
