/* Organism #58254048 Fitness: -1.47374e+07 
genomestart 324
trait 1 0.407776 0 0.646171 0.243049 0.00798358 0.00107811 0 0.268486 
node 1 1 0
node 2 1 1
node 3 1 1
node 4 1 1
node 5 1 1
node 6 1 1
node 7 1 1
node 8 1 1
node 9 1 1
node 10 1 1
node 11 1 1
node 12 1 2
node 13 1 2
node 14 1 2
node 15 1 2
node 16 1 2
node 17 1 2
node 18 1 2
node 19 1 2
node 20 1 2
node 21 1 2
node 22 1 2
node 23 1 2
node 24 1 2
node 25 1 2
node 26 1 3
node 27 1 3
node 34 1 3
node 975 1 3
gene 1 1 27 -2.6458 0 2 -2.6458 1
gene 1 2 26 -2.02109 0 11 -2.02109 1
gene 1 2 27 -1.46837 0 12 -1.46837 1
gene 1 2 34 -1.27698 0 19 -1.27698 1
gene 1 3 26 -2.81377 0 21 -2.81377 1
gene 1 3 27 -3.59375 0 22 -3.59375 1
gene 1 4 26 -2.28324 0 31 -2.28324 1
gene 1 4 27 -5.36136 0 32 -5.36136 1
gene 1 5 26 3.43591 0 41 3.43591 1
gene 1 5 34 -5.87653 0 49 -5.87653 1
gene 1 7 34 5.28047 0 69 5.28047 1
gene 1 8 34 -2.58215 0 79 -2.58215 1
gene 1 9 26 0.408218 0 81 0.408218 1
gene 1 9 34 -2.59532 0 89 -2.59532 1
gene 1 10 34 3.58184 0 99 3.58184 1
gene 1 11 26 3.83838 0 101 3.83838 1
gene 1 11 27 -1.7797 0 102 -1.7797 1
gene 1 11 34 3.16994 0 109 3.16994 1
gene 1 26 14 2.7939 0 113 2.7939 1
gene 1 26 15 -0.83539 0 114 -0.83539 1
gene 1 26 17 -2.4412 0 116 -2.4412 1
gene 1 26 18 2.29606 0 117 2.29606 1
gene 1 26 20 0.811547 0 119 0.811547 1
gene 1 26 21 -1.64934 0 120 -1.64934 1
gene 1 26 24 -0.0761627 0 123 -0.0761627 1
gene 1 27 12 -5.43099 0 125 -5.43099 1
gene 1 27 13 2.45458 0 126 2.45458 1
gene 1 27 15 7.14259 0 128 7.14259 1
gene 1 27 16 7.22728 0 129 7.22728 1
gene 1 27 17 -3.23156 0 130 -3.23156 1
gene 1 27 18 4.41839 0 131 4.41839 1
gene 1 27 20 1.21173 0 133 1.21173 1
gene 1 27 23 7.27497 0 136 7.27497 1
gene 1 27 25 -1.50131 0 138 -1.50131 1
gene 1 34 14 -3.16849 0 225 -3.16849 1
gene 1 34 16 -2.27784 0 227 -2.27784 1
gene 1 34 20 -1.04608 0 231 -1.04608 1
gene 1 34 22 4.39897 0 233 4.39897 1
gene 1 34 23 0.913689 0 234 0.913689 1
gene 1 34 24 0.848534 0 235 0.848534 1
gene 1 34 25 3.45526 0 236 3.45526 1
gene 1 1 13 1.45947 0 1180 1.45947 1
gene 1 25 25 -0.39948 1 2311 -0.39948 1
gene 1 23 17 -5.28086 0 3742 -5.28086 1
gene 1 14 17 3.07598 0 3934 3.07598 1
gene 1 8 21 1.90663 0 4110 1.90663 1
gene 1 2 20 -0.849907 0 5419 -0.849907 1
gene 1 15 20 -3.49553 0 6325 -3.49553 1
gene 1 23 23 -0.264842 1 6703 -0.264842 1
gene 1 25 16 1.30462 0 7283 1.30462 1
gene 1 20 20 1.74861 1 8219 1.74861 1
gene 1 11 17 -1.89686 0 8603 -1.89686 1
gene 1 24 23 1.69909 0 9419 1.69909 1
gene 1 24 17 1.21644 0 9616 1.21644 1
gene 1 14 14 0.866928 1 9766 0.866928 1
gene 1 21 19 0.539342 0 9917 0.539342 1
gene 1 24 15 -1.52684 0 10150 -1.52684 1
gene 1 26 26 -0.516042 1 11308 -0.516042 1
gene 1 6 20 -1.80444 0 11776 -1.80444 1
gene 1 22 18 0.109025 0 13822 0.109025 1
gene 1 11 22 1.70378 0 14057 1.70378 1
gene 1 15 12 1.86795 0 14642 1.86795 1
gene 1 2 19 -1.7056 0 15000 -1.7056 1
gene 1 20 13 1.66591 0 15550 1.66591 1
gene 1 2 12 6.20873 0 15744 6.20873 1
gene 1 22 21 2.24242 0 15938 2.24242 1
gene 1 3 16 -2.87962 0 16892 -2.87962 1
gene 1 34 21 -1.83644 0 17192 -1.83644 1
gene 1 25 18 -0.260213 0 17841 -0.260213 1
gene 1 25 20 2.40256 0 18047 2.40256 1
gene 1 22 22 -2.07468 1 18732 -2.07468 1
gene 1 3 21 0.0445171 0 19434 0.0445171 1
gene 1 23 20 2.0474 0 19902 2.0474 1
gene 1 14 18 -1.51468 0 20293 -1.51468 1
gene 1 6 22 -1.51738 0 20918 -1.51738 1
gene 1 23 25 2.24336 0 21565 2.24336 1
gene 1 24 19 -2.30589 0 21703 -2.30589 1
gene 1 8 24 -2.38238 0 21795 -2.38238 1
gene 1 25 21 1.30903 0 23215 1.30903 1
gene 1 15 25 0.853194 0 23631 0.853194 1
gene 1 14 16 1.50911 0 24182 1.50911 1
gene 1 22 20 -4.98049 0 24705 -4.98049 1
gene 1 18 18 1.19337 1 25893 1.19337 1
gene 1 8 22 -0.975134 0 26142 -0.975134 1
gene 1 19 22 -0.0535386 0 26313 -0.0535386 1
gene 1 27 19 -0.658325 0 26497 -0.658325 1
gene 1 18 13 -1.38398 0 27273 -1.38398 1
gene 1 8 13 1.85542 0 27653 1.85542 1
gene 1 5 23 1.23832 0 28018 1.23832 1
gene 1 25 975 1.59885 0 29565 1.59885 1
gene 1 14 25 -2.6971 0 30737 -2.6971 1
gene 1 6 12 0.354942 0 31102 0.354942 1
gene 1 1 975 1.25091 0 31278 1.25091 1
gene 1 23 975 -2.50569 0 32214 -2.50569 1
gene 1 3 12 2.04554 0 32425 2.04554 1
gene 1 20 18 -1.01893 0 32570 -1.01893 1
gene 1 11 24 -0.0715692 0 32820 -0.0715692 1
gene 1 10 25 3.64175 0 33250 3.64175 1
gene 1 12 18 0.682933 0 34358 0.682933 1
gene 1 17 19 -3.10539 0 35128 -3.10539 1
gene 1 14 15 3.88181 0 36199 3.88181 1
gene 1 24 25 0.0350706 0 36555 0.0350706 1
gene 1 2 25 -0.533005 0 36776 -0.533005 1
gene 1 23 34 2.23478 1 37289 2.23478 1
gene 1 14 13 -0.530663 0 37523 -0.530663 1
gene 1 34 15 0.0302316 0 37762 0.0302316 1
gene 1 17 13 -1.80584 0 38582 -1.80584 1
gene 1 3 14 1.63852 0 39111 1.63852 1
gene 1 14 20 -0.789419 0 39653 -0.789419 1
gene 1 16 26 -4.53411 1 40043 -4.53411 1
gene 1 6 21 -0.201559 0 40614 -0.201559 1
gene 1 13 13 -1.57102 1 40798 -1.57102 1
gene 1 23 15 -0.500584 0 41411 -0.500584 1
gene 1 5 27 0.209822 0 42195 0.209822 1
gene 1 25 12 -2.89684 0 42913 -2.89684 1
gene 1 27 27 -1.99325 1 43459 -1.99325 1
gene 1 19 21 -0.346432 1 44354 -0.346432 1
gene 1 5 12 -1.8151 0 45239 -1.8151 1
gene 1 20 975 -2.57185 0 45324 -2.57185 1
gene 1 5 14 0.453444 0 45747 0.453444 1
gene 1 16 20 1.41269 0 47544 1.41269 1
gene 1 4 23 -1.19004 0 48666 -1.19004 1
gene 1 5 21 -0.416152 0 48862 -0.416152 1
gene 1 10 21 0.806858 0 49237 0.806858 1
gene 1 8 18 1.15778 0 49761 1.15778 1
gene 1 7 19 -0.639931 0 49941 -0.639931 1
gene 1 13 18 -0.324413 1 50142 -0.324413 1
gene 1 17 16 -0.589451 0 50905 -0.589451 1
gene 1 13 12 -1.53534 0 51111 -1.53534 1
gene 1 17 25 0.944862 0 52052 0.944862 1
gene 1 22 27 0.0962735 0 53026 0.0962735 1
gene 1 19 19 -0.849429 1 53171 -0.849429 1
gene 1 7 24 0.489365 0 53386 0.489365 1
gene 1 25 24 0.870333 1 53745 0.870333 1
gene 1 1 15 0.98819 0 54008 0.98819 1
gene 1 1 21 -1.74181 0 54378 -1.74181 1
gene 1 27 21 -0.614851 1 54737 -0.614851 1
gene 1 975 18 1.0483 0 54911 1.0483 1
gene 1 16 16 -0.466772 1 55265 -0.466772 1
gene 1 21 975 -0.58528 0 55470 -0.58528 1
gene 1 19 13 0.557749 0 55864 0.557749 1
gene 1 23 14 -0.586846 1 56686 -0.586846 1
gene 1 10 20 -1.31385 0 57841 -1.31385 1
gene 1 34 18 0.290825 0 58121 0.290825 1
gene 1 15 18 0.397346 0 58201 0.397346 1
gene 1 24 24 0.25263 1 58518 0.25263 1
gene 1 34 19 0.512056 0 58843 0.512056 1
gene 1 21 13 1.56734 0 59491 1.56734 1
gene 1 7 25 0.717387 0 60064 0.717387 1
gene 1 12 12 0.0792563 1 62193 0.0792563 1
gene 1 19 23 -0.88883 1 62395 -0.88883 1
gene 1 8 19 0.594466 0 62939 0.594466 1
gene 1 18 16 0.335962 0 63025 0.335962 1
gene 1 7 16 0.160567 0 63100 0.160567 1
gene 1 17 17 0.789447 1 63479 0.789447 1
gene 1 27 26 -0.105997 0 63876 -0.105997 1
genomeend 324
