/* Organism #43809760 Fitness: -9.91761e+08 
genomestart 551
trait 1 0.875965 0.523386 0.225219 1 0.429763 0.799821 1 0.11319 
node 1 1 0
node 2 1 1
node 3 1 1
node 4 1 1
node 5 1 1
node 6 1 1
node 7 1 1
node 8 1 1
node 9 1 1
node 10 1 1
node 11 1 1
node 12 1 2
node 13 1 2
node 14 1 2
node 15 1 2
node 16 1 2
node 17 1 2
node 18 1 2
node 19 1 2
node 20 1 2
node 21 1 2
node 22 1 2
node 23 1 2
node 24 1 2
node 25 1 2
node 26 1 3
node 27 1 3
node 1065 1 3
node 1255 1 3
node 1340 1 3
node 1352 1 3
node 1540 1 3
node 1685 1 3
node 1827 1 3
node 1969 1 3
node 1991 1 3
node 2315 1 3
node 2460 1 3
gene 1 1 26 -5.08666 0 1 -5.08666 1
gene 1 1 27 -6.7932 0 2 -6.7932 1
gene 1 3 26 2.22897 0 21 2.22897 1
gene 1 4 26 1.68388 0 31 1.68388 1
gene 1 4 27 0.386011 0 32 0.386011 1
gene 1 5 27 -0.013882 0 42 -0.013882 1
gene 1 7 27 6.68681 0 62 6.68681 1
gene 1 8 26 -1.35698 0 71 -1.35698 1
gene 1 8 27 1.25692 0 72 1.25692 1
gene 1 9 26 0.542145 0 81 0.542145 1
gene 1 9 27 3.26833 0 82 3.26833 1
gene 1 10 26 -2.17229 0 91 -2.17229 1
gene 1 10 27 -3.04146 0 92 -3.04146 1
gene 1 11 26 -0.57124 0 101 -0.57124 1
gene 1 11 27 -8 0 102 -8 1
gene 1 26 12 -0.697234 0 111 -0.697234 1
gene 1 26 13 7.75423 0 112 7.75423 1
gene 1 26 15 2.67781 0 114 2.67781 1
gene 1 26 18 -1.39595 0 117 -1.39595 1
gene 1 26 19 -5.71388 0 118 -5.71388 1
gene 1 26 20 7.1801 0 119 7.1801 1
gene 1 26 22 4.81799 0 121 4.81799 1
gene 1 27 12 0.486261 0 125 0.486261 1
gene 1 27 13 -0.410435 0 126 -0.410435 1
gene 1 27 16 -0.252489 0 129 -0.252489 1
gene 1 27 17 5.63517 0 130 5.63517 1
gene 1 27 18 -4.67505 0 131 -4.67505 1
gene 1 27 21 2.04473 0 134 2.04473 1
gene 1 27 22 4.01436 0 135 4.01436 1
gene 1 27 23 0.382661 0 136 0.382661 1
gene 1 27 24 1.76207 0 137 1.76207 1
gene 1 27 25 3.27643 0 138 3.27643 1
gene 1 15 15 -1.1246 1 1519 -1.1246 1
gene 1 13 13 -0.710234 1 1850 -0.710234 1
gene 1 16 15 2.28521 0 3810 2.28521 1
gene 1 5 20 5.14865 0 4006 5.14865 1
gene 1 4 21 -1.75519 0 4417 -1.75519 1
gene 1 22 22 -0.360367 1 4858 -0.360367 1
gene 1 5 14 0.498895 0 5113 0.498895 1
gene 1 22 23 2.76656 0 7704 2.76656 1
gene 1 17 13 -6.8893 0 8268 -6.8893 1
gene 1 11 23 -4.06121 0 8521 -4.06121 1
gene 1 17 23 0.128594 0 8564 0.128594 1
gene 1 9 18 1.05604 0 9477 1.05604 1
gene 1 3 15 -2.43854 0 12074 -2.43854 1
gene 1 12 25 -3.33 0 12809 -3.33 1
gene 1 25 20 6.46828 0 14308 6.46828 1
gene 1 21 14 -1.04771 0 14512 -1.04771 1
gene 1 20 24 2.89788 0 15072 2.89788 1
gene 1 14 25 0.496568 0 16090 0.496568 1
gene 1 24 24 1.57598 1 16667 1.57598 1
gene 1 15 22 -2.72831 0 16939 -2.72831 1
gene 1 5 13 1.87572 0 18039 1.87572 1
gene 1 27 27 1.25804 1 18516 1.25804 1
gene 1 12 20 1.25745 0 19543 1.25745 1
gene 1 16 17 1.92386 0 19876 1.92386 1
gene 1 17 19 -1.55224 0 20369 -1.55224 1
gene 1 1 15 -5.75365 0 21385 -5.75365 1
gene 1 21 21 3.65575 1 23615 3.65575 1
gene 1 18 25 -0.837959 0 26923 -0.837959 1
gene 1 1065 14 -2.43391 0 28382 -2.43391 1
gene 1 12 23 0.319147 0 28746 0.319147 1
gene 1 25 25 -0.505794 1 29314 -0.505794 1
gene 1 11 13 -2.80945 0 30576 -2.80945 1
gene 1 6 12 4.11898 0 30777 4.11898 1
gene 1 26 23 0.710444 0 32509 0.710444 1
gene 1 2 22 -0.84803 0 33148 -0.84803 1
gene 1 6 23 -2.03395 0 33294 -2.03395 1
gene 1 1255 15 -0.552073 0 33557 -0.552073 1
gene 1 2 26 0.442727 0 34588 0.442727 1
gene 1 16 21 -2.77827 0 34930 -2.77827 1
gene 1 1352 12 -1.06687 0 35921 -1.06687 1
gene 1 5 1255 1.05113 0 36697 1.05113 1
gene 1 19 1065 -0.605031 0 36895 -0.605031 1
gene 1 15 19 5.16407 0 37328 5.16407 1
gene 1 16 16 1.70841 1 37636 1.70841 1
gene 1 18 19 -2.2348 0 40157 -2.2348 1
gene 1 24 1340 -0.230116 1 40599 -0.230116 1
gene 1 1340 15 1.49399 0 40751 1.49399 1
gene 1 6 1540 0.241566 0 41166 0.241566 1
gene 1 1540 15 -2.86503 0 41804 -2.86503 1
gene 1 1340 20 -0.029755 0 43366 -0.029755 1
gene 1 22 1065 2.78047 0 43580 2.78047 1
gene 1 1352 24 -0.444021 0 45471 -0.444021 1
gene 1 26 1685 4.04785 0 45694 4.04785 1
gene 1 1685 25 -5.56653 0 45695 -5.56653 1
gene 1 1352 1352 1.8232 1 45907 1.8232 1
gene 1 18 18 -3.73663 1 46724 -3.73663 1
gene 1 1352 14 1.45302 0 46916 1.45302 1
gene 1 2 25 5.64294 0 47276 5.64294 1
gene 1 15 24 -0.31605 0 47723 -0.31605 1
gene 1 25 22 2.86149 1 48145 2.86149 1
gene 1 1352 16 5.20047 0 49301 5.20047 1
gene 1 22 20 -0.668158 0 49410 -0.668158 1
gene 1 20 1827 2.55336 1 49542 2.55336 1
gene 1 1827 20 2.18758 0 49543 2.18758 1
gene 1 20 20 5.66972 1 49767 5.66972 1
gene 1 1685 26 0.392907 1 51191 0.392907 1
gene 1 22 17 -1.32643 0 51416 -1.32643 1
gene 1 1685 21 6.14272 0 51860 6.14272 1
gene 1 9 14 1.87998 0 52696 1.87998 1
gene 1 4 17 -4.48003 0 52916 -4.48003 1
gene 1 1255 14 -1.22454 0 53274 -1.22454 1
gene 1 1255 13 -0.971919 0 53550 -0.971919 1
gene 1 1969 18 -0.949926 0 54226 -0.949926 1
gene 1 3 1991 7.18055 0 54479 7.18055 1
gene 1 1991 1340 2.15557 0 54480 2.15557 1
gene 1 17 21 0.495192 0 55147 0.495192 1
gene 1 5 19 -0.626377 0 55387 -0.626377 1
gene 1 23 25 -0.610226 0 55846 -0.610226 1
gene 1 3 1540 4.30766 0 56301 4.30766 1
gene 1 1 13 -3.5786 0 56732 -3.5786 1
gene 1 1255 1255 -0.928361 1 57389 -0.928361 1
gene 1 6 22 -2.47169 0 57623 -2.47169 1
gene 1 1 25 -2.42726 0 57820 -2.42726 1
gene 1 14 13 -0.0852036 0 58236 -0.0852036 1
gene 1 7 13 0.973093 0 58354 0.973093 1
gene 1 26 26 1.04021 1 58592 1.04021 1
gene 1 11 1827 -1.21322 0 58816 -1.21322 1
gene 1 26 27 -0.666295 0 59241 -0.666295 1
gene 1 1969 1969 -0.383296 1 60027 -0.383296 1
gene 1 16 20 0.0516876 0 61312 0.0516876 1
gene 1 18 1065 -1.67969 0 62424 -1.67969 1
gene 1 9 17 -0.149756 0 62822 -0.149756 1
gene 1 1340 1540 0.207474 0 63081 0.207474 1
gene 1 1 16 -4.26825 0 63276 -4.26825 1
gene 1 1540 1540 0.529251 1 63457 0.529251 1
gene 1 27 2315 -0.0809765 0 63649 -0.0809765 1
gene 1 2315 15 -2.99326 0 63650 -2.99326 1
gene 1 5 1340 0.317748 0 64327 0.317748 1
gene 1 20 18 -0.937867 1 65199 -0.937867 1
gene 1 17 17 0.0822926 1 65810 0.0822926 1
gene 1 12 18 0.129163 0 66057 0.129163 1
gene 1 18 1255 -1.80148 0 66290 -1.80148 1
gene 1 27 1827 0.356766 0 66724 0.356766 1
gene 1 8 2460 1.201 0 67387 1.201 1
gene 1 2460 1827 1.12593 0 67388 1.12593 1
gene 1 11 21 0.83563 0 67612 0.83563 1
gene 1 1340 1340 0.334075 1 67822 0.334075 1
gene 1 6 16 -0.871088 0 68028 -0.871088 1
gene 1 10 17 0.68636 0 68946 0.68636 1
gene 1 3 1827 0.790405 0 69661 0.790405 1
gene 1 1352 15 -0.397471 0 70244 -0.397471 1
gene 1 11 17 -0.717231 0 70652 -0.717231 1
genomeend 551
