/* Organism #140322790995976 Fitness: -1.47377e+07 
genomestart 32
trait 1 0.0665088 0.714925 0.0197696 0.552162 0.873774 0.299527 0.207375 0.854207 
node 1 1 0
node 2 1 1
node 3 1 1
node 4 1 1
node 5 1 1
node 6 1 1
node 7 1 1
node 8 1 1
node 9 1 1
node 10 1 1
node 11 1 1
node 12 1 2
node 13 1 2
node 14 1 2
node 15 1 2
node 16 1 2
node 17 1 2
node 18 1 2
node 19 1 2
node 20 1 2
node 21 1 2
node 22 1 2
node 23 1 2
node 24 1 2
node 25 1 2
node 26 1 3
node 28 1 3
node 29 1 3
node 30 1 3
node 853 1 3
node 916 1 3
node 1073 1 3
node 1678 1 3
node 1867 1 3
gene 1 1 26 5.14882 0 1 5.14882 1
gene 1 1 28 2.42448 0 3 2.42448 1
gene 1 1 29 -2.23267 0 4 -2.23267 1
gene 1 1 30 3.49397 0 5 3.49397 1
gene 1 2 28 3.22253 0 13 3.22253 1
gene 1 3 29 -3.97088 0 24 -3.97088 1
gene 1 4 26 1.59722 0 31 1.59722 1
gene 1 4 30 1.56641 0 35 1.56641 1
gene 1 5 28 5.69912 0 43 5.69912 1
gene 1 6 26 -1.91044 0 51 -1.91044 1
gene 1 6 29 1.27299 0 54 1.27299 1
gene 1 6 30 -0.432216 0 55 -0.432216 1
gene 1 7 26 0.65827 0 61 0.65827 1
gene 1 7 28 -5.20528 0 63 -5.20528 1
gene 1 7 29 -0.786416 0 64 -0.786416 1
gene 1 8 29 3.01505 0 74 3.01505 1
gene 1 8 30 2.72129 0 75 2.72129 1
gene 1 9 28 -1.52281 0 83 -1.52281 1
gene 1 9 29 -5.73344 0 84 -5.73344 1
gene 1 10 28 -1.39997 0 93 -1.39997 1
gene 1 10 29 3.15179 0 94 3.15179 1
gene 1 10 30 -5.07778 0 95 -5.07778 1
gene 1 11 26 -0.393533 0 101 -0.393533 1
gene 1 11 28 -2.55529 0 103 -2.55529 1
gene 1 11 30 1.21486 0 105 1.21486 1
gene 1 26 13 -2.9707 0 112 -2.9707 1
gene 1 26 18 0.187783 0 117 0.187783 1
gene 1 26 20 -5.87961 0 119 -5.87961 1
gene 1 26 21 3.07952 0 120 3.07952 1
gene 1 28 13 0.438988 0 140 0.438988 1
gene 1 28 14 -2.83547 0 141 -2.83547 1
gene 1 28 15 -5.84921 0 142 -5.84921 1
gene 1 28 18 -0.0630435 0 145 -0.0630435 1
gene 1 28 19 5.20129 0 146 5.20129 1
gene 1 28 21 -3.63784 0 148 -3.63784 1
gene 1 28 22 -7.97213 0 149 -7.97213 1
gene 1 28 23 1.40256 0 150 1.40256 1
gene 1 28 24 1.43456 0 151 1.43456 1
gene 1 28 25 -1.99329 0 152 -1.99329 1
gene 1 29 12 -4.79786 0 153 -4.79786 1
gene 1 29 13 4.93757 0 154 4.93757 1
gene 1 29 14 -3.59305 0 155 -3.59305 1
gene 1 29 16 1.51709 0 157 1.51709 1
gene 1 29 17 -1.66757 0 158 -1.66757 1
gene 1 29 19 1.28236 0 160 1.28236 1
gene 1 29 21 5.27328 0 162 5.27328 1
gene 1 30 12 6.46627 0 167 6.46627 1
gene 1 30 14 0.931531 0 169 0.931531 1
gene 1 30 15 -1.48302 0 170 -1.48302 1
gene 1 30 16 -1.03736 0 171 -1.03736 1
gene 1 30 19 3.10047 0 174 3.10047 1
gene 1 30 20 2.07436 0 175 2.07436 1
gene 1 30 23 4.14676 0 178 4.14676 1
gene 1 30 24 -6.32061 0 179 -6.32061 1
gene 1 30 25 -0.0331436 0 180 -0.0331436 1
gene 1 19 19 -3.20606 1 1352 -3.20606 1
gene 1 26 28 2.24965 0 2184 2.24965 1
gene 1 5 18 -5.3674 0 4602 -5.3674 1
gene 1 3 13 0.612184 0 6146 0.612184 1
gene 1 22 19 0.483612 0 6544 0.483612 1
gene 1 24 19 -0.0192402 0 8864 -0.0192402 1
gene 1 13 20 0.394439 0 9072 0.394439 1
gene 1 21 14 1.87434 0 10516 1.87434 1
gene 1 23 22 -1.15659 0 11297 -1.15659 1
gene 1 1 21 -1.34038 0 12442 -1.34038 1
gene 1 28 29 -3.04434 0 12645 -3.04434 1
gene 1 24 20 1.09775 0 14194 1.09775 1
gene 1 13 25 0.582218 0 15811 0.582218 1
gene 1 16 25 1.56163 0 16533 1.56163 1
gene 1 15 18 2.11739 0 18579 2.11739 1
gene 1 13 13 1.99611 1 19313 1.99611 1
gene 1 16 853 0.315333 0 21205 0.315333 1
gene 1 853 20 -5.34545 0 21206 -5.34545 1
gene 1 8 22 -3.59243 0 21396 -3.59243 1
gene 1 8 28 2.6528 0 21764 2.6528 1
gene 1 30 30 3.83008 1 22346 3.83008 1
gene 1 23 916 -3.1622 0 22512 -3.1622 1
gene 1 19 15 -5.50534 0 22949 -5.50534 1
gene 1 16 21 -5.78587 0 23696 -5.78587 1
gene 1 23 20 -3.50602 0 24381 -3.50602 1
gene 1 4 23 -0.863788 0 24520 -0.863788 1
gene 1 1 22 1.34529 0 24832 1.34529 1
gene 1 4 14 -4.17044 0 25018 -4.17044 1
gene 1 15 20 -1.96082 0 25228 -1.96082 1
gene 1 11 25 4.52102 0 25749 4.52102 1
gene 1 916 1073 0.486053 0 26891 0.486053 1
gene 1 1073 19 -2.77352 0 26892 -2.77352 1
gene 1 853 853 0.855768 1 27283 0.855768 1
gene 1 1073 24 -1.69656 0 27473 -1.69656 1
gene 1 29 29 -1.48683 1 27610 -1.48683 1
gene 1 30 853 3.03079 0 27989 3.03079 1
gene 1 20 17 -1.85922 0 28226 -1.85922 1
gene 1 23 21 0.110155 0 28435 0.110155 1
gene 1 11 1073 -0.585694 0 28664 -0.585694 1
gene 1 3 24 -0.987081 0 29071 -0.987081 1
gene 1 12 12 0.872843 1 29446 0.872843 1
gene 1 5 29 -1.82365 0 29866 -1.82365 1
gene 1 19 18 -0.610174 0 30475 -0.610174 1
gene 1 24 25 1.77098 0 31494 1.77098 1
gene 1 18 17 -0.490862 0 31692 -0.490862 1
gene 1 11 19 2.87734 0 32270 2.87734 1
gene 1 11 13 -2.78312 0 32762 -2.78312 1
gene 1 853 14 1.0684 0 32787 1.0684 1
gene 1 6 916 1.75037 0 33126 1.75037 1
gene 1 30 916 -0.545493 0 33532 -0.545493 1
gene 1 10 13 -2.46769 0 33731 -2.46769 1
gene 1 17 16 -2.01088 0 33930 -2.01088 1
gene 1 21 16 -2.33949 1 35887 -2.33949 1
gene 1 853 15 0.857842 1 37885 0.857842 1
gene 1 25 21 3.28303 0 38104 3.28303 1
gene 1 6 13 0.353423 0 38243 0.353423 1
gene 1 23 17 0.117174 0 39029 0.117174 1
gene 1 2 19 0.730193 0 39215 0.730193 1
gene 1 18 20 0.827533 0 39816 0.827533 1
gene 1 25 25 1.36189 1 39933 1.36189 1
gene 1 9 1073 -1.4409 0 40360 -1.4409 1
gene 1 1 24 1.72174 0 40691 1.72174 1
gene 1 853 25 0.816592 0 41353 0.816592 1
gene 1 24 22 -0.796797 0 41657 -0.796797 1
gene 1 16 16 -0.299229 1 42022 -0.299229 1
gene 1 3 19 -0.597413 0 42220 -0.597413 1
gene 1 1073 1073 -0.625172 1 43037 -0.625172 1
gene 1 29 916 0.222927 0 43254 0.222927 1
gene 1 6 15 0.651311 0 43901 0.651311 1
gene 1 23 12 -2.02598 0 44075 -2.02598 1
gene 1 5 20 1.26422 0 44845 1.26422 1
gene 1 4 19 0.757917 0 45171 0.757917 1
gene 1 2 21 -0.785606 0 45391 -0.785606 1
gene 1 12 15 0.124646 0 45779 0.124646 1
gene 1 28 1678 -0.559624 0 47508 -0.559624 1
gene 1 21 26 0.712334 1 48106 0.712334 1
gene 1 20 1867 0.608479 0 48961 0.608479 1
gene 1 1867 21 0.972958 0 48962 0.972958 1
gene 1 28 1867 -1.1774 0 50684 -1.1774 1
gene 1 17 14 0.0613934 0 50907 0.0613934 1
gene 1 12 21 0.606102 0 51510 0.606102 1
gene 1 1 14 0.360725 0 51912 0.360725 1
gene 1 916 30 -2.10767 1 52757 -2.10767 1
gene 1 19 12 -0.299722 0 52956 -0.299722 1
gene 1 15 16 -0.318732 0 53402 -0.318732 1
gene 1 7 17 0.527516 0 56245 0.527516 1
gene 1 17 17 -0.146925 1 56708 -0.146925 1
gene 1 5 853 -0.214373 0 57532 -0.214373 1
gene 1 24 16 -0.298237 0 58401 -0.298237 1
gene 1 1073 14 -0.619601 0 59430 -0.619601 1
gene 1 26 1678 0.317051 0 59631 0.317051 1
gene 1 9 1678 0.910484 0 60032 0.910484 1
gene 1 8 21 0.791641 0 60459 0.791641 1
gene 1 28 28 -0.485987 1 60655 -0.485987 1
gene 1 5 30 -0.603123 0 60791 -0.603123 1
gene 1 8 12 0.273349 0 60904 0.273349 1
gene 1 25 17 -0.509373 0 61141 -0.509373 1
gene 1 1678 1678 0.140174 1 61561 0.140174 1
gene 1 20 20 -0.695628 1 61758 -0.695628 1
gene 1 28 20 1.15975 0 62353 1.15975 1
gene 1 9 20 0.745774 0 62771 0.745774 1
gene 1 17 1867 -0.760553 0 62977 -0.760553 1
gene 1 24 24 -1.23715 1 63761 -1.23715 1
gene 1 7 24 -0.136771 0 64319 -0.136771 1
gene 1 17 24 -0.851202 1 64537 -0.851202 1
gene 1 19 13 -0.790062 0 65059 -0.790062 1
gene 1 6 20 -0.325223 0 66113 -0.325223 1
gene 1 1073 18 0.898943 0 67293 0.898943 1
genomeend 32
