/* Organism #73198432 Fitness: -1.47335e+07 
genomestart 778
trait 1 0.0892285 0.58652 0.769773 0.856053 0.466722 0.403024 0.503911 0.822908 
node 1 1 0
node 2 1 1
node 3 1 1
node 4 1 1
node 5 1 1
node 6 1 1
node 7 1 1
node 8 1 1
node 9 1 1
node 10 1 1
node 11 1 1
node 12 1 2
node 13 1 2
node 14 1 2
node 15 1 2
node 16 1 2
node 17 1 2
node 18 1 2
node 19 1 2
node 20 1 2
node 21 1 2
node 22 1 2
node 23 1 2
node 24 1 2
node 25 1 2
node 26 1 3
node 29 1 3
node 31 1 3
node 32 1 3
node 455 1 3
node 733 1 3
node 1600 1 3
node 2289 1 3
node 2575 1 3
gene 1 1 26 1.77676 0 1 1.77676 1
gene 1 1 29 6.05609 0 4 6.05609 1
gene 1 1 31 -1.9137 0 6 -1.9137 1
gene 1 1 32 -0.313448 0 7 -0.313448 1
gene 1 2 26 0.693131 0 11 0.693131 1
gene 1 2 32 -2.9726 0 17 -2.9726 1
gene 1 3 26 -3.21691 0 21 -3.21691 1
gene 1 3 32 -1.88762 0 27 -1.88762 1
gene 1 4 31 -3.38556 0 36 -3.38556 1
gene 1 5 29 -1.29163 0 44 -1.29163 1
gene 1 6 26 1.33715 0 51 1.33715 1
gene 1 6 29 -3.61174 0 54 -3.61174 1
gene 1 6 31 -0.354539 0 56 -0.354539 1
gene 1 6 32 -1.89761 0 57 -1.89761 1
gene 1 7 29 8 0 64 8 1
gene 1 7 31 3.30003 0 66 3.30003 1
gene 1 7 32 0.872067 0 67 0.872067 1
gene 1 8 29 1.17051 0 74 1.17051 1
gene 1 8 32 -5.73376 0 77 -5.73376 1
gene 1 9 29 7.17144 0 84 7.17144 1
gene 1 9 31 2.30411 0 86 2.30411 1
gene 1 9 32 -1.09033 0 87 -1.09033 1
gene 1 10 26 1.85351 0 91 1.85351 1
gene 1 10 31 5.05837 0 96 5.05837 1
gene 1 11 31 4.60517 0 106 4.60517 1
gene 1 11 32 -2.66528 0 107 -2.66528 1
gene 1 26 14 4.89915 0 113 4.89915 1
gene 1 26 16 3.01378 0 115 3.01378 1
gene 1 26 17 8 0 116 8 1
gene 1 26 19 3.50383 0 118 3.50383 1
gene 1 26 21 2.41253 0 120 2.41253 1
gene 1 26 22 3.59002 0 121 3.59002 1
gene 1 26 24 -0.344618 0 123 -0.344618 1
gene 1 29 12 -3.49206 0 153 -3.49206 1
gene 1 29 13 1.79445 0 154 1.79445 1
gene 1 29 14 4.0672 0 155 4.0672 1
gene 1 29 18 2.72901 0 159 2.72901 1
gene 1 29 19 3.98815 0 160 3.98815 1
gene 1 29 20 -5.34424 0 161 -5.34424 1
gene 1 29 21 -3.00237 0 162 -3.00237 1
gene 1 29 22 -2.65442 0 163 -2.65442 1
gene 1 29 23 4.40622 0 164 4.40622 1
gene 1 29 25 -2.73418 0 166 -2.73418 1
gene 1 31 18 3.45966 0 187 3.45966 1
gene 1 31 20 1.58581 0 189 1.58581 1
gene 1 31 22 8 0 191 8 1
gene 1 31 23 4.279 0 192 4.279 1
gene 1 31 24 7.34561 0 193 7.34561 1
gene 1 31 25 -2.61664 0 194 -2.61664 1
gene 1 32 12 0.128158 0 195 0.128158 1
gene 1 32 13 -0.22662 0 196 -0.22662 1
gene 1 32 14 -0.845799 0 197 -0.845799 1
gene 1 32 16 8 0 199 8 1
gene 1 32 19 2.41021 0 202 2.41021 1
gene 1 32 20 5.04822 0 203 5.04822 1
gene 1 32 21 2.40364 0 204 2.40364 1
gene 1 32 23 2.89726 0 206 2.89726 1
gene 1 32 25 4.44347 0 208 4.44347 1
gene 1 16 16 -3.0589 1 676 -3.0589 1
gene 1 19 25 -7.18505 0 3837 -7.18505 1
gene 1 24 12 0.357707 0 4168 0.357707 1
gene 1 16 21 -0.175546 0 5783 -0.175546 1
gene 1 12 12 5.96252 1 6781 5.96252 1
gene 1 11 19 0.508984 0 6911 0.508984 1
gene 1 4 18 1.28012 0 8366 1.28012 1
gene 1 22 22 3.44526 1 8924 3.44526 1
gene 1 29 26 1.40001 0 9156 1.40001 1
gene 1 9 24 -0.340665 0 9223 -0.340665 1
gene 1 7 13 1.25452 0 11466 1.25452 1
gene 1 5 455 2.77282 0 12850 2.77282 1
gene 1 455 31 -6.80394 0 12851 -6.80394 1
gene 1 9 19 -1.83032 0 13054 -1.83032 1
gene 1 455 455 6.99744 1 13802 6.99744 1
gene 1 32 26 0.141419 0 14258 0.141419 1
gene 1 9 22 3.09903 0 15116 3.09903 1
gene 1 15 15 0.886209 1 15315 0.886209 1
gene 1 4 455 5.14886 0 18647 5.14886 1
gene 1 19 22 -6.44641 0 19684 -6.44641 1
gene 1 3 733 2.43929 0 20122 2.43929 1
gene 1 733 29 5.48318 0 20123 5.48318 1
gene 1 6 22 -1.40908 0 20559 -1.40908 1
gene 1 16 19 -1.04895 0 22544 -1.04895 1
gene 1 1 21 1.14802 0 22759 1.14802 1
gene 1 24 24 -0.350294 1 23430 -0.350294 1
gene 1 2 25 6.91075 0 23973 6.91075 1
gene 1 733 20 0.971911 0 24394 0.971911 1
gene 1 733 733 2.24363 1 24799 2.24363 1
gene 1 8 24 -1.4106 0 25414 -1.4106 1
gene 1 26 13 -1.85422 0 26422 -1.85422 1
gene 1 29 29 0.274694 1 26541 0.274694 1
gene 1 18 16 -1.54016 0 27990 -1.54016 1
gene 1 24 21 4.49408 0 28779 4.49408 1
gene 1 8 23 -4.67301 0 29287 -4.67301 1
gene 1 9 25 2.88134 0 29777 2.88134 1
gene 1 32 32 3.14366 1 30842 3.14366 1
gene 1 13 32 -1.42636 1 31231 -1.42636 1
gene 1 10 23 3.64693 0 31413 3.64693 1
gene 1 21 21 -0.796234 1 32481 -0.796234 1
gene 1 20 12 -5.51812 0 35557 -5.51812 1
gene 1 23 23 5.00946 1 36515 5.00946 1
gene 1 14 14 -1.89332 1 37088 -1.89332 1
gene 1 3 13 5.79432 0 38093 5.79432 1
gene 1 6 14 0.534896 0 39723 0.534896 1
gene 1 21 19 -1.79522 0 41168 -1.79522 1
gene 1 17 20 -0.945172 0 41584 -0.945172 1
gene 1 6 23 -0.220391 0 42307 -0.220391 1
gene 1 8 1600 -1.8854 0 42757 -1.8854 1
gene 1 4 32 -2.19539 0 43375 -2.19539 1
gene 1 9 733 -0.0473504 0 44295 -0.0473504 1
gene 1 20 13 -3.22645 0 45520 -3.22645 1
gene 1 3 19 1.4508 0 45708 1.4508 1
gene 1 14 18 4.01543 0 45925 4.01543 1
gene 1 10 1600 3.22463 0 46356 3.22463 1
gene 1 733 23 1.08189 0 46593 1.08189 1
gene 1 12 14 3.56043 1 46937 3.56043 1
gene 1 20 20 1.80816 1 47308 1.80816 1
gene 1 23 17 2.17531 0 49380 2.17531 1
gene 1 31 26 -1.30112 0 49579 -1.30112 1
gene 1 2 19 2.09566 0 50036 2.09566 1
gene 1 1 20 -2.27755 0 50661 -2.27755 1
gene 1 10 17 1.09482 0 51452 1.09482 1
gene 1 5 20 0.178907 0 51582 0.178907 1
gene 1 2 733 -0.573793 0 51920 -0.573793 1
gene 1 1600 18 -1.28621 0 52581 -1.28621 1
gene 1 8 25 -2.13148 0 53968 -2.13148 1
gene 1 7 18 0.0295722 0 54576 0.0295722 1
gene 1 16 12 0.94828 0 54727 0.94828 1
gene 1 18 17 -1.90973 0 54999 -1.90973 1
gene 1 21 15 0.317358 0 55142 0.317358 1
gene 1 733 18 1.09822 0 55371 1.09822 1
gene 1 10 18 0.550136 0 55604 0.550136 1
gene 1 31 32 0.389089 0 55986 0.389089 1
gene 1 2 24 0.0523369 0 57650 0.0523369 1
gene 1 26 733 2.45829 1 57861 2.45829 1
gene 1 1600 1600 0.288067 1 58651 0.288067 1
gene 1 455 21 0.559152 0 59002 0.559152 1
gene 1 8 20 2.98439 0 59390 2.98439 1
gene 1 2 17 3.04616 0 59567 3.04616 1
gene 1 1 17 -0.149151 0 59685 -0.149151 1
gene 1 25 13 0.660651 0 59883 0.660651 1
gene 1 31 13 -2.67997 0 60287 -2.67997 1
gene 1 1600 2289 0.968135 0 60827 0.968135 1
gene 1 2289 455 0.17878 0 60828 0.17878 1
gene 1 6 20 -1.68861 0 61576 -1.68861 1
gene 1 25 20 -0.0472499 0 62726 -0.0472499 1
gene 1 7 26 0.574118 0 63096 0.574118 1
gene 1 2289 22 -0.79683 0 63835 -0.79683 1
gene 1 1 22 1.09703 0 65504 1.09703 1
gene 1 19 19 1.44028 1 65739 1.44028 1
gene 1 1600 21 -0.679929 0 66125 -0.679929 1
gene 1 7 25 0.532675 0 66520 0.532675 1
gene 1 2289 23 0.494125 0 66916 0.494125 1
gene 1 21 23 -0.662453 0 67306 -0.662453 1
gene 1 31 31 -0.468497 1 67365 -0.468497 1
gene 1 9 13 0.537584 0 67932 0.537584 1
gene 1 13 12 1.16219 0 68206 1.16219 1
gene 1 4 21 0.235392 0 68422 0.235392 1
gene 1 10 12 0.721608 0 68764 0.721608 1
gene 1 17 2575 1 1 68988 0 1
gene 1 2575 17 0.794255 0 68989 0 1
gene 1 11 25 0.970476 0 69156 0.970476 1
gene 1 8 21 -0.353797 0 69688 -0.353797 1
gene 1 13 20 -0.127351 1 69942 -0.127351 1
gene 1 29 2575 0.685206 0 70142 0.685206 1
genomeend 778
