/* Organism #167 Fitness: 1.008 Error: 0.992 */
genomestart 167
trait 1 0.708885 0.762381 0.393869 0.0750777 0.559149 0.0837431 0.892845 0.126327 
node 1 1 0
node 2 1 1
node 3 1 1
node 4 1 1
node 5 1 1
node 6 1 1
node 7 1 1
node 8 1 1
node 9 1 1
node 10 1 2
node 11 1 2
node 12 1 2
node 13 1 2
node 14 1 2
node 15 1 2
node 16 1 2
node 17 1 2
node 18 1 2
node 19 1 2
node 20 1 2
node 21 1 3
node 23 1 3
node 24 1 3
node 25 1 3
node 27 1 3
node 28 1 3
node 279 1 3
gene 1 1 21 4.48032 0 1 4.48032 1
gene 1 1 23 0.873941 0 3 0.873941 1
gene 1 1 24 0.409683 0 4 0.409683 1
gene 1 1 25 3.86776 0 5 3.86776 1
gene 1 1 27 -0.513478 0 7 -0.513478 1
gene 1 2 21 2.27498 0 9 2.27498 1
gene 1 2 23 1.08294 0 11 1.08294 1
gene 1 2 24 -1.16254 0 12 -1.16254 1
gene 1 2 27 2.06159 0 15 2.06159 1
gene 1 2 28 3.69261 0 16 3.69261 1
gene 1 3 21 1.77929 0 17 1.77929 1
gene 1 3 23 4.39629 0 19 4.39629 1
gene 1 3 24 4.68184 0 20 4.68184 1
gene 1 3 25 1.27652 0 21 1.27652 1
gene 1 3 27 -4.25538 0 23 -4.25538 1
gene 1 3 28 2.38015 0 24 2.38015 1
gene 1 4 21 0.567381 0 25 0.567381 1
gene 1 4 23 -1.41257 0 27 -1.41257 1
gene 1 4 24 1.09573 0 28 1.09573 1
gene 1 4 25 -0.378691 0 29 -0.378691 1
gene 1 4 27 0.911715 0 31 0.911715 1
gene 1 4 28 2.9693 0 32 2.9693 1
gene 1 5 21 -7.15004 0 33 -7.15004 1
gene 1 5 23 2.53684 0 35 2.53684 1
gene 1 5 24 -2.57156 0 36 -2.57156 1
gene 1 5 28 -0.741194 0 40 -0.741194 1
gene 1 6 21 -0.786063 0 41 -0.786063 1
gene 1 6 23 -0.200588 0 43 -0.200588 1
gene 1 6 25 -0.978225 0 45 -0.978225 1
gene 1 6 27 -4.29088 0 47 -4.29088 1
gene 1 6 28 -2.55157 0 48 -2.55157 1
gene 1 7 21 0.324905 0 49 0.324905 1
gene 1 7 23 1.29972 0 51 1.29972 1
gene 1 7 24 -0.947542 0 52 -0.947542 1
gene 1 7 27 -3.10592 0 55 -3.10592 1
gene 1 7 28 -2.46558 0 56 -2.46558 1
gene 1 8 21 0.636089 0 57 0.636089 1
gene 1 8 23 4.20364 0 59 4.20364 1
gene 1 8 24 0.528247 0 60 0.528247 1
gene 1 8 25 -1.0084 0 61 -1.0084 1
gene 1 8 27 -0.501173 0 63 -0.501173 1
gene 1 8 28 2.19075 0 64 2.19075 1
gene 1 9 21 -5.65693 0 65 -5.65693 1
gene 1 9 23 2.16393 0 67 2.16393 1
gene 1 9 24 -2.74013 0 68 -2.74013 1
gene 1 9 25 7.27626 0 69 7.27626 1
gene 1 9 27 1.00556 0 71 1.00556 1
gene 1 9 28 -2.19593 0 72 -2.19593 1
gene 1 21 10 -3.8024 0 73 -3.8024 1
gene 1 21 11 0.32458 0 74 0.32458 1
gene 1 21 12 5.34851 0 75 5.34851 1
gene 1 21 13 2.62653 0 76 2.62653 1
gene 1 21 14 0.339413 0 77 0.339413 1
gene 1 21 15 3.18448 0 78 3.18448 1
gene 1 21 16 -1.38957 0 79 -1.38957 1
gene 1 21 17 -2.73494 0 80 -2.73494 1
gene 1 21 18 -0.0209267 0 81 -0.0209267 1
gene 1 21 19 3.21249 0 82 3.21249 1
gene 1 21 20 -0.914654 0 83 -0.914654 1
gene 1 23 10 -1.07038 0 95 -1.07038 1
gene 1 23 11 -3.48948 0 96 -3.48948 1
gene 1 23 12 -0.777953 0 97 -0.777953 1
gene 1 23 13 -2.55167 0 98 -2.55167 1
gene 1 23 14 1.20875 0 99 1.20875 1
gene 1 23 15 -0.764895 0 100 -0.764895 1
gene 1 23 16 -4.26676 0 101 -4.26676 1
gene 1 23 17 -0.067794 0 102 -0.067794 1
gene 1 23 18 0.20491 0 103 0.20491 1
gene 1 23 19 -0.978857 0 104 -0.978857 1
gene 1 23 20 -0.469333 0 105 -0.469333 1
gene 1 24 10 -1.6778 0 106 -1.6778 1
gene 1 24 12 -0.886584 0 108 -0.886584 1
gene 1 24 13 3.12014 0 109 3.12014 1
gene 1 24 14 -1.01284 0 110 -1.01284 1
gene 1 24 15 -0.853028 0 111 -0.853028 1
gene 1 24 16 0.750262 0 112 0.750262 1
gene 1 24 17 3.80239 0 113 3.80239 1
gene 1 24 18 4.2927 0 114 4.2927 1
gene 1 24 19 0.314864 0 115 0.314864 1
gene 1 24 20 2.67314 0 116 2.67314 1
gene 1 25 10 -2.28351 0 117 -2.28351 1
gene 1 25 11 0.226873 0 118 0.226873 1
gene 1 25 13 0.3876 0 120 0.3876 1
gene 1 25 14 -2.19626 0 121 -2.19626 1
gene 1 25 15 1.36814 0 122 1.36814 1
gene 1 25 16 1.12513 0 123 1.12513 1
gene 1 25 17 -2.26681 0 124 -2.26681 1
gene 1 25 18 1.07779 0 125 1.07779 1
gene 1 25 19 -0.0125114 0 126 -0.0125114 1
gene 1 25 20 1.48248 0 127 1.48248 1
gene 1 27 10 -1.39388 0 139 -1.39388 1
gene 1 27 11 0.86101 0 140 0.86101 1
gene 1 27 13 -1.21742 0 142 -1.21742 1
gene 1 27 14 -0.740935 0 143 -0.740935 1
gene 1 27 15 2.61553 0 144 2.61553 1
gene 1 27 16 -2.18364 0 145 -2.18364 1
gene 1 27 17 0.477307 0 146 0.477307 1
gene 1 27 18 7.34349 0 147 7.34349 1
gene 1 27 19 1.96834 0 148 1.96834 1
gene 1 27 20 -0.248798 0 149 -0.248798 1
gene 1 28 10 1.12331 0 150 1.12331 1
gene 1 28 11 0.773766 0 151 0.773766 1
gene 1 28 12 -7.6046 0 152 -7.6046 1
gene 1 28 13 0.832247 0 153 0.832247 1
gene 1 28 14 -1.27428 0 154 -1.27428 1
gene 1 28 15 -2.13545 0 155 -2.13545 1
gene 1 28 17 -2.07385 0 157 -2.07385 1
gene 1 28 18 -2.3448 0 158 -2.3448 1
gene 1 28 19 1.27853 0 159 1.27853 1
gene 1 24 23 0.962996 0 729 0.962996 1
gene 1 9 13 -1.95511 0 1055 -1.95511 1
gene 1 17 15 -0.413644 0 2212 -0.413644 1
gene 1 19 19 -1.71773 1 2282 -1.71773 1
gene 1 19 12 -0.935213 0 2496 -0.935213 1
gene 1 3 10 -1.84467 0 2839 -1.84467 1
gene 1 11 11 -0.726083 1 3061 -0.726083 1
gene 1 25 23 0.405152 0 3176 0.405152 1
gene 1 11 15 -0.0379632 0 3297 -0.0379632 1
gene 1 19 17 0.946043 0 4094 0.946043 1
gene 1 28 21 -0.622351 0 4204 -0.622351 1
gene 1 16 16 -3.45721 1 4311 -3.45721 1
gene 1 5 18 1.17314 0 4512 1.17314 1
gene 1 10 18 -0.56784 0 4646 -0.56784 1
gene 1 2 11 -0.481125 0 4720 -0.481125 1
gene 1 7 10 -0.427082 0 5033 -0.427082 1
gene 1 18 17 1.85016 0 5129 1.85016 1
gene 1 12 12 1.35516 1 5214 1.35516 1
gene 1 9 16 -1.75054 0 5483 -1.75054 1
gene 1 20 17 -0.521999 0 5812 -0.521999 1
gene 1 16 17 1.96709 0 6212 1.96709 1
gene 1 7 20 -0.864161 0 6543 -0.864161 1
gene 1 25 279 0.140913 0 6656 -0.234087 1
gene 1 279 12 0.725624 0 6657 0.738051 1
gene 1 10 19 0.124903 0 6955 0.124903 1
gene 1 21 21 -0.15149 1 7259 -0.15149 1
gene 1 6 10 -0.74905 0 7484 -0.74905 1
gene 1 17 14 -0.110394 0 7674 -0.110394 1
genomeend 167
