/* Organism #456 Fitness: 1.013 Error: 0.987 */
genomestart 456
trait 1 0.301073 0.0747968 0.128545 0.0809827 0.931164 0.227115 0.795648 0.204397 
node 1 1 0
node 2 1 1
node 3 1 1
node 4 1 1
node 5 1 1
node 6 1 1
node 7 1 1
node 8 1 1
node 9 1 1
node 10 1 2
node 11 1 2
node 12 1 2
node 13 1 2
node 14 1 2
node 15 1 2
node 16 1 2
node 17 1 2
node 18 1 2
node 19 1 2
node 20 1 2
node 23 1 3
node 24 1 3
node 25 1 3
node 27 1 3
node 38 1 3
node 149 1 3
node 214 1 3
gene 1 1 23 1.83879 0 3 1.83879 1
gene 1 1 24 -0.181684 0 4 -0.181684 1
gene 1 1 25 0.820954 0 5 0.820954 1
gene 1 1 27 -0.703853 0 7 -0.703853 1
gene 1 2 25 -2.12161 0 13 -2.12161 1
gene 1 2 27 1.38327 0 15 1.38327 1
gene 1 3 23 4.33744 0 19 4.33744 1
gene 1 3 24 1.73192 0 20 1.73192 1
gene 1 3 25 -1.66762 0 21 -1.66762 1
gene 1 3 27 -0.935988 0 23 -0.935988 1
gene 1 4 24 0.535127 0 28 0.535127 1
gene 1 4 25 1.86142 0 29 1.86142 1
gene 1 5 23 -0.477134 0 35 -0.477134 1
gene 1 5 24 -0.887948 0 36 -0.887948 1
gene 1 5 25 -3.16399 0 37 -3.16399 1
gene 1 5 27 1.94436 0 39 1.94436 1
gene 1 6 23 2.98201 0 43 2.98201 1
gene 1 6 24 2.56268 0 44 2.56268 1
gene 1 6 25 -2.12533 0 45 -2.12533 1
gene 1 6 27 2.49882 0 47 2.49882 1
gene 1 7 23 2.13591 0 51 2.13591 1
gene 1 7 24 0.194111 0 52 0.194111 1
gene 1 7 25 0.162855 0 53 0.162855 1
gene 1 7 27 1.61391 0 55 1.61391 1
gene 1 8 24 3.90454 0 60 3.90454 1
gene 1 8 25 5.60985 0 61 5.60985 1
gene 1 8 27 -0.89683 0 63 -0.89683 1
gene 1 9 24 2.09038 0 68 2.09038 1
gene 1 9 25 0.23113 0 69 0.23113 1
gene 1 9 27 4.14521 0 71 4.14521 1
gene 1 23 10 2.79377 0 95 2.79377 1
gene 1 23 11 -2.2409 0 96 -2.2409 1
gene 1 23 12 2.98897 0 97 2.98897 1
gene 1 23 13 -0.0204952 0 98 -0.0204952 1
gene 1 23 14 4.97335 0 99 4.97335 1
gene 1 23 15 -0.565604 0 100 -0.565604 1
gene 1 23 16 2.91821 0 101 2.91821 1
gene 1 23 17 1.07875 0 102 1.07875 1
gene 1 23 18 -4.67163 0 103 -4.67163 1
gene 1 23 19 1.49144 0 104 1.49144 1
gene 1 23 20 -0.0690182 0 105 -0.0690182 1
gene 1 24 10 0.154399 0 106 0.154399 1
gene 1 24 11 -1.55091 0 107 -1.55091 1
gene 1 24 12 -0.882881 0 108 -0.882881 1
gene 1 24 13 -1.78178 0 109 -1.78178 1
gene 1 24 14 1.96635 0 110 1.96635 1
gene 1 24 15 -5.5118 0 111 -5.5118 1
gene 1 24 16 -1.8888 0 112 -1.8888 1
gene 1 24 17 -1.45512 0 113 -1.45512 1
gene 1 24 18 -3.32013 0 114 -3.32013 1
gene 1 24 19 -0.540911 0 115 -0.540911 1
gene 1 24 20 -0.516729 0 116 -0.516729 1
gene 1 25 10 -7.0231 0 117 -7.0231 1
gene 1 25 11 -0.868722 0 118 -0.868722 1
gene 1 25 12 0.284845 0 119 0.284845 1
gene 1 25 13 0.2561 0 120 0.2561 1
gene 1 25 14 1.6993 0 121 1.6993 1
gene 1 25 15 -0.90202 0 122 -0.90202 1
gene 1 25 16 0.424595 0 123 0.424595 1
gene 1 25 17 -0.891951 0 124 -0.891951 1
gene 1 25 19 -0.482265 0 126 -0.482265 1
gene 1 25 20 0.161321 0 127 0.161321 1
gene 1 27 10 -1.29171 0 139 -1.29171 1
gene 1 27 11 0.345554 0 140 0.345554 1
gene 1 27 12 4.56136 0 141 4.56136 1
gene 1 27 13 0.913375 0 142 0.913375 1
gene 1 27 14 -0.619677 0 143 -0.619677 1
gene 1 27 15 1.63091 0 144 1.63091 1
gene 1 27 16 -0.640091 0 145 -0.640091 1
gene 1 27 17 -1.78711 0 146 -1.78711 1
gene 1 27 18 -0.894225 0 147 -0.894225 1
gene 1 27 19 3.11648 0 148 3.11648 1
gene 1 27 20 1.64118 0 149 1.64118 1
gene 1 14 20 0.891285 0 402 0.891285 1
gene 1 4 38 0.371012 0 523 0.371012 1
gene 1 38 23 -2.76778 0 524 -2.76778 1
gene 1 4 11 -1.16558 0 1241 -1.16558 1
gene 1 17 15 -0.981235 0 1462 -0.981235 1
gene 1 19 19 -2.53873 1 1864 -2.53873 1
gene 1 23 23 -0.439219 1 1977 -0.439219 1
gene 1 18 10 -1.10497 0 2308 -1.10497 1
gene 1 11 13 -0.462515 0 2526 -0.462515 1
gene 1 18 18 4.19185 1 2733 4.19185 1
gene 1 9 38 0.927128 0 2851 0.927128 1
gene 1 3 19 0.308343 0 2971 0.308343 1
gene 1 16 16 2.72812 1 3188 2.72812 1
gene 1 25 149 -2.03955 0 3290 -2.03955 1
gene 1 149 18 -1.93542 0 3291 -1.93542 1
gene 1 4 149 0.397616 0 3393 0.397616 1
gene 1 5 10 -0.562232 0 3740 -0.562232 1
gene 1 149 24 0.394625 0 3812 0.394625 1
gene 1 3 14 0.799027 0 4133 0.799027 1
gene 1 1 15 0.807611 0 4244 0.807611 1
gene 1 1 12 -1.40946 0 4795 -1.40946 1
gene 1 25 25 -1.47497 1 4993 -1.47497 1
gene 1 38 24 0.0454587 0 5054 0.0454587 1
gene 1 4 214 1.61859 0 5170 1.36859 1
gene 1 20 20 -0.310035 1 5287 -0.310035 1
gene 1 13 15 -0.710672 0 5678 -0.710672 1
gene 1 13 19 -0.751912 0 5817 -0.751912 1
gene 1 10 10 -0.778521 1 6145 -0.778521 1
genomeend 456
