/* Organism #300 Fitness: 1.011 Error: 0.989 */
genomestart 300
trait 1 0.303251 0.200058 0.746616 0.0450942 0.758167 0.541457 0.794872 0.0173608 
node 1 1 0
node 2 1 1
node 3 1 1
node 4 1 1
node 5 1 1
node 6 1 1
node 7 1 1
node 8 1 1
node 9 1 1
node 10 1 2
node 11 1 2
node 12 1 2
node 13 1 2
node 14 1 2
node 15 1 2
node 16 1 2
node 17 1 2
node 18 1 2
node 19 1 2
node 20 1 2
node 24 1 3
node 25 1 3
node 26 1 3
node 27 1 3
node 28 1 3
node 51 1 3
node 78 1 3
gene 1 1 25 -4.24842 0 5 -4.24842 1
gene 1 1 26 4.73634 0 6 4.73634 1
gene 1 1 27 4.36106 0 7 4.36106 1
gene 1 1 28 -1.63408 0 8 -1.63408 1
gene 1 2 24 -5.95159 0 12 -5.95159 1
gene 1 2 25 2.79662 0 13 2.79662 1
gene 1 2 26 4.05629 0 14 4.05629 1
gene 1 2 27 -1.57942 0 15 -1.57942 1
gene 1 2 28 0.863484 0 16 0.863484 1
gene 1 3 24 -2.06824 0 20 -2.06824 1
gene 1 3 25 -2.1215 0 21 -2.1215 1
gene 1 3 26 -2.5701 0 22 -2.5701 1
gene 1 3 28 0.958059 0 24 0.958059 1
gene 1 4 24 -1.10891 0 28 -1.10891 1
gene 1 4 25 -2.42689 0 29 -2.42689 1
gene 1 4 26 -1.25259 0 30 -1.25259 1
gene 1 4 27 1.38776 0 31 1.38776 1
gene 1 4 28 -2.49017 0 32 -2.49017 1
gene 1 5 24 -6.91263 0 36 -6.91263 1
gene 1 5 25 -2.07927 0 37 -2.07927 1
gene 1 5 26 3.42077 0 38 3.42077 1
gene 1 5 27 -1.65379 0 39 -1.65379 1
gene 1 5 28 0.92614 0 40 0.92614 1
gene 1 6 24 0.755625 0 44 0.755625 1
gene 1 6 25 -3.41598 0 45 -3.41598 1
gene 1 6 26 -0.488995 0 46 -0.488995 1
gene 1 6 27 3.59283 0 47 3.59283 1
gene 1 6 28 5.44266 0 48 5.44266 1
gene 1 7 24 -0.649326 0 52 -0.649326 1
gene 1 7 25 -0.820857 0 53 -0.820857 1
gene 1 7 26 -3.47275 0 54 -3.47275 1
gene 1 7 27 -1.81309 0 55 -1.81309 1
gene 1 7 28 2.88862 0 56 2.88862 1
gene 1 8 24 1.82984 0 60 1.82984 1
gene 1 8 25 -2.05648 0 61 -2.05648 1
gene 1 8 26 0.0609379 0 62 0.0609379 1
gene 1 8 27 1.25367 0 63 1.25367 1
gene 1 8 28 -2.87164 0 64 -2.87164 1
gene 1 9 24 1.84999 0 68 1.84999 1
gene 1 9 25 4.51111 0 69 4.51111 1
gene 1 9 26 -1.096 0 70 -1.096 1
gene 1 9 27 -0.995124 0 71 -0.995124 1
gene 1 9 28 -3.80617 0 72 -3.80617 1
gene 1 24 10 -2.04259 0 106 -2.04259 1
gene 1 24 11 2.38078 0 107 2.38078 1
gene 1 24 12 -0.842138 0 108 -0.842138 1
gene 1 24 13 3.6649 0 109 3.6649 1
gene 1 24 14 1.50947 0 110 1.50947 1
gene 1 24 15 -0.866335 0 111 -0.866335 1
gene 1 24 16 -0.292255 0 112 -0.292255 1
gene 1 24 17 -2.75952 0 113 -2.75952 1
gene 1 24 18 -1.85505 0 114 -1.85505 1
gene 1 24 19 4.81747 0 115 4.81747 1
gene 1 24 20 -2.02674 0 116 -2.02674 1
gene 1 25 10 2.10085 0 117 2.10085 1
gene 1 25 11 -1.84723 0 118 -1.84723 1
gene 1 25 12 -3.57848 0 119 -3.57848 1
gene 1 25 14 -1.03765 0 121 -1.03765 1
gene 1 25 15 -0.52031 0 122 -0.52031 1
gene 1 25 16 -4.92744 0 123 -4.92744 1
gene 1 25 17 0.298454 0 124 0.298454 1
gene 1 25 18 0.999739 0 125 0.999739 1
gene 1 25 19 -1.91069 0 126 -1.91069 1
gene 1 25 20 -0.0252479 0 127 -0.0252479 1
gene 1 26 10 1.41909 0 128 1.41909 1
gene 1 26 11 1.6557 0 129 1.6557 1
gene 1 26 13 3.37783 0 131 3.37783 1
gene 1 26 14 0.376979 0 132 0.376979 1
gene 1 26 15 -3.36502 0 133 -3.36502 1
gene 1 26 16 -0.169387 0 134 -0.169387 1
gene 1 26 17 -1.77237 0 135 -1.77237 1
gene 1 26 18 3.17708 0 136 3.17708 1
gene 1 26 19 -0.419108 0 137 -0.419108 1
gene 1 26 20 2.8111 0 138 2.8111 1
gene 1 27 10 0.150152 0 139 0.150152 1
gene 1 27 11 1.68366 0 140 1.68366 1
gene 1 27 12 5.68922 0 141 5.68922 1
gene 1 27 13 -3.68014 0 142 -3.68014 1
gene 1 27 14 2.84779 0 143 2.84779 1
gene 1 27 15 -0.199932 0 144 -0.199932 1
gene 1 27 16 0.637218 0 145 0.637218 1
gene 1 27 17 1.58286 0 146 1.58286 1
gene 1 27 18 0.0354072 0 147 0.0354072 1
gene 1 27 19 -0.249496 0 148 -0.249496 1
gene 1 28 10 0.755152 0 150 0.755152 1
gene 1 28 11 -2.36739 0 151 -2.36739 1
gene 1 28 12 1.18582 0 152 1.18582 1
gene 1 28 13 -0.934879 0 153 -0.934879 1
gene 1 28 14 -0.911206 0 154 -0.911206 1
gene 1 28 15 1.20204 0 155 1.20204 1
gene 1 28 16 0.650338 0 156 0.650338 1
gene 1 28 17 2.0776 0 157 2.0776 1
gene 1 28 18 -1.61914 0 158 -1.61914 1
gene 1 28 19 0.0813469 0 159 0.0813469 1
gene 1 28 20 1.09171 0 160 1.09171 1
gene 1 18 17 0.636041 0 525 0.636041 1
gene 1 13 14 2.89021 0 633 2.89021 1
gene 1 3 51 -1.78521 0 755 -1.78521 1
gene 1 10 10 -0.524263 1 1174 -0.524263 1
gene 1 6 10 -1.63302 0 1234 -1.63302 1
gene 1 25 78 5.30701 0 1387 5.30701 1
gene 1 78 13 -2.72764 0 1388 -2.72764 1
gene 1 17 12 1.35509 0 1612 1.35509 1
gene 1 11 17 1.61304 0 1860 1.61304 1
gene 1 5 18 0.082493 0 1967 0.082493 1
gene 1 78 51 1.49189 0 2188 1.49189 1
gene 1 19 10 -0.404559 0 2304 -0.404559 1
gene 1 16 14 0.35662 0 2846 0.35662 1
gene 1 1 17 -1.20679 0 3242 -1.20679 1
gene 1 8 20 1.96315 0 3613 1.96315 1
gene 1 14 11 0.255474 0 3721 0.255474 1
gene 1 12 10 0.528982 0 3842 0.528982 1
gene 1 20 20 -1.71347 1 4113 -1.71347 1
gene 1 8 17 -0.448034 0 4455 -0.448034 1
gene 1 18 11 0.244727 0 5095 0.244727 1
gene 1 1 19 2.9366 0 5328 2.9366 1
gene 1 11 28 0.265552 1 6199 0.265552 1
genomeend 300
