/* Organism #232 Fitness: 1.007 Error: 0.993 */
genomestart 232
trait 1 0.171438 0.392219 0.124653 0.0581825 0.553412 0.235455 0.795648 0 
node 1 1 0
node 2 1 1
node 3 1 1
node 4 1 1
node 5 1 1
node 6 1 1
node 7 1 1
node 8 1 1
node 9 1 1
node 10 1 2
node 11 1 2
node 12 1 2
node 13 1 2
node 14 1 2
node 15 1 2
node 16 1 2
node 17 1 2
node 18 1 2
node 19 1 2
node 20 1 2
node 21 1 3
node 22 1 3
node 23 1 3
node 25 1 3
node 26 1 3
node 28 1 3
node 40 1 3
node 154 1 3
gene 1 1 21 -3.51682 0 1 -3.51682 1
gene 1 1 22 -1.5104 0 2 -1.5104 1
gene 1 1 23 0.46121 0 3 0.46121 1
gene 1 1 25 0.685563 0 5 0.685563 1
gene 1 1 26 2.87395 0 6 2.87395 1
gene 1 1 28 -0.876807 0 8 -0.876807 1
gene 1 2 22 -2.72957 0 10 -2.72957 1
gene 1 2 23 -3.01439 0 11 -3.01439 1
gene 1 2 25 -0.343293 0 13 -0.343293 1
gene 1 2 26 -0.39983 0 14 -0.39983 1
gene 1 2 28 1.15834 0 16 1.15834 1
gene 1 3 21 -4.74992 0 17 -4.74992 1
gene 1 3 22 -0.884967 0 18 -0.884967 1
gene 1 3 23 -6.30771 0 19 -6.30771 1
gene 1 3 25 1.77203 0 21 1.77203 1
gene 1 3 26 -0.17205 0 22 -0.17205 1
gene 1 4 21 -3.12495 0 25 -3.12495 1
gene 1 4 22 -0.995785 0 26 -0.995785 1
gene 1 4 23 1.3201 0 27 1.3201 1
gene 1 4 25 -2.76518 0 29 -2.76518 1
gene 1 4 26 3.82186 0 30 3.82186 1
gene 1 4 28 0.67676 0 32 0.67676 1
gene 1 5 21 -5.8663 0 33 -5.8663 1
gene 1 5 22 5.4368 0 34 5.4368 1
gene 1 5 25 0.765267 0 37 0.765267 1
gene 1 5 26 1.46526 0 38 1.46526 1
gene 1 6 22 0.613793 0 42 0.613793 1
gene 1 6 23 -0.642127 0 43 -0.642127 1
gene 1 6 25 0.734446 0 45 0.734446 1
gene 1 6 26 1.11613 0 46 1.11613 1
gene 1 6 28 -1.6534 0 48 -1.6534 1
gene 1 7 21 0.573726 0 49 0.573726 1
gene 1 7 22 -2.4884 0 50 -2.4884 1
gene 1 7 23 -2.88922 0 51 -2.88922 1
gene 1 7 26 7.81136 0 54 7.81136 1
gene 1 7 28 -0.146961 0 56 -0.146961 1
gene 1 8 21 1.64992 0 57 1.64992 1
gene 1 8 22 4.56986 0 58 4.56986 1
gene 1 8 23 -2.56907 0 59 -2.56907 1
gene 1 8 25 2.34565 0 61 2.34565 1
gene 1 8 28 0.134763 0 64 0.134763 1
gene 1 9 21 4.31457 0 65 4.31457 1
gene 1 9 22 4.1764 0 66 4.1764 1
gene 1 9 23 2.82523 0 67 2.82523 1
gene 1 9 25 -5.86928 0 69 -5.86928 1
gene 1 9 26 2.51013 0 70 2.51013 1
gene 1 21 10 -6.86236 0 73 -6.86236 1
gene 1 21 11 0.466253 0 74 0.466253 1
gene 1 21 12 -5.26415 0 75 -5.26415 1
gene 1 21 13 3.49979 0 76 3.49979 1
gene 1 21 14 1.56658 0 77 1.56658 1
gene 1 21 15 2.15085 0 78 2.15085 1
gene 1 21 16 1.84878 0 79 1.84878 1
gene 1 21 17 -0.817896 0 80 -0.817896 1
gene 1 21 18 -4.42082 0 81 -4.42082 1
gene 1 21 19 -5.0432 0 82 -5.0432 1
gene 1 21 20 -0.761361 0 83 -0.761361 1
gene 1 22 10 1.43585 0 84 1.43585 1
gene 1 22 11 -0.911919 0 85 -0.911919 1
gene 1 22 12 2.07909 0 86 2.07909 1
gene 1 22 13 -1.89745 0 87 -1.89745 1
gene 1 22 14 -1.25095 0 88 -1.25095 1
gene 1 22 16 -3.98182 0 90 -3.98182 1
gene 1 22 17 1.66497 0 91 1.66497 1
gene 1 22 18 -0.334058 0 92 -0.334058 1
gene 1 22 19 -0.295693 0 93 -0.295693 1
gene 1 22 20 0.913328 0 94 0.913328 1
gene 1 23 10 -0.428632 0 95 -0.428632 1
gene 1 23 11 6.70607 0 96 6.70607 1
gene 1 23 12 -1.09199 0 97 -1.09199 1
gene 1 23 13 -1.91823 0 98 -1.91823 1
gene 1 23 14 -3.10265 0 99 -3.10265 1
gene 1 23 15 1.67031 0 100 1.67031 1
gene 1 23 16 1.28595 0 101 1.28595 1
gene 1 23 17 2.45426 0 102 2.45426 1
gene 1 23 19 0.0388381 0 104 0.0388381 1
gene 1 23 20 1.48052 0 105 1.48052 1
gene 1 25 10 0.532894 0 117 0.532894 1
gene 1 25 12 2.08443 0 119 2.08443 1
gene 1 25 13 3.39347 0 120 3.39347 1
gene 1 25 14 0.352438 0 121 0.352438 1
gene 1 25 15 -1.45916 0 122 -1.45916 1
gene 1 25 16 0.310658 0 123 0.310658 1
gene 1 25 17 -0.170965 0 124 -0.170965 1
gene 1 25 18 -1.71585 0 125 -1.71585 1
gene 1 25 19 -1.506 0 126 -1.506 1
gene 1 25 20 1.46284 0 127 1.46284 1
gene 1 26 10 -0.803789 0 128 -0.803789 1
gene 1 26 12 0.914905 0 130 0.914905 1
gene 1 26 13 -5.27185 0 131 -5.27185 1
gene 1 26 14 3.50652 0 132 3.50652 1
gene 1 26 15 5.43608 0 133 5.43608 1
gene 1 26 16 2.33042 0 134 2.33042 1
gene 1 26 17 1.94469 0 135 1.94469 1
gene 1 26 18 2.02038 0 136 2.02038 1
gene 1 26 19 0.966388 0 137 0.966388 1
gene 1 26 20 -1.40598 0 138 -1.40598 1
gene 1 28 10 0.218018 0 150 0.218018 1
gene 1 28 11 -0.817635 0 151 -0.817635 1
gene 1 28 12 -2.24543 0 152 -2.24543 1
gene 1 28 13 -0.0454208 0 153 -0.0454208 1
gene 1 28 15 -0.534788 0 155 -0.534788 1
gene 1 28 16 -0.780572 0 156 -0.780572 1
gene 1 28 17 -1.6166 0 157 -1.6166 1
gene 1 28 18 -0.0791373 0 158 -0.0791373 1
gene 1 28 19 -1.60384 0 159 -1.60384 1
gene 1 28 20 0.244031 0 160 0.244031 1
gene 1 6 12 -4.20803 0 238 -4.20803 1
gene 1 5 12 5.21872 0 328 5.21872 1
gene 1 7 40 -0.341429 0 534 -0.341429 1
gene 1 40 25 -3.57298 0 535 -3.57298 1
gene 1 12 26 -0.63615 1 752 -0.63615 1
gene 1 4 14 1.1931 0 886 1.1931 1
gene 1 14 14 0.104071 1 1852 0.104071 1
gene 1 5 17 0.669662 0 2285 0.669662 1
gene 1 13 17 0.215558 0 2557 0.215558 1
gene 1 22 28 0.669976 0 2963 0.669976 1
gene 1 6 13 0.344292 0 3066 0.344292 1
gene 1 2 20 2.18113 0 3175 2.18113 1
gene 1 12 12 -1.12585 1 3596 -1.12585 1
gene 1 2 154 -1.19515 0 3912 -1.19515 1
gene 1 154 21 0.243848 0 3913 0.243848 1
gene 1 40 19 0.0524997 0 4115 0.0524997 1
gene 1 17 11 -0.508522 0 4223 -0.508522 1
gene 1 5 13 -1.35158 0 4688 -1.35158 1
gene 1 28 23 -1.00962 0 4779 -1.00962 1
gene 1 15 16 -0.00765276 0 4906 -0.00765276 1
gene 1 40 22 -0.747336 0 5221 -0.747336 1
genomeend 232
