/* Organism #349 Fitness: 1.024 Error: 0.976 */
genomestart 349
trait 1 0 0.3652 0.552703 0.280282 0.944231 0.419686 0.842876 0.467778 
node 1 1 0
node 2 1 1
node 3 1 1
node 4 1 1
node 5 1 1
node 6 1 1
node 7 1 1
node 8 1 1
node 9 1 1
node 10 1 2
node 11 1 2
node 12 1 2
node 13 1 2
node 14 1 2
node 15 1 2
node 16 1 2
node 17 1 2
node 18 1 2
node 19 1 2
node 20 1 2
node 21 1 3
node 23 1 3
node 24 1 3
node 66 1 3
node 269 1 3
node 715 1 3
gene 1 1 21 2.63338 0 1 2.63338 1
gene 1 1 23 -1.91544 0 3 -1.91544 1
gene 1 1 24 -1.23075 0 4 -1.23075 1
gene 1 2 21 -0.315242 0 9 -0.315242 1
gene 1 2 23 -6.38311 0 11 -6.38311 1
gene 1 2 24 6.43977 0 12 6.43977 1
gene 1 3 21 2.33849 0 17 2.33849 1
gene 1 3 23 -4.7865 0 19 -4.7865 1
gene 1 3 24 -0.231213 0 20 -0.231213 1
gene 1 4 21 2.49893 0 25 2.49893 1
gene 1 4 23 0.308674 0 27 0.308674 1
gene 1 5 21 -2.52248 0 33 -2.52248 1
gene 1 5 23 -7.90325 0 35 -7.90325 1
gene 1 6 21 -3.20828 0 41 -3.20828 1
gene 1 6 23 3.31319 0 43 3.31319 1
gene 1 6 24 7.53453 0 44 7.53453 1
gene 1 7 21 -1.62276 0 49 -1.62276 1
gene 1 7 24 2.87744 0 52 2.87744 1
gene 1 8 23 0.563189 0 59 0.563189 1
gene 1 8 24 -0.361656 0 60 -0.361656 1
gene 1 9 21 -1.06668 0 65 -1.06668 1
gene 1 9 23 1.64843 0 67 1.64843 1
gene 1 9 24 5.01081 0 68 5.01081 1
gene 1 21 10 1.48989 0 73 1.48989 1
gene 1 21 11 -1.50944 0 74 -1.50944 1
gene 1 21 12 -1.32107 0 75 -1.32107 1
gene 1 21 13 -0.960727 0 76 -0.960727 1
gene 1 21 14 -1.50357 0 77 -1.50357 1
gene 1 21 17 -0.999036 0 80 -0.999036 1
gene 1 21 18 1.27402 0 81 1.27402 1
gene 1 21 20 -1.38404 0 83 -1.38404 1
gene 1 23 10 -2.0647 0 95 -2.0647 1
gene 1 23 11 0.649024 0 96 0.649024 1
gene 1 23 12 1.84097 0 97 1.84097 1
gene 1 23 13 -0.407507 0 98 -0.407507 1
gene 1 23 14 0.130667 0 99 0.130667 1
gene 1 23 15 -1.31369 0 100 -1.31369 1
gene 1 23 16 -1.34655 0 101 -1.34655 1
gene 1 23 17 -0.294834 0 102 -0.294834 1
gene 1 23 18 -3.53494 0 103 -3.53494 1
gene 1 23 20 -4.19989 0 105 -4.19989 1
gene 1 24 10 0.935863 0 106 0.935863 1
gene 1 24 11 -1.06695 0 107 -1.06695 1
gene 1 24 12 4.41726 0 108 4.41726 1
gene 1 24 13 -7.38586 0 109 -7.38586 1
gene 1 24 14 0.115816 0 110 0.115816 1
gene 1 24 17 2.44378 0 113 2.44378 1
gene 1 24 19 7.19344 0 115 7.19344 1
gene 1 24 20 -1.00678 0 116 -1.00678 1
gene 1 21 23 2.27259 0 458 2.27259 1
gene 1 24 66 7.94081 0 1047 7.94081 1
gene 1 66 18 3.37063 0 1048 3.37063 1
gene 1 14 10 1.51155 0 1186 1.51155 1
gene 1 66 13 0.134365 0 1357 0.134365 1
gene 1 13 13 2.10572 1 1539 2.10572 1
gene 1 23 23 -5.97166 1 2153 -5.97166 1
gene 1 7 13 -3.45389 0 2672 -3.45389 1
gene 1 7 10 -0.816988 0 2792 -0.816988 1
gene 1 5 17 -3.73559 0 3001 -3.73559 1
gene 1 6 12 0.223624 0 4226 0.223624 1
gene 1 9 19 0.464683 0 5196 0.464683 1
gene 1 24 24 -3.7344 1 5365 -3.7344 1
gene 1 10 20 -6.18002 0 5508 -6.18002 1
gene 1 7 269 -0.0101641 0 5977 -0.0101641 1
gene 1 269 23 -0.219553 0 5978 -0.219553 1
gene 1 17 18 1.42073 0 6175 1.42073 1
gene 1 14 20 1.32934 0 6524 1.32934 1
gene 1 13 12 1.06307 0 7173 1.06307 1
gene 1 10 12 1.33804 0 7298 1.33804 1
gene 1 9 14 -1.39491 0 7834 -1.39491 1
gene 1 15 12 0.445219 0 8245 0.445219 1
gene 1 8 269 0.397599 0 9332 0.397599 1
gene 1 2 66 1.75529 0 9602 1.75529 1
gene 1 14 17 -0.179943 0 9906 -0.179943 1
gene 1 2 16 -0.978268 0 10049 -0.978268 1
gene 1 1 269 -1.55978 0 10190 -1.55978 1
gene 1 11 24 0.717008 1 10523 0.717008 1
gene 1 269 14 1.15033 0 10658 1.15033 1
gene 1 18 12 0.696219 0 10949 0.696219 1
gene 1 23 19 -0.748155 0 11363 -0.748155 1
gene 1 20 11 1.3361 0 11895 1.3361 1
gene 1 13 19 1.3543 0 12021 1.3543 1
gene 1 3 269 2.18793 0 12680 2.18793 1
gene 1 66 66 0.744102 1 13082 0.744102 1
gene 1 9 15 1.10501 0 13497 1.10501 1
gene 1 17 17 1.63666 1 13975 1.63666 1
gene 1 14 66 -1.26654 0 14131 -1.26654 1
gene 1 3 66 -1.3803 0 14926 -1.3803 1
gene 1 66 14 -0.83589 1 15062 -0.83589 1
gene 1 1 19 -0.740624 0 15191 -0.740624 1
gene 1 13 10 0.458062 0 15762 0.458062 1
gene 1 9 16 3.18856 0 15799 3.18856 1
gene 1 16 20 2.2452 0 16223 2.2452 1
gene 1 1 14 0.910471 0 16369 0.910471 1
gene 1 15 19 -1.18007 0 17152 -1.18007 1
gene 1 2 15 1.09523 0 17289 1.09523 1
gene 1 15 715 2.2 0 17410 2.2 1
gene 1 715 17 0.21952 0 17411 0.21952 1
gene 1 6 10 0.0461793 0 18018 0.0461793 1
gene 1 2 10 -0.612353 0 18273 -0.612353 1
genomeend 349
