/* Organism #508 Fitness: 1.006 Error: 0.994 */
genomestart 508
trait 1 0.0974489 0.186676 0.0562383 0.108393 0.960002 0.164974 0.698119 0.49092 
node 1 1 0
node 2 1 1
node 3 1 1
node 4 1 1
node 5 1 1
node 6 1 1
node 7 1 1
node 8 1 1
node 9 1 1
node 10 1 2
node 11 1 2
node 12 1 2
node 13 1 2
node 14 1 2
node 15 1 2
node 16 1 2
node 17 1 2
node 18 1 2
node 19 1 2
node 20 1 2
node 21 1 3
node 22 1 3
node 23 1 3
node 25 1 3
node 26 1 3
node 27 1 3
node 58 1 3
node 64 1 3
gene 1 1 21 -1.44741 0 1 -1.44741 1
gene 1 1 22 2.04276 0 2 2.04276 1
gene 1 1 23 -4.71155 0 3 -4.71155 1
gene 1 1 25 2.55358 0 5 2.55358 1
gene 1 1 27 1.08662 0 7 1.08662 1
gene 1 2 21 -0.508982 0 9 -0.508982 1
gene 1 2 22 -1.6567 0 10 -1.6567 1
gene 1 2 23 -7.70285 0 11 -7.70285 1
gene 1 2 25 0.356676 0 13 0.356676 1
gene 1 2 26 -2.04069 0 14 -2.04069 1
gene 1 2 27 1.72702 0 15 1.72702 1
gene 1 3 21 -0.658118 0 17 -0.658118 1
gene 1 3 22 -0.643019 0 18 -0.643019 1
gene 1 3 23 0.0971937 0 19 0.0971937 1
gene 1 3 25 -0.363208 0 21 -0.363208 1
gene 1 3 26 -4.76739 0 22 -4.76739 1
gene 1 3 27 1.91895 0 23 1.91895 1
gene 1 4 21 -6.29442 0 25 -6.29442 1
gene 1 4 22 0.569646 0 26 0.569646 1
gene 1 4 23 0.0328029 0 27 0.0328029 1
gene 1 4 25 1.10831 0 29 1.10831 1
gene 1 4 26 -2.03584 0 30 -2.03584 1
gene 1 4 27 6.12526 0 31 6.12526 1
gene 1 5 21 -1.09915 0 33 -1.09915 1
gene 1 5 22 -6.35781 0 34 -6.35781 1
gene 1 5 23 -3.44151 0 35 -3.44151 1
gene 1 5 25 -0.97281 0 37 -0.97281 1
gene 1 5 26 0.791739 0 38 0.791739 1
gene 1 5 27 -1.24947 0 39 -1.24947 1
gene 1 6 21 0.277608 0 41 0.277608 1
gene 1 6 23 3.89034 0 43 3.89034 1
gene 1 6 25 0.424322 0 45 0.424322 1
gene 1 6 26 -2.09768 0 46 -2.09768 1
gene 1 6 27 -2.07301 0 47 -2.07301 1
gene 1 7 21 1.58166 0 49 1.58166 1
gene 1 7 22 -1.94505 0 50 -1.94505 1
gene 1 7 23 2.90681 0 51 2.90681 1
gene 1 7 25 -3.40742 0 53 -3.40742 1
gene 1 7 26 1.60755 0 54 1.60755 1
gene 1 7 27 4.32934 0 55 4.32934 1
gene 1 8 21 0.337179 0 57 0.337179 1
gene 1 8 22 -3.00368 0 58 -3.00368 1
gene 1 8 23 0.164785 0 59 0.164785 1
gene 1 8 25 -0.730286 0 61 -0.730286 1
gene 1 8 26 -1.06296 0 62 -1.06296 1
gene 1 8 27 -3.20555 0 63 -3.20555 1
gene 1 9 21 -2.65358 0 65 -2.65358 1
gene 1 9 22 2.11485 0 66 2.11485 1
gene 1 9 23 -2.32139 0 67 -2.32139 1
gene 1 9 25 1.31875 0 69 1.31875 1
gene 1 9 26 -2.87838 0 70 -2.87838 1
gene 1 9 27 -0.210742 0 71 -0.210742 1
gene 1 21 10 0.310225 0 73 0.310225 1
gene 1 21 11 1.5141 0 74 1.5141 1
gene 1 21 12 0.513488 0 75 0.513488 1
gene 1 21 13 1.78266 0 76 1.78266 1
gene 1 21 14 -0.89802 0 77 -0.89802 1
gene 1 21 15 3.95041 0 78 3.95041 1
gene 1 21 16 0.870104 0 79 0.870104 1
gene 1 21 17 0.135485 0 80 0.135485 1
gene 1 21 18 4.2284 0 81 4.2284 1
gene 1 21 19 2.01691 0 82 2.01691 1
gene 1 21 20 -0.0436721 0 83 -0.0436721 1
gene 1 22 10 -8 0 84 -8 1
gene 1 22 11 -3.37684 0 85 -3.37684 1
gene 1 22 12 0.920819 0 86 0.920819 1
gene 1 22 13 -2.36363 0 87 -2.36363 1
gene 1 22 14 -3.66409 0 88 -3.66409 1
gene 1 22 15 -1.95135 0 89 -1.95135 1
gene 1 22 16 -1.94315 0 90 -1.94315 1
gene 1 22 17 6.58319 0 91 6.58319 1
gene 1 22 18 -0.783298 0 92 -0.783298 1
gene 1 22 19 0.635677 0 93 0.635677 1
gene 1 22 20 -2.39581 0 94 -2.39581 1
gene 1 23 10 -0.654496 0 95 -0.654496 1
gene 1 23 11 1.10316 0 96 1.10316 1
gene 1 23 12 -4.38397 0 97 -4.38397 1
gene 1 23 14 0.225945 0 99 0.225945 1
gene 1 23 15 0.857281 0 100 0.857281 1
gene 1 23 16 -4.41174 0 101 -4.41174 1
gene 1 23 17 -1.14829 0 102 -1.14829 1
gene 1 23 18 -6.25151 0 103 -6.25151 1
gene 1 23 19 3.98813 0 104 3.98813 1
gene 1 23 20 -0.959694 0 105 -0.959694 1
gene 1 25 10 -2.27625 0 117 -2.27625 1
gene 1 25 11 3.48874 0 118 3.48874 1
gene 1 25 12 -2.50665 0 119 -2.50665 1
gene 1 25 13 0.0724497 0 120 0.0724497 1
gene 1 25 14 -8 0 121 -8 1
gene 1 25 15 3.08762 0 122 3.08762 1
gene 1 25 16 -1.7562 0 123 -1.7562 1
gene 1 25 17 -0.183112 0 124 -0.183112 1
gene 1 25 19 -1.31636 0 126 -1.31636 1
gene 1 25 20 2.13489 0 127 2.13489 1
gene 1 26 10 -2.57769 0 128 -2.57769 1
gene 1 26 11 -1.45615 0 129 -1.45615 1
gene 1 26 12 -1.58591 0 130 -1.58591 1
gene 1 26 13 -0.6178 0 131 -0.6178 1
gene 1 26 14 0.632648 0 132 0.632648 1
gene 1 26 15 0.930767 0 133 0.930767 1
gene 1 26 16 -0.444596 0 134 -0.444596 1
gene 1 26 18 -1.24227 0 136 -1.24227 1
gene 1 26 19 1.34396 0 137 1.34396 1
gene 1 26 20 -0.150539 0 138 -0.150539 1
gene 1 27 10 -0.68671 0 139 -0.68671 1
gene 1 27 11 0.00387618 0 140 0.00387618 1
gene 1 27 12 0.914569 0 141 0.914569 1
gene 1 27 13 -2.78886 0 142 -2.78886 1
gene 1 27 15 -2.20282 0 144 -2.20282 1
gene 1 27 16 -1.59421 0 145 -1.59421 1
gene 1 27 17 1.07238 0 146 1.07238 1
gene 1 27 18 -0.692213 0 147 -0.692213 1
gene 1 27 19 0.48277 0 148 0.48277 1
gene 1 27 20 -1.38289 0 149 -1.38289 1
gene 1 14 18 -1.30606 0 318 -1.30606 1
gene 1 8 19 -0.868785 0 472 -0.868785 1
gene 1 27 26 0.0734637 0 578 0.0734637 1
gene 1 7 18 -3.58581 0 949 -3.58581 1
gene 1 25 58 0.913387 0 1220 0.913387 1
gene 1 58 18 -0.98527 0 1221 -0.98527 1
gene 1 26 64 -2.65726 0 1341 -2.65726 1
gene 1 64 17 0.0436887 0 1342 0.0436887 1
gene 1 64 64 1.58249 1 1520 1.58249 1
gene 1 21 21 -1.82436 1 1598 -1.82436 1
gene 1 16 16 -1.88825 1 2341 -1.88825 1
gene 1 26 21 -2.76124 0 2466 -2.76124 1
gene 1 18 15 1.33163 0 2807 1.33163 1
gene 1 20 16 1.08566 0 2917 1.08566 1
gene 1 2 10 0.513565 0 3238 0.513565 1
gene 1 58 58 0.935855 1 3425 0.935855 1
gene 1 15 15 0.0728285 1 3566 0.0728285 1
gene 1 64 20 0.461201 0 3696 0.461201 1
gene 1 9 17 1.63807 0 4112 1.63807 1
gene 1 27 21 -1.90776 0 4200 -1.90776 1
gene 1 64 10 -0.164167 0 4635 -0.164167 1
genomeend 508
