/* Organism #208 Fitness: 1.009 Error: 0.991 */
genomestart 208
trait 1 0.477936 0.893496 0.108259 0.285274 0.865295 0.180748 0.298368 0 
node 1 1 0
node 2 1 1
node 3 1 1
node 4 1 1
node 5 1 1
node 6 1 1
node 7 1 1
node 8 1 1
node 9 1 1
node 10 1 2
node 11 1 2
node 12 1 2
node 13 1 2
node 14 1 2
node 15 1 2
node 16 1 2
node 17 1 2
node 18 1 2
node 19 1 2
node 20 1 2
node 21 1 3
node 22 1 3
node 23 1 3
node 24 1 3
node 25 1 3
node 27 1 3
node 28 1 3
node 78 1 3
gene 1 1 21 1.22413 0 1 1.22413 1
gene 1 1 22 3.87007 0 2 3.87007 1
gene 1 1 23 2.33958 0 3 2.33958 1
gene 1 1 24 -1.99631 0 4 -1.99631 1
gene 1 1 25 0.215491 0 5 0.215491 1
gene 1 1 27 -2.27944 0 7 -2.27944 1
gene 1 1 28 5.29301 0 8 5.29301 1
gene 1 2 21 4.94502 0 9 4.94502 1
gene 1 2 22 1.68326 0 10 1.68326 1
gene 1 2 23 -2.65188 0 11 -2.65188 1
gene 1 2 24 0.0737772 0 12 0.0737772 1
gene 1 2 25 -3.55412 0 13 -3.55412 1
gene 1 2 27 8 0 15 8 1
gene 1 2 28 -1.074 0 16 -1.074 1
gene 1 3 21 3.16796 0 17 3.16796 1
gene 1 3 22 0.0868322 0 18 0.0868322 1
gene 1 3 23 0.703894 0 19 0.703894 1
gene 1 3 25 2.07759 0 21 2.07759 1
gene 1 3 27 -2.54864 0 23 -2.54864 1
gene 1 3 28 -0.0428654 0 24 -0.0428654 1
gene 1 4 21 -3.73171 0 25 -3.73171 1
gene 1 4 22 -1.21841 0 26 -1.21841 1
gene 1 4 23 1.28116 0 27 1.28116 1
gene 1 4 24 1.70926 0 28 1.70926 1
gene 1 4 25 -0.622384 0 29 -0.622384 1
gene 1 4 28 -4.02602 0 32 -4.02602 1
gene 1 5 22 1.64005 0 34 1.64005 1
gene 1 5 23 -1.59765 0 35 -1.59765 1
gene 1 5 25 -2.40879 0 37 -2.40879 1
gene 1 5 27 -1.96842 0 39 -1.96842 1
gene 1 5 28 -1.93401 0 40 -1.93401 1
gene 1 6 21 -0.470306 0 41 -0.470306 1
gene 1 6 22 0.121683 0 42 0.121683 1
gene 1 6 23 -2.2467 0 43 -2.2467 1
gene 1 6 24 0.714012 0 44 0.714012 1
gene 1 6 25 -0.426568 0 45 -0.426568 1
gene 1 6 27 0.995773 0 47 0.995773 1
gene 1 6 28 -0.448724 0 48 -0.448724 1
gene 1 7 21 1.07366 0 49 1.07366 1
gene 1 7 22 -0.446028 0 50 -0.446028 1
gene 1 7 23 0.518216 0 51 0.518216 1
gene 1 7 24 2.90158 0 52 2.90158 1
gene 1 7 25 -2.85494 0 53 -2.85494 1
gene 1 7 27 -4.70115 0 55 -4.70115 1
gene 1 7 28 2.63066 0 56 2.63066 1
gene 1 8 21 -3.79508 0 57 -3.79508 1
gene 1 8 22 -3.56268 0 58 -3.56268 1
gene 1 8 23 -0.291706 0 59 -0.291706 1
gene 1 8 24 -0.604466 0 60 -0.604466 1
gene 1 8 25 -1.03057 0 61 -1.03057 1
gene 1 8 27 -0.32132 0 63 -0.32132 1
gene 1 8 28 -0.354116 0 64 -0.354116 1
gene 1 9 21 3.98733 0 65 3.98733 1
gene 1 9 22 -2.05014 0 66 -2.05014 1
gene 1 9 23 1.37368 0 67 1.37368 1
gene 1 9 25 2.41747 0 69 2.41747 1
gene 1 9 27 -2.14027 0 71 -2.14027 1
gene 1 9 28 -0.515818 0 72 -0.515818 1
gene 1 21 10 -5.15215 0 73 -5.15215 1
gene 1 21 11 -0.843623 0 74 -0.843623 1
gene 1 21 12 5.3686 0 75 5.3686 1
gene 1 21 13 -1.02517 0 76 -1.02517 1
gene 1 21 14 -0.56717 0 77 -0.56717 1
gene 1 21 15 -4.41643 0 78 -4.41643 1
gene 1 21 16 -3.81131 0 79 -3.81131 1
gene 1 21 17 -1.07908 0 80 -1.07908 1
gene 1 21 18 -3.2525 0 81 -3.2525 1
gene 1 21 19 -0.504577 0 82 -0.504577 1
gene 1 21 20 2.19591 0 83 2.19591 1
gene 1 22 10 2.30014 0 84 2.30014 1
gene 1 22 11 -1.73382 0 85 -1.73382 1
gene 1 22 12 2.72341 0 86 2.72341 1
gene 1 22 13 -1.41065 0 87 -1.41065 1
gene 1 22 14 1.24204 0 88 1.24204 1
gene 1 22 15 -2.63985 0 89 -2.63985 1
gene 1 22 16 -3.41076 0 90 -3.41076 1
gene 1 22 17 1.02869 0 91 1.02869 1
gene 1 22 18 1.09095 0 92 1.09095 1
gene 1 22 19 -0.324195 0 93 -0.324195 1
gene 1 22 20 -0.535223 0 94 -0.535223 1
gene 1 23 10 -6.01393 0 95 -6.01393 1
gene 1 23 11 1.47608 0 96 1.47608 1
gene 1 23 12 0.133818 0 97 0.133818 1
gene 1 23 13 -2.08348 0 98 -2.08348 1
gene 1 23 14 -2.97958 0 99 -2.97958 1
gene 1 23 15 -1.80309 0 100 -1.80309 1
gene 1 23 16 -0.901635 0 101 -0.901635 1
gene 1 23 17 -1.59891 0 102 -1.59891 1
gene 1 23 18 -0.612639 0 103 -0.612639 1
gene 1 23 19 2.18379 0 104 2.18379 1
gene 1 23 20 -3.57278 0 105 -3.57278 1
gene 1 24 10 2.11279 0 106 2.11279 1
gene 1 24 11 -0.313392 0 107 -0.313392 1
gene 1 24 12 -0.528325 0 108 -0.528325 1
gene 1 24 13 -0.74628 0 109 -0.74628 1
gene 1 24 14 0.907933 0 110 0.907933 1
gene 1 24 15 -2.47643 0 111 -2.47643 1
gene 1 24 16 0.599738 0 112 0.599738 1
gene 1 24 17 -3.36312 0 113 -3.36312 1
gene 1 24 18 -1.33577 0 114 -1.33577 1
gene 1 24 19 -0.271176 0 115 -0.271176 1
gene 1 24 20 6.27215 0 116 6.27215 1
gene 1 25 10 -4.11615 0 117 -4.11615 1
gene 1 25 11 -1.38109 0 118 -1.38109 1
gene 1 25 12 -3.62357 0 119 -3.62357 1
gene 1 25 13 0.114534 0 120 0.114534 1
gene 1 25 14 1.41563 0 121 1.41563 1
gene 1 25 15 1.647 0 122 1.647 1
gene 1 25 16 1.16264 0 123 1.16264 1
gene 1 25 17 1.35497 0 124 1.35497 1
gene 1 25 18 0.401974 0 125 0.401974 1
gene 1 25 19 -0.186855 0 126 -0.186855 1
gene 1 25 20 -2.29788 0 127 -2.29788 1
gene 1 27 10 1.9474 0 139 1.9474 1
gene 1 27 12 -2.4593 0 141 -2.4593 1
gene 1 27 13 -2.49376 0 142 -2.49376 1
gene 1 27 14 -1.3814 0 143 -1.3814 1
gene 1 27 15 1.60869 0 144 1.60869 1
gene 1 27 16 -1.66999 0 145 -1.66999 1
gene 1 27 17 2.4473 0 146 2.4473 1
gene 1 27 18 1.16317 0 147 1.16317 1
gene 1 27 19 -3.17345 0 148 -3.17345 1
gene 1 27 20 -0.922001 0 149 -0.922001 1
gene 1 28 10 1.68582 0 150 1.68582 1
gene 1 28 11 1.65783 0 151 1.65783 1
gene 1 28 12 -2.0847 0 152 -2.0847 1
gene 1 28 13 -0.336235 0 153 -0.336235 1
gene 1 28 14 -0.499318 0 154 -0.499318 1
gene 1 28 16 -2.49775 0 156 -2.49775 1
gene 1 28 17 2.63181 0 157 2.63181 1
gene 1 28 18 2.55025 0 158 2.55025 1
gene 1 28 19 3.74886 0 159 3.74886 1
gene 1 28 20 1.00698 0 160 1.00698 1
gene 1 3 10 -0.123453 0 589 -0.123453 1
gene 1 11 25 1.51213 1 785 1.51213 1
gene 1 10 18 0.562489 0 871 0.562489 1
gene 1 3 18 -0.0780536 0 979 -0.0780536 1
gene 1 6 19 -1.14348 0 1268 -1.14348 1
gene 1 4 78 -4.40397 0 1370 -4.40397 1
gene 1 78 27 -1.25377 0 1371 -1.25377 1
gene 1 15 27 1.52577 1 1596 1.52577 1
gene 1 28 27 3.00825 0 1814 3.00825 1
gene 1 22 23 0.918112 0 2729 0.918112 1
gene 1 2 15 -0.779999 0 3040 -0.779999 1
gene 1 11 13 0.70272 0 3341 0.70272 1
gene 1 25 24 2.86209 0 3435 2.86209 1
gene 1 22 27 -0.453695 0 3517 -0.453695 1
gene 1 78 28 -0.721456 0 3658 -0.721456 1
gene 1 12 12 -0.663269 1 3720 -0.663269 1
gene 1 20 10 -1.06882 0 3848 -1.06882 1
gene 1 19 12 -1.64613 0 4082 -1.64613 1
gene 1 20 13 1.57348 0 4253 1.57348 1
genomeend 208
