/* Organism #19 Fitness: 1.008 Error: 0.992 */
genomestart 19
trait 1 0.210903 0.915895 0.201493 0.356156 0.557976 0.37264 0.593222 0.659007 
node 1 1 0
node 2 1 1
node 3 1 1
node 4 1 1
node 5 1 1
node 6 1 1
node 7 1 1
node 8 1 1
node 9 1 1
node 10 1 2
node 11 1 2
node 12 1 2
node 13 1 2
node 14 1 2
node 15 1 2
node 16 1 2
node 17 1 2
node 18 1 2
node 19 1 2
node 20 1 2
node 21 1 3
node 23 1 3
node 25 1 3
node 26 1 3
node 27 1 3
gene 1 1 23 0.333322 0 3 0.333322 1
gene 1 1 25 1.17212 0 5 1.17212 1
gene 1 1 26 -1.8929 0 6 -1.8929 1
gene 1 1 27 -0.874691 0 7 -0.874691 1
gene 1 2 21 -0.640375 0 9 -0.640375 1
gene 1 2 23 1.33443 0 11 1.33443 1
gene 1 2 25 -2.56858 0 13 -2.56858 1
gene 1 2 26 0.224624 0 14 0.224624 1
gene 1 2 27 1.17362 0 15 1.17362 1
gene 1 3 21 -4.19732 0 17 -4.19732 1
gene 1 3 23 -0.626327 0 19 -0.626327 1
gene 1 3 25 -1.6054 0 21 -1.6054 1
gene 1 3 26 -1.59882 0 22 -1.59882 1
gene 1 3 27 -1.13663 0 23 -1.13663 1
gene 1 4 21 1.62621 0 25 1.62621 1
gene 1 4 23 -1.72887 0 27 -1.72887 1
gene 1 4 25 0.796148 0 29 0.796148 1
gene 1 4 27 -2.82691 0 31 -2.82691 1
gene 1 5 21 -2.40028 0 33 -2.40028 1
gene 1 5 23 0.483405 0 35 0.483405 1
gene 1 5 26 0.260465 0 38 0.260465 1
gene 1 5 27 5.35971 0 39 5.35971 1
gene 1 6 21 -1.02419 0 41 -1.02419 1
gene 1 6 25 3.28937 0 45 3.28937 1
gene 1 6 26 0.330713 0 46 0.330713 1
gene 1 7 21 -1.78097 0 49 -1.78097 1
gene 1 7 23 0.486446 0 51 0.486446 1
gene 1 7 25 -0.833233 0 53 -0.833233 1
gene 1 7 26 -1.07229 0 54 -1.07229 1
gene 1 7 27 -0.41348 0 55 -0.41348 1
gene 1 8 21 0.654763 0 57 0.654763 1
gene 1 8 23 4.47199 0 59 4.47199 1
gene 1 8 25 0.105098 0 61 0.105098 1
gene 1 8 26 -1.17489 0 62 -1.17489 1
gene 1 8 27 -0.741589 0 63 -0.741589 1
gene 1 9 21 -0.191219 0 65 -0.191219 1
gene 1 9 23 4.3858 0 67 4.3858 1
gene 1 9 25 0.738699 0 69 0.738699 1
gene 1 9 26 -2.25238 0 70 -2.25238 1
gene 1 9 27 0.411991 0 71 0.411991 1
gene 1 21 10 0.727693 0 73 0.727693 1
gene 1 21 11 -2.23052 0 74 -2.23052 1
gene 1 21 12 2.18604 0 75 2.18604 1
gene 1 21 13 1.39925 0 76 1.39925 1
gene 1 21 14 -1.68511 0 77 -1.68511 1
gene 1 21 15 -1.05169 0 78 -1.05169 1
gene 1 21 16 -2.95669 0 79 -2.95669 1
gene 1 21 17 -0.380264 0 80 -0.380264 1
gene 1 21 18 0.705131 0 81 0.705131 1
gene 1 21 19 2.2677 0 82 2.2677 1
gene 1 21 20 3.21894 0 83 3.21894 1
gene 1 23 12 4.78421 0 97 4.78421 1
gene 1 23 14 -0.222399 0 99 -0.222399 1
gene 1 23 15 -3.13652 0 100 -3.13652 1
gene 1 23 16 1.79485 0 101 1.79485 1
gene 1 23 17 1.48651 0 102 1.48651 1
gene 1 23 18 -8 0 103 -8 1
gene 1 23 19 -0.961996 0 104 -0.961996 1
gene 1 23 20 -3.33262 0 105 -3.33262 1
gene 1 25 10 0.33119 0 117 0.33119 1
gene 1 25 11 -2.34314 0 118 -2.34314 1
gene 1 25 12 4.71053 0 119 4.71053 1
gene 1 25 13 -0.331177 0 120 -0.331177 1
gene 1 25 14 1.15195 0 121 1.15195 1
gene 1 25 15 -0.541588 0 122 -0.541588 1
gene 1 25 16 -6.64197 0 123 -6.64197 1
gene 1 25 17 -0.729248 0 124 -0.729248 1
gene 1 25 18 0.385394 0 125 0.385394 1
gene 1 25 19 1.74883 0 126 1.74883 1
gene 1 26 10 -0.746848 0 128 -0.746848 1
gene 1 26 11 -1.45202 0 129 -1.45202 1
gene 1 26 12 0.484804 0 130 0.484804 1
gene 1 26 13 2.33459 0 131 2.33459 1
gene 1 26 14 -3.52379 0 132 -3.52379 1
gene 1 26 15 -1.29144 0 133 -1.29144 1
gene 1 26 16 -1.68951 0 134 -1.68951 1
gene 1 26 17 -2.26768 0 135 -2.26768 1
gene 1 26 18 2.97668 0 136 2.97668 1
gene 1 26 20 0.910953 0 138 0.910953 1
gene 1 27 10 3.78199 0 139 3.78199 1
gene 1 27 11 -1.64935 0 140 -1.64935 1
gene 1 27 12 -0.429602 0 141 -0.429602 1
gene 1 27 13 0.0835669 0 142 0.0835669 1
gene 1 27 14 -0.4257 0 143 -0.4257 1
gene 1 27 15 -4.77944 0 144 -4.77944 1
gene 1 27 16 2.62908 0 145 2.62908 1
gene 1 27 17 -3.30183 0 146 -3.30183 1
gene 1 27 18 3.19205 0 147 3.19205 1
gene 1 27 19 -1.49672 0 148 -1.49672 1
gene 1 27 20 1.15839 0 149 1.15839 1
gene 1 13 20 2.65975 0 987 2.65975 1
gene 1 4 12 -0.884782 0 1181 -0.884782 1
gene 1 14 14 -0.395723 1 1303 -0.395723 1
gene 1 6 14 -1.17168 0 1670 -1.17168 1
gene 1 13 17 -1.05806 0 2075 -1.05806 1
gene 1 8 10 -0.992176 0 2296 -0.992176 1
gene 1 8 17 -2.20024 0 2463 -2.20024 1
gene 1 14 18 0.337247 0 2717 0.337247 1
gene 1 7 10 0.237761 0 2891 0.237761 1
gene 1 4 16 -0.831679 0 3195 -0.831679 1
gene 1 18 19 1.011 0 3765 1.011 1
gene 1 12 12 1.42798 1 4919 1.42798 1
gene 1 17 13 -1.76694 1 5040 -1.76694 1
gene 1 11 19 1.10622 0 5110 1.10622 1
gene 1 18 18 0.977932 1 5263 0.977932 1
gene 1 23 13 -0.683043 0 5468 -0.683043 1
genomeend 19
