/* Organism #488 Fitness: 1.009 Error: 0.991 */
genomestart 488
trait 1 0.210903 0.887859 0.187897 0.356156 0.712757 0.306762 0.593222 0.738313 
node 1 1 0
node 2 1 1
node 3 1 1
node 4 1 1
node 5 1 1
node 6 1 1
node 7 1 1
node 8 1 1
node 9 1 1
node 10 1 2
node 11 1 2
node 12 1 2
node 13 1 2
node 14 1 2
node 15 1 2
node 16 1 2
node 17 1 2
node 18 1 2
node 19 1 2
node 20 1 2
node 21 1 3
node 23 1 3
node 26 1 3
node 27 1 3
gene 1 1 21 -4.85052 0 1 -4.85052 1
gene 1 1 23 0.726471 0 3 0.726471 1
gene 1 1 26 -0.174228 0 6 -0.174228 1
gene 1 1 27 1.1303 0 7 1.1303 1
gene 1 2 21 1.29047 0 9 1.29047 1
gene 1 2 23 0.290458 0 11 0.290458 1
gene 1 2 26 1.43153 0 14 1.43153 1
gene 1 2 27 0.430772 0 15 0.430772 1
gene 1 3 21 1.43164 0 17 1.43164 1
gene 1 3 23 3.72856 0 19 3.72856 1
gene 1 3 26 -4.43965 0 22 -4.43965 1
gene 1 3 27 5.81388 0 23 5.81388 1
gene 1 4 21 3.52211 0 25 3.52211 1
gene 1 4 23 0.223679 0 27 0.223679 1
gene 1 4 27 1.27655 0 31 1.27655 1
gene 1 5 21 0.115432 0 33 0.115432 1
gene 1 5 23 1.49864 0 35 1.49864 1
gene 1 5 26 1.48933 0 38 1.48933 1
gene 1 5 27 7.85844 0 39 7.85844 1
gene 1 6 21 -1.56878 0 41 -1.56878 1
gene 1 6 26 -1.78554 0 46 -1.78554 1
gene 1 7 21 -6.22905 0 49 -6.22905 1
gene 1 7 23 4.91823 0 51 4.91823 1
gene 1 7 27 -1.05005 0 55 -1.05005 1
gene 1 8 21 -1.68209 0 57 -1.68209 1
gene 1 8 23 1.22244 0 59 1.22244 1
gene 1 8 26 -1.96236 0 62 -1.96236 1
gene 1 8 27 2.43142 0 63 2.43142 1
gene 1 9 23 2.58587 0 67 2.58587 1
gene 1 9 26 4.20316 0 70 4.20316 1
gene 1 9 27 -5.85704 0 71 -5.85704 1
gene 1 21 10 -0.625935 0 73 -0.625935 1
gene 1 21 12 -1.68315 0 75 -1.68315 1
gene 1 21 13 -0.273334 0 76 -0.273334 1
gene 1 21 15 -3.21772 0 78 -3.21772 1
gene 1 21 16 -4.05218 0 79 -4.05218 1
gene 1 21 17 -3.46722 0 80 -3.46722 1
gene 1 21 18 0.0153578 0 81 0.0153578 1
gene 1 21 19 1.42984 0 82 1.42984 1
gene 1 21 20 0.0351716 0 83 0.0351716 1
gene 1 23 12 7.41275 0 97 7.41275 1
gene 1 23 13 0.237712 0 98 0.237712 1
gene 1 23 14 -2.21813 0 99 -2.21813 1
gene 1 23 15 1.9797 0 100 1.9797 1
gene 1 23 16 0.803576 0 101 0.803576 1
gene 1 23 17 -0.138584 0 102 -0.138584 1
gene 1 23 18 -4.20956 0 103 -4.20956 1
gene 1 23 19 0.0903231 0 104 0.0903231 1
gene 1 23 20 0.693907 0 105 0.693907 1
gene 1 26 10 -0.56617 0 128 -0.56617 1
gene 1 26 11 -3.81823 0 129 -3.81823 1
gene 1 26 12 -0.383802 0 130 -0.383802 1
gene 1 26 14 3.83949 0 132 3.83949 1
gene 1 26 15 -0.0346121 0 133 -0.0346121 1
gene 1 26 16 6.58683 0 134 6.58683 1
gene 1 26 17 0.277404 0 135 0.277404 1
gene 1 26 18 0.327146 0 136 0.327146 1
gene 1 26 20 0.76967 0 138 0.76967 1
gene 1 27 10 3.60336 0 139 3.60336 1
gene 1 27 11 1.28216 0 140 1.28216 1
gene 1 27 12 1.71902 0 141 1.71902 1
gene 1 27 13 0.640107 0 142 0.640107 1
gene 1 27 14 4.83653 0 143 4.83653 1
gene 1 27 15 -8 0 144 -8 1
gene 1 27 16 -1.62651 0 145 -1.62651 1
gene 1 27 17 -1.55643 0 146 -1.55643 1
gene 1 27 18 -1.95777 0 147 -1.95777 1
gene 1 27 19 -0.122802 0 148 -0.122802 1
gene 1 27 20 -0.394902 0 149 -0.394902 1
gene 1 13 20 1.93345 0 987 1.93345 1
gene 1 4 12 0.199003 0 1181 0.199003 1
gene 1 14 14 -1.22903 1 1303 -1.22903 1
gene 1 6 14 1.1516 0 1670 1.1516 1
gene 1 13 17 1.40624 0 2075 1.40624 1
gene 1 8 10 -0.75933 0 2296 -0.75933 1
gene 1 8 17 2.70998 0 2463 2.70998 1
gene 1 14 18 -2.9628 0 2717 -2.9628 1
gene 1 7 10 0.556779 0 2891 0.556779 1
gene 1 4 16 -1.66464 0 3195 -1.66464 1
gene 1 18 19 -1.01629 0 3765 -1.01629 1
gene 1 23 11 -0.551097 0 4904 -0.551097 1
gene 1 17 19 -0.509363 0 4953 -0.509363 1
gene 1 7 18 -1.56599 0 5840 -1.56599 1
gene 1 2 11 0.750754 0 6115 0.750754 1
genomeend 488
