/* Organism #139897153677496 Fitness: -10.0157 
genomestart 583
trait 1 0.643725 1 0.420683 0.520063 0 0.928379 1 0.366935 
node 1 1 0
node 2 1 1
node 3 1 1
node 4 1 1
node 5 1 1
node 6 1 1
node 7 1 1
node 8 1 1
node 9 1 1
node 10 1 1
node 11 1 1
node 12 1 2
node 13 1 2
node 14 1 2
node 15 1 2
node 16 1 2
node 18 1 3
node 315 1 3
node 1203 1 3
gene 1 9 18 1.25549 0 82 1.25549 1
gene 1 18 12 -0.330773 0 116 -0.330773 1
gene 1 18 13 0.876357 0 117 0.876357 1
gene 1 18 15 -1.52796 0 119 -1.52796 1
gene 1 18 16 -0.709273 0 120 -0.709273 1
gene 1 9 12 0.564307 0 357 0.564307 1
gene 1 15 14 -0.365868 0 5277 -0.365868 1
gene 1 5 315 1.83104 0 6544 1.82731 1
gene 1 7 15 -2.08522 0 7372 -2.08522 1
gene 1 14 14 1.49187 1 14905 1.49187 1
gene 1 16 15 -1.91754 0 17233 -1.91754 1
gene 1 15 15 -1.92715 1 18985 -1.92715 1
gene 1 4 16 -0.310087 0 21645 -0.310087 1
gene 1 1 13 1.07895 0 23110 1.07895 1
gene 1 6 1203 -2.20783 0 26301 -2.20783 1
gene 1 9 1203 1.21629 0 27564 1.21629 1
gene 1 315 1203 0.365889 0 28031 0.365889 1
gene 1 4 14 1.96971 0 28211 1.96971 1
gene 1 11 13 -0.46882 0 29760 -0.46882 1
gene 1 2 315 0.277143 0 30406 0.277143 1
gene 1 1203 1203 0.00985578 1 31370 0.00985578 1
gene 1 16 14 1.51784 0 32824 1.51784 1
gene 1 7 14 -0.537325 0 34359 -0.537325 1
gene 1 11 15 1.42099 0 36103 1.42099 1
gene 1 6 14 0.647155 0 37016 0.647155 1
gene 1 7 16 0.00288906 0 37687 0.00288906 1
gene 1 8 1203 -0.9932 0 38484 -0.9932 1
gene 1 10 18 -0.968824 0 39466 -0.968824 1
gene 1 13 13 -0.0741006 1 39728 -0.0741006 1
gene 1 2 16 -0.87938 0 40610 -0.87938 1
gene 1 1203 13 -0.310579 0 42522 -0.310579 1
gene 1 16 16 -2.26272 1 43128 -2.26272 1
gene 1 18 18 0.941946 1 43651 0.941946 1
gene 1 6 16 -1.45508 0 44144 -1.45508 1
gene 1 9 315 -0.0491131 0 44934 -0.0491131 1
gene 1 12 18 1.80733 1 45978 1.80733 1
gene 1 1 1203 0.047807 0 46616 0.047807 1
gene 1 3 12 -0.0327905 0 46887 -0.0327905 1
gene 1 315 16 -0.385838 0 48204 -0.385838 1
gene 1 1203 15 0.390819 0 49504 0.390819 1
gene 1 4 1203 0.176427 0 49592 0.176427 1
gene 1 13 18 0.114357 1 49876 0.114357 1
gene 1 3 16 1.00702 0 50632 1.00702 1
gene 1 4 13 -0.789334 0 51580 -0.789334 1
gene 1 13 1203 -1.06924 1 52185 -1.06924 1
gene 1 1 18 -0.205404 0 53435 -0.205404 1
gene 1 1203 16 -0.984735 0 53810 -0.984735 1
genomeend 583
