/* Organism #65030016 Fitness: -9.50861 
genomestart 88
trait 1 0.470477 0.890993 0.575003 0.184367 0.215536 0.0668426 0.467212 0.704722 
node 1 1 0
node 2 1 1
node 3 1 1
node 4 1 1
node 5 1 1
node 6 1 1
node 7 1 1
node 8 1 1
node 9 1 1
node 10 1 1
node 11 1 1
node 12 1 2
node 13 1 2
node 14 1 2
node 15 1 2
node 16 1 2
node 22 1 3
node 1926 1 3
node 2534 1 3
node 2579 1 3
node 2587 1 3
gene 1 1 22 -0.121055 0 6 -0.121055 1
gene 1 8 22 -0.558374 0 76 -0.558374 1
gene 1 11 22 0.946105 0 106 0.946105 1
gene 1 22 12 -0.572185 0 136 -0.572185 1
gene 1 22 14 -0.220983 0 138 -0.220983 1
gene 1 22 16 0.464327 0 140 0.464327 1
gene 1 8 15 1.01582 0 327 1.01582 1
gene 1 15 16 -1.162 0 937 -1.162 1
gene 1 1 14 0.293726 0 1899 0.293726 1
gene 1 8 14 2.56304 0 2143 2.56304 1
gene 1 6 13 0.0313539 0 3720 0.0313539 1
gene 1 7 13 1.70674 0 6537 1.70674 1
gene 1 6 16 0.729088 0 10555 0.729088 1
gene 1 10 13 -0.377794 0 12325 -0.377794 1
gene 1 9 12 -0.378573 0 13826 -0.378573 1
gene 1 4 14 0.423256 0 14089 0.423256 1
gene 1 3 16 -1.89113 0 18751 -1.89113 1
gene 1 9 14 0.999529 0 19504 0.999529 1
gene 1 10 12 -1.78543 0 20230 -1.78543 1
gene 1 3 15 0.691602 0 20297 0.691602 1
gene 1 10 15 0.0987122 0 20618 0.0987122 1
gene 1 16 13 -0.740863 0 21740 -0.740863 1
gene 1 12 16 -0.730354 0 22759 -0.730354 1
gene 1 6 22 -1.27224 0 25277 -1.27224 1
gene 1 3 14 0.989917 0 25503 0.989917 1
gene 1 22 13 0.115316 0 25604 0.115316 1
gene 1 5 15 -0.887947 0 26061 -0.887947 1
gene 1 4 13 0.874512 0 26624 0.874512 1
gene 1 1 15 1.74868 0 26962 1.74868 1
gene 1 13 13 0.686598 1 27184 0.686598 1
gene 1 13 16 0.121707 1 27706 0.121707 1
gene 1 12 13 0.29176 0 29643 0.29176 1
gene 1 2 16 0.365263 0 29747 0.365263 1
gene 1 15 22 -0.0957554 1 30093 -0.0957554 1
gene 1 14 12 0.164245 1 30244 0.164245 1
gene 1 11 14 -0.751732 0 31187 -0.751732 1
gene 1 15 22 -0.619697 0 31396 -0.619697 1
gene 1 22 15 -0.254956 1 32247 -0.254956 1
gene 1 4 16 -1.18854 0 32554 -1.18854 1
gene 1 5 13 2.12986 0 33074 2.12986 1
gene 1 1 16 0.2907 0 33366 0.2907 1
gene 1 4 12 0.0608585 0 33471 0.0608585 1
gene 1 10 22 0.306942 0 33762 0.306942 1
gene 1 6 15 -0.213637 0 34226 -0.213637 1
gene 1 14 16 -0.922079 1 34317 -0.922079 1
gene 1 13 15 0.479671 1 34423 0.479671 1
gene 1 12 1926 1.27571 1 34537 1.18013 1
gene 1 1926 12 -0.470861 0 34538 -0.388767 1
gene 1 10 1926 -0.538748 0 34876 -0.538748 1
gene 1 1 13 0.795224 0 34926 0.795224 1
gene 1 16 14 -0.49325 0 35199 -0.49325 1
gene 1 16 15 0.0132802 1 35502 0.0132802 1
gene 1 8 1926 0.441454 0 35594 0.441454 1
gene 1 10 14 -1.04299 0 35856 -1.04299 1
gene 1 7 22 -0.309824 0 36148 -0.309824 1
gene 1 14 22 0.340466 1 36265 0.340466 1
gene 1 1926 22 0.266006 0 36366 0.266006 1
gene 1 1926 14 1.12108 0 37220 1.12108 1
gene 1 2 13 1.16582 0 37621 1.16582 1
gene 1 11 15 0.331636 0 38153 0.331636 1
gene 1 6 14 -1.66882 0 38304 -1.66882 1
gene 1 13 14 0.953402 0 38444 0.953402 1
gene 1 1926 1926 0.0245786 1 38585 0.0245786 1
gene 1 10 16 0.13571 0 38709 0.13571 1
gene 1 7 14 -0.879514 0 38917 -0.879514 1
gene 1 3 13 -0.80018 0 39040 -0.80018 1
gene 1 3 1926 1.23476 0 39850 1.23476 1
gene 1 12 14 0.245435 0 40264 0.245435 1
gene 1 22 22 0.546069 1 41087 0.546069 1
gene 1 9 16 -0.228233 0 41502 -0.228233 1
gene 1 7 15 -0.504782 0 41950 -0.504782 1
gene 1 2 15 0.392282 0 42055 0.392282 1
gene 1 5 14 -0.388558 0 42821 -0.388558 1
gene 1 15 15 0.152052 1 43000 0.152052 1
gene 1 2 22 -0.732045 0 43357 -0.732045 1
gene 1 12 12 -0.389548 1 43491 -0.389548 1
gene 1 5 1926 0.280671 0 43676 0.280671 1
gene 1 4 2534 1.20983 0 43764 0.334827 1
gene 1 2534 22 -0.701705 0 43765 -0.663504 1
gene 1 5 16 -0.834941 0 44130 -0.834941 1
gene 1 14 2579 1 1 44389 0 1
gene 1 2579 14 -1.49066 0 44390 0 1
gene 1 16 2587 1 1 44492 0 1
gene 1 2587 22 0.591602 0 44493 0 1
gene 1 11 12 -0.563798 0 44542 -0.563798 1
gene 1 15 14 0.291317 0 44801 0.291317 1
gene 1 7 2579 -0.0615377 0 45030 -0.0615377 1
gene 1 3 12 -0.00414248 0 45618 -0.00414248 1
gene 1 11 13 0.232038 0 45672 0.232038 1
gene 1 15 1926 -0.544972 0 45836 -0.544972 1
gene 1 11 2587 0.642664 0 46082 0.642664 1
genomeend 88
