/* Organism #66125040 Fitness: -371.178 
genomestart 27
trait 1 0.652967 0.214379 1 0 0.746576 1 0 0 
node 1 1 0
node 2 1 1
node 3 1 1
node 4 1 1
node 5 1 1
node 6 1 1
node 7 1 1
node 8 1 1
node 9 1 1
node 10 1 1
node 11 1 1
node 12 1 2
node 13 1 2
node 14 1 2
node 15 1 2
node 16 1 2
node 18 1 3
node 313 1 3
node 671 1 3
node 877 1 3
node 1347 1 3
node 1352 1 3
node 1418 1 3
node 1579 1 3
node 1648 1 3
node 2123 1 3
node 2250 1 3
gene 1 1 18 2.84979 0 2 2.84979 1
gene 1 2 18 0.773972 0 12 0.773972 1
gene 1 7 18 2.21993 0 62 2.21993 1
gene 1 10 18 2.98262 0 92 2.98262 1
gene 1 18 12 -0.00597098 0 116 -0.00597098 1
gene 1 18 13 1.86249 0 117 1.86249 1
gene 1 16 12 0.244141 0 1913 0.244141 1
gene 1 7 14 1.85461 0 4236 1.85461 1
gene 1 11 313 -1.62707 0 12466 -1.62707 1
gene 1 14 16 -0.262499 0 13799 -0.262499 1
gene 1 9 18 1.36681 0 16116 1.36681 1
gene 1 7 13 0.105334 0 16759 0.105334 1
gene 1 4 16 1.01825 0 17632 1.01825 1
gene 1 9 12 0.172829 0 18030 0.172829 1
gene 1 5 14 3.088 0 19982 3.088 1
gene 1 313 16 -0.895233 0 20949 -0.895233 1
gene 1 671 16 -0.93775 1 21722 -0.93775 1
gene 1 313 13 -0.688144 0 21819 -0.688144 1
gene 1 14 671 -6.06091 0 22616 -6.06091 1
gene 1 313 671 -0.666992 0 23468 -0.666992 1
gene 1 1 313 1.58405 0 27615 1.58405 1
gene 1 11 14 0.299308 0 28044 0.299308 1
gene 1 1352 15 1.01985 0 28741 1.01985 1
gene 1 12 12 -0.507571 1 29621 -0.507571 1
gene 1 3 1418 -1.70243 0 29745 -1.70243 1
gene 1 1418 18 2.14946 0 29746 2.14946 1
gene 1 1352 1352 1.20787 1 30040 1.20787 1
gene 1 11 877 0.154949 0 31755 0.154949 1
gene 1 16 877 -1.12578 1 32043 -1.12578 1
gene 1 877 877 0.226882 1 32133 0.226882 1
gene 1 6 313 0.314082 0 33432 0.314082 1
gene 1 10 16 1.80552 0 33578 1.80552 1
gene 1 11 15 -0.486886 0 33993 -0.486886 1
gene 1 8 313 1.19173 0 34211 1.19173 1
gene 1 16 1648 1.11402 1 34373 1.11402 1
gene 1 1352 13 0.863166 0 34647 0.863166 1
gene 1 877 1347 -0.897946 0 35896 -0.897946 1
gene 1 4 877 0.0129671 0 37441 0.0129671 1
gene 1 18 18 0.0347899 1 37605 0.0347899 1
gene 1 1648 1352 0.569823 0 37852 0.569823 1
gene 1 12 1347 0.431027 0 38338 0.431027 1
gene 1 1579 13 -0.960083 0 38444 -0.960083 1
gene 1 3 1648 -3.14137 0 38640 -3.14137 1
gene 1 6 15 0.642219 0 39772 0.642219 1
gene 1 1418 313 0.399249 0 39947 0.399249 1
gene 1 5 1418 0.537085 0 40902 0.537085 1
gene 1 1648 1347 2.26835 0 41069 2.26835 1
gene 1 1418 14 -0.77182 0 41760 -0.77182 1
gene 1 13 16 1.8693 0 43457 1.8693 1
gene 1 5 18 -0.0793919 0 44219 -0.0793919 1
gene 1 1 15 2.13069 0 44590 2.13069 1
gene 1 313 313 -0.301234 1 44680 -0.301234 1
gene 1 2123 1347 -1.42819 0 45202 -1.42819 1
gene 1 2123 1418 -1.10607 0 45587 -1.10607 1
gene 1 13 1347 -0.78432 0 45884 -0.78432 1
gene 1 2 1648 -0.00843813 0 48020 -0.00843813 1
gene 1 10 1352 1.19977 0 48343 1.19977 1
gene 1 15 2250 0.48644 1 48645 0.377065 1
gene 1 2250 1648 -1.10544 0 48968 -1.10544 1
gene 1 2 2250 -0.810224 0 49263 -0.810224 1
gene 1 1579 1648 -0.157515 0 50118 -0.157515 1
gene 1 1648 877 -0.187958 0 50276 -0.187958 1
gene 1 5 13 0.0729551 0 50444 0.0729551 1
gene 1 5 2250 0.478609 0 50981 0.478609 1
gene 1 10 1648 0.33916 0 51163 0.33916 1
gene 1 14 14 -0.788913 1 52175 -0.788913 1
gene 1 5 12 -0.0397586 0 52731 -0.0397586 1
gene 1 1 671 0.321697 0 53521 0.321697 1
gene 1 2123 1579 0.223471 0 53701 0.223471 1
gene 1 2250 313 -0.220047 0 54289 -0.220047 1
gene 1 12 877 -0.792371 0 54469 -0.792371 1
genomeend 27
