/* Organism #140044331042888 Fitness: -9.48774 
genomestart 697
trait 1 0.709048 0.665376 0.652772 0.116441 0.796129 0.862214 0.382358 0.18311 
node 1 1 0
node 2 1 1
node 3 1 1
node 4 1 1
node 5 1 1
node 6 1 1
node 7 1 1
node 8 1 1
node 9 1 1
node 10 1 1
node 11 1 1
node 12 1 2
node 13 1 2
node 14 1 2
node 15 1 2
node 16 1 2
node 20 1 3
node 747 1 3
node 1735 1 3
node 1872 1 3
node 2071 1 3
node 2187 1 3
node 2213 1 3
node 2435 1 3
gene 1 2 20 1.28446 0 14 1.28446 1
gene 1 7 20 1.94857 0 64 1.94857 1
gene 1 9 20 3.06477 0 84 3.06477 1
gene 1 11 20 -2.55049 0 104 -2.55049 1
gene 1 20 12 0.0962444 0 126 0.0962444 1
gene 1 20 13 1.13824 0 127 1.13824 1
gene 1 13 13 -2.19912 1 4393 -2.19912 1
gene 1 20 747 -2.12393 0 14927 -2.12393 1
gene 1 12 12 0.660731 1 16287 0.660731 1
gene 1 6 15 0.348454 0 18436 0.348454 1
gene 1 14 747 1.72051 0 25730 1.72051 1
gene 1 15 15 1.7277 1 27163 1.7277 1
gene 1 9 15 -1.67395 0 27314 -1.67395 1
gene 1 12 20 -1.19579 1 28208 -1.19579 1
gene 1 16 16 3.55524 1 31126 3.55524 1
gene 1 11 13 1.11804 0 32368 1.11804 1
gene 1 2 15 3.48773 0 33704 3.48773 1
gene 1 16 20 -0.197583 1 33966 -0.197583 1
gene 1 11 16 -0.545656 0 35532 -0.545656 1
gene 1 4 15 0.769286 0 35943 0.769286 1
gene 1 20 14 0.887998 0 36763 0.887998 1
gene 1 15 16 1.84329 0 37086 1.84329 1
gene 1 12 14 2.03892 0 37374 2.03892 1
gene 1 5 1872 1.70889 0 37513 1.70889 1
gene 1 1872 20 4.17225 0 37514 4.17225 1
gene 1 11 15 -2.10138 0 38365 -2.10138 1
gene 1 10 1735 3.96401 0 38420 3.96401 1
gene 1 1 13 1.28154 0 38626 1.28154 1
gene 1 5 15 -1.39688 0 38825 -1.39688 1
gene 1 2 1735 1.00407 0 39481 1.00407 1
gene 1 1 1735 -1.82593 0 40836 -1.82593 1
gene 1 6 20 0.253234 0 41190 0.253234 1
gene 1 3 2071 -0.39062 0 41727 -0.39062 1
gene 1 2071 16 1.63615 0 41728 1.63615 1
gene 1 3 747 2.77746 0 42062 2.77746 1
gene 1 8 1735 0.657937 0 42513 0.657937 1
gene 1 2071 14 -1.53871 0 43256 -1.53871 1
gene 1 1872 2187 1.12201 0 44252 1.12201 1
gene 1 2 2187 3.05334 0 44412 3.05334 1
gene 1 13 15 0.214222 0 44537 0.214222 1
gene 1 20 2213 -0.152285 0 44733 -0.152285 1
gene 1 1872 1872 -0.683932 1 45319 -0.683932 1
gene 1 9 1872 0.499022 0 45488 0.499022 1
gene 1 10 20 -1.04405 0 45670 -1.04405 1
gene 1 10 2213 3.35126 0 46146 3.35126 1
gene 1 2187 2187 -1.47107 1 46848 -1.47107 1
gene 1 14 20 1.76484 1 47093 1.76484 1
gene 1 1735 1735 1.54772 1 47497 1.54772 1
gene 1 2213 2071 0.528198 0 47719 0.528198 1
gene 1 2071 2187 1.06789 0 47869 1.06789 1
gene 1 8 20 1.04389 0 47972 1.04389 1
gene 1 6 16 -2.29475 0 48329 -2.29475 1
gene 1 5 2187 3.21785 0 48606 3.21785 1
gene 1 16 2435 1 0 49745 0 1
gene 1 2435 747 1.02901 0 49746 0 1
genomeend 697
