/* Organism #25942064 Fitness: 0.0322267 
genomestart 377
trait 1 0.0149195 0.526479 0.193429 0.75246 0.47195 0.158501 0.704428 0.39088 
node 1 1 0
node 2 1 1
node 3 1 1
node 4 1 1
node 5 1 1
node 6 1 1
node 7 1 1
node 8 1 1
node 9 1 1
node 10 1 1
node 11 1 1
node 12 1 2
node 13 1 2
node 14 1 2
node 15 1 2
node 16 1 2
node 23 1 3
node 436 1 3
node 2341 1 3
node 2387 1 3
gene 1 1 23 -0.150637 0 7 -0.150637 1
gene 1 6 23 -4.23021 0 57 -4.23021 1
gene 1 7 23 -2.10537 0 67 -2.10537 1
gene 1 23 13 1.91019 0 142 1.91019 1
gene 1 23 14 -1.38375 0 143 -1.38375 1
gene 1 23 15 -1.62009 0 144 -1.62009 1
gene 1 23 16 -0.395538 0 145 -0.395538 1
gene 1 1 16 2.40251 0 1494 2.40251 1
gene 1 9 12 -1.7101 0 2219 -1.7101 1
gene 1 1 13 1.88787 0 2711 1.88787 1
gene 1 16 16 -0.337939 1 7919 -0.337939 1
gene 1 8 436 0.996604 0 8691 0.996604 1
gene 1 6 13 2.91088 0 9877 2.91088 1
gene 1 23 12 -0.371223 0 11423 -0.371223 1
gene 1 2 13 -1.04595 0 13393 -1.04595 1
gene 1 16 14 0.818487 0 15883 0.818487 1
gene 1 1 436 0.216274 0 21112 0.216274 1
gene 1 15 16 2.38543 0 23446 2.38543 1
gene 1 10 12 0.331556 0 24492 0.331556 1
gene 1 1 15 0.176641 0 29439 0.176641 1
gene 1 8 14 -1.71253 0 29700 -1.71253 1
gene 1 6 12 -0.236071 0 29893 -0.236071 1
gene 1 14 16 -0.967472 1 31988 -0.967472 1
gene 1 11 13 2.15314 0 32251 2.15314 1
gene 1 6 16 1.45337 0 34055 1.45337 1
gene 1 3 14 0.837252 0 35224 0.837252 1
gene 1 12 12 -0.42355 1 35878 -0.42355 1
gene 1 12 16 -0.598815 0 36876 -0.598815 1
gene 1 14 14 -0.857336 1 38759 -0.857336 1
gene 1 436 436 -0.488571 1 40915 -0.488571 1
gene 1 13 13 -0.468773 1 41533 -0.468773 1
gene 1 1 14 -0.734746 0 42911 -0.734746 1
gene 1 4 436 -0.235212 0 43063 -0.235212 1
gene 1 9 436 -0.845572 0 43500 -0.845572 1
gene 1 4 23 0.975204 0 44741 0.975204 1
gene 1 15 15 0.714495 1 45483 0.714495 1
gene 1 13 14 -0.134301 0 46347 -0.134301 1
gene 1 2341 13 1.11744 0 47378 0.380101 1
gene 1 8 2387 -0.185904 0 48154 -0.185904 1
gene 1 2387 23 0.659886 0 48155 0.40847 1
gene 1 12 15 0.181036 0 48260 0.181036 1
gene 1 2 2341 -0.423706 0 49004 -0.423706 1
gene 1 10 16 0.72803 0 49040 0.72803 1
gene 1 7 13 -0.596316 0 49152 -0.596316 1
gene 1 3 13 0.0906231 0 49374 0.0906231 1
gene 1 12 2387 0.42672 1 49809 0.42672 1
gene 1 2 16 0.0185263 0 50237 0.0185263 1
gene 1 436 13 -0.195602 0 50332 -0.195602 1
gene 1 2387 16 0.648707 0 50440 0.648707 1
gene 1 2 14 0.142952 0 50954 0.142952 1
genomeend 377
