/* Organism #44473408 Fitness: 121.974 
genomestart 124
trait 1 1 0.426875 0.514671 0.201231 0.852979 0.970325 0.263263 0.468647 
node 1 1 0
node 2 1 1
node 3 1 1
node 4 1 1
node 5 1 1
node 6 1 1
node 7 1 1
node 8 1 1
node 9 1 1
node 10 1 1
node 11 1 1
node 12 1 2
node 13 1 2
node 14 1 2
node 15 1 2
node 16 1 2
node 22 1 3
node 26 1 3
node 494 1 3
node 1513 1 3
node 2175 1 3
node 2311 1 3
node 2329 1 3
node 2484 1 3
node 2584 1 3
gene 1 2 22 -1.29052 0 16 -1.29052 1
gene 1 4 26 -0.163378 0 40 -0.163378 1
gene 1 7 22 -1.14065 0 66 -1.14065 1
gene 1 9 22 1.6763 0 86 1.6763 1
gene 1 10 22 -0.817594 0 96 -0.817594 1
gene 1 10 26 1.21591 0 100 1.21591 1
gene 1 22 14 0.431541 0 138 0.431541 1
gene 1 22 15 1.19077 0 139 1.19077 1
gene 1 22 16 1.01534 0 140 1.01534 1
gene 1 26 12 0.676381 0 156 0.676381 1
gene 1 26 14 1.94292 0 158 1.94292 1
gene 1 26 15 2.36127 0 159 2.36127 1
gene 1 26 16 0.644448 0 160 0.644448 1
gene 1 7 15 -0.563295 0 251 -0.563295 1
gene 1 12 12 -0.624859 1 1326 -0.624859 1
gene 1 2 15 -0.293909 0 4841 -0.293909 1
gene 1 8 14 -0.577105 0 6168 -0.577105 1
gene 1 494 12 0.92684 0 8639 0.92684 1
gene 1 7 16 0.519765 0 8731 0.519765 1
gene 1 3 15 0.791352 0 11742 0.791352 1
gene 1 15 12 0.365517 0 14234 0.365517 1
gene 1 14 14 -1.02676 1 14573 -1.02676 1
gene 1 7 494 2.03679 0 15223 2.03679 1
gene 1 3 13 0.963113 0 16365 0.963113 1
gene 1 2 494 -2.2615 0 16417 -2.2615 1
gene 1 26 26 -0.687004 1 16543 -0.687004 1
gene 1 1 14 -0.403364 0 19313 -0.403364 1
gene 1 5 26 2.63081 0 23866 2.63081 1
gene 1 11 15 0.334289 0 24120 0.334289 1
gene 1 1 15 -3.19226 0 25339 -3.19226 1
gene 1 5 12 0.497238 0 25485 0.497238 1
gene 1 10 15 -1.02709 0 26597 -1.02709 1
gene 1 1513 13 -2.10983 0 27527 -2.10983 1
gene 1 13 14 1.58931 0 28026 1.58931 1
gene 1 10 14 1.58505 0 28669 1.58505 1
gene 1 8 26 0.068377 0 28857 0.068377 1
gene 1 13 13 2.15873 1 29105 2.15873 1
gene 1 6 26 1.47897 0 29389 1.47897 1
gene 1 4 15 1.09836 0 29832 1.09836 1
gene 1 4 13 -2.62146 0 29982 -2.62146 1
gene 1 2 1513 -1.5556 0 30557 -1.5556 1
gene 1 1 13 1.57901 0 31378 1.57901 1
gene 1 11 494 1.96941 0 31851 1.96941 1
gene 1 5 22 0.50853 0 32274 0.50853 1
gene 1 8 13 3.57434 0 32615 3.57434 1
gene 1 3 16 1.34744 0 33987 1.34744 1
gene 1 2 12 0.0682752 0 34466 0.0682752 1
gene 1 7 14 -0.537743 0 34808 -0.537743 1
gene 1 2 13 0.168916 0 34974 0.168916 1
gene 1 14 22 -1.05129 1 35348 -1.05129 1
gene 1 12 16 1.87202 0 35475 1.87202 1
gene 1 9 14 4.09251 0 35587 4.09251 1
gene 1 7 12 -1.31446 0 35735 -1.31446 1
gene 1 7 1513 -0.905845 0 36952 -0.905845 1
gene 1 494 22 0.742867 0 37799 0.742867 1
gene 1 10 1513 -0.536151 0 38077 -0.536151 1
gene 1 8 12 -0.75379 0 38183 -0.75379 1
gene 1 7 26 2.80188 0 38336 2.80188 1
gene 1 13 16 0.878735 0 38562 0.878735 1
gene 1 22 12 -0.1359 0 38732 -0.1359 1
gene 1 16 16 -1.03454 1 39161 -1.03454 1
gene 1 9 16 1.3348 0 39343 1.3348 1
gene 1 1513 1513 -0.840224 1 39640 -0.840224 1
gene 1 1 22 0.689643 0 40091 0.689643 1
gene 1 6 14 0.398922 0 40281 0.398922 1
gene 1 11 1513 -0.723934 0 40507 -0.723934 1
gene 1 15 15 0.338638 1 41055 0.338638 1
gene 1 22 2175 0.476303 0 41187 0.476303 1
gene 1 2175 26 0.976079 0 41188 0.976079 1
gene 1 3 1513 -1.21709 0 42339 -1.21709 1
gene 1 2175 16 0.758321 0 43036 0.758321 1
gene 1 11 2175 -0.413667 0 43188 -0.413667 1
gene 1 14 16 -0.820044 0 43456 -0.820044 1
gene 1 4 2311 0.785249 0 43700 0.785249 1
gene 1 2311 494 -0.0715577 0 43701 -0.0779008 1
gene 1 1 2175 0.5085 0 43824 0.5085 1
gene 1 9 2329 1.15228 0 43912 0.777277 1
gene 1 2329 15 -0.825623 0 43913 -0.577758 1
gene 1 494 14 0.0115793 0 44075 0.0115793 1
gene 1 494 26 0.208402 0 44245 0.208402 1
gene 1 1 1513 0.394435 0 44431 0.394435 1
gene 1 1513 15 0.374625 0 44516 0.374625 1
gene 1 22 1513 -0.540204 0 45106 -0.540204 1
gene 1 3 2175 1.05133 0 45402 1.05133 1
gene 1 494 494 -0.103174 1 45680 -0.103174 1
gene 1 2329 2175 1.10831 0 45843 1.10831 1
gene 1 1513 26 -1.08405 0 46247 -1.08405 1
gene 1 494 2484 1 0 46762 0 1
gene 1 2484 15 -0.851427 0 46763 0.0845975 1
gene 1 9 2311 -0.0679255 0 46903 -0.0679255 1
gene 1 1513 2311 0.57675 1 47455 0.57675 1
gene 1 8 2484 0.232478 0 47750 0.232478 1
gene 1 2329 26 -0.278294 0 48268 -0.278294 1
gene 1 6 2584 1 0 48593 0 1
gene 1 2584 16 2.42347 0 48594 0 1
gene 1 494 2329 0.18242 0 49209 0.18242 1
gene 1 11 22 0.764137 0 49319 0.764137 1
gene 1 14 15 -0.838248 0 49429 -0.838248 1
gene 1 12 14 -0.00570397 1 49816 -0.00570397 1
gene 1 22 22 0.964438 1 50221 0.964438 1
genomeend 124
