/* Organism #139989609969592 Fitness: 4656.89 
genomestart 637
trait 1 0.0122185 0.223354 0.675424 1 0.422906 0.115294 0.781537 0.989594 
node 1 1 0
node 2 1 1
node 3 1 1
node 4 1 1
node 5 1 1
node 6 1 1
node 7 1 1
node 8 1 1
node 9 1 1
node 10 1 1
node 11 1 1
node 12 1 2
node 13 1 2
node 14 1 2
node 15 1 2
node 16 1 2
node 24 1 3
node 26 1 3
node 575 1 3
node 684 1 3
node 1349 1 3
node 1469 1 3
node 1580 1 3
node 1706 1 3
node 1785 1 3
node 1925 1 3
node 2171 1 3
node 2338 1 3
node 2508 1 3
gene 1 1 24 7.47461 0 8 7.47461 1
gene 1 2 26 1.97968 0 20 1.97968 1
gene 1 3 24 1.55691 0 28 1.55691 1
gene 1 3 26 -0.113452 0 30 -0.113452 1
gene 1 4 24 -0.465801 0 38 -0.465801 1
gene 1 4 26 1.39244 0 40 1.39244 1
gene 1 5 24 1.58619 0 48 1.58619 1
gene 1 8 24 0.344725 0 78 0.344725 1
gene 1 8 26 -3.62474 0 80 -3.62474 1
gene 1 9 26 0.381136 0 90 0.381136 1
gene 1 10 24 0.940027 0 98 0.940027 1
gene 1 11 26 4.75064 0 110 4.75064 1
gene 1 24 12 0.269537 0 146 0.269537 1
gene 1 24 14 0.662012 0 148 0.662012 1
gene 1 24 15 3.19276 0 149 3.19276 1
gene 1 24 16 1.20774 0 150 1.20774 1
gene 1 26 14 -0.0243206 0 158 -0.0243206 1
gene 1 1 15 0.342338 0 1001 0.342338 1
gene 1 13 13 0.942907 1 4243 0.942907 1
gene 1 8 15 -1.05238 0 7019 -1.05238 1
gene 1 12 15 2.13816 0 7604 2.13816 1
gene 1 15 15 1.82593 1 8587 1.82593 1
gene 1 575 14 -0.381959 0 10918 -0.381959 1
gene 1 11 13 4.40329 0 11374 4.40329 1
gene 1 684 13 2.08522 0 13154 2.08522 1
gene 1 16 575 -1.39792 0 16760 -1.39792 1
gene 1 16 16 -0.401549 1 19203 -0.401549 1
gene 1 4 684 1.07888 0 20633 1.07888 1
gene 1 4 14 -1.60629 0 23379 -1.60629 1
gene 1 6 575 2.4428 0 24836 2.4428 1
gene 1 3 684 1.27055 0 27190 1.27055 1
gene 1 1 575 2.45846 0 28064 2.45846 1
gene 1 8 1349 1.41865 0 28545 1.41865 1
gene 1 1349 575 -2.23869 0 28546 -2.23869 1
gene 1 24 1349 -0.583131 0 29188 -0.583131 1
gene 1 4 575 1.84919 0 29357 1.84919 1
gene 1 9 14 -5.95634 0 29882 -5.95634 1
gene 1 1 684 -0.264255 0 30518 -0.264255 1
gene 1 11 1469 1.39051 0 31145 1.39051 1
gene 1 1469 24 -1.64031 0 31146 -1.64031 1
gene 1 3 15 -1.23256 0 31895 -1.23256 1
gene 1 2 575 1.16323 0 32051 1.16323 1
gene 1 8 14 2.20242 0 32860 2.20242 1
gene 1 7 16 0.125068 0 33661 0.125068 1
gene 1 26 1580 -0.628098 0 33888 -0.628098 1
gene 1 12 14 0.149836 0 34489 0.149836 1
gene 1 1349 26 -0.864332 0 36035 -0.864332 1
gene 1 1706 14 0.957109 0 36904 0.957109 1
gene 1 12 26 -1.34391 0 37641 -1.34391 1
gene 1 1 13 -0.153098 0 38663 -0.153098 1
gene 1 26 1785 -0.834851 0 38822 -0.834851 1
gene 1 1785 16 -3.47261 0 38823 -3.47261 1
gene 1 1580 1580 -3.65255 1 40454 -3.65255 1
gene 1 5 1706 1.26173 0 40869 1.26173 1
gene 1 1706 1580 -0.1219 0 41016 -0.1219 1
gene 1 8 1580 1.93851 0 41288 1.93851 1
gene 1 26 1925 0.284996 0 41946 0.284996 1
gene 1 1925 15 -0.443376 0 41947 -0.443376 1
gene 1 1925 1925 -0.818177 1 43638 -0.818177 1
gene 1 684 1469 0.0651167 0 44702 0.0651167 1
gene 1 1785 1469 0.0370168 1 44930 0.0370168 1
gene 1 2 12 -0.38151 0 45315 -0.38151 1
gene 1 24 1580 0.186571 0 45722 0.186571 1
gene 1 1706 1706 1.70721 1 46729 1.70721 1
gene 1 12 12 -0.53395 1 47261 -0.53395 1
gene 1 1785 1706 2.62324 0 47578 2.62324 1
gene 1 26 26 -0.432343 1 47901 -0.432343 1
gene 1 5 2171 1.23228 0 48137 1.23228 1
gene 1 10 1469 1.67368 0 49067 1.67368 1
gene 1 11 1785 2.07404 0 49392 2.07404 1
gene 1 684 1706 -0.844701 0 49764 -0.844701 1
gene 1 26 16 -1.48815 0 51323 -1.48815 1
gene 1 8 13 -0.197616 0 51679 -0.197616 1
gene 1 1349 15 1.5749 0 53013 1.5749 1
gene 1 575 575 -1.18258 1 54031 -1.18258 1
gene 1 2338 1785 2.23031 0 54233 2.23031 1
gene 1 2508 15 -1.58254 0 56135 -1.58254 1
gene 1 4 1469 0.715977 0 56627 0.715977 1
gene 1 6 24 0.390334 0 57812 0.390334 1
gene 1 1 16 0.676675 0 58373 0.676675 1
gene 1 14 14 -0.628107 1 58554 -0.628107 1
genomeend 637
