/* Organism #140719415248824 Fitness: -8.72387 
genomestart 156
trait 1 0.169315 0.631937 0.664264 0.532895 0.00265066 0.0854183 0.619019 0.10494 
node 1 1 0
node 2 1 1
node 3 1 1
node 4 1 1
node 5 1 1
node 6 1 1
node 7 1 1
node 8 1 1
node 9 1 1
node 10 1 1
node 11 1 1
node 12 1 2
node 13 1 2
node 14 1 2
node 15 1 2
node 16 1 2
node 18 1 3
node 370 1 3
node 503 1 3
node 934 1 3
node 1320 1 3
gene 1 1 18 1.13975 0 2 1.13975 1
gene 1 2 18 3.53206 0 12 3.53206 1
gene 1 3 18 0.936554 0 22 0.936554 1
gene 1 6 18 -2.52135 0 52 -2.52135 1
gene 1 8 18 -0.971015 0 72 -0.971015 1
gene 1 18 14 -0.21559 0 118 -0.21559 1
gene 1 18 15 -2.56681 0 119 -2.56681 1
gene 1 18 16 -0.0691417 0 120 -0.0691417 1
gene 1 1 14 2.85704 0 1535 2.85704 1
gene 1 5 13 -0.329364 0 6625 -0.329364 1
gene 1 10 18 1.85941 0 7887 1.85941 1
gene 1 2 13 -0.8656 0 10735 -0.8656 1
gene 1 2 12 0.159727 0 10841 0.159727 1
gene 1 4 15 -0.49206 0 11109 -0.49206 1
gene 1 11 16 -0.828066 0 15388 -0.828066 1
gene 1 9 503 0.300504 0 16065 0.300504 1
gene 1 15 934 -2.55086 1 19079 -2.55086 1
gene 1 934 15 -1.35013 0 19080 -1.35013 1
gene 1 934 934 1.63883 1 19411 1.63883 1
gene 1 10 13 -1.79752 0 20884 -1.79752 1
gene 1 14 370 -2.2494 0 20993 -2.2494 1
gene 1 14 14 -0.497392 1 22067 -0.497392 1
gene 1 10 16 -0.00421377 0 22240 -0.00421377 1
gene 1 6 934 2.08754 0 22883 2.08754 1
gene 1 18 13 0.0521226 0 24050 0.0521226 1
gene 1 6 503 -0.306837 0 25095 -0.306837 1
gene 1 1 934 -0.778015 0 26108 -0.778015 1
gene 1 16 16 -0.959832 1 27836 -0.959832 1
gene 1 10 1320 0.279254 0 29134 0.279254 1
gene 1 9 12 0.157777 0 29381 0.157777 1
gene 1 7 14 -0.976507 0 31457 -0.976507 1
gene 1 503 18 1.98575 0 32551 1.98575 1
gene 1 4 13 0.55298 0 33198 0.55298 1
gene 1 1 13 3.77653 0 35964 3.77653 1
gene 1 15 15 0.680671 1 36365 0.680671 1
gene 1 7 16 -0.778809 0 37157 -0.778809 1
gene 1 12 16 -1.01967 0 38049 -1.01967 1
gene 1 370 370 0.139453 1 38508 0.139453 1
gene 1 4 18 -0.834737 0 39330 -0.834737 1
gene 1 934 1320 -1.42138 0 41239 -1.42138 1
gene 1 11 370 0.803314 0 43967 0.803314 1
gene 1 934 14 0.214382 0 44565 0.214382 1
gene 1 5 503 1.16004 0 45086 1.16004 1
gene 1 3 934 2.00992 0 45661 2.00992 1
gene 1 18 1320 -0.968319 0 46032 -0.968319 1
gene 1 4 16 1.26123 0 47031 1.26123 1
gene 1 13 16 2.15743 0 48060 2.15743 1
gene 1 934 370 1.27441 0 50004 1.27441 1
gene 1 1320 14 -1.14237 0 52781 -1.14237 1
gene 1 9 14 -0.257245 0 52988 -0.257245 1
gene 1 3 15 -1.76884 0 53525 -1.76884 1
gene 1 8 13 1.08594 0 53768 1.08594 1
gene 1 11 18 -1.79698 0 53966 -1.79698 1
gene 1 5 15 0.114699 0 54508 0.114699 1
gene 1 4 370 -0.943887 0 54757 -0.943887 1
gene 1 8 14 0.0160952 0 55793 0.0160952 1
gene 1 8 370 0.742919 0 55974 0.742919 1
gene 1 7 15 3.47145 0 56858 3.47145 1
gene 1 9 13 -1.17373 0 57828 -1.17373 1
gene 1 5 16 -0.130268 0 57996 -0.130268 1
gene 1 370 14 0.0833757 1 58287 0.0833757 1
gene 1 3 13 0.249616 0 58619 0.249616 1
gene 1 6 14 0.0698189 0 59085 0.0698189 1
genomeend 156
