/* Organism #139821603444760 Fitness: -9.36085 
genomestart 88
trait 1 0.763982 0.701828 0.897787 0.228705 0.478925 0.905419 0.398239 0.559506 
node 1 1 0
node 2 1 1
node 3 1 1
node 4 1 1
node 5 1 1
node 6 1 1
node 7 1 1
node 8 1 1
node 9 1 1
node 10 1 1
node 11 1 1
node 12 1 2
node 13 1 2
node 14 1 2
node 15 1 2
node 16 1 2
node 19 1 3
node 26 1 3
node 1126 1 3
node 1707 1 3
node 2045 1 3
node 2098 1 3
gene 1 1 19 0.769891 0 3 0.769891 1
gene 1 1 26 0.112815 0 10 0.112815 1
gene 1 4 19 0.0333333 0 33 0.0333333 1
gene 1 5 26 -1.17161 0 50 -1.17161 1
gene 1 6 19 -2.12108 0 53 -2.12108 1
gene 1 6 26 -0.634322 0 60 -0.634322 1
gene 1 7 19 -0.557636 0 63 -0.557636 1
gene 1 7 26 -0.915483 0 70 -0.915483 1
gene 1 9 19 0.743195 0 83 0.743195 1
gene 1 10 19 -2.00571 0 93 -2.00571 1
gene 1 19 12 0.107739 0 121 0.107739 1
gene 1 19 13 1.11173 0 122 1.11173 1
gene 1 26 13 -2.49373 0 157 -2.49373 1
gene 1 26 15 -0.333654 0 159 -0.333654 1
gene 1 1 14 0.749904 0 5253 0.749904 1
gene 1 16 15 0.776396 0 8018 0.776396 1
gene 1 14 15 -1.79277 0 8867 -1.79277 1
gene 1 3 15 0.664136 0 9648 0.664136 1
gene 1 2 15 -0.274854 0 10214 -0.274854 1
gene 1 6 15 0.220873 0 10548 0.220873 1
gene 1 9 12 0.258339 0 11731 0.258339 1
gene 1 3 14 1.21593 0 12668 1.21593 1
gene 1 11 15 -1.16847 0 13341 -1.16847 1
gene 1 13 13 -0.867572 1 13640 -0.867572 1
gene 1 13 26 0.116362 1 13797 0.116362 1
gene 1 13 16 0.242652 0 15622 0.242652 1
gene 1 12 12 -0.778871 1 16448 -0.778871 1
gene 1 10 16 -0.167547 0 21796 -0.167547 1
gene 1 4 13 -1.48872 0 23394 -1.48872 1
gene 1 8 16 1.70357 0 25857 1.70357 1
gene 1 12 19 0.346355 1 27502 0.346355 1
gene 1 5 1126 -1.26936 0 27846 -1.26936 1
gene 1 2 19 -0.434021 0 29918 -0.434021 1
gene 1 9 16 0.226846 0 32396 0.226846 1
gene 1 3 26 -0.174204 0 32686 -0.174204 1
gene 1 15 15 -0.92122 1 33054 -0.92122 1
gene 1 1 13 0.725992 0 35073 0.725992 1
gene 1 2 1707 1.08056 0 35779 0.84056 1
gene 1 19 1707 0.763184 1 36069 0.763184 1
gene 1 7 13 0.0381312 0 36836 0.0381312 1
gene 1 26 26 -0.124965 1 37373 -0.124965 1
gene 1 1126 14 -0.889184 0 37757 -0.889184 1
gene 1 4 26 -0.776582 0 40103 -0.776582 1
gene 1 15 26 0.0267333 1 41260 0.0267333 1
gene 1 5 16 -0.31415 0 42143 -0.31415 1
gene 1 19 14 -0.404506 0 42329 -0.404506 1
gene 1 26 2045 1.09687 0 43246 0.882635 1
gene 1 2045 16 2.46391 0 43247 2.11443 1
gene 1 8 2098 1.9092 0 44618 1.85494 1
gene 1 2098 13 0.155224 0 44619 -0.0445993 1
gene 1 1126 1126 -1.33989 1 45904 -1.33989 1
gene 1 8 13 0.324822 0 46458 0.324822 1
gene 1 11 2045 -0.113636 0 46596 -0.113636 1
gene 1 10 14 -1.18315 0 48228 -1.18315 1
gene 1 26 2098 -0.130779 0 48902 -0.130779 1
gene 1 2 12 0.567975 0 49091 0.567975 1
gene 1 2045 15 0.857103 0 49480 0.857103 1
gene 1 1707 16 -0.866043 0 49651 -0.866043 1
gene 1 10 12 -0.0289509 0 50332 -0.0289509 1
gene 1 6 2098 1.01438 0 50501 1.01438 1
gene 1 2 2098 -0.0855919 0 51278 -0.0855919 1
gene 1 1 1126 -0.630035 0 51436 -0.630035 1
gene 1 11 19 -0.479607 0 52432 -0.479607 1
gene 1 13 2045 -0.796491 0 53573 -0.796491 1
gene 1 19 15 0.174946 0 53865 0.174946 1
gene 1 1126 19 0.119013 0 53997 0.119013 1
gene 1 5 19 0.848396 0 54327 0.848396 1
gene 1 11 13 -0.32344 0 54489 -0.32344 1
gene 1 8 26 -0.396505 0 54789 -0.396505 1
gene 1 6 12 0.46726 0 55097 0.46726 1
genomeend 88
