/* Organism #44535696 Fitness: -0.408464 
genomestart 128
trait 1 0.162695 0.0940859 0.410915 0.851761 0.756648 0.819111 0.332892 0.400954 
node 1 1 0
node 2 1 1
node 3 1 1
node 4 1 1
node 5 1 1
node 6 1 1
node 7 1 1
node 8 1 1
node 9 1 1
node 10 1 1
node 11 1 1
node 12 1 2
node 13 1 2
node 14 1 2
node 15 1 2
node 16 1 2
node 18 1 3
node 1269 1 3
node 1809 1 3
node 1970 1 3
node 2377 1 3
gene 1 4 18 -0.798862 0 32 -0.798862 1
gene 1 6 18 0.98982 0 52 0.98982 1
gene 1 7 18 2.66022 0 62 2.66022 1
gene 1 9 18 -0.797815 0 82 -0.797815 1
gene 1 10 18 -3.34825 0 92 -3.34825 1
gene 1 4 14 5.19659 0 572 5.19659 1
gene 1 9 13 2.34365 0 3327 2.34365 1
gene 1 18 18 -1.18335 1 7170 -1.18335 1
gene 1 15 15 -0.192025 1 11865 -0.192025 1
gene 1 11 13 2.01478 0 15905 2.01478 1
gene 1 10 14 3.25909 0 16292 3.25909 1
gene 1 7 12 -0.323739 0 19258 -0.323739 1
gene 1 9 16 0.473138 0 19763 0.473138 1
gene 1 15 14 0.109668 1 20394 0.109668 1
gene 1 5 1269 2.37095 0 24049 2.37095 1
gene 1 11 1269 1.21537 0 24543 1.21537 1
gene 1 12 1269 -2.18776 0 25252 -2.18776 1
gene 1 12 16 0.123816 0 26074 0.123816 1
gene 1 2 1269 0.200386 0 26472 0.200386 1
gene 1 14 13 0.967144 0 26727 0.967144 1
gene 1 2 18 -0.449377 0 27568 -0.449377 1
gene 1 11 18 -0.365528 0 27819 -0.365528 1
gene 1 13 18 1.92193 1 29920 1.92193 1
gene 1 13 16 -1.73125 0 30545 -1.73125 1
gene 1 5 14 1.76233 0 30883 1.76233 1
gene 1 3 1269 -0.525897 0 30966 -0.525897 1
gene 1 18 13 1.80063 0 31678 1.80063 1
gene 1 5 13 0.967635 0 32206 0.967635 1
gene 1 6 15 -2.04509 0 32377 -2.04509 1
gene 1 1809 12 0.786561 0 33024 0.786561 1
gene 1 18 1809 0.950867 0 33158 0.950867 1
gene 1 1 14 0.501068 0 33283 0.501068 1
gene 1 12 12 -0.748752 1 33372 -0.748752 1
gene 1 18 15 2.00005 0 34727 2.00005 1
gene 1 1970 14 1.01732 0 35906 1.01455 1
gene 1 3 12 -1.08365 0 36020 -1.08365 1
gene 1 5 18 1.12139 0 37060 1.12139 1
gene 1 11 1809 0.417543 0 38054 0.417543 1
gene 1 16 1269 0.0976886 1 38723 0.0976886 1
gene 1 12 15 0.290074 0 39497 0.290074 1
gene 1 1269 14 -0.215507 0 39568 -0.215507 1
gene 1 9 12 -0.196824 0 40198 -0.196824 1
gene 1 10 15 -0.601849 0 40321 -0.601849 1
gene 1 3 1970 0.395739 0 40584 0.395739 1
gene 1 2 1809 0.122136 0 41362 0.122136 1
gene 1 7 14 1.10327 0 41562 1.10327 1
gene 1 9 1269 0.119624 0 42116 0.119624 1
gene 1 2377 15 0.682487 0 42661 0.194374 1
gene 1 1809 2377 0.339894 0 43047 0.339894 1
gene 1 8 1269 0.0535698 0 43182 0.0535698 1
gene 1 1269 15 0.935484 0 43685 0.935484 1
gene 1 15 1970 0.719154 0 43758 0.719154 1
gene 1 12 2377 0.526945 0 44048 0.526945 1
gene 1 2377 13 0.328017 0 44547 0.328017 1
gene 1 7 2377 -0.296172 0 44724 -0.296172 1
gene 1 5 1809 0.509612 0 44870 0.509612 1
gene 1 2377 2377 0.0724706 1 45366 0.0724706 1
gene 1 14 14 -0.619947 1 46015 -0.619947 1
gene 1 11 16 0.367877 0 46299 0.367877 1
genomeend 128
