/* Organism #140077740492808 Fitness: 4634.55 
genomestart 45
trait 1 1 1 0.523843 0.998813 0 0.592977 0.919423 0.724429 
node 1 1 0
node 2 1 1
node 3 1 1
node 4 1 1
node 5 1 1
node 6 1 1
node 7 1 1
node 8 1 1
node 9 1 1
node 10 1 1
node 11 1 1
node 12 1 2
node 13 1 2
node 14 1 2
node 15 1 2
node 16 1 2
node 24 1 3
node 205 1 3
node 2284 1 3
node 2433 1 3
gene 1 4 24 2.9628 0 38 2.9628 1
gene 1 8 24 0.595578 0 78 0.595578 1
gene 1 9 24 -1.75877 0 88 -1.75877 1
gene 1 14 12 0.398873 0 385 0.398873 1
gene 1 5 205 -3.44863 0 3693 -3.44863 1
gene 1 1 14 2.6326 0 12377 2.6326 1
gene 1 13 13 1.07282 1 13842 1.07282 1
gene 1 10 14 -2.88497 0 18797 -2.88497 1
gene 1 15 15 6.18766 1 18931 6.18766 1
gene 1 16 15 0.993488 0 19293 0.993488 1
gene 1 3 13 0.864013 0 21879 0.864013 1
gene 1 6 15 -0.495542 0 22449 -0.495542 1
gene 1 10 205 1.59392 0 24185 1.59392 1
gene 1 4 14 -1.7803 0 24672 -1.7803 1
gene 1 9 14 -0.190955 0 29050 -0.190955 1
gene 1 4 13 2.18839 0 29270 2.18839 1
gene 1 16 205 1.21399 0 31300 1.21399 1
gene 1 6 16 -1.21402 0 33975 -1.21402 1
gene 1 12 13 0.49631 0 34799 0.49631 1
gene 1 9 13 -1.4051 0 35252 -1.4051 1
gene 1 3 12 -0.537853 0 35964 -0.537853 1
gene 1 11 14 -0.320568 0 36110 -0.320568 1
gene 1 24 24 4.74742 1 36970 4.74742 1
gene 1 2 16 0.885554 0 37150 0.885554 1
gene 1 12 12 -0.4868 1 37712 -0.4868 1
gene 1 14 16 3.39074 0 38103 3.39074 1
gene 1 14 14 -1.10136 1 38228 -1.10136 1
gene 1 14 205 -2.98923 0 38345 -2.98923 1
gene 1 205 13 -1.45287 0 38571 -1.45287 1
gene 1 8 14 1.19954 0 43054 1.19954 1
gene 1 3 15 1.57134 0 44445 1.57134 1
gene 1 2 13 0.513166 0 44567 0.513166 1
gene 1 7 13 0.185812 0 45291 0.185812 1
gene 1 5 15 -1.12069 0 45548 -1.12069 1
gene 1 205 2284 0.571813 1 45835 0.571813 1
gene 1 12 2284 -1.88222 0 45912 -1.88222 1
gene 1 2284 2284 -1.14817 1 46431 -1.14817 1
gene 1 2284 16 -1.03197 0 46706 -1.03197 1
gene 1 14 15 1.69178 0 47107 1.69178 1
gene 1 12 205 -0.15279 0 48277 -0.15279 1
gene 1 14 2433 -0.87128 1 48420 -0.87128 1
gene 1 2 205 1.11898 0 48468 1.11898 1
gene 1 10 13 0.628858 0 49267 0.628858 1
gene 1 1 16 0.449552 0 49380 0.449552 1
gene 1 1 205 -0.796686 0 49457 -0.796686 1
genomeend 45
